svm_type c_svc
kernel_type rbf
gamma 0.00031250000000000001
nr_class 2
total_sv 87
rho 0.12320679968584472
label 1 2
nr_sv 34 53
SV
2 1:-0.752876 2:0.661047 3:0.55406 4:0.702595 5:0.444208 6:0.258473 7:0.450205 8:0.544304 9:-0.0507965 10:0.604517 11:0.533578 12:0.090443 13:-0.629091 14:-0.627928 15:-0.658934 16:-0.052368 17:-0.0630413 18:-0.397581 19:-0.10158 20:-0.382008 21:0.500068 22:0.5006 23:0.404524 24:0.643225 25:0.417821 26:-0.762462 27:0.590822 28:-0.398058 29:0.813717 30:0.873105 31:0.100402 32:0.539817 33:-0.195947 34:0.156172 35:-0.0206099 36:0.824846 37:0.898387 38:-0.338566 39:-0.438652 40:0.123667 41:0.27612 42:-0.783562 43:-0.179099 44:0.109159 45:-0.472646 46:-0.0469335 47:-0.198045 48:-0.41379 49:-0.470681 50:-0.167325 51:-0.762462 52:0.590822 53:-0.398058 54:0.813717 55:0.873105 56:0.100402 57:0.539817 58:-0.195947 59:0.156172 60:-0.0206099 61:0.824846 62:0.898387 63:-0.338566 64:-0.438652 65:0.123667 66:0.27612 67:-0.783562 68:-0.179099 69:0.109159 70:-0.472646 71:-0.0469335 72:-0.198045 73:-0.41379 74:-0.470681 75:-0.167325 76:0.137869 77:-0.201281 78:0.188713 79:0.127876 80:0.582537 81:0.478334 82:0.125606 83:0.481941 84:0.314349 85:0.183976 86:-0.0310803 87:-0.54222 88:-0.191302 89:-0.378692 90:0.00700444 91:0.067745 92:0.266428 93:0.0771983 94:0.379763 95:0.269177 96:-0.17783 97:0.334243 98:0.511573 99:0.358015 100:-0.778413 101:-0.28585 102:0.495045 103:-0.500756 104:0.637925 105:0.944214 106:-0.20737 107:0.493856 108:-0.599739 109:0.719902 110:0.444772 111:0.222108 112:-0.245882 113:0.807945 114:-0.186304 115:0.705461 116:-0.364035 117:0.345135 118:-0.514 119:-0.0205919 120:0.0929158 121:0.482323 122:0.090935 123:-0.754307 124:-0.613651 125:-0.0355531 126:0.0928592 127:0.679209 128:0.642338 129:0.477381 130:-0.359247 131:-0.974006 132:-0.897741 133:-0.276396 134:-0.101429 135:0.365358 136:0.375559 137:0.18842 138:0.0723504 139:1 140:-0.2738 141:0.171986 142:0.448882 143:0.086235 144:-0.384684 145:0.613097 146:-0.448847 147:-0.253362 148:-0.445031 149:0.928661 150:-0.51989 151:0.0928592 152:0.679209 153:0.642338 154:0.477381 155:-0.359247 156:-0.974006 157:-0.897741 158:-0.276396 159:-0.101429 160:0.365358 161:0.375559 162:0.18842 163:0.0723504 164:1 165:-0.2738 166:0.171986 167:0.448882 168:0.086235 169:-0.384684 170:0.613097 171:-0.448847 172:-0.253362 173:-0.445031 174:0.928661 175:-0.51989 176:-0.594538 177:0.65266 178:-0.333289 179:0.348852 180:0.45108 181:-0.237939 182:0.467977 183:-0.728464 184:0.554914 185:0.634275 186:0.714801 187:0.106446 188:-0.102048 189:-0.549089 190:-0.0423662 191:0.254507 192:0.121862 193:0.192405 194:-0.393973 195:0.0502172 196:0.685785 197:-0.590677 198:-0.478794 199:-0.0939318 200:0.744453 201:0.970779 202:0.265923 203:-0.353182 204:-0.655731 205:0.00230929 206:0.324422 207:-0.301873 208:-0.0123534 209:0.665326 210:-0.201338 211:0.0154205 212:-0.191692 213:-0.116086 214:-0.372164 215:0.190846 216:-0.353689 217:-0.133232 218:0.190012 219:-0.165685 220:0.00688958 221:0.425054 222:-0.402464 223:-0.163158 224:-0.178048 225:0.489698 226:-0.136343 227:0.952689 228:0.971197 229:0.76117 230:0.390188 231:-0.162809 232:0.246046 233:-0.156736 234:-0.592258 235:-0.413799 236:0.0716202 237:-0.279831 238:-0.928486 239:0.600392 240:0.0286507 241:-0.152231 242:0.302152 243:-0.0359273 244:0.23065 245:-0.56474 246:0.720007 247:0.554389 248:0.448229 249:0.807276 250:-0.915533 251:-0.1657 252:0.360291 253:0.438205 254:0.57377 255:-0.235976 256:-0.0629898 257:-0.832306 258:0.337516 259:0.386846 260:-0.618635 261:0.440776 262:0.178189 263:-0.0899376 264:0.474093 265:-0.44406 266:-0.124655 267:0.59379 268:-0.404736 269:0.442453 270:0.116584 271:-0.238526 272:0.0305047 273:-0.192443 274:-0.273639 275:-0.0263481 276:0.787135 277:0.527544 278:0.548462 279:-0.680357 280:-0.627303 281:0.695618 282:-0.693347 283:-0.624645 284:0.70452 285:-0.453405 286:-0.109969 287:-0.616675 288:-0.101235 289:0.0476391 290:-0.235364 291:-0.597923 292:0.503749 293:0.274596 294:-0.171888 295:-0.100983 296:-0.291627 297:0.207775 298:0.271538 299:-0.352102 300:-0.113173 301:0.787135 302:0.527544 303:0.548462 304:-0.680357 305:-0.627303 306:0.695618 307:-0.693347 308:-0.624645 309:0.70452 310:-0.453405 311:-0.109969 312:-0.616675 313:-0.101235 314:0.0476391 315:-0.235364 316:-0.597923 317:0.503749 318:0.274596 319:-0.171888 320:-0.100983 321:-0.291627 322:0.207775 323:0.271538 324:-0.352102 325:-0.113173 326:-0.695936 327:0.160031 328:-0.486998 329:0.577589 330:0.57916 331:-0.276204 332:0.287996 333:-0.152025 334:0.137772 335:0.304512 336:0.766568 337:0.408886 338:-0.14443 339:-0.321977 340:0.341087 341:-0.133202 342:-0.171053 343:0.0119416 344:-0.00547486 345:-0.13824 346:0.201959 347:0.364384 348:-0.43473 349:-0.0641794 350:-0.453521 351:-0.719988 352:0.608733 353:-0.249293 354:0.599769 355:0.40652 356:-0.220643 357:0.397555 358:-0.346445 359:-0.0657873 360:0.259035 361:0.521171 362:0.5324 363:-0.015616 364:0.0486752 365:-0.294482 366:0.069484 367:0.0446847 368:-0.332033 369:0.08982 370:-0.352008 371:-0.121716 372:-0.231349 373:0.189899 374:-0.0724487 375:0.0373681 376:-0.719988 377:0.608733 378:-0.249293 379:0.599769 380:0.40652 381:-0.220643 382:0.397555 383:-0.346445 384:-0.0657873 385:0.259035 386:0.521171 387:0.5324 388:-0.015616 389:0.0486752 390:-0.294482 391:0.069484 392:0.0446847 393:-0.332033 394:0.08982 395:-0.352008 396:-0.121716 397:-0.231349 398:0.189899 399:-0.0724487 400:0.0373681 401:0.303753 402:0.0462785 403:0.25166 404:0.157612 405:0.137937 406:-0.122552 407:-0.339221 408:0.0887039 409:-0.382868 410:-0.259392 411:0.0626677 412:-0.0229417 413:0.063541 414:-0.659296 415:0.0351516 416:-0.0449541 417:0.169913 418:0.563461 419:-0.252423 420:0.165557 421:0.0960868 422:-0.182898 423:0.0602418 424:-0.324969 425:0.173392 426:0.577502 427:-0.156129 428:0.822389 429:0.279124 430:-0.0820196 431:0.647564 432:-0.365034 433:0.153567 434:-0.0302755 435:0.16817 436:-0.294135 437:-0.283665 438:-0.415099 439:0.53039 440:0.166501 441:0.248943 442:0.227082 443:-0.647021 444:0.209797 445:-0.470197 446:0.00305214 447:-0.313739 448:0.605736 449:0.168512 450:-0.189138 451:-0.168056 452:-0.0213162 453:0.128836 454:0.0667775 455:-0.112743 456:-0.555982 457:-0.0017425 458:-0.122646 459:-0.0780278 460:0.702119 461:-0.332481 462:-0.405132 463:0.0383691 464:-0.0859842 465:0.207547 466:0.797224 467:0.0211698 468:0.772321 469:0.137546 470:-0.596727 471:0.525046 472:-0.246488 473:0.175991 474:0.348848 475:-0.29606 476:-0.193412 477:-0.415026 478:0.434026 479:-0.202641 480:0.822139 481:-0.117184 482:0.37591 483:0.217004 484:-0.169701 485:0.0940846 486:0.401878 487:0.141874 488:-0.458092 489:-0.77907 490:-0.403353 491:-0.0624766 492:0.169402 493:0.245155 494:0.199778 495:0.14215 496:0.730269 497:0.160884 498:0.500831 499:0.485987 500:-0.175666 501:0.0807289 502:-1 503:1 504:-0.94643 505:-0.647843 506:0.922897 507:-0.152726 508:0.63639 509:-0.275455 510:0.769302 511:-1 512:1 513:1 514:-0.0487244 515:-0.472325 516:0.376076 517:-0.978688 518:0.333399 519:-0.680187 520:-0.0625382 521:-1 522:-0.315807 523:-0.219132 524:1 525:0.0629903 526:0.645361 527:-0.250554 528:-0.668258 529:-0.575942 530:0.592188 531:-1 532:0.589237 533:-0.608931 534:-0.0587576 535:0.273686 536:0.043717 537:-0.316398 538:0.524741 539:0.0524058 540:-0.0909413 541:0.907605 542:-0.367654 543:-0.194648 544:-0.622139 545:0.125517 546:0.118969 547:-0.590661 548:-0.239796 549:-0.166396 550:-0.232339 551:0.290081 552:0.809563 553:-0.629759 554:0.197762 555:0.0161074 556:1 557:-0.287883 558:0.0177765 559:-0.602161 560:-0.348167 561:0.985481 562:1 563:0.133829 564:-0.781018 565:-0.191594 566:-0.559616 567:-0.347167 568:-0.204155 569:0.749263 570:0.0734241 571:0.0602071 572:0.0297394 573:0.226269 574:-0.970802 575:-0.490018 576:0.290081 577:0.809563 578:-0.629759 579:0.197762 580:0.0161074 581:1 582:-0.287883 583:0.0177765 584:-0.602161 585:-0.348167 586:0.985481 587:1 588:0.133829 589:-0.781018 590:-0.191594 591:-0.559616 592:-0.347167 593:-0.204155 594:0.749263 595:0.0734241 596:0.0602071 597:0.0297394 598:0.226269 599:-0.970802 600:-0.490018 601:0.373207 602:0.0109092 603:0.287085 604:-0.244879 605:0.323914 606:-0.0412783 607:0.358681 608:-0.0954482 609:-0.262466 610:0.296763 611:-0.556211 612:0.239189 613:-0.125791 614:0.257525 615:0.261111 616:-0.467578 617:0.331238 618:0.432882 619:-0.490782 620:0.427375 621:0.0901413 622:-0.168475 623:-0.533827 624:-0.0887577 625:-0.169753 626:0.514022 627:-0.143241 628:-0.330197 629:0.324185 630:0.000703903 631:0.00095188 632:0.10336 633:0.178016 634:-0.211346 635:-0.182656 636:-0.641699 637:-0.111253 638:-0.153371 639:0.195102 640:-0.129873 641:-0.0513109 642:0.0786492 643:0.253986 644:0.0391556 645:-0.158712 646:0.0539049 647:0.273541 648:-0.264494 649:0.155257 650:-0.492324 651:0.514022 652:-0.143241 653:-0.330197 654:0.324185 655:0.000703903 656:0.00095188 657:0.10336 658:0.178016 659:-0.211346 660:-0.182656 661:-0.641699 662:-0.111253 663:-0.153371 664:0.195102 665:-0.129873 666:-0.0513109 667:0.0786492 668:0.253986 669:0.0391556 670:-0.158712 671:0.0539049 672:0.273541 673:-0.264494 674:0.155257 675:-0.492324 676:-0.835297 677:0.260016 678:-0.456407 679:0.740875 680:0.614192 681:0.226949 682:0.569964 683:0.116262 684:0.550677 685:0.379444 686:0.350216 687:0.812371 688:-0.303029 689:0.0852011 690:-0.467944 691:-0.449795 692:0.0837184 693:-0.16534 694:0.0889697 695:-0.168808 696:0.204841 697:-0.286481 698:-0.252324 699:0.049556 700:0.0592769 701:-0.835297 702:0.260016 703:-0.456407 704:0.740875 705:0.614192 706:0.226949 707:0.569964 708:0.116262 709:0.550677 710:0.379444 711:0.350216 712:0.812371 713:-0.303029 714:0.0852011 715:-0.467944 716:-0.449795 717:0.0837184 718:-0.16534 719:0.0889697 720:-0.168808 721:0.204841 722:-0.286481 723:-0.252324 724:0.049556 725:0.0592769 726:-0.932118 727:0.574947 728:0.327537 729:0.668009 730:0.438717 731:-0.45486 732:0.343039 733:0.0221057 734:0.0398463 735:0.850792 736:0.912123 737:0.776028 738:0.127809 739:-0.0895768 740:-0.154072 741:0.127924 742:-0.123047 743:0.321135 744:0.0754084 745:-0.265839 746:-0.0729773 747:-0.0146785 748:-0.397123 749:-0.133506 750:0.0751656 751:-0.324246 752:-0.288747 753:-0.300765 754:0.239878 755:0.265251 756:0.0806182 757:0.484095 758:0.359678 759:-0.0168565 760:0.113991 761:0.994212 762:0.561287 763:-0.482277 764:-0.0453138 765:-0.170626 766:0.422169 767:0.43873 768:-0.374667 769:0.202191 770:0.261487 771:-0.327543 772:0.328649 773:-0.180934 774:-0.0265286 775:0.542784 776:-0.324246 777:-0.288747 778:-0.300765 779:0.239878 780:0.265251 781:0.0806182 782:0.484095 783:0.359678 784:-0.0168565 785:0.113991 786:0.994212 787:0.561287 788:-0.482277 789:-0.0453138 790:-0.170626 791:0.422169 792:0.43873 793:-0.374667 794:0.202191 795:0.261487 796:-0.327543 797:0.328649 798:-0.180934 799:-0.0265286 800:0.542784 801:0.539433 802:-1 803:0.306906 804:0.161605 805:0.0285118 806:0.299464 807:-0.297661 808:-0.129558 809:0.338457 810:0.198108 811:0.0230509 812:-0.116692 813:-0.260208 814:-0.71563 815:0.938578 816:-0.121868 817:-0.165147 818:0.120792 819:-0.411889 820:0.410681 821:-0.181146 822:0.0864184 823:-0.0537145 824:-0.0464224 825:0.216194 826:0.367731 827:0.371923 828:0.0935581 829:0.198924 830:-0.471859 831:0.0349285 832:-0.386175 833:0.0595024 834:-0.137117 835:0.0439812 836:-0.298113 837:-0.518847 838:-0.152088 839:0.894643 840:-0.322046 841:0.0187428 842:-0.146824 843:-0.0318343 844:0.19318 845:0.0752458 846:-0.612045 847:0.244626 848:-0.29712 849:-0.0683539 850:-0.407886 851:0.185561 852:0.197652 853:0.654075 854:-0.426108 855:0.486542 856:-0.145878 857:-0.167229 858:0.724856 859:-0.280755 860:0.035759 861:0.189192 862:-0.01814 863:-0.046318 864:-0.588479 865:0.325835 866:0.0116648 867:-0.334652 868:0.197957 869:-0.156416 870:0.014404 871:0.454368 872:-0.199403 873:-0.423162 874:-0.468581 875:0.30481 876:0.635566 877:-0.514395 878:0.837379 879:-0.340785 880:-0.383873 881:0.90942 882:-0.47521 883:-0.474736 884:0.3758 885:0.0957386 886:-0.596395 887:0.681301 888:-0.29945 889:0.701744 890:0.489149 891:0.982395 892:-0.350761 893:-0.286544 894:-0.0859163 895:0.863082 896:-0.27165 897:0.121927 898:0.784175 899:-0.293677 900:0.0666954 901:0.682116 902:0.613848 903:0.51733 904:0.609377 905:-0.116728 906:-0.211532 907:0.277323 908:0.204424 909:-0.818418 910:0.0256405 911:-0.23453 912:-0.284238 913:0.247595 914:0.522556 915:0.129717 916:-0.0558471 917:0.354191 918:-0.28684 919:0.0544389 920:-0.822777 921:0.703188 922:-0.454591 923:0.423311 924:-0.115968 925:-0.559554 926:0.458225 927:0.237573 928:0.295849 929:0.00927276 930:0.768686 931:0.135543 932:0.296587 933:0.0168917 934:0.0512726 935:-0.136781 936:-0.20862 937:0.0391283 938:0.246859 939:-0.234782 940:-0.00565153 941:-0.390379 942:0.190213 943:-0.00421831 944:0.00748758 945:-0.211882 946:-0.00964504 947:0.381313 948:0.0855612 949:0.345568 950:-0.181882 951:0.293559 952:0.440877 953:0.35905 954:-0.14152 955:-0.368038 956:-0.135714 957:-0.279676 958:-0.0709155 959:0.0178914 960:-0.168564 961:-0.239906 962:-0.281228 963:-0.20215 964:0.113971 965:0.498068 966:0.348803 967:-0.312778 968:0.24337 969:0.00878332 970:-0.264021 971:-0.583627 972:0.126684 973:0.0393012 974:-0.423172 975:-0.221929 976:-0.611384 977:-0.374144 978:0.475825 979:-0.217432 980:0.79448 981:-0.315838 982:0.291296 983:0.150496 984:0.0643777 985:0.125302 986:0.614216 987:0.605754 988:-0.0253575 989:0.210415 990:-0.410248 991:-0.303628 992:-0.211428 993:-0.3942 994:-0.229602 995:0.0369369 996:0.194801 997:0.210369 998:-0.123971 999:-0.197771 1000:0.329512 1001:0.0445531 1002:0.231612 1003:0.522495 1004:-0.0521022 1005:-0.440659 1006:0.0666388 1007:-0.406478 1008:0.186306 1009:-0.220617 1010:0.0657383 1011:-0.379621 1012:0.193916 1013:-0.190075 1014:-0.463242 1015:0.220746 1016:0.340287 1017:-0.185325 1018:1 1019:0.0331656 1020:0.125587 1021:-0.148773 1022:0.144759 1023:-0.45569 1024:-0.26399 1025:0.77356 1026:0.536289 1027:-0.0137544 1028:-0.392642 1029:-0.237762 1030:0.467155 1031:-0.160989 1032:-0.319017 1033:-0.466892 1034:0.105629 1035:-0.0779759 1036:0.36233 1037:-0.334961 1038:-0.340831 1039:-0.0625526 1040:0.353841 1041:0.165266 1042:0.350458 1043:0.451689 1044:0.214768 1045:-0.245085 1046:0.405275 1047:-0.200739 1048:0.68316 1049:-0.0420526 1050:-0.0459436 1051:0.340823 1052:-0.887553 1053:0.199816 1054:-0.534589 1055:-0.501906 1056:0.410719 1057:0.4092 1058:-0.101866 1059:-0.27624 1060:-0.241764 1061:-0.0970466 1062:-0.19854 1063:-0.381958 1064:0.515468 1065:0.119632 1066:-0.271194 1067:-0.283412 1068:-0.613906 1069:0.350242 1070:0.186412 1071:-0.0432105 1072:0.0208887 1073:-0.0923651 1074:-0.0734755 1075:0.178884 1076:-0.0116063 1077:-0.211188 1078:-0.282897 1079:0.425356 1080:0.406789 1081:-0.60881 1082:0.360766 1083:0.0357096 1084:-0.470859 1085:0.167119 1086:-0.0840144 1087:0.338571 1088:0.119745 1089:0.258139 1090:-0.124684 1091:0.0803718 1092:0.128368 1093:-0.509665 1094:0.0647917 1095:0.115087 1096:-0.309438 1097:0.296306 1098:-0.115619 1099:0.117336 1100:0.0596186 1101:0.80685 1102:-0.5567 1103:-0.359375 1104:-0.358324 1105:0.396822 1106:-0.283088 1107:1 1108:-0.239658 1109:-0.144259 1110:0.0902046 1111:0.0874477 1112:-0.185823 1113:-0.0631164 1114:0.159615 1115:0.182839 1116:0.0822351 1117:-0.348968 1118:-0.783605 1119:0.0487987 1120:-0.174926 1121:-0.163192 1122:-0.066934 1123:-0.677323 1124:0.0263397 1125:-0.213359 1126:-0.304958 1127:0.292565 1128:0.225095 1129:0.0253742 1130:0.790421 1131:0.098396 1132:0.216275 1133:0.152829 1134:0.614666 1135:0.234588 1136:0.389261 1137:0.548539 1138:-0.352883 1139:0.202193 1140:0.116731 1141:-0.105785 1142:0.0946757 1143:0.0550737 1144:0.117207 1145:0.0937028 1146:-0.119593 1147:0.00543507 1148:-0.284624 1149:0.216901 1150:-0.423932 1151:-0.0491438 1152:-1 1153:1 1154:0.929844 1155:0.0191323 1156:0.985883 1157:1 1158:0.446987 1159:0.333714 1160:0.779844 1161:0.213063 1162:-0.585835 1163:1 1164:0.821072 1165:1 1166:-0.314778 1167:-0.546226 1168:-0.902695 1169:-1 1170:0.722948 1171:-0.550497 1172:1 1173:0.0363117 1174:-0.290928 1175:0.960312 1176:-0.0491438 1177:-1 1178:1 1179:0.929844 1180:0.0191323 1181:0.985883 1182:1 1183:0.446987 1184:0.333714 1185:0.779844 1186:0.213063 1187:-0.585835 1188:1 1189:0.821072 1190:1 1191:-0.314778 1192:-0.546226 1193:-0.902695 1194:-1 1195:0.722948 1196:-0.550497 1197:1 1198:0.0363117 1199:-0.290928 1200:0.960312 1201:-0.747027 1202:0.454856 1203:-0.0639524 1204:0.749882 1205:0.698756 1206:-0.21288 1207:0.427994 1208:-0.249657 1209:0.353135 1210:0.621356 1211:0.224857 1212:0.587235 1213:0.131951 1214:-0.0529711 1215:-0.32837 1216:0.143714 1217:-0.0391591 1218:-0.407469 1219:0.201005 1220:0.14962 1221:0.438297 1222:0.131925 1223:0.0423786 1224:-0.38106 1225:-0.496552 1226:-0.317979 1227:0.242478 1228:-0.0575651 1229:0.70048 1230:0.617344 1231:-0.382699 1232:0.331258 1233:-0.326187 1234:-0.384307 1235:-0.366522 1236:0.433088 1237:0.335713 1238:0.151197 1239:-0.340351 1240:0.122691 1241:-0.226969 1242:0.196043 1243:-0.0384256 1244:0.162599 1245:0.26682 1246:0.205494 1247:-0.00476049 1248:-0.53322 1249:-0.757432 1250:0.138955 1251:-0.317979 1252:0.242478 1253:-0.0575651 1254:0.70048 1255:0.617344 1256:-0.382699 1257:0.331258 1258:-0.326187 1259:-0.384307 1260:-0.366522 1261:0.433088 1262:0.335713 1263:0.151197 1264:-0.340351 1265:0.122691 1266:-0.226969 1267:0.196043 1268:-0.0384256 1269:0.162599 1270:0.26682 1271:0.205494 1272:-0.00476049 1273:-0.53322 1274:-0.757432 1275:0.138955 1276:0.572441 1277:0.521308 1278:0.502191 1279:-0.425233 1280:0.171595 1281:-0.518373 1282:-0.0374827 1283:-0.101274 1284:0.710408 1285:0.0934851 1286:-0.127427 1287:-0.368318 1288:-0.296382 1289:0.15395 1290:0.446092 1291:0.071988 1292:-0.2232 1293:-0.177526 1294:0.51353 1295:0.716063 1296:0.207307 1297:-0.801651 1298:-0.619384 1299:-0.0416738 1300:-0.529753 1301:0.572441 1302:0.521308 1303:0.502191 1304:-0.425233 1305:0.171595 1306:-0.518373 1307:-0.0374827 1308:-0.101274 1309:0.710408 1310:0.0934851 1311:-0.127427 1312:-0.368318 1313:-0.296382 1314:0.15395 1315:0.446092 1316:0.071988 1317:-0.2232 1318:-0.177526 1319:0.51353 1320:0.716063 1321:0.207307 1322:-0.801651 1323:-0.619384 1324:-0.0416738 1325:-0.529753 1326:-0.977638 1327:0.610605 1328:-0.114362 1329:0.428129 1330:0.75001 1331:-0.0702943 1332:0.508409 1333:-0.00350136 1334:0.0957794 1335:0.593202 1336:0.758817 1337:0.755684 1338:0.0950015 1339:0.467182 1340:0.00107127 1341:0.337605 1342:-0.0612966 1343:-0.00395475 1344:-0.160314 1345:-0.192652 1346:0.302106 1347:0.340283 1348:0.0093255 1349:0.336502 1350:-0.0190119 1351:-0.977638 1352:0.610605 1353:-0.114362 1354:0.428129 1355:0.75001 1356:-0.0702943 1357:0.508409 1358:-0.00350136 1359:0.0957794 1360:0.593202 1361:0.758817 1362:0.755684 1363:0.0950015 1364:0.467182 1365:0.00107127 1366:0.337605 1367:-0.0612966 1368:-0.00395475 1369:-0.160314 1370:-0.192652 1371:0.302106 1372:0.340283 1373:0.0093255 1374:0.336502 1375:-0.0190119 1376:0.477655 1377:-1 1378:0.0836393 1379:0.166634 1380:-0.433108 1381:0.2273 1382:0.0734149 1383:0.0919362 1384:0.408205 1385:0.0783768 1386:-0.492259 1387:-0.735296 1388:-0.0986856 1389:-0.35825 1390:0.197808 1391:-0.161567 1392:-0.0752561 1393:-0.356269 1394:-0.48029 1395:0.305659 1396:-0.0200595 1397:0.327598 1398:-0.160375 1399:0.173869 1400:1 1401:0.477655 1402:-1 1403:0.0836393 1404:0.166634 1405:-0.433108 1406:0.2273 1407:0.0734149 1408:0.0919362 1409:0.408205 1410:0.0783768 1411:-0.492259 1412:-0.735296 1413:-0.0986856 1414:-0.35825 1415:0.197808 1416:-0.161567 1417:-0.0752561 1418:-0.356269 1419:-0.48029 1420:0.305659 1421:-0.0200595 1422:0.327598 1423:-0.160375 1424:0.173869 1425:1 1426:0.298263 1427:-0.435824 1428:0.9337 1429:-0.226922 1430:-0.577365 1431:-0.184284 1432:-0.199865 1433:0.345227 1434:-0.156727 1435:-0.173032 1436:-0.547372 1437:0.200179 1438:-0.241613 1439:-0.0637885 1440:0.16037 1441:-0.125011 1442:-0.161291 1443:-0.116261 1444:-0.328342 1445:-0.0701498 1446:-0.0156464 1447:-0.0328612 1448:-0.24525 1449:0.0645078 1450:0.279831 1451:0.298263 1452:-0.435824 1453:0.9337 1454:-0.226922 1455:-0.577365 1456:-0.184284 1457:-0.199865 1458:0.345227 1459:-0.156727 1460:-0.173032 1461:-0.547372 1462:0.200179 1463:-0.241613 1464:-0.0637885 1465:0.16037 1466:-0.125011 1467:-0.161291 1468:-0.116261 1469:-0.328342 1470:-0.0701498 1471:-0.0156464 1472:-0.0328612 1473:-0.24525 1474:0.0645078 1475:0.279831 1476:-0.811991 1477:0.287739 1478:-1 1479:0.0353049 1480:-0.106473 1481:0.134621 1482:0.977244 1483:-0.587588 1484:0.430472 1485:-0.392862 1486:0.674818 1487:-0.0347929 1488:-0.383364 1489:-0.0696068 1490:-0.465555 1491:-0.242408 1492:0.274266 1493:0.687208 1494:0.315873 1495:-0.508134 1496:-0.967192 1497:-0.662911 1498:0.454043 1499:0.564259 1500:-0.354553 1501:-0.811991 1502:0.287739 1503:-1 1504:0.0353049 1505:-0.106473 1506:0.134621 1507:0.977244 1508:-0.587588 1509:0.430472 1510:-0.392862 1511:0.674818 1512:-0.0347929 1513:-0.383364 1514:-0.0696068 1515:-0.465555 1516:-0.242408 1517:0.274266 1518:0.687208 1519:0.315873 1520:-0.508134 1521:-0.967192 1522:-0.662911 1523:0.454043 1524:0.564259 1525:-0.354553 1526:-0.0747821 1527:0.335339 1528:-0.124274 1529:0.872253 1530:0.530963 1531:-0.0432535 1532:0.600058 1533:0.0361757 1534:-0.135535 1535:0.155778 1536:0.439127 1537:-0.191804 1538:0.0125221 1539:-0.60163 1540:-0.334113 1541:-0.117015 1542:0.0879423 1543:-0.252058 1544:-0.187861 1545:0.415078 1546:-0.102207 1547:-0.399826 1548:0.215371 1549:0.545795 1550:-0.17773 1551:-0.470146 1552:0.0302225 1553:-0.226598 1554:-0.0496475 1555:0.0892041 1556:0.08175 1557:0.620721 1558:-0.0567181 1559:0.0741699 1560:-0.231905 1561:0.202808 1562:0.218858 1563:-0.0859657 1564:-0.303108 1565:-0.6126 1566:-0.0214738 1567:-0.270543 1568:-0.451435 1569:0.0221585 1570:-0.205753 1571:-0.446567 1572:0.142781 1573:0.373353 1574:0.421754 1575:0.0748531 1576:-0.470146 1577:0.0302225 1578:-0.226598 1579:-0.0496475 1580:0.0892041 1581:0.08175 1582:0.620721 1583:-0.0567181 1584:0.0741699 1585:-0.231905 1586:0.202808 1587:0.218858 1588:-0.0859657 1589:-0.303108 1590:-0.6126 1591:-0.0214738 1592:-0.270543 1593:-0.451435 1594:0.0221585 1595:-0.205753 1596:-0.446567 1597:0.142781 1598:0.373353 1599:0.421754 1600:0.0748531 1601:0.218116 1602:0.189296 1603:0.289698 1604:0.293279 1605:-0.131347 1606:0.154212 1607:-0.513118 1608:-0.0563506 1609:0.179829 1610:-0.337079 1611:0.475728 1612:0.121897 1613:0.396674 1614:0.176776 1615:-0.287087 1616:-0.0441027 1617:0.122814 1618:-0.0377307 1619:0.0790914 1620:0.091898 1621:-0.379466 1622:0.321228 1623:0.210665 1624:0.34999 1625:0.0623255 1626:0.295177 1627:-0.90274 1628:0.134842 1629:-0.180797 1630:-0.40635 1631:0.160922 1632:-0.219424 1633:0.375404 1634:0.207463 1635:-0.0313847 1636:-0.189903 1637:0.0283344 1638:0.174095 1639:0.420692 1640:-0.279012 1641:-0.0612586 1642:0.193552 1643:-0.458032 1644:0.153486 1645:-0.236356 1646:0.0536631 1647:-0.0598533 1648:-0.361334 1649:0.193816 1650:0.0626306 1651:0.166032 1652:0.449619 1653:-0.0243517 1654:-0.827963 1655:-0.178706 1656:0.0626423 1657:-0.14886 1658:0.368032 1659:0.595466 1660:-0.152463 1661:-0.664991 1662:-0.491731 1663:0.286925 1664:0.945291 1665:-0.328967 1666:0.771528 1667:-0.358116 1668:0.154073 1669:0.431207 1670:-0.0549531 1671:-0.776591 1672:0.659298 1673:-0.041259 1674:-0.287683 1675:-0.986146 1676:0.0406613 1677:0.0429393 1678:-0.320534 1679:-0.403525 1680:0.453993 1681:-0.464708 1682:0.483524 1683:0.128166 1684:0.155269 1685:-0.219466 1686:0.540532 1687:-0.0820876 1688:0.0322486 1689:-0.36366 1690:-0.169785 1691:-0.14528 1692:-0.273064 1693:0.201674 1694:-0.481413 1695:0.195633 1696:0.286014 1697:0.222275 1698:-0.512608 1699:-0.20768 1700:0.831711 1701:0.552759 1702:-0.0993008 1703:0.324771 1704:0.163871 1705:-0.296975 1706:0.188007 1707:-0.273526 1708:0.425345 1709:-0.0184723 1710:0.416358 1711:-0.132981 1712:-0.511126 1713:0.115757 1714:-0.695552 1715:-0.422558 1716:0.360103 1717:-0.448151 1718:0.448642 1719:-0.417263 1720:0.42266 1721:-0.0636002 1722:0.488953 1723:-0.109242 1724:0.0347516 1725:0.179246 1726:0.347253 1727:-0.139932 1728:0.11816 1729:0.14738 1730:0.0184399 1731:-0.195669 1732:-0.177715 1733:0.327084 1734:0.386863 1735:-0.460366 1736:0.0888877 1737:-0.631912 1738:-0.200827 1739:-0.164281 1740:0.0411579 1741:-0.347393 1742:0.0823465 1743:0.561669 1744:-0.0891316 1745:-0.0314723 1746:0.474634 1747:-0.285307 1748:0.213338 1749:-0.197055 1750:0.176162 1751:0.046414 1752:0.00322925 1753:0.202687 1754:0.484183 1755:0.211018 1756:-0.691898 1757:-0.701111 1758:0.486911 1759:-0.353992 1760:0.623395 1761:0.208936 1762:-0.11583 1763:0.13338 1764:0.285087 1765:-0.254603 1766:-1 1767:0.630806 1768:-0.23826 1769:0.715581 1770:-0.738385 1771:0.090284 1772:-0.150463 1773:0.0618849 1774:0.0437133 1775:-1 1776:0.221241 1777:0.270584 1778:0.628691 1779:0.164373 1780:-0.367519 1781:0.207638 1782:-0.346078 1783:-0.172495 1784:-0.042768 1785:0.0557755 1786:-0.759494 1787:0.246743 1788:-0.310613 1789:-0.479776 1790:0.942213 1791:-0.114515 1792:-0.452824 1793:-0.465357 1794:0.101667 1795:-0.387461 1796:0.766867 1797:0.0963008 1798:-0.228521 1799:0.33613 1800:-0.0798375 1801:-0.467914 1802:0.600749 1803:-0.477452 1804:-0.117805 1805:0.762383 1806:-0.262716 1807:0.667426 1808:-0.755571 1809:0.153974 1810:-0.575445 1811:-0.0159193 1812:0.0545855 1813:-0.366725 1814:-0.00660643 1815:0.158773 1816:0.238503 1817:-0.230091 1818:0.181294 1819:-0.171689 1820:0.447133 1821:-0.0465504 1822:-0.207803 1823:-0.504191 1824:-0.18155 1825:0.706266 1826:0.251533 1827:0.133954 1828:0.829873 1829:0.355812 1830:-0.719347 1831:0.666253 1832:-0.647923 1833:-0.323064 1834:-0.203255 1835:-0.521493 1836:-0.0975173 1837:0.0754823 1838:-0.573147 1839:0.280247 1840:-0.397935 1841:0.2092 1842:0.382879 1843:-1 1844:0.258297 1845:-0.225582 1846:0.453444 1847:-0.11191 1848:-0.308879 1849:-0.177992 1850:0.554667 1851:0.922353 1852:-0.994394 1853:0.10555 1854:0.0466034 1855:0.553502 1856:0.157647 1857:-0.260702 1858:-1 1859:0.844137 1860:-0.596713 1861:-0.709111 1862:0.201219 1863:0.258184 1864:-0.297067 1865:0.469909 1866:0.0196528 1867:0.765503 1868:0.11321 1869:-0.272473 1870:-0.211556 1871:0.353001 1872:-0.473563 1873:0.0634129 1874:0.151718 1875:-0.545265 1876:-1 1877:0.586158 1878:-0.677129 1879:-0.191701 1880:0.33329 1881:-0.657975 1882:0.673194 1883:-0.0917443 1884:0.102819 1885:-0.25348 1886:-0.412726 1887:-0.401156 1888:0.479542 1889:-0.23178 1890:0.0194572 1891:0.466998 1892:0.218532 1893:-0.299565 1894:-0.409737 1895:0.0895402 1896:0.160003 1897:0.192054 1898:0.205812 1899:0.0695776 1900:-0.78359 1901:0.535808 1902:0.277999 1903:0.734016 1904:0.0722887 1905:-0.321011 1906:0.301772 1907:-0.000801638 1908:0.0571734 1909:-0.655548 1910:0.289947 1911:-0.698619 1912:-0.257886 1913:-0.179739 1914:0.476811 1915:0.109057 1916:-0.431247 1917:0.125201 1918:0.0485554 1919:0.411576 1920:-0.0470439 1921:0.0442411 1922:0.0280545 1923:0.0871016 1924:0.0913305 1925:0.193228 1926:1 1927:-0.225397 1928:-0.219417 1929:-0.501291 1930:-0.296669 1931:0.112347 1932:-0.154725 1933:-0.267747 1934:-0.145585 1935:-0.122566 1936:0.426958 1937:-0.230758 1938:-0.278916 1939:0.197612 1940:-0.230811 1941:-0.650252 1942:0.389497 1943:-0.733412 1944:-0.0660346 1945:-0.589802 1946:-0.451652 1947:-0.160369 1948:0.823192 1949:-0.283767 1950:0.178505 1951:0.480408 1952:0.283727 1953:0.560425 1954:-0.199407 1955:-0.374699 1956:-0.179085 1957:-0.356299 1958:0.118232 1959:-0.407213 1960:0.0412636 1961:-0.239722 1962:0.11724 1963:0.0543634 1964:0.0520316 1965:-0.451001 1966:0.0448964 1967:-0.220913 1968:-0.121179 1969:-0.110183 1970:-0.201996 1971:0.331609 1972:-0.0630013 1973:-0.141598 1974:-0.0275936 1975:-0.0923128 1976:-0.471737 1977:0.0408542 1978:-0.093103 1979:-0.380188 1980:0.680914 1981:-0.120517 1982:-0.187523 1983:0.211875 1984:0.332251 1985:-0.0270565 1986:0.14429 1987:0.0576465 1988:0.537617 1989:0.641242 1990:-0.00339843 1991:0.0704997 1992:-0.325426 1993:0.476007 1994:-0.420439 1995:-0.100762 1996:-0.382863 1997:-0.258921 1998:-0.474434 1999:-0.30683 2000:0.330691 2001:0.559131 2002:0.12534 2003:0.839244 2004:-0.171681 2005:-0.55985 2006:0.431647 2007:-0.439296 2008:-0.0805085 2009:-0.720092 2010:0.185388 2011:-0.697832 2012:-0.271024 2013:0.0417664 2014:-0.0978277 2015:0.51155 2016:0.201846 2017:0.270626 2018:0.154411 2019:-0.279899 2020:0.221084 2021:0.045909 2022:-0.0154563 2023:-0.189716 2024:0.289395 2025:-0.0111366 2026:-0.330798 2027:-0.11113 2028:-0.110034 2029:0.302233 2030:0.581363 2031:0.226694 2032:0.315856 2033:0.487422 2034:-0.132147 2035:0.0868827 2036:0.0584945 2037:0.0235429 2038:0.0655646 2039:-0.0234642 2040:-0.360043 2041:0.182838 2042:0.131605 2043:0.118428 2044:0.235229 2045:0.349584 2046:-0.0575348 2047:-0.224915 2048:-0.675506 2049:-0.346782 2050:0.642182 2051:0.67995 2052:-0.313748 2053:-0.926899 2054:0.201015 2055:0.0481641 2056:-0.571214 2057:0.625146 2058:-0.298753 2059:-0.337111 2060:-0.131436 2061:-0.117503 2062:-0.46052 2063:-0.208812 2064:0.30302 2065:-0.884767 2066:0.86544 2067:-0.195758 2068:0.127908 2069:-0.735053 2070:-0.462022 2071:0.359233 2072:-0.186922 2073:0.367974 2074:-0.195008 2075:0.287959 2076:0.624025 2077:0.647436 2078:0.576654 2079:0.0837565 2080:0.76191 2081:0.0655807 2082:0.260226 2083:0.408794 2084:0.110146 2085:-0.558532 2086:0.0860427 2087:0.212711 2088:-0.14482 2089:0.0787351 2090:0.00308448 2091:0.471899 2092:0.0727304 2093:-0.230226 2094:-0.134139 2095:-0.667357 2096:-0.461194 2097:-0.285862 2098:0.533433 2099:0.340908 2100:-0.021734 2101:0.320987 2102:0.620499 2103:0.363018 2104:0.118677 2105:0.00649448 2106:0.133008 2107:-0.450817 2108:0.232922 2109:-0.317351 2110:-0.260654 2111:-0.351101 2112:-0.1756 2113:0.390823 2114:0.211261 2115:0.52536 2116:0.439291 2117:-0.641759 2118:0.582024 2119:-0.608798 2120:0.33819 2121:-0.40763 2122:-0.377248 2123:-0.43775 2124:0.0226207 2125:0.277457 2126:-0.686939 2127:0.0741906 2128:-0.855116 2129:0.168397 2130:0.167473 2131:-0.0408639 2132:0.598756 2133:-0.718892 2134:0.205238 2135:0.076206 2136:0.617506 2137:0.443857 2138:-0.237169 2139:-0.179421 2140:-0.357492 2141:0.322371 2142:-0.0398297 2143:0.0766833 2144:0.225669 2145:-0.416329 2146:-0.328636 2147:-0.00546976 2148:-0.436445 2149:-0.00117125 2150:0.3969 2151:-0.427347 2152:0.764529 2153:0.356163 2154:0.0176601 2155:0.615778 2156:-0.257105 2157:0.142284 2158:-0.325227 2159:-0.516291 2160:-0.114503 2161:-0.420826 2162:-0.242255 2163:-0.193991 2164:0.0466779 2165:-0.21196 2166:-0.634104 2167:0.0425644 2168:0.416845 2169:0.115422 2170:0.145427 2171:-0.157683 2172:0.0147426 2173:-0.296319 2174:-0.0941677 2175:0.144628 2176:-0.0332257 2177:-0.224763 2178:-0.458661 2179:-0.681753 2180:0.471338 2181:-0.407143 2182:-0.103678 2183:-0.226487 2184:0.157748 2185:-0.359228 2186:-0.112446 2187:0.0321288 2188:0.431137 2189:-0.22704 2190:-0.512527 2191:-0.25769 2192:0.441855 2193:-0.295972 2194:0.0777811 2195:-0.642486 2196:-0.196461 2197:0.499408 2198:0.373744 2199:-0.450911 2200:-0.222962 2201:0.0821371 2202:-1 2203:0.832374 2204:-0.225575 2205:-0.41074 2206:0.802634 2207:-0.428073 2208:1 2209:0.724859 2210:0.622371 2211:-0.7952 2212:0.0107366 2213:-0.330363 2214:1 2215:-0.526532 2216:-0.945055 2217:0.265309 2218:-0.289888 2219:0.143719 2220:-0.463461 2221:-0.835939 2222:0.762972 2223:-0.442382 2224:-0.14117 2225:0.824311 2226:0.0468478 2227:-0.990942 2228:-0.707492 2229:-0.290006 2230:-0.515125 2231:0.278667 2232:-0.214567 2233:-0.381543 2234:0.226222 2235:-0.598436 2236:-0.629514 2237:0.0876299 2238:-0.127367 2239:0.542732 2240:-0.0746384 2241:-0.130513 2242:0.346947 2243:-0.598519 2244:0.0723713 2245:0.19909 2246:-0.326361 2247:-0.255399 2248:0.244456 2249:0.424188 2250:-0.536174 2251:0.489632 2252:-0.590572 2253:0.63642 2254:-0.164372 2255:-0.429423 2256:0.758856 2257:-0.193357 2258:0.0670223 2259:0.525814 2260:0.0733144 2261:-0.307942 2262:0.062236 2263:0.56892 2264:-0.634592 2265:0.334997 2266:0.601436 2267:-0.790839 2268:0.10078 2269:-1 2270:-0.415149 2271:0.872209 2272:-0.664534 2273:0.152269 2274:1 2275:-0.0584572 2276:0.489632 2277:-0.590572 2278:0.63642 2279:-0.164372 2280:-0.429423 2281:0.758856 2282:-0.193357 2283:0.0670223 2284:0.525814 2285:0.0733144 2286:-0.307942 2287:0.062236 2288:0.56892 2289:-0.634592 2290:0.334997 2291:0.601436 2292:-0.790839 2293:0.10078 2294:-1 2295:-0.415149 2296:0.872209 2297:-0.664534 2298:0.152269 2299:1 2300:-0.0584572 2301:-0.236745 2302:-0.15502 2303:-0.41868 2304:-0.060464 2305:0.459106 2306:0.278221 2307:-0.163585 2308:-0.296966 2309:0.0532419 2310:0.59952 2311:0.262033 2312:0.536285 2313:0.110876 2314:-0.218179 2315:-0.222073 2316:-0.111969 2317:0.312982 2318:0.050086 2319:-0.0253151 2320:-0.135515 2321:0.21767 2322:0.20895 2323:0.317147 2324:0.225574 2325:-0.131358 2326:-0.236745 2327:-0.15502 2328:-0.41868 2329:-0.060464 2330:0.459106 2331:0.278221 2332:-0.163585 2333:-0.296966 2334:0.0532419 2335:0.59952 2336:0.262033 2337:0.536285 2338:0.110876 2339:-0.218179 2340:-0.222073 2341:-0.111969 2342:0.312982 2343:0.050086 2344:-0.0253151 2345:-0.135515 2346:0.21767 2347:0.20895 2348:0.317147 2349:0.225574 2350:-0.131358 2351:-0.587907 2352:0.00619274 2353:-0.710996 2354:0.525164 2355:0.433363 2356:0.0534049 2357:0.542457 2358:-0.0199675 2359:0.298891 2360:0.358374 2361:0.00207398 2362:0.423358 2363:-0.40222 2364:-0.0961466 2365:0.13706 2366:-0.212503 2367:-0.190304 2368:0.277764 2369:-0.121329 2370:-0.0583277 2371:0.0120869 2372:0.237633 2373:-0.0644499 2374:-0.119804 2375:0.20054 2376:-0.885131 2377:-0.216667 2378:-0.647318 2379:0.749636 2380:0.281203 2381:-0.278253 2382:0.749559 2383:-0.0603512 2384:0.0793169 2385:0.0318007 2386:0.208319 2387:0.677906 2388:0.0424048 2389:0.268344 2390:-0.207805 2391:-0.13545 2392:-0.260515 2393:-0.064779 2394:-0.0757841 2395:-0.0484635 2396:0.226973 2397:0.131302 2398:0.0793116 2399:-0.430074 2400:-0.0797863 2401:-0.885131 2402:-0.216667 2403:-0.647318 2404:0.749636 2405:0.281203 2406:-0.278253 2407:0.749559 2408:-0.0603512 2409:0.0793169 2410:0.0318007 2411:0.208319 2412:0.677906 2413:0.0424048 2414:0.268344 2415:-0.207805 2416:-0.13545 2417:-0.260515 2418:-0.064779 2419:-0.0757841 2420:-0.0484635 2421:0.226973 2422:0.131302 2423:0.0793116 2424:-0.430074 2425:-0.0797863 2426:-0.255215 2427:0.328604 2428:-0.741973 2429:-0.335816 2430:-0.348249 2431:-0.163677 2432:-0.0226882 2433:0.0252035 2434:0.143184 2435:-0.427902 2436:0.150288 2437:-0.278752 2438:-0.500976 2439:-0.327358 2440:-0.0073207 2441:0.0106572 2442:-0.140895 2443:0.34004 2444:-0.11811 2445:0.120959 2446:0.297632 2447:0.210261 2448:0.214497 2449:0.670473 2450:0.47547 2451:0.238975 2452:0.0350948 2453:-0.621393 2454:-0.160004 2455:0.865815 2456:-0.418323 2457:0.7227 2458:0.202599 2459:0.34966 2460:-1 2461:-0.366588 2462:-0.384037 2463:0.0682604 2464:-0.050214 2465:-0.426556 2466:0.0189486 2467:-0.014494 2468:0.40592 2469:-0.239983 2470:0.0332998 2471:0.367506 2472:-0.373497 2473:0.193257 2474:-0.996721 2475:-0.747801 2476:0.328466 2477:0.286477 2478:0.556635 2479:-0.0717542 2480:-0.192745 2481:0.290352 2482:-0.156144 2483:0.169649 2484:-0.207372 2485:-0.333395 2486:0.086324 2487:-0.24933 2488:-0.209742 2489:-0.0709159 2490:0.276987 2491:0.00633258 2492:-0.071356 2493:0.730798 2494:0.212344 2495:0.269175 2496:-0.565906 2497:0.144783 2498:-0.788483 2499:-0.219453 2500:0.154917 2501:0.266245 2502:-0.0540446 2503:0.107469 2504:-0.313068 2505:-0.350736 2506:-0.201129 2507:-0.00669318 2508:-0.486438 2509:0.178905 2510:-0.0651497 2511:0.22432 2512:-0.767884 2513:0.311992 2514:0.0326253 2515:0.393066 2516:-0.188463 2517:-0.722513 2518:0.18802 2519:-0.260319 2520:0.334014 2521:0.0512472 2522:0.132059 2523:0.0647457 2524:0.612785 2525:0.366192 2526:0.266245 2527:-0.0540446 2528:0.107469 2529:-0.313068 2530:-0.350736 2531:-0.201129 2532:-0.00669318 2533:-0.486438 2534:0.178905 2535:-0.0651497 2536:0.22432 2537:-0.767884 2538:0.311992 2539:0.0326253 2540:0.393066 2541:-0.188463 2542:-0.722513 2543:0.18802 2544:-0.260319 2545:0.334014 2546:0.0512472 2547:0.132059 2548:0.0647457 2549:0.612785 2550:0.366192 2551:0.659711 2552:-0.436614 2553:-0.587636 2554:-0.0506609 2555:-0.310737 2556:-0.13986 2557:0.240132 2558:-0.430315 2559:-0.215619 2560:-0.155988 2561:-0.125459 2562:-0.347694 2563:-0.188402 2564:-0.593974 2565:0.261666 2566:0.336899 2567:-0.227819 2568:0.31264 2569:-0.187844 2570:-0.59883 2571:0.232467 2572:-0.315314 2573:0.368583 2574:-0.27138 2575:0.187054 2576:0.659711 2577:-0.436614 2578:-0.587636 2579:-0.0506609 2580:-0.310737 2581:-0.13986 2582:0.240132 2583:-0.430315 2584:-0.215619 2585:-0.155988 2586:-0.125459 2587:-0.347694 2588:-0.188402 2589:-0.593974 2590:0.261666 2591:0.336899 2592:-0.227819 2593:0.31264 2594:-0.187844 2595:-0.59883 2596:0.232467 2597:-0.315314 2598:0.368583 2599:-0.27138 2600:0.187054 2601:0.118732 2602:-0.721433 2603:0.891698 2604:0.220897 2605:-0.566878 2606:0.882028 2607:-0.46082 2608:0.352049 2609:-1 2610:0.72987 2611:-0.819886 2612:1 2613:0.43643 2614:0.332662 2615:-0.267665 2616:0.811925 2617:-0.460805 2618:0.651927 2619:-0.0804184 2620:-1 2621:-0.652453 2622:-0.541059 2623:1 2624:-0.53434 2625:0.360095 2626:0.118732 2627:-0.721433 2628:0.891698 2629:0.220897 2630:-0.566878 2631:0.882028 2632:-0.46082 2633:0.352049 2634:-1 2635:0.72987 2636:-0.819886 2637:1 2638:0.43643 2639:0.332662 2640:-0.267665 2641:0.811925 2642:-0.460805 2643:0.651927 2644:-0.0804184 2645:-1 2646:-0.652453 2647:-0.541059 2648:1 2649:-0.53434 2650:0.360095 2651:0.458683 2652:-0.0190689 2653:0.302173 2654:-0.178351 2655:0.0228378 2656:0.643857 2657:0.676744 2658:0.5122 2659:0.0484 2660:-0.18652 2661:0.0157915 2662:-0.0158255 2663:-0.24542 2664:-0.854066 2665:-0.359919 2666:-0.390949 2667:0.184721 2668:0.417124 2669:-0.20662 2670:-0.0572714 2671:-0.109859 2672:-0.639448 2673:-0.357738 2674:0.250658 2675:-0.422212 2676:0.458683 2677:-0.0190689 2678:0.302173 2679:-0.178351 2680:0.0228378 2681:0.643857 2682:0.676744 2683:0.5122 2684:0.0484 2685:-0.18652 2686:0.0157915 2687:-0.0158255 2688:-0.24542 2689:-0.854066 2690:-0.359919 2691:-0.390949 2692:0.184721 2693:0.417124 2694:-0.20662 2695:-0.0572714 2696:-0.109859 2697:-0.639448 2698:-0.357738 2699:0.250658 2700:-0.422212 2701:0.625842 2702:-0.824222 2703:-0.129009 2704:0.112932 2705:-0.501923 2706:0.533094 2707:0.187266 2708:-0.285942 2709:-0.0251096 2710:-0.373997 2711:0.423061 2712:-0.287469 2713:0.249654 2714:-0.182774 2715:0.176134 2716:-0.241211 2717:-0.15724 2718:-0.0294758 2719:-0.0102765 2720:-0.310277 2721:0.174501 2722:0.397179 2723:0.086021 2724:0.261036 2725:0.0906593 2726:0.625842 2727:-0.824222 2728:-0.129009 2729:0.112932 2730:-0.501923 2731:0.533094 2732:0.187266 2733:-0.285942 2734:-0.0251096 2735:-0.373997 2736:0.423061 2737:-0.287469 2738:0.249654 2739:-0.182774 2740:0.176134 2741:-0.241211 2742:-0.15724 2743:-0.0294758 2744:-0.0102765 2745:-0.310277 2746:0.174501 2747:0.397179 2748:0.086021 2749:0.261036 2750:0.0906593 2751:-0.829609 2752:0.217124 2753:-0.906132 2754:-0.0516475 2755:-0.0505553 2756:0.622612 2757:1 2758:-0.297685 2759:0.741304 2760:-0.27069 2761:0.312343 2762:-0.00183526 2763:-0.310641 2764:0.406393 2765:0.266746 2766:-0.038077 2767:-0.430586 2768:0.199253 2769:0.339489 2770:-0.161832 2771:-0.0637708 2772:0.11605 2773:0.218868 2774:0.239292 2775:0.202743 2776:-0.829609 2777:0.217124 2778:-0.906132 2779:-0.0516475 2780:-0.0505553 2781:0.622612 2782:1 2783:-0.297685 2784:0.741304 2785:-0.27069 2786:0.312343 2787:-0.00183526 2788:-0.310641 2789:0.406393 2790:0.266746 2791:-0.038077 2792:-0.430586 2793:0.199253 2794:0.339489 2795:-0.161832 2796:-0.0637708 2797:0.11605 2798:0.218868 2799:0.239292 2800:0.202743 2801:0.547873 2802:0.425674 2803:0.26325 2804:-0.220386 2805:-0.583467 2806:0.0942026 2807:-0.488194 2808:0.195601 2809:0.289871 2810:-0.215763 2811:0.177432 2812:-0.150894 2813:0.294072 2814:-0.00386426 2815:-0.368772 2816:-0.702889 2817:0.0546353 2818:0.204549 2819:0.445768 2820:0.218666 2821:0.00634895 2822:0.179847 2823:0.519036 2824:-0.098982 2825:0.0389671 2826:0.547873 2827:0.425674 2828:0.26325 2829:-0.220386 2830:-0.583467 2831:0.0942026 2832:-0.488194 2833:0.195601 2834:0.289871 2835:-0.215763 2836:0.177432 2837:-0.150894 2838:0.294072 2839:-0.00386426 2840:-0.368772 2841:-0.702889 2842:0.0546353 2843:0.204549 2844:0.445768 2845:0.218666 2846:0.00634895 2847:0.179847 2848:0.519036 2849:-0.098982 2850:0.0389671 2851:-0.760604 2852:0.152329 2853:-0.557192 2854:0.363969 2855:0.378719 2856:-0.287266 2857:0.892879 2858:-0.19054 2859:0.486701 2860:-0.787366 2861:-0.368076 2862:-0.36703 2863:0.363064 2864:0.918751 2865:0.272951 2866:-0.176052 2867:-0.5021 2868:0.744644 2869:0.191683 2870:0.522625 2871:0.696462 2872:0.265153 2873:-0.745034 2874:-0.884233 2875:0.653284 2876:-0.760604 2877:0.152329 2878:-0.557192 2879:0.363969 2880:0.378719 2881:-0.287266 2882:0.892879 2883:-0.19054 2884:0.486701 2885:-0.787366 2886:-0.368076 2887:-0.36703 2888:0.363064 2889:0.918751 2890:0.272951 2891:-0.176052 2892:-0.5021 2893:0.744644 2894:0.191683 2895:0.522625 2896:0.696462 2897:0.265153 2898:-0.745034 2899:-0.884233 2900:0.653284 2901:-0.0792025 2902:0.0195427 2903:-0.444472 2904:0.850068 2905:0.526871 2906:-0.807336 2907:0.206332 2908:-0.634909 2909:0.483225 2910:0.0140659 2911:-0.320518 2912:-0.447797 2913:0.297291 2914:0.723776 2915:0.808014 2916:-0.697653 2917:-0.566681 2918:0.427011 2919:0.599453 2920:0.498923 2921:0.767423 2922:0.415243 2923:-0.683466 2924:-0.172793 2925:-0.041357 2926:-0.0792025 2927:0.0195427 2928:-0.444472 2929:0.850068 2930:0.526871 2931:-0.807336 2932:0.206332 2933:-0.634909 2934:0.483225 2935:0.0140659 2936:-0.320518 2937:-0.447797 2938:0.297291 2939:0.723776 2940:0.808014 2941:-0.697653 2942:-0.566681 2943:0.427011 2944:0.599453 2945:0.498923 2946:0.767423 2947:0.415243 2948:-0.683466 2949:-0.172793 2950:-0.041357 2951:-0.781265 2952:-0.926533 2953:-0.42529 2954:0.333892 2955:0.299036 2956:0.0627417 2957:0.437405 2958:0.357721 2959:-0.364182 2960:0.359446 2961:0.465278 2962:0.466897 2963:-0.0242076 2964:0.098408 2965:0.221156 2966:0.238329 2967:-0.00726362 2968:0.169793 2969:-0.450426 2970:-0.00568583 2971:-0.0335266 2972:0.177058 2973:0.0693653 2974:-0.0421009 2975:-0.0399357 2976:-0.781265 2977:-0.926533 2978:-0.42529 2979:0.333892 2980:0.299036 2981:0.0627417 2982:0.437405 2983:0.357721 2984:-0.364182 2985:0.359446 2986:0.465278 2987:0.466897 2988:-0.0242076 2989:0.098408 2990:0.221156 2991:0.238329 2992:-0.00726362 2993:0.169793 2994:-0.450426 2995:-0.00568583 2996:-0.0335266 2997:0.177058 2998:0.0693653 2999:-0.0421009 3000:-0.0399357 3001:0.708504 3002:-0.58548 3003:0.286826 3004:-0.286017 3005:-0.81296 3006:-0.0396541 3007:-0.507814 3008:0.284704 3009:-0.508038 3010:-0.26303 3011:-0.630233 3012:0.30896 3013:-0.075143 3014:0.218353 3015:-0.112272 3016:-0.309597 3017:0.141157 3018:0.122605 3019:-0.289364 3020:0.101093 3021:0.189373 3022:-0.0958666 3023:-0.0843976 3024:0.18781 3025:-0.496043 3026:0.708504 3027:-0.58548 3028:0.286826 3029:-0.286017 3030:-0.81296 3031:-0.0396541 3032:-0.507814 3033:0.284704 3034:-0.508038 3035:-0.26303 3036:-0.630233 3037:0.30896 3038:-0.075143 3039:0.218353 3040:-0.112272 3041:-0.309597 3042:0.141157 3043:0.122605 3044:-0.289364 3045:0.101093 3046:0.189373 3047:-0.0958666 3048:-0.0843976 3049:0.18781 3050:-0.496043 3051:-0.830208 3052:0.869985 3053:-1 3054:-0.299279 3055:0.395097 3056:-0.56667 3057:0.603097 3058:-0.0583609 3059:0.527714 3060:-1 3061:-1 3062:-0.486087 3063:-0.213185 3064:-0.477303 3065:0.0214396 3066:0.351235 3067:0.23254 3068:0.788785 3069:0.265129 3070:0.126295 3071:0.152731 3072:0.0582411 3073:0.462868 3074:0.980881 3075:0.334062 3076:-0.540237 3077:0.277019 3078:-0.772427 3079:0.235515 3080:-0.0268034 3081:-0.229078 3082:0.569197 3083:0.0890744 3084:-0.180238 3085:0.119098 3086:0.419048 3087:0.318819 3088:0.0270014 3089:0.555249 3090:0.0408368 3091:0.0534634 3092:-0.236395 3093:-0.0840154 3094:-0.634477 3095:-0.420247 3096:-0.163687 3097:0.256112 3098:0.434919 3099:0.220386 3100:0.616191 3101:-0.540237 3102:0.277019 3103:-0.772427 3104:0.235515 3105:-0.0268034 3106:-0.229078 3107:0.569197 3108:0.0890744 3109:-0.180238 3110:0.119098 3111:0.419048 3112:0.318819 3113:0.0270014 3114:0.555249 3115:0.0408368 3116:0.0534634 3117:-0.236395 3118:-0.0840154 3119:-0.634477 3120:-0.420247 3121:-0.163687 3122:0.256112 3123:0.434919 3124:0.220386 3125:0.616191 3126:-0.726444 3127:-0.292038 3128:-0.396906 3129:-0.0705804 3130:0.205346 3131:-0.325129 3132:0.541141 3133:-0.401415 3134:-0.213105 3135:0.381101 3136:-0.028183 3137:0.599244 3138:-0.0843887 3139:-0.0991904 3140:-0.0430876 3141:-0.0516278 3142:0.126974 3143:-0.0748819 3144:-0.039981 3145:0.208194 3146:-0.0444732 3147:-0.137491 3148:0.463465 3149:0.340853 3150:0.209327 3151:-0.726444 3152:-0.292038 3153:-0.396906 3154:-0.0705804 3155:0.205346 3156:-0.325129 3157:0.541141 3158:-0.401415 3159:-0.213105 3160:0.381101 3161:-0.028183 3162:0.599244 3163:-0.0843887 3164:-0.0991904 3165:-0.0430876 3166:-0.0516278 3167:0.126974 3168:-0.0748819 3169:-0.039981 3170:0.208194 3171:-0.0444732 3172:-0.137491 3173:0.463465 3174:0.340853 3175:0.209327 3176:0.626049 3177:-0.404949 3178:-0.248601 3179:-0.0707184 3180:1 3181:-0.344478 3182:-0.2154 3183:-0.0155892 3184:0.448992 3185:-0.702199 3186:-0.548349 3187:-0.431923 3188:-0.13813 3189:0.324796 3190:0.373609 3191:-0.227883 3192:0.0784259 3193:-0.469804 3194:0.573133 3195:-0.307776 3196:0.591685 3197:0.522652 3198:-0.483908 3199:-0.470026 3200:0.145914 
2 1:-0.771828 2:0.65826 3:0.61927 4:0.746941 5:0.467496 6:0.220329 7:0.387059 8:0.537948 9:-0.104611 10:0.625409 11:0.531344 12:0.0981487 13:-0.585644 14:-0.607679 15:-0.696577 16:-0.0817457 17:0.00788101 18:-0.412873 19:-0.0566136 20:-0.397847 21:0.439507 22:0.50729 23:0.423251 24:0.601296 25:0.274131 26:-0.762462 27:0.590822 28:-0.398058 29:0.813717 30:0.873105 31:0.100402 32:0.539817 33:-0.195947 34:0.156172 35:-0.0206099 36:0.824846 37:0.898387 38:-0.338566 39:-0.438652 40:0.123667 41:0.27612 42:-0.783562 43:-0.179099 44:0.109159 45:-0.472646 46:-0.0469335 47:-0.198045 48:-0.41379 49:-0.470681 50:-0.167325 51:-0.762462 52:0.590822 53:-0.398058 54:0.813717 55:0.873105 56:0.100402 57:0.539817 58:-0.195947 59:0.156172 60:-0.0206099 61:0.824846 62:0.898387 63:-0.338566 64:-0.438652 65:0.123667 66:0.27612 67:-0.783562 68:-0.179099 69:0.109159 70:-0.472646 71:-0.0469335 72:-0.198045 73:-0.41379 74:-0.470681 75:-0.167325 76:0.325649 77:-0.151335 78:0.11656 79:0.203619 80:0.51388 81:0.549619 82:0.204328 83:0.409221 84:0.329481 85:0.123365 86:-0.143604 87:-0.457309 88:-0.170413 89:-0.334417 90:0.0256879 91:0.0810736 92:0.403977 93:0.0403307 94:0.414338 95:0.343415 96:-0.195122 97:0.279636 98:0.54001 99:0.398232 100:-0.921612 101:-0.346789 102:0.51197 103:-0.513988 104:0.69327 105:0.917148 106:-0.143821 107:0.581164 108:-0.570088 109:0.733427 110:0.469228 111:0.222408 112:-0.222066 113:0.818061 114:-0.141149 115:0.729625 116:-0.38091 117:0.316153 118:-0.530448 119:-0.173065 120:0.102654 121:0.50304 122:0.0808158 123:-0.774558 124:-0.573687 125:-0.0319319 126:-0.10896 127:0.0612786 128:-0.351149 129:-0.0256158 130:-0.436983 131:-0.421936 132:0.914777 133:0.262879 134:0.535179 135:-0.370658 136:-0.105586 137:-0.570072 138:0.477429 139:-0.649968 140:-0.326003 141:-0.460168 142:-0.0640881 143:0.750274 144:-0.370295 145:0.478434 146:0.263335 147:-0.00359171 148:0.240157 149:0.0317844 150:-0.259325 151:-0.10896 152:0.0612786 153:-0.351149 154:-0.0256158 155:-0.436983 156:-0.421936 157:0.914777 158:0.262879 159:0.535179 160:-0.370658 161:-0.105586 162:-0.570072 163:0.477429 164:-0.649968 165:-0.326003 166:-0.460168 167:-0.0640881 168:0.750274 169:-0.370295 170:0.478434 171:0.263335 172:-0.00359171 173:0.240157 174:0.0317844 175:-0.259325 176:-0.653778 177:0.716673 178:-0.0988482 179:0.534124 180:0.571146 181:-0.324608 182:0.504016 183:-0.67717 184:0.448474 185:0.723926 186:0.777022 187:0.266067 188:-0.00682152 189:-0.520268 190:-0.161179 191:0.112145 192:0.104876 193:0.161582 194:-0.184141 195:-0.0177092 196:0.41736 197:-0.612513 198:-0.434523 199:-0.151925 200:0.668714 201:0.630312 202:0.0466134 203:-0.299596 204:-0.357517 205:0.0256009 206:-0.037561 207:0.177721 208:0.19376 209:0.836369 210:-0.177317 211:-0.369476 212:0.137572 213:-0.241615 214:-0.144308 215:0.191847 216:-0.33073 217:-0.228969 218:-0.101312 219:-0.128943 220:0.0430285 221:0.23192 222:-0.450844 223:-0.275566 224:0.056496 225:0.160333 226:-0.157011 227:0.895692 228:0.9467 229:0.763154 230:0.392681 231:-0.158157 232:0.211145 233:-0.17355 234:-0.5703 235:-0.415524 236:0.0669796 237:-0.292488 238:-0.915099 239:0.614723 240:-0.00538442 241:-0.233132 242:0.3303 243:-0.0399199 244:0.193549 245:-0.569019 246:0.705724 247:0.609813 248:0.433259 249:0.778224 250:-0.885219 251:-1 252:-0.259928 253:0.297069 254:-0.263512 255:0.0590321 256:0.646013 257:0.160624 258:0.0860741 259:0.479675 260:-0.419497 261:0.402646 262:-0.247472 263:-0.0560477 264:0.179123 265:-0.184957 266:0.0192767 267:-0.194192 268:-0.361135 269:0.487034 270:-0.990124 271:0.396956 272:-0.5101 273:0.0762586 274:0.382462 275:0.0777511 276:0.277472 277:-0.158761 278:0.296608 279:-0.542624 280:-0.434502 281:0.142289 282:-0.245838 283:-0.275511 284:0.728875 285:-0.548749 286:-0.437263 287:-0.65336 288:-0.0798797 289:0.16873 290:-0.200872 291:-0.905937 292:0.169261 293:0.667676 294:-0.553336 295:-0.256717 296:-0.556414 297:-0.356477 298:0.371173 299:0.139982 300:0.230594 301:0.277472 302:-0.158761 303:0.296608 304:-0.542624 305:-0.434502 306:0.142289 307:-0.245838 308:-0.275511 309:0.728875 310:-0.548749 311:-0.437263 312:-0.65336 313:-0.0798797 314:0.16873 315:-0.200872 316:-0.905937 317:0.169261 318:0.667676 319:-0.553336 320:-0.256717 321:-0.556414 322:-0.356477 323:0.371173 324:0.139982 325:0.230594 326:-0.660362 327:0.127025 328:-0.502108 329:0.501095 330:0.49745 331:-0.181909 332:0.440312 333:-0.148569 334:0.07648 335:0.342043 336:0.626092 337:0.35251 338:-0.152947 339:-0.358956 340:0.337558 341:-0.177704 342:-0.141472 343:0.0565604 344:-0.0122083 345:-0.0936092 346:0.251609 347:0.348878 348:-0.42804 349:-0.11408 350:-0.561617 351:-0.728014 352:0.600976 353:-0.227828 354:0.618465 355:0.420164 356:-0.207904 357:0.388577 358:-0.338818 359:-0.0639818 360:0.289251 361:0.526389 362:0.538351 363:-0.0456673 364:0.0429672 365:-0.287815 366:0.0611073 367:0.041445 368:-0.321063 369:0.0930853 370:-0.352617 371:-0.112143 372:-0.220691 373:0.187931 374:-0.0691394 375:0.0445313 376:-0.728014 377:0.600976 378:-0.227828 379:0.618465 380:0.420164 381:-0.207904 382:0.388577 383:-0.338818 384:-0.0639818 385:0.289251 386:0.526389 387:0.538351 388:-0.0456673 389:0.0429672 390:-0.287815 391:0.0611073 392:0.041445 393:-0.321063 394:0.0930853 395:-0.352617 396:-0.112143 397:-0.220691 398:0.187931 399:-0.0691394 400:0.0445313 401:-0.243668 402:-0.0962899 403:-0.0681122 404:0.394501 405:0.128788 406:0.146033 407:-0.3754 408:-0.181326 409:-0.117513 410:0.888589 411:-0.126543 412:0.0163125 413:0.744882 414:-0.242471 415:-0.363873 416:0.423518 417:-0.107868 418:0.325058 419:-0.76499 420:0.933161 421:-1 422:0.44585 423:-0.853025 424:-0.060546 425:-0.567038 426:-1 427:-0.989261 428:0.222806 429:-0.0495728 430:0.600436 431:0.764649 432:-0.321344 433:0.276946 434:0.489418 435:0.28293 436:-1 437:0.60496 438:-0.409409 439:0.322443 440:-0.312021 441:-0.377006 442:0.237479 443:-0.598352 444:0.355015 445:-0.76067 446:0.456864 447:-1 448:0.634662 449:-0.303048 450:0.94973 451:-0.657061 452:0.945668 453:0.448815 454:-0.285606 455:0.506692 456:-0.460332 457:-0.425277 458:0.0768709 459:-0.0173375 460:-0.166307 461:0.257498 462:0.37002 463:-0.182484 464:-0.778048 465:0.723763 466:0.0985866 467:-0.476816 468:0.236217 469:-0.31477 470:-0.214298 471:0.484162 472:-0.242784 473:0.0451635 474:0.630614 475:-0.327665 476:0.577213 477:-0.116567 478:0.282486 479:-0.455727 480:0.917415 481:-0.393482 482:0.421656 483:0.242034 484:0.070621 485:-0.35684 486:-0.169617 487:0.190547 488:-0.125206 489:-0.289958 490:-0.409224 491:-0.177276 492:0.276271 493:0.156735 494:-0.293682 495:-0.140397 496:0.512212 497:-0.00764432 498:0.526119 499:-0.123337 500:-0.201437 501:0.655713 502:-0.445595 503:0.182472 504:-0.407369 505:-0.695347 506:-0.4204 507:0.239686 508:-0.0279191 509:0.243321 510:-0.43143 511:0.0665512 512:-0.346451 513:0.12503 514:0.617126 515:0.459177 516:0.0918695 517:-0.381917 518:0.0679819 519:-0.225927 520:0.0861371 521:0.223764 522:-0.020127 523:-0.307765 524:0.0946357 525:-0.298605 526:-0.261555 527:-0.592397 528:0.608998 529:-0.0249111 530:0.947802 531:-0.156173 532:-0.0101862 533:0.0904273 534:0.0469047 535:0.407064 536:0.548692 537:0.579033 538:-0.237447 539:-0.148443 540:-0.379908 541:0.2109 542:-0.0931623 543:-0.153488 544:-0.339813 545:0.183049 546:-0.131809 547:0.00817784 548:0.00667683 549:-0.190317 550:0.40539 551:-0.47824 552:-0.436098 553:0.424495 554:0.433377 555:0.0195277 556:0.186714 557:0.0787788 558:-0.498603 559:0.545546 560:-0.561195 561:-0.011188 562:-0.351664 563:0.0175842 564:-0.0394941 565:0.108091 566:0.21241 567:-0.410627 568:-0.875141 569:0.425088 570:-0.0839473 571:-1 572:-0.453953 573:0.0490057 574:-0.338873 575:0.769663 576:-0.47824 577:-0.436098 578:0.424495 579:0.433377 580:0.0195277 581:0.186714 582:0.0787788 583:-0.498603 584:0.545546 585:-0.561195 586:-0.011188 587:-0.351664 588:0.0175842 589:-0.0394941 590:0.108091 591:0.21241 592:-0.410627 593:-0.875141 594:0.425088 595:-0.0839473 596:-1 597:-0.453953 598:0.0490057 599:-0.338873 600:0.769663 601:-0.00554971 602:0.380119 603:0.551549 604:-0.0971611 605:0.215773 606:-0.286497 607:0.672145 608:-0.0861548 609:-0.0431468 610:-0.284665 611:-0.155202 612:-0.287364 613:-0.0757462 614:0.213911 615:0.200936 616:-0.265132 617:0.330705 618:0.527796 619:-0.456793 620:-0.249395 621:0.273647 622:-0.0762923 623:-0.015956 624:0.0672608 625:-0.657822 626:0.398968 627:0.190909 628:-0.0126565 629:0.130764 630:-1 631:0.275814 632:0.316936 633:0.190142 634:-0.113019 635:-0.106279 636:-0.460906 637:-0.142867 638:0.149199 639:0.270498 640:-0.238654 641:0.00837624 642:0.601655 643:0.656823 644:1 645:-0.0250971 646:0.624753 647:-0.239474 648:-0.48927 649:-0.775206 650:-0.460064 651:0.398968 652:0.190909 653:-0.0126565 654:0.130764 655:-1 656:0.275814 657:0.316936 658:0.190142 659:-0.113019 660:-0.106279 661:-0.460906 662:-0.142867 663:0.149199 664:0.270498 665:-0.238654 666:0.00837624 667:0.601655 668:0.656823 669:1 670:-0.0250971 671:0.624753 672:-0.239474 673:-0.48927 674:-0.775206 675:-0.460064 676:-0.911013 677:0.279931 678:-0.470895 679:0.806916 680:0.571138 681:0.22769 682:0.633072 683:0.122236 684:0.544129 685:0.459586 686:0.383652 687:0.850397 688:-0.251039 689:0.158298 690:-0.412246 691:-0.441071 692:0.0299828 693:-0.0695674 694:0.0283604 695:-0.147992 696:0.193722 697:-0.284905 698:-0.152085 699:0.110548 700:0.0228389 701:-0.911013 702:0.279931 703:-0.470895 704:0.806916 705:0.571138 706:0.22769 707:0.633072 708:0.122236 709:0.544129 710:0.459586 711:0.383652 712:0.850397 713:-0.251039 714:0.158298 715:-0.412246 716:-0.441071 717:0.0299828 718:-0.0695674 719:0.0283604 720:-0.147992 721:0.193722 722:-0.284905 723:-0.152085 724:0.110548 725:0.0228389 726:-0.917787 727:0.567732 728:0.29594 729:0.625213 730:0.429334 731:-0.42746 732:0.366808 733:0.029584 734:0.0211791 735:0.805697 736:0.888818 737:0.766884 738:0.103087 739:-0.0668367 740:-0.18417 741:0.122637 742:-0.113972 743:0.311842 744:0.0443628 745:-0.269966 746:-0.0316793 747:-0.00738617 748:-0.401479 749:-0.127629 750:0.0497442 751:-0.0532494 752:-0.230611 753:0.0819267 754:0.239321 755:0.252083 756:0.221546 757:0.308502 758:0.162956 759:-0.139545 760:-0.256179 761:0.675053 762:0.531045 763:-0.885173 764:-0.418535 765:-0.619365 766:-0.0469419 767:0.487882 768:0.105575 769:0.591669 770:-0.119795 771:-0.429311 772:-0.117479 773:-0.3967 774:-0.207826 775:0.601427 776:-0.0532494 777:-0.230611 778:0.0819267 779:0.239321 780:0.252083 781:0.221546 782:0.308502 783:0.162956 784:-0.139545 785:-0.256179 786:0.675053 787:0.531045 788:-0.885173 789:-0.418535 790:-0.619365 791:-0.0469419 792:0.487882 793:0.105575 794:0.591669 795:-0.119795 796:-0.429311 797:-0.117479 798:-0.3967 799:-0.207826 800:0.601427 801:-0.0103089 802:-0.182929 803:0.0894569 804:0.454177 805:-0.0498264 806:0.925842 807:0.446134 808:-0.401795 809:-0.085705 810:0.0219566 811:0.87591 812:0.194934 813:-0.293547 814:0.141718 815:-0.00141684 816:-0.0434553 817:-0.155104 818:0.389966 819:-0.225268 820:0.424508 821:0.0566868 822:0.324384 823:-0.0562092 824:-0.111514 825:-0.0800262 826:0.230538 827:0.359352 828:0.0843325 829:-0.0508372 830:-0.294746 831:0.0541559 832:-0.257037 833:0.0800449 834:-0.0606136 835:-0.0297356 836:-0.299326 837:-0.603423 838:-0.096041 839:0.744656 840:-0.326484 841:0.0303482 842:-0.194152 843:0.0342864 844:0.251505 845:0.00385592 846:-0.479118 847:0.154914 848:-0.314039 849:-0.0208365 850:-0.425699 851:-0.0014635 852:-0.0650813 853:0.18853 854:-0.142162 855:0.367428 856:0.0481291 857:-0.0257041 858:0.437822 859:0.056072 860:0.152897 861:-0.256079 862:0.270121 863:0.586211 864:-0.660076 865:0.0286555 866:-0.192576 867:-0.0655908 868:-0.0931976 869:-0.334949 870:0.200918 871:0.206971 872:-0.35077 873:-0.470505 874:-0.362783 875:0.620689 876:-0.480004 877:-0.068907 878:0.419387 879:-0.5307 880:0.402019 881:0.379637 882:0.222884 883:-0.380223 884:0.325354 885:0.350457 886:-0.54691 887:0.099426 888:-0.420421 889:0.834528 890:-0.480455 891:0.282036 892:0.181845 893:0.041637 894:0.549821 895:-0.445522 896:0.350848 897:-0.455461 898:0.750806 899:0.729535 900:-0.449767 901:0.526618 902:0.622692 903:0.705777 904:0.503725 905:-0.408988 906:-0.223345 907:0.297407 908:0.0787751 909:-0.763014 910:-0.0939254 911:-0.220796 912:-0.3386 913:0.305375 914:0.390288 915:0.0766136 916:-0.141522 917:0.401601 918:-0.177482 919:0.00699858 920:-0.71652 921:0.563755 922:-0.335203 923:0.161165 924:0.0783867 925:-0.801511 926:0.0643193 927:0.241037 928:0.113879 929:-0.0951589 930:0.670729 931:-0.00961163 932:0.411111 933:-0.0478088 934:0.293471 935:-0.103029 936:-0.560888 937:0.625064 938:0.737677 939:-0.162373 940:-0.315299 941:-0.494503 942:0.507356 943:0.0273353 944:0.0169129 945:-0.187344 946:0.356529 947:0.0536348 948:0.259471 949:-0.289839 950:-0.713145 951:0.528535 952:0.51041 953:0.43219 954:-0.166898 955:-0.457078 956:-0.0958699 957:-0.162657 958:-0.0050042 959:-0.0161059 960:-0.272738 961:-0.309872 962:-0.240891 963:-0.156587 964:0.178527 965:0.475282 966:0.190486 967:-0.0888603 968:0.135227 969:-0.0960853 970:-0.125561 971:-0.621345 972:0.0170564 973:0.08506 974:-0.446446 975:-0.32686 976:-0.400324 977:-0.448462 978:0.484303 979:-0.396363 980:0.745412 981:-0.209919 982:0.264378 983:0.101813 984:-0.0671338 985:0.194604 986:0.436615 987:0.55834 988:-0.0984283 989:0.242958 990:-0.383231 991:-0.458566 992:-0.246709 993:-0.278 994:-0.37945 995:0.0930956 996:0.317886 997:0.227643 998:0.029155 999:-0.290566 1000:0.306774 1001:0.286533 1002:0.0195162 1003:0.481789 1004:0.480568 1005:-0.413828 1006:0.096172 1007:-0.430184 1008:0.505871 1009:-0.393419 1010:-0.111411 1011:-0.495904 1012:0.607306 1013:-0.0277921 1014:-0.404996 1015:0.0310542 1016:0.427606 1017:-0.137314 1018:0.602518 1019:-0.150645 1020:0.528941 1021:-0.529737 1022:0.232019 1023:-0.48407 1024:0.0378735 1025:0.550885 1026:-0.368013 1027:-0.185293 1028:0.376656 1029:-0.0551365 1030:0.0693172 1031:0.0996762 1032:-0.394058 1033:0.00390714 1034:0.125603 1035:-0.364841 1036:-0.530199 1037:0.873746 1038:-0.337583 1039:-0.790739 1040:0.40727 1041:0.452602 1042:-0.291847 1043:0.222769 1044:0.671642 1045:-0.0377817 1046:0.183496 1047:0.214296 1048:-0.853499 1049:0.680267 1050:-0.703629 1051:0.331589 1052:-0.862041 1053:0.200217 1054:-0.490091 1055:-0.483147 1056:0.415602 1057:0.391075 1058:-0.0946202 1059:-0.252177 1060:-0.154428 1061:-0.0613996 1062:-0.186684 1063:-0.407636 1064:0.470804 1065:0.104857 1066:-0.246791 1067:-0.178306 1068:-0.609383 1069:0.384866 1070:0.149333 1071:-0.0301707 1072:-0.0191708 1073:-0.111554 1074:-0.063437 1075:0.184156 1076:0.0650573 1077:-0.27276 1078:-0.459191 1079:0.350172 1080:0.46764 1081:-0.639444 1082:0.1048 1083:-0.103535 1084:-0.414744 1085:0.279972 1086:-0.0552243 1087:0.187799 1088:-0.151829 1089:0.113411 1090:0.0921256 1091:-0.387468 1092:-0.14546 1093:-0.450242 1094:-0.214656 1095:0.167823 1096:-0.184255 1097:-0.0129288 1098:0.0298458 1099:0.0412237 1100:0.30154 1101:0.149294 1102:0.460977 1103:-0.401077 1104:-0.420408 1105:0.205676 1106:-0.221438 1107:-0.498101 1108:-0.334999 1109:0.204556 1110:0.256066 1111:-0.332777 1112:-0.190377 1113:0.667591 1114:-0.696505 1115:0.34803 1116:-0.412987 1117:0.532093 1118:0.599552 1119:-0.599265 1120:0.356491 1121:0.313515 1122:0.341117 1123:0.405706 1124:-0.196687 1125:-0.462914 1126:-0.319517 1127:0.316607 1128:0.360576 1129:0.0565414 1130:0.78239 1131:0.0987544 1132:0.191102 1133:0.127542 1134:0.56243 1135:0.278571 1136:0.391545 1137:0.594016 1138:-0.329938 1139:0.210721 1140:0.0809999 1141:-0.0336712 1142:0.103055 1143:0.117887 1144:0.128913 1145:0.0693894 1146:-0.0719262 1147:0.0060202 1148:-0.294374 1149:0.280724 1150:-0.468016 1151:-0.442538 1152:-0.0206682 1153:-0.376717 1154:0.717065 1155:-0.611451 1156:0.756112 1157:0.160059 1158:0.189217 1159:0.810236 1160:-0.161885 1161:0.573649 1162:-0.602106 1163:0.287683 1164:0.88905 1165:-1 1166:0.0474876 1167:-0.189753 1168:0.0825485 1169:-0.196923 1170:0.576044 1171:0.839509 1172:0.156114 1173:0.416231 1174:-0.324789 1175:-0.464249 1176:-0.442538 1177:-0.0206682 1178:-0.376717 1179:0.717065 1180:-0.611451 1181:0.756112 1182:0.160059 1183:0.189217 1184:0.810236 1185:-0.161885 1186:0.573649 1187:-0.602106 1188:0.287683 1189:0.88905 1190:-1 1191:0.0474876 1192:-0.189753 1193:0.0825485 1194:-0.196923 1195:0.576044 1196:0.839509 1197:0.156114 1198:0.416231 1199:-0.324789 1200:-0.464249 1201:-0.471878 1202:0.375255 1203:-0.791251 1204:0.159422 1205:0.439217 1206:0.0913816 1207:1 1208:-0.254897 1209:0.390211 1210:0.34399 1211:-0.356933 1212:0.25951 1213:0.309709 1214:0.127947 1215:-0.595054 1216:-0.0376738 1217:-0.0714071 1218:-0.840081 1219:-0.0301921 1220:0.175744 1221:0.681562 1222:0.428454 1223:-0.253472 1224:-0.421175 1225:-0.4105 1226:-0.498269 1227:-0.027566 1228:-0.410919 1229:0.562732 1230:0.606258 1231:-0.264899 1232:0.757219 1233:-0.133844 1234:-0.35962 1235:0.202501 1236:0.196958 1237:0.691366 1238:0.0671449 1239:-0.176572 1240:-0.212706 1241:0.102559 1242:0.250275 1243:0.255773 1244:0.199693 1245:0.104105 1246:-0.210351 1247:0.0988486 1248:-0.375738 1249:-0.250581 1250:0.33795 1251:-0.498269 1252:-0.027566 1253:-0.410919 1254:0.562732 1255:0.606258 1256:-0.264899 1257:0.757219 1258:-0.133844 1259:-0.35962 1260:0.202501 1261:0.196958 1262:0.691366 1263:0.0671449 1264:-0.176572 1265:-0.212706 1266:0.102559 1267:0.250275 1268:0.255773 1269:0.199693 1270:0.104105 1271:-0.210351 1272:0.0988486 1273:-0.375738 1274:-0.250581 1275:0.33795 1276:0.20194 1277:0.279491 1278:-0.246893 1279:-0.327947 1280:0.360959 1281:-0.225322 1282:0.0975358 1283:0.291169 1284:0.771829 1285:-1 1286:-0.247099 1287:0.527107 1288:-0.0736758 1289:0.562882 1290:-0.124767 1291:0.53639 1292:-0.769709 1293:0.92815 1294:-0.537404 1295:0.713215 1296:-0.585573 1297:0.283798 1298:0.656108 1299:0.0340156 1300:-0.199822 1301:0.20194 1302:0.279491 1303:-0.246893 1304:-0.327947 1305:0.360959 1306:-0.225322 1307:0.0975358 1308:0.291169 1309:0.771829 1310:-1 1311:-0.247099 1312:0.527107 1313:-0.0736758 1314:0.562882 1315:-0.124767 1316:0.53639 1317:-0.769709 1318:0.92815 1319:-0.537404 1320:0.713215 1321:-0.585573 1322:0.283798 1323:0.656108 1324:0.0340156 1325:-0.199822 1326:-0.977152 1327:0.610177 1328:-0.11271 1329:0.429058 1330:0.75186 1331:-0.0697684 1332:0.505639 1333:-0.00255883 1334:0.0940892 1335:0.594973 1336:0.759747 1337:0.755583 1338:0.0946695 1339:0.468193 1340:0.00319983 1341:0.334869 1342:-0.0635919 1343:-0.0061842 1344:-0.162328 1345:-0.193745 1346:0.300805 1347:0.34144 1348:0.00682056 1349:0.334718 1350:-0.0172268 1351:-0.977152 1352:0.610177 1353:-0.11271 1354:0.429058 1355:0.75186 1356:-0.0697684 1357:0.505639 1358:-0.00255883 1359:0.0940892 1360:0.594973 1361:0.759747 1362:0.755583 1363:0.0946695 1364:0.468193 1365:0.00319983 1366:0.334869 1367:-0.0635919 1368:-0.0061842 1369:-0.162328 1370:-0.193745 1371:0.300805 1372:0.34144 1373:0.00682056 1374:0.334718 1375:-0.0172268 1376:0.117456 1377:-0.375475 1378:-0.387822 1379:0.252898 1380:-0.648016 1381:0.526453 1382:0.21084 1383:0.408852 1384:0.303143 1385:-0.0610586 1386:-0.129341 1387:-0.23505 1388:-0.0807195 1389:-0.0843512 1390:0.125633 1391:-0.111198 1392:0.281409 1393:-0.0268697 1394:0.146107 1395:-0.148888 1396:-0.0688744 1397:0.444426 1398:-0.123823 1399:0.363817 1400:0.206708 1401:0.117456 1402:-0.375475 1403:-0.387822 1404:0.252898 1405:-0.648016 1406:0.526453 1407:0.21084 1408:0.408852 1409:0.303143 1410:-0.0610586 1411:-0.129341 1412:-0.23505 1413:-0.0807195 1414:-0.0843512 1415:0.125633 1416:-0.111198 1417:0.281409 1418:-0.0268697 1419:0.146107 1420:-0.148888 1421:-0.0688744 1422:0.444426 1423:-0.123823 1424:0.363817 1425:0.206708 1426:0.0971693 1427:-0.22157 1428:-0.228692 1429:0.411228 1430:0.269267 1431:-0.333726 1432:0.0481391 1433:0.549872 1434:-0.119589 1435:-0.0393521 1436:-0.812509 1437:-0.26095 1438:-0.711519 1439:0.0325942 1440:-0.0227836 1441:-0.269969 1442:-0.531539 1443:-0.301467 1444:-0.390734 1445:0.478083 1446:0.251635 1447:0.249176 1448:-0.046612 1449:0.616126 1450:0.82649 1451:0.0971693 1452:-0.22157 1453:-0.228692 1454:0.411228 1455:0.269267 1456:-0.333726 1457:0.0481391 1458:0.549872 1459:-0.119589 1460:-0.0393521 1461:-0.812509 1462:-0.26095 1463:-0.711519 1464:0.0325942 1465:-0.0227836 1466:-0.269969 1467:-0.531539 1468:-0.301467 1469:-0.390734 1470:0.478083 1471:0.251635 1472:0.249176 1473:-0.046612 1474:0.616126 1475:0.82649 1476:-0.836605 1477:0.122035 1478:-0.746453 1479:0.517016 1480:0.21208 1481:0.040835 1482:0.268706 1483:-0.26801 1484:0.0323181 1485:0.111512 1486:0.673481 1487:0.348576 1488:-0.329773 1489:0.10584 1490:-0.106663 1491:-0.366616 1492:0.151819 1493:-0.125445 1494:-0.0170461 1495:-0.135598 1496:-0.532798 1497:-0.471085 1498:-0.0201127 1499:-0.195461 1500:-0.176713 1501:-0.836605 1502:0.122035 1503:-0.746453 1504:0.517016 1505:0.21208 1506:0.040835 1507:0.268706 1508:-0.26801 1509:0.0323181 1510:0.111512 1511:0.673481 1512:0.348576 1513:-0.329773 1514:0.10584 1515:-0.106663 1516:-0.366616 1517:0.151819 1518:-0.125445 1519:-0.0170461 1520:-0.135598 1521:-0.532798 1522:-0.471085 1523:-0.0201127 1524:-0.195461 1525:-0.176713 1526:-0.0777668 1527:0.328441 1528:-0.112638 1529:0.893394 1530:0.538949 1531:-0.0324172 1532:0.607544 1533:0.0560596 1534:-0.136731 1535:0.190883 1536:0.494733 1537:-0.169112 1538:0.00632694 1539:-0.598757 1540:-0.351179 1541:-0.126117 1542:0.0949068 1543:-0.244963 1544:-0.182776 1545:0.414754 1546:-0.104424 1547:-0.404284 1548:0.209191 1549:0.526698 1550:-0.186074 1551:-0.25203 1552:-0.379875 1553:-0.0287255 1554:-0.0907449 1555:0.270343 1556:-0.182453 1557:0.327766 1558:-0.0991813 1559:-0.159019 1560:0.299726 1561:0.336026 1562:0.483269 1563:-0.529554 1564:-0.220287 1565:-0.378454 1566:-0.193347 1567:-0.391027 1568:-0.161543 1569:0.286558 1570:-0.287597 1571:-0.00311354 1572:-0.156564 1573:-0.136649 1574:-0.329027 1575:-0.124738 1576:-0.25203 1577:-0.379875 1578:-0.0287255 1579:-0.0907449 1580:0.270343 1581:-0.182453 1582:0.327766 1583:-0.0991813 1584:-0.159019 1585:0.299726 1586:0.336026 1587:0.483269 1588:-0.529554 1589:-0.220287 1590:-0.378454 1591:-0.193347 1592:-0.391027 1593:-0.161543 1594:0.286558 1595:-0.287597 1596:-0.00311354 1597:-0.156564 1598:-0.136649 1599:-0.329027 1600:-0.124738 1601:-0.620834 1602:-0.264344 1603:0.260534 1604:0.27576 1605:0.430084 1606:0.518582 1607:0.24991 1608:0.141501 1609:0.294941 1610:0.0707104 1611:0.826334 1612:0.0709965 1613:0.0266211 1614:0.105435 1615:-0.0743457 1616:0.0573719 1617:-0.205891 1618:0.00449024 1619:0.932407 1620:-1 1621:0.389892 1622:-0.337632 1623:-0.223495 1624:0.18531 1625:0.153375 1626:0.30322 1627:-0.726846 1628:0.0639474 1629:-0.176589 1630:-0.500221 1631:0.00805727 1632:-0.289731 1633:0.387208 1634:0.0186621 1635:-0.123383 1636:-0.11257 1637:0.0548675 1638:0.0433472 1639:0.541795 1640:-0.111493 1641:0.00167922 1642:0.276517 1643:-0.560775 1644:0.30861 1645:-0.246739 1646:-0.0687746 1647:-0.00915979 1648:-0.382667 1649:0.104152 1650:-0.0447365 1651:0.125991 1652:0.42123 1653:-0.0156281 1654:-0.804369 1655:-0.209048 1656:0.0742596 1657:-0.118999 1658:0.395101 1659:0.61041 1660:-0.17237 1661:-0.641847 1662:-0.470777 1663:0.281475 1664:0.923589 1665:-0.322117 1666:0.744712 1667:-0.356025 1668:0.170638 1669:0.450126 1670:-0.0394263 1671:-0.768247 1672:0.647148 1673:-0.0731812 1674:-0.303766 1675:-0.936046 1676:-0.0980804 1677:0.0124773 1678:-0.242912 1679:-0.378283 1680:0.30895 1681:-0.474302 1682:0.508832 1683:0.0495993 1684:0.236356 1685:-0.533808 1686:0.436272 1687:-0.169898 1688:-0.132714 1689:-0.4333 1690:0.199648 1691:0.0777711 1692:-0.288153 1693:0.205397 1694:-0.497983 1695:0.307536 1696:0.14072 1697:0.382619 1698:-0.56029 1699:0.474705 1700:0.641145 1701:0.431776 1702:0.0142194 1703:0.413884 1704:0.28067 1705:-0.421467 1706:0.455561 1707:-0.367492 1708:0.422729 1709:-0.0886744 1710:0.711504 1711:0.0126271 1712:-0.478604 1713:0.0198277 1714:-0.2419 1715:-0.364574 1716:0.5765 1717:-0.850604 1718:0.317488 1719:-0.424539 1720:0.632636 1721:-0.397172 1722:0.590657 1723:-0.100301 1724:0.262174 1725:0.217235 1726:0.571706 1727:-0.000296386 1728:-0.117246 1729:-0.0177379 1730:-0.00926111 1731:-0.154602 1732:-0.239553 1733:0.162523 1734:0.439615 1735:-0.348007 1736:-0.319674 1737:-0.280336 1738:-0.313291 1739:-0.370877 1740:-0.162261 1741:-0.516917 1742:-0.00213901 1743:0.541361 1744:-0.0025652 1745:0.234302 1746:0.525258 1747:-0.618173 1748:-0.0219379 1749:-0.202388 1750:0.507109 1751:0.16242 1752:0.376124 1753:0.0667531 1754:0.612444 1755:-0.573394 1756:-0.0259738 1757:-0.142158 1758:-0.0214937 1759:-0.0639519 1760:0.0963495 1761:-0.56889 1762:-0.0700926 1763:0.389331 1764:-0.218112 1765:0.0323296 1766:0.19489 1767:-0.784024 1768:-0.0231366 1769:-0.0566334 1770:-0.19846 1771:-0.00852726 1772:0.65815 1773:-0.00505487 1774:0.111066 1775:0.280809 1776:0.606305 1777:-0.212621 1778:0.259311 1779:-0.0143084 1780:-0.353967 1781:-0.216521 1782:-0.321699 1783:0.25301 1784:-0.125906 1785:-0.068126 1786:-0.485905 1787:-0.295439 1788:-0.272002 1789:-0.183228 1790:0.0142783 1791:-0.172326 1792:-0.278945 1793:0.103405 1794:-0.0392654 1795:0.270789 1796:-0.107332 1797:0.0769395 1798:-0.271889 1799:0.435026 1800:0.135196 1801:-0.521679 1802:0.43795 1803:-0.200279 1804:0.137197 1805:0.592702 1806:0.0284958 1807:0.464611 1808:-0.197121 1809:0.253947 1810:-0.275949 1811:0.0781522 1812:0.214935 1813:0.404936 1814:-0.482707 1815:0.0809153 1816:-0.380465 1817:-0.148449 1818:0.165723 1819:-0.422957 1820:0.562172 1821:-0.26792 1822:-0.241495 1823:-0.21984 1824:0.104177 1825:0.952881 1826:-1 1827:-0.412881 1828:-0.415466 1829:0.61307 1830:0.825744 1831:0.518203 1832:-0.785836 1833:0.29822 1834:0.623801 1835:0.0852127 1836:-0.287732 1837:0.248933 1838:-0.662651 1839:-0.984642 1840:-0.286344 1841:-0.647712 1842:0.865203 1843:-0.372022 1844:0.84889 1845:-0.598351 1846:1 1847:-1 1848:0.312455 1849:0.00508778 1850:0.618383 1851:0.212832 1852:-0.660863 1853:0.256851 1854:-0.197766 1855:0.414352 1856:-0.152493 1857:-0.116599 1858:-0.312184 1859:0.400049 1860:-0.264046 1861:-0.318171 1862:-0.36779 1863:-0.362303 1864:-0.363477 1865:0.278546 1866:-0.204734 1867:0.0903815 1868:-0.0476376 1869:-0.0354505 1870:-0.185963 1871:0.0867502 1872:0.0381698 1873:-0.291158 1874:0.00174701 1875:0.726903 1876:0.445899 1877:-0.0623828 1878:-0.432165 1879:-0.716152 1880:-0.00391745 1881:-0.0525205 1882:-0.178271 1883:-0.413632 1884:-0.331504 1885:0.554265 1886:-0.225514 1887:-0.912857 1888:0.835593 1889:0.528611 1890:0.0879708 1891:0.466181 1892:-0.849746 1893:-0.205506 1894:-0.463769 1895:0.380286 1896:-0.1604 1897:0.377662 1898:0.520468 1899:0.296705 1900:0.437301 1901:0.497047 1902:0.52287 1903:0.853001 1904:-0.0153378 1905:-0.514441 1906:0.217436 1907:0.00282624 1908:-0.0847345 1909:-0.544202 1910:0.369708 1911:-0.716112 1912:-0.559496 1913:-0.0508653 1914:0.489235 1915:0.272118 1916:-0.286695 1917:-0.203383 1918:0.0340053 1919:0.190838 1920:-0.438753 1921:0.0317823 1922:0.0545566 1923:0.344664 1924:0.357817 1925:0.107613 1926:0.375621 1927:-0.131606 1928:0.782885 1929:-0.582445 1930:-0.568438 1931:0.161954 1932:-0.876209 1933:-0.660716 1934:-0.174465 1935:0.201763 1936:0.0162493 1937:0.225471 1938:0.118982 1939:-0.0255884 1940:-0.142143 1941:0.499516 1942:-0.335681 1943:-0.24856 1944:0.55388 1945:-0.524994 1946:0.360777 1947:-0.0703223 1948:-0.171468 1949:0.0947127 1950:0.534347 1951:0.236817 1952:-0.189349 1953:0.395773 1954:0.320858 1955:-0.172301 1956:-0.144604 1957:-0.359673 1958:0.26188 1959:-0.113222 1960:-0.0977699 1961:-0.105806 1962:0.549456 1963:0.917709 1964:-0.539219 1965:-0.540729 1966:0.0205217 1967:0.0562557 1968:0.179105 1969:-0.0458214 1970:-0.373303 1971:0.163231 1972:0.0196819 1973:-0.177536 1974:0.112667 1975:-0.57538 1976:-0.347476 1977:0.17526 1978:0.228103 1979:-0.492039 1980:0.758741 1981:-0.123861 1982:-0.600863 1983:0.0773035 1984:0.342076 1985:-0.261276 1986:0.149204 1987:0.202366 1988:0.289073 1989:0.488387 1990:0.0624908 1991:0.251521 1992:-0.492714 1993:0.603939 1994:-0.169943 1995:0.0218013 1996:-0.244216 1997:-0.144186 1998:-0.534461 1999:-0.26276 2000:0.26057 2001:0.588369 2002:0.114083 2003:0.842704 2004:-0.182413 2005:-0.573988 2006:0.433769 2007:-0.439953 2008:-0.0755497 2009:-0.721312 2010:0.17855 2011:-0.708183 2012:-0.264564 2013:0.0633274 2014:-0.104905 2015:0.489029 2016:0.189205 2017:0.277848 2018:0.120565 2019:-0.287858 2020:0.262345 2021:0.0219254 2022:-0.0174897 2023:-0.205196 2024:0.294055 2025:-0.0100422 2026:-0.34991 2027:0.105965 2028:-0.357861 2029:0.0987777 2030:0.386107 2031:0.233947 2032:-0.115989 2033:0.524022 2034:-0.0353643 2035:0.138684 2036:0.110121 2037:-0.233113 2038:0.13521 2039:-0.0477232 2040:-0.568976 2041:0.0224117 2042:0.174659 2043:0.170502 2044:0.297444 2045:0.379171 2046:0.117068 2047:-0.14022 2048:-0.567328 2049:-0.402993 2050:0.692322 2051:0.291503 2052:-0.452561 2053:0.0820506 2054:0.0916802 2055:0.833259 2056:0.0716997 2057:-0.267708 2058:0.310746 2059:0.10116 2060:-0.124062 2061:-0.237727 2062:0.496065 2063:-0.687015 2064:-0.119602 2065:0.705892 2066:-0.669429 2067:-0.142249 2068:0.435357 2069:-0.86882 2070:0.097173 2071:0.036765 2072:-0.524681 2073:1 2074:0.662555 2075:1 2076:0.110857 2077:0.234648 2078:0.0985383 2079:-0.153611 2080:0.514336 2081:-0.0362648 2082:-0.0838258 2083:0.422541 2084:0.289565 2085:-0.0461337 2086:-0.067374 2087:0.789743 2088:-0.206302 2089:0.717409 2090:-0.54469 2091:-0.463679 2092:1 2093:-0.271833 2094:-0.336118 2095:-1 2096:-0.110857 2097:0.281811 2098:0.352579 2099:-0.879801 2100:0.146032 2101:0.261376 2102:0.451523 2103:0.387605 2104:0.121402 2105:0.0820748 2106:0.188878 2107:-0.470266 2108:0.32234 2109:-0.253092 2110:-0.31113 2111:-0.354809 2112:-0.0429284 2113:0.304175 2114:0.160489 2115:0.579295 2116:0.537658 2117:-0.646974 2118:0.617958 2119:-0.529572 2120:0.420198 2121:-0.41755 2122:-0.272201 2123:-0.465752 2124:0.0942599 2125:0.232718 2126:-0.794042 2127:-0.0724955 2128:-0.597038 2129:0.468451 2130:0.445526 2131:0.139537 2132:0.740327 2133:-0.0677572 2134:-0.231124 2135:0.426522 2136:0.593111 2137:0.748509 2138:0.148506 2139:0.205105 2140:0.0499425 2141:0.22476 2142:-0.152175 2143:-0.0942731 2144:-0.126773 2145:-0.237029 2146:-0.121627 2147:0.125435 2148:-0.194281 2149:0.148001 2150:0.064289 2151:-0.585802 2152:0.701231 2153:0.201248 2154:0.136484 2155:0.264313 2156:-0.220163 2157:-0.0666759 2158:-0.544714 2159:-0.410881 2160:0.0550356 2161:-0.505961 2162:0.0773623 2163:-0.14583 2164:-0.0391464 2165:-0.282723 2166:-0.557097 2167:-0.0173019 2168:0.40684 2169:0.0610843 2170:0.178148 2171:-0.045023 2172:-0.0515003 2173:-0.164321 2174:-0.475549 2175:0.281588 2176:0.126851 2177:-0.21046 2178:-0.026704 2179:-0.626464 2180:0.326344 2181:-0.614435 2182:-0.599029 2183:-0.461609 2184:-0.31485 2185:-0.367585 2186:-0.0911222 2187:-0.0517337 2188:-0.752869 2189:0.244691 2190:-0.768625 2191:-0.70651 2192:0.0495705 2193:-0.180243 2194:0.18439 2195:-0.416413 2196:0.559565 2197:0.153545 2198:0.422752 2199:-0.373397 2200:-0.4722 2201:0.0448601 2202:0.294846 2203:0.212055 2204:0.240966 2205:-0.611603 2206:0.330592 2207:-0.40873 2208:0.447745 2209:-0.797828 2210:0.570345 2211:0.258975 2212:-0.655119 2213:0.280694 2214:-0.126434 2215:0.245231 2216:-0.115454 2217:1 2218:-0.338425 2219:0.277349 2220:0.379154 2221:0.364971 2222:-1 2223:-0.632028 2224:-0.00416164 2225:-0.127412 2226:0.0537973 2227:-0.965973 2228:-0.688737 2229:-0.277669 2230:-0.500924 2231:0.288616 2232:-0.218807 2233:-0.383111 2234:0.236433 2235:-0.567985 2236:-0.61203 2237:0.089496 2238:-0.129411 2239:0.518434 2240:-0.0756817 2241:-0.117348 2242:0.359099 2243:-0.599924 2244:0.0799617 2245:0.19025 2246:-0.323621 2247:-0.272633 2248:0.241309 2249:0.427657 2250:-0.525934 2251:0.194941 2252:-0.0221302 2253:0.0275134 2254:-0.153212 2255:-0.50019 2256:0.593205 2257:0.0831935 2258:-0.0218136 2259:0.116421 2260:0.0141548 2261:0.315983 2262:0.114907 2263:-0.562053 2264:-0.162346 2265:0.640904 2266:0.15484 2267:0.279948 2268:-0.474863 2269:0.25333 2270:-0.646566 2271:0.0268279 2272:-0.0223332 2273:0.47316 2274:0.00139779 2275:-0.483654 2276:0.194941 2277:-0.0221302 2278:0.0275134 2279:-0.153212 2280:-0.50019 2281:0.593205 2282:0.0831935 2283:-0.0218136 2284:0.116421 2285:0.0141548 2286:0.315983 2287:0.114907 2288:-0.562053 2289:-0.162346 2290:0.640904 2291:0.15484 2292:0.279948 2293:-0.474863 2294:0.25333 2295:-0.646566 2296:0.0268279 2297:-0.0223332 2298:0.47316 2299:0.00139779 2300:-0.483654 2301:-0.237365 2302:-0.158852 2303:-0.417115 2304:-0.0593885 2305:0.484027 2306:0.289369 2307:-0.165046 2308:-0.272715 2309:0.0433489 2310:0.621686 2311:0.244818 2312:0.554704 2313:0.103354 2314:-0.206835 2315:-0.216192 2316:-0.128257 2317:0.33091 2318:0.0327709 2319:-0.0239786 2320:-0.151281 2321:0.186597 2322:0.212758 2323:0.33033 2324:0.253444 2325:-0.150241 2326:-0.237365 2327:-0.158852 2328:-0.417115 2329:-0.0593885 2330:0.484027 2331:0.289369 2332:-0.165046 2333:-0.272715 2334:0.0433489 2335:0.621686 2336:0.244818 2337:0.554704 2338:0.103354 2339:-0.206835 2340:-0.216192 2341:-0.128257 2342:0.33091 2343:0.0327709 2344:-0.0239786 2345:-0.151281 2346:0.186597 2347:0.212758 2348:0.33033 2349:0.253444 2350:-0.150241 2351:-0.259266 2352:-0.21792 2353:-0.565491 2354:0.249449 2355:0.464261 2356:0.469302 2357:1 2358:0.101917 2359:0.162641 2360:0.139955 2361:-0.0790646 2362:0.621034 2363:-0.036158 2364:0.15145 2365:-0.0928836 2366:0.0163774 2367:0.0930032 2368:-0.350117 2369:-0.308492 2370:0.00448633 2371:0.401331 2372:0.747576 2373:-0.109709 2374:0.0217911 2375:0.216916 2376:-0.834452 2377:-0.22984 2378:-0.6286 2379:0.730091 2380:0.267434 2381:-0.283914 2382:0.693184 2383:-0.0510161 2384:0.0366348 2385:0.0548348 2386:0.246137 2387:0.662145 2388:0.0393418 2389:0.264381 2390:-0.141315 2391:-0.196507 2392:-0.279251 2393:-0.0923259 2394:-0.0297224 2395:-0.0556426 2396:0.173629 2397:0.121923 2398:0.126459 2399:-0.455994 2400:-0.121092 2401:-0.834452 2402:-0.22984 2403:-0.6286 2404:0.730091 2405:0.267434 2406:-0.283914 2407:0.693184 2408:-0.0510161 2409:0.0366348 2410:0.0548348 2411:0.246137 2412:0.662145 2413:0.0393418 2414:0.264381 2415:-0.141315 2416:-0.196507 2417:-0.279251 2418:-0.0923259 2419:-0.0297224 2420:-0.0556426 2421:0.173629 2422:0.121923 2423:0.126459 2424:-0.455994 2425:-0.121092 2426:-0.14633 2427:-0.165767 2428:-0.483445 2429:-0.249331 2430:-0.513852 2431:0.106099 2432:-0.127253 2433:-0.0944294 2434:-0.184526 2435:-0.667726 2436:0.212869 2437:0.00343095 2438:-0.308324 2439:1 2440:-0.377295 2441:-0.0366222 2442:0.0643127 2443:0.312047 2444:0.282797 2445:-0.288871 2446:-0.0539133 2447:-0.0655945 2448:-0.00183673 2449:-0.975979 2450:-0.0733342 2451:0.159126 2452:-0.071528 2453:0.421538 2454:0.158487 2455:0.633043 2456:-0.120076 2457:-0.0674313 2458:0.0797925 2459:0.518071 2460:-0.0341327 2461:0.165627 2462:0.398886 2463:-0.0739764 2464:-0.0236701 2465:0.474882 2466:0.313345 2467:-0.638956 2468:-0.179718 2469:-0.628843 2470:0.0922826 2471:0.407578 2472:0.12316 2473:-0.412243 2474:0.218696 2475:0.0157639 2476:0.341137 2477:0.417201 2478:0.659854 2479:-0.125784 2480:-0.322584 2481:0.17109 2482:-0.190156 2483:0.172942 2484:-0.267379 2485:-0.359599 2486:0.0474079 2487:-0.310373 2488:-0.21492 2489:-0.178804 2490:0.211218 2491:-0.0824062 2492:-0.155074 2493:0.642077 2494:0.177574 2495:0.214975 2496:-0.588101 2497:0.249451 2498:-0.852262 2499:-0.356809 2500:0.22066 2501:0.00513338 2502:-0.0272004 2503:0.0905427 2504:-0.383268 2505:-0.266815 2506:-0.0763113 2507:0.430477 2508:-0.526915 2509:0.133026 2510:-0.247139 2511:-0.0332301 2512:-0.58377 2513:-0.137646 2514:-0.0556201 2515:-0.931145 2516:-0.114527 2517:-0.32944 2518:0.37831 2519:0.256774 2520:0.725388 2521:0.272765 2522:-0.239258 2523:0.0943363 2524:0.0909965 2525:0.148363 2526:0.00513338 2527:-0.0272004 2528:0.0905427 2529:-0.383268 2530:-0.266815 2531:-0.0763113 2532:0.430477 2533:-0.526915 2534:0.133026 2535:-0.247139 2536:-0.0332301 2537:-0.58377 2538:-0.137646 2539:-0.0556201 2540:-0.931145 2541:-0.114527 2542:-0.32944 2543:0.37831 2544:0.256774 2545:0.725388 2546:0.272765 2547:-0.239258 2548:0.0943363 2549:0.0909965 2550:0.148363 2551:0.703529 2552:-0.450745 2553:-0.575108 2554:0.0137402 2555:-0.462187 2556:-0.0460911 2557:0.285616 2558:-0.41393 2559:-0.210429 2560:-0.0925094 2561:-0.132406 2562:-0.313601 2563:-0.0461339 2564:-0.565014 2565:0.218819 2566:0.371046 2567:-0.15696 2568:0.286251 2569:-0.0893691 2570:-0.51222 2571:0.189876 2572:-0.422082 2573:0.352419 2574:-0.196969 2575:0.058237 2576:0.703529 2577:-0.450745 2578:-0.575108 2579:0.0137402 2580:-0.462187 2581:-0.0460911 2582:0.285616 2583:-0.41393 2584:-0.210429 2585:-0.0925094 2586:-0.132406 2587:-0.313601 2588:-0.0461339 2589:-0.565014 2590:0.218819 2591:0.371046 2592:-0.15696 2593:0.286251 2594:-0.0893691 2595:-0.51222 2596:0.189876 2597:-0.422082 2598:0.352419 2599:-0.196969 2600:0.058237 2601:0.0977988 2602:-0.212626 2603:0.14164 2604:0.209602 2605:0.0194263 2606:-0.243227 2607:0.151776 2608:0.462915 2609:0.0596983 2610:-0.114437 2611:-0.464507 2612:-0.435005 2613:-0.632937 2614:0.401277 2615:0.200918 2616:-0.0886578 2617:-0.193126 2618:-0.113815 2619:-0.133338 2620:0.0661102 2621:0.0708071 2622:-0.56938 2623:0.12171 2624:0.302291 2625:-0.000133531 2626:0.0977988 2627:-0.212626 2628:0.14164 2629:0.209602 2630:0.0194263 2631:-0.243227 2632:0.151776 2633:0.462915 2634:0.0596983 2635:-0.114437 2636:-0.464507 2637:-0.435005 2638:-0.632937 2639:0.401277 2640:0.200918 2641:-0.0886578 2642:-0.193126 2643:-0.113815 2644:-0.133338 2645:0.0661102 2646:0.0708071 2647:-0.56938 2648:0.12171 2649:0.302291 2650:-0.000133531 2651:0.271853 2652:0.232382 2653:-0.280551 2654:0.0917255 2655:-0.784883 2656:0.696991 2657:0.0991039 2658:1 2659:-0.195602 2660:0.864805 2661:0.11013 2662:-0.422453 2663:-0.284321 2664:-0.244214 2665:0.464217 2666:0.0658524 2667:-0.261678 2668:-0.400636 2669:-0.355349 2670:0.315211 2671:-1 2672:1 2673:-0.243414 2674:-0.851378 2675:0.470847 2676:0.271853 2677:0.232382 2678:-0.280551 2679:0.0917255 2680:-0.784883 2681:0.696991 2682:0.0991039 2683:1 2684:-0.195602 2685:0.864805 2686:0.11013 2687:-0.422453 2688:-0.284321 2689:-0.244214 2690:0.464217 2691:0.0658524 2692:-0.261678 2693:-0.400636 2694:-0.355349 2695:0.315211 2696:-1 2697:1 2698:-0.243414 2699:-0.851378 2700:0.470847 2701:0.42651 2702:-0.731258 2703:-0.272385 2704:0.0452673 2705:-0.535697 2706:0.628475 2707:0.334915 2708:-0.141735 2709:-0.115534 2710:-0.482161 2711:0.480975 2712:-0.28114 2713:0.169932 2714:0.0909525 2715:0.00501741 2716:-0.240937 2717:-0.016573 2718:-0.0105753 2719:0.232394 2720:-0.413542 2721:0.128333 2722:0.366927 2723:0.0241892 2724:0.337359 2725:-0.0477279 2726:0.42651 2727:-0.731258 2728:-0.272385 2729:0.0452673 2730:-0.535697 2731:0.628475 2732:0.334915 2733:-0.141735 2734:-0.115534 2735:-0.482161 2736:0.480975 2737:-0.28114 2738:0.169932 2739:0.0909525 2740:0.00501741 2741:-0.240937 2742:-0.016573 2743:-0.0105753 2744:0.232394 2745:-0.413542 2746:0.128333 2747:0.366927 2748:0.0241892 2749:0.337359 2750:-0.0477279 2751:-0.760591 2752:-0.16639 2753:-0.708825 2754:0.291493 2755:0.0131869 2756:0.103143 2757:0.317148 2758:0.258499 2759:0.037301 2760:0.169758 2761:0.113713 2762:0.612877 2763:0.113922 2764:0.512421 2765:0.142328 2766:0.173021 2767:0.106109 2768:-0.236831 2769:0.282648 2770:0.0563702 2771:0.107911 2772:0.610763 2773:0.277306 2774:-0.0187953 2775:0.402963 2776:-0.760591 2777:-0.16639 2778:-0.708825 2779:0.291493 2780:0.0131869 2781:0.103143 2782:0.317148 2783:0.258499 2784:0.037301 2785:0.169758 2786:0.113713 2787:0.612877 2788:0.113922 2789:0.512421 2790:0.142328 2791:0.173021 2792:0.106109 2793:-0.236831 2794:0.282648 2795:0.0563702 2796:0.107911 2797:0.610763 2798:0.277306 2799:-0.0187953 2800:0.402963 2801:0.0783467 2802:0.282579 2803:0.22603 2804:-0.499173 2805:-0.729492 2806:-0.214222 2807:0.152022 2808:0.460746 2809:0.588282 2810:-0.788887 2811:-0.399986 2812:-0.380454 2813:0.683715 2814:-0.112792 2815:-0.524174 2816:0.00259866 2817:-0.217814 2818:0.792227 2819:0.0410241 2820:0.185282 2821:-0.20497 2822:-0.558994 2823:1 2824:0.164266 2825:0.310019 2826:0.0783467 2827:0.282579 2828:0.22603 2829:-0.499173 2830:-0.729492 2831:-0.214222 2832:0.152022 2833:0.460746 2834:0.588282 2835:-0.788887 2836:-0.399986 2837:-0.380454 2838:0.683715 2839:-0.112792 2840:-0.524174 2841:0.00259866 2842:-0.217814 2843:0.792227 2844:0.0410241 2845:0.185282 2846:-0.20497 2847:-0.558994 2848:1 2849:0.164266 2850:0.310019 2851:-0.630746 2852:-0.36322 2853:-0.465799 2854:0.772252 2855:0.549142 2856:-0.0204445 2857:0.49662 2858:-0.0661513 2859:0.010623 2860:0.0232556 2861:0.122784 2862:0.833457 2863:0.341196 2864:0.590903 2865:-0.0649174 2866:-0.102329 2867:0.188255 2868:0.347032 2869:0.153886 2870:0.252948 2871:0.202994 2872:0.612304 2873:0.361582 2874:0.0769335 2875:0.101986 2876:-0.630746 2877:-0.36322 2878:-0.465799 2879:0.772252 2880:0.549142 2881:-0.0204445 2882:0.49662 2883:-0.0661513 2884:0.010623 2885:0.0232556 2886:0.122784 2887:0.833457 2888:0.341196 2889:0.590903 2890:-0.0649174 2891:-0.102329 2892:0.188255 2893:0.347032 2894:0.153886 2895:0.252948 2896:0.202994 2897:0.612304 2898:0.361582 2899:0.0769335 2900:0.101986 2901:-0.078029 2902:0.0184427 2903:-0.445978 2904:0.84815 2905:0.527459 2906:-0.806093 2907:0.208418 2908:-0.634578 2909:0.482521 2910:0.0154669 2911:-0.322471 2912:-0.447221 2913:0.297798 2914:0.725439 2915:0.80807 2916:-0.698994 2917:-0.5653 2918:0.424775 2919:0.598484 2920:0.497756 2921:0.765974 2922:0.416389 2923:-0.683038 2924:-0.171996 2925:-0.0429861 2926:-0.078029 2927:0.0184427 2928:-0.445978 2929:0.84815 2930:0.527459 2931:-0.806093 2932:0.208418 2933:-0.634578 2934:0.482521 2935:0.0154669 2936:-0.322471 2937:-0.447221 2938:0.297798 2939:0.725439 2940:0.80807 2941:-0.698994 2942:-0.5653 2943:0.424775 2944:0.598484 2945:0.497756 2946:0.765974 2947:0.416389 2948:-0.683038 2949:-0.171996 2950:-0.0429861 2951:-0.611275 2952:-0.544695 2953:-0.515169 2954:0.304286 2955:0.315506 2956:0.0473534 2957:0.35657 2958:0.124114 2959:-0.384257 2960:0.19859 2961:0.235685 2962:0.459234 2963:0.00680719 2964:-0.00459814 2965:0.0831852 2966:0.363578 2967:-0.0295699 2968:0.279206 2969:-0.245617 2970:-0.0387959 2971:-0.00842305 2972:0.211249 2973:-0.043141 2974:-0.329439 2975:-0.0452065 2976:-0.611275 2977:-0.544695 2978:-0.515169 2979:0.304286 2980:0.315506 2981:0.0473534 2982:0.35657 2983:0.124114 2984:-0.384257 2985:0.19859 2986:0.235685 2987:0.459234 2988:0.00680719 2989:-0.00459814 2990:0.0831852 2991:0.363578 2992:-0.0295699 2993:0.279206 2994:-0.245617 2995:-0.0387959 2996:-0.00842305 2997:0.211249 2998:-0.043141 2999:-0.329439 3000:-0.0452065 3001:0.718489 3002:-0.588828 3003:0.288002 3004:-0.279872 3005:-0.814394 3006:-0.0510115 3007:-0.514694 3008:0.293094 3009:-0.505782 3010:-0.246748 3011:-0.635211 3012:0.312038 3013:-0.0885094 3014:0.221412 3015:-0.11597 3016:-0.304024 3017:0.150743 3018:0.112996 3019:-0.283293 3020:0.106583 3021:0.186617 3022:-0.102221 3023:-0.090797 3024:0.198393 3025:-0.494875 3026:0.718489 3027:-0.588828 3028:0.288002 3029:-0.279872 3030:-0.814394 3031:-0.0510115 3032:-0.514694 3033:0.293094 3034:-0.505782 3035:-0.246748 3036:-0.635211 3037:0.312038 3038:-0.0885094 3039:0.221412 3040:-0.11597 3041:-0.304024 3042:0.150743 3043:0.112996 3044:-0.283293 3045:0.106583 3046:0.186617 3047:-0.102221 3048:-0.090797 3049:0.198393 3050:-0.494875 3051:-0.359585 3052:-0.381379 3053:-0.220406 3054:0.0661061 3055:0.431423 3056:-0.398571 3057:0.282226 3058:-0.0204832 3059:-0.289037 3060:0.290177 3061:0.713773 3062:0.250243 3063:-0.552217 3064:0.0653158 3065:-0.0650397 3066:-0.424483 3067:0.558542 3068:0.344086 3069:0.186936 3070:0.114476 3071:-0.519245 3072:0.109497 3073:0.0173553 3074:0.0596456 3075:0.281252 3076:-0.671414 3077:0.134182 3078:-0.655304 3079:0.485423 3080:0.300319 3081:-0.12287 3082:0.401959 3083:0.0614603 3084:-0.39815 3085:0.395062 3086:0.341333 3087:0.571125 3088:0.130274 3089:0.426529 3090:0.184427 3091:-0.104631 3092:-0.0992242 3093:-0.319245 3094:-0.320456 3095:-0.295669 3096:-0.432281 3097:0.329357 3098:0.500289 3099:0.190169 3100:0.276126 3101:-0.671414 3102:0.134182 3103:-0.655304 3104:0.485423 3105:0.300319 3106:-0.12287 3107:0.401959 3108:0.0614603 3109:-0.39815 3110:0.395062 3111:0.341333 3112:0.571125 3113:0.130274 3114:0.426529 3115:0.184427 3116:-0.104631 3117:-0.0992242 3118:-0.319245 3119:-0.320456 3120:-0.295669 3121:-0.432281 3122:0.329357 3123:0.500289 3124:0.190169 3125:0.276126 3126:-0.577602 3127:-0.0799772 3128:-0.154579 3129:-0.0935313 3130:0.226792 3131:-0.321637 3132:0.418745 3133:-0.513619 3134:-0.244125 3135:0.588352 3136:0.0480882 3137:0.395389 3138:-0.121471 3139:-0.0990115 3140:-0.0889985 3141:0.0857983 3142:0.054109 3143:-0.0132343 3144:0.107783 3145:0.237205 3146:-0.0256084 3147:-0.0815568 3148:0.302008 3149:0.260893 3150:0.395302 3151:-0.577602 3152:-0.0799772 3153:-0.154579 3154:-0.0935313 3155:0.226792 3156:-0.321637 3157:0.418745 3158:-0.513619 3159:-0.244125 3160:0.588352 3161:0.0480882 3162:0.395389 3163:-0.121471 3164:-0.0990115 3165:-0.0889985 3166:0.0857983 3167:0.054109 3168:-0.0132343 3169:0.107783 3170:0.237205 3171:-0.0256084 3172:-0.0815568 3173:0.302008 3174:0.260893 3175:0.395302 3176:-0.175038 3177:-0.0477829 3178:-0.227683 3179:0.455602 3180:0.360335 3181:-0.419068 3182:0.0400304 3183:-0.0620644 3184:0.391571 3185:0.0145934 3186:-0.134878 3187:-0.232364 3188:0.43836 3189:0.568088 3190:0.460791 3191:-0.233194 3192:-0.101893 3193:0.452493 3194:0.0245345 3195:-0.147792 3196:0.106698 3197:0.0975137 3198:-0.142221 3199:-0.298891 3200:-0.181729 
