~o
<STREAMINFO> 1 25
<VECSIZE> 25<NULLD><MFCC_E_D_N><DIAGC>
~h "jmodel"
<BEGINHMM>
<NUMSTATES> 3
<STATE> 2
<NUMMIXES> 128
<MIXTURE> 1 5.748963e-03
<MEAN> 25
 -2.593796e+00 3.209720e+00 2.314099e+00 8.752503e+00 4.398298e+00 3.446813e+00 4.077850e+00 3.914019e+00 5.836231e+00 5.241113e+00 5.830752e+00 3.061969e+00 -2.003898e+00 -1.633513e+00 -8.594667e-01 1.076415e+00 1.559194e+00 2.227791e+00 2.144345e+00 2.076586e+00 1.681977e+00 1.267926e+00 1.573647e+00 6.218183e-01 -4.684250e-02
<VARIANCE> 25
 1.007653e+01 1.202737e+01 1.491358e+01 1.863588e+01 2.328422e+01 2.208844e+01 2.194351e+01 2.199142e+01 2.092631e+01 2.251332e+01 2.157118e+01 1.711825e+01 1.781998e+00 2.105356e+00 3.019588e+00 3.198260e+00 3.728470e+00 3.348919e+00 3.331472e+00 3.385968e+00 3.534870e+00 3.716911e+00 3.513185e+00 2.842152e+00 3.110461e-03
<GCONST> 8.850156e+01
<MIXTURE> 2 4.549242e-03
<MEAN> 25
 -6.087163e+00 2.552384e+00 8.565548e-01 9.074808e+00 8.001852e+00 6.566226e+00 8.425314e+00 6.246749e+00 8.283569e+00 5.924498e+00 6.845650e+00 3.381676e+00 -5.858402e-02 6.372146e-02 1.196271e-01 1.616670e-01 2.047442e-01 2.474065e-01 2.174090e-01 3.318767e-01 4.156351e-01 3.250536e-01 1.479173e-01 -2.462195e-02 9.113263e-07
<VARIANCE> 25
 8.434745e+00 1.013589e+01 8.640982e+00 1.437814e+01 1.830157e+01 1.557739e+01 1.530371e+01 1.630029e+01 1.568059e+01 1.543946e+01 1.600914e+01 1.189086e+01 1.108043e-01 1.977321e-01 3.145633e-01 4.589427e-01 5.970258e-01 8.706239e-01 9.564136e-01 9.260097e-01 1.087065e+00 1.056816e+00 1.007784e+00 9.302338e-01 7.419419e-07
<GCONST> 5.655613e+01
<MIXTURE> 3 4.549242e-03
<MEAN> 25
 -6.087163e+00 2.552384e+00 8.565548e-01 9.074808e+00 8.001852e+00 6.566226e+00 8.425314e+00 6.246749e+00 8.283569e+00 5.924498e+00 6.845650e+00 3.381676e+00 -5.858402e-02 6.372146e-02 1.196271e-01 1.616670e-01 2.047442e-01 2.474065e-01 2.174090e-01 3.318767e-01 4.156351e-01 3.250536e-01 1.479173e-01 -2.462195e-02 9.113263e-07
<VARIANCE> 25
 8.434745e+00 1.013589e+01 8.640982e+00 1.437814e+01 1.830157e+01 1.557739e+01 1.530371e+01 1.630029e+01 1.568059e+01 1.543946e+01 1.600914e+01 1.189086e+01 1.108043e-01 1.977321e-01 3.145633e-01 4.589427e-01 5.970258e-01 8.706239e-01 9.564136e-01 9.260097e-01 1.087065e+00 1.056816e+00 1.007784e+00 9.302338e-01 7.419419e-07
<GCONST> 5.655613e+01
<MIXTURE> 4 1.671429e-02
<MEAN> 25
 1.596719e+00 3.207147e+00 -4.622406e+00 1.490189e+00 7.415409e+00 2.061270e+00 2.547852e+00 7.765266e-01 1.650279e+00 4.134600e+00 -1.517978e+00 -8.512227e-01 -3.116470e+00 1.994968e+00 1.866159e+00 2.928585e+00 2.111781e+00 -3.336353e-01 7.621186e-01 1.072897e+00 4.717005e-01 2.628807e-01 3.500039e-01 1.334889e-01 -1.006636e-01
<VARIANCE> 25
 2.237371e+01 3.750863e+01 3.076861e+01 3.794840e+01 4.463874e+01 5.544329e+01 8.509155e+01 4.334766e+01 5.113533e+01 5.665052e+01 4.555057e+01 3.390519e+01 1.891584e+00 4.631398e+00 4.408157e+00 3.549770e+00 4.389314e+00 6.170069e+00 3.861477e+00 5.030786e+00 3.916442e+00 6.157753e+00 5.638031e+00 4.252870e+00 6.249382e-03
<GCONST> 1.035537e+02
<MIXTURE> 5 3.206198e-03
<MEAN> 25
 -5.010637e+00 3.081016e+00 -9.954747e-01 7.253195e+00 7.925307e+00 4.918322e+00 8.108624e+00 3.647662e+00 5.688438e+00 3.528211e+00 4.429945e+00 2.710988e+00 -7.551572e-01 7.093543e-01 1.629951e+00 1.417358e+00 4.642493e-01 -3.674590e-01 -4.369974e-01 -4.294828e-02 1.408647e-01 3.940898e-01 1.705552e-01 -3.172753e-02 -1.940156e-05
<VARIANCE> 25
 1.074166e+01 1.224219e+01 2.592271e+01 2.854966e+01 1.675853e+01 1.478217e+01 1.893946e+01 2.167981e+01 1.711323e+01 1.980813e+01 1.834619e+01 1.343170e+01 1.471573e+00 1.025074e+00 1.830225e+00 2.391842e+00 2.082635e+00 1.985232e+00 2.242087e+00 1.855071e+00 2.056512e+00 2.360895e+00 1.927449e+00 1.873366e+00 5.838072e-07
<GCONST> 7.353822e+01
<MIXTURE> 6 5.475854e-03
<MEAN> 25
 1.002049e+01 -1.409890e+00 -5.908003e+00 -9.476804e+00 -3.560451e+00 7.670308e+00 -3.965072e+00 -4.369385e+00 -4.978732e+00 2.285504e+00 4.753311e+00 -1.294961e+00 3.913433e-01 8.620570e-01 -1.824688e-01 -1.266631e+00 -8.334715e-01 1.395014e+00 1.728029e+00 2.848196e-02 -1.149678e+00 -1.174266e+00 3.314180e-01 1.051989e+00 -1.331916e-02
<VARIANCE> 25
 8.764425e+00 1.850464e+01 2.902113e+01 3.601838e+01 3.477651e+01 3.398489e+01 5.045285e+01 3.772254e+01 4.701286e+01 5.006983e+01 3.809064e+01 2.630479e+01 2.884344e-01 7.009290e-01 1.040616e+00 1.794250e+00 1.587828e+00 2.591018e+00 2.781744e+00 1.819087e+00 2.199763e+00 2.114164e+00 2.253167e+00 1.372312e+00 6.696360e-04
<GCONST> 8.470608e+01
<MIXTURE> 7 5.475854e-03
<MEAN> 25
 1.002049e+01 -1.409890e+00 -5.908003e+00 -9.476804e+00 -3.560451e+00 7.670308e+00 -3.965072e+00 -4.369385e+00 -4.978732e+00 2.285504e+00 4.753311e+00 -1.294961e+00 3.913433e-01 8.620570e-01 -1.824688e-01 -1.266631e+00 -8.334715e-01 1.395014e+00 1.728029e+00 2.848196e-02 -1.149678e+00 -1.174266e+00 3.314180e-01 1.051989e+00 -1.331916e-02
<VARIANCE> 25
 8.764425e+00 1.850464e+01 2.902113e+01 3.601838e+01 3.477651e+01 3.398489e+01 5.045285e+01 3.772254e+01 4.701286e+01 5.006983e+01 3.809064e+01 2.630479e+01 2.884344e-01 7.009290e-01 1.040616e+00 1.794250e+00 1.587828e+00 2.591018e+00 2.781744e+00 1.819087e+00 2.199763e+00 2.114164e+00 2.253167e+00 1.372312e+00 6.696360e-04
<GCONST> 8.470608e+01
<MIXTURE> 8 1.165917e-02
<MEAN> 25
 -5.082574e+00 1.759680e+00 1.249485e+00 9.461520e+00 6.869155e+00 5.985942e+00 6.841670e+00 5.594286e+00 6.621688e+00 5.471779e+00 6.023539e+00 2.775873e+00 -6.228053e-01 -1.479934e+00 -1.113390e+00 -1.726892e+00 -3.436997e-01 -8.386561e-01 -1.565350e-01 -4.071938e-01 -4.852981e-01 -4.254072e-01 -3.634588e-01 9.206869e-02 9.787647e-02
<VARIANCE> 25
 1.001812e+01 1.107191e+01 1.146137e+01 1.535145e+01 1.639525e+01 1.540780e+01 1.841113e+01 1.676981e+01 1.640633e+01 1.683664e+01 2.087846e+01 1.499505e+01 2.579927e+00 2.667821e+00 3.665952e+00 3.519891e+00 3.355534e+00 3.221908e+00 2.929271e+00 3.060086e+00 3.499748e+00 3.388915e+00 2.574076e+00 1.823660e+00 6.421702e-03
<GCONST> 8.648978e+01
<MIXTURE> 9 1.199672e-02
<MEAN> 25
 1.088330e+01 2.565094e+00 -3.404396e+00 -9.554480e+00 -6.344676e+00 6.873294e+00 3.556991e-01 -2.564430e+00 -6.091071e+00 -8.784062e-01 5.906156e-01 4.317668e-01 1.309667e+00 -5.231354e-01 -4.801234e-01 -2.608387e+00 -1.620660e+00 1.556752e+00 -1.276552e+00 5.301642e-02 -6.232619e-03 -2.741791e-01 1.051883e+00 2.172512e-01 7.437090e-02
<VARIANCE> 25
 1.229602e+01 2.519067e+01 3.356258e+01 4.159520e+01 5.863235e+01 2.894638e+01 5.376447e+01 4.244474e+01 3.059076e+01 3.179336e+01 2.869619e+01 2.166516e+01 2.294433e+00 2.431129e+00 3.532173e+00 3.450571e+00 3.693305e+00 3.185333e+00 3.736470e+00 4.568635e+00 4.071748e+00 2.994781e+00 3.586071e+00 2.456155e+00 2.927667e-03
<GCONST> 9.577081e+01
<MIXTURE> 10 6.596976e-03
<MEAN> 25
 1.540150e-01 7.687386e+00 5.665474e+00 7.315835e+00 1.631774e+00 -1.677101e+00 4.207233e-01 -1.759010e+00 4.292677e-01 8.726822e-01 -1.444046e-01 2.329359e-01 -1.891202e+00 -5.402645e-01 -5.708615e-01 3.009300e+00 2.679832e+00 2.679141e+00 2.257100e+00 2.449024e+00 1.610898e+00 1.361321e+00 2.065504e+00 2.756040e-01 -1.395468e-01
<VARIANCE> 25
 2.150704e+01 1.922590e+01 2.149018e+01 2.879987e+01 4.287412e+01 3.374378e+01 5.092946e+01 4.159049e+01 2.737936e+01 2.708430e+01 4.067469e+01 2.437138e+01 2.031924e+00 3.674768e+00 5.162304e+00 4.952483e+00 5.490082e+00 4.148136e+00 4.483605e+00 6.061078e+00 4.407477e+00 5.351922e+00 4.626657e+00 3.552470e+00 2.597868e-03
<GCONST> 9.852952e+01
<MIXTURE> 11 1.633820e-02
<MEAN> 25
 9.320893e+00 3.080405e+00 4.856679e+00 4.717122e+00 -2.819390e+00 -8.275056e-01 -8.618485e-01 -8.328210e+00 -6.529749e+00 -2.633811e+00 -7.295410e-01 -8.449388e-01 -4.220399e-01 7.667465e-01 1.420800e-01 3.271317e-01 6.272237e-01 3.045558e-02 8.158595e-01 -5.958029e-01 -2.703955e-01 -3.976483e-02 -4.013913e-01 1.425175e-01 -1.976315e-02
<VARIANCE> 25
 1.035130e+01 3.340576e+01 2.926117e+01 2.946729e+01 4.358944e+01 3.942991e+01 5.133699e+01 4.032402e+01 6.026904e+01 4.268420e+01 2.865004e+01 2.507905e+01 7.766275e-01 1.446795e+00 1.612048e+00 1.779308e+00 2.317180e+00 1.969741e+00 2.219817e+00 3.087028e+00 2.612404e+00 2.076989e+00 1.668842e+00 1.956122e+00 6.291264e-04
<GCONST> 8.818314e+01
<MIXTURE> 12 5.904134e-03
<MEAN> 25
 1.067391e+01 2.787287e+00 -4.134759e+00 -1.389502e+01 -9.215664e+00 9.563338e+00 9.132991e-01 -2.568752e+00 -3.213397e+00 -3.656879e+00 1.884794e+00 3.038872e-01 3.316328e-02 4.766649e-01 -6.812024e-02 -4.443654e-01 -3.807637e-01 4.110024e-02 3.444417e-01 2.497575e-01 3.149326e-01 -4.124182e-01 -4.720785e-01 9.852906e-02 -1.052437e-02
<VARIANCE> 25
 8.742383e+00 2.409541e+01 2.394891e+01 4.142484e+01 4.151030e+01 3.790898e+01 4.944617e+01 4.302352e+01 4.887140e+01 4.076043e+01 3.303841e+01 2.695791e+01 2.282166e-01 7.491266e-01 1.019191e+00 1.278798e+00 1.279593e+00 1.009731e+00 1.270166e+00 1.431878e+00 1.255518e+00 1.381447e+00 1.176052e+00 9.644430e-01 7.104888e-04
<GCONST> 8.038961e+01
<MIXTURE> 13 5.904134e-03
<MEAN> 25
 1.067391e+01 2.787287e+00 -4.134759e+00 -1.389502e+01 -9.215664e+00 9.563338e+00 9.132991e-01 -2.568752e+00 -3.213397e+00 -3.656879e+00 1.884794e+00 3.038872e-01 3.316328e-02 4.766649e-01 -6.812024e-02 -4.443654e-01 -3.807637e-01 4.110024e-02 3.444417e-01 2.497575e-01 3.149326e-01 -4.124182e-01 -4.720785e-01 9.852906e-02 -1.052437e-02
<VARIANCE> 25
 8.742383e+00 2.409541e+01 2.394891e+01 4.142484e+01 4.151030e+01 3.790898e+01 4.944617e+01 4.302352e+01 4.887140e+01 4.076043e+01 3.303841e+01 2.695791e+01 2.282166e-01 7.491266e-01 1.019191e+00 1.278798e+00 1.279593e+00 1.009731e+00 1.270166e+00 1.431878e+00 1.255518e+00 1.381447e+00 1.176052e+00 9.644430e-01 7.104888e-04
<GCONST> 8.038961e+01
<MIXTURE> 14 6.488954e-03
<MEAN> 25
 -4.339364e+00 -3.954853e-01 -3.341449e-01 8.878007e+00 7.586171e+00 7.366912e+00 7.824712e+00 7.273633e+00 7.243867e+00 5.193114e+00 6.762207e+00 4.049341e+00 -2.795032e-01 1.977918e-01 3.558447e-01 3.134402e-01 8.109139e-03 5.836753e-02 9.502910e-02 1.612876e-01 2.838800e-01 5.262989e-01 5.124477e-01 6.722707e-02 -9.289114e-03
<VARIANCE> 25
 9.348816e+00 1.416381e+01 1.856078e+01 1.783862e+01 2.112038e+01 1.956169e+01 2.144538e+01 2.083594e+01 1.990639e+01 2.382977e+01 2.244850e+01 1.611272e+01 9.773343e-01 1.635352e+00 1.800218e+00 1.962915e+00 2.276355e+00 2.253473e+00 2.248875e+00 2.271836e+00 2.276953e+00 2.505713e+00 2.206873e+00 1.808278e+00 1.017249e-03
<GCONST> 8.204614e+01
<MIXTURE> 15 2.475190e-03
<MEAN> 25
 -5.457738e+00 -5.921888e-01 -1.903022e-01 7.360551e+00 5.775111e+00 5.701577e+00 6.097614e+00 4.959449e+00 5.157155e+00 4.145709e+00 5.486862e+00 2.545011e+00 -1.225446e-01 -2.839819e-02 7.570991e-02 2.416387e-01 4.873306e-01 7.900807e-01 1.069826e+00 1.180208e+00 1.057373e+00 7.532294e-01 4.147289e-01 1.514252e-01 -8.193494e-05
<VARIANCE> 25
 7.064716e+00 5.881669e+00 8.996827e+00 1.273901e+01 1.435750e+01 1.421596e+01 1.498338e+01 1.487712e+01 1.406586e+01 1.409368e+01 1.502441e+01 1.246381e+01 1.251241e-01 2.050055e-01 3.183296e-01 5.014369e-01 7.012208e-01 7.936130e-01 7.636898e-01 7.866610e-01 9.056122e-01 1.022176e+00 1.076224e+00 1.034344e+00 2.771923e-05
<GCONST> 5.860568e+01
<MIXTURE> 16 2.475190e-03
<MEAN> 25
 -5.457738e+00 -5.921888e-01 -1.903022e-01 7.360551e+00 5.775111e+00 5.701577e+00 6.097614e+00 4.959449e+00 5.157155e+00 4.145709e+00 5.486862e+00 2.545011e+00 -1.225446e-01 -2.839819e-02 7.570991e-02 2.416387e-01 4.873306e-01 7.900807e-01 1.069826e+00 1.180208e+00 1.057373e+00 7.532294e-01 4.147289e-01 1.514252e-01 -8.193494e-05
<VARIANCE> 25
 7.064716e+00 5.881669e+00 8.996827e+00 1.273901e+01 1.435750e+01 1.421596e+01 1.498338e+01 1.487712e+01 1.406586e+01 1.409368e+01 1.502441e+01 1.246381e+01 1.251241e-01 2.050055e-01 3.183296e-01 5.014369e-01 7.012208e-01 7.936130e-01 7.636898e-01 7.866610e-01 9.056122e-01 1.022176e+00 1.076224e+00 1.034344e+00 2.771923e-05
<GCONST> 5.860568e+01
<MIXTURE> 17 9.518312e-03
<MEAN> 25
 4.161181e+00 -2.825084e+00 8.533170e+00 -2.480050e-01 -5.367233e+00 -4.800138e+00 -8.618163e+00 1.734799e+00 -2.024715e+00 -3.779348e+00 4.317815e-01 4.298545e-01 -8.180830e-01 -1.389355e+00 1.557907e+00 -2.368756e+00 -2.365424e+00 -5.745457e-01 -9.558623e-02 1.816046e+00 -9.534126e-01 8.239756e-01 7.379062e-01 1.314269e+00 7.048057e-02
<VARIANCE> 25
 1.553201e+01 2.415379e+01 2.702378e+01 3.313345e+01 3.901461e+01 4.512011e+01 6.975385e+01 5.347614e+01 2.866940e+01 3.110097e+01 2.002517e+01 2.529949e+01 1.184790e+00 2.413974e+00 2.609471e+00 2.631902e+00 3.720602e+00 4.462048e+00 6.040555e+00 5.866284e+00 4.117665e+00 4.052291e+00 3.211940e+00 1.812719e+00 1.419370e-03
<GCONST> 9.476346e+01
<MIXTURE> 18 1.221018e-02
<MEAN> 25
 2.957536e+00 3.890094e+00 8.174849e+00 4.287841e+00 -3.536405e+00 -7.316540e+00 -2.529738e+00 -3.079420e+00 -2.574149e+00 -1.842785e+00 -4.402997e-01 1.881645e+00 -1.094762e+00 3.044993e+00 -7.129363e-01 2.112020e+00 3.604762e+00 1.362229e+00 1.309690e+00 -5.445511e-01 1.025044e-01 -1.486792e-01 -5.633076e-01 -5.884089e-01 -1.149720e-01
<VARIANCE> 25
 1.618325e+01 2.297697e+01 3.438893e+01 2.699672e+01 3.966669e+01 4.216180e+01 3.431355e+01 3.516897e+01 3.598209e+01 3.948550e+01 2.713977e+01 2.882759e+01 2.426624e+00 3.233028e+00 3.631153e+00 4.301724e+00 3.593202e+00 4.493845e+00 4.219775e+00 5.417359e+00 4.582567e+00 3.732011e+00 3.138530e+00 3.995483e+00 4.371017e-03
<GCONST> 9.779285e+01
<MIXTURE> 19 9.912824e-03
<MEAN> 25
 -1.257259e+01 2.220352e+00 -2.744992e+00 -1.706967e+00 3.508855e+00 5.312934e-01 3.715539e+00 1.384920e+00 1.586386e+00 7.089523e-01 9.984335e-01 2.092271e+00 2.442261e+00 1.803524e+00 2.307377e+00 1.074989e+00 -1.271881e+00 -9.143355e-01 -1.421623e+00 -1.177724e+00 -1.490347e+00 -1.347038e+00 -8.106065e-01 -7.390822e-01 6.175658e-04
<VARIANCE> 25
 7.451824e+01 2.192573e+01 5.256583e+01 6.524191e+01 2.809263e+01 2.434803e+01 3.233529e+01 2.655113e+01 2.662071e+01 1.944435e+01 2.301834e+01 2.111288e+01 2.948529e+00 1.670800e+00 2.242767e+00 2.658590e+00 2.191954e+00 2.089888e+00 2.161877e+00 2.254832e+00 2.044819e+00 2.283134e+00 2.228985e+00 2.201452e+00 2.361590e-03
<GCONST> 9.077357e+01
<MIXTURE> 20 6.308331e-03
<MEAN> 25
 -1.573287e+01 9.090676e+00 -1.498203e+00 6.035257e+00 5.374661e+00 1.692808e+00 8.114003e+00 4.054784e-01 2.645862e-01 -9.665311e-01 -8.258601e-01 -3.433043e-01 -3.559553e+00 -1.085994e+00 -1.948454e+00 -1.074274e-01 1.633201e+00 2.028975e+00 2.064945e+00 2.186935e+00 1.669309e+00 1.664225e+00 8.103014e-01 6.638336e-01 4.143264e-02
<VARIANCE> 25
 1.848294e+01 2.214581e+01 3.354359e+01 4.525483e+01 2.809366e+01 2.315046e+01 3.320208e+01 2.732375e+01 1.940490e+01 2.367691e+01 3.318626e+01 1.861044e+01 1.721444e+00 2.147951e+00 2.565802e+00 2.167514e+00 2.532488e+00 2.455814e+00 2.474595e+00 1.958373e+00 2.882998e+00 2.908194e+00 3.082685e+00 1.982082e+00 1.525736e-03
<GCONST> 8.901080e+01
<MIXTURE> 21 7.928653e-03
<MEAN> 25
 3.649854e+00 -4.289164e+00 7.176079e+00 -4.194753e+00 -1.000659e+01 -6.701188e+00 -7.128431e+00 6.593348e+00 -3.183818e+00 -2.213989e+00 7.556888e-01 1.682493e+00 -6.243467e-01 1.142098e+00 2.214609e+00 9.023838e-02 -1.309005e+00 1.315694e-01 1.175107e+00 -1.395771e+00 -1.992200e+00 -2.693171e-01 1.033760e+00 7.244077e-01 -1.124468e-02
<VARIANCE> 25
 5.169129e+00 1.137474e+01 2.214952e+01 2.944369e+01 2.082226e+01 3.047005e+01 4.777367e+01 3.985643e+01 2.855005e+01 2.686849e+01 1.971485e+01 1.481557e+01 2.971049e-01 6.215331e-01 2.209053e+00 1.642852e+00 1.530325e+00 2.555668e+00 4.313853e+00 2.836054e+00 2.837343e+00 2.344787e+00 1.480875e+00 1.846670e+00 3.611837e-04
<GCONST> 8.126827e+01
<MIXTURE> 22 8.827789e-03
<MEAN> 25
 -1.954754e+01 6.358789e+00 -7.053545e+00 8.301134e+00 4.771095e+00 1.539866e+00 8.655611e+00 1.575172e+00 5.323102e+00 2.758000e+00 2.965358e+00 1.678079e+00 -4.899920e-01 -2.326360e-01 -2.006942e-01 -4.755357e-01 4.362448e-02 1.115088e-01 -7.877705e-02 3.420130e-01 7.581969e-02 2.791643e-01 6.227273e-02 2.046191e-01 1.100222e-02
<VARIANCE> 25
 1.191611e+01 1.456302e+01 2.503259e+01 2.295072e+01 1.947811e+01 1.913711e+01 1.513814e+01 1.794654e+01 1.733469e+01 1.918124e+01 2.693918e+01 1.157126e+01 1.283111e+00 1.510980e+00 1.452937e+00 2.285377e+00 1.506103e+00 1.538437e+00 1.795051e+00 1.847844e+00 1.617238e+00 1.281683e+00 1.121869e+00 1.806298e+00 1.591368e-03
<GCONST> 7.942464e+01
<MIXTURE> 23 6.455497e-03
<MEAN> 25
 8.232958e+00 2.195564e+00 3.842002e+00 2.007055e+00 -4.370432e+00 -2.072232e+00 -4.162919e+00 -6.876710e+00 -5.413548e+00 -1.402209e+00 -3.787955e+00 -2.496372e+00 1.814124e-03 2.506341e-01 1.385392e-02 5.691861e-02 4.299743e-02 1.233800e-02 7.437521e-02 -1.607759e-01 9.501512e-02 8.717570e-02 -3.607953e-02 -2.922126e-02 -4.823357e-03
<VARIANCE> 25
 9.772946e+00 2.091092e+01 2.872575e+01 3.878700e+01 3.591294e+01 5.483429e+01 5.308902e+01 5.182469e+01 6.826613e+01 4.253584e+01 4.484943e+01 3.708382e+01 1.136100e-01 3.132049e-01 3.556859e-01 4.720524e-01 6.915872e-01 8.503379e-01 8.331540e-01 8.658229e-01 8.928618e-01 8.478822e-01 7.739322e-01 7.839606e-01 8.336088e-05
<GCONST> 7.303011e+01
<MIXTURE> 24 6.455497e-03
<MEAN> 25
 8.232958e+00 2.195564e+00 3.842002e+00 2.007055e+00 -4.370432e+00 -2.072232e+00 -4.162919e+00 -6.876710e+00 -5.413548e+00 -1.402209e+00 -3.787955e+00 -2.496372e+00 1.814124e-03 2.506341e-01 1.385392e-02 5.691861e-02 4.299743e-02 1.233800e-02 7.437521e-02 -1.607759e-01 9.501512e-02 8.717570e-02 -3.607953e-02 -2.922126e-02 -4.823357e-03
<VARIANCE> 25
 9.772946e+00 2.091092e+01 2.872575e+01 3.878700e+01 3.591294e+01 5.483429e+01 5.308902e+01 5.182469e+01 6.826613e+01 4.253584e+01 4.484943e+01 3.708382e+01 1.136100e-01 3.132049e-01 3.556859e-01 4.720524e-01 6.915872e-01 8.503379e-01 8.331540e-01 8.658229e-01 8.928618e-01 8.478822e-01 7.739322e-01 7.839606e-01 8.336088e-05
<GCONST> 7.303011e+01
<MIXTURE> 25 1.118642e-02
<MEAN> 25
 6.323120e-01 2.719252e+00 1.712473e+01 -2.617068e+00 -1.048443e+01 -1.354105e+00 -6.099673e+00 -2.371849e+00 -9.726777e+00 -7.485479e+00 4.018205e+00 1.180886e+00 -2.532499e-01 3.772593e-01 6.759467e-01 1.941064e-01 2.392927e-01 -6.688426e-02 1.685038e-02 -2.218176e-01 1.029784e-01 5.290719e-02 -6.651839e-01 -2.512722e-01 -9.725086e-03
<VARIANCE> 25
 7.271590e+00 2.072702e+01 3.195788e+01 3.125739e+01 2.510808e+01 8.218890e+01 2.425137e+01 2.645312e+01 5.341547e+01 5.395341e+01 1.901818e+01 3.372153e+01 5.681282e-01 1.277740e+00 1.647566e+00 1.440603e+00 1.910327e+00 2.640057e+00 1.708628e+00 1.412661e+00 2.005500e+00 1.616344e+00 1.901301e+00 1.154609e+00 1.004300e-03
<GCONST> 8.449702e+01
<MIXTURE> 26 7.727677e-03
<MEAN> 25
 2.793281e+00 -5.223074e+00 -1.011348e+01 -9.484076e-01 5.521612e+00 8.609350e+00 9.601007e+00 -3.441887e+00 3.547431e+00 1.601513e+00 -1.800505e+00 -1.181456e+00 -8.509349e-01 5.690708e-01 2.676144e-01 4.506165e-01 8.592182e-01 -1.377263e-01 1.588154e-01 4.381243e-01 2.697664e-01 -4.261338e-02 3.262754e-01 2.322246e-01 -5.252554e-02
<VARIANCE> 25
 2.680449e+01 2.344313e+01 2.337634e+01 4.408507e+01 3.917855e+01 4.953840e+01 5.771376e+01 4.986427e+01 2.913445e+01 4.287299e+01 3.665780e+01 3.776125e+01 1.656603e+00 1.747778e+00 1.655398e+00 1.737362e+00 3.213505e+00 2.952391e+00 2.389545e+00 2.739348e+00 1.931160e+00 2.047810e+00 1.823939e+00 1.976814e+00 1.947287e-03
<GCONST> 9.189105e+01
<MIXTURE> 27 7.727677e-03
<MEAN> 25
 2.793281e+00 -5.223074e+00 -1.011348e+01 -9.484076e-01 5.521612e+00 8.609350e+00 9.601007e+00 -3.441887e+00 3.547431e+00 1.601513e+00 -1.800505e+00 -1.181456e+00 -8.509349e-01 5.690708e-01 2.676144e-01 4.506165e-01 8.592182e-01 -1.377263e-01 1.588154e-01 4.381243e-01 2.697664e-01 -4.261338e-02 3.262754e-01 2.322246e-01 -5.252554e-02
<VARIANCE> 25
 2.680449e+01 2.344313e+01 2.337634e+01 4.408507e+01 3.917855e+01 4.953840e+01 5.771376e+01 4.986427e+01 2.913445e+01 4.287299e+01 3.665780e+01 3.776125e+01 1.656603e+00 1.747778e+00 1.655398e+00 1.737362e+00 3.213505e+00 2.952391e+00 2.389545e+00 2.739348e+00 1.931160e+00 2.047810e+00 1.823939e+00 1.976814e+00 1.947287e-03
<GCONST> 9.189105e+01
<MIXTURE> 28 5.036674e-03
<MEAN> 25
 -6.501274e+00 1.696938e+00 -2.101014e+00 4.982263e+00 6.791172e+00 2.806808e+00 7.000329e+00 2.027781e+00 4.142149e+00 2.701184e+00 1.685669e+00 2.330634e+00 -2.860347e-01 3.110591e-01 7.328959e-01 8.392185e-01 7.980287e-01 6.567644e-01 4.275164e-01 3.246775e-01 3.480273e-01 4.156464e-01 3.681446e-01 2.572092e-01 -7.131945e-06
<VARIANCE> 25
 1.161989e+01 1.039525e+01 1.262821e+01 1.500459e+01 1.551404e+01 1.768728e+01 2.739812e+01 1.726999e+01 1.406494e+01 1.361728e+01 2.148229e+01 1.268270e+01 3.453631e-01 3.863649e-01 5.577183e-01 4.326248e-01 6.115275e-01 8.830476e-01 1.044768e+00 9.185206e-01 1.078972e+00 9.800469e-01 9.251986e-01 1.125168e+00 5.739774e-07
<GCONST> 6.025390e+01
<MIXTURE> 29 5.036674e-03
<MEAN> 25
 -6.501274e+00 1.696938e+00 -2.101014e+00 4.982263e+00 6.791172e+00 2.806808e+00 7.000329e+00 2.027781e+00 4.142149e+00 2.701184e+00 1.685669e+00 2.330634e+00 -2.860347e-01 3.110591e-01 7.328959e-01 8.392185e-01 7.980287e-01 6.567644e-01 4.275164e-01 3.246775e-01 3.480273e-01 4.156464e-01 3.681446e-01 2.572092e-01 -7.131945e-06
<VARIANCE> 25
 1.161989e+01 1.039525e+01 1.262821e+01 1.500459e+01 1.551404e+01 1.768728e+01 2.739812e+01 1.726999e+01 1.406494e+01 1.361728e+01 2.148229e+01 1.268270e+01 3.453631e-01 3.863649e-01 5.577183e-01 4.326248e-01 6.115275e-01 8.830476e-01 1.044768e+00 9.185206e-01 1.078972e+00 9.800469e-01 9.251986e-01 1.125168e+00 5.739774e-07
<GCONST> 6.025390e+01
<MIXTURE> 30 8.917812e-03
<MEAN> 25
 -4.845075e+00 2.543531e-01 6.647909e-01 8.950702e+00 8.096705e+00 7.315734e+00 7.756987e+00 6.673037e+00 6.560843e+00 4.804361e+00 6.803556e+00 3.545998e+00 -2.185284e-02 3.136722e-02 5.146139e-02 8.744600e-02 9.003033e-02 4.408760e-02 -2.471413e-03 -9.088260e-03 2.875302e-02 6.476299e-02 6.636871e-02 1.854059e-02 -5.210146e-04
<VARIANCE> 25
 8.068317e+00 1.189066e+01 9.881115e+00 1.341259e+01 1.648583e+01 1.631312e+01 1.864791e+01 1.788808e+01 1.607752e+01 1.787146e+01 2.070481e+01 1.374825e+01 9.518690e-02 1.939947e-01 3.228287e-01 4.798606e-01 6.165746e-01 7.361947e-01 7.732873e-01 8.083693e-01 9.017670e-01 9.355396e-01 9.081528e-01 8.437809e-01 4.755555e-05
<GCONST> 6.060743e+01
<MIXTURE> 31 4.136493e-03
<MEAN> 25
 -3.300509e+00 -5.692246e+00 3.115641e-02 4.878180e+00 3.816641e+00 1.757235e+00 5.219231e+00 6.602637e+00 2.775209e+00 1.255736e+00 6.400690e+00 3.109721e+00 2.518755e-01 4.787969e-01 -2.258402e-01 3.062658e-01 1.199258e-01 4.290054e-01 2.000457e-01 -8.896417e-03 3.662713e-01 3.708018e-01 1.224308e-01 1.044525e-01 -1.831142e-02
<VARIANCE> 25
 7.079393e+00 1.513557e+01 1.750286e+01 1.781665e+01 2.652025e+01 2.434323e+01 2.351070e+01 2.539177e+01 2.580978e+01 2.777876e+01 2.169272e+01 1.881644e+01 1.914319e-01 4.907818e-01 6.150393e-01 7.611073e-01 9.702566e-01 1.085299e+00 1.218313e+00 1.429733e+00 1.346790e+00 1.322697e+00 1.260990e+00 1.133860e+00 2.549279e-04
<GCONST> 7.195542e+01
<MIXTURE> 32 4.136493e-03
<MEAN> 25
 -3.300509e+00 -5.692246e+00 3.115641e-02 4.878180e+00 3.816641e+00 1.757235e+00 5.219231e+00 6.602637e+00 2.775209e+00 1.255736e+00 6.400690e+00 3.109721e+00 2.518755e-01 4.787969e-01 -2.258402e-01 3.062658e-01 1.199258e-01 4.290054e-01 2.000457e-01 -8.896417e-03 3.662713e-01 3.708018e-01 1.224308e-01 1.044525e-01 -1.831142e-02
<VARIANCE> 25
 7.079393e+00 1.513557e+01 1.750286e+01 1.781665e+01 2.652025e+01 2.434323e+01 2.351070e+01 2.539177e+01 2.580978e+01 2.777876e+01 2.169272e+01 1.881644e+01 1.914319e-01 4.907818e-01 6.150393e-01 7.611073e-01 9.702566e-01 1.085299e+00 1.218313e+00 1.429733e+00 1.346790e+00 1.322697e+00 1.260990e+00 1.133860e+00 2.549279e-04
<GCONST> 7.195542e+01
<MIXTURE> 33 1.508826e-02
<MEAN> 25
 6.556070e+00 -6.412997e+00 -1.055127e+00 -3.270974e+00 -2.641426e+00 -5.924591e+00 -9.817574e+00 4.260096e+00 3.948436e+00 1.761202e+00 -4.097717e+00 -2.778977e+00 7.551146e-01 -1.299305e+00 -2.499121e+00 -1.726623e+00 9.196595e-01 2.260605e+00 -1.241811e+00 1.907803e+00 1.090656e+00 1.138019e+00 -6.071412e-01 -1.473818e+00 3.052807e-02
<VARIANCE> 25
 8.281250e+00 2.765563e+01 3.451746e+01 2.928487e+01 2.312567e+01 4.153217e+01 4.807351e+01 5.038971e+01 3.474060e+01 3.139392e+01 2.351048e+01 2.481438e+01 1.308476e+00 2.255306e+00 3.078469e+00 1.494904e+00 4.665437e+00 4.843021e+00 3.006973e+00 6.464816e+00 4.573552e+00 4.324257e+00 2.780329e+00 2.262049e+00 1.457049e-03
<GCONST> 9.330831e+01
<MIXTURE> 34 1.588179e-02
<MEAN> 25
 9.691166e+00 -1.494813e+00 6.436288e-01 -7.893538e-01 -3.083549e+00 6.103505e-02 -8.488347e+00 -2.060800e+00 -2.950933e+00 -1.878073e+00 1.881598e+00 -3.371354e+00 2.683109e-01 1.426721e+00 1.156113e+00 1.904458e+00 4.935102e-01 -4.356685e-01 2.087540e+00 -3.221463e+00 -1.663114e+00 -2.983618e-01 -8.037202e-01 6.520101e-01 -5.442933e-02
<VARIANCE> 25
 7.573290e+00 3.078960e+01 2.631089e+01 3.449890e+01 3.822017e+01 3.097233e+01 7.828082e+01 7.797474e+01 8.140783e+01 4.022475e+01 2.685471e+01 2.309439e+01 1.055904e+00 1.799536e+00 4.155102e+00 3.114805e+00 4.499365e+00 8.122018e+00 5.865381e+00 7.646920e+00 3.584206e+00 4.671982e+00 3.361857e+00 3.073637e+00 7.639711e-04
<GCONST> 9.710760e+01
<MIXTURE> 35 1.467755e-02
<MEAN> 25
 -4.747457e+00 -6.814697e+00 -1.025761e+01 1.805949e+00 1.196747e+01 -2.286881e-01 1.507832e+00 1.111581e+00 1.364850e+00 4.585488e+00 -2.341980e+00 1.792985e+00 4.007992e-01 -1.565037e+00 -1.852626e+00 -1.481954e+00 -8.812482e-01 -8.542596e-01 -8.037362e-01 6.273957e-02 4.800701e-01 8.920012e-02 2.669795e-01 -1.794108e-01 1.025957e-01
<VARIANCE> 25
 1.950444e+01 3.315679e+01 3.376589e+01 4.202961e+01 6.397166e+01 6.290972e+01 4.937305e+01 3.384675e+01 3.612291e+01 3.483397e+01 3.800937e+01 3.587175e+01 4.296982e+00 5.562205e+00 5.921516e+00 4.141351e+00 7.679749e+00 4.193387e+00 7.976348e+00 3.292937e+00 3.735734e+00 3.862013e+00 3.747049e+00 3.424434e+00 7.815767e-03
<GCONST> 1.032366e+02
<MIXTURE> 36 1.093293e-02
<MEAN> 25
 5.435435e+00 -4.361272e+00 8.300257e+00 3.195740e-01 -1.034965e+01 -7.363702e+00 -8.745816e+00 3.461058e+00 -2.278282e+00 -4.371675e+00 3.383115e+00 -1.007750e+00 1.711084e-01 3.926524e-01 -1.245192e+00 1.146205e-01 1.000201e+00 2.793836e-02 -2.455415e-01 4.285287e-01 2.649764e-01 3.516659e-01 -2.300447e-01 -2.957124e-02 -1.132221e-02
<VARIANCE> 25
 7.096816e+00 1.136774e+01 2.170149e+01 3.932917e+01 4.601751e+01 3.213306e+01 5.012811e+01 4.741701e+01 2.207841e+01 4.150934e+01 2.235838e+01 2.871180e+01 4.576668e-01 8.538312e-01 1.355056e+00 1.390057e+00 1.163660e+00 1.457773e+00 1.893952e+00 2.559996e+00 1.591561e+00 2.603953e+00 1.765147e+00 1.784136e+00 4.868205e-04
<GCONST> 8.218619e+01
<MIXTURE> 37 1.246826e-02
<MEAN> 25
 3.671341e-01 7.740207e+00 1.401599e+01 -4.288407e+00 -7.352981e+00 7.371230e-02 -1.388271e+00 -8.236067e+00 -5.262141e+00 -4.832985e+00 -4.050699e+00 1.125029e+00 -9.809444e-02 1.055631e+00 -1.522518e+00 3.362886e+00 2.197030e+00 -4.821893e-01 1.953056e+00 -6.208340e-01 1.184893e+00 3.133338e-01 -3.913650e-01 -6.261995e-01 -1.022097e-01
<VARIANCE> 25
 2.120678e+01 2.090924e+01 3.078644e+01 4.196990e+01 2.474936e+01 2.446889e+01 5.554394e+01 4.296031e+01 5.609164e+01 4.638127e+01 3.465168e+01 2.683442e+01 4.376986e+00 3.041322e+00 2.764690e+00 3.461282e+00 3.688972e+00 5.095951e+00 3.452555e+00 7.538510e+00 4.165731e+00 3.214833e+00 3.693520e+00 2.290746e+00 4.687600e-03
<GCONST> 9.849550e+01
<MIXTURE> 38 1.154525e-02
<MEAN> 25
 -4.966780e+00 1.133072e+01 2.657173e+00 6.074456e+00 2.172805e+00 -6.636977e+00 -4.898333e-01 -5.915162e+00 -1.530609e+00 -4.212685e+00 -2.444906e+00 -4.828756e-01 -4.728400e+00 2.140860e+00 -1.457745e+00 1.440010e+00 2.649736e+00 7.949104e-01 2.693443e+00 5.879859e-01 1.365308e+00 3.405703e-01 -4.986078e-02 1.423264e-01 3.373372e-02
<VARIANCE> 25
 2.810268e+01 2.538229e+01 3.032109e+01 4.423093e+01 4.455503e+01 2.801342e+01 3.779592e+01 3.813516e+01 4.171916e+01 2.736866e+01 2.005219e+01 2.189622e+01 1.771138e+00 3.365472e+00 3.834945e+00 4.004366e+00 3.020838e+00 7.528514e+00 5.588548e+00 3.156790e+00 6.309655e+00 3.334600e+00 3.178930e+00 2.920221e+00 1.461787e-03
<GCONST> 9.650365e+01
<MIXTURE> 39 9.501865e-03
<MEAN> 25
 1.469179e+00 1.597373e+00 1.280493e+01 -8.622848e+00 -1.094161e+01 -1.580029e+00 -3.750075e+00 -4.986061e+00 -5.856409e+00 -1.469994e+00 -1.865016e+00 4.517883e-01 -7.885394e-01 1.500475e+00 1.851707e+00 -1.337774e+00 -3.611308e-02 1.365375e+00 -8.221921e-01 -1.202043e+00 3.515103e-01 5.961742e-02 -7.517086e-01 3.513729e-01 -2.763609e-03
<VARIANCE> 25
 7.098958e+00 2.379861e+01 5.240975e+01 3.781875e+01 2.877776e+01 5.691252e+01 3.282072e+01 3.994038e+01 5.151039e+01 4.732647e+01 3.368439e+01 3.032002e+01 5.645965e-01 1.270592e+00 1.680354e+00 2.614578e+00 2.040082e+00 3.014813e+00 3.677534e+00 3.052644e+00 2.520158e+00 3.502206e+00 2.059611e+00 1.757885e+00 1.025220e-03
<GCONST> 8.993988e+01
<MIXTURE> 40 1.030800e-02
<MEAN> 25
 -1.038705e+01 2.575488e+00 -2.072754e+00 7.893314e+00 4.445479e+00 4.721617e+00 5.761994e+00 3.809120e+00 4.589071e+00 3.919432e+00 4.950190e+00 1.648964e+00 -2.690028e-02 -2.555580e-01 -1.173092e-01 -3.292085e-01 -1.527443e-01 -1.794004e-01 -4.325926e-02 8.491263e-02 -1.694746e-02 3.018738e-02 5.077946e-02 5.599534e-03 3.774712e-03
<VARIANCE> 25
 5.102740e+01 1.891311e+01 3.593428e+01 2.598599e+01 2.641455e+01 1.940955e+01 1.912194e+01 1.816155e+01 1.574544e+01 1.738007e+01 2.014848e+01 1.350130e+01 7.751977e-01 7.165620e-01 9.580181e-01 1.240062e+00 1.171971e+00 1.255136e+00 1.508000e+00 1.268080e+00 1.188160e+00 1.143729e+00 1.092475e+00 1.276411e+00 7.657518e-04
<GCONST> 7.704910e+01
<MIXTURE> 41 6.713375e-03
<MEAN> 25
 2.047147e+00 1.879235e-01 1.217095e+01 -6.842719e+00 -9.722491e+00 -5.839930e+00 -2.942339e+00 -3.907177e+00 -3.956270e+00 2.631309e+00 -1.484314e+00 7.887735e-01 8.422656e-02 -8.082847e-01 1.950524e+00 -3.206181e+00 -2.335076e+00 -3.978255e-01 -1.267182e-01 -2.881827e-01 -6.899312e-01 1.161361e+00 -9.785506e-01 5.574757e-01 7.685570e-02
<VARIANCE> 25
 1.128616e+01 3.018634e+01 4.996780e+01 3.283620e+01 3.351368e+01 4.979253e+01 3.536630e+01 2.950887e+01 3.615086e+01 2.759438e+01 2.706612e+01 3.875729e+01 2.663017e+00 3.274527e+00 3.710943e+00 3.533249e+00 4.116493e+00 6.698640e+00 5.405086e+00 4.280039e+00 3.601483e+00 4.076045e+00 3.218913e+00 3.019019e+00 2.569737e-03
<GCONST> 9.760583e+01
<MIXTURE> 42 1.106211e-02
<MEAN> 25
 -4.735481e+00 6.759253e+00 4.283989e+00 1.975770e+00 7.444347e-02 -8.518912e+00 -2.405714e+00 -2.836421e+00 -6.028509e-01 -1.824781e+00 -1.882145e+00 1.952203e+00 5.167830e+00 -1.652455e+00 2.557124e+00 -4.945874e-01 -3.096794e+00 -6.455741e-01 -2.664481e+00 2.597911e-01 -1.160390e-01 -4.872408e-01 6.714683e-01 -7.712287e-01 2.301538e-02
<VARIANCE> 25
 3.729472e+01 2.632613e+01 7.089632e+01 1.874806e+01 3.414746e+01 4.107386e+01 3.387081e+01 2.180305e+01 3.060244e+01 2.706359e+01 1.095581e+01 1.658608e+01 3.682750e+00 5.659987e+00 5.480676e+00 6.638961e+00 3.893014e+00 7.048721e+00 3.170201e+00 6.241738e+00 5.669620e+00 5.239157e+00 2.908831e+00 2.933865e+00 3.162192e-03
<GCONST> 9.850820e+01
<MIXTURE> 43 7.108249e-03
<MEAN> 25
 3.448837e+00 -6.056411e+00 -2.486428e+00 -5.094493e+00 -7.305151e+00 -3.124768e+00 3.999640e+00 1.338175e+00 -4.968890e+00 -7.098886e+00 -3.938268e+00 -1.348363e+00 2.250907e-01 2.141937e+00 1.919790e+00 -1.311305e-01 -1.390474e+00 -8.185350e-01 -9.379641e-01 -8.444017e-01 8.560499e-01 1.480831e+00 2.986085e-01 2.374173e-02 -4.483159e-02
<VARIANCE> 25
 1.118552e+01 2.074578e+01 2.777653e+01 3.410286e+01 3.718037e+01 3.713428e+01 3.264912e+01 3.910463e+01 3.864456e+01 3.734824e+01 2.935583e+01 2.869162e+01 6.707177e-01 1.227259e+00 1.525976e+00 2.398415e+00 2.330681e+00 2.311488e+00 2.598358e+00 3.075897e+00 2.557648e+00 2.528102e+00 2.303934e+00 1.872342e+00 9.097183e-04
<GCONST> 8.783197e+01
<MIXTURE> 44 7.328289e-03
<MEAN> 25
 -1.544310e+01 1.621282e+00 3.311907e+00 -3.199305e+00 3.469943e+00 1.967631e+00 1.794742e-01 2.377582e+00 1.540144e+00 -7.433711e-01 1.718216e+00 1.910210e+00 -1.447459e-01 -1.333537e-02 1.564302e-01 2.530403e-01 -1.411449e-01 1.824939e-01 4.351660e-01 1.012558e-01 2.274152e-01 1.401057e-01 6.970570e-02 1.074491e-01 4.430100e-03
<VARIANCE> 25
 4.189358e+01 2.733020e+01 3.699844e+01 3.121631e+01 2.934389e+01 3.001108e+01 2.601698e+01 3.192018e+01 2.755705e+01 2.666840e+01 2.715851e+01 1.918405e+01 1.268852e+00 1.533553e+00 1.394136e+00 1.423106e+00 2.194108e+00 1.638326e+00 1.574947e+00 1.640058e+00 1.568661e+00 1.475422e+00 1.368853e+00 1.227114e+00 1.256128e-03
<GCONST> 8.465733e+01
<MIXTURE> 45 1.364932e-02
<MEAN> 25
 -1.422045e+01 3.626278e+00 -6.557077e+00 4.777795e+00 4.526892e+00 -2.566543e+00 6.755366e+00 8.653390e-01 5.004508e+00 2.582324e+00 2.256169e+00 2.648174e+00 -2.704018e+00 5.904944e-01 -4.509603e-01 -9.384040e-02 -5.261149e-01 1.849182e-01 4.288482e-01 2.121015e-01 3.453608e-01 -4.804323e-02 -2.715335e-02 1.990254e-01 9.266999e-02
<VARIANCE> 25
 3.277225e+01 2.835609e+01 3.333866e+01 3.325794e+01 3.271270e+01 2.761832e+01 2.521615e+01 3.436283e+01 2.600961e+01 2.126761e+01 2.389293e+01 1.423277e+01 1.674660e+00 3.195473e+00 2.847529e+00 3.913803e+00 2.790215e+00 1.951558e+00 2.675721e+00 1.757021e+00 3.240417e+00 1.568284e+00 1.608018e+00 1.482807e+00 2.616247e-03
<GCONST> 8.938735e+01
<MIXTURE> 46 9.336259e-03
<MEAN> 25
 -9.128207e+00 1.615947e+00 1.772515e-01 7.380547e+00 6.124604e+00 3.818153e+00 7.674659e+00 4.472085e+00 5.722290e+00 4.381457e+00 4.791321e+00 2.662646e+00 6.832391e-01 -1.799550e-01 -9.504464e-03 9.162670e-01 6.539740e-01 8.731531e-01 2.115962e-01 7.346221e-01 3.540756e-01 3.418748e-01 6.390681e-01 4.414016e-01 -9.579210e-02
<VARIANCE> 25
 3.608279e+01 4.450168e+01 4.151664e+01 4.824380e+01 5.117868e+01 4.536462e+01 3.833134e+01 3.550963e+01 2.979140e+01 3.122675e+01 2.800927e+01 1.923636e+01 4.784111e+00 4.170303e+00 3.840165e+00 4.633224e+00 4.476685e+00 3.919909e+00 3.513447e+00 3.190842e+00 3.167392e+00 2.909262e+00 2.485008e+00 1.966370e+00 7.846156e-03
<GCONST> 9.913503e+01
<MIXTURE> 47 7.116147e-03
<MEAN> 25
 7.853446e+00 -7.636488e+00 -7.724401e+00 -6.041438e+00 -8.791176e-01 2.251570e+00 -2.742144e+00 1.946495e+00 3.147354e+00 1.677672e+00 -3.669974e+00 -7.039481e+00 -1.135222e-01 -1.226600e+00 -5.704275e-01 -2.731486e-01 1.243118e-01 1.053854e+00 7.388818e-01 6.319612e-01 8.353731e-02 -9.746144e-01 -2.967848e-01 -5.779479e-01 2.626964e-02
<VARIANCE> 25
 1.110446e+01 1.789412e+01 2.145300e+01 2.644981e+01 3.850352e+01 5.191065e+01 6.984291e+01 5.344370e+01 3.781201e+01 4.738968e+01 4.141116e+01 3.439149e+01 4.647962e-01 7.935134e-01 1.116396e+00 1.501382e+00 2.111477e+00 2.551938e+00 2.267385e+00 3.173345e+00 1.890572e+00 2.020842e+00 2.277587e+00 1.853337e+00 5.212534e-04
<GCONST> 8.655534e+01
<MIXTURE> 48 7.116147e-03
<MEAN> 25
 7.853446e+00 -7.636488e+00 -7.724401e+00 -6.041438e+00 -8.791176e-01 2.251570e+00 -2.742144e+00 1.946495e+00 3.147354e+00 1.677672e+00 -3.669974e+00 -7.039481e+00 -1.135222e-01 -1.226600e+00 -5.704275e-01 -2.731486e-01 1.243118e-01 1.053854e+00 7.388818e-01 6.319612e-01 8.353731e-02 -9.746144e-01 -2.967848e-01 -5.779479e-01 2.626964e-02
<VARIANCE> 25
 1.110446e+01 1.789412e+01 2.145300e+01 2.644981e+01 3.850352e+01 5.191065e+01 6.984291e+01 5.344370e+01 3.781201e+01 4.738968e+01 4.141116e+01 3.439149e+01 4.647962e-01 7.935134e-01 1.116396e+00 1.501382e+00 2.111477e+00 2.551938e+00 2.267385e+00 3.173345e+00 1.890572e+00 2.020842e+00 2.277587e+00 1.853337e+00 5.212534e-04
<GCONST> 8.655534e+01
<MIXTURE> 49 5.548473e-03
<MEAN> 25
 -5.627440e+00 9.533319e-01 3.344150e-01 8.211399e+00 6.637823e+00 5.165524e+00 6.688746e+00 4.136540e+00 4.806873e+00 4.088270e+00 4.384113e+00 2.709819e+00 3.453846e-01 6.702474e-01 6.629361e-01 4.052175e-01 -7.617532e-02 -7.011386e-01 -1.086824e+00 -1.028333e+00 -8.475357e-01 -7.284800e-01 -5.318666e-01 -2.359467e-01 -1.633218e-05
<VARIANCE> 25
 1.101568e+01 1.124743e+01 1.575404e+01 1.462001e+01 1.571720e+01 1.710635e+01 1.973577e+01 1.798244e+01 1.690422e+01 1.808545e+01 2.052481e+01 1.293808e+01 2.626007e-01 2.507870e-01 3.548373e-01 6.251086e-01 9.165102e-01 9.049233e-01 9.793198e-01 1.014963e+00 1.089188e+00 1.277368e+00 1.180451e+00 1.074333e+00 1.248826e-05
<GCONST> 6.383417e+01
<MIXTURE> 50 6.234641e-03
<MEAN> 25
 -5.331286e+00 1.503656e+00 -2.825214e+00 4.728130e+00 6.486967e+00 1.570899e+00 4.564248e+00 1.251256e+00 3.579870e+00 2.165258e+00 2.301918e+00 1.969276e+00 7.314195e-02 2.161269e-01 1.090117e-01 -1.565116e-01 -5.061407e-01 -6.818145e-01 -4.874793e-01 6.215227e-02 5.526156e-01 7.653384e-01 6.802578e-01 4.829057e-01 -5.941838e-06
<VARIANCE> 25
 1.210701e+01 1.178732e+01 1.966301e+01 1.482059e+01 1.780747e+01 1.737191e+01 2.675758e+01 1.839850e+01 1.832967e+01 1.398935e+01 1.641862e+01 1.424848e+01 1.694230e-01 2.316563e-01 3.656426e-01 4.097276e-01 6.360973e-01 8.395206e-01 1.112997e+00 9.842396e-01 1.191597e+00 7.307749e-01 1.038183e+00 7.915944e-01 5.812768e-07
<GCONST> 5.915294e+01
<MIXTURE> 51 6.234641e-03
<MEAN> 25
 -5.331286e+00 1.503656e+00 -2.825214e+00 4.728130e+00 6.486967e+00 1.570899e+00 4.564248e+00 1.251256e+00 3.579870e+00 2.165258e+00 2.301918e+00 1.969276e+00 7.314195e-02 2.161269e-01 1.090117e-01 -1.565116e-01 -5.061407e-01 -6.818145e-01 -4.874793e-01 6.215227e-02 5.526156e-01 7.653384e-01 6.802578e-01 4.829057e-01 -5.941838e-06
<VARIANCE> 25
 1.210701e+01 1.178732e+01 1.966301e+01 1.482059e+01 1.780747e+01 1.737191e+01 2.675758e+01 1.839850e+01 1.832967e+01 1.398935e+01 1.641862e+01 1.424848e+01 1.694230e-01 2.316563e-01 3.656426e-01 4.097276e-01 6.360973e-01 8.395206e-01 1.112997e+00 9.842396e-01 1.191597e+00 7.307749e-01 1.038183e+00 7.915944e-01 5.812768e-07
<GCONST> 5.915294e+01
<MIXTURE> 52 6.367945e-03
<MEAN> 25
 1.054222e+01 7.702599e-01 -5.995300e+00 -1.256548e+01 -7.366818e+00 1.084377e+01 1.030525e+00 -2.905215e+00 -4.314706e+00 -4.875011e-01 3.503121e+00 1.229877e+00 -5.962898e-01 -4.559243e-01 -6.008528e-01 9.598176e-01 1.487049e+00 -4.501319e-01 -3.068444e-01 -5.187604e-01 3.973176e-01 8.958489e-01 3.251331e-01 -4.495140e-01 -7.157234e-03
<VARIANCE> 25
 1.168649e+01 2.499517e+01 2.354879e+01 3.734001e+01 4.755513e+01 3.508207e+01 7.129161e+01 4.240344e+01 4.064295e+01 3.944644e+01 3.096726e+01 2.402294e+01 4.597453e-01 1.761196e+00 1.801510e+00 2.758060e+00 2.200589e+00 1.936335e+00 3.706175e+00 2.802394e+00 2.773427e+00 2.916608e+00 3.039252e+00 2.203553e+00 1.652420e-03
<GCONST> 9.059719e+01
<MIXTURE> 53 6.367945e-03
<MEAN> 25
 1.054222e+01 7.702599e-01 -5.995300e+00 -1.256548e+01 -7.366818e+00 1.084377e+01 1.030525e+00 -2.905215e+00 -4.314706e+00 -4.875011e-01 3.503121e+00 1.229877e+00 -5.962898e-01 -4.559243e-01 -6.008528e-01 9.598176e-01 1.487049e+00 -4.501319e-01 -3.068444e-01 -5.187604e-01 3.973176e-01 8.958489e-01 3.251331e-01 -4.495140e-01 -7.157234e-03
<VARIANCE> 25
 1.168649e+01 2.499517e+01 2.354879e+01 3.734001e+01 4.755513e+01 3.508207e+01 7.129161e+01 4.240344e+01 4.064295e+01 3.944644e+01 3.096726e+01 2.402294e+01 4.597453e-01 1.761196e+00 1.801510e+00 2.758060e+00 2.200589e+00 1.936335e+00 3.706175e+00 2.802394e+00 2.773427e+00 2.916608e+00 3.039252e+00 2.203553e+00 1.652420e-03
<GCONST> 9.059719e+01
<MIXTURE> 54 7.368620e-03
<MEAN> 25
 -4.459064e+00 1.025970e+00 -8.678125e-01 7.659052e+00 7.554150e+00 4.271999e+00 5.347176e+00 4.242692e+00 4.281288e+00 3.437479e+00 4.280204e+00 2.575462e+00 -2.812851e-03 4.465738e-02 -1.927259e-03 7.858137e-02 7.172590e-02 1.338915e-02 2.373711e-02 3.052815e-02 3.920432e-02 4.319962e-02 3.623964e-02 -3.457498e-02 -9.898545e-06
<VARIANCE> 25
 1.126940e+01 1.372029e+01 1.260989e+01 1.671033e+01 1.581283e+01 1.341011e+01 1.440266e+01 1.117250e+01 1.150597e+01 1.249491e+01 1.533851e+01 1.186241e+01 4.094560e-02 9.055258e-02 1.644402e-01 2.265851e-01 3.294153e-01 4.399447e-01 4.484469e-01 5.140134e-01 6.153395e-01 5.189239e-01 5.480382e-01 5.258068e-01 8.116473e-07
<GCONST> 4.825183e+01
<MIXTURE> 55 7.368620e-03
<MEAN> 25
 -4.459064e+00 1.025970e+00 -8.678125e-01 7.659052e+00 7.554150e+00 4.271999e+00 5.347176e+00 4.242692e+00 4.281288e+00 3.437479e+00 4.280204e+00 2.575462e+00 -2.812851e-03 4.465738e-02 -1.927259e-03 7.858137e-02 7.172590e-02 1.338915e-02 2.373711e-02 3.052815e-02 3.920432e-02 4.319962e-02 3.623964e-02 -3.457498e-02 -9.898545e-06
<VARIANCE> 25
 1.126940e+01 1.372029e+01 1.260989e+01 1.671033e+01 1.581283e+01 1.341011e+01 1.440266e+01 1.117250e+01 1.150597e+01 1.249491e+01 1.533851e+01 1.186241e+01 4.094560e-02 9.055258e-02 1.644402e-01 2.265851e-01 3.294153e-01 4.399447e-01 4.484469e-01 5.140134e-01 6.153395e-01 5.189239e-01 5.480382e-01 5.258068e-01 8.116473e-07
<GCONST> 4.825183e+01
<MIXTURE> 56 6.132464e-03
<MEAN> 25
 8.606378e+00 -6.534318e+00 -9.269808e+00 -7.125444e+00 1.058430e+00 4.809031e+00 -1.130728e+00 -1.051613e-01 2.873246e+00 6.842077e-01 -1.356991e+00 -7.529955e+00 -4.345933e-02 1.766005e-01 -9.448262e-02 1.143084e-02 2.747079e-01 2.051944e-01 3.128594e-01 -4.148233e-01 1.383144e-01 -2.719410e-02 4.321853e-02 1.284982e-01 -8.514808e-03
<VARIANCE> 25
 9.000635e+00 1.905571e+01 1.658665e+01 3.249640e+01 3.727544e+01 3.786601e+01 8.470642e+01 4.423898e+01 3.736185e+01 3.067331e+01 3.983164e+01 2.501648e+01 1.811918e-01 3.852451e-01 5.499915e-01 7.171299e-01 8.597890e-01 1.100168e+00 1.005009e+00 1.008749e+00 1.274293e+00 9.267946e-01 1.184958e+00 7.579842e-01 2.555196e-04
<GCONST> 7.496320e+01
<MIXTURE> 57 6.132464e-03
<MEAN> 25
 8.606378e+00 -6.534318e+00 -9.269808e+00 -7.125444e+00 1.058430e+00 4.809031e+00 -1.130728e+00 -1.051613e-01 2.873246e+00 6.842077e-01 -1.356991e+00 -7.529955e+00 -4.345933e-02 1.766005e-01 -9.448262e-02 1.143084e-02 2.747079e-01 2.051944e-01 3.128594e-01 -4.148233e-01 1.383144e-01 -2.719410e-02 4.321853e-02 1.284982e-01 -8.514808e-03
<VARIANCE> 25
 9.000635e+00 1.905571e+01 1.658665e+01 3.249640e+01 3.727544e+01 3.786601e+01 8.470642e+01 4.423898e+01 3.736185e+01 3.067331e+01 3.983164e+01 2.501648e+01 1.811918e-01 3.852451e-01 5.499915e-01 7.171299e-01 8.597890e-01 1.100168e+00 1.005009e+00 1.008749e+00 1.274293e+00 9.267946e-01 1.184958e+00 7.579842e-01 2.555196e-04
<GCONST> 7.496320e+01
<MIXTURE> 58 6.172147e-03
<MEAN> 25
 3.513530e+00 -4.260404e+00 9.249822e+00 -6.440802e+00 -1.272754e+01 -4.741894e+00 -4.302538e-01 2.943280e+00 -2.103188e+00 3.564427e+00 -8.670173e-01 1.271413e+00 -1.116787e-01 -6.312255e-02 -2.372323e-02 -6.232962e-02 2.642340e-02 2.808683e-01 2.139991e-01 2.169107e-01 1.361399e-01 1.493168e-02 2.639538e-02 -3.312712e-01 -2.904269e-03
<VARIANCE> 25
 6.657081e+00 1.183771e+01 2.741143e+01 2.122014e+01 1.908674e+01 4.481964e+01 3.092902e+01 3.229394e+01 2.444074e+01 2.614272e+01 2.006934e+01 2.470127e+01 2.852363e-01 6.922495e-01 7.328840e-01 1.183139e+00 1.247542e+00 1.269197e+00 1.248188e+00 1.188770e+00 9.813732e-01 1.596088e+00 9.581576e-01 1.008186e+00 5.286173e-04
<GCONST> 7.496215e+01
<MIXTURE> 59 6.172147e-03
<MEAN> 25
 3.513530e+00 -4.260404e+00 9.249822e+00 -6.440802e+00 -1.272754e+01 -4.741894e+00 -4.302538e-01 2.943280e+00 -2.103188e+00 3.564427e+00 -8.670173e-01 1.271413e+00 -1.116787e-01 -6.312255e-02 -2.372323e-02 -6.232962e-02 2.642340e-02 2.808683e-01 2.139991e-01 2.169107e-01 1.361399e-01 1.493168e-02 2.639538e-02 -3.312712e-01 -2.904269e-03
<VARIANCE> 25
 6.657081e+00 1.183771e+01 2.741143e+01 2.122014e+01 1.908674e+01 4.481964e+01 3.092902e+01 3.229394e+01 2.444074e+01 2.614272e+01 2.006934e+01 2.470127e+01 2.852363e-01 6.922495e-01 7.328840e-01 1.183139e+00 1.247542e+00 1.269197e+00 1.248188e+00 1.188770e+00 9.813732e-01 1.596088e+00 9.581576e-01 1.008186e+00 5.286173e-04
<GCONST> 7.496215e+01
<MIXTURE> 60 4.479129e-03
<MEAN> 25
 -4.254914e+00 -6.418514e-01 -1.144315e+00 3.680510e+00 1.790782e+00 2.071609e+00 1.655107e+00 1.514854e+00 2.162971e+00 1.295363e+00 2.394296e+00 1.890308e+00 -2.950514e-02 5.867990e-02 1.011313e-01 1.292683e-01 1.296066e-01 1.305529e-01 1.783455e-01 3.209113e-01 5.501827e-01 6.688492e-01 5.573803e-01 3.037058e-01 -3.871043e-04
<VARIANCE> 25
 6.973814e+00 4.630631e+00 1.068151e+01 1.126237e+01 1.389325e+01 1.713250e+01 1.406729e+01 1.187771e+01 1.279921e+01 1.328237e+01 1.588069e+01 1.227907e+01 8.743019e-02 1.679329e-01 2.793187e-01 4.303539e-01 5.837162e-01 7.269621e-01 8.238982e-01 8.953400e-01 9.045399e-01 8.345551e-01 8.394331e-01 8.601508e-01 2.274674e-05
<GCONST> 5.641242e+01
<MIXTURE> 61 4.479129e-03
<MEAN> 25
 -4.254914e+00 -6.418514e-01 -1.144315e+00 3.680510e+00 1.790782e+00 2.071609e+00 1.655107e+00 1.514854e+00 2.162971e+00 1.295363e+00 2.394296e+00 1.890308e+00 -2.950514e-02 5.867990e-02 1.011313e-01 1.292683e-01 1.296066e-01 1.305529e-01 1.783455e-01 3.209113e-01 5.501827e-01 6.688492e-01 5.573803e-01 3.037058e-01 -3.871043e-04
<VARIANCE> 25
 6.973814e+00 4.630631e+00 1.068151e+01 1.126237e+01 1.389325e+01 1.713250e+01 1.406729e+01 1.187771e+01 1.279921e+01 1.328237e+01 1.588069e+01 1.227907e+01 8.743019e-02 1.679329e-01 2.793187e-01 4.303539e-01 5.837162e-01 7.269621e-01 8.238982e-01 8.953400e-01 9.045399e-01 8.345551e-01 8.394331e-01 8.601508e-01 2.274674e-05
<GCONST> 5.641242e+01
<MIXTURE> 62 3.278034e-03
<MEAN> 25
 -5.321979e+00 2.384199e+00 1.258205e+00 8.866911e+00 6.905183e+00 4.708058e+00 5.891176e+00 3.533791e+00 4.712491e+00 3.602249e+00 4.650771e+00 2.984402e+00 -9.965042e-01 -1.165002e+00 -8.455415e-01 -2.287079e-01 4.016293e-01 8.513733e-01 1.274749e+00 1.477325e+00 1.287151e+00 1.276736e+00 1.241947e+00 8.323252e-01 -1.093308e-03
<VARIANCE> 25
 8.891837e+00 1.617868e+01 1.187543e+01 1.491037e+01 1.862376e+01 1.586585e+01 1.921526e+01 1.837103e+01 1.681273e+01 1.689758e+01 1.931121e+01 1.301257e+01 3.707813e-01 3.801465e-01 5.854300e-01 7.304718e-01 9.351780e-01 1.206049e+00 1.200616e+00 1.171147e+00 1.371580e+00 1.271088e+00 1.536729e+00 1.411550e+00 1.427108e-05
<GCONST> 6.664853e+01
<MIXTURE> 63 4.351215e-03
<MEAN> 25
 -3.744153e+00 -1.736271e+00 -6.240021e+00 2.331558e+00 4.948804e+00 -1.397479e+00 1.938060e+00 1.882686e+00 2.907935e+00 -4.340722e-01 -1.018559e+00 1.253570e+00 -1.105384e-01 3.717475e-01 4.478881e-01 5.172360e-01 4.215901e-01 4.588341e-01 4.482123e-01 2.483871e-03 1.464211e-01 4.742194e-01 3.215971e-01 2.651645e-01 -3.274396e-03
<VARIANCE> 25
 8.098368e+00 1.309918e+01 1.860945e+01 1.303103e+01 2.028738e+01 2.605133e+01 2.098280e+01 2.491828e+01 2.216314e+01 1.765106e+01 1.622414e+01 1.736717e+01 3.375496e-01 4.852321e-01 7.112980e-01 6.612956e-01 9.061845e-01 1.375352e+00 1.271332e+00 1.364164e+00 1.522391e+00 1.871990e+00 1.381483e+00 1.323251e+00 1.308351e-04
<GCONST> 7.115819e+01
<MIXTURE> 64 4.351215e-03
<MEAN> 25
 -3.744153e+00 -1.736271e+00 -6.240021e+00 2.331558e+00 4.948804e+00 -1.397479e+00 1.938060e+00 1.882686e+00 2.907935e+00 -4.340722e-01 -1.018559e+00 1.253570e+00 -1.105384e-01 3.717475e-01 4.478881e-01 5.172360e-01 4.215901e-01 4.588341e-01 4.482123e-01 2.483871e-03 1.464211e-01 4.742194e-01 3.215971e-01 2.651645e-01 -3.274396e-03
<VARIANCE> 25
 8.098368e+00 1.309918e+01 1.860945e+01 1.303103e+01 2.028738e+01 2.605133e+01 2.098280e+01 2.491828e+01 2.216314e+01 1.765106e+01 1.622414e+01 1.736717e+01 3.375496e-01 4.852321e-01 7.112980e-01 6.612956e-01 9.061845e-01 1.375352e+00 1.271332e+00 1.364164e+00 1.522391e+00 1.871990e+00 1.381483e+00 1.323251e+00 1.308351e-04
<GCONST> 7.115819e+01
<MIXTURE> 65 1.721197e-02
<MEAN> 25
 9.327840e+00 1.548043e-01 3.516836e+00 1.087812e+00 -6.420899e+00 -5.740959e-01 -3.152846e+00 -6.295877e+00 -8.683361e+00 -4.203936e+00 -1.703929e+00 -3.329459e-01 1.573565e-01 1.601821e-01 1.012036e-01 1.269979e-01 -3.518632e-01 5.176436e-01 5.742986e-01 -5.412225e-01 -3.956100e-02 2.215795e-01 -3.946686e-01 -3.636604e-01 -8.090097e-03
<VARIANCE> 25
 1.086573e+01 1.764859e+01 2.570453e+01 5.070723e+01 4.055362e+01 4.798170e+01 6.730717e+01 4.226336e+01 7.105568e+01 5.022128e+01 4.156952e+01 4.416032e+01 5.655583e-01 9.858725e-01 1.491008e+00 1.969721e+00 2.589861e+00 1.865019e+00 2.720204e+00 2.496282e+00 2.677592e+00 3.102479e+00 2.585795e+00 2.189515e+00 2.949429e-04
<GCONST> 8.930332e+01
<MIXTURE> 66 1.191532e-02
<MEAN> 25
 7.162421e+00 -5.878503e+00 -4.172037e+00 -4.061408e+00 -1.580199e+00 -2.066807e+00 -1.065168e+01 3.958355e+00 3.583143e+00 -1.030760e+00 -4.063609e+00 -4.319225e+00 3.805156e-02 1.678126e+00 2.217201e+00 2.116069e+00 -5.477219e-01 -1.489848e+00 -2.451007e-01 -1.384673e+00 -2.064545e-01 -5.393676e-01 4.038607e-01 9.419985e-01 -6.258377e-02
<VARIANCE> 25
 7.005093e+00 2.432584e+01 2.542492e+01 2.636852e+01 4.571150e+01 6.114541e+01 6.773092e+01 5.918808e+01 5.737168e+01 5.093693e+01 3.523707e+01 2.729262e+01 1.019993e+00 2.298950e+00 1.971316e+00 2.096119e+00 4.362326e+00 3.670419e+00 4.742208e+00 5.457306e+00 4.041681e+00 5.851083e+00 3.834733e+00 2.317096e+00 1.186449e-03
<GCONST> 9.558245e+01
<MIXTURE> 67 1.559142e-02
<MEAN> 25
 8.741092e+00 6.427639e-01 -5.527575e+00 -6.441556e+00 5.436045e-01 3.477487e+00 -2.783237e+00 -1.754439e+00 -2.992959e+00 2.101386e+00 9.492341e-01 -1.601506e+00 -1.282969e+00 2.296370e+00 1.024361e+00 2.683583e+00 2.002926e+00 -7.726871e-01 1.163449e+00 -3.492421e-01 -1.821049e-01 3.777018e-01 -4.110008e-01 2.049670e-01 -1.165532e-01
<VARIANCE> 25
 1.033284e+01 4.110427e+01 2.797048e+01 5.033921e+01 4.233917e+01 5.636002e+01 8.578551e+01 6.363095e+01 6.272433e+01 4.898482e+01 4.976742e+01 4.202816e+01 1.941691e+00 3.322093e+00 2.957826e+00 4.928668e+00 5.014403e+00 4.086542e+00 4.103742e+00 4.523417e+00 4.570838e+00 5.075321e+00 4.414962e+00 3.852665e+00 3.091585e-03
<GCONST> 1.019903e+02
<MIXTURE> 68 1.485092e-02
<MEAN> 25
 -3.504695e+00 -2.617944e+00 -5.114602e+00 6.839263e-01 4.951640e+00 -5.965952e-01 2.203002e+00 1.396590e+00 2.043941e+00 1.483277e+00 -1.252989e-01 1.293352e+00 2.983756e+00 4.777817e-01 1.309882e-01 -2.230306e+00 -2.733450e+00 -1.260495e+00 -2.389780e+00 -1.342395e+00 -7.956330e-01 -7.213305e-01 -1.770214e+00 -9.913150e-01 1.034159e-01
<VARIANCE> 25
 3.049903e+01 3.732782e+01 4.556687e+01 3.995405e+01 3.824910e+01 5.808888e+01 4.984659e+01 3.917516e+01 3.304753e+01 4.125905e+01 3.016473e+01 2.620770e+01 1.855829e+00 3.256812e+00 5.448690e+00 4.628237e+00 3.797455e+00 5.379948e+00 5.446575e+00 3.966604e+00 5.269975e+00 5.229557e+00 4.594717e+00 2.947343e+00 6.430465e-03
<GCONST> 1.016569e+02
<MIXTURE> 69 1.204884e-02
<MEAN> 25
 4.770349e+00 -4.875733e+00 -2.960736e+00 -2.882587e+00 -2.980929e+00 -7.943727e+00 -2.188274e+00 2.028331e+00 6.620857e-01 -2.858813e+00 -5.541941e+00 6.672387e-01 1.969862e+00 -2.487404e+00 -1.225220e+00 -1.961559e+00 -7.465197e-01 -1.383049e-02 -5.541857e-01 1.084881e+00 -1.977586e-01 -1.018076e+00 -1.830380e+00 -4.305888e-01 6.183763e-02
<VARIANCE> 25
 8.712762e+00 2.424911e+01 2.691075e+01 2.585512e+01 4.096492e+01 3.721191e+01 5.182874e+01 3.010818e+01 4.365639e+01 4.596323e+01 2.994595e+01 2.164183e+01 3.925105e+00 3.268105e+00 3.416903e+00 3.703385e+00 5.606229e+00 4.753742e+00 6.416475e+00 5.737296e+00 5.874300e+00 5.736103e+00 4.304884e+00 3.681532e+00 1.958296e-03
<GCONST> 9.862846e+01
<MIXTURE> 70 1.329190e-02
<MEAN> 25
 8.465255e+00 -5.355066e+00 -5.130882e+00 -2.124558e+00 -9.757187e-01 2.016611e+00 -6.987166e+00 -2.002976e+00 3.255302e+00 3.358088e+00 -4.711301e-01 -4.646715e+00 2.422344e+00 -1.994141e+00 -1.703047e-01 -1.852928e+00 -1.980511e+00 1.323663e+00 -1.804285e+00 1.107680e+00 2.402060e-01 1.138972e-02 8.809019e-01 -1.281365e+00 5.712270e-02
<VARIANCE> 25
 1.035372e+01 2.719625e+01 2.756856e+01 4.008564e+01 2.723060e+01 3.859232e+01 5.974791e+01 5.259273e+01 3.001770e+01 3.893235e+01 3.542191e+01 2.594726e+01 5.361881e+00 3.542007e+00 4.294161e+00 3.554936e+00 4.084857e+00 5.923992e+00 7.313715e+00 9.053391e+00 4.225918e+00 5.668367e+00 4.389593e+00 3.433995e+00 1.962604e-03
<GCONST> 1.001966e+02
<MIXTURE> 71 1.406903e-02
<MEAN> 25
 7.855207e+00 3.379535e+00 4.175991e+00 2.846146e+00 -3.092508e+00 -2.263530e+00 -2.163309e+00 -6.352521e+00 -7.518844e+00 -5.528960e+00 -2.226059e+00 -1.571475e+00 -1.966847e+00 -1.173811e-01 -2.747084e-01 -2.080604e+00 1.081980e+00 -5.543635e-01 -9.174488e-01 1.944524e+00 1.124087e+00 5.617539e-01 -8.877279e-02 2.060976e-01 3.342567e-02
<VARIANCE> 25
 2.083850e+01 2.675327e+01 1.977673e+01 3.404504e+01 4.498017e+01 3.781860e+01 4.805668e+01 3.630127e+01 6.199838e+01 5.894240e+01 3.443188e+01 2.906292e+01 1.684972e+00 3.035234e+00 5.093855e+00 4.560727e+00 4.602330e+00 6.071129e+00 5.356575e+00 5.603911e+00 6.829010e+00 3.872113e+00 2.870242e+00 2.935393e+00 9.545523e-04
<GCONST> 9.875934e+01
<MIXTURE> 72 8.134747e-03
<MEAN> 25
 4.032959e+00 -4.427832e+00 7.205850e+00 -2.809232e+00 -1.109781e+01 -9.565002e+00 -3.608422e+00 4.056895e+00 -4.012115e+00 -1.822144e+00 -5.240767e-01 5.113621e-01 9.714777e-01 -7.648772e-01 -2.763183e+00 3.736126e-01 2.021664e+00 -2.688527e-01 -1.130211e+00 1.625543e+00 1.505623e+00 2.660954e-02 -1.160351e+00 4.628162e-02 -6.719360e-03
<VARIANCE> 25
 9.075257e+00 1.609980e+01 4.639925e+01 3.438272e+01 2.559801e+01 3.320610e+01 3.639202e+01 4.080610e+01 3.776833e+01 3.191617e+01 3.407027e+01 2.755363e+01 5.397324e-01 9.422108e-01 2.220308e+00 1.900358e+00 2.080257e+00 2.795792e+00 3.213734e+00 2.535064e+00 3.266880e+00 3.383647e+00 1.576026e+00 1.982518e+00 4.351037e-04
<GCONST> 8.671758e+01
<MIXTURE> 73 1.213625e-02
<MEAN> 25
 -6.264252e+00 3.806725e-01 -1.217655e+00 5.306219e+00 5.218232e+00 2.394231e+00 6.065240e+00 2.967710e+00 3.971803e+00 2.672303e+00 3.409245e+00 2.506057e+00 6.312590e-01 -1.288176e+00 -1.189545e+00 -2.569534e+00 -1.382476e+00 -1.431098e+00 -9.241517e-01 -6.586590e-01 -1.089370e+00 -1.108802e+00 -1.213246e+00 -1.494909e-01 1.488092e-01
<VARIANCE> 25
 1.280960e+01 1.741789e+01 1.400138e+01 2.098484e+01 2.391044e+01 2.101881e+01 1.933121e+01 1.941584e+01 1.726007e+01 2.029938e+01 2.193785e+01 1.779182e+01 3.798256e+00 2.958119e+00 5.487885e+00 3.937038e+00 5.263989e+00 4.234149e+00 3.819410e+00 3.896731e+00 4.292343e+00 4.846464e+00 3.351612e+00 2.776639e+00 4.888339e-03
<GCONST> 9.225230e+01
<MIXTURE> 74 1.756491e-02
<MEAN> 25
 4.576725e+00 -2.590505e+00 8.602147e+00 -1.615834e+00 -8.026814e+00 -4.993253e+00 -5.686178e+00 2.418833e+00 -5.232994e+00 -4.162525e+00 8.343361e-02 2.063514e+00 5.757478e-02 1.673106e+00 -6.077729e-01 1.880261e+00 1.555273e+00 4.087012e-01 1.582237e+00 -2.352079e+00 -2.270815e-01 -2.257947e-01 -7.263101e-01 -1.371887e-01 -5.424495e-02
<VARIANCE> 25
 8.048324e+00 2.078602e+01 2.997674e+01 3.788932e+01 2.826380e+01 3.932888e+01 5.122535e+01 4.357608e+01 7.203687e+01 7.578563e+01 3.548308e+01 3.136049e+01 1.906348e+00 2.095103e+00 2.882727e+00 3.417072e+00 3.011654e+00 4.189059e+00 3.945266e+00 4.962726e+00 5.901458e+00 4.038594e+00 3.062903e+00 1.906214e+00 9.971785e-04
<GCONST> 9.565246e+01
<MIXTURE> 75 9.711651e-03
<MEAN> 25
 3.078207e+00 -2.958260e+00 1.324026e+01 7.744155e-01 -1.239818e+01 -7.494196e+00 -7.900073e+00 -5.371901e-02 -3.948756e+00 -6.925143e+00 3.441368e+00 1.115665e+00 2.056232e+00 -2.368351e+00 2.385371e-01 -1.713765e-01 -2.439566e+00 1.122378e-01 -1.209429e+00 1.508575e+00 -8.009839e-02 -2.252010e-01 1.409938e+00 -4.726664e-01 3.366722e-02
<VARIANCE> 25
 9.103013e+00 1.404762e+01 3.115605e+01 3.241508e+01 2.710599e+01 2.897966e+01 2.576655e+01 3.670505e+01 3.497527e+01 3.369126e+01 1.484663e+01 2.221256e+01 2.561031e+00 2.521447e+00 6.234496e+00 2.412062e+00 4.635874e+00 5.476725e+00 3.669554e+00 3.369334e+00 4.445112e+00 3.147340e+00 2.267815e+00 2.497530e+00 1.582192e-03
<GCONST> 9.235275e+01
<MIXTURE> 76 1.052359e-02
<MEAN> 25
 -6.828868e+00 7.815069e-01 -5.076041e+00 2.801546e+00 5.912022e+00 3.657506e-01 5.611341e+00 2.384802e+00 3.514360e+00 1.154083e+00 8.705251e-01 1.324466e+00 1.815554e-01 -5.352459e-01 -6.175483e-01 -9.085025e-01 -1.006896e+00 -1.028828e+00 -5.815802e-01 -2.849601e-01 -1.776263e-01 -1.660782e-01 -3.002031e-01 -2.555776e-01 1.445920e-02
<VARIANCE> 25
 3.736557e+01 2.141327e+01 3.151435e+01 2.519770e+01 2.351813e+01 3.585810e+01 2.590851e+01 1.997771e+01 1.648290e+01 2.172943e+01 2.275211e+01 2.133946e+01 1.380405e+00 1.135294e+00 1.828849e+00 1.196199e+00 1.476026e+00 1.531146e+00 1.660693e+00 1.679565e+00 1.153762e+00 1.223283e+00 1.435079e+00 1.573617e+00 7.674493e-04
<GCONST> 8.142157e+01
<MIXTURE> 77 1.244626e-02
<MEAN> 25
 -3.704888e-01 8.405376e+00 1.246725e+01 -1.164759e+01 -6.984082e+00 1.056593e+00 -9.398848e+00 -6.982261e+00 -3.837195e+00 -2.593561e-01 -4.486632e+00 -1.220814e+00 6.747648e-02 1.559306e-01 6.532092e-02 2.594281e-01 -5.742978e-03 6.254739e-02 -2.414265e-02 -7.368911e-02 2.740881e-02 -5.042721e-02 2.828511e-02 1.148235e-01 -1.008742e-02
<VARIANCE> 25
 1.067802e+01 2.110532e+01 2.782503e+01 4.129585e+01 3.254950e+01 3.400928e+01 3.716087e+01 3.493627e+01 4.377359e+01 3.321903e+01 3.828133e+01 3.762545e+01 2.941510e-01 7.837254e-01 6.455004e-01 1.069294e+00 1.233401e+00 9.815001e-01 1.294872e+00 1.070973e+00 1.214364e+00 1.049125e+00 9.613342e-01 9.066182e-01 5.309081e-04
<GCONST> 7.838809e+01
<MIXTURE> 78 9.702551e-03
<MEAN> 25
 -1.217244e+01 1.832850e+00 -5.931404e+00 3.430342e+00 5.144013e+00 -2.500837e+00 4.298566e+00 2.477340e+00 3.043514e+00 9.685816e-01 -1.002787e+00 2.104569e+00 2.999209e+00 -2.017420e-01 2.706474e-01 -2.163075e-01 9.296469e-02 -7.822216e-02 -5.762029e-01 -5.884587e-01 2.779370e-01 1.309123e-01 -2.010769e-01 -2.613826e-02 -3.857521e-02
<VARIANCE> 25
 5.250182e+01 2.227460e+01 3.441550e+01 2.628115e+01 3.326123e+01 3.721297e+01 2.645670e+01 3.088933e+01 2.108072e+01 2.309575e+01 2.367016e+01 1.984632e+01 6.252083e+00 1.817348e+00 2.782691e+00 3.105898e+00 3.235211e+00 3.055814e+00 3.296336e+00 2.817464e+00 2.020669e+00 2.357173e+00 2.153705e+00 2.608992e+00 3.030489e-03
<GCONST> 9.258060e+01
<MIXTURE> 79 1.156824e-02
<MEAN> 25
 3.095637e+00 8.692017e-01 1.105037e+01 -5.305161e+00 -1.055795e+01 -1.934547e+00 -3.308290e+00 -5.599571e+00 -8.504625e+00 -1.514149e+00 -2.495934e+00 -6.768454e-01 1.290985e+00 -5.810679e-01 -1.553937e+00 2.495581e+00 9.892582e-02 -1.396998e+00 8.948238e-01 6.192662e-01 -4.055149e-01 -6.161186e-01 4.209073e-01 1.620182e-01 -3.082699e-02
<VARIANCE> 25
 1.842028e+01 2.192653e+01 7.861053e+01 5.136206e+01 3.115235e+01 4.144855e+01 4.643702e+01 3.581969e+01 5.240520e+01 6.036520e+01 4.632697e+01 3.986396e+01 1.037694e+00 1.907743e+00 1.846925e+00 2.729604e+00 2.496666e+00 2.587379e+00 2.992047e+00 4.822680e+00 2.438212e+00 2.277539e+00 2.356729e+00 1.646959e+00 1.012209e-03
<GCONST> 9.342247e+01
<MIXTURE> 80 7.550998e-03
<MEAN> 25
 -1.621307e+01 4.106786e+00 -2.535219e+00 3.561011e+00 2.291941e+00 -3.938696e-01 5.820772e+00 1.818922e+00 3.043155e+00 2.530663e+00 2.986733e+00 1.384242e+00 4.715850e+00 -1.234807e-01 1.591858e+00 -1.448853e+00 -2.625016e+00 -2.578450e+00 -2.689217e+00 -1.794688e+00 -1.421688e+00 -1.488844e+00 -1.166194e+00 -9.488801e-01 -4.231320e-02
<VARIANCE> 25
 2.246880e+01 1.731650e+01 5.048994e+01 2.925080e+01 3.046859e+01 3.231198e+01 2.427784e+01 2.467517e+01 2.658432e+01 2.477444e+01 2.714401e+01 1.951153e+01 2.968272e+00 2.209287e+00 2.839802e+00 4.192116e+00 2.812764e+00 2.404529e+00 3.062379e+00 3.091961e+00 2.638217e+00 2.363446e+00 2.516338e+00 2.857388e+00 1.247480e-03
<GCONST> 9.089162e+01
<MIXTURE> 81 8.025434e-03
<MEAN> 25
 -9.816690e-01 3.874117e+00 1.024255e+01 -1.470257e+01 -9.126958e+00 -1.498957e+00 -6.739627e+00 -8.237981e+00 -4.154107e+00 -4.179655e-01 -7.361919e+00 -2.111113e+00 1.251032e-01 -5.549673e-01 3.003363e-03 -5.662275e-01 -4.524562e-01 3.796948e-01 3.025354e-01 1.531006e-01 -1.965491e-01 5.370855e-02 -4.467205e-01 -7.872957e-02 1.127983e-02
<VARIANCE> 25
 1.055710e+01 3.334112e+01 2.641851e+01 2.898734e+01 3.306415e+01 3.113961e+01 4.507434e+01 2.927731e+01 3.909893e+01 3.181454e+01 2.635428e+01 3.137674e+01 7.566440e-01 2.258779e+00 1.518509e+00 2.828572e+00 2.631060e+00 2.194586e+00 3.428588e+00 2.335928e+00 2.547853e+00 2.702093e+00 2.287516e+00 2.113312e+00 1.157074e-03
<GCONST> 8.898775e+01
<MIXTURE> 82 8.213053e-03
<MEAN> 25
 -1.221003e+01 -4.605840e+00 1.075351e+00 -4.349311e+00 3.349139e+00 2.733608e-01 1.218736e+00 -3.295174e-01 1.359347e+00 5.295530e-01 6.194808e-01 1.767177e+00 -6.878469e-01 -4.388843e-01 -4.919004e-01 -2.518769e+00 -1.831126e+00 -1.260459e+00 -1.555717e+00 -8.272023e-01 -3.176974e-01 -7.052901e-01 4.087924e-01 3.895499e-01 1.821558e-01
<VARIANCE> 25
 1.891442e+01 1.863584e+01 3.244666e+01 3.632043e+01 2.709737e+01 2.424314e+01 3.010306e+01 2.942652e+01 3.505541e+01 3.080519e+01 2.377559e+01 2.043170e+01 4.701255e+00 3.687336e+00 3.725493e+00 3.109987e+00 3.042203e+00 3.354248e+00 2.813825e+00 2.515989e+00 3.272871e+00 2.158748e+00 2.188298e+00 1.734761e+00 2.925619e-03
<GCONST> 9.236589e+01
<MIXTURE> 83 1.167529e-02
<MEAN> 25
 -2.197911e+01 4.899167e+00 -5.519429e+00 3.538795e-01 6.185246e+00 -1.254236e+00 6.999366e+00 1.677999e+00 1.690439e+00 1.834184e+00 -1.330063e+00 2.114920e+00 -1.396207e-01 -7.884178e-01 -7.210051e-02 -7.594804e-01 -5.674281e-01 -2.305003e-01 -8.575981e-01 -2.996777e-01 -2.501099e-01 2.395555e-01 3.452314e-01 2.443641e-01 2.806627e-03
<VARIANCE> 25
 1.061011e+01 1.140225e+01 4.337165e+01 4.791282e+01 2.551367e+01 1.714512e+01 1.880616e+01 2.367347e+01 1.956727e+01 1.388875e+01 2.052635e+01 1.006842e+01 1.561848e+00 1.314220e+00 1.107737e+00 1.261498e+00 1.715862e+00 1.165300e+00 1.797909e+00 1.262401e+00 1.363746e+00 1.061929e+00 9.759141e-01 1.095348e+00 6.428754e-04
<GCONST> 7.715097e+01
<MIXTURE> 84 1.066614e-02
<MEAN> 25
 6.103027e-01 9.944487e+00 7.432046e+00 8.450462e+00 5.112282e+00 2.200405e-01 2.220184e-01 -4.652334e+00 -3.244666e+00 -2.179110e+00 -3.307794e+00 -1.570683e+00 -1.900677e+00 -8.024863e-01 -1.193497e+00 1.136580e+00 2.634848e+00 1.154512e+00 1.565360e+00 1.425741e+00 8.552290e-01 8.578687e-02 -7.974546e-02 1.512643e-01 -7.019240e-02
<VARIANCE> 25
 2.413424e+01 1.726541e+01 1.914450e+01 2.622528e+01 4.116552e+01 2.589440e+01 3.879295e+01 3.244620e+01 2.695617e+01 2.397116e+01 2.410751e+01 2.009249e+01 1.933292e+00 3.338970e+00 3.298645e+00 3.161130e+00 3.856528e+00 3.529004e+00 3.045522e+00 4.868763e+00 3.305435e+00 4.221856e+00 3.478602e+00 3.109311e+00 3.210532e-03
<GCONST> 9.375357e+01
<MIXTURE> 85 7.591393e-03
<MEAN> 25
 -3.813658e+00 8.241759e+00 5.879640e+00 9.169787e-01 -2.489568e+00 -5.235098e+00 -2.886070e+00 -5.879701e+00 -3.607172e+00 -3.604670e+00 -6.741799e-01 -1.575410e+00 4.073680e+00 3.070985e-01 2.036478e+00 -1.680392e+00 -3.468845e+00 -2.419291e+00 -2.949148e+00 -2.124169e+00 -2.228451e+00 -1.407342e+00 -2.010348e+00 -5.050220e-01 1.161360e-02
<VARIANCE> 25
 4.741960e+01 2.375077e+01 3.665022e+01 3.645111e+01 4.688852e+01 4.267962e+01 3.193676e+01 2.768695e+01 2.487635e+01 2.590643e+01 2.396347e+01 2.056147e+01 2.762665e+00 4.230335e+00 4.223642e+00 6.507418e+00 4.036144e+00 4.022796e+00 3.480029e+00 4.159840e+00 3.794206e+00 4.449820e+00 4.264705e+00 3.422352e+00 5.418481e-03
<GCONST> 9.874654e+01
<MIXTURE> 86 1.273941e-02
<MEAN> 25
 -5.011970e+00 -1.129498e+00 -8.553484e-01 6.305279e+00 5.132698e+00 4.626008e+00 5.326948e+00 4.522515e+00 4.693627e+00 3.927268e+00 5.312548e+00 2.709661e+00 -5.018664e-03 -8.069506e-03 -3.894548e-02 -6.358632e-02 -1.149141e-01 -1.879689e-01 -2.693719e-01 -3.310162e-01 -3.521585e-01 -3.129598e-01 -2.300480e-01 -1.078855e-01 -5.426718e-04
<VARIANCE> 25
 8.058663e+00 6.044565e+00 1.042495e+01 1.225564e+01 1.642395e+01 1.439845e+01 1.362769e+01 1.315383e+01 1.316806e+01 1.411000e+01 1.420019e+01 1.273171e+01 1.013919e-01 1.924051e-01 3.219879e-01 4.794899e-01 6.339620e-01 7.364670e-01 7.456495e-01 7.614384e-01 8.255449e-01 8.804400e-01 9.052196e-01 8.961121e-01 5.253766e-05
<GCONST> 5.824453e+01
<MIXTURE> 87 1.100681e-02
<MEAN> 25
 -5.497045e+00 6.654353e+00 5.553204e+00 6.566778e+00 8.783965e+00 1.303953e+00 5.074450e+00 -8.070328e-01 -1.578918e+00 -2.300644e-01 -3.620764e+00 -1.539213e+00 -2.073306e+00 -3.725272e+00 -2.064863e+00 -2.188945e+00 -5.755941e-01 -8.942935e-01 -6.312992e-01 1.021356e+00 1.155908e+00 5.981593e-01 7.428012e-01 1.009667e+00 1.061560e-01
<VARIANCE> 25
 3.906149e+01 2.325598e+01 3.427175e+01 2.938053e+01 3.809297e+01 2.792876e+01 3.389716e+01 3.611709e+01 2.002023e+01 3.626406e+01 2.682820e+01 1.941060e+01 4.942737e+00 3.570889e+00 4.515295e+00 3.624780e+00 9.376182e+00 2.868840e+00 5.224894e+00 6.412779e+00 2.270718e+00 4.000226e+00 4.877889e+00 2.922641e+00 4.594840e-03
<GCONST> 9.854654e+01
<MIXTURE> 88 1.256585e-02
<MEAN> 25
 -4.033558e+00 -1.167283e+00 -1.804461e+00 5.111784e+00 5.614672e+00 3.480919e+00 4.937350e+00 2.799555e+00 4.026997e+00 2.457161e+00 1.331213e+00 1.947468e+00 1.113142e-01 1.951615e-01 -9.116432e-02 3.472976e-01 3.916447e-01 3.412158e-01 -2.499923e-02 -6.297355e-01 -1.670814e-01 -1.846680e-01 5.520814e-02 -1.210680e-01 -6.813847e-03
<VARIANCE> 25
 9.735314e+00 1.368893e+01 1.839518e+01 1.470530e+01 2.216947e+01 2.355547e+01 1.757223e+01 1.794138e+01 1.518913e+01 1.649525e+01 2.950173e+01 1.442512e+01 1.652705e+00 1.501051e+00 2.152276e+00 2.075937e+00 3.683053e+00 2.635354e+00 2.529686e+00 2.770621e+00 2.201720e+00 2.152503e+00 2.156882e+00 1.801228e+00 1.192632e-03
<GCONST> 8.283500e+01
<MIXTURE> 89 9.333527e-03
<MEAN> 25
 5.508994e+00 -6.834660e+00 -2.553434e+00 -4.944497e+00 -3.877086e+00 -1.973537e+00 -8.157451e+00 5.989427e+00 3.706794e+00 1.827791e-01 -5.384304e+00 -4.254215e+00 -4.591496e-01 1.654209e-01 2.014268e+00 4.263269e-01 -1.365702e+00 -1.596078e+00 1.646433e-01 1.475273e+00 -1.229887e+00 -8.282232e-01 5.039881e-01 1.838763e+00 -3.405500e-03
<VARIANCE> 25
 5.967807e+00 1.732350e+01 2.705293e+01 2.476071e+01 2.183281e+01 3.357352e+01 5.084439e+01 2.844108e+01 2.352452e+01 3.757815e+01 2.281804e+01 3.051180e+01 3.161660e-01 6.046470e-01 1.081243e+00 1.146734e+00 1.398545e+00 2.398980e+00 3.507311e+00 1.621238e+00 2.989466e+00 2.275087e+00 1.907862e+00 1.899159e+00 2.501532e-04
<GCONST> 8.071632e+01
<MIXTURE> 90 7.114505e-03
<MEAN> 25
 2.567873e+00 -9.630020e+00 -4.721673e+00 -3.970686e+00 -3.392286e+00 -1.754664e+00 3.366280e+00 1.120427e+00 -7.617660e+00 -1.013764e+01 -3.372166e+00 -7.312868e-01 -1.615475e-01 9.093450e-01 1.165516e+00 -8.488598e-01 -1.612996e+00 -2.035120e-01 6.644170e-01 -2.210706e-01 -1.666747e-01 7.262753e-01 1.765915e-01 -5.550550e-01 -1.123999e-02
<VARIANCE> 25
 9.619756e+00 1.834174e+01 1.987500e+01 2.771206e+01 3.644632e+01 3.218507e+01 3.816200e+01 3.648681e+01 3.604336e+01 2.799204e+01 2.709533e+01 2.627839e+01 2.218872e-01 6.074837e-01 7.804613e-01 1.036707e+00 1.458853e+00 1.585491e+00 1.810376e+00 1.653101e+00 1.795708e+00 1.679521e+00 1.510929e+00 1.301186e+00 2.141328e-04
<GCONST> 7.827203e+01
<MIXTURE> 91 7.852945e-03
<MEAN> 25
 7.965216e+00 -7.915781e+00 -8.280663e+00 -4.471401e+00 7.265441e-01 2.449239e+00 -1.546467e+00 2.203323e+00 2.406328e+00 -1.992434e+00 -2.406188e+00 -5.489241e+00 1.346869e-01 1.110849e+00 3.623315e-01 3.101110e-01 2.934318e-01 -6.173922e-01 -4.526354e-01 -2.080753e-01 -2.295314e-01 3.329372e-01 2.685138e-02 3.304107e-01 -3.669724e-02
<VARIANCE> 25
 1.121632e+01 2.133868e+01 1.609320e+01 2.854056e+01 3.961755e+01 4.848117e+01 1.154835e+02 7.704914e+01 5.274142e+01 5.122507e+01 4.962559e+01 2.965609e+01 3.841695e-01 8.091522e-01 1.123178e+00 1.289109e+00 2.354119e+00 2.274164e+00 2.761509e+00 3.010543e+00 2.978201e+00 2.345637e+00 1.816825e+00 1.454905e+00 4.506286e-04
<GCONST> 8.761274e+01
<MIXTURE> 92 7.852945e-03
<MEAN> 25
 7.965216e+00 -7.915781e+00 -8.280663e+00 -4.471401e+00 7.265441e-01 2.449239e+00 -1.546467e+00 2.203323e+00 2.406328e+00 -1.992434e+00 -2.406188e+00 -5.489241e+00 1.346869e-01 1.110849e+00 3.623315e-01 3.101110e-01 2.934318e-01 -6.173922e-01 -4.526354e-01 -2.080753e-01 -2.295314e-01 3.329372e-01 2.685138e-02 3.304107e-01 -3.669724e-02
<VARIANCE> 25
 1.121632e+01 2.133868e+01 1.609320e+01 2.854056e+01 3.961755e+01 4.848117e+01 1.154835e+02 7.704914e+01 5.274142e+01 5.122507e+01 4.962559e+01 2.965609e+01 3.841695e-01 8.091522e-01 1.123178e+00 1.289109e+00 2.354119e+00 2.274164e+00 2.761509e+00 3.010543e+00 2.978201e+00 2.345637e+00 1.816825e+00 1.454905e+00 4.506286e-04
<GCONST> 8.761274e+01
<MIXTURE> 93 6.122769e-03
<MEAN> 25
 -7.182782e+00 -8.270214e-02 -2.292257e+00 5.659225e+00 6.653259e+00 3.676930e+00 6.421309e+00 3.107137e+00 4.326119e+00 2.698287e+00 2.063925e+00 3.686993e+00 -3.884008e-02 -1.396448e-01 -2.605961e-01 -2.831445e-01 -3.234150e-01 -3.274790e-01 -2.384641e-01 -1.605180e-01 -1.592568e-01 -9.984707e-02 -6.007205e-02 -1.797676e-02 -3.225092e-06
<VARIANCE> 25
 9.376306e+00 9.273419e+00 9.492141e+00 1.030661e+01 1.306006e+01 1.485575e+01 1.566541e+01 1.641873e+01 1.382392e+01 1.371598e+01 1.568676e+01 1.404554e+01 8.969589e-02 1.550564e-01 2.622813e-01 3.930786e-01 5.149987e-01 7.074428e-01 7.873355e-01 8.642898e-01 8.787524e-01 8.146214e-01 8.717221e-01 9.044976e-01 8.403764e-07
<GCONST> 5.395005e+01
<MIXTURE> 94 6.122769e-03
<MEAN> 25
 -7.182782e+00 -8.270214e-02 -2.292257e+00 5.659225e+00 6.653259e+00 3.676930e+00 6.421309e+00 3.107137e+00 4.326119e+00 2.698287e+00 2.063925e+00 3.686993e+00 -3.884008e-02 -1.396448e-01 -2.605961e-01 -2.831445e-01 -3.234150e-01 -3.274790e-01 -2.384641e-01 -1.605180e-01 -1.592568e-01 -9.984707e-02 -6.007205e-02 -1.797676e-02 -3.225092e-06
<VARIANCE> 25
 9.376306e+00 9.273419e+00 9.492141e+00 1.030661e+01 1.306006e+01 1.485575e+01 1.566541e+01 1.641873e+01 1.382392e+01 1.371598e+01 1.568676e+01 1.404554e+01 8.969589e-02 1.550564e-01 2.622813e-01 3.930786e-01 5.149987e-01 7.074428e-01 7.873355e-01 8.642898e-01 8.787524e-01 8.146214e-01 8.717221e-01 9.044976e-01 8.403764e-07
<GCONST> 5.395005e+01
<MIXTURE> 95 5.258835e-03
<MEAN> 25
 -5.766061e+00 -6.306445e-01 -2.179748e+00 4.811473e+00 4.445198e+00 2.749430e+00 4.259758e+00 1.613515e+00 2.233510e+00 8.967178e-01 1.199200e+00 2.534607e+00 1.440391e-01 1.556666e-01 8.578344e-02 -8.992191e-02 -3.814113e-01 -7.300867e-01 -1.066085e+00 -1.271688e+00 -1.243555e+00 -9.546396e-01 -6.393496e-01 -3.061850e-01 -1.364627e-04
<VARIANCE> 25
 1.038320e+01 6.863813e+00 1.346048e+01 1.274040e+01 1.520691e+01 1.882424e+01 1.874546e+01 1.690019e+01 1.523728e+01 1.527327e+01 1.956567e+01 1.444384e+01 2.117885e-01 2.964016e-01 4.520657e-01 6.310412e-01 8.037245e-01 9.038668e-01 9.614559e-01 9.067978e-01 9.596348e-01 1.109454e+00 1.146032e+00 1.095030e+00 4.043111e-05
<GCONST> 6.356158e+01
<MIXTURE> 96 7.034694e-03
<MEAN> 25
 -5.014442e+00 7.284274e-01 -4.279092e+00 4.201462e+00 6.317560e+00 4.942298e-01 3.380556e+00 1.439445e+00 3.824995e+00 1.346187e+00 9.350494e-01 1.799313e+00 -8.615811e-02 1.090297e-01 2.402407e-01 3.808079e-01 4.813187e-01 4.496580e-01 3.703959e-01 -2.043623e-01 -5.964162e-01 -6.927121e-01 -5.589674e-01 -4.885412e-01 -9.777224e-06
<VARIANCE> 25
 1.205607e+01 1.004746e+01 2.173793e+01 1.229879e+01 1.691738e+01 1.858942e+01 2.017481e+01 1.636399e+01 1.667735e+01 1.624085e+01 1.642226e+01 1.353253e+01 1.521206e-01 2.159823e-01 3.368180e-01 4.257024e-01 6.105868e-01 5.984579e-01 9.359981e-01 9.124700e-01 8.939873e-01 9.442480e-01 7.547752e-01 9.009553e-01 6.181193e-07
<GCONST> 5.751416e+01
<MIXTURE> 97 7.034694e-03
<MEAN> 25
 -5.014442e+00 7.284274e-01 -4.279092e+00 4.201462e+00 6.317560e+00 4.942298e-01 3.380556e+00 1.439445e+00 3.824995e+00 1.346187e+00 9.350494e-01 1.799313e+00 -8.615811e-02 1.090297e-01 2.402407e-01 3.808079e-01 4.813187e-01 4.496580e-01 3.703959e-01 -2.043623e-01 -5.964162e-01 -6.927121e-01 -5.589674e-01 -4.885412e-01 -9.777224e-06
<VARIANCE> 25
 1.205607e+01 1.004746e+01 2.173793e+01 1.229879e+01 1.691738e+01 1.858942e+01 2.017481e+01 1.636399e+01 1.667735e+01 1.624085e+01 1.642226e+01 1.353253e+01 1.521206e-01 2.159823e-01 3.368180e-01 4.257024e-01 6.105868e-01 5.984579e-01 9.359981e-01 9.124700e-01 8.939873e-01 9.442480e-01 7.547752e-01 9.009553e-01 6.181193e-07
<GCONST> 5.751416e+01
<MIXTURE> 98 9.917808e-03
<MEAN> 25
 -1.233288e+00 1.116883e+00 -1.196694e+00 4.047059e+00 3.842429e+00 4.484273e+00 5.875893e+00 6.319744e-01 2.906331e+00 2.207158e+00 -9.174401e-02 7.528893e-01 -1.922426e+00 -1.572255e+00 -9.761829e-01 8.471903e-02 1.022534e+00 1.022195e+00 8.317218e-01 1.343786e+00 1.185284e+00 8.377971e-01 1.463587e+00 9.040532e-01 -3.961739e-02
<VARIANCE> 25
 1.600400e+01 2.572680e+01 3.246150e+01 2.975318e+01 4.504418e+01 4.853102e+01 5.618848e+01 3.036437e+01 2.533549e+01 3.257294e+01 2.838890e+01 2.075633e+01 1.537223e+00 1.331258e+00 2.115585e+00 2.410521e+00 3.199250e+00 2.859210e+00 2.761342e+00 2.642894e+00 2.704063e+00 2.601055e+00 2.412519e+00 2.101464e+00 1.977775e-03
<GCONST> 9.096119e+01
<MIXTURE> 99 6.696178e-03
<MEAN> 25
 -7.400733e+00 1.181639e+01 5.525153e+00 4.468543e+00 2.275787e+00 -7.983566e+00 -2.429611e+00 -5.370502e+00 -3.098929e+00 -4.507166e+00 -2.571337e+00 2.066180e+00 4.234397e-01 -9.361752e-01 5.266174e-01 -1.001879e+00 -1.067312e+00 -6.973063e-01 -3.924655e-01 1.880550e-01 6.049823e-03 2.734593e-01 3.676096e-01 3.214070e-01 1.428755e-02
<VARIANCE> 25
 2.942487e+01 2.590551e+01 3.903426e+01 2.533369e+01 2.844230e+01 3.908714e+01 2.598537e+01 2.440038e+01 2.159632e+01 2.294425e+01 1.629247e+01 2.762236e+01 2.560200e+00 3.406847e+00 1.408290e+00 1.767286e+00 2.472573e+00 2.125072e+00 1.691818e+00 2.076236e+00 1.449615e+00 1.767442e+00 9.456450e-01 1.332894e+00 1.164069e-03
<GCONST> 8.567009e+01
<MIXTURE> 100 4.498084e-03
<MEAN> 25
 -1.608381e+00 6.367378e+00 1.028901e+01 -7.425402e+00 -1.073793e+01 -5.140389e+00 -4.957783e+00 -9.936631e+00 -4.683133e+00 -8.756835e-01 -2.715115e+00 -2.683699e+00 2.928121e+00 -1.279037e+00 1.307746e+00 -2.191178e+00 -3.426818e+00 -7.769517e-01 -1.228320e+00 -7.880684e-01 -1.471286e+00 3.481481e-01 -1.634870e+00 -2.865692e-01 2.220704e-03
<VARIANCE> 25
 1.364725e+01 2.115221e+01 2.238142e+01 2.653537e+01 2.323389e+01 2.439396e+01 2.906343e+01 2.183289e+01 2.763854e+01 2.264154e+01 2.235868e+01 2.134523e+01 1.814906e+00 4.002843e+00 2.924893e+00 4.299221e+00 4.183033e+00 4.529015e+00 4.012482e+00 4.526562e+00 4.156982e+00 3.891227e+00 3.962845e+00 3.209808e+00 1.673182e-03
<GCONST> 9.268813e+01
<MIXTURE> 101 6.007792e-03
<MEAN> 25
 8.067550e+00 -3.951291e+00 -5.897297e+00 -6.666011e+00 1.605147e-01 -4.048986e-01 -1.090096e+01 -1.179044e+00 1.523941e+00 3.531947e+00 -2.186508e+00 -5.279664e+00 6.553870e-01 6.357695e-01 -1.535494e+00 -1.504977e+00 7.619628e-01 2.585531e+00 3.872223e-01 -1.483615e+00 -9.513434e-01 9.161940e-01 1.422504e+00 -5.324764e-01 -5.429754e-03
<VARIANCE> 25
 8.704876e+00 1.750487e+01 3.168553e+01 3.963667e+01 3.597408e+01 3.832129e+01 4.443673e+01 4.551657e+01 3.517063e+01 5.333910e+01 4.921599e+01 2.354959e+01 2.703980e-01 6.647257e-01 1.375933e+00 1.674463e+00 2.102902e+00 2.874146e+00 2.706875e+00 1.923691e+00 2.554498e+00 2.539907e+00 1.720746e+00 1.908450e+00 3.239483e-04
<GCONST> 8.513367e+01
<MIXTURE> 102 6.007792e-03
<MEAN> 25
 8.067550e+00 -3.951291e+00 -5.897297e+00 -6.666011e+00 1.605147e-01 -4.048986e-01 -1.090096e+01 -1.179044e+00 1.523941e+00 3.531947e+00 -2.186508e+00 -5.279664e+00 6.553870e-01 6.357695e-01 -1.535494e+00 -1.504977e+00 7.619628e-01 2.585531e+00 3.872223e-01 -1.483615e+00 -9.513434e-01 9.161940e-01 1.422504e+00 -5.324764e-01 -5.429754e-03
<VARIANCE> 25
 8.704876e+00 1.750487e+01 3.168553e+01 3.963667e+01 3.597408e+01 3.832129e+01 4.443673e+01 4.551657e+01 3.517063e+01 5.333910e+01 4.921599e+01 2.354959e+01 2.703980e-01 6.647257e-01 1.375933e+00 1.674463e+00 2.102902e+00 2.874146e+00 2.706875e+00 1.923691e+00 2.554498e+00 2.539907e+00 1.720746e+00 1.908450e+00 3.239483e-04
<GCONST> 8.513367e+01
<MIXTURE> 103 5.694618e-03
<MEAN> 25
 3.362391e+00 -9.442825e+00 -6.155814e+00 -3.068916e+00 -1.320600e+00 -1.986420e+00 2.391179e+00 2.538662e+00 -4.568243e+00 -9.165981e+00 -5.023702e+00 3.266508e-01 -1.525497e-01 -1.482820e+00 -9.746903e-01 3.742433e-01 1.203345e+00 1.014094e+00 1.623537e-01 -2.611226e-01 -7.764642e-01 -9.590604e-01 -2.781836e-02 1.238846e-01 2.661969e-02
<VARIANCE> 25
 1.046770e+01 2.045742e+01 2.336959e+01 3.155986e+01 4.791159e+01 3.551065e+01 4.658836e+01 3.659727e+01 4.218238e+01 2.993195e+01 3.018477e+01 2.641092e+01 6.465055e-01 1.250130e+00 1.537097e+00 1.943753e+00 2.961022e+00 2.419921e+00 2.890877e+00 2.573209e+00 2.553939e+00 2.549217e+00 2.103826e+00 2.006729e+00 8.149155e-04
<GCONST> 8.767829e+01
<MIXTURE> 104 5.694618e-03
<MEAN> 25
 3.362391e+00 -9.442825e+00 -6.155814e+00 -3.068916e+00 -1.320600e+00 -1.986420e+00 2.391179e+00 2.538662e+00 -4.568243e+00 -9.165981e+00 -5.023702e+00 3.266508e-01 -1.525497e-01 -1.482820e+00 -9.746903e-01 3.742433e-01 1.203345e+00 1.014094e+00 1.623537e-01 -2.611226e-01 -7.764642e-01 -9.590604e-01 -2.781836e-02 1.238846e-01 2.661969e-02
<VARIANCE> 25
 1.046770e+01 2.045742e+01 2.336959e+01 3.155986e+01 4.791159e+01 3.551065e+01 4.658836e+01 3.659727e+01 4.218238e+01 2.993195e+01 3.018477e+01 2.641092e+01 6.465055e-01 1.250130e+00 1.537097e+00 1.943753e+00 2.961022e+00 2.419921e+00 2.890877e+00 2.573209e+00 2.553939e+00 2.549217e+00 2.103826e+00 2.006729e+00 8.149155e-04
<GCONST> 8.767829e+01
<MIXTURE> 105 4.710235e-03
<MEAN> 25
 2.139058e+00 -1.663927e+00 1.060489e+01 -2.853192e+00 -1.128029e+01 -5.008399e+00 -4.639867e+00 -4.976996e-01 -4.140177e+00 -2.606978e+00 1.030748e+00 -8.041942e-01 -1.116329e-02 5.851349e-02 8.681155e-02 -3.936513e-02 3.942793e-02 5.013169e-02 -2.766917e-02 6.286363e-02 -2.370390e-02 8.490983e-02 -6.122295e-03 -4.977041e-02 -2.743539e-03
<VARIANCE> 25
 1.341946e+01 2.742026e+01 6.335687e+01 4.138025e+01 3.728979e+01 5.158290e+01 4.076310e+01 5.216545e+01 3.835920e+01 4.230613e+01 4.073184e+01 2.942644e+01 8.926717e-02 1.840059e-01 3.428435e-01 2.755737e-01 3.847585e-01 5.123113e-01 5.325950e-01 4.831078e-01 4.657185e-01 4.587235e-01 4.116960e-01 4.239500e-01 8.545838e-05
<GCONST> 6.732512e+01
<MIXTURE> 106 4.710235e-03
<MEAN> 25
 2.139058e+00 -1.663927e+00 1.060489e+01 -2.853192e+00 -1.128029e+01 -5.008399e+00 -4.639867e+00 -4.976996e-01 -4.140177e+00 -2.606978e+00 1.030748e+00 -8.041942e-01 -1.116329e-02 5.851349e-02 8.681155e-02 -3.936513e-02 3.942793e-02 5.013169e-02 -2.766917e-02 6.286363e-02 -2.370390e-02 8.490983e-02 -6.122295e-03 -4.977041e-02 -2.743539e-03
<VARIANCE> 25
 1.341946e+01 2.742026e+01 6.335687e+01 4.138025e+01 3.728979e+01 5.158290e+01 4.076310e+01 5.216545e+01 3.835920e+01 4.230613e+01 4.073184e+01 2.942644e+01 8.926717e-02 1.840059e-01 3.428435e-01 2.755737e-01 3.847585e-01 5.123113e-01 5.325950e-01 4.831078e-01 4.657185e-01 4.587235e-01 4.116960e-01 4.239500e-01 8.545838e-05
<GCONST> 6.732512e+01
<MIXTURE> 107 5.452374e-03
<MEAN> 25
 8.824904e+00 -2.720511e+00 -7.473594e+00 -8.860066e+00 7.589179e-01 4.392695e+00 -7.639913e+00 -5.696940e+00 -4.516619e-01 3.863016e+00 1.396481e+00 -5.471622e+00 -6.999987e-01 -6.017274e-01 6.850986e-01 1.912289e+00 4.159753e-01 -2.034308e+00 -1.126431e+00 9.739025e-01 1.791177e+00 -8.829752e-02 -1.608592e+00 -9.698715e-01 -3.745180e-03
<VARIANCE> 25
 9.040699e+00 2.192687e+01 2.544107e+01 4.957076e+01 4.374841e+01 4.548626e+01 9.645997e+01 3.950853e+01 3.887753e+01 3.651816e+01 5.088598e+01 3.051657e+01 3.471365e-01 9.446162e-01 1.444110e+00 2.513160e+00 2.042471e+00 3.231634e+00 3.227719e+00 2.260866e+00 2.152398e+00 3.098563e+00 1.649310e+00 1.994068e+00 6.329941e-04
<GCONST> 8.859543e+01
<MIXTURE> 108 5.452374e-03
<MEAN> 25
 8.824904e+00 -2.720511e+00 -7.473594e+00 -8.860066e+00 7.589179e-01 4.392695e+00 -7.639913e+00 -5.696940e+00 -4.516619e-01 3.863016e+00 1.396481e+00 -5.471622e+00 -6.999987e-01 -6.017274e-01 6.850986e-01 1.912289e+00 4.159753e-01 -2.034308e+00 -1.126431e+00 9.739025e-01 1.791177e+00 -8.829752e-02 -1.608592e+00 -9.698715e-01 -3.745180e-03
<VARIANCE> 25
 9.040699e+00 2.192687e+01 2.544107e+01 4.957076e+01 4.374841e+01 4.548626e+01 9.645997e+01 3.950853e+01 3.887753e+01 3.651816e+01 5.088598e+01 3.051657e+01 3.471365e-01 9.446162e-01 1.444110e+00 2.513160e+00 2.042471e+00 3.231634e+00 3.227719e+00 2.260866e+00 2.152398e+00 3.098563e+00 1.649310e+00 1.994068e+00 6.329941e-04
<GCONST> 8.859543e+01
<MIXTURE> 109 6.661064e-03
<MEAN> 25
 4.073344e+00 -1.047085e+01 -8.352120e+00 -1.353285e+00 2.737630e+00 -8.411223e-02 -7.459213e-02 1.490593e+00 -2.528379e+00 -8.284415e+00 -5.311211e+00 3.883466e-04 -2.697668e-02 -1.350060e-01 -2.800849e-02 2.483897e-01 1.908948e-01 1.259189e-01 -1.234156e-01 -1.116978e-01 -3.562478e-02 -1.482468e-01 2.234368e-01 1.958364e-02 -3.521186e-03
<VARIANCE> 25
 9.506510e+00 1.859299e+01 1.998755e+01 3.113022e+01 4.117485e+01 3.744527e+01 4.695866e+01 3.428578e+01 4.595109e+01 3.554578e+01 2.989085e+01 2.824874e+01 1.950896e-01 4.232852e-01 5.403481e-01 6.336944e-01 1.231520e+00 9.922347e-01 1.250933e+00 1.093710e+00 1.132558e+00 1.003207e+00 8.906757e-01 8.958562e-01 1.804440e-04
<GCONST> 7.464671e+01
<MIXTURE> 110 6.661064e-03
<MEAN> 25
 4.073344e+00 -1.047085e+01 -8.352120e+00 -1.353285e+00 2.737630e+00 -8.411223e-02 -7.459213e-02 1.490593e+00 -2.528379e+00 -8.284415e+00 -5.311211e+00 3.883466e-04 -2.697668e-02 -1.350060e-01 -2.800849e-02 2.483897e-01 1.908948e-01 1.259189e-01 -1.234156e-01 -1.116978e-01 -3.562478e-02 -1.482468e-01 2.234368e-01 1.958364e-02 -3.521186e-03
<VARIANCE> 25
 9.506510e+00 1.859299e+01 1.998755e+01 3.113022e+01 4.117485e+01 3.744527e+01 4.695866e+01 3.428578e+01 4.595109e+01 3.554578e+01 2.989085e+01 2.824874e+01 1.950896e-01 4.232852e-01 5.403481e-01 6.336944e-01 1.231520e+00 9.922347e-01 1.250933e+00 1.093710e+00 1.132558e+00 1.003207e+00 8.906757e-01 8.958562e-01 1.804440e-04
<GCONST> 7.464671e+01
<MIXTURE> 111 4.337247e-03
<MEAN> 25
 -4.468052e+00 -8.985119e-01 -1.744619e+00 1.687289e+00 9.898998e-01 9.506305e-01 3.150259e-01 2.083861e-01 1.000320e-01 -5.372103e-01 -6.278512e-01 1.956510e+00 -2.159085e-02 -3.158284e-02 -7.146909e-02 -7.308243e-02 -3.772665e-02 6.940183e-03 -8.931810e-04 -6.014065e-02 -1.411440e-01 -2.024694e-01 -1.905177e-01 -1.076450e-01 -2.139672e-04
<VARIANCE> 25
 7.007310e+00 5.003814e+00 1.037801e+01 9.398878e+00 1.329090e+01 2.384878e+01 1.465648e+01 1.319514e+01 1.162199e+01 1.192357e+01 1.360976e+01 1.159570e+01 7.965958e-02 1.639754e-01 2.754267e-01 4.206050e-01 5.703647e-01 7.063938e-01 7.999949e-01 8.591597e-01 8.943694e-01 8.559738e-01 8.606154e-01 8.469263e-01 2.224546e-05
<GCONST> 5.602642e+01
<MIXTURE> 112 4.337247e-03
<MEAN> 25
 -4.468052e+00 -8.985119e-01 -1.744619e+00 1.687289e+00 9.898998e-01 9.506305e-01 3.150259e-01 2.083861e-01 1.000320e-01 -5.372103e-01 -6.278512e-01 1.956510e+00 -2.159085e-02 -3.158284e-02 -7.146909e-02 -7.308243e-02 -3.772665e-02 6.940183e-03 -8.931810e-04 -6.014065e-02 -1.411440e-01 -2.024694e-01 -1.905177e-01 -1.076450e-01 -2.139672e-04
<VARIANCE> 25
 7.007310e+00 5.003814e+00 1.037801e+01 9.398878e+00 1.329090e+01 2.384878e+01 1.465648e+01 1.319514e+01 1.162199e+01 1.192357e+01 1.360976e+01 1.159570e+01 7.965958e-02 1.639754e-01 2.754267e-01 4.206050e-01 5.703647e-01 7.063938e-01 7.999949e-01 8.591597e-01 8.943694e-01 8.559738e-01 8.606154e-01 8.469263e-01 2.224546e-05
<GCONST> 5.602642e+01
<MIXTURE> 113 5.938666e-03
<MEAN> 25
 9.999362e+00 1.714349e+00 -8.683645e+00 -1.684379e+01 -1.102890e+00 5.687377e+00 -5.168601e+00 -1.537814e+00 -5.767072e+00 -5.732685e-01 2.807515e-01 -3.226325e-01 9.666518e-03 2.645328e-02 -5.576484e-02 -1.424558e-01 8.696184e-02 1.535110e-01 5.671632e-02 2.512684e-02 -4.401939e-02 -2.389108e-02 1.677389e-01 4.905198e-02 -1.344842e-03
<VARIANCE> 25
 8.765775e+00 1.625220e+01 2.980050e+01 3.562826e+01 5.199786e+01 3.326995e+01 4.012066e+01 3.924073e+01 3.808123e+01 4.597727e+01 3.567133e+01 2.901504e+01 1.221842e-01 3.226646e-01 3.152273e-01 6.781846e-01 6.247326e-01 6.441861e-01 7.820086e-01 8.373352e-01 9.654206e-01 9.364818e-01 7.255765e-01 7.248191e-01 1.239541e-04
<GCONST> 7.125236e+01
<MIXTURE> 114 5.938666e-03
<MEAN> 25
 9.999362e+00 1.714349e+00 -8.683645e+00 -1.684379e+01 -1.102890e+00 5.687377e+00 -5.168601e+00 -1.537814e+00 -5.767072e+00 -5.732685e-01 2.807515e-01 -3.226325e-01 9.666518e-03 2.645328e-02 -5.576484e-02 -1.424558e-01 8.696184e-02 1.535110e-01 5.671632e-02 2.512684e-02 -4.401939e-02 -2.389108e-02 1.677389e-01 4.905198e-02 -1.344842e-03
<VARIANCE> 25
 8.765775e+00 1.625220e+01 2.980050e+01 3.562826e+01 5.199786e+01 3.326995e+01 4.012066e+01 3.924073e+01 3.808123e+01 4.597727e+01 3.567133e+01 2.901504e+01 1.221842e-01 3.226646e-01 3.152273e-01 6.781846e-01 6.247326e-01 6.441861e-01 7.820086e-01 8.373352e-01 9.654206e-01 9.364818e-01 7.255765e-01 7.248191e-01 1.239541e-04
<GCONST> 7.125236e+01
<MIXTURE> 115 2.935202e-03
<MEAN> 25
 -3.811156e+00 1.318631e-01 -5.178619e+00 2.506979e+00 4.207271e+00 -1.565724e+00 1.912172e+00 6.490623e-01 2.669446e+00 7.260466e-01 6.389657e-02 1.873067e+00 4.756749e-02 -1.078144e-01 -2.025027e-01 -4.317673e-01 -7.638324e-01 -7.349727e-01 -5.806270e-01 -4.349514e-01 -4.617459e-01 -3.678958e-01 -4.639697e-01 -2.877917e-01 2.340955e-06
<VARIANCE> 25
 7.456338e+00 9.729575e+00 1.649876e+01 1.273781e+01 1.983350e+01 1.834538e+01 1.890633e+01 2.232948e+01 1.895163e+01 1.671161e+01 1.723429e+01 1.818268e+01 2.702848e-01 4.269300e-01 4.918853e-01 7.116738e-01 7.135084e-01 8.560302e-01 1.292852e+00 1.109660e+00 1.119722e+00 1.028988e+00 8.423290e-01 1.189311e+00 6.574527e-07
<GCONST> 6.159392e+01
<MIXTURE> 116 2.935202e-03
<MEAN> 25
 -3.811156e+00 1.318631e-01 -5.178619e+00 2.506979e+00 4.207271e+00 -1.565724e+00 1.912172e+00 6.490623e-01 2.669446e+00 7.260466e-01 6.389657e-02 1.873067e+00 4.756749e-02 -1.078144e-01 -2.025027e-01 -4.317673e-01 -7.638324e-01 -7.349727e-01 -5.806270e-01 -4.349514e-01 -4.617459e-01 -3.678958e-01 -4.639697e-01 -2.877917e-01 2.340955e-06
<VARIANCE> 25
 7.456338e+00 9.729575e+00 1.649876e+01 1.273781e+01 1.983350e+01 1.834538e+01 1.890633e+01 2.232948e+01 1.895163e+01 1.671161e+01 1.723429e+01 1.818268e+01 2.702848e-01 4.269300e-01 4.918853e-01 7.116738e-01 7.135084e-01 8.560302e-01 1.292852e+00 1.109660e+00 1.119722e+00 1.028988e+00 8.423290e-01 1.189311e+00 6.574527e-07
<GCONST> 6.159392e+01
<MIXTURE> 117 6.506003e-03
<MEAN> 25
 -6.287183e+00 3.152732e+00 9.762388e-01 8.677774e+00 8.221422e+00 5.141426e+00 7.663733e+00 4.394618e+00 6.379091e+00 4.501393e+00 5.192729e+00 2.606180e+00 -5.681319e-02 -2.730801e-01 -4.356905e-01 -4.624362e-01 -4.317380e-01 -3.157636e-01 -2.370831e-01 -2.783566e-01 -3.150580e-01 -3.720381e-01 -2.928019e-01 -1.787262e-01 -1.490962e-06
<VARIANCE> 25
 8.179888e+00 1.113552e+01 8.611660e+00 1.233354e+01 1.739548e+01 1.447668e+01 1.562971e+01 1.456050e+01 1.373459e+01 1.354567e+01 1.371337e+01 1.174458e+01 2.332020e-01 3.025492e-01 4.839613e-01 6.258434e-01 9.780284e-01 1.120346e+00 1.132459e+00 1.262222e+00 1.060479e+00 1.150157e+00 9.463584e-01 9.825304e-01 6.394457e-07
<GCONST> 5.885427e+01
<MIXTURE> 118 6.506003e-03
<MEAN> 25
 -6.287183e+00 3.152732e+00 9.762388e-01 8.677774e+00 8.221422e+00 5.141426e+00 7.663733e+00 4.394618e+00 6.379091e+00 4.501393e+00 5.192729e+00 2.606180e+00 -5.681319e-02 -2.730801e-01 -4.356905e-01 -4.624362e-01 -4.317380e-01 -3.157636e-01 -2.370831e-01 -2.783566e-01 -3.150580e-01 -3.720381e-01 -2.928019e-01 -1.787262e-01 -1.490962e-06
<VARIANCE> 25
 8.179888e+00 1.113552e+01 8.611660e+00 1.233354e+01 1.739548e+01 1.447668e+01 1.562971e+01 1.456050e+01 1.373459e+01 1.354567e+01 1.371337e+01 1.174458e+01 2.332020e-01 3.025492e-01 4.839613e-01 6.258434e-01 9.780284e-01 1.120346e+00 1.132459e+00 1.262222e+00 1.060479e+00 1.150157e+00 9.463584e-01 9.825304e-01 6.394457e-07
<GCONST> 5.885427e+01
<MIXTURE> 119 4.297961e-03
<MEAN> 25
 -4.974771e+00 -7.632294e+00 2.227931e+00 2.016308e+00 2.243201e+00 2.069345e-01 5.274163e+00 5.940985e+00 1.167817e+00 9.674549e-01 6.611610e+00 1.567383e+00 -4.979247e-02 -7.925120e-02 3.710987e-02 -5.717676e-02 -1.261928e-01 -1.798729e-01 -6.906032e-02 -1.403967e-02 -9.218441e-02 -1.120531e-01 -5.509493e-02 -5.837724e-02 1.110412e-03
<VARIANCE> 25
 8.501820e+00 9.826195e+00 1.659986e+01 2.017733e+01 2.290049e+01 2.321249e+01 2.500018e+01 2.649039e+01 2.503747e+01 2.806494e+01 2.041439e+01 2.042636e+01 1.605088e-01 2.825284e-01 4.598149e-01 6.327297e-01 8.033339e-01 1.003646e+00 1.099895e+00 1.278064e+00 1.285677e+00 1.245443e+00 1.192386e+00 1.112178e+00 2.315422e-04
<GCONST> 6.972517e+01
<MIXTURE> 120 4.297961e-03
<MEAN> 25
 -4.974771e+00 -7.632294e+00 2.227931e+00 2.016308e+00 2.243201e+00 2.069345e-01 5.274163e+00 5.940985e+00 1.167817e+00 9.674549e-01 6.611610e+00 1.567383e+00 -4.979247e-02 -7.925120e-02 3.710987e-02 -5.717676e-02 -1.261928e-01 -1.798729e-01 -6.906032e-02 -1.403967e-02 -9.218441e-02 -1.120531e-01 -5.509493e-02 -5.837724e-02 1.110412e-03
<VARIANCE> 25
 8.501820e+00 9.826195e+00 1.659986e+01 2.017733e+01 2.290049e+01 2.321249e+01 2.500018e+01 2.649039e+01 2.503747e+01 2.806494e+01 2.041439e+01 2.042636e+01 1.605088e-01 2.825284e-01 4.598149e-01 6.327297e-01 8.033339e-01 1.003646e+00 1.099895e+00 1.278064e+00 1.285677e+00 1.245443e+00 1.192386e+00 1.112178e+00 2.315422e-04
<GCONST> 6.972517e+01
<MIXTURE> 121 4.567511e-03
<MEAN> 25
 3.494177e-01 -2.583564e+00 5.308632e+00 -1.283866e+01 -1.268945e+01 -1.662218e+00 8.509771e-01 -4.958365e+00 -3.981169e+00 -3.649871e-01 -5.420809e+00 -4.169554e+00 1.590673e-02 1.378837e-01 -2.487211e-02 6.024181e-02 1.531694e-01 1.305135e-01 -1.197083e-01 -1.441960e-01 -2.651745e-01 -3.465785e-01 -8.910006e-02 1.756916e-02 -7.099759e-03
<VARIANCE> 25
 8.083408e+00 1.528199e+01 1.753783e+01 1.982665e+01 2.370410e+01 2.895656e+01 2.928737e+01 2.570073e+01 3.562120e+01 2.828707e+01 1.948049e+01 2.126969e+01 1.528045e-01 6.421422e-01 6.125776e-01 7.103925e-01 7.585999e-01 1.238867e+00 1.139023e+00 1.137378e+00 1.250173e+00 1.428458e+00 9.355654e-01 9.151637e-01 2.074098e-04
<GCONST> 7.169903e+01
<MIXTURE> 122 4.567511e-03
<MEAN> 25
 3.494177e-01 -2.583564e+00 5.308632e+00 -1.283866e+01 -1.268945e+01 -1.662218e+00 8.509771e-01 -4.958365e+00 -3.981169e+00 -3.649871e-01 -5.420809e+00 -4.169554e+00 1.590673e-02 1.378837e-01 -2.487211e-02 6.024181e-02 1.531694e-01 1.305135e-01 -1.197083e-01 -1.441960e-01 -2.651745e-01 -3.465785e-01 -8.910006e-02 1.756916e-02 -7.099759e-03
<VARIANCE> 25
 8.083408e+00 1.528199e+01 1.753783e+01 1.982665e+01 2.370410e+01 2.895656e+01 2.928737e+01 2.570073e+01 3.562120e+01 2.828707e+01 1.948049e+01 2.126969e+01 1.528045e-01 6.421422e-01 6.125776e-01 7.103925e-01 7.585999e-01 1.238867e+00 1.139023e+00 1.137378e+00 1.250173e+00 1.428458e+00 9.355654e-01 9.151637e-01 2.074098e-04
<GCONST> 7.169903e+01
<MIXTURE> 123 4.393044e-03
<MEAN> 25
 -4.705055e+00 1.630295e+00 3.356826e-02 6.205314e+00 5.895453e+00 3.189873e+00 4.010120e+00 3.527708e-01 4.280455e-01 -4.018908e-01 -3.453521e-02 1.040394e+00 -3.935605e-01 -7.717601e-01 -9.291225e-01 -6.491431e-01 -1.905714e-01 1.797231e-01 3.469017e-01 6.325623e-01 7.450478e-01 6.609023e-01 7.504421e-01 5.245475e-01 -2.550834e-03
<VARIANCE> 25
 1.078885e+01 1.223450e+01 1.489167e+01 1.632143e+01 2.243149e+01 2.526628e+01 2.320577e+01 1.741236e+01 1.768143e+01 1.622060e+01 2.023034e+01 1.888721e+01 4.437560e-01 3.561135e-01 5.380952e-01 6.891690e-01 1.002967e+00 1.264728e+00 1.148132e+00 1.086600e+00 1.065122e+00 1.186598e+00 1.232428e+00 1.280961e+00 8.715218e-05
<GCONST> 6.923392e+01
<MIXTURE> 124 4.069876e-03
<MEAN> 25
 -6.589573e+00 -1.079596e+00 -2.904711e+00 5.114057e+00 5.089209e+00 3.330085e+00 5.425217e+00 2.511903e+00 3.194371e+00 1.302875e+00 1.134671e+00 3.034382e+00 -2.022741e-01 -3.211490e-01 -3.694711e-01 -2.162034e-01 1.297366e-01 5.246782e-01 8.002339e-01 8.527409e-01 6.537196e-01 3.193899e-01 7.604546e-02 -2.196974e-02 4.144429e-05
<VARIANCE> 25
 1.099036e+01 7.733247e+00 1.141875e+01 1.239744e+01 1.264341e+01 1.977258e+01 1.563294e+01 1.703136e+01 1.549040e+01 1.593507e+01 1.906810e+01 1.446586e+01 1.064763e-01 1.689944e-01 2.786586e-01 4.201724e-01 5.991388e-01 7.148637e-01 7.487798e-01 8.071909e-01 8.981401e-01 9.817749e-01 1.016283e+00 1.000291e+00 1.760055e-05
<GCONST> 5.900567e+01
<MIXTURE> 125 4.069876e-03
<MEAN> 25
 -6.589573e+00 -1.079596e+00 -2.904711e+00 5.114057e+00 5.089209e+00 3.330085e+00 5.425217e+00 2.511903e+00 3.194371e+00 1.302875e+00 1.134671e+00 3.034382e+00 -2.022741e-01 -3.211490e-01 -3.694711e-01 -2.162034e-01 1.297366e-01 5.246782e-01 8.002339e-01 8.527409e-01 6.537196e-01 3.193899e-01 7.604546e-02 -2.196974e-02 4.144429e-05
<VARIANCE> 25
 1.099036e+01 7.733247e+00 1.141875e+01 1.239744e+01 1.264341e+01 1.977258e+01 1.563294e+01 1.703136e+01 1.549040e+01 1.593507e+01 1.906810e+01 1.446586e+01 1.064763e-01 1.689944e-01 2.786586e-01 4.201724e-01 5.991388e-01 7.148637e-01 7.487798e-01 8.071909e-01 8.981401e-01 9.817749e-01 1.016283e+00 1.000291e+00 1.760055e-05
<GCONST> 5.900567e+01
<MIXTURE> 126 2.402244e-03
<MEAN> 25
 -3.558472e+00 -5.996512e+00 -6.370016e+00 1.824021e+00 5.085284e+00 -3.981592e+00 -2.463709e-01 4.139355e+00 3.548862e+00 -2.329988e+00 -1.162351e+00 2.078064e+00 8.179695e-02 -4.003869e-02 -2.708846e-02 -9.025881e-02 -3.444148e-01 -3.347528e-01 -3.135763e-01 -1.672035e-01 -2.508237e-01 -1.365602e-01 -1.062512e-01 -3.741074e-02 -1.241122e-03
<VARIANCE> 25
 6.600466e+00 1.449943e+01 1.720118e+01 1.460057e+01 2.524360e+01 2.398742e+01 2.027578e+01 2.732942e+01 2.943594e+01 2.707050e+01 1.957745e+01 2.230492e+01 1.957140e-01 3.487245e-01 4.638751e-01 5.495223e-01 7.093558e-01 1.126749e+00 1.031988e+00 1.228185e+00 1.368702e+00 1.497783e+00 1.314208e+00 1.185196e+00 1.759459e-04
<GCONST> 6.999474e+01
<MIXTURE> 127 2.402244e-03
<MEAN> 25
 -3.558472e+00 -5.996512e+00 -6.370016e+00 1.824021e+00 5.085284e+00 -3.981592e+00 -2.463709e-01 4.139355e+00 3.548862e+00 -2.329988e+00 -1.162351e+00 2.078064e+00 8.179695e-02 -4.003869e-02 -2.708846e-02 -9.025881e-02 -3.444148e-01 -3.347528e-01 -3.135763e-01 -1.672035e-01 -2.508237e-01 -1.365602e-01 -1.062512e-01 -3.741074e-02 -1.241122e-03
<VARIANCE> 25
 6.600466e+00 1.449943e+01 1.720118e+01 1.460057e+01 2.524360e+01 2.398742e+01 2.027578e+01 2.732942e+01 2.943594e+01 2.707050e+01 1.957745e+01 2.230492e+01 1.957140e-01 3.487245e-01 4.638751e-01 5.495223e-01 7.093558e-01 1.126749e+00 1.031988e+00 1.228185e+00 1.368702e+00 1.497783e+00 1.314208e+00 1.185196e+00 1.759459e-04
<GCONST> 6.999474e+01
<MIXTURE> 128 3.790457e-03
<MEAN> 25
 -5.053661e+00 3.032366e+00 -1.263471e+00 4.739092e+00 4.599282e+00 5.936994e-01 5.829872e+00 1.170823e+00 3.313611e+00 2.528572e+00 2.257568e+00 2.161571e+00 -6.582187e-01 -9.794725e-02 4.726010e-01 7.217767e-01 9.655711e-01 9.359180e-01 9.306995e-01 1.149474e-01 -5.997229e-01 -6.251270e-01 -5.595564e-01 -3.447098e-01 -1.854902e-05
<VARIANCE> 25
 9.651922e+00 9.890866e+00 1.819669e+01 1.594793e+01 1.853535e+01 1.667042e+01 2.662761e+01 1.595294e+01 2.411226e+01 1.801130e+01 2.306073e+01 1.754729e+01 7.421722e-01 1.117081e+00 1.834501e+00 1.042223e+00 1.262029e+00 1.856017e+00 1.988435e+00 1.906149e+00 1.599814e+00 1.406364e+00 1.221768e+00 1.941089e+00 5.182391e-07
<GCONST> 6.988381e+01
<TRANSP> 3
 0.000000e+00 1.000000e+00 0.000000e+00
 0.000000e+00 9.999990e-01 9.999998e-07
 0.000000e+00 0.000000e+00 0.000000e+00
<ENDHMM>
