~o
<STREAMINFO> 1 25
<VECSIZE> 25<NULLD><MFCC_E_D_N><DIAGC>
~h "jmodel"
<BEGINHMM>
<NUMSTATES> 3
<STATE> 2
<NUMMIXES> 128
<MIXTURE> 1 5.748963e-03
<MEAN> 25
 -2.583660e+00 3.189080e+00 2.299764e+00 8.765091e+00 4.387970e+00 3.345225e+00 4.068769e+00 3.970131e+00 5.813178e+00 5.215461e+00 5.872445e+00 3.018141e+00 -1.995544e+00 -1.621129e+00 -8.662764e-01 1.081312e+00 1.569682e+00 2.210168e+00 2.163512e+00 2.045067e+00 1.688830e+00 1.264956e+00 1.545727e+00 6.005697e-01 -4.690760e-02
<VARIANCE> 25
 1.000694e+01 1.187992e+01 1.487761e+01 1.862041e+01 2.318850e+01 2.328834e+01 2.178192e+01 2.199643e+01 2.096176e+01 2.258850e+01 2.101497e+01 1.747062e+01 1.788233e+00 2.127551e+00 3.016984e+00 3.190609e+00 3.729145e+00 3.411226e+00 3.316178e+00 3.568254e+00 3.499324e+00 3.705761e+00 3.555443e+00 2.840409e+00 3.097089e-03
<GCONST> 8.859105e+01
<MIXTURE> 2 4.549242e-03
<MEAN> 25
 -4.900491e+00 1.330460e+00 9.874573e-01 9.888359e+00 6.714130e+00 7.397209e+00 7.848053e+00 6.937428e+00 8.374599e+00 6.355120e+00 7.609573e+00 3.080408e+00 -6.307717e-02 4.204559e-02 1.449374e-01 2.270310e-01 2.650220e-01 2.812959e-01 2.964819e-01 3.179198e-01 3.477243e-01 3.067215e-01 1.949227e-01 8.170313e-02 1.223841e-06
<VARIANCE> 25
 7.105048e+00 8.978208e+00 1.064460e+01 1.590009e+01 1.731175e+01 1.572219e+01 1.685041e+01 1.854129e+01 1.656202e+01 1.741337e+01 1.810947e+01 1.431729e+01 1.252941e-01 2.260572e-01 3.379439e-01 4.669508e-01 6.506760e-01 8.162743e-01 9.290071e-01 1.001080e+00 1.051036e+00 1.079170e+00 1.076985e+00 1.012305e+00 9.963702e-07
<GCONST> 5.808447e+01
<MIXTURE> 3 4.549242e-03
<MEAN> 25
 -4.900491e+00 1.330460e+00 9.874573e-01 9.888359e+00 6.714130e+00 7.397209e+00 7.848053e+00 6.937428e+00 8.374599e+00 6.355120e+00 7.609573e+00 3.080408e+00 -6.307717e-02 4.204559e-02 1.449374e-01 2.270310e-01 2.650220e-01 2.812959e-01 2.964819e-01 3.179198e-01 3.477243e-01 3.067215e-01 1.949227e-01 8.170313e-02 1.223841e-06
<VARIANCE> 25
 7.105048e+00 8.978208e+00 1.064460e+01 1.590009e+01 1.731175e+01 1.572219e+01 1.685041e+01 1.854129e+01 1.656202e+01 1.741337e+01 1.810947e+01 1.431729e+01 1.252941e-01 2.260572e-01 3.379439e-01 4.669508e-01 6.506760e-01 8.162743e-01 9.290071e-01 1.001080e+00 1.051036e+00 1.079170e+00 1.076985e+00 1.012305e+00 9.963702e-07
<GCONST> 5.808447e+01
<MIXTURE> 4 1.671429e-02
<MEAN> 25
 2.018052e+00 2.096884e+00 -2.162906e+00 1.890979e+00 4.615275e+00 -2.189878e-01 -1.291415e+00 5.691726e-01 2.251723e+00 2.413220e+00 -2.312561e+00 -1.575265e+00 -2.902752e+00 1.820565e+00 1.182451e+00 3.063803e+00 9.994318e-01 -4.936821e-01 2.994816e+00 8.255155e-01 4.961254e-01 6.728682e-03 -6.850821e-01 3.269455e-01 -7.844166e-02
<VARIANCE> 25
 1.751260e+01 3.380078e+01 4.007351e+01 3.022370e+01 3.828350e+01 4.471969e+01 8.377834e+01 6.639476e+01 5.211972e+01 4.483342e+01 4.805572e+01 3.171350e+01 2.126200e+00 4.523296e+00 4.197473e+00 3.915113e+00 4.646813e+00 6.574723e+00 8.156356e+00 4.293299e+00 4.308936e+00 4.867628e+00 7.279298e+00 3.915810e+00 4.603965e-03
<GCONST> 1.036352e+02
<MIXTURE> 5 3.206198e-03
<MEAN> 25
 -4.472524e+00 2.473910e+00 -1.152691e+00 8.123394e+00 8.481485e+00 4.823875e+00 6.739396e+00 4.262530e+00 7.243352e+00 4.061189e+00 4.378047e+00 1.387321e+00 -5.697513e-01 9.704100e-01 1.378771e+00 9.333926e-01 2.265180e-01 -3.761592e-01 6.137241e-02 2.134696e-01 4.435671e-01 5.520427e-01 5.870858e-01 4.543314e-01 -2.520522e-05
<VARIANCE> 25
 1.247361e+01 1.260406e+01 2.705350e+01 2.414433e+01 2.484895e+01 2.463925e+01 1.843745e+01 1.694448e+01 2.525171e+01 1.998139e+01 1.922227e+01 2.022039e+01 1.280881e+00 1.253453e+00 1.295599e+00 1.568026e+00 2.176369e+00 2.404330e+00 3.450244e+00 1.946179e+00 1.980443e+00 2.219810e+00 2.303277e+00 2.034455e+00 7.526517e-07
<GCONST> 7.550150e+01
<MIXTURE> 6 5.475854e-03
<MEAN> 25
 8.949047e+00 1.250129e-01 -5.936173e+00 -1.147883e+01 -3.969695e+00 7.562661e+00 -6.756480e+00 -5.274006e+00 -3.403632e+00 2.526726e+00 4.205689e+00 -3.353411e-01 5.198173e-01 1.023652e+00 -3.678123e-01 -1.610379e+00 -7.036780e-01 1.305262e+00 1.618400e+00 -1.231002e-01 -6.697454e-01 -1.769470e+00 1.099746e-02 1.568994e+00 -6.274038e-03
<VARIANCE> 25
 7.995854e+00 1.456501e+01 2.365796e+01 3.188809e+01 3.422915e+01 2.543464e+01 4.047300e+01 3.847147e+01 3.910549e+01 5.340443e+01 3.210519e+01 2.409206e+01 3.507623e-01 9.524770e-01 8.229982e-01 2.750966e+00 1.258515e+00 2.154696e+00 1.983149e+00 2.165566e+00 3.095550e+00 2.747065e+00 1.943865e+00 1.546251e+00 4.381801e-04
<GCONST> 8.342911e+01
<MIXTURE> 7 5.475854e-03
<MEAN> 25
 8.949047e+00 1.250129e-01 -5.936173e+00 -1.147883e+01 -3.969695e+00 7.562661e+00 -6.756480e+00 -5.274006e+00 -3.403632e+00 2.526726e+00 4.205689e+00 -3.353411e-01 5.198173e-01 1.023652e+00 -3.678123e-01 -1.610379e+00 -7.036780e-01 1.305262e+00 1.618400e+00 -1.231002e-01 -6.697454e-01 -1.769470e+00 1.099746e-02 1.568994e+00 -6.274038e-03
<VARIANCE> 25
 7.995854e+00 1.456501e+01 2.365796e+01 3.188809e+01 3.422915e+01 2.543464e+01 4.047300e+01 3.847147e+01 3.910549e+01 5.340443e+01 3.210519e+01 2.409206e+01 3.507623e-01 9.524770e-01 8.229982e-01 2.750966e+00 1.258515e+00 2.154696e+00 1.983149e+00 2.165566e+00 3.095550e+00 2.747065e+00 1.943865e+00 1.546251e+00 4.381801e-04
<GCONST> 8.342911e+01
<MIXTURE> 8 1.165917e-02
<MEAN> 25
 -5.223135e+00 1.683097e+00 1.189044e+00 9.425817e+00 6.849913e+00 5.741278e+00 6.697526e+00 5.882549e+00 6.965691e+00 5.433742e+00 6.427059e+00 2.817355e+00 -4.640884e-01 -1.479009e+00 -1.231454e+00 -1.775034e+00 -2.026064e-01 -9.250168e-01 -2.856684e-01 -2.253059e-01 -2.594759e-01 -1.473462e-01 -2.399303e-01 -2.025269e-02 9.149259e-02
<VARIANCE> 25
 1.180321e+01 1.059156e+01 1.107719e+01 1.519719e+01 1.633324e+01 1.790844e+01 1.751530e+01 1.706580e+01 1.715300e+01 1.664734e+01 1.781675e+01 1.479864e+01 2.893354e+00 2.647695e+00 3.965093e+00 3.566450e+00 3.218670e+00 3.095485e+00 3.070981e+00 2.973855e+00 2.679067e+00 2.501218e+00 2.272200e+00 1.890924e+00 6.839820e-03
<GCONST> 8.608010e+01
<MIXTURE> 9 1.199672e-02
<MEAN> 25
 8.042448e+00 2.590058e+00 -6.791435e+00 -7.146201e+00 -4.946815e+00 5.129952e+00 1.345899e-01 -1.625376e+00 -5.000854e+00 -2.929547e+00 1.359883e+00 1.370075e+00 9.948237e-01 -5.033952e-01 -1.048835e+00 -3.374992e+00 -1.924663e+00 1.800049e+00 -1.587788e+00 6.904839e-01 1.420501e+00 6.526483e-01 1.071078e+00 -1.797600e-01 7.080341e-02
<VARIANCE> 25
 1.372683e+01 1.407427e+01 2.467243e+01 6.277977e+01 4.217283e+01 3.182988e+01 6.610187e+01 4.613392e+01 4.396917e+01 3.250118e+01 2.380513e+01 1.870823e+01 1.982106e+00 2.568715e+00 3.222561e+00 4.840511e+00 3.999810e+00 3.101108e+00 4.434554e+00 7.856162e+00 6.105760e+00 4.929367e+00 2.630215e+00 2.499021e+00 1.430300e-03
<GCONST> 9.632552e+01
<MIXTURE> 10 6.596976e-03
<MEAN> 25
 8.058038e-01 7.620367e+00 5.352065e+00 7.177701e+00 1.633307e+00 -2.195674e+00 -4.754918e-01 -1.649894e+00 8.637171e-01 8.467756e-01 8.600588e-01 6.200051e-01 -1.911460e+00 -6.692029e-01 -4.656543e-01 3.025134e+00 2.462807e+00 2.675047e+00 2.387806e+00 2.235033e+00 1.841915e+00 1.526857e+00 2.301834e+00 5.158210e-01 -1.372925e-01
<VARIANCE> 25
 1.943422e+01 2.079263e+01 2.224347e+01 2.901588e+01 3.835906e+01 3.538416e+01 3.511312e+01 3.442266e+01 2.767766e+01 2.890419e+01 2.697965e+01 2.500153e+01 2.246873e+00 3.406526e+00 5.526122e+00 5.138927e+00 5.511272e+00 4.564063e+00 4.696299e+00 5.022827e+00 4.406013e+00 5.059505e+00 4.523696e+00 3.179250e+00 2.742974e-03
<GCONST> 9.756647e+01
<MIXTURE> 11 1.633820e-02
<MEAN> 25
 7.576028e+00 2.795377e+00 3.841509e+00 6.386971e+00 -1.690214e+00 -1.767381e+00 3.116021e-01 -8.157246e+00 -6.630154e+00 -1.029968e+00 -1.999501e+00 -1.386111e+00 -1.860406e-01 2.770982e-01 5.235976e-02 3.098508e-01 2.517411e-01 1.473878e-01 5.552883e-01 -4.760762e-01 -3.735582e-01 1.528962e-01 -2.115254e-01 2.682902e-02 -1.141420e-02
<VARIANCE> 25
 8.949240e+00 2.641160e+01 2.324343e+01 2.972720e+01 3.865801e+01 3.547976e+01 6.364362e+01 4.233785e+01 5.706208e+01 4.557317e+01 2.997104e+01 2.461583e+01 7.996860e-01 1.419613e+00 1.582425e+00 2.332165e+00 2.073856e+00 1.993102e+00 2.579582e+00 3.423587e+00 2.882963e+00 2.160079e+00 1.670230e+00 1.441021e+00 8.664269e-04
<GCONST> 8.822632e+01
<MIXTURE> 12 5.904134e-03
<MEAN> 25
 1.002079e+01 3.663522e+00 -4.482564e+00 -1.594011e+01 -9.049381e+00 9.172466e+00 -2.156352e+00 -2.225468e+00 -1.527903e+00 -4.756415e+00 1.778651e+00 1.649228e+00 -7.113916e-03 3.345718e-01 1.735076e-01 -4.374142e-01 -3.643706e-01 1.923915e-01 1.921173e-01 5.411572e-01 3.083639e-01 -5.309098e-01 -3.901488e-01 2.886478e-01 -6.054542e-03
<VARIANCE> 25
 9.354976e+00 1.766097e+01 2.201564e+01 3.224509e+01 3.571875e+01 2.727594e+01 4.397142e+01 5.151079e+01 3.946040e+01 4.071255e+01 3.293829e+01 3.142812e+01 2.725101e-01 6.267611e-01 9.011107e-01 1.115207e+00 1.118112e+00 1.199265e+00 1.337510e+00 1.299369e+00 1.387380e+00 1.609784e+00 1.089162e+00 1.138467e+00 4.860493e-04
<GCONST> 7.902357e+01
<MIXTURE> 13 5.904134e-03
<MEAN> 25
 1.002079e+01 3.663522e+00 -4.482564e+00 -1.594011e+01 -9.049381e+00 9.172466e+00 -2.156352e+00 -2.225468e+00 -1.527903e+00 -4.756415e+00 1.778651e+00 1.649228e+00 -7.113916e-03 3.345718e-01 1.735076e-01 -4.374142e-01 -3.643706e-01 1.923915e-01 1.921173e-01 5.411572e-01 3.083639e-01 -5.309098e-01 -3.901488e-01 2.886478e-01 -6.054542e-03
<VARIANCE> 25
 9.354976e+00 1.766097e+01 2.201564e+01 3.224509e+01 3.571875e+01 2.727594e+01 4.397142e+01 5.151079e+01 3.946040e+01 4.071255e+01 3.293829e+01 3.142812e+01 2.725101e-01 6.267611e-01 9.011107e-01 1.115207e+00 1.118112e+00 1.199265e+00 1.337510e+00 1.299369e+00 1.387380e+00 1.609784e+00 1.089162e+00 1.138467e+00 4.860493e-04
<GCONST> 7.902357e+01
<MIXTURE> 14 6.488954e-03
<MEAN> 25
 -4.378261e+00 -3.646956e-01 -3.720719e-01 8.872627e+00 7.574840e+00 7.279147e+00 7.895133e+00 7.255804e+00 7.269554e+00 5.212320e+00 6.824825e+00 4.087805e+00 -2.669757e-01 1.713218e-01 3.591012e-01 3.116992e-01 8.785633e-03 5.820945e-02 1.045721e-01 1.660629e-01 2.799478e-01 5.206988e-01 4.984666e-01 7.349673e-02 -9.232427e-03
<VARIANCE> 25
 9.410554e+00 1.400766e+01 1.870452e+01 1.775011e+01 2.085130e+01 2.022066e+01 2.163049e+01 2.077865e+01 1.998954e+01 2.366760e+01 2.158795e+01 1.623882e+01 9.655619e-01 1.708101e+00 1.767406e+00 1.911951e+00 2.227312e+00 2.249774e+00 2.263311e+00 2.240983e+00 2.285558e+00 2.525220e+00 2.195296e+00 1.800640e+00 1.016031e-03
<GCONST> 8.199342e+01
<MIXTURE> 15 2.475190e-03
<MEAN> 25
 -5.425508e+00 -6.431748e-01 -2.034881e-01 7.366957e+00 5.721625e+00 5.698817e+00 6.061691e+00 4.978772e+00 5.166925e+00 4.153174e+00 5.501851e+00 2.540019e+00 -1.214132e-01 -2.909321e-02 7.527481e-02 2.438071e-01 4.892151e-01 7.867451e-01 1.072747e+00 1.181920e+00 1.059176e+00 7.560473e-01 4.193672e-01 1.538937e-01 -8.260434e-05
<VARIANCE> 25
 6.989599e+00 5.608952e+00 9.045853e+00 1.281291e+01 1.408362e+01 1.431223e+01 1.492071e+01 1.489620e+01 1.411165e+01 1.418400e+01 1.509829e+01 1.250680e+01 1.248126e-01 2.062711e-01 3.199852e-01 5.030965e-01 6.999771e-01 7.936937e-01 7.633704e-01 7.915312e-01 9.088765e-01 1.023663e+00 1.071457e+00 1.041561e+00 2.794564e-05
<GCONST> 5.859324e+01
<MIXTURE> 16 2.475190e-03
<MEAN> 25
 -5.425508e+00 -6.431748e-01 -2.034881e-01 7.366957e+00 5.721625e+00 5.698817e+00 6.061691e+00 4.978772e+00 5.166925e+00 4.153174e+00 5.501851e+00 2.540019e+00 -1.214132e-01 -2.909321e-02 7.527481e-02 2.438071e-01 4.892151e-01 7.867451e-01 1.072747e+00 1.181920e+00 1.059176e+00 7.560473e-01 4.193672e-01 1.538937e-01 -8.260434e-05
<VARIANCE> 25
 6.989599e+00 5.608952e+00 9.045853e+00 1.281291e+01 1.408362e+01 1.431223e+01 1.492071e+01 1.489620e+01 1.411165e+01 1.418400e+01 1.509829e+01 1.250680e+01 1.248126e-01 2.062711e-01 3.199852e-01 5.030965e-01 6.999771e-01 7.936937e-01 7.633704e-01 7.915312e-01 9.088765e-01 1.023663e+00 1.071457e+00 1.041561e+00 2.794564e-05
<GCONST> 5.859324e+01
<MIXTURE> 17 9.518312e-03
<MEAN> 25
 2.682430e+00 -8.347219e-01 8.248420e+00 1.623187e+00 -4.872606e+00 -6.786494e+00 -3.450188e+00 9.686850e-01 -4.566319e+00 -4.018203e+00 1.579780e-01 1.395554e+00 -5.224494e-01 -1.096123e+00 1.975111e+00 -2.575661e+00 -2.292700e+00 2.642296e-01 -3.104299e-01 5.755797e-01 -7.818301e-01 3.161329e-01 1.095142e+00 6.256797e-01 7.242566e-02
<VARIANCE> 25
 1.682661e+01 3.158852e+01 4.964049e+01 4.108113e+01 3.764597e+01 3.895642e+01 5.007942e+01 4.899261e+01 3.894534e+01 5.284386e+01 2.286974e+01 3.027905e+01 1.885068e+00 2.716078e+00 5.355886e+00 3.425640e+00 3.404308e+00 4.749478e+00 4.850270e+00 5.038420e+00 4.582866e+00 3.503453e+00 2.492107e+00 2.177574e+00 1.716952e-03
<GCONST> 9.773082e+01
<MIXTURE> 18 1.221018e-02
<MEAN> 25
 3.143495e+00 3.301662e+00 7.315113e+00 6.317598e+00 -3.071811e+00 -8.644796e+00 -2.226055e+00 6.961613e-01 -2.340590e+00 -4.034525e+00 1.376084e-01 9.265773e-01 -4.547473e-01 1.744731e+00 -1.265928e+00 2.041618e+00 3.234556e+00 8.858621e-01 1.620439e+00 -1.078255e+00 4.747891e-02 2.806926e-01 -3.537182e-01 -2.356129e-01 -9.692553e-02
<VARIANCE> 25
 1.440125e+01 2.872907e+01 4.265903e+01 3.147102e+01 3.840677e+01 2.588990e+01 4.122249e+01 5.037530e+01 4.507386e+01 4.491702e+01 2.901379e+01 2.837637e+01 3.088543e+00 4.200330e+00 1.042266e+01 3.904873e+00 3.530914e+00 4.609718e+00 5.045559e+00 4.993796e+00 4.443002e+00 4.715820e+00 4.115907e+00 2.749570e+00 3.691553e-03
<GCONST> 1.001938e+02
<MIXTURE> 19 9.912824e-03
<MEAN> 25
 -1.073221e+01 1.862569e+00 5.917710e-01 1.298449e+00 4.337727e+00 9.288578e-01 3.651390e+00 1.204928e+00 1.713311e+00 1.035273e+00 9.719309e-01 2.211864e+00 1.943249e+00 1.508291e+00 2.102776e+00 8.060474e-01 -1.113470e+00 -1.363733e+00 -1.105021e+00 -1.295351e+00 -1.436969e+00 -1.142587e+00 -8.446092e-01 -8.068532e-01 3.409656e-03
<VARIANCE> 25
 5.455421e+01 2.742173e+01 4.607787e+01 5.930098e+01 3.480817e+01 3.243750e+01 3.108393e+01 2.635916e+01 2.628638e+01 2.508299e+01 2.965444e+01 1.834468e+01 2.670221e+00 2.443659e+00 2.004609e+00 2.632479e+00 2.411726e+00 2.817563e+00 2.383529e+00 2.451752e+00 2.159363e+00 1.844407e+00 2.047304e+00 1.675314e+00 2.396750e-03
<GCONST> 9.149977e+01
<MIXTURE> 20 6.308331e-03
<MEAN> 25
 -1.408712e+01 7.266402e+00 1.336068e+00 6.163899e+00 4.615819e+00 1.764921e+00 5.758321e+00 1.077700e+00 6.431507e-01 1.171430e+00 2.356277e+00 -3.873290e-01 -3.427417e+00 -7.439004e-01 -1.580338e+00 1.554992e-01 1.464663e+00 2.089533e+00 1.951468e+00 1.843163e+00 2.122879e+00 1.981937e+00 1.679666e+00 9.805895e-01 4.589280e-02
<VARIANCE> 25
 1.896139e+01 2.286511e+01 3.455967e+01 3.548677e+01 3.055949e+01 2.704390e+01 3.463148e+01 3.104809e+01 2.826976e+01 2.971627e+01 2.491448e+01 2.011129e+01 2.427347e+00 2.382344e+00 1.828573e+00 3.047926e+00 2.693082e+00 2.226798e+00 2.221137e+00 3.127389e+00 2.145906e+00 2.599025e+00 2.140186e+00 1.805805e+00 1.841181e-03
<GCONST> 8.975405e+01
<MIXTURE> 21 7.928653e-03
<MEAN> 25
 2.984648e+00 -4.480624e+00 6.972963e+00 -1.210412e+00 -9.295528e+00 -8.078204e+00 -3.645031e+00 7.279056e+00 -2.084510e+00 -2.354630e+00 -6.835299e-01 1.380977e+00 -6.978950e-01 1.314048e+00 2.784043e+00 -3.730462e-01 -1.390838e+00 4.740491e-01 6.294033e-01 -1.565421e+00 -2.091856e+00 8.071451e-02 1.424602e+00 3.835410e-01 -1.313465e-02
<VARIANCE> 25
 8.646203e+00 1.756372e+01 2.414259e+01 2.592287e+01 3.763213e+01 3.009771e+01 3.629640e+01 5.298068e+01 3.491433e+01 4.365128e+01 3.414476e+01 2.027385e+01 4.384282e-01 1.248900e+00 2.018722e+00 1.271140e+00 2.672270e+00 2.079351e+00 2.717923e+00 2.413193e+00 2.027614e+00 3.076013e+00 2.149005e+00 2.032058e+00 5.411527e-04
<GCONST> 8.559061e+01
<MIXTURE> 22 8.827789e-03
<MEAN> 25
 -1.720632e+01 7.688011e+00 -4.465184e+00 7.372939e+00 5.190708e+00 2.128255e+00 9.076306e+00 2.216679e+00 5.260330e+00 2.823249e+00 4.605613e+00 1.192670e+00 -3.056282e-01 -1.768037e-01 -9.762755e-03 8.660568e-02 -2.286726e-01 -1.566215e-01 -6.246033e-02 1.706616e-01 1.949538e-01 -3.396572e-02 2.101148e-01 6.079187e-01 8.509212e-03
<VARIANCE> 25
 9.218925e+00 1.430116e+01 2.058764e+01 2.148594e+01 2.417085e+01 1.911610e+01 1.741824e+01 1.573319e+01 1.809221e+01 1.800141e+01 1.928493e+01 1.272425e+01 1.117079e+00 1.221263e+00 1.409711e+00 1.576923e+00 1.325766e+00 1.942939e+00 2.593226e+00 1.406836e+00 1.422240e+00 1.498062e+00 1.117207e+00 1.716329e+00 1.419776e-03
<GCONST> 7.815842e+01
<MIXTURE> 23 6.455497e-03
<MEAN> 25
 8.098982e+00 1.954317e+00 2.986993e+00 3.450151e+00 -4.587738e+00 -2.543843e+00 -2.559901e+00 -7.060867e+00 -5.038887e+00 -2.023888e+00 -3.999838e+00 -1.260882e+00 1.177096e-02 1.540246e-01 -3.304285e-02 7.096336e-02 -6.391883e-02 8.298402e-02 5.974436e-02 -1.391602e-01 2.094415e-02 9.847256e-02 -3.657746e-03 2.551453e-02 -3.470103e-03
<VARIANCE> 25
 9.704675e+00 2.255550e+01 2.682895e+01 4.476253e+01 3.486781e+01 5.141891e+01 7.828471e+01 5.429557e+01 6.297880e+01 5.650617e+01 4.455576e+01 4.614068e+01 1.116439e-01 2.719198e-01 3.612778e-01 4.930687e-01 5.715281e-01 6.755607e-01 7.767037e-01 9.104484e-01 8.124204e-01 8.468990e-01 9.475045e-01 7.008545e-01 8.786839e-05
<GCONST> 7.343729e+01
<MIXTURE> 24 6.455497e-03
<MEAN> 25
 8.098982e+00 1.954317e+00 2.986993e+00 3.450151e+00 -4.587738e+00 -2.543843e+00 -2.559901e+00 -7.060867e+00 -5.038887e+00 -2.023888e+00 -3.999838e+00 -1.260882e+00 1.177096e-02 1.540246e-01 -3.304285e-02 7.096336e-02 -6.391883e-02 8.298402e-02 5.974436e-02 -1.391602e-01 2.094415e-02 9.847256e-02 -3.657746e-03 2.551453e-02 -3.470103e-03
<VARIANCE> 25
 9.704675e+00 2.255550e+01 2.682895e+01 4.476253e+01 3.486781e+01 5.141891e+01 7.828471e+01 5.429557e+01 6.297880e+01 5.650617e+01 4.455576e+01 4.614068e+01 1.116439e-01 2.719198e-01 3.612778e-01 4.930687e-01 5.715281e-01 6.755607e-01 7.767037e-01 9.104484e-01 8.124204e-01 8.468990e-01 9.475045e-01 7.008545e-01 8.786839e-05
<GCONST> 7.343729e+01
<MIXTURE> 25 1.118642e-02
<MEAN> 25
 -9.305572e-01 2.305891e+00 1.916509e+01 -2.424986e+00 -9.485970e+00 -3.555032e+00 -6.666370e+00 -1.956541e+00 -4.885236e+00 -6.886383e+00 3.508174e+00 4.642974e-01 -1.089157e-01 4.201834e-01 3.800252e-01 9.848247e-02 -9.227590e-02 3.396827e-01 3.432251e-01 -2.128164e-01 3.241340e-02 -6.308500e-02 1.377286e-02 -3.150602e-01 -1.078392e-02
<VARIANCE> 25
 9.948463e+00 1.881951e+01 3.308752e+01 2.651621e+01 3.069123e+01 3.772152e+01 3.640400e+01 3.322841e+01 3.367637e+01 3.849664e+01 1.691817e+01 2.990267e+01 6.169609e-01 1.719664e+00 1.281153e+00 1.272029e+00 2.715134e+00 1.731622e+00 1.534575e+00 1.417429e+00 1.523715e+00 2.058045e+00 1.051786e+00 1.222195e+00 1.035999e-03
<GCONST> 8.289635e+01
<MIXTURE> 26 7.727677e-03
<MEAN> 25
 9.297048e-01 -4.414197e+00 -9.987368e+00 1.579207e+00 7.759561e+00 4.710544e+00 6.602737e+00 -2.030742e+00 4.279361e+00 9.475150e-01 -3.567972e+00 -2.541335e+00 -8.419454e-01 4.323417e-01 2.836828e-01 7.184747e-01 4.381402e-01 3.197251e-01 -5.137271e-02 2.010810e-01 2.466069e-01 1.677239e-02 5.100821e-01 5.632847e-02 -4.851261e-02
<VARIANCE> 25
 2.480998e+01 3.530801e+01 2.390499e+01 5.083458e+01 3.220955e+01 3.415952e+01 5.294210e+01 4.532524e+01 3.185973e+01 4.123765e+01 4.217646e+01 3.250770e+01 1.156182e+00 2.085329e+00 1.491406e+00 2.198576e+00 1.813946e+00 2.488233e+00 2.405257e+00 3.074527e+00 1.808463e+00 2.621443e+00 2.172062e+00 1.613689e+00 2.585561e-03
<GCONST> 9.144341e+01
<MIXTURE> 27 7.727677e-03
<MEAN> 25
 9.297048e-01 -4.414197e+00 -9.987368e+00 1.579207e+00 7.759561e+00 4.710544e+00 6.602737e+00 -2.030742e+00 4.279361e+00 9.475150e-01 -3.567972e+00 -2.541335e+00 -8.419454e-01 4.323417e-01 2.836828e-01 7.184747e-01 4.381402e-01 3.197251e-01 -5.137271e-02 2.010810e-01 2.466069e-01 1.677239e-02 5.100821e-01 5.632847e-02 -4.851261e-02
<VARIANCE> 25
 2.480998e+01 3.530801e+01 2.390499e+01 5.083458e+01 3.220955e+01 3.415952e+01 5.294210e+01 4.532524e+01 3.185973e+01 4.123765e+01 4.217646e+01 3.250770e+01 1.156182e+00 2.085329e+00 1.491406e+00 2.198576e+00 1.813946e+00 2.488233e+00 2.405257e+00 3.074527e+00 1.808463e+00 2.621443e+00 2.172062e+00 1.613689e+00 2.585561e-03
<GCONST> 9.144341e+01
<MIXTURE> 28 5.036674e-03
<MEAN> 25
 -6.428051e+00 6.849583e-01 -2.049116e+00 6.492757e+00 6.209260e+00 2.240761e+00 5.653092e+00 2.620360e+00 4.809210e+00 1.964058e+00 2.758638e+00 3.258032e+00 -1.717667e-01 2.576555e-01 5.560865e-01 7.405637e-01 7.595543e-01 7.258555e-01 5.236908e-01 3.248526e-01 4.435836e-01 4.893244e-01 2.917695e-01 3.072895e-01 -1.045147e-05
<VARIANCE> 25
 1.284241e+01 9.219719e+00 1.287205e+01 1.269612e+01 1.673602e+01 2.151531e+01 1.618938e+01 1.858868e+01 1.941401e+01 1.487794e+01 1.755229e+01 1.388161e+01 2.852469e-01 3.741672e-01 3.858021e-01 5.222863e-01 6.455263e-01 9.538884e-01 1.109894e+00 1.119196e+00 1.071048e+00 9.393083e-01 1.044847e+00 1.138318e+00 8.142464e-07
<GCONST> 6.062323e+01
<MIXTURE> 29 5.036674e-03
<MEAN> 25
 -6.428051e+00 6.849583e-01 -2.049116e+00 6.492757e+00 6.209260e+00 2.240761e+00 5.653092e+00 2.620360e+00 4.809210e+00 1.964058e+00 2.758638e+00 3.258032e+00 -1.717667e-01 2.576555e-01 5.560865e-01 7.405637e-01 7.595543e-01 7.258555e-01 5.236908e-01 3.248526e-01 4.435836e-01 4.893244e-01 2.917695e-01 3.072895e-01 -1.045147e-05
<VARIANCE> 25
 1.284241e+01 9.219719e+00 1.287205e+01 1.269612e+01 1.673602e+01 2.151531e+01 1.618938e+01 1.858868e+01 1.941401e+01 1.487794e+01 1.755229e+01 1.388161e+01 2.852469e-01 3.741672e-01 3.858021e-01 5.222863e-01 6.455263e-01 9.538884e-01 1.109894e+00 1.119196e+00 1.071048e+00 9.393083e-01 1.044847e+00 1.138318e+00 8.142464e-07
<GCONST> 6.062323e+01
<MIXTURE> 30 8.917812e-03
<MEAN> 25
 -4.502792e+00 -1.908865e-01 6.532243e-01 9.086896e+00 7.780390e+00 7.504478e+00 7.585862e+00 6.873003e+00 6.533981e+00 4.894126e+00 7.007110e+00 3.501960e+00 -2.399050e-02 3.061786e-02 5.677207e-02 8.888612e-02 8.157203e-02 4.450151e-02 1.345432e-02 -3.696158e-03 1.707471e-02 5.157238e-02 6.185795e-02 3.480746e-02 -5.555963e-04
<VARIANCE> 25
 6.988869e+00 9.918262e+00 1.038829e+01 1.373541e+01 1.575291e+01 1.644623e+01 1.911035e+01 1.822889e+01 1.627081e+01 1.836007e+01 2.126325e+01 1.437239e+01 9.741965e-02 1.995326e-01 3.250375e-01 4.816259e-01 6.192794e-01 7.248796e-01 7.719525e-01 8.129159e-01 8.757463e-01 9.371037e-01 9.216869e-01 8.619674e-01 5.091162e-05
<GCONST> 6.060350e+01
<MIXTURE> 31 4.136493e-03
<MEAN> 25
 -3.359317e+00 -5.728346e+00 3.393322e-02 4.944332e+00 3.749412e+00 1.720723e+00 5.306008e+00 6.524604e+00 2.761085e+00 1.291115e+00 6.404708e+00 3.036519e+00 2.544397e-01 4.824960e-01 -2.137850e-01 2.979217e-01 1.177732e-01 4.370017e-01 1.809683e-01 -1.620103e-02 3.746935e-01 3.895711e-01 1.304983e-01 1.086911e-01 -1.824370e-02
<VARIANCE> 25
 7.302727e+00 1.537138e+01 1.750260e+01 1.808105e+01 2.531044e+01 2.417882e+01 2.375392e+01 2.669823e+01 2.568402e+01 2.810358e+01 2.151276e+01 1.960277e+01 1.898289e-01 4.930423e-01 5.973973e-01 7.711414e-01 9.680303e-01 1.101043e+00 1.225824e+00 1.450860e+00 1.331262e+00 1.305750e+00 1.295149e+00 1.125245e+00 2.568434e-04
<GCONST> 7.207821e+01
<MIXTURE> 32 4.136493e-03
<MEAN> 25
 -3.359317e+00 -5.728346e+00 3.393322e-02 4.944332e+00 3.749412e+00 1.720723e+00 5.306008e+00 6.524604e+00 2.761085e+00 1.291115e+00 6.404708e+00 3.036519e+00 2.544397e-01 4.824960e-01 -2.137850e-01 2.979217e-01 1.177732e-01 4.370017e-01 1.809683e-01 -1.620103e-02 3.746935e-01 3.895711e-01 1.304983e-01 1.086911e-01 -1.824370e-02
<VARIANCE> 25
 7.302727e+00 1.537138e+01 1.750260e+01 1.808105e+01 2.531044e+01 2.417882e+01 2.375392e+01 2.669823e+01 2.568402e+01 2.810358e+01 2.151276e+01 1.960277e+01 1.898289e-01 4.930423e-01 5.973973e-01 7.711414e-01 9.680303e-01 1.101043e+00 1.225824e+00 1.450860e+00 1.331262e+00 1.305750e+00 1.295149e+00 1.125245e+00 2.568434e-04
<GCONST> 7.207821e+01
<MIXTURE> 33 1.508826e-02
<MEAN> 25
 5.730844e+00 -5.029305e+00 -3.953325e-01 -2.019241e+00 -2.759700e+00 -4.330747e+00 -8.483063e+00 2.230116e+00 2.020190e+00 2.324477e+00 -2.992627e+00 -2.763939e+00 7.906694e-01 -1.374544e+00 -2.363449e+00 -1.934083e+00 6.539211e-01 2.051160e+00 -6.037792e-01 7.229784e-01 9.969488e-01 1.045158e+00 8.409898e-02 -1.421476e+00 4.725815e-02
<VARIANCE> 25
 8.513845e+00 2.347477e+01 3.212952e+01 3.611196e+01 3.976529e+01 4.528284e+01 4.574667e+01 6.293065e+01 3.710934e+01 4.889624e+01 3.375363e+01 2.129896e+01 1.515161e+00 2.001323e+00 1.982342e+00 2.495581e+00 4.310057e+00 3.405623e+00 4.021076e+00 6.418402e+00 5.149686e+00 6.952582e+00 2.584433e+00 2.111643e+00 1.753068e-03
<GCONST> 9.541720e+01
<MIXTURE> 34 1.588179e-02
<MEAN> 25
 8.184473e+00 -1.722754e-01 3.702175e-01 9.789760e-01 -2.735348e+00 -5.843889e-01 -4.836540e+00 -3.066612e+00 -4.100765e+00 -1.426418e+00 -7.709934e-01 -1.088117e+00 -2.562269e-02 9.627212e-01 1.159048e+00 3.025684e+00 7.561069e-01 -8.252753e-01 2.311087e+00 -2.148958e+00 -2.100844e+00 -4.934831e-01 -1.212598e+00 4.730670e-01 -5.680589e-02
<VARIANCE> 25
 8.249134e+00 2.693719e+01 3.251270e+01 5.467205e+01 3.997938e+01 3.318718e+01 1.076269e+02 5.713661e+01 6.314880e+01 7.494463e+01 3.113407e+01 3.181109e+01 1.020671e+00 1.748613e+00 4.656320e+00 3.423498e+00 3.748227e+00 6.129348e+00 5.977405e+00 4.655602e+00 7.350944e+00 5.167198e+00 3.914226e+00 3.979544e+00 9.394615e-04
<GCONST> 9.932986e+01
<MIXTURE> 35 1.467755e-02
<MEAN> 25
 -2.451043e+00 -4.260211e+00 -9.366719e+00 7.019243e-01 7.910019e+00 1.033505e+00 3.024939e+00 2.754447e+00 1.321661e+00 4.341840e+00 -7.027656e-01 8.872567e-01 6.271162e-01 -1.033934e+00 -1.154839e+00 -1.428627e+00 1.555505e-01 -4.109952e-01 -8.144205e-01 1.538646e-01 -9.104825e-02 -3.952869e-02 -5.828404e-01 -3.170054e-01 9.214914e-02
<VARIANCE> 25
 1.757873e+01 3.322114e+01 3.838741e+01 5.613536e+01 5.065252e+01 6.976332e+01 4.707561e+01 4.134554e+01 5.288561e+01 2.934799e+01 3.262868e+01 3.345867e+01 3.284103e+00 3.497142e+00 5.682620e+00 5.094157e+00 4.652396e+00 5.919129e+00 4.409733e+00 6.117692e+00 4.155111e+00 3.906614e+00 3.796910e+00 3.591082e+00 5.365806e-03
<GCONST> 1.026680e+02
<MIXTURE> 36 1.093293e-02
<MEAN> 25
 4.630860e+00 -3.249605e+00 7.423441e+00 2.635081e+00 -9.925493e+00 -8.735615e+00 -5.817070e+00 4.034507e+00 -2.289723e+00 -4.129705e+00 3.067900e+00 -1.584158e-02 3.162132e-01 2.317678e-01 -9.294719e-01 9.202968e-02 1.025337e+00 1.038703e-02 -4.907119e-01 7.040212e-02 4.651225e-01 4.560726e-01 -3.955624e-01 -3.606569e-01 -1.797759e-02
<VARIANCE> 25
 1.138861e+01 1.752389e+01 2.229287e+01 2.641858e+01 3.153858e+01 3.053454e+01 4.710289e+01 4.436488e+01 3.898404e+01 3.394572e+01 2.682867e+01 2.538606e+01 4.716524e-01 8.031338e-01 1.548619e+00 1.267495e+00 1.860214e+00 1.544952e+00 2.200694e+00 1.744516e+00 1.962288e+00 1.757303e+00 1.350497e+00 1.412737e+00 7.320861e-04
<GCONST> 8.261677e+01
<MIXTURE> 37 1.246826e-02
<MEAN> 25
 3.754651e-01 6.340858e+00 1.439164e+01 -4.778818e+00 -7.868292e+00 -1.911756e+00 -5.488502e+00 -6.884018e+00 -3.203771e+00 -1.186737e+00 -2.877227e+00 -5.084766e-01 4.875806e-01 3.499155e-01 -1.986162e+00 3.799002e+00 1.922502e+00 -3.874591e-01 1.386358e+00 1.880778e-01 3.549190e-01 -5.657734e-01 5.452858e-01 -2.502793e-01 -8.757216e-02
<VARIANCE> 25
 1.385841e+01 3.825017e+01 7.346558e+01 4.518471e+01 3.203645e+01 3.175678e+01 3.725195e+01 3.881352e+01 3.460859e+01 3.551006e+01 3.393663e+01 2.735280e+01 3.535766e+00 3.738310e+00 6.115332e+00 3.627748e+00 4.261142e+00 3.659729e+00 4.497477e+00 3.941845e+00 3.401126e+00 3.804904e+00 3.331139e+00 2.392053e+00 3.568869e-03
<GCONST> 9.877966e+01
<MIXTURE> 38 1.154525e-02
<MEAN> 25
 -4.702191e+00 9.287349e+00 5.753066e+00 4.289818e+00 2.526962e+00 -5.564337e+00 5.024046e-01 -1.871227e+00 -2.466167e+00 -2.660829e+00 -3.180788e+00 -1.469328e+00 -4.588315e+00 1.505240e+00 -2.275066e-01 8.012863e-01 1.828235e+00 7.920178e-01 2.743611e+00 9.104338e-01 2.171272e-01 2.368287e-01 5.894328e-01 4.033367e-01 3.855920e-02
<VARIANCE> 25
 2.834879e+01 3.392426e+01 5.163440e+01 2.802878e+01 4.544992e+01 2.933004e+01 3.782255e+01 4.476711e+01 2.946335e+01 3.105570e+01 2.504023e+01 2.561881e+01 2.242927e+00 4.422269e+00 4.396743e+00 5.702861e+00 4.102938e+00 4.964123e+00 6.149072e+00 4.798135e+00 4.126184e+00 4.470027e+00 3.847721e+00 3.237797e+00 1.877806e-03
<GCONST> 9.907961e+01
<MIXTURE> 39 9.501865e-03
<MEAN> 25
 1.068133e+00 2.438926e+00 1.103424e+01 -9.076757e+00 -1.091389e+01 -1.474671e+00 -3.471789e+00 -6.273658e+00 -4.372172e+00 4.611684e-01 -3.553980e+00 -1.717463e+00 -7.270000e-01 1.495705e+00 1.694710e+00 -1.436419e+00 6.566297e-02 1.187030e+00 -1.180472e+00 -1.244764e+00 4.569668e-01 3.576612e-01 -4.331298e-01 1.270746e-01 2.779767e-03
<VARIANCE> 25
 1.000488e+01 3.009454e+01 4.327246e+01 3.685254e+01 3.803751e+01 4.527280e+01 4.710759e+01 3.350578e+01 3.833320e+01 3.605376e+01 3.475056e+01 3.494578e+01 6.637375e-01 1.518743e+00 1.600624e+00 2.845450e+00 2.311910e+00 2.745834e+00 3.090116e+00 2.723309e+00 2.437762e+00 2.699738e+00 2.137302e+00 2.001943e+00 1.180775e-03
<GCONST> 9.027620e+01
<MIXTURE> 40 1.030800e-02
<MEAN> 25
 -9.620657e+00 2.620415e+00 -9.989017e-01 8.378016e+00 4.582776e+00 4.842638e+00 5.750207e+00 4.042848e+00 4.872683e+00 3.938528e+00 5.476201e+00 1.827023e+00 -5.022965e-03 -2.807076e-01 -9.247669e-02 -2.122977e-01 -1.395244e-01 -9.429114e-02 1.474322e-01 1.015193e-01 -3.726510e-02 -3.566624e-02 6.537981e-02 7.492757e-02 3.479050e-03
<VARIANCE> 25
 3.835883e+01 2.224330e+01 2.742976e+01 2.439470e+01 2.880157e+01 2.173503e+01 1.966239e+01 1.777549e+01 1.718080e+01 1.853564e+01 1.791283e+01 1.434546e+01 8.009469e-01 7.724157e-01 9.823408e-01 1.060619e+00 1.064401e+00 1.283282e+00 1.427948e+00 1.333798e+00 1.167520e+00 1.223167e+00 1.102118e+00 1.036220e+00 7.752732e-04
<GCONST> 7.665407e+01
<MIXTURE> 41 6.713375e-03
<MEAN> 25
 -6.773283e-02 2.551345e+00 1.323861e+01 -6.373287e+00 -9.367936e+00 -4.651618e+00 -2.258032e+00 -3.843205e+00 -5.321324e+00 1.089084e+00 -1.773638e+00 1.710291e-01 -1.775493e-01 -6.351701e-01 2.360156e+00 -3.778098e+00 -2.041506e+00 1.685719e-01 -7.513437e-01 -3.840690e-01 -1.183668e+00 1.440925e+00 -6.804839e-01 -4.972004e-02 7.768440e-02
<VARIANCE> 25
 1.594634e+01 2.903384e+01 5.581124e+01 3.929686e+01 3.567712e+01 3.566583e+01 4.490232e+01 3.162871e+01 3.840061e+01 3.800301e+01 2.712663e+01 2.848475e+01 3.332537e+00 4.156329e+00 4.766801e+00 3.599487e+00 4.534938e+00 4.968975e+00 4.562624e+00 4.518360e+00 3.979147e+00 4.380221e+00 3.477756e+00 2.952570e+00 2.514625e-03
<GCONST> 9.893410e+01
<MIXTURE> 42 1.106211e-02
<MEAN> 25
 -4.226798e+00 5.264442e+00 7.122920e+00 2.722244e+00 -2.117785e-03 -7.561206e+00 -2.008868e+00 1.921352e-02 -6.835091e-01 -1.998693e+00 -2.481695e+00 1.728476e+00 4.458603e+00 -1.361820e+00 1.862334e+00 -2.448461e-02 -3.272944e+00 -8.818259e-01 -2.837672e+00 2.261710e-01 -3.674703e-01 -2.916268e-01 4.699140e-01 -1.064772e+00 3.836598e-02
<VARIANCE> 25
 4.185379e+01 2.702080e+01 6.170810e+01 3.023680e+01 3.771402e+01 3.211511e+01 3.562867e+01 3.298800e+01 2.661713e+01 3.005684e+01 1.425423e+01 1.577843e+01 3.047045e+00 5.054528e+00 4.703861e+00 6.857701e+00 3.946156e+00 6.670681e+00 3.890912e+00 6.550676e+00 6.246979e+00 4.891997e+00 3.637192e+00 2.566533e+00 5.925967e-03
<GCONST> 1.000201e+02
<MIXTURE> 43 7.108249e-03
<MEAN> 25
 3.171396e+00 -6.309241e+00 -2.258255e+00 -5.180918e+00 -7.393051e+00 -3.399240e+00 4.148276e+00 1.307683e+00 -5.060612e+00 -7.090997e+00 -4.321835e+00 -1.249493e+00 2.376662e-01 2.163521e+00 1.913275e+00 -1.339988e-01 -1.429979e+00 -7.956213e-01 -9.726159e-01 -7.753696e-01 8.212827e-01 1.466439e+00 3.431691e-01 2.278463e-02 -4.506981e-02
<VARIANCE> 25
 9.619892e+00 1.973259e+01 2.739447e+01 3.528086e+01 3.843287e+01 3.666488e+01 3.340584e+01 3.988708e+01 3.978840e+01 3.867264e+01 2.653415e+01 2.958143e+01 6.902118e-01 1.250310e+00 1.571168e+00 2.489774e+00 2.373446e+00 2.381849e+00 2.658472e+00 3.038442e+00 2.606914e+00 2.583307e+00 2.329728e+00 1.922070e+00 9.443138e-04
<GCONST> 8.799582e+01
<MIXTURE> 44 7.328289e-03
<MEAN> 25
 -1.501963e+01 1.718909e+00 4.235261e+00 -3.267442e+00 3.613491e+00 1.555576e+00 6.018881e-01 1.583316e+00 5.364094e-01 -1.726437e+00 2.156164e+00 1.870336e+00 -3.766461e-01 2.937895e-01 3.781272e-01 1.671171e-01 7.317303e-02 1.450533e-01 3.174036e-01 2.380544e-01 5.013029e-02 -2.963985e-02 6.839195e-02 1.380010e-01 1.130316e-02
<VARIANCE> 25
 3.656558e+01 2.452745e+01 3.256376e+01 2.662628e+01 2.587595e+01 2.705441e+01 2.302337e+01 3.246225e+01 2.901835e+01 2.736413e+01 2.419916e+01 1.671999e+01 1.383233e+00 1.903635e+00 1.496282e+00 1.239501e+00 2.081350e+00 1.492520e+00 1.421037e+00 1.519198e+00 1.642104e+00 1.651294e+00 1.427922e+00 1.275139e+00 1.482834e-03
<GCONST> 8.393071e+01
<MIXTURE> 45 1.364932e-02
<MEAN> 25
 -1.344457e+01 4.152059e+00 -1.163179e+00 2.616653e+00 5.497694e+00 1.109915e+00 6.834533e+00 3.752536e+00 2.783755e+00 2.120203e+00 6.913671e-01 9.745032e-01 -3.088510e+00 8.828365e-01 -4.851631e-01 -8.021270e-01 -5.889848e-02 8.093687e-02 4.090461e-01 -2.451286e-01 -2.226986e-01 -4.270390e-01 6.836458e-02 8.063309e-01 9.345582e-02
<VARIANCE> 25
 3.096682e+01 2.405115e+01 5.187176e+01 3.008771e+01 2.541671e+01 3.152637e+01 4.532857e+01 2.652775e+01 2.429479e+01 2.253105e+01 3.129768e+01 1.965302e+01 2.622147e+00 2.500978e+00 3.503185e+00 3.723813e+00 2.043784e+00 2.211101e+00 4.701632e+00 2.083019e+00 2.609229e+00 1.874016e+00 1.905997e+00 2.160092e+00 3.910551e-03
<GCONST> 9.211553e+01
<MIXTURE> 46 9.336259e-03
<MEAN> 25
 -8.425026e+00 2.464751e+00 1.279847e+00 8.234931e+00 7.226213e+00 8.461196e-01 7.314132e+00 5.661605e+00 5.514716e+00 4.855001e+00 4.364830e+00 1.799409e+00 8.099134e-01 -3.740755e-01 -8.446126e-02 9.613178e-01 5.046975e-01 8.287466e-01 6.129007e-01 3.406143e-01 3.620290e-01 4.253297e-01 4.837547e-01 6.973886e-01 -9.468705e-02
<VARIANCE> 25
 3.651611e+01 3.903572e+01 3.430664e+01 4.465558e+01 4.764622e+01 6.026550e+01 3.225973e+01 3.851524e+01 2.915892e+01 2.720505e+01 2.745058e+01 2.245438e+01 3.781207e+00 4.101404e+00 3.985681e+00 3.540445e+00 3.594393e+00 3.367178e+00 3.357233e+00 3.592824e+00 2.569444e+00 2.816609e+00 2.141672e+00 1.880473e+00 7.058717e-03
<GCONST> 9.752163e+01
<MIXTURE> 47 7.116147e-03
<MEAN> 25
 6.819000e+00 -8.291916e+00 -7.323026e+00 -5.532463e+00 1.322977e-01 2.003058e+00 -2.173154e+00 2.213205e+00 3.399099e+00 1.145230e+00 -3.575909e+00 -6.593321e+00 -1.939418e-01 -1.201469e+00 -7.430267e-01 -3.758574e-01 5.581663e-01 6.175775e-01 1.021813e+00 3.439766e-01 2.213467e-01 -7.455229e-01 -4.650879e-01 -5.865386e-01 3.057010e-02
<VARIANCE> 25
 9.426025e+00 2.492827e+01 1.844497e+01 2.981912e+01 3.394866e+01 4.755329e+01 4.562355e+01 4.134086e+01 3.387599e+01 4.004517e+01 4.410968e+01 3.255630e+01 5.341928e-01 9.701075e-01 1.027070e+00 1.426875e+00 2.236568e+00 2.685563e+00 2.732867e+00 2.620316e+00 1.957814e+00 2.055762e+00 1.943870e+00 2.232752e+00 6.210291e-04
<GCONST> 8.609028e+01
<MIXTURE> 48 7.116147e-03
<MEAN> 25
 6.819000e+00 -8.291916e+00 -7.323026e+00 -5.532463e+00 1.322977e-01 2.003058e+00 -2.173154e+00 2.213205e+00 3.399099e+00 1.145230e+00 -3.575909e+00 -6.593321e+00 -1.939418e-01 -1.201469e+00 -7.430267e-01 -3.758574e-01 5.581663e-01 6.175775e-01 1.021813e+00 3.439766e-01 2.213467e-01 -7.455229e-01 -4.650879e-01 -5.865386e-01 3.057010e-02
<VARIANCE> 25
 9.426025e+00 2.492827e+01 1.844497e+01 2.981912e+01 3.394866e+01 4.755329e+01 4.562355e+01 4.134086e+01 3.387599e+01 4.004517e+01 4.410968e+01 3.255630e+01 5.341928e-01 9.701075e-01 1.027070e+00 1.426875e+00 2.236568e+00 2.685563e+00 2.732867e+00 2.620316e+00 1.957814e+00 2.055762e+00 1.943870e+00 2.232752e+00 6.210291e-04
<GCONST> 8.609028e+01
<MIXTURE> 49 5.548473e-03
<MEAN> 25
 -5.238912e+00 3.193167e-01 5.786384e-02 8.467766e+00 6.313437e+00 5.360015e+00 6.155936e+00 4.274155e+00 5.160248e+00 3.699756e+00 4.742821e+00 2.708981e+00 3.563665e-01 6.564548e-01 6.994327e-01 3.334239e-01 -2.059746e-01 -6.541322e-01 -1.022454e+00 -1.143297e+00 -9.586689e-01 -6.674414e-01 -4.734041e-01 -2.699976e-01 5.750077e-06
<VARIANCE> 25
 9.988550e+00 1.145027e+01 1.416191e+01 1.559755e+01 1.634105e+01 1.977526e+01 1.926905e+01 2.041583e+01 1.901359e+01 1.784935e+01 2.118841e+01 1.491653e+01 3.039720e-01 2.610503e-01 3.854342e-01 6.249772e-01 8.880759e-01 1.103538e+00 1.019642e+00 1.045791e+00 1.133272e+00 1.214342e+00 1.285646e+00 1.187231e+00 1.391105e-05
<GCONST> 6.506613e+01
<MIXTURE> 50 6.234641e-03
<MEAN> 25
 -5.298853e+00 4.654946e-01 -1.689152e+00 6.121634e+00 4.968525e+00 1.598026e+00 4.053831e+00 1.869523e+00 3.404074e+00 1.442916e+00 2.037736e+00 2.900535e+00 1.177313e-02 2.064782e-01 1.373345e-01 -9.085785e-02 -5.393031e-01 -6.789518e-01 -4.256112e-01 -2.938248e-03 4.341768e-01 8.235700e-01 7.338211e-01 3.848935e-01 -1.573334e-05
<VARIANCE> 25
 1.334676e+01 1.144895e+01 1.505257e+01 1.428103e+01 1.827958e+01 2.078718e+01 1.792956e+01 1.964517e+01 2.049739e+01 1.703215e+01 2.129815e+01 1.445728e+01 1.972561e-01 2.465365e-01 3.736646e-01 5.471978e-01 6.490386e-01 8.048088e-01 1.032042e+00 1.134551e+00 9.984589e-01 8.804379e-01 8.570056e-01 9.393391e-01 9.000430e-07
<GCONST> 6.036713e+01
<MIXTURE> 51 6.234641e-03
<MEAN> 25
 -5.298853e+00 4.654946e-01 -1.689152e+00 6.121634e+00 4.968525e+00 1.598026e+00 4.053831e+00 1.869523e+00 3.404074e+00 1.442916e+00 2.037736e+00 2.900535e+00 1.177313e-02 2.064782e-01 1.373345e-01 -9.085785e-02 -5.393031e-01 -6.789518e-01 -4.256112e-01 -2.938248e-03 4.341768e-01 8.235700e-01 7.338211e-01 3.848935e-01 -1.573334e-05
<VARIANCE> 25
 1.334676e+01 1.144895e+01 1.505257e+01 1.428103e+01 1.827958e+01 2.078718e+01 1.792956e+01 1.964517e+01 2.049739e+01 1.703215e+01 2.129815e+01 1.445728e+01 1.972561e-01 2.465365e-01 3.736646e-01 5.471978e-01 6.490386e-01 8.048088e-01 1.032042e+00 1.134551e+00 9.984589e-01 8.804379e-01 8.570056e-01 9.393391e-01 9.000430e-07
<GCONST> 6.036713e+01
<MIXTURE> 52 6.367945e-03
<MEAN> 25
 8.509667e+00 1.917937e+00 -6.005993e+00 -1.389111e+01 -5.938644e+00 9.839703e+00 -3.788004e+00 -3.616825e+00 -2.513513e+00 -2.800368e-01 2.798980e+00 1.698349e+00 -4.827364e-01 -4.506745e-01 -7.328136e-02 1.066315e+00 1.585634e+00 -5.382048e-01 -7.550032e-01 -5.141189e-01 1.228088e-01 1.406509e+00 5.527166e-01 -9.880782e-01 -1.071437e-02
<VARIANCE> 25
 1.058183e+01 2.031515e+01 2.653525e+01 3.274456e+01 3.935821e+01 2.718420e+01 7.712872e+01 4.324518e+01 3.846307e+01 4.032913e+01 2.850102e+01 2.876620e+01 3.922870e-01 1.355669e+00 1.220199e+00 2.468719e+00 1.831919e+00 2.217906e+00 4.898234e+00 2.715806e+00 2.435212e+00 3.026711e+00 2.858038e+00 2.482491e+00 1.253055e-03
<GCONST> 8.896413e+01
<MIXTURE> 53 6.367945e-03
<MEAN> 25
 8.509667e+00 1.917937e+00 -6.005993e+00 -1.389111e+01 -5.938644e+00 9.839703e+00 -3.788004e+00 -3.616825e+00 -2.513513e+00 -2.800368e-01 2.798980e+00 1.698349e+00 -4.827364e-01 -4.506745e-01 -7.328136e-02 1.066315e+00 1.585634e+00 -5.382048e-01 -7.550032e-01 -5.141189e-01 1.228088e-01 1.406509e+00 5.527166e-01 -9.880782e-01 -1.071437e-02
<VARIANCE> 25
 1.058183e+01 2.031515e+01 2.653525e+01 3.274456e+01 3.935821e+01 2.718420e+01 7.712872e+01 4.324518e+01 3.846307e+01 4.032913e+01 2.850102e+01 2.876620e+01 3.922870e-01 1.355669e+00 1.220199e+00 2.468719e+00 1.831919e+00 2.217906e+00 4.898234e+00 2.715806e+00 2.435212e+00 3.026711e+00 2.858038e+00 2.482491e+00 1.253055e-03
<GCONST> 8.896413e+01
<MIXTURE> 54 7.368620e-03
<MEAN> 25
 -4.008107e+00 3.507544e-01 -7.081774e-01 7.921042e+00 6.712621e+00 4.452796e+00 4.822033e+00 4.423337e+00 4.096809e+00 3.512166e+00 4.355246e+00 2.370919e+00 -1.461601e-02 3.315132e-02 3.572712e-02 6.272811e-02 4.284717e-02 1.594815e-02 3.796219e-02 3.044918e-02 2.903621e-02 2.306015e-03 3.866110e-02 -1.128776e-02 -1.165034e-05
<VARIANCE> 25
 1.160392e+01 1.191458e+01 8.905998e+00 1.776358e+01 1.391439e+01 1.362774e+01 1.194199e+01 1.166139e+01 1.092223e+01 1.314635e+01 1.742111e+01 1.205617e+01 4.559236e-02 8.704026e-02 1.511577e-01 2.341266e-01 3.008299e-01 4.089968e-01 4.427995e-01 5.049206e-01 5.402075e-01 5.279660e-01 5.150542e-01 5.119603e-01 9.552731e-07
<GCONST> 4.752272e+01
<MIXTURE> 55 7.368620e-03
<MEAN> 25
 -4.008107e+00 3.507544e-01 -7.081774e-01 7.921042e+00 6.712621e+00 4.452796e+00 4.822033e+00 4.423337e+00 4.096809e+00 3.512166e+00 4.355246e+00 2.370919e+00 -1.461601e-02 3.315132e-02 3.572712e-02 6.272811e-02 4.284717e-02 1.594815e-02 3.796219e-02 3.044918e-02 2.903621e-02 2.306015e-03 3.866110e-02 -1.128776e-02 -1.165034e-05
<VARIANCE> 25
 1.160392e+01 1.191458e+01 8.905998e+00 1.776358e+01 1.391439e+01 1.362774e+01 1.194199e+01 1.166139e+01 1.092223e+01 1.314635e+01 1.742111e+01 1.205617e+01 4.559236e-02 8.704026e-02 1.511577e-01 2.341266e-01 3.008299e-01 4.089968e-01 4.427995e-01 5.049206e-01 5.402075e-01 5.279660e-01 5.150542e-01 5.119603e-01 9.552731e-07
<GCONST> 4.752272e+01
<MIXTURE> 56 6.132464e-03
<MEAN> 25
 7.105932e+00 -5.948866e+00 -1.031189e+01 -7.157214e+00 2.503220e+00 3.565715e+00 3.701300e+00 -3.107290e+00 1.933309e+00 2.031082e+00 -2.236266e+00 -5.688131e+00 -9.932142e-02 1.095713e-01 -8.398228e-02 1.467299e-01 3.932528e-01 -1.842068e-01 6.658762e-02 -1.107403e-01 1.313145e-01 -2.466807e-02 -2.958827e-01 -9.941627e-02 -9.314174e-03
<VARIANCE> 25
 6.949307e+00 1.874504e+01 1.857141e+01 3.184754e+01 2.965636e+01 4.085699e+01 1.100707e+02 3.377571e+01 2.912092e+01 2.956332e+01 3.100169e+01 4.102053e+01 1.981570e-01 3.960137e-01 4.459932e-01 6.536253e-01 8.562551e-01 1.001088e+00 1.284581e+00 8.789646e-01 1.015633e+00 8.238873e-01 9.792840e-01 8.406714e-01 1.990616e-04
<GCONST> 7.372087e+01
<MIXTURE> 57 6.132464e-03
<MEAN> 25
 7.105932e+00 -5.948866e+00 -1.031189e+01 -7.157214e+00 2.503220e+00 3.565715e+00 3.701300e+00 -3.107290e+00 1.933309e+00 2.031082e+00 -2.236266e+00 -5.688131e+00 -9.932142e-02 1.095713e-01 -8.398228e-02 1.467299e-01 3.932528e-01 -1.842068e-01 6.658762e-02 -1.107403e-01 1.313145e-01 -2.466807e-02 -2.958827e-01 -9.941627e-02 -9.314174e-03
<VARIANCE> 25
 6.949307e+00 1.874504e+01 1.857141e+01 3.184754e+01 2.965636e+01 4.085699e+01 1.100707e+02 3.377571e+01 2.912092e+01 2.956332e+01 3.100169e+01 4.102053e+01 1.981570e-01 3.960137e-01 4.459932e-01 6.536253e-01 8.562551e-01 1.001088e+00 1.284581e+00 8.789646e-01 1.015633e+00 8.238873e-01 9.792840e-01 8.406714e-01 1.990616e-04
<GCONST> 7.372087e+01
<MIXTURE> 58 6.172147e-03
<MEAN> 25
 2.369689e+00 -3.052181e+00 7.855081e+00 -4.688290e+00 -1.326744e+01 -5.496514e+00 1.443632e+00 2.436334e+00 -3.081408e+00 2.128665e+00 1.254609e+00 -5.042356e-01 -7.893973e-02 -4.929288e-02 -7.390148e-03 -1.289082e-01 1.205874e-01 1.510687e-01 5.099605e-01 1.573029e-01 -5.806550e-02 -6.452390e-02 2.732502e-02 -1.871468e-01 -6.209075e-03
<VARIANCE> 25
 6.991602e+00 1.359656e+01 1.983648e+01 2.712562e+01 2.137703e+01 4.165755e+01 3.006112e+01 5.037040e+01 3.259687e+01 2.890233e+01 2.436456e+01 1.917345e+01 2.974481e-01 8.297497e-01 7.095804e-01 9.210258e-01 1.003585e+00 1.146737e+00 1.216424e+00 1.209560e+00 1.044385e+00 1.016782e+00 9.905592e-01 8.236348e-01 7.390119e-04
<GCONST> 7.524721e+01
<MIXTURE> 59 6.172147e-03
<MEAN> 25
 2.369689e+00 -3.052181e+00 7.855081e+00 -4.688290e+00 -1.326744e+01 -5.496514e+00 1.443632e+00 2.436334e+00 -3.081408e+00 2.128665e+00 1.254609e+00 -5.042356e-01 -7.893973e-02 -4.929288e-02 -7.390148e-03 -1.289082e-01 1.205874e-01 1.510687e-01 5.099605e-01 1.573029e-01 -5.806550e-02 -6.452390e-02 2.732502e-02 -1.871468e-01 -6.209075e-03
<VARIANCE> 25
 6.991602e+00 1.359656e+01 1.983648e+01 2.712562e+01 2.137703e+01 4.165755e+01 3.006112e+01 5.037040e+01 3.259687e+01 2.890233e+01 2.436456e+01 1.917345e+01 2.974481e-01 8.297497e-01 7.095804e-01 9.210258e-01 1.003585e+00 1.146737e+00 1.216424e+00 1.209560e+00 1.044385e+00 1.016782e+00 9.905592e-01 8.236348e-01 7.390119e-04
<GCONST> 7.524721e+01
<MIXTURE> 60 4.479129e-03
<MEAN> 25
 -4.265263e+00 -6.643472e-01 -1.084524e+00 3.697249e+00 1.732271e+00 2.118335e+00 1.638095e+00 1.530850e+00 2.158786e+00 1.264583e+00 2.386177e+00 1.916089e+00 -2.852245e-02 5.647576e-02 1.011037e-01 1.302310e-01 1.294527e-01 1.293833e-01 1.788336e-01 3.225700e-01 5.451081e-01 6.645007e-01 5.562724e-01 3.034549e-01 -3.906498e-04
<VARIANCE> 25
 6.938114e+00 4.526958e+00 1.027622e+01 1.130571e+01 1.358117e+01 1.700212e+01 1.399920e+01 1.185825e+01 1.272606e+01 1.319608e+01 1.593930e+01 1.229179e+01 8.693652e-02 1.683217e-01 2.793604e-01 4.318931e-01 5.864925e-01 7.280656e-01 8.282665e-01 8.988833e-01 9.026707e-01 8.357539e-01 8.390697e-01 8.628479e-01 2.295371e-05
<GCONST> 5.633241e+01
<MIXTURE> 61 4.479129e-03
<MEAN> 25
 -4.265263e+00 -6.643472e-01 -1.084524e+00 3.697249e+00 1.732271e+00 2.118335e+00 1.638095e+00 1.530850e+00 2.158786e+00 1.264583e+00 2.386177e+00 1.916089e+00 -2.852245e-02 5.647576e-02 1.011037e-01 1.302310e-01 1.294527e-01 1.293833e-01 1.788336e-01 3.225700e-01 5.451081e-01 6.645007e-01 5.562724e-01 3.034549e-01 -3.906498e-04
<VARIANCE> 25
 6.938114e+00 4.526958e+00 1.027622e+01 1.130571e+01 1.358117e+01 1.700212e+01 1.399920e+01 1.185825e+01 1.272606e+01 1.319608e+01 1.593930e+01 1.229179e+01 8.693652e-02 1.683217e-01 2.793604e-01 4.318931e-01 5.864925e-01 7.280656e-01 8.282665e-01 8.988833e-01 9.026707e-01 8.357539e-01 8.390697e-01 8.628479e-01 2.295371e-05
<GCONST> 5.633241e+01
<MIXTURE> 62 3.278034e-03
<MEAN> 25
 -5.224195e+00 1.493884e+00 9.593732e-01 8.830442e+00 6.285085e+00 4.882290e+00 5.650015e+00 4.036576e+00 4.940474e+00 3.854410e+00 4.928179e+00 3.078700e+00 -9.363029e-01 -1.188289e+00 -9.678643e-01 -2.790383e-01 4.165908e-01 1.026669e+00 1.414990e+00 1.568725e+00 1.434486e+00 1.198500e+00 1.055622e+00 6.962966e-01 -1.226061e-03
<VARIANCE> 25
 1.011715e+01 1.161254e+01 1.285543e+01 1.622977e+01 1.760841e+01 1.790245e+01 1.979597e+01 1.852886e+01 1.837196e+01 1.831633e+01 2.095127e+01 1.493239e+01 5.273765e-01 4.387718e-01 5.440260e-01 7.557304e-01 1.007736e+00 1.169885e+00 1.242278e+00 1.248235e+00 1.348943e+00 1.385827e+00 1.361167e+00 1.360176e+00 1.586823e-05
<GCONST> 6.771756e+01
<MIXTURE> 63 4.351215e-03
<MEAN> 25
 -4.589040e+00 -2.410978e+00 -5.402893e+00 3.453240e+00 4.467558e+00 -1.178278e+00 2.763294e+00 1.476466e+00 3.217763e+00 -1.243172e+00 -9.355627e-01 1.871356e+00 -9.322181e-02 4.390529e-01 4.385662e-01 4.302823e-01 4.159991e-01 4.738359e-01 4.472209e-01 5.281584e-02 1.769769e-01 2.570140e-01 2.063483e-01 1.713573e-01 -3.828732e-03
<VARIANCE> 25
 8.806515e+00 1.522035e+01 1.777563e+01 1.634273e+01 2.358905e+01 3.101362e+01 2.482796e+01 2.404690e+01 2.586983e+01 2.180977e+01 2.154342e+01 1.725085e+01 3.221954e-01 4.947302e-01 5.655395e-01 7.946079e-01 1.089487e+00 1.149250e+00 1.436976e+00 1.445912e+00 1.340195e+00 1.411844e+00 1.475706e+00 1.176371e+00 1.552272e-04
<GCONST> 7.249575e+01
<MIXTURE> 64 4.351215e-03
<MEAN> 25
 -4.589040e+00 -2.410978e+00 -5.402893e+00 3.453240e+00 4.467558e+00 -1.178278e+00 2.763294e+00 1.476466e+00 3.217763e+00 -1.243172e+00 -9.355627e-01 1.871356e+00 -9.322181e-02 4.390529e-01 4.385662e-01 4.302823e-01 4.159991e-01 4.738359e-01 4.472209e-01 5.281584e-02 1.769769e-01 2.570140e-01 2.063483e-01 1.713573e-01 -3.828732e-03
<VARIANCE> 25
 8.806515e+00 1.522035e+01 1.777563e+01 1.634273e+01 2.358905e+01 3.101362e+01 2.482796e+01 2.404690e+01 2.586983e+01 2.180977e+01 2.154342e+01 1.725085e+01 3.221954e-01 4.947302e-01 5.655395e-01 7.946079e-01 1.089487e+00 1.149250e+00 1.436976e+00 1.445912e+00 1.340195e+00 1.411844e+00 1.475706e+00 1.176371e+00 1.552272e-04
<GCONST> 7.249575e+01
<MIXTURE> 65 1.721197e-02
<MEAN> 25
 8.015510e+00 1.153144e+00 1.374930e+00 2.872476e+00 -3.289359e+00 -3.163274e+00 -2.060857e+00 -7.890283e+00 -7.388065e+00 -3.151190e+00 -4.659153e+00 1.757550e-02 1.512024e-02 3.924270e-02 -1.639901e-01 7.795990e-02 -3.713756e-01 3.370669e-01 1.263008e-01 -2.007747e-01 4.493788e-01 6.864099e-02 -7.672004e-02 -1.937630e-01 -5.025403e-04
<VARIANCE> 25
 7.729064e+00 1.666943e+01 2.593122e+01 4.788712e+01 3.591109e+01 4.692437e+01 9.352563e+01 4.750067e+01 6.572019e+01 8.679847e+01 4.230206e+01 4.160891e+01 4.978715e-01 8.995846e-01 1.376556e+00 2.214652e+00 1.793554e+00 2.026407e+00 3.407517e+00 3.300695e+00 3.904923e+00 2.392836e+00 2.009375e+00 1.747908e+00 4.326158e-04
<GCONST> 8.964783e+01
<MIXTURE> 66 1.191532e-02
<MEAN> 25
 6.160864e+00 -6.003877e+00 -3.713835e+00 -4.313529e+00 -3.602077e-01 -3.428567e+00 -1.087276e+01 3.064178e+00 7.780325e-01 9.578311e-01 -4.233964e+00 -4.061334e+00 -5.141760e-02 1.607274e+00 2.506496e+00 2.046003e+00 -4.831580e-01 -1.845862e+00 -2.820997e-01 -3.166376e-01 -5.019472e-01 -7.617830e-01 -2.148971e-01 1.720016e+00 -6.473408e-02
<VARIANCE> 25
 6.939043e+00 3.244252e+01 2.825530e+01 3.058476e+01 3.580681e+01 5.565818e+01 8.101713e+01 7.197604e+01 4.632731e+01 9.406689e+01 3.108592e+01 3.324015e+01 1.022663e+00 2.282546e+00 2.182333e+00 2.174413e+00 3.713763e+00 3.897705e+00 6.863464e+00 4.543393e+00 3.753176e+00 4.430311e+00 3.795916e+00 3.224159e+00 1.146112e-03
<GCONST> 9.677541e+01
<MIXTURE> 67 1.559142e-02
<MEAN> 25
 7.496639e+00 2.440062e+00 -4.690772e+00 -7.555965e+00 -3.012151e+00 5.269695e+00 -3.725538e+00 -3.705073e+00 -3.359703e+00 -4.657571e-01 9.622199e-01 2.582310e-01 -9.614460e-01 1.855820e+00 1.390502e+00 3.751248e+00 2.189481e+00 -1.825475e+00 2.244500e+00 -5.996890e-01 -5.872667e-01 -6.420929e-01 -9.563239e-01 2.386340e-01 -1.214598e-01
<VARIANCE> 25
 1.049165e+01 2.505596e+01 2.896609e+01 4.564126e+01 4.349882e+01 4.374434e+01 8.592266e+01 6.578451e+01 4.549277e+01 4.493521e+01 4.015911e+01 4.065668e+01 1.887162e+00 2.961387e+00 2.754982e+00 3.233537e+00 3.694117e+00 3.670846e+00 5.577274e+00 3.649186e+00 5.735929e+00 5.908780e+00 4.496995e+00 2.362361e+00 2.476000e-03
<GCONST> 9.933049e+01
<MIXTURE> 68 1.485092e-02
<MEAN> 25
 -2.471884e+00 -9.505560e-01 -3.889207e+00 4.900441e-01 4.643427e+00 1.843248e-02 2.793268e+00 2.236256e+00 1.153075e+00 1.658181e+00 -7.669240e-01 2.058751e+00 2.745392e+00 2.219125e-01 2.701328e-01 -2.503534e+00 -2.400898e+00 -1.259493e+00 -2.491580e+00 -1.461978e+00 -1.142353e+00 -1.367719e+00 -1.630003e+00 -9.498367e-01 1.024254e-01
<VARIANCE> 25
 2.375753e+01 4.178464e+01 5.244889e+01 6.304617e+01 4.170582e+01 6.777193e+01 4.486114e+01 4.614241e+01 3.975731e+01 3.952497e+01 3.930731e+01 2.678500e+01 1.750871e+00 3.564029e+00 5.733687e+00 4.929679e+00 4.220990e+00 5.266811e+00 4.929688e+00 8.328828e+00 5.718696e+00 4.750477e+00 4.609554e+00 2.991469e+00 5.553745e-03
<GCONST> 1.035739e+02
<MIXTURE> 69 1.204884e-02
<MEAN> 25
 4.515864e+00 -3.912441e+00 -3.262814e+00 -3.234548e+00 -3.239957e+00 -7.730406e+00 -1.297478e+00 4.084009e+00 8.818150e-02 -4.425021e+00 -5.345865e+00 2.919208e-01 1.820783e+00 -2.366164e+00 -1.294283e+00 -2.164784e+00 -8.078805e-01 -1.536827e-02 -7.179913e-01 1.082150e+00 -2.176366e-01 -1.225381e+00 -2.055365e+00 -3.936795e-01 7.996548e-02
<VARIANCE> 25
 8.144633e+00 2.339392e+01 2.496973e+01 2.431719e+01 3.806429e+01 3.461214e+01 4.517686e+01 5.575828e+01 3.682027e+01 3.470510e+01 2.772321e+01 2.511765e+01 3.375594e+00 2.743001e+00 3.007199e+00 3.533168e+00 5.769663e+00 5.277484e+00 7.226018e+00 7.264079e+00 6.405100e+00 5.479929e+00 4.064829e+00 3.642750e+00 4.609260e-03
<GCONST> 9.915863e+01
<MIXTURE> 70 1.329190e-02
<MEAN> 25
 6.550232e+00 -2.520774e+00 -2.893224e+00 -3.530289e+00 -2.501688e+00 2.148535e+00 -6.807939e+00 -4.792116e+00 -1.426672e+00 3.316888e+00 1.946406e+00 -3.198376e+00 1.697405e+00 -8.775012e-01 -1.435363e+00 -3.385512e+00 -1.254900e+00 2.344036e+00 -2.043383e+00 6.885514e-01 1.252689e+00 6.897921e-01 9.726285e-01 -9.547289e-01 5.836796e-02
<VARIANCE> 25
 9.579700e+00 2.830035e+01 2.850129e+01 7.343632e+01 3.154261e+01 5.502332e+01 5.468273e+01 4.214294e+01 5.737989e+01 3.824430e+01 3.418600e+01 2.230974e+01 3.682456e+00 3.817884e+00 3.637935e+00 5.829358e+00 4.473042e+00 5.645335e+00 6.475505e+00 9.980443e+00 5.714149e+00 6.541380e+00 3.358786e+00 4.314559e+00 2.087942e-03
<GCONST> 1.019463e+02
<MIXTURE> 71 1.406903e-02
<MEAN> 25
 6.345901e+00 3.741910e+00 3.517754e+00 4.419298e+00 -2.704350e+00 -2.219774e+00 -4.881015e-01 -7.235940e+00 -7.319598e+00 -3.971621e+00 -3.816411e+00 -1.873319e+00 -1.111640e+00 -5.005723e-01 -4.291833e-01 -2.335804e+00 5.595111e-01 2.803584e-01 -9.448219e-01 1.923023e+00 6.724911e-01 4.455926e-01 1.015445e+00 1.405937e-01 3.797397e-02
<VARIANCE> 25
 1.754412e+01 3.064451e+01 2.658975e+01 4.072359e+01 3.341914e+01 4.037614e+01 5.770767e+01 3.406794e+01 4.600341e+01 5.445509e+01 3.411357e+01 3.341648e+01 1.780614e+00 2.449279e+00 4.691795e+00 4.646904e+00 4.650328e+00 4.041452e+00 7.336690e+00 5.717199e+00 4.986733e+00 4.200240e+00 3.061934e+00 2.669809e+00 1.113439e-03
<GCONST> 9.844474e+01
<MIXTURE> 72 8.134747e-03
<MEAN> 25
 2.894412e+00 -3.548266e+00 6.960198e+00 -2.506254e+00 -9.663308e+00 -9.181340e+00 -3.091009e+00 3.244014e+00 -3.566505e+00 -2.057151e+00 -7.937303e-01 1.036282e+00 8.609928e-01 -8.275586e-01 -3.128354e+00 1.038879e+00 2.127587e+00 -6.001052e-01 -8.377121e-01 1.775518e+00 1.556341e+00 -9.320956e-02 -1.239021e+00 4.489567e-02 -8.034701e-03
<VARIANCE> 25
 1.130078e+01 1.952071e+01 4.062499e+01 3.498346e+01 2.791334e+01 2.751249e+01 3.617450e+01 4.425764e+01 6.754508e+01 4.007074e+01 3.508898e+01 2.558483e+01 4.820441e-01 1.047995e+00 3.220338e+00 2.469741e+00 2.007582e+00 1.933826e+00 4.888226e+00 3.026902e+00 2.417548e+00 3.734192e+00 1.939269e+00 2.135028e+00 5.467015e-04
<GCONST> 8.887901e+01
<MIXTURE> 73 1.213625e-02
<MEAN> 25
 -5.766814e+00 -5.411015e-01 -1.472908e+00 4.925243e+00 4.600984e+00 1.800074e+00 5.544812e+00 3.259048e+00 4.174679e+00 3.312133e+00 4.055183e+00 2.890652e+00 9.060161e-01 -1.047360e+00 -1.007550e+00 -2.635032e+00 -1.223723e+00 -1.630429e+00 -1.001524e+00 -2.944233e-01 -7.785513e-01 -6.099669e-01 -1.111380e+00 -3.556075e-01 1.496947e-01
<VARIANCE> 25
 1.273450e+01 1.393963e+01 1.526484e+01 2.187878e+01 2.401034e+01 2.852591e+01 1.944538e+01 2.028575e+01 1.983274e+01 1.810137e+01 2.263965e+01 1.546684e+01 3.994655e+00 2.948735e+00 5.802753e+00 4.466257e+00 5.992462e+00 4.703401e+00 4.203810e+00 5.287817e+00 4.054926e+00 4.134011e+00 3.389776e+00 2.571654e+00 4.980182e-03
<GCONST> 9.302921e+01
<MIXTURE> 74 1.756491e-02
<MEAN> 25
 3.608036e+00 -2.711069e+00 7.057920e+00 9.386100e-01 -5.221420e+00 -8.102739e+00 -4.318880e+00 4.653086e+00 -3.708909e+00 -6.138415e+00 4.564868e-01 1.935442e+00 2.410219e-01 2.284218e+00 -8.687872e-01 2.197159e+00 1.844445e+00 1.241531e-01 1.111722e+00 -2.360160e+00 -6.254272e-01 -8.514294e-01 -2.737849e-02 -1.186301e-01 -6.781214e-02
<VARIANCE> 25
 1.072047e+01 2.602425e+01 3.921430e+01 4.070202e+01 4.114822e+01 2.980540e+01 5.078858e+01 6.542892e+01 6.730077e+01 6.029951e+01 3.439811e+01 2.615547e+01 2.476013e+00 3.761042e+00 1.051734e+01 2.752111e+00 3.240847e+00 4.044965e+00 5.160825e+00 5.057907e+00 5.718637e+00 6.479393e+00 3.177435e+00 3.779655e+00 1.212936e-03
<GCONST> 1.001000e+02
<MIXTURE> 75 9.711651e-03
<MEAN> 25
 1.559576e+00 -1.570256e+00 1.365630e+01 -1.210524e-01 -1.029437e+01 -7.765789e+00 -6.357033e+00 1.978146e-01 -3.212020e+00 -5.523775e+00 2.723649e+00 1.168990e+00 2.142657e+00 -2.462632e+00 -3.994360e-01 -1.692308e-01 -2.260728e+00 -1.351741e-01 -1.867874e+00 9.625568e-01 -1.277086e-01 6.593693e-01 9.798262e-01 -6.945544e-01 4.514574e-02
<VARIANCE> 25
 1.024949e+01 2.034962e+01 3.883700e+01 4.767296e+01 2.297555e+01 2.897002e+01 3.719616e+01 3.884392e+01 7.211401e+01 3.638341e+01 1.415433e+01 2.379353e+01 3.153841e+00 2.214299e+00 5.204791e+00 3.107594e+00 3.446299e+00 4.571894e+00 4.607814e+00 2.947667e+00 3.336545e+00 4.612989e+00 2.147982e+00 1.969955e+00 1.707685e-03
<GCONST> 9.417591e+01
<MIXTURE> 76 1.052359e-02
<MEAN> 25
 -6.517850e+00 -2.302097e+00 -3.557502e+00 5.583396e+00 6.350015e+00 4.693879e-02 5.240932e+00 8.556328e-01 3.482649e+00 1.128397e+00 3.040393e-01 3.354132e-01 5.132790e-02 -4.583032e-01 -5.130920e-01 -7.215545e-01 -8.119285e-01 -8.389834e-01 -1.030401e+00 -5.193200e-01 -5.200186e-01 -6.279789e-01 -1.359978e-01 -2.730155e-01 1.288669e-02
<VARIANCE> 25
 2.493413e+01 2.591818e+01 2.634135e+01 2.892871e+01 2.612877e+01 4.893591e+01 2.389245e+01 2.713492e+01 2.357133e+01 1.851812e+01 2.442818e+01 1.809206e+01 1.553569e+00 1.362475e+00 1.383045e+00 1.186531e+00 1.315646e+00 1.860303e+00 1.353308e+00 2.190202e+00 1.299835e+00 1.813705e+00 1.931465e+00 1.268073e+00 9.062363e-04
<GCONST> 8.282598e+01
<MIXTURE> 77 1.244626e-02
<MEAN> 25
 -4.975203e-01 8.496535e+00 1.253388e+01 -1.157873e+01 -6.955035e+00 8.967890e-01 -9.358787e+00 -7.087404e+00 -3.246747e+00 -3.341887e-01 -4.507208e+00 -1.403421e+00 7.119782e-02 1.311167e-01 9.413025e-02 2.531312e-01 -2.953292e-02 8.162348e-02 -7.223564e-02 -6.138261e-02 9.404797e-02 -3.370331e-02 2.395575e-02 9.494286e-02 -9.869783e-03
<VARIANCE> 25
 1.057277e+01 2.053762e+01 3.145273e+01 4.103601e+01 3.270598e+01 3.406128e+01 3.630117e+01 3.251477e+01 3.549546e+01 3.474949e+01 3.802532e+01 3.478558e+01 2.966578e-01 7.740080e-01 6.553310e-01 1.073374e+00 1.292245e+00 1.016199e+00 1.272141e+00 1.061016e+00 1.032275e+00 1.070935e+00 9.567458e-01 9.355149e-01 5.314435e-04
<GCONST> 7.808341e+01
<MIXTURE> 78 9.702551e-03
<MEAN> 25
 -1.169183e+01 1.824216e+00 -2.426163e+00 4.566207e+00 5.078669e+00 -3.943820e+00 4.588370e+00 4.385567e+00 3.548683e+00 3.759900e-01 -1.275764e+00 1.704789e+00 2.179155e+00 -9.129896e-01 4.932597e-01 4.523509e-01 4.851156e-02 -6.132653e-01 -5.085343e-01 1.808720e-01 3.832859e-01 2.984359e-01 -6.695698e-01 -3.952620e-01 -5.453425e-02
<VARIANCE> 25
 4.440221e+01 2.965386e+01 3.916093e+01 3.307841e+01 3.597228e+01 3.094726e+01 2.522280e+01 3.276126e+01 2.538959e+01 2.178512e+01 2.828740e+01 2.085423e+01 5.193549e+00 3.135539e+00 3.393585e+00 2.676373e+00 2.460962e+00 3.113299e+00 3.149777e+00 3.510826e+00 2.271109e+00 2.355493e+00 1.959185e+00 1.650953e+00 3.434103e-03
<GCONST> 9.333681e+01
<MIXTURE> 79 1.156824e-02
<MEAN> 25
 1.523585e+00 1.206791e+00 1.314624e+01 -6.529273e+00 -1.130791e+01 -2.453122e+00 -3.092877e+00 -4.927006e+00 -6.345779e+00 -1.052013e+00 -2.835963e+00 -1.654219e+00 1.422136e+00 -8.849157e-01 -1.875827e+00 2.530519e+00 3.268661e-01 -1.241552e+00 5.463828e-01 7.539479e-01 -2.106572e-01 -4.834159e-01 4.940071e-01 1.547640e-02 -3.410042e-02
<VARIANCE> 25
 1.485809e+01 2.477291e+01 8.639756e+01 4.275835e+01 3.110435e+01 3.699613e+01 4.049377e+01 3.981166e+01 4.779301e+01 4.379921e+01 3.742472e+01 3.602599e+01 9.397266e-01 2.341204e+00 2.938579e+00 1.961501e+00 2.178847e+00 2.589841e+00 3.073864e+00 3.056976e+00 2.288257e+00 2.881957e+00 1.978667e+00 1.992976e+00 1.121638e-03
<GCONST> 9.233252e+01
<MIXTURE> 80 7.550998e-03
<MEAN> 25
 -1.488085e+01 3.857414e+00 9.316871e-01 2.674995e+00 2.331099e+00 1.270330e+00 6.368712e+00 2.616670e+00 2.756395e+00 2.601148e+00 4.380708e+00 1.098213e+00 4.333261e+00 -1.610519e-01 1.687161e+00 -8.504771e-01 -2.851215e+00 -2.830564e+00 -2.371110e+00 -1.863078e+00 -1.942213e+00 -1.619384e+00 -1.505389e+00 -6.304641e-01 -4.021544e-02
<VARIANCE> 25
 2.294367e+01 1.933370e+01 3.452127e+01 3.589901e+01 2.984246e+01 2.820085e+01 2.725242e+01 2.818303e+01 2.621807e+01 2.890659e+01 2.951256e+01 1.751259e+01 2.474458e+00 2.981447e+00 2.595551e+00 5.650874e+00 3.237599e+00 2.632330e+00 2.959341e+00 3.545565e+00 2.635993e+00 2.710033e+00 3.058090e+00 2.061354e+00 1.725412e-03
<GCONST> 9.204402e+01
<MIXTURE> 81 8.025434e-03
<MEAN> 25
 -1.135070e+00 4.041344e+00 1.028712e+01 -1.476066e+01 -9.063893e+00 -1.452736e+00 -6.799970e+00 -8.385270e+00 -4.113056e+00 -4.836994e-01 -7.521844e+00 -2.190262e+00 1.393906e-01 -5.945215e-01 -1.852307e-03 -5.485697e-01 -4.750415e-01 3.370971e-01 3.249249e-01 1.400996e-01 -1.413675e-01 1.147999e-01 -4.663960e-01 -1.248529e-01 1.143463e-02
<VARIANCE> 25
 1.019387e+01 3.272750e+01 2.835592e+01 2.940737e+01 3.355885e+01 3.058914e+01 4.537740e+01 2.836208e+01 3.816407e+01 3.261083e+01 2.559047e+01 3.137997e+01 7.763021e-01 2.283916e+00 1.544981e+00 2.871414e+00 2.676522e+00 2.115700e+00 3.279892e+00 2.281564e+00 2.348227e+00 2.552921e+00 2.287531e+00 2.066896e+00 1.178424e-03
<GCONST> 8.880187e+01
<MIXTURE> 82 8.213053e-03
<MEAN> 25
 -1.105907e+01 -2.689986e+00 2.601635e+00 -3.088240e+00 3.235710e+00 1.040474e+00 2.324054e+00 6.672263e-01 2.299520e+00 1.559084e+00 2.616595e+00 3.556661e+00 -1.074549e+00 6.814206e-02 5.169291e-01 -2.467698e+00 -1.124172e+00 -1.337815e+00 -1.222780e+00 -7.757741e-01 2.996601e-02 -5.606213e-01 -3.918386e-01 4.194066e-02 1.717084e-01
<VARIANCE> 25
 2.500599e+01 3.165145e+01 3.613044e+01 2.760483e+01 2.977847e+01 3.031871e+01 2.951043e+01 3.001069e+01 3.196496e+01 2.401295e+01 4.043894e+01 1.857258e+01 4.315546e+00 3.077774e+00 4.412411e+00 3.306078e+00 3.193529e+00 2.976223e+00 3.156421e+00 2.860617e+00 3.508034e+00 2.258138e+00 2.218193e+00 1.837028e+00 3.853451e-03
<GCONST> 9.401703e+01
<MIXTURE> 83 1.167529e-02
<MEAN> 25
 -2.001655e+01 5.491993e+00 -1.582983e+00 -7.620465e-01 6.946563e+00 -1.294005e+00 5.394035e+00 2.943688e+00 9.961086e-01 1.563240e+00 2.307016e-01 2.991256e+00 -7.625351e-02 -4.472945e-01 9.975872e-03 -3.798206e-01 -5.379174e-01 -3.400178e-01 -3.225043e-01 -1.646480e-01 -6.434868e-02 3.973329e-02 1.713001e-03 3.558637e-02 5.029874e-03
<VARIANCE> 25
 9.234292e+00 1.528057e+01 2.811070e+01 2.596004e+01 2.773194e+01 2.207127e+01 2.175376e+01 2.145658e+01 1.943972e+01 2.292737e+01 2.313809e+01 1.366551e+01 1.003698e+00 8.955408e-01 1.140735e+00 1.041406e+00 1.254462e+00 1.545056e+00 1.492260e+00 1.310714e+00 1.220374e+00 1.304689e+00 1.109335e+00 1.147713e+00 8.170017e-04
<GCONST> 7.690285e+01
<MIXTURE> 84 1.066614e-02
<MEAN> 25
 1.611908e+00 9.530383e+00 6.845593e+00 8.139304e+00 3.935062e+00 -1.799531e+00 -8.214601e-01 -5.502173e+00 -4.332281e+00 -3.018320e+00 -1.552969e+00 -1.433611e+00 -1.892754e+00 -1.085509e+00 -1.245154e+00 1.602894e+00 2.348045e+00 9.584882e-01 1.769121e+00 1.023922e+00 7.129809e-01 7.392858e-02 1.187080e-01 1.959658e-01 -6.723110e-02
<VARIANCE> 25
 2.266262e+01 1.943198e+01 1.869527e+01 2.124998e+01 2.955142e+01 3.068946e+01 2.679593e+01 3.205846e+01 2.176813e+01 2.235240e+01 2.450529e+01 2.083756e+01 2.925937e+00 2.296712e+00 3.691037e+00 3.578067e+00 3.173844e+00 4.053743e+00 3.373442e+00 4.249967e+00 3.810599e+00 3.651297e+00 3.456839e+00 2.623867e+00 3.292035e-03
<GCONST> 9.283297e+01
<MIXTURE> 85 7.591393e-03
<MEAN> 25
 -3.390548e+00 8.280185e+00 6.758215e+00 7.953488e-01 -3.088292e+00 -5.259425e+00 -2.797563e+00 -5.810966e+00 -3.093361e+00 -3.592321e+00 -4.153033e-01 -1.368807e+00 3.939271e+00 1.829340e-01 1.855391e+00 -2.023188e+00 -3.424452e+00 -2.565984e+00 -2.908941e+00 -2.298370e+00 -1.743033e+00 -1.324049e+00 -2.300931e+00 -6.140125e-01 2.306970e-02
<VARIANCE> 25
 4.060155e+01 2.386848e+01 5.081484e+01 3.918443e+01 3.988486e+01 3.952946e+01 3.020615e+01 2.703893e+01 2.874146e+01 2.665760e+01 2.529794e+01 2.238759e+01 2.507998e+00 4.310875e+00 3.918150e+00 4.832222e+00 4.068102e+00 3.618009e+00 3.599150e+00 3.820433e+00 6.350384e+00 3.772211e+00 3.698739e+00 3.241536e+00 7.204970e-03
<GCONST> 9.882772e+01
<MIXTURE> 86 1.273941e-02
<MEAN> 25
 -4.994622e+00 -1.195232e+00 -7.977478e-01 6.327849e+00 5.030285e+00 4.659584e+00 5.321894e+00 4.565059e+00 4.664065e+00 3.913816e+00 5.334596e+00 2.704728e+00 -6.649445e-03 -7.760691e-03 -3.836351e-02 -6.471800e-02 -1.176849e-01 -1.866126e-01 -2.663704e-01 -3.303556e-01 -3.536916e-01 -3.200533e-01 -2.295740e-01 -1.078574e-01 -5.489382e-04
<VARIANCE> 25
 8.018217e+00 5.696502e+00 9.958632e+00 1.231202e+01 1.590529e+01 1.439230e+01 1.351379e+01 1.306030e+01 1.316712e+01 1.420887e+01 1.431190e+01 1.275744e+01 9.974609e-02 1.931442e-01 3.181193e-01 4.833434e-01 6.349094e-01 7.353618e-01 7.423492e-01 7.639372e-01 8.290465e-01 8.855200e-01 9.099624e-01 9.025636e-01 5.327922e-05
<GCONST> 5.812637e+01
<MIXTURE> 87 1.100681e-02
<MEAN> 25
 -4.755235e+00 4.122119e+00 1.734308e+00 7.199668e+00 5.065681e+00 6.973997e-01 1.483633e+00 -2.307530e+00 -1.542425e+00 -1.329196e+00 -2.222252e-01 -4.057728e-01 -1.628040e+00 -2.640392e+00 -2.271524e+00 -2.808895e+00 -8.193071e-01 4.914820e-01 -7.587510e-02 1.313444e+00 1.771302e+00 1.248384e+00 1.035481e+00 7.135774e-01 1.090914e-01
<VARIANCE> 25
 5.684246e+01 3.034783e+01 4.019241e+01 3.006636e+01 2.539352e+01 2.805485e+01 2.377334e+01 2.861613e+01 2.644934e+01 2.262836e+01 2.403174e+01 2.317275e+01 5.393951e+00 2.342606e+00 3.235130e+00 4.803249e+00 5.541198e+00 4.857097e+00 4.958909e+00 3.788877e+00 3.353688e+00 3.058910e+00 2.766313e+00 2.524099e+00 4.450867e-03
<GCONST> 9.666767e+01
<MIXTURE> 88 1.256585e-02
<MEAN> 25
 -4.292867e+00 -1.119944e+00 -2.030092e+00 6.006835e+00 5.688161e+00 1.704349e+00 5.141640e+00 3.138353e+00 3.845911e+00 2.443141e+00 2.498037e+00 2.006647e+00 -8.103792e-02 1.179477e-01 9.280194e-02 2.950476e-01 3.330578e-01 3.410920e-01 -9.285382e-03 -5.618601e-01 -2.231278e-01 -2.923543e-01 -1.622300e-01 -9.977898e-03 -8.972539e-03
<VARIANCE> 25
 8.927520e+00 1.230076e+01 1.775286e+01 1.805487e+01 2.205847e+01 3.326295e+01 2.022053e+01 1.851601e+01 1.841624e+01 1.802056e+01 2.432736e+01 1.551804e+01 1.365325e+00 1.929869e+00 2.099771e+00 2.202407e+00 2.840593e+00 3.073788e+00 2.837412e+00 3.154204e+00 2.243553e+00 2.464252e+00 2.334781e+00 1.993212e+00 1.355129e-03
<GCONST> 8.418004e+01
<MIXTURE> 89 9.333527e-03
<MEAN> 25
 4.875650e+00 -8.778422e+00 -3.363730e+00 -2.009351e+00 -4.188941e+00 -2.677814e+00 -4.864023e+00 6.897330e+00 5.956602e+00 -7.903208e-01 -6.137176e+00 -5.151633e+00 -3.738333e-01 -3.192791e-02 2.384364e+00 7.065507e-01 -1.601735e+00 -1.904391e+00 -5.655170e-01 1.966000e+00 -6.692143e-01 -1.186428e+00 5.042669e-01 1.767492e+00 -6.438886e-03
<VARIANCE> 25
 6.832154e+00 2.586277e+01 2.444781e+01 2.348638e+01 4.046269e+01 5.279588e+01 4.494694e+01 5.218756e+01 2.960828e+01 2.953493e+01 2.314543e+01 2.840726e+01 5.658087e-01 7.978508e-01 1.568302e+00 1.855650e+00 1.593325e+00 1.837546e+00 4.228637e+00 2.536099e+00 1.793703e+00 1.516207e+00 1.975936e+00 1.434646e+00 3.638465e-04
<GCONST> 8.400687e+01
<MIXTURE> 90 7.114505e-03
<MEAN> 25
 2.450667e+00 -9.720613e+00 -4.755471e+00 -3.977586e+00 -3.385391e+00 -1.809282e+00 3.365666e+00 1.181541e+00 -7.532956e+00 -1.021606e+01 -3.428074e+00 -7.397296e-01 -1.638256e-01 9.087070e-01 1.168952e+00 -8.539581e-01 -1.612972e+00 -2.117340e-01 6.444765e-01 -2.095037e-01 -1.686588e-01 7.370524e-01 1.828981e-01 -5.497292e-01 -1.114722e-02
<VARIANCE> 25
 8.504840e+00 1.781075e+01 1.980907e+01 2.805239e+01 3.686047e+01 3.221767e+01 3.857132e+01 3.642068e+01 3.524535e+01 2.770406e+01 2.701459e+01 2.614255e+01 2.237822e-01 6.128887e-01 7.876506e-01 1.042669e+00 1.469608e+00 1.591414e+00 1.781880e+00 1.655305e+00 1.810558e+00 1.678330e+00 1.495273e+00 1.308581e+00 2.150613e-04
<GCONST> 7.814453e+01
<MIXTURE> 91 7.852945e-03
<MEAN> 25
 6.223543e+00 -7.353702e+00 -8.851556e+00 -4.805814e+00 3.071972e+00 7.118854e-01 -4.775836e-01 1.032019e-01 1.637015e+00 -1.701092e+00 -4.424615e+00 -5.379497e+00 1.856533e-01 1.002305e+00 2.201471e-01 4.605711e-01 -8.550841e-02 -5.570636e-01 -4.036886e-01 -6.984103e-03 4.889969e-02 3.640337e-01 -1.978736e-01 2.544720e-01 -3.437901e-02
<VARIANCE> 25
 8.918145e+00 2.209390e+01 1.912995e+01 3.527617e+01 3.865971e+01 5.335882e+01 7.158636e+01 3.958133e+01 4.934197e+01 6.132174e+01 3.875610e+01 4.410111e+01 4.332556e-01 7.863939e-01 1.105771e+00 1.214956e+00 2.094967e+00 2.129063e+00 2.536894e+00 2.281281e+00 2.248022e+00 2.074461e+00 1.902251e+00 2.000964e+00 5.566569e-04
<GCONST> 8.663684e+01
<MIXTURE> 92 7.852945e-03
<MEAN> 25
 6.223543e+00 -7.353702e+00 -8.851556e+00 -4.805814e+00 3.071972e+00 7.118854e-01 -4.775836e-01 1.032019e-01 1.637015e+00 -1.701092e+00 -4.424615e+00 -5.379497e+00 1.856533e-01 1.002305e+00 2.201471e-01 4.605711e-01 -8.550841e-02 -5.570636e-01 -4.036886e-01 -6.984103e-03 4.889969e-02 3.640337e-01 -1.978736e-01 2.544720e-01 -3.437901e-02
<VARIANCE> 25
 8.918145e+00 2.209390e+01 1.912995e+01 3.527617e+01 3.865971e+01 5.335882e+01 7.158636e+01 3.958133e+01 4.934197e+01 6.132174e+01 3.875610e+01 4.410111e+01 4.332556e-01 7.863939e-01 1.105771e+00 1.214956e+00 2.094967e+00 2.129063e+00 2.536894e+00 2.281281e+00 2.248022e+00 2.074461e+00 1.902251e+00 2.000964e+00 5.566569e-04
<GCONST> 8.663684e+01
<MIXTURE> 93 6.122769e-03
<MEAN> 25
 -7.513935e+00 -2.874918e-01 -2.261072e+00 5.621138e+00 6.540547e+00 3.571789e+00 6.369381e+00 3.154061e+00 4.357471e+00 2.495904e+00 1.785679e+00 3.845031e+00 -6.230417e-02 -1.084973e-01 -2.159901e-01 -3.247113e-01 -3.318369e-01 -2.851282e-01 -1.858438e-01 -1.259624e-01 -2.429324e-01 -1.351112e-01 -1.018708e-01 -1.033453e-01 -3.398720e-06
<VARIANCE> 25
 1.117885e+01 8.358854e+00 7.417490e+00 1.063559e+01 1.327423e+01 1.582382e+01 1.445489e+01 1.664669e+01 1.379281e+01 1.295809e+01 1.558363e+01 1.256543e+01 7.628398e-02 1.603779e-01 2.693893e-01 3.934348e-01 4.477345e-01 6.335898e-01 7.063014e-01 8.155451e-01 8.704073e-01 8.784478e-01 8.104000e-01 9.071409e-01 8.806278e-07
<GCONST> 5.316776e+01
<MIXTURE> 94 6.122769e-03
<MEAN> 25
 -7.513935e+00 -2.874918e-01 -2.261072e+00 5.621138e+00 6.540547e+00 3.571789e+00 6.369381e+00 3.154061e+00 4.357471e+00 2.495904e+00 1.785679e+00 3.845031e+00 -6.230417e-02 -1.084973e-01 -2.159901e-01 -3.247113e-01 -3.318369e-01 -2.851282e-01 -1.858438e-01 -1.259624e-01 -2.429324e-01 -1.351112e-01 -1.018708e-01 -1.033453e-01 -3.398720e-06
<VARIANCE> 25
 1.117885e+01 8.358854e+00 7.417490e+00 1.063559e+01 1.327423e+01 1.582382e+01 1.445489e+01 1.664669e+01 1.379281e+01 1.295809e+01 1.558363e+01 1.256543e+01 7.628398e-02 1.603779e-01 2.693893e-01 3.934348e-01 4.477345e-01 6.335898e-01 7.063014e-01 8.155451e-01 8.704073e-01 8.784478e-01 8.104000e-01 9.071409e-01 8.806278e-07
<GCONST> 5.316776e+01
<MIXTURE> 95 5.258835e-03
<MEAN> 25
 -5.924850e+00 -6.865134e-01 -1.913836e+00 5.057167e+00 4.331589e+00 2.355412e+00 4.217574e+00 1.592848e+00 2.262621e+00 7.926608e-01 1.178951e+00 2.587718e+00 1.399535e-01 1.557711e-01 1.206865e-01 -1.052253e-01 -4.141821e-01 -8.062168e-01 -1.074129e+00 -1.309307e+00 -1.287826e+00 -9.679759e-01 -6.372144e-01 -2.879056e-01 -1.521174e-04
<VARIANCE> 25
 1.020618e+01 6.616292e+00 1.235942e+01 1.325582e+01 1.458765e+01 2.379972e+01 1.808187e+01 1.657037e+01 1.516632e+01 1.517312e+01 1.945004e+01 1.412924e+01 2.117145e-01 3.099533e-01 4.814568e-01 6.546795e-01 8.501777e-01 1.131429e+00 9.015626e-01 9.249592e-01 9.745538e-01 1.091713e+00 1.153089e+00 1.115292e+00 4.042794e-05
<GCONST> 6.396409e+01
<MIXTURE> 96 7.034694e-03
<MEAN> 25
 -5.987875e+00 2.060363e-01 -2.331931e+00 5.051530e+00 4.630161e+00 1.000918e+00 3.883739e+00 1.667979e+00 3.199115e+00 7.335755e-01 1.445711e+00 2.736085e+00 -7.226839e-02 6.757355e-02 2.417283e-01 4.148055e-01 5.251411e-01 5.328318e-01 2.479236e-01 -1.799414e-01 -5.445733e-01 -6.632600e-01 -5.298315e-01 -2.143855e-01 -1.379030e-05
<VARIANCE> 25
 1.355740e+01 1.364725e+01 1.288822e+01 1.365030e+01 1.840580e+01 2.132708e+01 1.766682e+01 1.774922e+01 1.939318e+01 1.590670e+01 1.870877e+01 1.405555e+01 1.220420e-01 2.117634e-01 3.236169e-01 4.447975e-01 5.157577e-01 7.583500e-01 8.009406e-01 1.032993e+00 1.005218e+00 8.074940e-01 9.194413e-01 1.086617e+00 8.545669e-07
<GCONST> 5.845736e+01
<MIXTURE> 97 7.034694e-03
<MEAN> 25
 -5.987875e+00 2.060363e-01 -2.331931e+00 5.051530e+00 4.630161e+00 1.000918e+00 3.883739e+00 1.667979e+00 3.199115e+00 7.335755e-01 1.445711e+00 2.736085e+00 -7.226839e-02 6.757355e-02 2.417283e-01 4.148055e-01 5.251411e-01 5.328318e-01 2.479236e-01 -1.799414e-01 -5.445733e-01 -6.632600e-01 -5.298315e-01 -2.143855e-01 -1.379030e-05
<VARIANCE> 25
 1.355740e+01 1.364725e+01 1.288822e+01 1.365030e+01 1.840580e+01 2.132708e+01 1.766682e+01 1.774922e+01 1.939318e+01 1.590670e+01 1.870877e+01 1.405555e+01 1.220420e-01 2.117634e-01 3.236169e-01 4.447975e-01 5.157577e-01 7.583500e-01 8.009406e-01 1.032993e+00 1.005218e+00 8.074940e-01 9.194413e-01 1.086617e+00 8.545669e-07
<GCONST> 5.845736e+01
<MIXTURE> 98 9.917808e-03
<MEAN> 25
 -1.365672e+00 1.091986e+00 -1.066890e+00 5.590525e+00 4.609397e+00 2.844193e-01 4.026933e+00 2.012756e+00 1.930838e+00 1.607704e+00 -2.051135e-01 -7.767264e-01 -1.471737e+00 -1.370408e+00 -1.170900e+00 1.405769e-01 5.017261e-01 8.425462e-01 1.099593e+00 1.257486e+00 1.316048e+00 1.197600e+00 8.711776e-01 8.138835e-01 -3.960045e-02
<VARIANCE> 25
 1.129993e+01 1.706017e+01 3.309331e+01 3.076913e+01 5.041989e+01 5.572259e+01 2.845197e+01 3.817139e+01 3.123261e+01 2.528794e+01 2.437613e+01 2.497943e+01 1.575846e+00 1.481681e+00 2.007823e+00 2.560786e+00 2.537125e+00 3.016904e+00 2.896871e+00 3.266952e+00 2.309142e+00 2.732061e+00 2.934617e+00 2.212538e+00 2.321100e-03
<GCONST> 9.056388e+01
<MIXTURE> 99 6.696178e-03
<MEAN> 25
 -7.267336e+00 1.035890e+01 7.497354e+00 3.597008e+00 2.587384e+00 -6.275360e+00 -1.645342e+00 -3.569181e+00 -3.633315e+00 -4.439236e+00 -2.249351e+00 1.173904e+00 4.168484e-01 -7.056559e-01 4.498371e-01 -4.086314e-01 -1.167158e+00 -4.698059e-01 -6.420247e-01 2.593380e-01 -3.614831e-02 -2.182811e-01 4.662867e-01 3.136814e-01 1.390063e-02
<VARIANCE> 25
 3.849834e+01 2.623199e+01 8.398874e+01 2.703286e+01 3.766819e+01 3.105471e+01 2.986238e+01 2.454650e+01 2.194915e+01 3.319188e+01 1.539421e+01 2.178166e+01 2.183301e+00 1.879714e+00 1.818131e+00 2.405144e+00 2.471342e+00 1.841718e+00 2.013398e+00 1.468984e+00 1.556465e+00 1.402547e+00 1.182625e+00 9.570335e-01 1.301712e-03
<GCONST> 8.640777e+01
<MIXTURE> 100 4.498084e-03
<MEAN> 25
 -1.601131e+00 6.341459e+00 1.029136e+01 -7.453727e+00 -1.077427e+01 -5.081039e+00 -4.956751e+00 -9.944602e+00 -4.702395e+00 -8.623016e-01 -2.728544e+00 -2.704906e+00 2.920094e+00 -1.265554e+00 1.299129e+00 -2.186241e+00 -3.421017e+00 -7.762435e-01 -1.221931e+00 -8.159609e-01 -1.472493e+00 3.540938e-01 -1.651161e+00 -2.897742e-01 2.077703e-03
<VARIANCE> 25
 1.362661e+01 2.105549e+01 2.259838e+01 2.643462e+01 2.301351e+01 2.370911e+01 2.920706e+01 2.200770e+01 2.759382e+01 2.268081e+01 2.238883e+01 2.133298e+01 1.804538e+00 3.962337e+00 2.921934e+00 4.278864e+00 4.183069e+00 4.567876e+00 4.014705e+00 4.339751e+00 4.166965e+00 3.924494e+00 3.913433e+00 3.227357e+00 1.676356e-03
<GCONST> 9.261465e+01
<MIXTURE> 101 6.007792e-03
<MEAN> 25
 7.831161e+00 -3.223929e+00 -5.395644e+00 -6.732325e+00 -3.622913e-02 -8.106809e-01 -1.087232e+01 -1.870707e+00 1.025446e+00 4.009309e+00 -2.011295e+00 -5.174575e+00 7.216161e-01 7.258272e-01 -1.611890e+00 -1.664920e+00 9.236051e-01 2.428096e+00 4.811854e-01 -1.659454e+00 -1.168720e+00 1.152213e+00 1.296135e+00 -2.426853e-01 -4.832835e-03
<VARIANCE> 25
 8.941328e+00 1.707043e+01 3.515628e+01 3.978103e+01 4.070919e+01 3.499710e+01 3.604986e+01 3.374807e+01 3.840466e+01 5.460046e+01 4.797042e+01 2.230653e+01 2.926892e-01 7.519828e-01 1.298125e+00 1.657240e+00 1.658476e+00 2.093243e+00 2.598870e+00 2.149896e+00 2.246583e+00 2.516442e+00 1.662853e+00 2.107995e+00 3.131127e-04
<GCONST> 8.434246e+01
<MIXTURE> 102 6.007792e-03
<MEAN> 25
 7.831161e+00 -3.223929e+00 -5.395644e+00 -6.732325e+00 -3.622913e-02 -8.106809e-01 -1.087232e+01 -1.870707e+00 1.025446e+00 4.009309e+00 -2.011295e+00 -5.174575e+00 7.216161e-01 7.258272e-01 -1.611890e+00 -1.664920e+00 9.236051e-01 2.428096e+00 4.811854e-01 -1.659454e+00 -1.168720e+00 1.152213e+00 1.296135e+00 -2.426853e-01 -4.832835e-03
<VARIANCE> 25
 8.941328e+00 1.707043e+01 3.515628e+01 3.978103e+01 4.070919e+01 3.499710e+01 3.604986e+01 3.374807e+01 3.840466e+01 5.460046e+01 4.797042e+01 2.230653e+01 2.926892e-01 7.519828e-01 1.298125e+00 1.657240e+00 1.658476e+00 2.093243e+00 2.598870e+00 2.149896e+00 2.246583e+00 2.516442e+00 1.662853e+00 2.107995e+00 3.131127e-04
<GCONST> 8.434246e+01
<MIXTURE> 103 5.694618e-03
<MEAN> 25
 3.464219e+00 -9.359577e+00 -6.114449e+00 -2.737605e+00 -1.323395e+00 -1.855830e+00 2.652829e+00 2.498927e+00 -4.692511e+00 -9.184696e+00 -5.086747e+00 3.388514e-01 -1.552858e-01 -1.497364e+00 -9.506618e-01 4.042070e-01 1.178581e+00 1.001195e+00 2.133859e-01 -2.931785e-01 -8.068731e-01 -9.432904e-01 -6.079410e-02 1.170187e-01 2.688955e-02
<VARIANCE> 25
 1.099306e+01 2.261234e+01 2.235888e+01 3.508895e+01 4.679659e+01 3.440473e+01 4.859222e+01 3.703556e+01 4.562583e+01 3.191664e+01 2.934756e+01 2.715312e+01 6.376228e-01 1.241400e+00 1.524880e+00 1.983277e+00 2.912902e+00 2.470035e+00 3.042381e+00 2.705839e+00 2.652924e+00 2.501925e+00 2.071634e+00 1.960559e+00 8.334182e-04
<GCONST> 8.813011e+01
<MIXTURE> 104 5.694618e-03
<MEAN> 25
 3.464219e+00 -9.359577e+00 -6.114449e+00 -2.737605e+00 -1.323395e+00 -1.855830e+00 2.652829e+00 2.498927e+00 -4.692511e+00 -9.184696e+00 -5.086747e+00 3.388514e-01 -1.552858e-01 -1.497364e+00 -9.506618e-01 4.042070e-01 1.178581e+00 1.001195e+00 2.133859e-01 -2.931785e-01 -8.068731e-01 -9.432904e-01 -6.079410e-02 1.170187e-01 2.688955e-02
<VARIANCE> 25
 1.099306e+01 2.261234e+01 2.235888e+01 3.508895e+01 4.679659e+01 3.440473e+01 4.859222e+01 3.703556e+01 4.562583e+01 3.191664e+01 2.934756e+01 2.715312e+01 6.376228e-01 1.241400e+00 1.524880e+00 1.983277e+00 2.912902e+00 2.470035e+00 3.042381e+00 2.705839e+00 2.652924e+00 2.501925e+00 2.071634e+00 1.960559e+00 8.334182e-04
<GCONST> 8.813011e+01
<MIXTURE> 105 4.710235e-03
<MEAN> 25
 2.230763e+00 -1.501647e+00 9.260001e+00 -2.684465e+00 -1.159711e+01 -5.015934e+00 -4.164592e+00 -7.863452e-01 -3.836370e+00 -3.200868e+00 1.516323e+00 -1.150568e+00 9.300882e-03 3.020039e-02 4.924624e-02 -4.531024e-02 2.793701e-03 4.839076e-02 -1.098276e-02 4.957970e-02 -3.691023e-02 2.691269e-02 2.828166e-02 -2.893551e-02 -2.190597e-03
<VARIANCE> 25
 1.336168e+01 2.857908e+01 4.094919e+01 4.502052e+01 3.778274e+01 5.366495e+01 4.134119e+01 4.357781e+01 3.992342e+01 4.202089e+01 4.186778e+01 3.073561e+01 8.363672e-02 1.859124e-01 3.427382e-01 2.912731e-01 3.750492e-01 4.291867e-01 4.710750e-01 4.909234e-01 4.935196e-01 4.403731e-01 4.224974e-01 3.980657e-01 8.920557e-05
<GCONST> 6.671515e+01
<MIXTURE> 106 4.710235e-03
<MEAN> 25
 2.230763e+00 -1.501647e+00 9.260001e+00 -2.684465e+00 -1.159711e+01 -5.015934e+00 -4.164592e+00 -7.863452e-01 -3.836370e+00 -3.200868e+00 1.516323e+00 -1.150568e+00 9.300882e-03 3.020039e-02 4.924624e-02 -4.531024e-02 2.793701e-03 4.839076e-02 -1.098276e-02 4.957970e-02 -3.691023e-02 2.691269e-02 2.828166e-02 -2.893551e-02 -2.190597e-03
<VARIANCE> 25
 1.336168e+01 2.857908e+01 4.094919e+01 4.502052e+01 3.778274e+01 5.366495e+01 4.134119e+01 4.357781e+01 3.992342e+01 4.202089e+01 4.186778e+01 3.073561e+01 8.363672e-02 1.859124e-01 3.427382e-01 2.912731e-01 3.750492e-01 4.291867e-01 4.710750e-01 4.909234e-01 4.935196e-01 4.403731e-01 4.224974e-01 3.980657e-01 8.920557e-05
<GCONST> 6.671515e+01
<MIXTURE> 107 5.452374e-03
<MEAN> 25
 7.686395e+00 -2.748424e+00 -6.904247e+00 -1.001465e+01 1.183731e+00 5.161533e+00 -1.072060e+01 -4.798779e+00 -4.735449e-01 5.061758e+00 1.656868e+00 -5.508885e+00 -5.966242e-01 -7.521137e-01 9.753442e-01 2.040365e+00 6.104341e-01 -2.228545e+00 -1.309348e+00 1.087351e+00 1.380807e+00 5.655749e-01 -1.528053e+00 -9.601848e-01 -6.636339e-03
<VARIANCE> 25
 9.792264e+00 1.964500e+01 2.912531e+01 3.922054e+01 3.138853e+01 4.567544e+01 5.856499e+01 4.048897e+01 3.980422e+01 4.582915e+01 4.272939e+01 3.233706e+01 3.160029e-01 8.645507e-01 1.238645e+00 2.412004e+00 2.186675e+00 2.781742e+00 3.208376e+00 2.936213e+00 3.030912e+00 3.282603e+00 2.397051e+00 2.929979e+00 6.261050e-04
<GCONST> 8.874232e+01
<MIXTURE> 108 5.452374e-03
<MEAN> 25
 7.686395e+00 -2.748424e+00 -6.904247e+00 -1.001465e+01 1.183731e+00 5.161533e+00 -1.072060e+01 -4.798779e+00 -4.735449e-01 5.061758e+00 1.656868e+00 -5.508885e+00 -5.966242e-01 -7.521137e-01 9.753442e-01 2.040365e+00 6.104341e-01 -2.228545e+00 -1.309348e+00 1.087351e+00 1.380807e+00 5.655749e-01 -1.528053e+00 -9.601848e-01 -6.636339e-03
<VARIANCE> 25
 9.792264e+00 1.964500e+01 2.912531e+01 3.922054e+01 3.138853e+01 4.567544e+01 5.856499e+01 4.048897e+01 3.980422e+01 4.582915e+01 4.272939e+01 3.233706e+01 3.160029e-01 8.645507e-01 1.238645e+00 2.412004e+00 2.186675e+00 2.781742e+00 3.208376e+00 2.936213e+00 3.030912e+00 3.282603e+00 2.397051e+00 2.929979e+00 6.261050e-04
<GCONST> 8.874232e+01
<MIXTURE> 109 6.661064e-03
<MEAN> 25
 4.124170e+00 -1.040489e+01 -8.418496e+00 -1.362818e+00 2.732786e+00 -6.078572e-02 3.023682e-01 1.298050e+00 -2.530359e+00 -8.112535e+00 -5.352322e+00 6.559564e-02 -3.565608e-02 -1.272271e-01 -2.466987e-02 2.572441e-01 2.085999e-01 1.025192e-01 -1.470941e-01 -9.232692e-02 -2.441705e-02 -1.324423e-01 1.982093e-01 3.989614e-03 -3.811216e-03
<VARIANCE> 25
 9.025537e+00 1.889231e+01 2.029853e+01 3.102228e+01 4.011932e+01 3.621361e+01 5.241290e+01 3.499712e+01 4.557265e+01 3.822952e+01 2.914830e+01 2.782870e+01 1.905770e-01 4.169124e-01 5.339693e-01 6.283590e-01 1.223545e+00 9.930338e-01 1.276590e+00 1.094179e+00 1.118483e+00 9.402499e-01 8.886555e-01 8.799825e-01 1.840793e-04
<GCONST> 7.459673e+01
<MIXTURE> 110 6.661064e-03
<MEAN> 25
 4.124170e+00 -1.040489e+01 -8.418496e+00 -1.362818e+00 2.732786e+00 -6.078572e-02 3.023682e-01 1.298050e+00 -2.530359e+00 -8.112535e+00 -5.352322e+00 6.559564e-02 -3.565608e-02 -1.272271e-01 -2.466987e-02 2.572441e-01 2.085999e-01 1.025192e-01 -1.470941e-01 -9.232692e-02 -2.441705e-02 -1.324423e-01 1.982093e-01 3.989614e-03 -3.811216e-03
<VARIANCE> 25
 9.025537e+00 1.889231e+01 2.029853e+01 3.102228e+01 4.011932e+01 3.621361e+01 5.241290e+01 3.499712e+01 4.557265e+01 3.822952e+01 2.914830e+01 2.782870e+01 1.905770e-01 4.169124e-01 5.339693e-01 6.283590e-01 1.223545e+00 9.930338e-01 1.276590e+00 1.094179e+00 1.118483e+00 9.402499e-01 8.886555e-01 8.799825e-01 1.840793e-04
<GCONST> 7.459673e+01
<MIXTURE> 111 4.337247e-03
<MEAN> 25
 -4.474174e+00 -9.060086e-01 -1.721020e+00 1.688036e+00 9.650519e-01 9.641860e-01 3.144906e-01 2.110138e-01 8.927951e-02 -5.413738e-01 -6.298641e-01 1.964609e+00 -2.108749e-02 -3.248323e-02 -7.234363e-02 -7.353529e-02 -3.730221e-02 6.464934e-03 -1.067756e-03 -5.925284e-02 -1.405201e-01 -2.030134e-01 -1.901193e-01 -1.063786e-01 -2.146340e-04
<VARIANCE> 25
 7.002829e+00 4.979152e+00 1.021244e+01 9.406946e+00 1.311072e+01 2.384249e+01 1.466686e+01 1.316618e+01 1.160237e+01 1.191163e+01 1.362879e+01 1.158816e+01 7.917981e-02 1.635697e-01 2.752564e-01 4.205191e-01 5.694453e-01 7.055031e-01 8.005860e-01 8.582318e-01 8.928981e-01 8.559614e-01 8.621067e-01 8.479789e-01 2.231464e-05
<GCONST> 5.598013e+01
<MIXTURE> 112 4.337247e-03
<MEAN> 25
 -4.474174e+00 -9.060086e-01 -1.721020e+00 1.688036e+00 9.650519e-01 9.641860e-01 3.144906e-01 2.110138e-01 8.927951e-02 -5.413738e-01 -6.298641e-01 1.964609e+00 -2.108749e-02 -3.248323e-02 -7.234363e-02 -7.353529e-02 -3.730221e-02 6.464934e-03 -1.067756e-03 -5.925284e-02 -1.405201e-01 -2.030134e-01 -1.901193e-01 -1.063786e-01 -2.146340e-04
<VARIANCE> 25
 7.002829e+00 4.979152e+00 1.021244e+01 9.406946e+00 1.311072e+01 2.384249e+01 1.466686e+01 1.316618e+01 1.160237e+01 1.191163e+01 1.362879e+01 1.158816e+01 7.917981e-02 1.635697e-01 2.752564e-01 4.205191e-01 5.694453e-01 7.055031e-01 8.005860e-01 8.582318e-01 8.928981e-01 8.559614e-01 8.621067e-01 8.479789e-01 2.231464e-05
<GCONST> 5.598013e+01
<MIXTURE> 113 5.938666e-03
<MEAN> 25
 9.898009e+00 1.760769e+00 -8.824017e+00 -1.696338e+01 -1.148590e+00 5.755469e+00 -5.109774e+00 -1.624598e+00 -5.534361e+00 -5.534577e-01 3.219250e-01 -6.466247e-02 6.876531e-05 2.054593e-02 -5.173734e-02 -1.122306e-01 9.181368e-02 1.609785e-01 4.856616e-02 4.174995e-02 -4.746795e-02 -3.236441e-02 1.703350e-01 4.628675e-02 -1.516087e-03
<VARIANCE> 25
 8.991597e+00 1.622509e+01 2.971721e+01 3.504546e+01 5.255391e+01 3.404125e+01 4.449955e+01 3.935117e+01 3.766787e+01 4.618958e+01 3.553251e+01 2.883515e+01 1.226130e-01 3.176082e-01 3.124683e-01 6.229634e-01 6.107526e-01 6.642633e-01 7.940685e-01 8.306690e-01 9.598368e-01 9.248266e-01 7.228063e-01 7.195752e-01 1.231107e-04
<GCONST> 7.125347e+01
<MIXTURE> 114 5.938666e-03
<MEAN> 25
 9.898009e+00 1.760769e+00 -8.824017e+00 -1.696338e+01 -1.148590e+00 5.755469e+00 -5.109774e+00 -1.624598e+00 -5.534361e+00 -5.534577e-01 3.219250e-01 -6.466247e-02 6.876531e-05 2.054593e-02 -5.173734e-02 -1.122306e-01 9.181368e-02 1.609785e-01 4.856616e-02 4.174995e-02 -4.746795e-02 -3.236441e-02 1.703350e-01 4.628675e-02 -1.516087e-03
<VARIANCE> 25
 8.991597e+00 1.622509e+01 2.971721e+01 3.504546e+01 5.255391e+01 3.404125e+01 4.449955e+01 3.935117e+01 3.766787e+01 4.618958e+01 3.553251e+01 2.883515e+01 1.226130e-01 3.176082e-01 3.124683e-01 6.229634e-01 6.107526e-01 6.642633e-01 7.940685e-01 8.306690e-01 9.598368e-01 9.248266e-01 7.228063e-01 7.195752e-01 1.231107e-04
<GCONST> 7.125347e+01
<MIXTURE> 115 2.935202e-03
<MEAN> 25
 -4.174142e+00 -4.979651e-01 -3.382457e+00 3.641159e+00 2.971910e+00 -1.120875e+00 2.194611e+00 5.371556e-01 2.226694e+00 3.162518e-01 -2.826860e-01 2.160309e+00 5.669121e-02 -9.489182e-02 -2.485194e-01 -4.540826e-01 -7.061318e-01 -7.819824e-01 -6.471899e-01 -5.653136e-01 -5.298497e-01 -4.034228e-01 -3.478540e-01 -1.497492e-01 -2.920018e-06
<VARIANCE> 25
 8.944231e+00 9.850793e+00 1.513209e+01 1.241254e+01 1.660244e+01 2.186905e+01 1.592769e+01 1.981813e+01 2.552708e+01 1.784393e+01 1.938233e+01 1.802166e+01 2.101593e-01 3.629743e-01 5.147099e-01 5.339697e-01 6.474106e-01 9.291465e-01 9.654008e-01 1.135133e+00 1.074469e+00 9.523079e-01 1.011725e+00 1.030907e+00 9.188168e-07
<GCONST> 6.117089e+01
<MIXTURE> 116 2.935202e-03
<MEAN> 25
 -4.174142e+00 -4.979651e-01 -3.382457e+00 3.641159e+00 2.971910e+00 -1.120875e+00 2.194611e+00 5.371556e-01 2.226694e+00 3.162518e-01 -2.826860e-01 2.160309e+00 5.669121e-02 -9.489182e-02 -2.485194e-01 -4.540826e-01 -7.061318e-01 -7.819824e-01 -6.471899e-01 -5.653136e-01 -5.298497e-01 -4.034228e-01 -3.478540e-01 -1.497492e-01 -2.920018e-06
<VARIANCE> 25
 8.944231e+00 9.850793e+00 1.513209e+01 1.241254e+01 1.660244e+01 2.186905e+01 1.592769e+01 1.981813e+01 2.552708e+01 1.784393e+01 1.938233e+01 1.802166e+01 2.101593e-01 3.629743e-01 5.147099e-01 5.339697e-01 6.474106e-01 9.291465e-01 9.654008e-01 1.135133e+00 1.074469e+00 9.523079e-01 1.011725e+00 1.030907e+00 9.188168e-07
<GCONST> 6.117089e+01
<MIXTURE> 117 6.506003e-03
<MEAN> 25
 -4.712393e+00 1.171325e+00 1.047347e+00 9.743121e+00 6.304756e+00 6.196489e+00 6.494019e+00 5.006324e+00 6.388096e+00 4.880295e+00 6.338730e+00 2.711728e+00 -6.906123e-02 -2.396085e-01 -3.610427e-01 -4.185295e-01 -3.664435e-01 -3.057708e-01 -2.835926e-01 -3.323504e-01 -3.930239e-01 -3.699500e-01 -2.630039e-01 -1.119402e-01 -9.008095e-06
<VARIANCE> 25
 7.614122e+00 9.029257e+00 9.772067e+00 1.424604e+01 1.571882e+01 1.562483e+01 1.771427e+01 1.796652e+01 1.631208e+01 1.653293e+01 1.670230e+01 1.467496e+01 2.232731e-01 3.147975e-01 4.354749e-01 6.157870e-01 8.480073e-01 1.055964e+00 1.171573e+00 1.223997e+00 1.218554e+00 1.188428e+00 1.158890e+00 1.108595e+00 9.907864e-07
<GCONST> 6.055373e+01
<MIXTURE> 118 6.506003e-03
<MEAN> 25
 -4.712393e+00 1.171325e+00 1.047347e+00 9.743121e+00 6.304756e+00 6.196489e+00 6.494019e+00 5.006324e+00 6.388096e+00 4.880295e+00 6.338730e+00 2.711728e+00 -6.906123e-02 -2.396085e-01 -3.610427e-01 -4.185295e-01 -3.664435e-01 -3.057708e-01 -2.835926e-01 -3.323504e-01 -3.930239e-01 -3.699500e-01 -2.630039e-01 -1.119402e-01 -9.008095e-06
<VARIANCE> 25
 7.614122e+00 9.029257e+00 9.772067e+00 1.424604e+01 1.571882e+01 1.562483e+01 1.771427e+01 1.796652e+01 1.631208e+01 1.653293e+01 1.670230e+01 1.467496e+01 2.232731e-01 3.147975e-01 4.354749e-01 6.157870e-01 8.480073e-01 1.055964e+00 1.171573e+00 1.223997e+00 1.218554e+00 1.188428e+00 1.158890e+00 1.108595e+00 9.907864e-07
<GCONST> 6.055373e+01
<MIXTURE> 119 4.297961e-03
<MEAN> 25
 -4.991369e+00 -7.639965e+00 2.204487e+00 2.046685e+00 2.254395e+00 2.124241e-01 5.286515e+00 5.909334e+00 1.188102e+00 9.749519e-01 6.581590e+00 1.540858e+00 -4.923011e-02 -7.663415e-02 3.609473e-02 -5.646823e-02 -1.256818e-01 -1.744457e-01 -7.095898e-02 -1.983058e-02 -9.183668e-02 -1.100558e-01 -4.577034e-02 -6.016676e-02 1.099233e-03
<VARIANCE> 25
 8.538858e+00 9.790277e+00 1.676550e+01 2.031839e+01 2.286350e+01 2.337424e+01 2.503738e+01 2.674495e+01 2.508549e+01 2.810753e+01 2.075263e+01 2.053928e+01 1.602388e-01 2.841597e-01 4.588763e-01 6.355280e-01 8.025947e-01 1.009084e+00 1.097798e+00 1.291366e+00 1.280894e+00 1.246903e+00 1.210361e+00 1.108719e+00 2.307091e-04
<GCONST> 6.980958e+01
<MIXTURE> 120 4.297961e-03
<MEAN> 25
 -4.991369e+00 -7.639965e+00 2.204487e+00 2.046685e+00 2.254395e+00 2.124241e-01 5.286515e+00 5.909334e+00 1.188102e+00 9.749519e-01 6.581590e+00 1.540858e+00 -4.923011e-02 -7.663415e-02 3.609473e-02 -5.646823e-02 -1.256818e-01 -1.744457e-01 -7.095898e-02 -1.983058e-02 -9.183668e-02 -1.100558e-01 -4.577034e-02 -6.016676e-02 1.099233e-03
<VARIANCE> 25
 8.538858e+00 9.790277e+00 1.676550e+01 2.031839e+01 2.286350e+01 2.337424e+01 2.503738e+01 2.674495e+01 2.508549e+01 2.810753e+01 2.075263e+01 2.053928e+01 1.602388e-01 2.841597e-01 4.588763e-01 6.355280e-01 8.025947e-01 1.009084e+00 1.097798e+00 1.291366e+00 1.280894e+00 1.246903e+00 1.210361e+00 1.108719e+00 2.307091e-04
<GCONST> 6.980958e+01
<MIXTURE> 121 4.567511e-03
<MEAN> 25
 2.074964e-01 -2.524012e+00 5.153263e+00 -1.290326e+01 -1.264689e+01 -1.665214e+00 9.989504e-01 -5.107801e+00 -4.199427e+00 -4.899806e-01 -5.508050e+00 -4.313338e+00 2.410370e-02 1.323658e-01 -4.149543e-02 7.962478e-02 1.585143e-01 7.846437e-02 -7.942359e-02 -1.832200e-01 -2.685326e-01 -2.576512e-01 -1.145161e-01 9.181199e-04 -7.434082e-03
<VARIANCE> 25
 7.732639e+00 1.560589e+01 1.727573e+01 2.035750e+01 2.441031e+01 2.925116e+01 2.953889e+01 2.457755e+01 3.528794e+01 2.833920e+01 1.974621e+01 2.118016e+01 1.549991e-01 6.430969e-01 6.230602e-01 7.048418e-01 7.706043e-01 1.149956e+00 1.118103e+00 1.120875e+00 1.217460e+00 1.192660e+00 9.416311e-01 8.719059e-01 2.108308e-04
<GCONST> 7.139254e+01
<MIXTURE> 122 4.567511e-03
<MEAN> 25
 2.074964e-01 -2.524012e+00 5.153263e+00 -1.290326e+01 -1.264689e+01 -1.665214e+00 9.989504e-01 -5.107801e+00 -4.199427e+00 -4.899806e-01 -5.508050e+00 -4.313338e+00 2.410370e-02 1.323658e-01 -4.149543e-02 7.962478e-02 1.585143e-01 7.846437e-02 -7.942359e-02 -1.832200e-01 -2.685326e-01 -2.576512e-01 -1.145161e-01 9.181199e-04 -7.434082e-03
<VARIANCE> 25
 7.732639e+00 1.560589e+01 1.727573e+01 2.035750e+01 2.441031e+01 2.925116e+01 2.953889e+01 2.457755e+01 3.528794e+01 2.833920e+01 1.974621e+01 2.118016e+01 1.549991e-01 6.430969e-01 6.230602e-01 7.048418e-01 7.706043e-01 1.149956e+00 1.118103e+00 1.120875e+00 1.217460e+00 1.192660e+00 9.416311e-01 8.719059e-01 2.108308e-04
<GCONST> 7.139254e+01
<MIXTURE> 123 4.393044e-03
<MEAN> 25
 -4.249938e+00 9.425343e-01 7.811199e-02 6.205228e+00 5.282630e+00 3.444840e+00 3.323566e+00 4.243401e-01 2.845911e-01 -5.253287e-01 -2.477181e-03 7.880753e-01 -4.810407e-01 -7.703455e-01 -8.684011e-01 -6.241512e-01 -2.635541e-01 7.330498e-02 3.757536e-01 6.486886e-01 7.864409e-01 7.594169e-01 7.193363e-01 5.299532e-01 -2.830590e-03
<VARIANCE> 25
 1.060620e+01 1.042274e+01 1.574788e+01 1.727004e+01 2.221063e+01 2.776974e+01 2.193655e+01 1.909906e+01 1.944475e+01 1.763452e+01 2.221241e+01 1.982832e+01 3.812701e-01 3.711564e-01 5.154822e-01 7.185866e-01 9.816216e-01 1.173427e+00 1.212542e+00 1.191372e+00 1.170239e+00 1.209889e+00 1.205833e+00 1.197325e+00 9.943164e-05
<GCONST> 6.970521e+01
<MIXTURE> 124 4.069876e-03
<MEAN> 25
 -6.609210e+00 -1.154976e+00 -2.926955e+00 5.091257e+00 5.006215e+00 3.329903e+00 5.404795e+00 2.531343e+00 3.227379e+00 1.274205e+00 1.145275e+00 3.032227e+00 -2.068534e-01 -3.222374e-01 -3.575241e-01 -2.102619e-01 1.244093e-01 5.247395e-01 8.106202e-01 8.561901e-01 6.442212e-01 3.216941e-01 7.779170e-02 -7.808493e-03 4.194331e-05
<VARIANCE> 25
 1.112322e+01 7.271614e+00 1.108969e+01 1.235365e+01 1.214144e+01 2.002499e+01 1.540420e+01 1.708331e+01 1.543465e+01 1.594930e+01 1.914110e+01 1.433778e+01 1.044965e-01 1.673386e-01 2.705559e-01 4.193826e-01 5.947884e-01 7.071418e-01 7.422127e-01 8.103254e-01 9.174337e-01 9.803802e-01 1.003080e+00 1.019924e+00 1.781245e-05
<GCONST> 5.883113e+01
<MIXTURE> 125 4.069876e-03
<MEAN> 25
 -6.609210e+00 -1.154976e+00 -2.926955e+00 5.091257e+00 5.006215e+00 3.329903e+00 5.404795e+00 2.531343e+00 3.227379e+00 1.274205e+00 1.145275e+00 3.032227e+00 -2.068534e-01 -3.222374e-01 -3.575241e-01 -2.102619e-01 1.244093e-01 5.247395e-01 8.106202e-01 8.561901e-01 6.442212e-01 3.216941e-01 7.779170e-02 -7.808493e-03 4.194331e-05
<VARIANCE> 25
 1.112322e+01 7.271614e+00 1.108969e+01 1.235365e+01 1.214144e+01 2.002499e+01 1.540420e+01 1.708331e+01 1.543465e+01 1.594930e+01 1.914110e+01 1.433778e+01 1.044965e-01 1.673386e-01 2.705559e-01 4.193826e-01 5.947884e-01 7.071418e-01 7.422127e-01 8.103254e-01 9.174337e-01 9.803802e-01 1.003080e+00 1.019924e+00 1.781245e-05
<GCONST> 5.883113e+01
<MIXTURE> 126 2.402244e-03
<MEAN> 25
 -3.832240e+00 -6.871006e+00 -5.330475e+00 2.365032e+00 4.338373e+00 -3.289157e+00 1.095361e-01 3.548688e+00 3.443536e+00 -2.642735e+00 -1.432933e+00 2.946163e+00 7.974428e-05 -8.240896e-03 -4.055356e-02 -1.539633e-01 -3.210245e-01 -3.926846e-01 -2.784488e-01 -1.620924e-01 -1.150882e-01 -1.150658e-01 -9.295459e-02 -3.478359e-02 -1.459077e-03
<VARIANCE> 25
 7.548098e+00 1.310818e+01 1.392628e+01 1.525589e+01 2.485365e+01 2.384941e+01 2.281668e+01 2.822964e+01 3.181150e+01 2.645588e+01 2.204882e+01 1.978281e+01 1.758633e-01 3.535949e-01 4.837323e-01 5.739074e-01 7.651352e-01 1.002808e+00 1.123090e+00 1.265609e+00 1.316893e+00 1.313880e+00 1.236114e+00 1.137530e+00 2.079279e-04
<GCONST> 7.000457e+01
<MIXTURE> 127 2.402244e-03
<MEAN> 25
 -3.832240e+00 -6.871006e+00 -5.330475e+00 2.365032e+00 4.338373e+00 -3.289157e+00 1.095361e-01 3.548688e+00 3.443536e+00 -2.642735e+00 -1.432933e+00 2.946163e+00 7.974428e-05 -8.240896e-03 -4.055356e-02 -1.539633e-01 -3.210245e-01 -3.926846e-01 -2.784488e-01 -1.620924e-01 -1.150882e-01 -1.150658e-01 -9.295459e-02 -3.478359e-02 -1.459077e-03
<VARIANCE> 25
 7.548098e+00 1.310818e+01 1.392628e+01 1.525589e+01 2.485365e+01 2.384941e+01 2.281668e+01 2.822964e+01 3.181150e+01 2.645588e+01 2.204882e+01 1.978281e+01 1.758633e-01 3.535949e-01 4.837323e-01 5.739074e-01 7.651352e-01 1.002808e+00 1.123090e+00 1.265609e+00 1.316893e+00 1.313880e+00 1.236114e+00 1.137530e+00 2.079279e-04
<GCONST> 7.000457e+01
<MIXTURE> 128 3.790457e-03
<MEAN> 25
 -5.455932e+00 1.989277e+00 -9.869249e-01 6.284267e+00 5.238741e+00 5.139998e-02 4.577576e+00 1.754358e+00 4.805317e+00 3.195358e+00 4.455906e+00 3.392524e+00 -3.855024e-01 -1.314097e-01 1.839818e-01 3.152007e-01 1.067920e+00 1.011428e+00 6.183915e-01 9.661642e-03 -5.075490e-01 -8.885099e-01 -6.359972e-01 -1.877712e-01 -3.522250e-05
<VARIANCE> 25
 1.136405e+01 1.181165e+01 1.673142e+01 1.877203e+01 2.585470e+01 2.857394e+01 2.364332e+01 2.107659e+01 2.967376e+01 2.021570e+01 2.256220e+01 1.773163e+01 9.045812e-01 1.737839e+00 1.236700e+00 1.462119e+00 1.278029e+00 1.556068e+00 1.915269e+00 2.000785e+00 2.271322e+00 1.620952e+00 1.470390e+00 1.930988e+00 7.008814e-07
<GCONST> 7.305231e+01
<TRANSP> 3
 0.000000e+00 1.000000e+00 0.000000e+00
 0.000000e+00 9.999990e-01 9.999998e-07
 0.000000e+00 0.000000e+00 0.000000e+00
<ENDHMM>
