~o
<STREAMINFO> 1 25
<VECSIZE> 25<NULLD><MFCC_E_D_N><DIAGC>
~h "jmodel"
<BEGINHMM>
<NUMSTATES> 3
<STATE> 2
<NUMMIXES> 128
<MIXTURE> 1 5.748963e-03
<MEAN> 25
 -2.588549e+00 3.185488e+00 2.309685e+00 8.757068e+00 4.380465e+00 3.445529e+00 4.067388e+00 3.933379e+00 5.831276e+00 5.250627e+00 5.878989e+00 3.078504e+00 -2.004020e+00 -1.633114e+00 -8.617653e-01 1.075321e+00 1.557630e+00 2.230875e+00 2.155332e+00 2.081659e+00 1.690969e+00 1.268727e+00 1.565300e+00 6.136904e-01 -4.687825e-02
<VARIANCE> 25
 1.008849e+01 1.176804e+01 1.495388e+01 1.866941e+01 2.323182e+01 2.215373e+01 2.190232e+01 2.198320e+01 2.098853e+01 2.252875e+01 2.097180e+01 1.708639e+01 1.788544e+00 2.113483e+00 3.035929e+00 3.207693e+00 3.747113e+00 3.358245e+00 3.317195e+00 3.390959e+00 3.529138e+00 3.733113e+00 3.518115e+00 2.832803e+00 3.128285e-03
<GCONST> 8.848487e+01
<MIXTURE> 2 4.549242e-03
<MEAN> 25
 -4.950490e+00 1.379044e+00 1.014048e+00 9.899779e+00 6.788045e+00 7.357093e+00 7.805581e+00 6.984813e+00 8.332520e+00 6.353401e+00 7.586486e+00 3.102330e+00 -6.142989e-02 3.827772e-02 1.358614e-01 2.164295e-01 2.717630e-01 2.707377e-01 2.779779e-01 3.134223e-01 3.457802e-01 3.051865e-01 1.863339e-01 7.540791e-02 1.291719e-06
<VARIANCE> 25
 7.304794e+00 9.146418e+00 1.055017e+01 1.574115e+01 1.774328e+01 1.572925e+01 1.714200e+01 1.840304e+01 1.669212e+01 1.722333e+01 1.819105e+01 1.429050e+01 1.242638e-01 2.255438e-01 3.373436e-01 4.685095e-01 6.456092e-01 8.146065e-01 9.450276e-01 1.002545e+00 1.078615e+00 1.067032e+00 1.088440e+00 1.015702e+00 9.874900e-07
<GCONST> 5.816526e+01
<MIXTURE> 3 4.549242e-03
<MEAN> 25
 -4.950490e+00 1.379044e+00 1.014048e+00 9.899779e+00 6.788045e+00 7.357093e+00 7.805581e+00 6.984813e+00 8.332520e+00 6.353401e+00 7.586486e+00 3.102330e+00 -6.142989e-02 3.827772e-02 1.358614e-01 2.164295e-01 2.717630e-01 2.707377e-01 2.779779e-01 3.134223e-01 3.457802e-01 3.051865e-01 1.863339e-01 7.540791e-02 1.291719e-06
<VARIANCE> 25
 7.304794e+00 9.146418e+00 1.055017e+01 1.574115e+01 1.774328e+01 1.572925e+01 1.714200e+01 1.840304e+01 1.669212e+01 1.722333e+01 1.819105e+01 1.429050e+01 1.242638e-01 2.255438e-01 3.373436e-01 4.685095e-01 6.456092e-01 8.146065e-01 9.450276e-01 1.002545e+00 1.078615e+00 1.067032e+00 1.088440e+00 1.015702e+00 9.874900e-07
<GCONST> 5.816526e+01
<MIXTURE> 4 1.671429e-02
<MEAN> 25
 1.583263e+00 3.437573e+00 -4.664055e+00 3.474164e-01 4.626410e+00 1.810005e+00 2.885801e+00 -2.053424e-01 4.321027e+00 3.424821e+00 -2.578688e+00 -1.722931e+00 -2.852611e+00 1.355059e+00 1.249497e+00 2.763887e+00 1.310041e+00 -9.696043e-01 1.339911e+00 1.083742e+00 -3.475928e-01 -6.599913e-01 4.080493e-01 5.095966e-01 -7.868619e-02
<VARIANCE> 25
 2.286874e+01 2.627071e+01 2.345051e+01 2.853944e+01 5.096115e+01 5.348021e+01 7.749782e+01 6.798368e+01 5.739404e+01 4.531522e+01 3.840012e+01 2.559923e+01 2.968814e+00 5.901212e+00 4.689077e+00 4.938267e+00 5.458101e+00 7.213479e+00 5.020297e+00 4.088958e+00 6.886683e+00 4.893050e+00 7.091234e+00 3.134479e+00 5.286630e-03
<GCONST> 1.041620e+02
<MIXTURE> 5 3.206198e-03
<MEAN> 25
 -4.623538e+00 2.992646e+00 -7.504554e-01 8.294958e+00 8.647883e+00 4.219069e+00 6.661889e+00 4.488741e+00 6.706206e+00 3.504333e+00 2.935199e+00 1.915321e+00 -5.024558e-01 9.111628e-01 1.218893e+00 8.534277e-01 2.966598e-01 1.243483e-01 -4.105277e-03 -2.541232e-01 7.078365e-02 9.427004e-01 5.876308e-01 1.836622e-01 -1.504463e-06
<VARIANCE> 25
 1.038144e+01 1.313981e+01 2.396548e+01 2.663289e+01 1.974431e+01 2.004539e+01 1.804401e+01 1.833319e+01 2.762639e+01 1.855231e+01 2.500414e+01 1.505303e+01 1.131942e+00 1.165283e+00 1.331990e+00 1.581532e+00 1.762358e+00 1.951935e+00 3.357851e+00 1.964989e+00 2.766450e+00 2.439230e+00 1.692997e+00 1.649817e+00 6.780174e-07
<GCONST> 7.415027e+01
<MIXTURE> 6 5.475854e-03
<MEAN> 25
 9.930585e+00 -9.191975e-01 -5.925067e+00 -1.060864e+01 -4.871829e+00 7.748714e+00 -3.592515e+00 -4.659671e+00 -2.997853e+00 2.733444e+00 4.505396e+00 -1.656469e+00 5.037225e-01 8.352782e-01 -4.617515e-01 -1.176440e+00 -9.461818e-01 1.376483e+00 1.711575e+00 -2.341723e-01 -8.367962e-01 -1.136172e+00 3.417470e-01 1.020090e+00 -5.837230e-03
<VARIANCE> 25
 7.652927e+00 1.713997e+01 1.955530e+01 4.039779e+01 4.652211e+01 3.840680e+01 4.676815e+01 3.569244e+01 3.125716e+01 3.293827e+01 3.291325e+01 2.556409e+01 3.399506e-01 9.669068e-01 1.100539e+00 1.799336e+00 1.627339e+00 1.826803e+00 2.208066e+00 2.774715e+00 2.362880e+00 1.994903e+00 1.999552e+00 1.283181e+00 4.918360e-04
<GCONST> 8.342386e+01
<MIXTURE> 7 5.475854e-03
<MEAN> 25
 9.930585e+00 -9.191975e-01 -5.925067e+00 -1.060864e+01 -4.871829e+00 7.748714e+00 -3.592515e+00 -4.659671e+00 -2.997853e+00 2.733444e+00 4.505396e+00 -1.656469e+00 5.037225e-01 8.352782e-01 -4.617515e-01 -1.176440e+00 -9.461818e-01 1.376483e+00 1.711575e+00 -2.341723e-01 -8.367962e-01 -1.136172e+00 3.417470e-01 1.020090e+00 -5.837230e-03
<VARIANCE> 25
 7.652927e+00 1.713997e+01 1.955530e+01 4.039779e+01 4.652211e+01 3.840680e+01 4.676815e+01 3.569244e+01 3.125716e+01 3.293827e+01 3.291325e+01 2.556409e+01 3.399506e-01 9.669068e-01 1.100539e+00 1.799336e+00 1.627339e+00 1.826803e+00 2.208066e+00 2.774715e+00 2.362880e+00 1.994903e+00 1.999552e+00 1.283181e+00 4.918360e-04
<GCONST> 8.342386e+01
<MIXTURE> 8 1.165917e-02
<MEAN> 25
 -5.760730e+00 2.654335e+00 1.725546e+00 9.330684e+00 8.757491e+00 5.896139e+00 7.164516e+00 5.380210e+00 7.210783e+00 5.395092e+00 5.609507e+00 3.287629e+00 -6.757325e-01 -1.688956e+00 -9.728996e-01 -2.011864e+00 -5.691466e-01 -1.285560e+00 -5.808233e-01 8.089776e-03 -2.862423e-01 -2.851575e-02 -1.865720e-01 1.919187e-01 9.478205e-02
<VARIANCE> 25
 1.146539e+01 1.285520e+01 1.456630e+01 1.418472e+01 2.918309e+01 1.363258e+01 1.922888e+01 1.428709e+01 1.877120e+01 1.542863e+01 1.779273e+01 1.211900e+01 2.589959e+00 2.998402e+00 4.014368e+00 3.700895e+00 3.511145e+00 3.613958e+00 3.871052e+00 3.095912e+00 2.990628e+00 2.865621e+00 2.472310e+00 1.597112e+00 6.632979e-03
<GCONST> 8.719327e+01
<MIXTURE> 9 1.199672e-02
<MEAN> 25
 9.362892e+00 3.350772e+00 -3.232960e+00 -8.970061e+00 -5.315905e+00 5.672375e+00 -5.714115e-02 -3.240969e+00 -4.423222e+00 -8.049728e-01 1.035774e+00 1.392548e+00 1.350557e+00 -3.435511e-01 -7.197183e-01 -2.884488e+00 -2.120770e+00 1.222072e+00 -1.374117e+00 1.095281e+00 3.661229e-01 -2.088509e-01 1.004341e+00 -5.601686e-01 7.826980e-02
<VARIANCE> 25
 8.299762e+00 1.639575e+01 2.504970e+01 4.500812e+01 5.532143e+01 3.231881e+01 3.767666e+01 3.682499e+01 4.235342e+01 2.413648e+01 3.484229e+01 2.560316e+01 1.889369e+00 3.080066e+00 3.389385e+00 4.207669e+00 3.640620e+00 3.726923e+00 3.288559e+00 7.604044e+00 7.522426e+00 2.289244e+00 2.742853e+00 2.694387e+00 4.428176e-03
<GCONST> 9.600738e+01
<MIXTURE> 10 6.596976e-03
<MEAN> 25
 9.638436e-01 7.653355e+00 5.270777e+00 6.936480e+00 1.524377e+00 -2.100577e+00 -4.877845e-03 -1.700377e+00 6.888106e-01 7.968907e-01 5.913630e-01 5.136648e-01 -1.900505e+00 -7.271757e-01 -4.978715e-01 3.022315e+00 2.375682e+00 2.632248e+00 2.360862e+00 2.256567e+00 1.854266e+00 1.499081e+00 2.176895e+00 4.538380e-01 -1.389061e-01
<VARIANCE> 25
 1.965956e+01 2.008910e+01 2.194909e+01 3.019924e+01 3.724883e+01 3.392572e+01 4.133644e+01 3.286566e+01 2.779433e+01 2.866733e+01 2.803012e+01 2.470182e+01 2.299507e+00 3.574433e+00 5.428135e+00 5.022531e+00 5.889968e+00 4.547437e+00 4.857154e+00 4.766073e+00 4.527211e+00 4.982458e+00 5.044657e+00 3.233115e+00 2.626458e-03
<GCONST> 9.780646e+01
<MIXTURE> 11 1.633820e-02
<MEAN> 25
 8.543378e+00 2.461396e+00 4.662826e+00 5.545691e+00 -2.675333e+00 -1.253354e+00 -6.248648e-01 -9.146872e+00 -7.661550e+00 -1.188739e+00 -9.693608e-01 -3.589016e-01 -2.915104e-01 5.663663e-01 4.263086e-02 2.835791e-01 4.338348e-01 -8.310655e-02 5.575720e-01 -2.108834e-01 -2.668244e-01 -3.146085e-01 -4.166284e-01 4.249674e-01 -1.445204e-02
<VARIANCE> 25
 1.154907e+01 1.934588e+01 2.066722e+01 3.387397e+01 3.903067e+01 4.599690e+01 5.556153e+01 4.548666e+01 9.906772e+01 3.768580e+01 3.273660e+01 2.636236e+01 8.070132e-01 1.036337e+00 1.471705e+00 1.961299e+00 2.085340e+00 2.670413e+00 2.589297e+00 4.061763e+00 3.124608e+00 1.626826e+00 1.940401e+00 1.416446e+00 7.170601e-04
<GCONST> 8.856867e+01
<MIXTURE> 12 5.904134e-03
<MEAN> 25
 1.087862e+01 2.759052e+00 -4.927645e+00 -1.484867e+01 -1.067392e+01 9.725908e+00 1.308532e+00 -3.316841e+00 -9.104891e-01 -3.666281e+00 2.753116e+00 9.694152e-02 2.733154e-03 3.756046e-01 -4.897023e-02 -3.982519e-01 -2.021771e-01 8.735913e-02 5.399430e-01 1.870653e-01 3.696626e-01 -4.657356e-01 -1.002457e-01 4.637969e-02 -4.883878e-03
<VARIANCE> 25
 6.836884e+00 1.907489e+01 2.054110e+01 3.501918e+01 4.462088e+01 3.084840e+01 5.105133e+01 5.073878e+01 3.709674e+01 3.507145e+01 3.103042e+01 2.489471e+01 3.062545e-01 6.612084e-01 6.487161e-01 1.066723e+00 1.169254e+00 1.198053e+00 1.254821e+00 1.458117e+00 1.175070e+00 1.159518e+00 1.592420e+00 8.560837e-01 4.579684e-04
<GCONST> 7.820979e+01
<MIXTURE> 13 5.904134e-03
<MEAN> 25
 1.087862e+01 2.759052e+00 -4.927645e+00 -1.484867e+01 -1.067392e+01 9.725908e+00 1.308532e+00 -3.316841e+00 -9.104891e-01 -3.666281e+00 2.753116e+00 9.694152e-02 2.733154e-03 3.756046e-01 -4.897023e-02 -3.982519e-01 -2.021771e-01 8.735913e-02 5.399430e-01 1.870653e-01 3.696626e-01 -4.657356e-01 -1.002457e-01 4.637969e-02 -4.883878e-03
<VARIANCE> 25
 6.836884e+00 1.907489e+01 2.054110e+01 3.501918e+01 4.462088e+01 3.084840e+01 5.105133e+01 5.073878e+01 3.709674e+01 3.507145e+01 3.103042e+01 2.489471e+01 3.062545e-01 6.612084e-01 6.487161e-01 1.066723e+00 1.169254e+00 1.198053e+00 1.254821e+00 1.458117e+00 1.175070e+00 1.159518e+00 1.592420e+00 8.560837e-01 4.579684e-04
<GCONST> 7.820979e+01
<MIXTURE> 14 6.488954e-03
<MEAN> 25
 -4.691438e+00 3.836172e-01 -4.804620e-01 8.830424e+00 8.168288e+00 6.826514e+00 8.067868e+00 7.239553e+00 7.012765e+00 4.825984e+00 6.608542e+00 4.128823e+00 -3.356942e-01 2.973856e-01 2.848239e-01 2.055494e-01 -3.888048e-02 5.195320e-02 1.768164e-01 1.294617e-01 2.399962e-01 5.567816e-01 6.155595e-01 1.300317e-01 -7.306220e-03
<VARIANCE> 25
 1.014078e+01 1.765299e+01 1.913777e+01 1.674227e+01 2.258609e+01 2.119579e+01 2.032894e+01 1.924287e+01 1.903134e+01 2.384357e+01 2.079976e+01 1.453563e+01 9.901670e-01 1.775539e+00 1.962536e+00 1.965072e+00 2.128078e+00 2.615789e+00 2.228352e+00 2.184346e+00 2.111888e+00 2.441720e+00 2.479518e+00 1.766123e+00 9.841016e-04
<GCONST> 8.228018e+01
<MIXTURE> 15 2.475190e-03
<MEAN> 25
 -5.424202e+00 -6.442107e-01 -2.011765e-01 7.368069e+00 5.719889e+00 5.701243e+00 6.060538e+00 4.979708e+00 5.164810e+00 4.154445e+00 5.502354e+00 2.539963e+00 -1.212187e-01 -2.918787e-02 7.503873e-02 2.436733e-01 4.893637e-01 7.865102e-01 1.072452e+00 1.182146e+00 1.059297e+00 7.561552e-01 4.196676e-01 1.534176e-01 -8.261038e-05
<VARIANCE> 25
 6.984342e+00 5.607551e+00 9.032675e+00 1.281339e+01 1.407895e+01 1.429996e+01 1.492021e+01 1.489827e+01 1.410012e+01 1.418396e+01 1.510169e+01 1.250850e+01 1.247688e-01 2.061958e-01 3.198381e-01 5.030861e-01 6.996590e-01 7.936870e-01 7.631685e-01 7.915978e-01 9.090477e-01 1.023952e+00 1.071484e+00 1.041230e+00 2.795507e-05
<GCONST> 5.858795e+01
<MIXTURE> 16 2.475190e-03
<MEAN> 25
 -5.424202e+00 -6.442107e-01 -2.011765e-01 7.368069e+00 5.719889e+00 5.701243e+00 6.060538e+00 4.979708e+00 5.164810e+00 4.154445e+00 5.502354e+00 2.539963e+00 -1.212187e-01 -2.918787e-02 7.503873e-02 2.436733e-01 4.893637e-01 7.865102e-01 1.072452e+00 1.182146e+00 1.059297e+00 7.561552e-01 4.196676e-01 1.534176e-01 -8.261038e-05
<VARIANCE> 25
 6.984342e+00 5.607551e+00 9.032675e+00 1.281339e+01 1.407895e+01 1.429996e+01 1.492021e+01 1.489827e+01 1.410012e+01 1.418396e+01 1.510169e+01 1.250850e+01 1.247688e-01 2.061958e-01 3.198381e-01 5.030861e-01 6.996590e-01 7.936870e-01 7.631685e-01 7.915978e-01 9.090477e-01 1.023952e+00 1.071484e+00 1.041230e+00 2.795507e-05
<GCONST> 5.858795e+01
<MIXTURE> 17 9.518312e-03
<MEAN> 25
 4.004681e+00 -5.342135e-01 6.645447e+00 1.114027e+00 -6.318377e+00 -7.563807e+00 -3.105857e+00 7.596963e-01 -3.416314e+00 -4.145865e+00 -2.036200e-01 1.247310e+00 -9.528797e-01 -1.290413e+00 1.650623e+00 -2.593550e+00 -2.727908e+00 2.427067e-01 -5.794034e-01 1.845599e+00 5.042875e-01 3.983451e-01 8.694977e-01 3.470223e-01 7.118458e-02
<VARIANCE> 25
 1.291181e+01 2.487676e+01 2.688238e+01 4.320189e+01 4.029595e+01 4.388532e+01 3.662897e+01 3.130036e+01 3.367039e+01 2.624883e+01 2.319806e+01 2.492426e+01 1.691460e+00 2.084030e+00 3.368291e+00 2.760964e+00 4.496686e+00 5.307622e+00 5.200955e+00 6.105186e+00 5.585002e+00 3.938441e+00 2.820502e+00 2.245899e+00 1.762958e-03
<GCONST> 9.515928e+01
<MIXTURE> 18 1.221018e-02
<MEAN> 25
 4.179322e+00 4.737087e+00 7.329629e+00 3.801528e+00 -4.120312e+00 -8.033987e+00 -6.396246e-01 -1.224164e+00 -5.415896e+00 -3.187173e+00 -1.097818e+00 5.823427e-01 -8.960262e-01 2.077786e+00 -5.277059e-01 1.805530e+00 3.003836e+00 1.172794e+00 1.033554e+00 -4.360237e-02 1.100561e+00 6.649985e-01 -6.405048e-01 -3.510112e-01 -1.155818e-01
<VARIANCE> 25
 1.694124e+01 2.353863e+01 3.354342e+01 2.706672e+01 3.524176e+01 3.250689e+01 6.285397e+01 3.485705e+01 6.490946e+01 3.740751e+01 3.175113e+01 2.745913e+01 2.681366e+00 2.774710e+00 4.495715e+00 4.465248e+00 3.800100e+00 5.049871e+00 5.594723e+00 5.473755e+00 6.438498e+00 4.296042e+00 4.808669e+00 3.537296e+00 3.830732e-03
<GCONST> 1.000193e+02
<MIXTURE> 19 9.912824e-03
<MEAN> 25
 -1.102160e+01 3.024198e-01 -6.901384e-01 1.232952e+00 5.870067e+00 1.379065e+00 2.997324e+00 3.020254e-01 1.809597e+00 1.055469e+00 5.469035e-01 2.607263e+00 2.252735e+00 1.860098e+00 2.422806e+00 7.193025e-01 -1.157232e+00 -7.330918e-01 -6.966600e-01 -1.393197e+00 -1.494368e+00 -9.949113e-01 -5.285702e-01 -7.537590e-01 3.908844e-03
<VARIANCE> 25
 6.109222e+01 3.302005e+01 4.503927e+01 4.124268e+01 2.632496e+01 3.122414e+01 3.812280e+01 2.863839e+01 2.258458e+01 2.429727e+01 2.882182e+01 2.684515e+01 4.462904e+00 1.908407e+00 1.970751e+00 2.612098e+00 1.743574e+00 2.490514e+00 2.361914e+00 2.058018e+00 2.161918e+00 2.648593e+00 1.620461e+00 1.785620e+00 1.974899e-03
<GCONST> 9.116010e+01
<MIXTURE> 20 6.308331e-03
<MEAN> 25
 -1.610079e+01 7.942803e+00 2.600871e-01 6.634384e+00 5.078716e+00 1.864640e+00 6.284751e+00 4.568942e-01 1.486224e+00 1.232166e+00 1.079776e+00 8.225189e-01 -3.467806e+00 -9.422164e-01 -2.374513e+00 2.442121e-01 1.680144e+00 2.088927e+00 2.427721e+00 1.959989e+00 1.858846e+00 2.060462e+00 1.359575e+00 6.276000e-01 5.175698e-02
<VARIANCE> 25
 2.631249e+01 2.010991e+01 2.996603e+01 3.106767e+01 2.874802e+01 3.017201e+01 3.026374e+01 2.541642e+01 2.315826e+01 2.441305e+01 2.458816e+01 1.954318e+01 2.168130e+00 2.009098e+00 3.914958e+00 3.150538e+00 2.713708e+00 2.169776e+00 4.133196e+00 1.848102e+00 2.021591e+00 2.727591e+00 2.117669e+00 1.785704e+00 1.647792e-03
<GCONST> 8.939679e+01
<MIXTURE> 21 7.928653e-03
<MEAN> 25
 3.149096e+00 -4.549862e+00 8.329266e+00 -3.869293e+00 -1.114416e+01 -8.895244e+00 -2.879691e+00 7.808099e+00 -2.069738e+00 -1.125013e+00 -2.322524e+00 1.112483e+00 -9.219939e-01 1.749481e+00 3.246204e+00 -4.911333e-01 -1.454768e+00 -2.777007e-01 4.626726e-01 -1.470958e+00 -1.858514e+00 4.388268e-01 8.768152e-01 1.358631e+00 -1.520431e-02
<VARIANCE> 25
 8.718205e+00 1.751433e+01 3.321836e+01 2.489133e+01 2.040460e+01 2.476657e+01 3.655513e+01 4.157695e+01 3.100270e+01 2.744414e+01 2.982646e+01 2.019433e+01 4.623509e-01 1.613945e+00 2.497298e+00 1.336720e+00 1.735097e+00 2.385497e+00 3.095170e+00 2.354856e+00 1.411607e+00 2.624649e+00 1.727471e+00 3.863147e+00 3.651246e-04
<GCONST> 8.400365e+01
<MIXTURE> 22 8.827789e-03
<MEAN> 25
 -1.867460e+01 7.475804e+00 -5.205529e+00 8.885603e+00 6.692666e+00 7.854037e-01 8.904141e+00 2.159794e+00 5.336984e+00 2.675092e+00 4.376156e+00 1.711165e+00 -3.824063e-01 -4.492455e-01 -5.378036e-01 4.608549e-02 1.990350e-01 -3.273838e-01 1.050092e-01 4.547496e-01 1.253292e-01 -2.862386e-03 3.837657e-01 2.550746e-01 4.517644e-03
<VARIANCE> 25
 1.721638e+01 1.699886e+01 1.936988e+01 2.232902e+01 2.626962e+01 2.447440e+01 1.852456e+01 1.586627e+01 1.462606e+01 1.877717e+01 1.985677e+01 1.589723e+01 1.097230e+00 1.297042e+00 1.883209e+00 1.326170e+00 1.362156e+00 1.819901e+00 1.544604e+00 1.453220e+00 1.272298e+00 1.480723e+00 1.536058e+00 1.471867e+00 1.317276e-03
<GCONST> 7.901648e+01
<MIXTURE> 23 6.455497e-03
<MEAN> 25
 9.100348e+00 1.267095e+00 3.271114e+00 4.988943e+00 -1.640299e+00 -5.108747e+00 -1.746421e+00 -7.654267e+00 -7.781454e+00 -2.704566e+00 -2.861946e+00 -1.086566e+00 3.960742e-02 2.105157e-01 5.942825e-04 8.084787e-02 -9.559852e-02 4.506210e-03 2.574561e-01 -7.566572e-02 -1.546201e-01 8.753144e-02 -8.342304e-02 6.321020e-02 -3.804099e-03
<VARIANCE> 25
 9.494325e+00 1.810309e+01 1.843644e+01 4.301276e+01 4.734376e+01 5.400626e+01 5.558626e+01 4.142292e+01 6.430907e+01 3.992629e+01 3.774866e+01 3.057739e+01 9.752355e-02 2.323622e-01 3.228059e-01 4.117032e-01 5.520431e-01 5.760527e-01 6.828503e-01 7.311640e-01 8.197245e-01 8.931867e-01 6.645869e-01 8.083994e-01 6.464108e-05
<GCONST> 7.003452e+01
<MIXTURE> 24 6.455497e-03
<MEAN> 25
 9.100348e+00 1.267095e+00 3.271114e+00 4.988943e+00 -1.640299e+00 -5.108747e+00 -1.746421e+00 -7.654267e+00 -7.781454e+00 -2.704566e+00 -2.861946e+00 -1.086566e+00 3.960742e-02 2.105157e-01 5.942825e-04 8.084787e-02 -9.559852e-02 4.506210e-03 2.574561e-01 -7.566572e-02 -1.546201e-01 8.753144e-02 -8.342304e-02 6.321020e-02 -3.804099e-03
<VARIANCE> 25
 9.494325e+00 1.810309e+01 1.843644e+01 4.301276e+01 4.734376e+01 5.400626e+01 5.558626e+01 4.142292e+01 6.430907e+01 3.992629e+01 3.774866e+01 3.057739e+01 9.752355e-02 2.323622e-01 3.228059e-01 4.117032e-01 5.520431e-01 5.760527e-01 6.828503e-01 7.311640e-01 8.197245e-01 8.931867e-01 6.645869e-01 8.083994e-01 6.464108e-05
<GCONST> 7.003452e+01
<MIXTURE> 25 1.118642e-02
<MEAN> 25
 -7.797061e-02 3.325204e+00 1.786860e+01 -2.724375e+00 -1.054791e+01 -4.594021e+00 -8.027165e+00 -2.776964e-01 -7.281599e+00 -5.775559e+00 2.567632e+00 1.036812e+00 -1.833579e-01 4.814117e-01 3.795208e-01 2.174788e-01 4.952559e-01 3.081003e-01 2.758865e-01 -3.153755e-01 -3.405247e-01 -2.459563e-01 1.661251e-01 -1.393713e-01 -1.105089e-02
<VARIANCE> 25
 6.252538e+00 2.176598e+01 2.148705e+01 2.483201e+01 2.371745e+01 3.666151e+01 4.115063e+01 3.023517e+01 2.159523e+01 3.784587e+01 2.409792e+01 2.668062e+01 5.369751e-01 1.221777e+00 1.322924e+00 1.415422e+00 2.483085e+00 2.097434e+00 1.402606e+00 1.542168e+00 1.512142e+00 2.908921e+00 1.039994e+00 1.092716e+00 9.126639e-04
<GCONST> 8.144365e+01
<MIXTURE> 26 7.727677e-03
<MEAN> 25
 1.857482e+00 -5.002115e+00 -9.966990e+00 1.901196e+00 5.431256e+00 8.757380e+00 7.558649e+00 -3.239179e+00 5.303380e+00 1.495235e+00 -4.494242e+00 -2.217684e+00 -9.932099e-01 3.530977e-01 1.733444e-01 5.371496e-01 7.773706e-01 1.876155e-01 1.700045e-01 5.885600e-01 1.303684e-01 -8.920211e-02 3.245361e-01 1.167561e-01 -5.874301e-02
<VARIANCE> 25
 2.525719e+01 2.837398e+01 2.320874e+01 4.268264e+01 3.850950e+01 6.419100e+01 4.526784e+01 3.916629e+01 3.622194e+01 3.975734e+01 4.058758e+01 3.401146e+01 1.824610e+00 2.086890e+00 1.881878e+00 1.889871e+00 2.121766e+00 2.410340e+00 3.470709e+00 3.168211e+00 1.821838e+00 2.239039e+00 2.516976e+00 2.110777e+00 2.132487e-03
<GCONST> 9.277653e+01
<MIXTURE> 27 7.727677e-03
<MEAN> 25
 1.857482e+00 -5.002115e+00 -9.966990e+00 1.901196e+00 5.431256e+00 8.757380e+00 7.558649e+00 -3.239179e+00 5.303380e+00 1.495235e+00 -4.494242e+00 -2.217684e+00 -9.932099e-01 3.530977e-01 1.733444e-01 5.371496e-01 7.773706e-01 1.876155e-01 1.700045e-01 5.885600e-01 1.303684e-01 -8.920211e-02 3.245361e-01 1.167561e-01 -5.874301e-02
<VARIANCE> 25
 2.525719e+01 2.837398e+01 2.320874e+01 4.268264e+01 3.850950e+01 6.419100e+01 4.526784e+01 3.916629e+01 3.622194e+01 3.975734e+01 4.058758e+01 3.401146e+01 1.824610e+00 2.086890e+00 1.881878e+00 1.889871e+00 2.121766e+00 2.410340e+00 3.470709e+00 3.168211e+00 1.821838e+00 2.239039e+00 2.516976e+00 2.110777e+00 2.132487e-03
<GCONST> 9.277653e+01
<MIXTURE> 28 5.036674e-03
<MEAN> 25
 -5.491172e+00 1.601038e-01 -1.596693e+00 6.641224e+00 5.526649e+00 3.391503e+00 5.310862e+00 3.185588e+00 3.984772e+00 2.240612e+00 2.472255e+00 3.150191e+00 -1.155457e-01 2.366742e-01 5.407399e-01 7.656843e-01 8.142983e-01 7.138984e-01 5.092736e-01 3.886783e-01 4.597457e-01 5.143917e-01 3.528347e-01 2.083787e-01 -4.671787e-06
<VARIANCE> 25
 1.040144e+01 9.663829e+00 1.268867e+01 1.494195e+01 1.655646e+01 1.790553e+01 1.808895e+01 1.874289e+01 1.758955e+01 1.700756e+01 2.097146e+01 1.463763e+01 2.575911e-01 3.575657e-01 4.207940e-01 4.588148e-01 6.465518e-01 8.386046e-01 1.203555e+00 1.126581e+00 1.088269e+00 1.079597e+00 1.050245e+00 1.058173e+00 9.708965e-07
<GCONST> 6.083237e+01
<MIXTURE> 29 5.036674e-03
<MEAN> 25
 -5.491172e+00 1.601038e-01 -1.596693e+00 6.641224e+00 5.526649e+00 3.391503e+00 5.310862e+00 3.185588e+00 3.984772e+00 2.240612e+00 2.472255e+00 3.150191e+00 -1.155457e-01 2.366742e-01 5.407399e-01 7.656843e-01 8.142983e-01 7.138984e-01 5.092736e-01 3.886783e-01 4.597457e-01 5.143917e-01 3.528347e-01 2.083787e-01 -4.671787e-06
<VARIANCE> 25
 1.040144e+01 9.663829e+00 1.268867e+01 1.494195e+01 1.655646e+01 1.790553e+01 1.808895e+01 1.874289e+01 1.758955e+01 1.700756e+01 2.097146e+01 1.463763e+01 2.575911e-01 3.575657e-01 4.207940e-01 4.588148e-01 6.465518e-01 8.386046e-01 1.203555e+00 1.126581e+00 1.088269e+00 1.079597e+00 1.050245e+00 1.058173e+00 9.708965e-07
<GCONST> 6.083237e+01
<MIXTURE> 30 8.917812e-03
<MEAN> 25
 -4.537954e+00 -1.483725e-01 6.669608e-01 9.096633e+00 7.821742e+00 7.471481e+00 7.567904e+00 6.893263e+00 6.529689e+00 4.894598e+00 6.990108e+00 3.513935e+00 -2.336873e-02 2.903468e-02 5.349263e-02 8.468827e-02 8.613838e-02 4.040162e-02 5.658213e-03 -5.662167e-03 1.456005e-02 5.059300e-02 5.780507e-02 3.386593e-02 -5.517324e-04
<VARIANCE> 25
 7.157207e+00 1.011342e+01 1.035710e+01 1.367242e+01 1.593447e+01 1.651989e+01 1.922641e+01 1.812462e+01 1.627865e+01 1.825975e+01 2.128596e+01 1.432148e+01 9.708584e-02 1.989357e-01 3.246258e-01 4.806897e-01 6.186886e-01 7.218379e-01 7.771574e-01 8.131198e-01 8.948755e-01 9.315923e-01 9.257137e-01 8.638183e-01 5.060722e-05
<GCONST> 6.065633e+01
<MIXTURE> 31 4.136493e-03
<MEAN> 25
 -3.309851e+00 -5.993981e+00 -3.419096e-01 4.616614e+00 4.224327e+00 1.401889e+00 4.806952e+00 7.126442e+00 3.263056e+00 7.342839e-01 6.209518e+00 3.034497e+00 2.397146e-01 5.427584e-01 -2.004389e-01 2.585976e-01 1.232788e-01 4.819373e-01 1.580922e-01 -2.071611e-03 3.146577e-01 2.806519e-01 2.661031e-02 1.605345e-01 -2.007426e-02
<VARIANCE> 25
 6.706037e+00 1.560622e+01 1.862377e+01 1.784067e+01 2.805336e+01 2.372203e+01 2.496333e+01 2.702717e+01 2.833527e+01 3.007630e+01 2.074562e+01 1.784250e+01 1.817764e-01 5.345694e-01 5.709333e-01 7.575155e-01 9.583738e-01 1.153242e+00 1.225352e+00 1.363694e+00 1.352121e+00 1.427594e+00 1.277821e+00 1.128392e+00 2.848543e-04
<GCONST> 7.238416e+01
<MIXTURE> 32 4.136493e-03
<MEAN> 25
 -3.309851e+00 -5.993981e+00 -3.419096e-01 4.616614e+00 4.224327e+00 1.401889e+00 4.806952e+00 7.126442e+00 3.263056e+00 7.342839e-01 6.209518e+00 3.034497e+00 2.397146e-01 5.427584e-01 -2.004389e-01 2.585976e-01 1.232788e-01 4.819373e-01 1.580922e-01 -2.071611e-03 3.146577e-01 2.806519e-01 2.661031e-02 1.605345e-01 -2.007426e-02
<VARIANCE> 25
 6.706037e+00 1.560622e+01 1.862377e+01 1.784067e+01 2.805336e+01 2.372203e+01 2.496333e+01 2.702717e+01 2.833527e+01 3.007630e+01 2.074562e+01 1.784250e+01 1.817764e-01 5.345694e-01 5.709333e-01 7.575155e-01 9.583738e-01 1.153242e+00 1.225352e+00 1.363694e+00 1.352121e+00 1.427594e+00 1.277821e+00 1.128392e+00 2.848543e-04
<GCONST> 7.238416e+01
<MIXTURE> 33 1.508826e-02
<MEAN> 25
 5.930413e+00 -3.548667e+00 -2.419977e+00 -2.992148e+00 -2.283320e+00 -4.441301e+00 -7.343876e+00 2.347871e+00 2.923576e+00 -3.087254e-01 -3.206509e+00 -4.132029e+00 5.776607e-01 -1.474916e+00 -2.246334e+00 -1.486999e+00 7.860494e-01 1.609950e+00 -8.036775e-01 1.459714e+00 1.596238e+00 5.151294e-01 -3.512200e-01 -1.808493e+00 3.682800e-02
<VARIANCE> 25
 1.025969e+01 2.820333e+01 3.211109e+01 2.887104e+01 3.732764e+01 4.333858e+01 3.558807e+01 5.635912e+01 3.692549e+01 3.503997e+01 3.273187e+01 2.628623e+01 1.286361e+00 2.779635e+00 2.425611e+00 2.415025e+00 3.938934e+00 3.023575e+00 4.328413e+00 7.773828e+00 6.640621e+00 3.245219e+00 2.626046e+00 2.477687e+00 1.176075e-03
<GCONST> 9.459480e+01
<MIXTURE> 34 1.588179e-02
<MEAN> 25
 9.042127e+00 -6.050153e-01 2.282216e+00 1.158110e+00 -3.364745e+00 -3.039859e-01 -4.206724e+00 -6.491769e+00 -5.433858e+00 -9.780124e-01 7.385733e-01 -2.697899e+00 2.124982e-01 1.024269e+00 1.093634e+00 2.451520e+00 2.304549e-01 2.482195e-01 2.766128e+00 -3.806033e+00 -2.250614e+00 -8.537337e-01 -5.066704e-01 1.408558e+00 -4.990276e-02
<VARIANCE> 25
 7.256616e+00 1.936705e+01 2.923396e+01 4.739944e+01 3.503089e+01 4.217473e+01 7.031353e+01 7.388067e+01 1.138238e+02 4.025363e+01 3.118300e+01 3.639063e+01 1.506770e+00 1.543567e+00 3.457791e+00 3.719064e+00 5.480588e+00 6.559065e+00 6.807509e+00 7.455632e+00 6.475470e+00 4.317262e+00 4.090906e+00 5.191390e+00 6.868204e-04
<GCONST> 9.945406e+01
<MIXTURE> 35 1.467755e-02
<MEAN> 25
 -4.825178e+00 -5.747070e+00 -1.103684e+01 1.347454e+00 9.744781e+00 1.975824e+00 3.097684e+00 1.730774e+00 2.943474e+00 5.044542e+00 -1.287887e+00 1.017103e+00 5.341033e-01 -1.175873e+00 -1.710474e+00 -1.536362e+00 4.105573e-01 -1.254132e+00 -1.102151e+00 2.675663e-01 -2.609401e-01 6.524272e-01 -6.292471e-01 -5.513676e-01 8.652680e-02
<VARIANCE> 25
 3.443205e+01 2.632410e+01 3.593658e+01 4.678589e+01 3.355662e+01 9.172694e+01 4.870063e+01 3.781925e+01 5.177484e+01 3.172576e+01 3.592519e+01 4.456147e+01 3.297777e+00 3.746044e+00 5.850640e+00 4.229186e+00 4.762982e+00 5.315095e+00 4.193886e+00 4.839916e+00 5.530693e+00 3.686794e+00 3.448641e+00 3.160381e+00 7.965656e-03
<GCONST> 1.030522e+02
<MIXTURE> 36 1.093293e-02
<MEAN> 25
 5.013866e+00 -3.673583e+00 9.514327e+00 2.138579e+00 -9.108137e+00 -9.715461e+00 -1.117250e+01 4.860973e+00 -3.280206e+00 -5.159356e+00 2.575876e+00 9.699489e-01 3.605767e-01 1.722564e-01 -7.401327e-01 -2.748083e-01 6.211724e-01 4.159541e-02 -6.747107e-01 1.493870e-01 4.037416e-01 6.729574e-01 -2.264559e-01 -4.557535e-01 -9.532245e-03
<VARIANCE> 25
 7.342084e+00 1.206551e+01 1.978155e+01 2.546839e+01 2.014710e+01 2.537432e+01 5.752939e+01 2.898269e+01 3.234184e+01 2.138853e+01 1.845007e+01 2.000746e+01 5.951993e-01 7.718523e-01 1.533517e+00 1.469881e+00 1.223731e+00 2.312258e+00 1.984432e+00 1.603579e+00 1.567242e+00 1.884699e+00 1.404350e+00 1.648257e+00 5.256250e-04
<GCONST> 7.936334e+01
<MIXTURE> 37 1.246826e-02
<MEAN> 25
 3.085255e-01 7.581890e+00 1.293833e+01 -5.714880e+00 -7.386779e+00 -2.066793e+00 -5.563551e+00 -6.647976e+00 -4.480161e+00 -1.887678e+00 -2.943516e+00 -3.817679e-01 -1.670824e-01 7.074256e-01 -1.475392e+00 3.584677e+00 2.003431e+00 -3.201894e-01 1.470219e+00 1.911176e-01 7.917383e-01 -1.682495e-01 3.761429e-01 -1.931373e-01 -8.803473e-02
<VARIANCE> 25
 1.473439e+01 2.929576e+01 4.174714e+01 4.391577e+01 3.276406e+01 3.302504e+01 5.092754e+01 4.512558e+01 3.675892e+01 4.448188e+01 3.579601e+01 2.995653e+01 3.145195e+00 3.351684e+00 2.811131e+00 3.625482e+00 4.194153e+00 3.342858e+00 5.112459e+00 4.165687e+00 3.504103e+00 3.432745e+00 3.965644e+00 2.415605e+00 4.003287e-03
<GCONST> 9.823423e+01
<MIXTURE> 38 1.154525e-02
<MEAN> 25
 -6.336941e+00 1.067802e+01 3.217842e+00 4.995572e+00 2.586852e+00 -5.237578e+00 -1.230239e+00 -3.470177e+00 -1.524915e+00 -3.409038e+00 -1.057976e+00 2.227329e-02 -4.708542e+00 1.306913e+00 -1.134985e+00 2.401282e+00 2.815965e+00 7.851744e-01 2.157067e+00 2.234309e-01 1.034065e+00 8.434399e-01 4.455686e-01 4.953839e-01 3.951280e-02
<VARIANCE> 25
 2.936800e+01 2.644803e+01 8.226495e+01 3.172751e+01 3.660613e+01 2.651767e+01 4.566225e+01 3.588506e+01 2.441369e+01 3.392617e+01 2.758133e+01 2.484195e+01 2.018331e+00 4.234833e+00 7.831448e+00 5.936659e+00 3.622441e+00 5.772272e+00 8.849171e+00 3.607251e+00 5.151358e+00 5.484322e+00 3.786893e+00 2.168489e+00 1.944904e-03
<GCONST> 9.969034e+01
<MIXTURE> 39 9.501865e-03
<MEAN> 25
 1.253314e+00 2.903087e+00 1.104949e+01 -9.409739e+00 -1.128532e+01 -1.880578e+00 -3.530163e+00 -5.498053e+00 -4.620224e+00 4.837829e-01 -4.076958e+00 -1.621052e+00 -7.692384e-01 1.613755e+00 1.795684e+00 -1.239506e+00 2.080421e-01 1.156645e+00 -1.158904e+00 -1.375905e+00 2.469084e-01 1.483852e-01 -4.070214e-01 1.722901e-01 -4.581240e-04
<VARIANCE> 25
 8.450368e+00 2.901335e+01 3.742942e+01 3.578349e+01 3.485101e+01 4.846736e+01 4.457557e+01 4.418807e+01 3.664992e+01 3.352855e+01 3.567248e+01 3.223865e+01 6.638370e-01 1.570456e+00 1.765954e+00 2.958903e+00 2.465146e+00 2.660859e+00 2.855186e+00 2.749526e+00 2.618018e+00 3.436909e+00 2.068803e+00 1.946419e+00 1.129543e-03
<GCONST> 9.026842e+01
<MIXTURE> 40 1.030800e-02
<MEAN> 25
 -1.044706e+01 2.543379e+00 -1.325860e+00 8.554070e+00 4.844395e+00 4.651328e+00 6.039035e+00 4.219792e+00 4.603158e+00 4.128291e+00 5.057967e+00 2.125689e+00 -1.164523e-01 -2.868121e-01 -1.107232e-02 -2.288805e-01 -1.204297e-01 -1.321072e-01 7.759078e-02 8.975392e-02 -6.044488e-02 -5.858978e-03 5.677024e-02 1.108492e-01 3.807882e-03
<VARIANCE> 25
 4.717838e+01 2.154083e+01 3.692721e+01 2.488247e+01 2.858876e+01 2.263926e+01 2.297202e+01 1.891198e+01 1.580971e+01 2.049031e+01 1.971391e+01 1.622811e+01 7.745272e-01 8.472746e-01 9.101673e-01 1.005392e+00 1.087334e+00 1.335134e+00 1.463067e+00 1.394967e+00 1.246459e+00 1.268016e+00 1.204030e+00 1.119123e+00 7.968740e-04
<GCONST> 7.798670e+01
<MIXTURE> 41 6.713375e-03
<MEAN> 25
 1.446771e+00 1.604765e+00 1.053628e+01 -6.978402e+00 -1.057383e+01 -3.988952e+00 -2.476423e+00 -4.563144e+00 -4.716660e+00 2.493591e+00 -1.672737e+00 -7.991477e-01 6.327534e-02 -8.034203e-01 1.745854e+00 -3.549352e+00 -2.479294e+00 -6.007490e-02 -5.211734e-01 -1.895853e-01 -7.643405e-01 1.160109e+00 -1.000422e+00 4.766700e-02 8.461007e-02
<VARIANCE> 25
 1.178362e+01 2.947594e+01 3.194986e+01 3.880015e+01 3.827256e+01 4.042291e+01 3.625766e+01 3.461566e+01 3.214343e+01 2.838379e+01 3.092418e+01 2.666160e+01 3.090631e+00 3.236346e+00 3.755885e+00 3.661533e+00 4.759832e+00 5.783172e+00 4.571037e+00 5.069632e+00 4.160231e+00 4.192459e+00 3.796726e+00 3.154289e+00 2.978055e-03
<GCONST> 9.783715e+01
<MIXTURE> 42 1.106211e-02
<MEAN> 25
 -3.274099e+00 5.481553e+00 4.652207e+00 2.945168e+00 8.142835e-01 -7.091281e+00 -2.249748e+00 -1.913643e+00 -3.178803e-01 -9.533595e-01 -2.670683e+00 1.712478e+00 5.298962e+00 -1.170668e+00 2.009565e+00 -3.702316e-01 -3.826741e+00 -7.009776e-01 -2.573439e+00 -1.414221e-01 -3.063687e-01 -9.310081e-01 9.789476e-01 -1.638087e+00 2.174615e-02
<VARIANCE> 25
 4.248703e+01 3.301207e+01 6.821915e+01 1.980340e+01 3.725015e+01 4.158901e+01 2.807180e+01 3.811594e+01 2.985066e+01 2.500452e+01 1.801354e+01 1.333175e+01 4.145779e+00 4.912661e+00 5.808591e+00 8.580192e+00 3.587481e+00 8.090675e+00 4.853705e+00 4.891117e+00 5.544861e+00 6.468037e+00 4.839980e+00 3.114252e+00 3.260870e-03
<GCONST> 1.008439e+02
<MIXTURE> 43 7.108249e-03
<MEAN> 25
 3.279318e+00 -6.336495e+00 -2.266001e+00 -5.121841e+00 -7.497499e+00 -3.297899e+00 4.066819e+00 1.405406e+00 -4.985811e+00 -6.905316e+00 -4.277500e+00 -1.300599e+00 2.386691e-01 2.167039e+00 1.913736e+00 -1.590724e-01 -1.418549e+00 -7.885596e-01 -9.551392e-01 -7.950240e-01 7.901242e-01 1.466840e+00 3.424583e-01 6.539661e-02 -4.484796e-02
<VARIANCE> 25
 1.036619e+01 1.947105e+01 2.711424e+01 3.509959e+01 3.857576e+01 3.784596e+01 3.337074e+01 4.048784e+01 3.942259e+01 4.044220e+01 2.669653e+01 2.935279e+01 6.939781e-01 1.243889e+00 1.598669e+00 2.497235e+00 2.372047e+00 2.373544e+00 2.630416e+00 3.011894e+00 2.631514e+00 2.539734e+00 2.313102e+00 2.025484e+00 9.342202e-04
<GCONST> 8.814898e+01
<MIXTURE> 44 7.328289e-03
<MEAN> 25
 -1.645791e+01 1.482664e+00 4.473542e+00 -2.756510e+00 4.576059e+00 1.037341e+00 4.987290e-01 2.061120e+00 2.384169e+00 -1.925180e-01 1.837421e+00 2.777210e+00 -2.237181e-01 6.254218e-02 2.260366e-01 3.526527e-01 -3.937840e-02 8.514307e-02 5.066739e-01 -9.386283e-02 2.536972e-01 1.753281e-01 -2.299994e-02 1.644253e-01 3.661206e-03
<VARIANCE> 25
 4.324903e+01 2.540207e+01 3.857340e+01 3.065660e+01 3.371440e+01 3.261769e+01 2.724520e+01 3.124069e+01 3.634247e+01 3.092715e+01 2.864752e+01 3.213658e+01 1.424237e+00 1.913160e+00 1.522969e+00 1.286310e+00 2.019506e+00 1.737153e+00 1.324833e+00 1.813062e+00 1.442942e+00 1.584968e+00 1.298226e+00 1.354420e+00 1.429580e-03
<GCONST> 8.627068e+01
<MIXTURE> 45 1.364932e-02
<MEAN> 25
 -1.495841e+01 3.469821e+00 -2.526603e+00 4.856506e+00 7.410796e+00 -8.740864e-01 5.601181e+00 2.507866e+00 3.270329e+00 1.567903e+00 7.145761e-01 3.111099e+00 -2.768332e+00 5.187517e-01 -3.593607e-01 9.963741e-02 6.579922e-01 -8.466025e-02 2.659858e-01 1.201097e-01 3.359573e-01 6.455600e-01 3.447953e-01 3.275556e-01 1.098200e-01
<VARIANCE> 25
 4.245374e+01 3.312740e+01 3.624002e+01 3.985177e+01 2.982214e+01 2.163276e+01 2.442820e+01 2.017228e+01 1.790974e+01 1.807035e+01 2.065649e+01 1.599760e+01 2.181454e+00 2.410904e+00 4.207695e+00 3.572585e+00 2.893403e+00 2.450455e+00 3.446127e+00 2.211271e+00 2.079807e+00 2.469944e+00 1.720854e+00 1.594341e+00 4.725759e-03
<GCONST> 9.037138e+01
<MIXTURE> 46 9.336259e-03
<MEAN> 25
 -1.241802e+01 3.334800e+00 1.078260e+00 1.001713e+01 9.850657e+00 2.870049e+00 9.530668e+00 2.379388e+00 5.143401e+00 4.415941e+00 3.785154e+00 3.613800e+00 1.280067e+00 2.530352e-01 3.573173e-01 5.778953e-02 3.175740e-01 1.357234e+00 3.540126e-01 5.518075e-01 4.090664e-01 3.722625e-01 2.642195e-01 8.842851e-01 -9.284783e-02
<VARIANCE> 25
 3.562149e+01 3.349254e+01 7.943600e+01 3.752261e+01 4.325586e+01 3.419372e+01 3.466518e+01 4.569205e+01 2.616458e+01 3.049571e+01 2.514221e+01 2.745374e+01 4.194467e+00 3.654376e+00 5.131404e+00 4.101614e+00 4.036458e+00 3.058155e+00 3.749801e+00 4.029279e+00 3.762986e+00 3.205389e+00 2.284003e+00 1.909069e+00 1.087298e-02
<GCONST> 9.936300e+01
<MIXTURE> 47 7.116147e-03
<MEAN> 25
 7.459553e+00 -7.314247e+00 -7.584589e+00 -5.824539e+00 -8.253161e-01 3.098440e+00 -3.332508e+00 1.580882e+00 4.048407e+00 1.032996e+00 -3.402580e+00 -7.452183e+00 8.180214e-03 -1.394967e+00 -7.599637e-01 -5.043550e-02 5.686636e-01 8.418542e-01 9.801772e-01 6.095752e-01 -8.317141e-02 -7.425947e-01 -8.193541e-01 -6.648043e-01 2.375893e-02
<VARIANCE> 25
 7.896055e+00 1.663867e+01 2.065195e+01 3.148096e+01 3.873333e+01 5.079234e+01 5.065559e+01 4.080592e+01 4.088076e+01 4.293087e+01 4.131919e+01 3.202526e+01 5.817599e-01 9.695392e-01 1.148133e+00 2.357010e+00 2.237539e+00 2.092633e+00 3.006038e+00 3.068439e+00 2.126694e+00 2.110229e+00 2.289654e+00 1.977405e+00 5.874658e-04
<GCONST> 8.693899e+01
<MIXTURE> 48 7.116147e-03
<MEAN> 25
 7.459553e+00 -7.314247e+00 -7.584589e+00 -5.824539e+00 -8.253161e-01 3.098440e+00 -3.332508e+00 1.580882e+00 4.048407e+00 1.032996e+00 -3.402580e+00 -7.452183e+00 8.180214e-03 -1.394967e+00 -7.599637e-01 -5.043550e-02 5.686636e-01 8.418542e-01 9.801772e-01 6.095752e-01 -8.317141e-02 -7.425947e-01 -8.193541e-01 -6.648043e-01 2.375893e-02
<VARIANCE> 25
 7.896055e+00 1.663867e+01 2.065195e+01 3.148096e+01 3.873333e+01 5.079234e+01 5.065559e+01 4.080592e+01 4.088076e+01 4.293087e+01 4.131919e+01 3.202526e+01 5.817599e-01 9.695392e-01 1.148133e+00 2.357010e+00 2.237539e+00 2.092633e+00 3.006038e+00 3.068439e+00 2.126694e+00 2.110229e+00 2.289654e+00 1.977405e+00 5.874658e-04
<GCONST> 8.693899e+01
<MIXTURE> 49 5.548473e-03
<MEAN> 25
 -5.274897e+00 6.325529e-01 2.660717e-01 8.567323e+00 6.412363e+00 5.426712e+00 6.063087e+00 4.485684e+00 5.036830e+00 3.745064e+00 4.823580e+00 3.005074e+00 3.654436e-01 6.386776e-01 6.857443e-01 3.292243e-01 -1.726403e-01 -6.495609e-01 -1.011681e+00 -1.130392e+00 -1.005795e+00 -6.615258e-01 -4.649759e-01 -2.363685e-01 -1.926120e-05
<VARIANCE> 25
 9.995086e+00 1.138986e+01 1.388433e+01 1.552095e+01 1.680627e+01 1.731092e+01 1.883518e+01 1.874011e+01 1.772454e+01 1.734036e+01 2.015892e+01 1.438255e+01 2.723436e-01 2.598299e-01 3.567731e-01 6.012785e-01 8.549477e-01 9.449442e-01 9.745804e-01 1.018669e+00 1.178250e+00 1.184248e+00 1.253171e+00 1.189972e+00 1.375448e-05
<GCONST> 6.412205e+01
<MIXTURE> 50 6.234641e-03
<MEAN> 25
 -4.734116e+00 2.241257e-01 -1.415729e+00 6.266481e+00 4.406491e+00 2.266679e+00 3.677113e+00 2.011494e+00 2.785849e+00 1.347854e+00 2.076880e+00 2.831044e+00 5.615722e-02 1.813907e-01 1.078643e-01 -1.729671e-01 -4.802183e-01 -5.959523e-01 -4.586318e-01 -5.165251e-02 4.409164e-01 7.718040e-01 7.267228e-01 4.489172e-01 -1.246702e-05
<VARIANCE> 25
 1.068699e+01 1.234438e+01 1.464932e+01 1.565773e+01 1.663229e+01 1.835015e+01 1.857264e+01 1.931241e+01 1.868323e+01 1.735645e+01 2.159365e+01 1.495791e+01 1.421643e-01 2.371378e-01 3.909922e-01 5.075984e-01 6.492819e-01 7.390326e-01 1.021273e+00 1.099520e+00 1.049074e+00 8.964154e-01 9.138223e-01 9.804193e-01 9.793035e-07
<GCONST> 5.979400e+01
<MIXTURE> 51 6.234641e-03
<MEAN> 25
 -4.734116e+00 2.241257e-01 -1.415729e+00 6.266481e+00 4.406491e+00 2.266679e+00 3.677113e+00 2.011494e+00 2.785849e+00 1.347854e+00 2.076880e+00 2.831044e+00 5.615722e-02 1.813907e-01 1.078643e-01 -1.729671e-01 -4.802183e-01 -5.959523e-01 -4.586318e-01 -5.165251e-02 4.409164e-01 7.718040e-01 7.267228e-01 4.489172e-01 -1.246702e-05
<VARIANCE> 25
 1.068699e+01 1.234438e+01 1.464932e+01 1.565773e+01 1.663229e+01 1.835015e+01 1.857264e+01 1.931241e+01 1.868323e+01 1.735645e+01 2.159365e+01 1.495791e+01 1.421643e-01 2.371378e-01 3.909922e-01 5.075984e-01 6.492819e-01 7.390326e-01 1.021273e+00 1.099520e+00 1.049074e+00 8.964154e-01 9.138223e-01 9.804193e-01 9.793035e-07
<GCONST> 5.979400e+01
<MIXTURE> 52 6.367945e-03
<MEAN> 25
 9.896968e+00 1.123418e+00 -5.874100e+00 -1.190802e+01 -7.348566e+00 1.015436e+01 8.922006e-02 -3.801067e+00 -1.900938e+00 -8.241844e-01 4.215552e+00 1.777125e-01 -5.459083e-01 -5.350887e-01 -1.556106e-01 1.225554e+00 1.555652e+00 -5.018546e-01 -9.577131e-01 -6.797486e-01 2.234353e-01 1.255129e+00 3.408377e-02 -3.591354e-01 -1.026175e-02
<VARIANCE> 25
 7.197619e+00 1.692062e+01 2.171285e+01 3.662392e+01 3.899847e+01 3.207096e+01 5.372626e+01 4.464796e+01 3.570472e+01 3.386441e+01 2.938205e+01 2.582667e+01 4.210989e-01 1.481580e+00 1.007199e+00 2.040400e+00 1.858737e+00 2.064143e+00 2.676649e+00 2.748651e+00 2.365595e+00 2.150047e+00 2.826874e+00 1.770245e+00 1.144979e-03
<GCONST> 8.612469e+01
<MIXTURE> 53 6.367945e-03
<MEAN> 25
 9.896968e+00 1.123418e+00 -5.874100e+00 -1.190802e+01 -7.348566e+00 1.015436e+01 8.922006e-02 -3.801067e+00 -1.900938e+00 -8.241844e-01 4.215552e+00 1.777125e-01 -5.459083e-01 -5.350887e-01 -1.556106e-01 1.225554e+00 1.555652e+00 -5.018546e-01 -9.577131e-01 -6.797486e-01 2.234353e-01 1.255129e+00 3.408377e-02 -3.591354e-01 -1.026175e-02
<VARIANCE> 25
 7.197619e+00 1.692062e+01 2.171285e+01 3.662392e+01 3.899847e+01 3.207096e+01 5.372626e+01 4.464796e+01 3.570472e+01 3.386441e+01 2.938205e+01 2.582667e+01 4.210989e-01 1.481580e+00 1.007199e+00 2.040400e+00 1.858737e+00 2.064143e+00 2.676649e+00 2.748651e+00 2.365595e+00 2.150047e+00 2.826874e+00 1.770245e+00 1.144979e-03
<GCONST> 8.612469e+01
<MIXTURE> 54 7.368620e-03
<MEAN> 25
 -3.655630e+00 6.731901e-02 -7.111191e-01 8.024530e+00 6.573682e+00 4.598968e+00 4.619032e+00 4.632721e+00 4.096406e+00 3.551710e+00 4.397743e+00 2.359054e+00 -1.726012e-03 2.808130e-02 2.902998e-02 4.694170e-02 5.196517e-02 4.682330e-02 2.992902e-02 2.649939e-02 3.250232e-02 2.297935e-02 8.528495e-03 1.269389e-03 -1.207266e-05
<VARIANCE> 25
 9.235932e+00 1.046434e+01 9.521351e+00 1.810047e+01 1.399703e+01 1.347278e+01 1.237833e+01 1.130685e+01 1.152366e+01 1.380798e+01 1.823119e+01 1.253471e+01 4.100240e-02 8.737282e-02 1.565132e-01 2.256664e-01 3.063601e-01 3.947679e-01 4.649595e-01 5.224020e-01 5.610005e-01 5.168760e-01 5.160163e-01 5.140266e-01 9.898968e-07
<GCONST> 4.745630e+01
<MIXTURE> 55 7.368620e-03
<MEAN> 25
 -3.655630e+00 6.731901e-02 -7.111191e-01 8.024530e+00 6.573682e+00 4.598968e+00 4.619032e+00 4.632721e+00 4.096406e+00 3.551710e+00 4.397743e+00 2.359054e+00 -1.726012e-03 2.808130e-02 2.902998e-02 4.694170e-02 5.196517e-02 4.682330e-02 2.992902e-02 2.649939e-02 3.250232e-02 2.297935e-02 8.528495e-03 1.269389e-03 -1.207266e-05
<VARIANCE> 25
 9.235932e+00 1.046434e+01 9.521351e+00 1.810047e+01 1.399703e+01 1.347278e+01 1.237833e+01 1.130685e+01 1.152366e+01 1.380798e+01 1.823119e+01 1.253471e+01 4.100240e-02 8.737282e-02 1.565132e-01 2.256664e-01 3.063601e-01 3.947679e-01 4.649595e-01 5.224020e-01 5.610005e-01 5.168760e-01 5.160163e-01 5.140266e-01 9.898968e-07
<GCONST> 4.745630e+01
<MIXTURE> 56 6.132464e-03
<MEAN> 25
 7.526406e+00 -6.620550e+00 -9.026484e+00 -8.515569e+00 3.721769e+00 4.180939e+00 -2.090540e+00 -1.553958e+00 2.216905e+00 8.857289e-01 -2.761890e+00 -7.019879e+00 -1.726880e-02 4.465555e-02 -7.991705e-02 -6.157712e-03 3.274740e-01 6.331851e-02 9.777567e-02 -1.326050e-01 -6.266496e-02 -1.974897e-02 -1.134857e-01 7.212115e-03 -7.752458e-03
<VARIANCE> 25
 9.074758e+00 2.430725e+01 2.025589e+01 4.216157e+01 3.355468e+01 5.087724e+01 6.851642e+01 3.997906e+01 4.031188e+01 3.776390e+01 4.129698e+01 3.286764e+01 2.048902e-01 4.326964e-01 4.666791e-01 7.839741e-01 9.178385e-01 1.151740e+00 9.228841e-01 9.001026e-01 9.378793e-01 9.102681e-01 1.059974e+00 7.954953e-01 2.490273e-04
<GCONST> 7.580734e+01
<MIXTURE> 57 6.132464e-03
<MEAN> 25
 7.526406e+00 -6.620550e+00 -9.026484e+00 -8.515569e+00 3.721769e+00 4.180939e+00 -2.090540e+00 -1.553958e+00 2.216905e+00 8.857289e-01 -2.761890e+00 -7.019879e+00 -1.726880e-02 4.465555e-02 -7.991705e-02 -6.157712e-03 3.274740e-01 6.331851e-02 9.777567e-02 -1.326050e-01 -6.266496e-02 -1.974897e-02 -1.134857e-01 7.212115e-03 -7.752458e-03
<VARIANCE> 25
 9.074758e+00 2.430725e+01 2.025589e+01 4.216157e+01 3.355468e+01 5.087724e+01 6.851642e+01 3.997906e+01 4.031188e+01 3.776390e+01 4.129698e+01 3.286764e+01 2.048902e-01 4.326964e-01 4.666791e-01 7.839741e-01 9.178385e-01 1.151740e+00 9.228841e-01 9.001026e-01 9.378793e-01 9.102681e-01 1.059974e+00 7.954953e-01 2.490273e-04
<GCONST> 7.580734e+01
<MIXTURE> 58 6.172147e-03
<MEAN> 25
 2.397970e+00 -2.957708e+00 9.239124e+00 -5.990109e+00 -1.341895e+01 -5.935349e+00 5.960791e-01 3.165649e+00 -3.055090e+00 1.305376e+00 3.660475e-01 -1.721009e-01 3.745447e-02 -1.984599e-01 3.603342e-02 -2.246440e-01 7.061051e-04 2.380472e-01 1.920699e-01 3.583020e-01 -2.743501e-02 3.753718e-02 -2.273715e-02 -1.884055e-01 -2.557994e-03
<VARIANCE> 25
 6.037951e+00 1.181749e+01 2.448133e+01 2.701887e+01 1.921046e+01 3.702287e+01 3.018912e+01 4.050027e+01 3.007932e+01 2.548720e+01 1.797110e+01 1.954257e+01 3.453671e-01 9.952508e-01 9.227687e-01 1.060523e+00 9.504157e-01 1.204905e+00 1.156428e+00 1.280116e+00 1.106117e+00 9.799054e-01 7.933996e-01 8.006052e-01 6.424065e-04
<GCONST> 7.460291e+01
<MIXTURE> 59 6.172147e-03
<MEAN> 25
 2.397970e+00 -2.957708e+00 9.239124e+00 -5.990109e+00 -1.341895e+01 -5.935349e+00 5.960791e-01 3.165649e+00 -3.055090e+00 1.305376e+00 3.660475e-01 -1.721009e-01 3.745447e-02 -1.984599e-01 3.603342e-02 -2.246440e-01 7.061051e-04 2.380472e-01 1.920699e-01 3.583020e-01 -2.743501e-02 3.753718e-02 -2.273715e-02 -1.884055e-01 -2.557994e-03
<VARIANCE> 25
 6.037951e+00 1.181749e+01 2.448133e+01 2.701887e+01 1.921046e+01 3.702287e+01 3.018912e+01 4.050027e+01 3.007932e+01 2.548720e+01 1.797110e+01 1.954257e+01 3.453671e-01 9.952508e-01 9.227687e-01 1.060523e+00 9.504157e-01 1.204905e+00 1.156428e+00 1.280116e+00 1.106117e+00 9.799054e-01 7.933996e-01 8.006052e-01 6.424065e-04
<GCONST> 7.460291e+01
<MIXTURE> 60 4.479129e-03
<MEAN> 25
 -4.264400e+00 -6.651337e-01 -1.085060e+00 3.697022e+00 1.732442e+00 2.118515e+00 1.637031e+00 1.531711e+00 2.159173e+00 1.264057e+00 2.385370e+00 1.916122e+00 -2.850292e-02 5.653246e-02 1.010553e-01 1.301768e-01 1.294506e-01 1.292972e-01 1.788031e-01 3.225700e-01 5.451934e-01 6.645806e-01 5.562134e-01 3.032278e-01 -3.905788e-04
<VARIANCE> 25
 6.932291e+00 4.524651e+00 1.028095e+01 1.130664e+01 1.358601e+01 1.700179e+01 1.399963e+01 1.186009e+01 1.273203e+01 1.319878e+01 1.594356e+01 1.229208e+01 8.692574e-02 1.683162e-01 2.793905e-01 4.318801e-01 5.864996e-01 7.280399e-01 8.282773e-01 8.988836e-01 9.026332e-01 8.356485e-01 8.391218e-01 8.627148e-01 2.295524e-05
<GCONST> 5.633278e+01
<MIXTURE> 61 4.479129e-03
<MEAN> 25
 -4.264400e+00 -6.651337e-01 -1.085060e+00 3.697022e+00 1.732442e+00 2.118515e+00 1.637031e+00 1.531711e+00 2.159173e+00 1.264057e+00 2.385370e+00 1.916122e+00 -2.850292e-02 5.653246e-02 1.010553e-01 1.301768e-01 1.294506e-01 1.292972e-01 1.788031e-01 3.225700e-01 5.451934e-01 6.645806e-01 5.562134e-01 3.032278e-01 -3.905788e-04
<VARIANCE> 25
 6.932291e+00 4.524651e+00 1.028095e+01 1.130664e+01 1.358601e+01 1.700179e+01 1.399963e+01 1.186009e+01 1.273203e+01 1.319878e+01 1.594356e+01 1.229208e+01 8.692574e-02 1.683162e-01 2.793905e-01 4.318801e-01 5.864996e-01 7.280399e-01 8.282773e-01 8.988836e-01 9.026332e-01 8.356485e-01 8.391218e-01 8.627148e-01 2.295524e-05
<GCONST> 5.633278e+01
<MIXTURE> 62 3.278034e-03
<MEAN> 25
 -5.092333e+00 1.240052e+00 1.024153e+00 8.817779e+00 6.131598e+00 5.050417e+00 5.499532e+00 4.033321e+00 4.986050e+00 3.918333e+00 4.964391e+00 2.949159e+00 -1.003614e+00 -1.166715e+00 -9.531989e-01 -2.766359e-01 4.274262e-01 1.004344e+00 1.384084e+00 1.552218e+00 1.478652e+00 1.243661e+00 1.067437e+00 7.261205e-01 -1.265649e-03
<VARIANCE> 25
 9.876622e+00 9.970683e+00 1.313732e+01 1.673344e+01 1.741246e+01 1.752414e+01 1.969746e+01 1.911176e+01 1.885482e+01 1.872482e+01 2.157496e+01 1.481239e+01 4.023002e-01 4.320208e-01 5.542628e-01 7.792220e-01 1.034905e+00 1.194758e+00 1.253570e+00 1.278738e+00 1.329403e+00 1.363736e+00 1.401055e+00 1.371016e+00 1.632327e-05
<GCONST> 6.753431e+01
<MIXTURE> 63 4.351215e-03
<MEAN> 25
 -4.030540e+00 -2.931244e+00 -5.169248e+00 2.537046e+00 4.511064e+00 -1.082829e+00 1.851680e+00 2.182447e+00 3.052755e+00 -1.272415e+00 -1.428259e+00 2.140673e+00 -1.047656e-01 3.769082e-01 3.625284e-01 4.940661e-01 4.973907e-01 5.254703e-01 4.298961e-01 1.745524e-01 2.680877e-01 2.655222e-01 2.385632e-01 1.656395e-01 -3.743794e-03
<VARIANCE> 25
 7.759210e+00 1.529646e+01 1.537751e+01 1.492188e+01 2.278499e+01 2.877487e+01 2.559128e+01 2.425971e+01 2.578388e+01 2.130803e+01 1.865531e+01 1.596349e+01 2.530812e-01 4.813355e-01 5.930089e-01 6.651422e-01 1.051971e+00 1.182763e+00 1.156708e+00 1.340953e+00 1.448729e+00 1.492906e+00 1.228678e+00 1.197982e+00 1.686405e-04
<GCONST> 7.117329e+01
<MIXTURE> 64 4.351215e-03
<MEAN> 25
 -4.030540e+00 -2.931244e+00 -5.169248e+00 2.537046e+00 4.511064e+00 -1.082829e+00 1.851680e+00 2.182447e+00 3.052755e+00 -1.272415e+00 -1.428259e+00 2.140673e+00 -1.047656e-01 3.769082e-01 3.625284e-01 4.940661e-01 4.973907e-01 5.254703e-01 4.298961e-01 1.745524e-01 2.680877e-01 2.655222e-01 2.385632e-01 1.656395e-01 -3.743794e-03
<VARIANCE> 25
 7.759210e+00 1.529646e+01 1.537751e+01 1.492188e+01 2.278499e+01 2.877487e+01 2.559128e+01 2.425971e+01 2.578388e+01 2.130803e+01 1.865531e+01 1.596349e+01 2.530812e-01 4.813355e-01 5.930089e-01 6.651422e-01 1.051971e+00 1.182763e+00 1.156708e+00 1.340953e+00 1.448729e+00 1.492906e+00 1.228678e+00 1.197982e+00 1.686405e-04
<GCONST> 7.117329e+01
<MIXTURE> 65 1.721197e-02
<MEAN> 25
 9.104980e+00 1.199960e+00 4.261870e+00 1.056656e-01 -5.304679e+00 -5.649288e-01 -3.197293e+00 -8.274680e+00 -1.000384e+01 -2.299388e+00 -8.949132e-01 2.345033e-01 1.060114e-01 1.343067e-01 2.094450e-01 9.845964e-02 -2.763846e-01 3.183812e-01 2.270410e-01 -3.864397e-01 -3.277645e-01 -1.654199e-01 -6.487872e-02 1.856539e-01 -5.173403e-03
<VARIANCE> 25
 8.836905e+00 1.284184e+01 3.126118e+01 3.736012e+01 3.293745e+01 5.172216e+01 6.603102e+01 4.746748e+01 1.024541e+02 5.111337e+01 5.514473e+01 3.342587e+01 4.736524e-01 7.992249e-01 1.556849e+00 1.558842e+00 2.041585e+00 2.351275e+00 2.976257e+00 2.836310e+00 3.543414e+00 2.231234e+00 2.095394e+00 1.856233e+00 3.457514e-04
<GCONST> 8.838819e+01
<MIXTURE> 66 1.191532e-02
<MEAN> 25
 6.885334e+00 -4.463389e+00 -5.196510e+00 -6.142651e+00 8.040778e-01 -3.283155e+00 -8.605144e+00 3.346655e+00 1.514322e+00 -5.074620e-01 -4.892139e+00 -6.167519e+00 -1.778471e-02 1.750461e+00 2.255999e+00 2.126653e+00 -1.151824e+00 -1.578861e+00 2.170230e-01 -5.751642e-01 -9.091896e-01 -3.379354e-01 1.562165e-01 1.388415e+00 -6.307568e-02
<VARIANCE> 25
 7.824300e+00 1.772869e+01 2.319026e+01 3.291926e+01 3.314962e+01 5.084672e+01 5.646457e+01 5.622064e+01 4.813706e+01 5.698985e+01 3.340048e+01 4.939127e+01 1.210108e+00 2.146076e+00 2.568548e+00 2.854762e+00 3.858010e+00 3.892347e+00 4.740064e+00 6.181828e+00 5.533161e+00 4.566534e+00 4.305992e+00 3.380383e+00 1.283200e-03
<GCONST> 9.661777e+01
<MIXTURE> 67 1.559142e-02
<MEAN> 25
 7.715711e+00 2.141698e+00 -4.842681e+00 -8.523513e+00 -1.153559e+00 4.449278e+00 -2.370042e+00 -4.261864e+00 -1.102336e+00 2.621356e+00 6.098780e-01 -1.571373e+00 -1.639607e+00 2.075418e+00 6.316044e-01 3.049651e+00 2.000291e+00 -1.424477e+00 1.144614e+00 -2.428417e-01 2.975035e-01 1.254990e-01 -1.146791e+00 5.374763e-01 -1.060544e-01
<VARIANCE> 25
 1.034896e+01 3.484198e+01 2.416882e+01 5.697705e+01 3.427769e+01 3.948546e+01 7.869181e+01 3.984096e+01 5.161517e+01 4.116387e+01 4.101589e+01 4.253299e+01 1.836625e+00 3.836564e+00 2.540782e+00 3.613634e+00 4.148970e+00 4.998464e+00 7.377370e+00 4.020172e+00 4.332506e+00 3.749148e+00 4.932632e+00 2.649057e+00 2.884706e-03
<GCONST> 9.954967e+01
<MIXTURE> 68 1.485092e-02
<MEAN> 25
 -2.473248e+00 -2.433913e-01 -5.110550e+00 1.889732e+00 5.531165e+00 -5.391911e-01 2.564736e+00 5.434180e-01 1.158640e+00 2.636307e+00 7.041841e-02 1.763821e+00 3.162858e+00 6.943778e-01 5.215492e-01 -2.706183e+00 -2.596877e+00 -9.680621e-01 -2.470609e+00 -1.652128e+00 -9.344205e-01 -1.445742e+00 -1.449955e+00 -1.159917e+00 1.117290e-01
<VARIANCE> 25
 2.576066e+01 4.392536e+01 4.890462e+01 3.795038e+01 4.822282e+01 5.169468e+01 4.194289e+01 4.434493e+01 3.315109e+01 4.094605e+01 3.394965e+01 2.448180e+01 1.958875e+00 4.011407e+00 6.101326e+00 5.888932e+00 3.737442e+00 5.370089e+00 4.810755e+00 3.769815e+00 5.165113e+00 4.635034e+00 4.735242e+00 2.882338e+00 6.257421e-03
<GCONST> 1.020455e+02
<MIXTURE> 69 1.204884e-02
<MEAN> 25
 4.615735e+00 -4.099122e+00 -3.666322e+00 -3.614902e+00 -3.615599e+00 -7.390916e+00 -7.436435e-01 2.556655e+00 -1.891726e-01 -4.437010e+00 -5.623914e+00 3.653941e-01 1.574217e+00 -2.325523e+00 -1.299304e+00 -2.019451e+00 -6.195608e-01 -1.455074e-01 -4.962353e-01 7.874393e-01 -4.690813e-01 -1.386643e+00 -2.122671e+00 -3.227914e-01 5.566164e-02
<VARIANCE> 25
 8.451235e+00 2.171779e+01 2.722804e+01 2.391317e+01 3.998072e+01 3.562244e+01 6.317811e+01 3.188654e+01 3.911005e+01 3.623550e+01 3.037775e+01 2.719485e+01 4.189953e+00 2.958460e+00 3.252202e+00 3.924361e+00 5.588065e+00 5.171894e+00 6.643169e+00 5.933894e+00 6.015158e+00 5.619363e+00 4.118799e+00 3.708416e+00 3.055853e-03
<GCONST> 9.903873e+01
<MIXTURE> 70 1.329190e-02
<MEAN> 25
 6.055973e+00 -1.536917e+00 -3.156987e+00 -5.960693e+00 -1.847077e+00 1.605544e+00 -8.707461e+00 -4.181818e+00 3.514462e+00 2.862778e+00 2.421647e+00 -5.032483e+00 2.281355e+00 -2.555276e+00 -8.532763e-01 -2.436245e+00 -2.083038e+00 2.420172e+00 -1.210894e+00 1.046279e+00 1.075074e+00 3.577672e-01 6.676432e-01 -2.256883e+00 6.072004e-02
<VARIANCE> 25
 9.656611e+00 2.968440e+01 2.687810e+01 3.866100e+01 2.731453e+01 5.298608e+01 4.788988e+01 5.576171e+01 4.230921e+01 2.911587e+01 3.999519e+01 2.741629e+01 2.968462e+00 3.807477e+00 3.773120e+00 5.013854e+00 3.619124e+00 3.542296e+00 4.864220e+00 7.104732e+00 6.191669e+00 2.915331e+00 3.478928e+00 2.649947e+00 1.629252e-03
<GCONST> 9.798858e+01
<MIXTURE> 71 1.406903e-02
<MEAN> 25
 7.120882e+00 3.742007e+00 5.256478e+00 2.531122e+00 -2.609146e+00 -2.947922e+00 3.341371e-01 -9.775998e+00 -1.000267e+01 -5.314784e+00 -1.508744e+00 1.215126e+00 -1.669803e+00 6.377146e-02 -1.076740e+00 -2.274031e+00 5.934280e-01 -1.008021e+00 -8.017468e-01 2.384185e+00 2.232083e+00 5.451440e-01 2.644592e-01 -2.175974e-02 3.473938e-02
<VARIANCE> 25
 2.109713e+01 1.630115e+01 2.323014e+01 3.972206e+01 2.949855e+01 5.696861e+01 3.670148e+01 5.499685e+01 4.812550e+01 3.065586e+01 3.088238e+01 3.527675e+01 1.930950e+00 2.165314e+00 4.866249e+00 4.622148e+00 5.380741e+00 4.027880e+00 4.153730e+00 6.037078e+00 5.279735e+00 3.286121e+00 2.837794e+00 3.117384e+00 7.816692e-04
<GCONST> 9.666292e+01
<MIXTURE> 72 8.134747e-03
<MEAN> 25
 3.768219e+00 -4.546504e+00 7.863234e+00 -3.351435e+00 -9.962033e+00 -8.995040e+00 -3.560824e+00 4.691807e+00 -4.035621e+00 -2.569625e+00 -1.345145e+00 7.200050e-01 1.087698e+00 -8.476871e-01 -2.283099e+00 6.453166e-01 1.885100e+00 -3.158126e-01 -1.569664e+00 1.367495e+00 1.331645e+00 -2.085575e-01 -1.211837e+00 3.080553e-01 -8.970630e-03
<VARIANCE> 25
 9.454440e+00 1.668213e+01 3.818039e+01 3.436737e+01 2.522312e+01 2.725537e+01 4.297023e+01 4.365384e+01 3.748273e+01 3.808986e+01 3.049764e+01 2.457349e+01 4.292935e-01 8.450357e-01 1.825747e+00 1.543468e+00 1.841816e+00 2.370787e+00 2.432310e+00 2.704772e+00 2.818949e+00 3.577702e+00 1.613390e+00 2.682718e+00 5.242662e-04
<GCONST> 8.574273e+01
<MIXTURE> 73 1.213625e-02
<MEAN> 25
 -6.467016e+00 -2.735924e-01 -1.093688e+00 4.820629e+00 4.971189e+00 2.420078e+00 5.768964e+00 3.404138e+00 5.033921e+00 3.381498e+00 4.250403e+00 3.474405e+00 8.586186e-01 -9.980640e-01 -1.043269e+00 -2.260036e+00 -1.477835e+00 -1.522919e+00 -1.141696e+00 -5.919947e-01 -9.839616e-01 -5.588042e-01 -9.668741e-01 -2.586451e-01 1.552982e-01
<VARIANCE> 25
 1.801354e+01 1.399186e+01 1.832725e+01 2.016197e+01 2.662897e+01 2.227450e+01 2.077772e+01 1.838405e+01 2.493685e+01 1.636426e+01 2.215049e+01 1.675691e+01 3.777111e+00 3.091162e+00 5.628234e+00 5.120884e+00 5.907156e+00 4.576171e+00 4.216350e+00 3.820684e+00 4.394326e+00 4.333543e+00 3.229859e+00 2.311789e+00 4.142226e-03
<GCONST> 9.301334e+01
<MIXTURE> 74 1.756491e-02
<MEAN> 25
 5.089679e+00 -1.291149e+00 8.587134e+00 -1.590501e+00 -8.015165e+00 -8.391337e+00 -5.458716e+00 4.118874e+00 -6.091567e+00 -3.277466e+00 -3.566396e-01 7.973222e-01 8.259271e-01 1.666250e+00 -7.999665e-01 1.667197e+00 1.866846e+00 5.607687e-01 1.085579e+00 -2.355875e+00 -7.440373e-01 -5.521866e-01 -1.512144e-01 -3.982374e-01 -6.241876e-02
<VARIANCE> 25
 1.196375e+01 2.456673e+01 3.783113e+01 2.876241e+01 2.645700e+01 3.627494e+01 6.823614e+01 4.815253e+01 5.134446e+01 4.415565e+01 3.378136e+01 2.907692e+01 2.363470e+00 1.546470e+00 3.803399e+00 2.282592e+00 2.583550e+00 3.532127e+00 6.128748e+00 5.155959e+00 4.731299e+00 3.716253e+00 3.164053e+00 2.904580e+00 1.078228e-03
<GCONST> 9.557668e+01
<MIXTURE> 75 9.711651e-03
<MEAN> 25
 2.285197e+00 -1.326954e+00 1.201196e+01 2.243330e+00 -1.087753e+01 -8.919515e+00 -6.680921e+00 8.551340e-01 -4.128480e+00 -6.037322e+00 3.340576e+00 5.942364e-01 1.967319e+00 -1.829590e+00 4.925403e-01 -5.805998e-01 -2.082517e+00 -5.888968e-01 -2.270040e+00 1.346926e+00 -4.831100e-01 -3.381494e-01 1.248672e+00 -3.232178e-01 4.537244e-02
<VARIANCE> 25
 8.341461e+00 1.229580e+01 2.436821e+01 3.007531e+01 1.976847e+01 3.189433e+01 3.680252e+01 2.685550e+01 3.245088e+01 3.563612e+01 1.635650e+01 1.959623e+01 2.658803e+00 1.343001e+00 4.637671e+00 2.448128e+00 3.482590e+00 3.492421e+00 5.116499e+00 3.297323e+00 3.495293e+00 3.310962e+00 2.558936e+00 2.420506e+00 1.145502e-03
<GCONST> 8.986659e+01
<MIXTURE> 76 1.052359e-02
<MEAN> 25
 -7.353908e+00 -1.785226e+00 -3.807239e+00 4.354668e+00 5.989335e+00 1.831219e+00 4.697453e+00 1.941074e+00 2.611474e+00 1.834316e+00 1.502078e+00 2.475980e+00 -3.612661e-02 -5.956579e-01 -2.747070e-01 -8.561609e-01 -7.701129e-01 -8.335230e-01 -7.023126e-01 -4.571466e-01 -6.273680e-01 -5.068381e-01 -1.598088e-02 1.101507e-02 1.353654e-02
<VARIANCE> 25
 3.362443e+01 3.192176e+01 2.875274e+01 2.162085e+01 2.937137e+01 3.083630e+01 2.776102e+01 2.715027e+01 2.267448e+01 2.693578e+01 2.309513e+01 1.579862e+01 1.166381e+00 1.209239e+00 1.403255e+00 1.123453e+00 1.755246e+00 1.551571e+00 2.069947e+00 1.500634e+00 1.330780e+00 1.824679e+00 1.532280e+00 1.310030e+00 1.060593e-03
<GCONST> 8.277527e+01
<MIXTURE> 77 1.244626e-02
<MEAN> 25
 -4.738508e-01 8.456223e+00 1.266669e+01 -1.148740e+01 -7.042922e+00 7.114512e-01 -9.415899e+00 -6.941510e+00 -3.506751e+00 -3.624782e-01 -4.579086e+00 -1.291996e+00 5.760004e-02 1.541631e-01 8.337881e-02 2.539434e-01 5.607236e-03 9.231162e-02 -4.142246e-02 -7.323616e-02 6.178547e-02 -6.298351e-02 3.952756e-02 1.164217e-01 -9.855134e-03
<VARIANCE> 25
 1.021192e+01 2.059468e+01 2.866337e+01 4.125055e+01 3.251706e+01 3.520433e+01 3.716269e+01 3.446709e+01 3.522009e+01 3.379783e+01 3.775713e+01 3.542425e+01 2.997950e-01 7.875395e-01 6.378801e-01 1.079614e+00 1.276554e+00 1.017471e+00 1.226061e+00 1.069455e+00 1.036837e+00 1.121208e+00 9.622428e-01 9.188048e-01 5.301215e-04
<GCONST> 7.805057e+01
<MIXTURE> 78 9.702551e-03
<MEAN> 25
 -1.315154e+01 1.738865e+00 -3.030004e+00 3.557602e+00 6.793817e+00 -3.281734e+00 3.979570e+00 3.572820e+00 4.360872e+00 1.023783e+00 -7.505432e-02 2.326378e+00 2.641340e+00 -3.739764e-01 -4.221037e-01 4.135630e-01 -1.333097e-01 -4.239408e-02 -7.037005e-01 -3.276163e-01 2.661344e-01 -1.449085e-01 -2.997303e-01 -3.115728e-01 -4.774524e-02
<VARIANCE> 25
 5.631118e+01 2.641172e+01 4.363243e+01 3.978167e+01 2.844027e+01 3.567820e+01 3.474463e+01 2.869389e+01 3.534483e+01 2.103432e+01 1.941338e+01 2.287568e+01 4.555608e+00 2.453712e+00 4.651752e+00 2.507868e+00 2.685936e+00 3.231880e+00 3.253902e+00 2.490166e+00 2.393812e+00 1.847117e+00 2.419703e+00 2.035130e+00 3.520740e-03
<GCONST> 9.380080e+01
<MIXTURE> 79 1.156824e-02
<MEAN> 25
 2.702406e+00 1.205877e+00 9.793146e+00 -6.224509e+00 -1.177981e+01 -2.144670e+00 -1.870476e+00 -5.452965e+00 -7.541254e+00 5.131943e-01 -2.809064e+00 -2.454029e+00 1.218220e+00 -4.963044e-01 -1.374100e+00 2.352203e+00 4.786139e-01 -1.371008e+00 6.202167e-01 6.850402e-01 -4.751812e-01 -6.674469e-01 2.959768e-01 2.592766e-01 -3.671184e-02
<VARIANCE> 25
 1.486990e+01 2.267966e+01 3.934887e+01 4.638498e+01 3.219600e+01 4.388195e+01 4.187255e+01 4.891266e+01 5.331836e+01 3.793327e+01 4.565008e+01 3.451653e+01 9.376577e-01 2.097788e+00 1.874100e+00 1.912792e+00 2.633114e+00 2.603558e+00 3.570135e+00 3.531044e+00 2.422765e+00 2.829923e+00 2.306535e+00 1.933532e+00 1.138327e-03
<GCONST> 9.218426e+01
<MIXTURE> 80 7.550998e-03
<MEAN> 25
 -1.633036e+01 3.260216e+00 -1.216840e+00 3.428618e+00 2.736766e+00 -1.198200e-01 6.949220e+00 3.371039e+00 3.130843e+00 1.411549e+00 3.911052e+00 2.199340e+00 4.674961e+00 -3.756544e-02 2.157535e+00 -1.156930e+00 -3.104839e+00 -2.793464e+00 -2.772309e+00 -1.610621e+00 -1.616905e+00 -1.628424e+00 -1.457209e+00 -9.184972e-01 -4.679875e-02
<VARIANCE> 25
 2.667242e+01 1.721110e+01 3.764755e+01 3.331383e+01 2.902308e+01 3.294062e+01 2.875841e+01 2.476510e+01 2.456680e+01 2.652012e+01 2.304784e+01 1.691157e+01 2.650954e+00 2.079870e+00 3.358635e+00 3.616832e+00 3.151952e+00 2.150397e+00 3.737689e+00 3.015034e+00 2.715400e+00 2.078928e+00 2.327166e+00 2.187724e+00 1.309099e-03
<GCONST> 9.034639e+01
<MIXTURE> 81 8.025434e-03
<MEAN> 25
 -1.117736e+00 4.067842e+00 1.019050e+01 -1.479912e+01 -9.079758e+00 -1.431157e+00 -6.770413e+00 -8.413254e+00 -4.154340e+00 -4.223483e-01 -7.571678e+00 -2.239349e+00 1.334303e-01 -5.860742e-01 -1.461062e-03 -5.553710e-01 -4.623395e-01 3.360345e-01 3.198874e-01 1.365887e-01 -1.410139e-01 1.044961e-01 -4.684680e-01 -1.252301e-01 1.149387e-02
<VARIANCE> 25
 1.014712e+01 3.280436e+01 2.656493e+01 2.927794e+01 3.368083e+01 3.058962e+01 4.544226e+01 2.842404e+01 3.798233e+01 3.192641e+01 2.530589e+01 3.109315e+01 7.721286e-01 2.278794e+00 1.547272e+00 2.872396e+00 2.667111e+00 2.125776e+00 3.279031e+00 2.288362e+00 2.354891e+00 2.547231e+00 2.298153e+00 2.077287e+00 1.182874e-03
<GCONST> 8.870300e+01
<MIXTURE> 82 8.213053e-03
<MEAN> 25
 -1.227203e+01 -3.714556e+00 2.661028e+00 -2.371394e+00 3.388659e+00 6.033197e-01 1.576714e+00 1.545509e+00 3.657507e+00 7.304079e-01 2.849254e-01 4.565795e+00 -1.548901e+00 -3.691277e-01 1.231474e-01 -2.527703e+00 -1.125734e+00 -1.258769e+00 -1.470935e+00 -8.869957e-01 -4.248246e-01 -2.602873e-01 -1.549898e-01 3.836226e-01 1.800452e-01
<VARIANCE> 25
 2.000793e+01 2.056901e+01 3.028979e+01 2.948129e+01 2.514871e+01 4.673064e+01 2.581585e+01 3.098969e+01 3.370090e+01 2.179545e+01 2.519211e+01 1.700475e+01 3.873660e+00 2.773988e+00 2.875243e+00 3.404276e+00 3.068361e+00 3.173926e+00 3.023375e+00 2.284596e+00 3.851571e+00 2.214381e+00 2.320261e+00 2.116421e+00 3.277931e-03
<GCONST> 9.205317e+01
<MIXTURE> 83 1.167529e-02
<MEAN> 25
 -2.132851e+01 4.983129e+00 -3.073335e+00 1.872431e+00 9.003837e+00 -2.045129e+00 7.295492e+00 3.904172e+00 2.516411e+00 2.356652e+00 1.229548e+00 3.801336e+00 2.192982e-01 -8.245255e-01 -3.351707e-01 -4.649559e-01 -5.921451e-01 -5.632430e-01 -2.887355e-01 2.300917e-02 -5.219985e-02 -1.297116e-01 5.796164e-02 2.736041e-02 -4.421383e-03
<VARIANCE> 25
 1.742575e+01 1.346497e+01 3.892429e+01 3.950184e+01 1.786991e+01 1.893396e+01 2.235848e+01 1.670548e+01 1.930768e+01 1.821487e+01 1.759621e+01 1.714337e+01 1.128006e+00 8.585159e-01 1.789881e+00 1.153868e+00 1.299641e+00 1.349609e+00 1.349494e+00 1.271406e+00 1.084551e+00 1.275498e+00 1.079859e+00 9.485515e-01 8.219321e-04
<GCONST> 7.710156e+01
<MIXTURE> 84 1.066614e-02
<MEAN> 25
 1.467013e+00 9.130767e+00 7.061921e+00 7.336187e+00 3.100533e+00 -1.187261e+00 4.901291e-01 -4.404149e+00 -4.963980e+00 -2.808144e+00 -3.813143e+00 -1.722491e+00 -1.823313e+00 -9.629399e-01 -1.185010e+00 1.243797e+00 2.081275e+00 1.317835e+00 1.267015e+00 1.343695e+00 1.636352e+00 5.501319e-01 1.486680e-01 4.048721e-02 -7.766607e-02
<VARIANCE> 25
 2.524128e+01 1.571757e+01 1.901485e+01 2.329222e+01 3.157921e+01 2.560635e+01 3.731054e+01 2.192735e+01 2.462873e+01 2.620867e+01 2.508790e+01 2.014306e+01 2.028175e+00 2.317971e+00 3.608771e+00 3.007239e+00 3.573694e+00 3.166057e+00 3.271403e+00 2.998318e+00 4.881374e+00 3.502322e+00 3.686774e+00 2.845171e+00 3.776608e-03
<GCONST> 9.237301e+01
<MIXTURE> 85 7.591393e-03
<MEAN> 25
 -3.007429e+00 8.059914e+00 5.425603e+00 1.564126e+00 -3.692976e+00 -5.628325e+00 -2.804522e+00 -5.873398e+00 -3.390643e+00 -3.238426e+00 -6.819835e-01 -1.743293e+00 4.060360e+00 2.589283e-01 1.964916e+00 -2.210948e+00 -3.387824e+00 -2.499038e+00 -3.216065e+00 -2.239836e+00 -2.274368e+00 -1.182766e+00 -2.099858e+00 -5.880778e-01 1.417867e-02
<VARIANCE> 25
 4.023144e+01 2.314670e+01 3.648262e+01 3.620617e+01 3.926848e+01 4.150499e+01 3.027192e+01 2.926210e+01 2.511584e+01 2.567618e+01 2.498596e+01 1.945992e+01 2.736352e+00 4.169269e+00 4.670231e+00 5.169218e+00 4.108382e+00 3.957830e+00 5.426374e+00 3.773290e+00 4.072988e+00 3.795832e+00 4.100763e+00 3.215451e+00 5.707399e-03
<GCONST> 9.838563e+01
<MIXTURE> 86 1.273941e-02
<MEAN> 25
 -4.978030e+00 -1.203352e+00 -7.953537e-01 6.338614e+00 5.025767e+00 4.670671e+00 5.317063e+00 4.574086e+00 4.663037e+00 3.915266e+00 5.334288e+00 2.703149e+00 -6.574151e-03 -8.682635e-03 -3.835424e-02 -6.581528e-02 -1.173795e-01 -1.850111e-01 -2.676744e-01 -3.324480e-01 -3.540061e-01 -3.194591e-01 -2.304051e-01 -1.063843e-01 -5.497850e-04
<VARIANCE> 25
 7.898899e+00 5.671808e+00 9.988621e+00 1.230750e+01 1.593119e+01 1.433915e+01 1.355026e+01 1.305006e+01 1.319302e+01 1.423903e+01 1.435381e+01 1.277872e+01 9.992148e-02 1.929271e-01 3.184333e-01 4.831480e-01 6.360605e-01 7.340976e-01 7.436190e-01 7.642050e-01 8.329055e-01 8.838941e-01 9.114673e-01 9.029470e-01 5.336651e-05
<GCONST> 5.812808e+01
<MIXTURE> 87 1.100681e-02
<MEAN> 25
 -3.969980e+00 5.464976e+00 3.452409e+00 7.489918e+00 6.616697e+00 1.447206e+00 1.408641e+00 -5.616019e-01 -2.708478e-01 -1.203150e+00 -1.955550e+00 1.079554e-03 -2.275289e+00 -2.842251e+00 -1.780335e+00 -2.398982e+00 -1.808850e-01 -8.884197e-02 -1.965233e-01 1.208102e+00 1.673603e+00 9.847591e-01 9.500141e-01 1.126509e+00 1.110880e-01
<VARIANCE> 25
 3.409138e+01 2.638559e+01 2.414968e+01 2.840478e+01 3.347551e+01 2.858485e+01 2.755667e+01 2.383002e+01 2.251982e+01 2.515477e+01 2.770686e+01 2.018066e+01 5.049088e+00 2.428812e+00 3.944232e+00 3.856695e+00 6.128466e+00 4.245006e+00 6.272714e+00 3.211699e+00 3.681277e+00 2.936140e+00 2.731151e+00 2.565654e+00 5.761812e-03
<GCONST> 9.595750e+01
<MIXTURE> 88 1.256585e-02
<MEAN> 25
 -4.396756e+00 -3.441013e-01 -1.966459e+00 5.679497e+00 5.470762e+00 2.981441e+00 5.304661e+00 2.934739e+00 3.257048e+00 2.452977e+00 2.599992e+00 2.668497e+00 1.605997e-01 2.702721e-01 1.861828e-01 2.469909e-01 -5.919025e-02 2.148420e-01 -7.658427e-02 -3.026374e-01 -3.897769e-01 -2.054458e-01 -4.499425e-02 2.183682e-03 -3.804377e-03
<VARIANCE> 25
 1.071175e+01 1.158775e+01 1.564297e+01 1.494353e+01 2.300886e+01 2.213607e+01 2.193166e+01 2.020014e+01 1.830474e+01 1.644597e+01 1.967915e+01 1.359469e+01 1.529469e+00 1.912151e+00 2.442375e+00 2.292503e+00 3.319598e+00 2.536531e+00 2.822185e+00 2.371022e+00 2.339702e+00 2.443351e+00 2.097498e+00 1.863550e+00 1.367288e-03
<GCONST> 8.318463e+01
<MIXTURE> 89 9.333527e-03
<MEAN> 25
 6.353141e+00 -7.635217e+00 -4.060184e+00 -2.933412e+00 -2.739443e+00 -4.206811e+00 -6.983553e+00 7.638247e+00 3.961399e+00 -3.269682e+00 -5.178504e+00 -5.873878e+00 -7.174851e-01 1.478564e-01 2.478133e+00 4.076070e-01 -1.724696e+00 -2.054164e+00 1.030698e+00 1.511656e+00 -1.073161e+00 -4.110560e-01 -4.352969e-01 1.850476e+00 -7.842799e-03
<VARIANCE> 25
 6.351188e+00 1.991167e+01 2.484924e+01 2.094979e+01 2.679102e+01 4.089401e+01 4.181232e+01 5.088151e+01 3.378101e+01 3.174228e+01 2.973725e+01 3.394561e+01 3.570726e-01 9.075788e-01 2.334377e+00 1.617104e+00 1.462638e+00 2.047827e+00 1.996364e+00 1.723804e+00 1.785329e+00 2.921817e+00 2.606009e+00 1.645255e+00 2.843846e-04
<GCONST> 8.307509e+01
<MIXTURE> 90 7.114505e-03
<MEAN> 25
 2.446115e+00 -9.719730e+00 -4.758433e+00 -3.972933e+00 -3.375041e+00 -1.813725e+00 3.357193e+00 1.186891e+00 -7.518917e+00 -1.021212e+01 -3.432264e+00 -7.416412e-01 -1.634479e-01 9.092017e-01 1.167813e+00 -8.536820e-01 -1.612292e+00 -2.115743e-01 6.456414e-01 -2.108317e-01 -1.692558e-01 7.376841e-01 1.830692e-01 -5.503724e-01 -1.114160e-02
<VARIANCE> 25
 8.520356e+00 1.778745e+01 1.981918e+01 2.802429e+01 3.698341e+01 3.216366e+01 3.858778e+01 3.641188e+01 3.540243e+01 2.771004e+01 2.699855e+01 2.612515e+01 2.238435e-01 6.124965e-01 7.874541e-01 1.042018e+00 1.469396e+00 1.591450e+00 1.781233e+00 1.654932e+00 1.809751e+00 1.677405e+00 1.494571e+00 1.308185e+00 2.149438e-04
<GCONST> 7.814553e+01
<MIXTURE> 91 7.852945e-03
<MEAN> 25
 6.618043e+00 -7.610774e+00 -8.103946e+00 -5.468043e+00 2.695749e+00 1.459571e+00 -3.062712e+00 1.137984e+00 1.500864e+00 -1.386979e+00 -4.915240e+00 -6.159012e+00 2.562153e-01 1.005198e+00 2.344126e-01 2.352587e-01 1.725322e-01 -7.074519e-01 -3.941826e-01 -1.631463e-02 -2.884352e-01 4.489248e-01 -6.304885e-02 2.674309e-01 -3.374864e-02
<VARIANCE> 25
 9.429445e+00 2.080317e+01 2.022203e+01 4.289170e+01 3.956306e+01 5.658050e+01 7.306187e+01 4.308291e+01 4.806939e+01 6.250665e+01 3.494895e+01 4.744574e+01 4.220610e-01 8.433121e-01 1.382400e+00 1.513851e+00 2.379256e+00 2.457656e+00 2.594082e+00 3.050419e+00 2.274095e+00 1.947848e+00 2.534067e+00 1.813776e+00 5.401845e-04
<GCONST> 8.821062e+01
<MIXTURE> 92 7.852945e-03
<MEAN> 25
 6.618043e+00 -7.610774e+00 -8.103946e+00 -5.468043e+00 2.695749e+00 1.459571e+00 -3.062712e+00 1.137984e+00 1.500864e+00 -1.386979e+00 -4.915240e+00 -6.159012e+00 2.562153e-01 1.005198e+00 2.344126e-01 2.352587e-01 1.725322e-01 -7.074519e-01 -3.941826e-01 -1.631463e-02 -2.884352e-01 4.489248e-01 -6.304885e-02 2.674309e-01 -3.374864e-02
<VARIANCE> 25
 9.429445e+00 2.080317e+01 2.022203e+01 4.289170e+01 3.956306e+01 5.658050e+01 7.306187e+01 4.308291e+01 4.806939e+01 6.250665e+01 3.494895e+01 4.744574e+01 4.220610e-01 8.433121e-01 1.382400e+00 1.513851e+00 2.379256e+00 2.457656e+00 2.594082e+00 3.050419e+00 2.274095e+00 1.947848e+00 2.534067e+00 1.813776e+00 5.401845e-04
<GCONST> 8.821062e+01
<MIXTURE> 93 6.122769e-03
<MEAN> 25
 -6.824710e+00 -9.079229e-01 -2.418997e+00 5.826306e+00 6.042596e+00 3.869711e+00 6.058526e+00 3.637890e+00 4.188113e+00 2.469117e+00 1.732632e+00 3.685784e+00 -5.884570e-02 -1.489493e-01 -2.606036e-01 -3.294959e-01 -3.319821e-01 -2.768410e-01 -2.106729e-01 -1.770458e-01 -1.650285e-01 -1.609446e-01 -1.180597e-01 -3.945277e-02 -3.819423e-06
<VARIANCE> 25
 9.172332e+00 6.339363e+00 8.337991e+00 1.140249e+01 1.250704e+01 1.599191e+01 1.583094e+01 1.641756e+01 1.492051e+01 1.462936e+01 1.720464e+01 1.341451e+01 8.270340e-02 1.545744e-01 2.615796e-01 3.771839e-01 4.966830e-01 6.400180e-01 8.064977e-01 8.789991e-01 9.257473e-01 8.805042e-01 9.029120e-01 9.103861e-01 9.845309e-07
<GCONST> 5.385328e+01
<MIXTURE> 94 6.122769e-03
<MEAN> 25
 -6.824710e+00 -9.079229e-01 -2.418997e+00 5.826306e+00 6.042596e+00 3.869711e+00 6.058526e+00 3.637890e+00 4.188113e+00 2.469117e+00 1.732632e+00 3.685784e+00 -5.884570e-02 -1.489493e-01 -2.606036e-01 -3.294959e-01 -3.319821e-01 -2.768410e-01 -2.106729e-01 -1.770458e-01 -1.650285e-01 -1.609446e-01 -1.180597e-01 -3.945277e-02 -3.819423e-06
<VARIANCE> 25
 9.172332e+00 6.339363e+00 8.337991e+00 1.140249e+01 1.250704e+01 1.599191e+01 1.583094e+01 1.641756e+01 1.492051e+01 1.462936e+01 1.720464e+01 1.341451e+01 8.270340e-02 1.545744e-01 2.615796e-01 3.771839e-01 4.966830e-01 6.400180e-01 8.064977e-01 8.789991e-01 9.257473e-01 8.805042e-01 9.029120e-01 9.103861e-01 9.845309e-07
<GCONST> 5.385328e+01
<MIXTURE> 95 5.258835e-03
<MEAN> 25
 -5.812349e+00 -7.436346e-01 -2.018421e+00 4.895701e+00 4.259669e+00 2.769432e+00 4.149145e+00 1.687836e+00 2.247518e+00 8.825074e-01 1.184359e+00 2.581672e+00 1.444761e-01 1.418413e-01 8.116666e-02 -8.513304e-02 -3.727003e-01 -7.171812e-01 -1.055418e+00 -1.279231e+00 -1.269411e+00 -9.940845e-01 -6.493518e-01 -3.112797e-01 -1.367959e-04
<VARIANCE> 25
 1.028900e+01 6.524542e+00 1.242048e+01 1.274475e+01 1.416846e+01 1.856991e+01 1.800307e+01 1.695672e+01 1.543583e+01 1.538652e+01 1.993351e+01 1.434708e+01 2.089347e-01 2.972724e-01 4.577341e-01 6.281845e-01 8.045902e-01 8.931425e-01 9.099710e-01 9.221849e-01 9.738898e-01 1.073302e+00 1.155051e+00 1.115053e+00 4.180691e-05
<GCONST> 6.332181e+01
<MIXTURE> 96 7.034694e-03
<MEAN> 25
 -5.231241e+00 -2.703750e-01 -2.288020e+00 5.323343e+00 4.387420e+00 1.642017e+00 3.534833e+00 1.867907e+00 2.725763e+00 9.282748e-01 8.245819e-01 2.698516e+00 -1.841374e-02 9.786844e-02 1.884781e-01 3.718622e-01 4.818051e-01 5.033948e-01 3.061961e-01 -1.430654e-01 -4.503688e-01 -6.880994e-01 -6.527158e-01 -3.717603e-01 -1.632944e-05
<VARIANCE> 25
 1.128062e+01 1.070130e+01 1.268692e+01 1.449268e+01 1.916633e+01 1.933428e+01 1.836707e+01 1.878089e+01 1.854342e+01 1.619140e+01 2.078318e+01 1.442027e+01 1.195025e-01 2.139146e-01 3.218792e-01 4.066560e-01 5.453871e-01 6.398998e-01 9.734699e-01 9.599193e-01 9.518722e-01 8.767456e-01 9.051788e-01 9.062005e-01 9.496916e-07
<GCONST> 5.805383e+01
<MIXTURE> 97 7.034694e-03
<MEAN> 25
 -5.231241e+00 -2.703750e-01 -2.288020e+00 5.323343e+00 4.387420e+00 1.642017e+00 3.534833e+00 1.867907e+00 2.725763e+00 9.282748e-01 8.245819e-01 2.698516e+00 -1.841374e-02 9.786844e-02 1.884781e-01 3.718622e-01 4.818051e-01 5.033948e-01 3.061961e-01 -1.430654e-01 -4.503688e-01 -6.880994e-01 -6.527158e-01 -3.717603e-01 -1.632944e-05
<VARIANCE> 25
 1.128062e+01 1.070130e+01 1.268692e+01 1.449268e+01 1.916633e+01 1.933428e+01 1.836707e+01 1.878089e+01 1.854342e+01 1.619140e+01 2.078318e+01 1.442027e+01 1.195025e-01 2.139146e-01 3.218792e-01 4.066560e-01 5.453871e-01 6.398998e-01 9.734699e-01 9.599193e-01 9.518722e-01 8.767456e-01 9.051788e-01 9.062005e-01 9.496916e-07
<GCONST> 5.805383e+01
<MIXTURE> 98 9.917808e-03
<MEAN> 25
 -2.314812e+00 -7.215071e-02 -1.757231e+00 4.635363e+00 4.202334e+00 3.890359e+00 4.016067e+00 1.164956e+00 1.862641e+00 7.451694e-01 -7.066923e-01 3.646798e-01 -2.130019e+00 -1.439880e+00 -1.198318e+00 3.180107e-01 6.575957e-01 3.909228e-01 7.087737e-01 1.483150e+00 1.523000e+00 1.077577e+00 1.370194e+00 7.159566e-01 -3.163174e-02
<VARIANCE> 25
 1.623339e+01 2.083856e+01 3.601442e+01 2.690209e+01 4.169635e+01 4.828534e+01 2.940135e+01 2.706760e+01 2.520286e+01 2.945840e+01 2.915134e+01 2.279582e+01 1.492757e+00 1.253621e+00 2.200427e+00 2.369495e+00 2.425018e+00 3.185014e+00 3.436228e+00 2.290625e+00 2.301460e+00 2.841658e+00 2.652267e+00 2.316847e+00 2.024815e-03
<GCONST> 8.991964e+01
<MIXTURE> 99 6.696178e-03
<MEAN> 25
 -7.477314e+00 1.125860e+01 5.167015e+00 4.839316e+00 2.678145e+00 -4.967439e+00 -1.662492e+00 -5.060878e+00 -3.383343e+00 -2.748411e+00 -1.334522e+00 5.797868e-01 6.734883e-01 -6.788565e-01 2.220704e-01 -7.018398e-01 -1.263785e+00 -3.996179e-01 -1.912381e-01 -5.345251e-01 2.281945e-02 7.894535e-02 2.174437e-01 3.929306e-01 1.029184e-02
<VARIANCE> 25
 3.692193e+01 2.928462e+01 5.417749e+01 3.579734e+01 4.447133e+01 3.060622e+01 2.681553e+01 3.475149e+01 2.613186e+01 3.066081e+01 1.972137e+01 2.522854e+01 2.487777e+00 1.805896e+00 1.299016e+00 2.537744e+00 2.773164e+00 2.022655e+00 1.561764e+00 2.164702e+00 1.445375e+00 1.511276e+00 1.150472e+00 1.437058e+00 1.376729e-03
<GCONST> 8.778590e+01
<MIXTURE> 100 4.498084e-03
<MEAN> 25
 -1.598493e+00 6.344748e+00 1.027640e+01 -7.461613e+00 -1.078112e+01 -5.075132e+00 -4.941772e+00 -9.968479e+00 -4.718353e+00 -8.556139e-01 -2.732909e+00 -2.707763e+00 2.917975e+00 -1.260567e+00 1.299782e+00 -2.186082e+00 -3.419316e+00 -7.837843e-01 -1.218959e+00 -8.197278e-01 -1.475522e+00 3.465736e-01 -1.655265e+00 -2.862342e-01 2.020221e-03
<VARIANCE> 25
 1.363006e+01 2.106168e+01 2.247239e+01 2.643433e+01 2.302505e+01 2.372107e+01 2.911739e+01 2.171987e+01 2.749123e+01 2.265538e+01 2.241020e+01 2.134084e+01 1.799048e+00 3.953659e+00 2.920083e+00 4.286916e+00 4.184459e+00 4.539177e+00 4.018075e+00 4.340274e+00 4.168835e+00 3.895673e+00 3.910834e+00 3.225466e+00 1.674977e-03
<GCONST> 9.257285e+01
<MIXTURE> 101 6.007792e-03
<MEAN> 25
 8.214035e+00 -4.134173e+00 -5.424196e+00 -5.936203e+00 -1.009572e+00 -4.036734e-01 -9.058661e+00 -1.781015e-01 2.037535e+00 3.112038e+00 -2.680086e+00 -5.405469e+00 7.148866e-01 7.671178e-01 -1.545512e+00 -1.405550e+00 7.952550e-01 2.152051e+00 4.777938e-01 -1.593804e+00 -1.185964e+00 9.768315e-01 1.563520e+00 -2.986858e-01 -5.873725e-03
<VARIANCE> 25
 7.935310e+00 1.686806e+01 3.170244e+01 4.521843e+01 4.397531e+01 3.412372e+01 4.459391e+01 4.169563e+01 3.277711e+01 3.918008e+01 4.549560e+01 2.224826e+01 2.826014e-01 7.559605e-01 1.516318e+00 1.483617e+00 1.989637e+00 2.172007e+00 2.167479e+00 1.848189e+00 2.195434e+00 2.292998e+00 1.853889e+00 1.801370e+00 2.857818e-04
<GCONST> 8.381140e+01
<MIXTURE> 102 6.007792e-03
<MEAN> 25
 8.214035e+00 -4.134173e+00 -5.424196e+00 -5.936203e+00 -1.009572e+00 -4.036734e-01 -9.058661e+00 -1.781015e-01 2.037535e+00 3.112038e+00 -2.680086e+00 -5.405469e+00 7.148866e-01 7.671178e-01 -1.545512e+00 -1.405550e+00 7.952550e-01 2.152051e+00 4.777938e-01 -1.593804e+00 -1.185964e+00 9.768315e-01 1.563520e+00 -2.986858e-01 -5.873725e-03
<VARIANCE> 25
 7.935310e+00 1.686806e+01 3.170244e+01 4.521843e+01 4.397531e+01 3.412372e+01 4.459391e+01 4.169563e+01 3.277711e+01 3.918008e+01 4.549560e+01 2.224826e+01 2.826014e-01 7.559605e-01 1.516318e+00 1.483617e+00 1.989637e+00 2.172007e+00 2.167479e+00 1.848189e+00 2.195434e+00 2.292998e+00 1.853889e+00 1.801370e+00 2.857818e-04
<GCONST> 8.381140e+01
<MIXTURE> 103 5.694618e-03
<MEAN> 25
 3.487570e+00 -9.285796e+00 -6.205352e+00 -3.047490e+00 -1.752189e+00 -1.945860e+00 2.903252e+00 2.660746e+00 -4.296250e+00 -8.959344e+00 -5.219762e+00 1.821708e-01 -2.519023e-01 -1.471089e+00 -1.043607e+00 3.635094e-01 1.173034e+00 1.011471e+00 1.403885e-01 -2.352284e-01 -6.882594e-01 -1.000747e+00 -3.902914e-02 1.072461e-01 2.524920e-02
<VARIANCE> 25
 1.017691e+01 2.046460e+01 2.241577e+01 3.083209e+01 4.913145e+01 3.348315e+01 5.405873e+01 3.721765e+01 4.386704e+01 2.955003e+01 2.920331e+01 2.578219e+01 9.029111e-01 1.238302e+00 1.554353e+00 1.872891e+00 2.825757e+00 2.292249e+00 3.027355e+00 2.542878e+00 2.645637e+00 2.489618e+00 2.000234e+00 1.953677e+00 8.174474e-04
<GCONST> 8.785582e+01
<MIXTURE> 104 5.694618e-03
<MEAN> 25
 3.487570e+00 -9.285796e+00 -6.205352e+00 -3.047490e+00 -1.752189e+00 -1.945860e+00 2.903252e+00 2.660746e+00 -4.296250e+00 -8.959344e+00 -5.219762e+00 1.821708e-01 -2.519023e-01 -1.471089e+00 -1.043607e+00 3.635094e-01 1.173034e+00 1.011471e+00 1.403885e-01 -2.352284e-01 -6.882594e-01 -1.000747e+00 -3.902914e-02 1.072461e-01 2.524920e-02
<VARIANCE> 25
 1.017691e+01 2.046460e+01 2.241577e+01 3.083209e+01 4.913145e+01 3.348315e+01 5.405873e+01 3.721765e+01 4.386704e+01 2.955003e+01 2.920331e+01 2.578219e+01 9.029111e-01 1.238302e+00 1.554353e+00 1.872891e+00 2.825757e+00 2.292249e+00 3.027355e+00 2.542878e+00 2.645637e+00 2.489618e+00 2.000234e+00 1.953677e+00 8.174474e-04
<GCONST> 8.785582e+01
<MIXTURE> 105 4.710235e-03
<MEAN> 25
 1.949893e+00 -1.228620e+00 1.103736e+01 -4.046633e+00 -1.301352e+01 -4.972178e+00 -6.256773e+00 2.796444e+00 -5.293712e+00 -2.616167e+00 1.414065e+00 -2.117459e-01 -6.704191e-03 1.020842e-02 1.104831e-01 -1.576175e-01 8.747081e-03 3.552701e-02 -1.538576e-02 1.050484e-01 -3.791511e-02 8.516275e-02 -3.983721e-02 3.357267e-02 -3.338261e-04
<VARIANCE> 25
 9.371286e+00 1.844620e+01 3.059234e+01 3.140687e+01 3.061621e+01 3.451289e+01 5.109294e+01 5.017682e+01 2.739262e+01 2.866865e+01 2.781454e+01 2.082903e+01 6.829757e-02 1.785311e-01 3.556346e-01 3.073089e-01 3.402989e-01 3.988739e-01 4.238464e-01 4.136231e-01 3.644241e-01 3.758706e-01 3.555830e-01 3.280917e-01 7.640551e-05
<GCONST> 6.183254e+01
<MIXTURE> 106 4.710235e-03
<MEAN> 25
 1.949893e+00 -1.228620e+00 1.103736e+01 -4.046633e+00 -1.301352e+01 -4.972178e+00 -6.256773e+00 2.796444e+00 -5.293712e+00 -2.616167e+00 1.414065e+00 -2.117459e-01 -6.704191e-03 1.020842e-02 1.104831e-01 -1.576175e-01 8.747081e-03 3.552701e-02 -1.538576e-02 1.050484e-01 -3.791511e-02 8.516275e-02 -3.983721e-02 3.357267e-02 -3.338261e-04
<VARIANCE> 25
 9.371286e+00 1.844620e+01 3.059234e+01 3.140687e+01 3.061621e+01 3.451289e+01 5.109294e+01 5.017682e+01 2.739262e+01 2.866865e+01 2.781454e+01 2.082903e+01 6.829757e-02 1.785311e-01 3.556346e-01 3.073089e-01 3.402989e-01 3.988739e-01 4.238464e-01 4.136231e-01 3.644241e-01 3.758706e-01 3.555830e-01 3.280917e-01 7.640551e-05
<GCONST> 6.183254e+01
<MIXTURE> 107 5.452374e-03
<MEAN> 25
 8.453057e+00 -2.710050e+00 -8.325106e+00 -9.618763e+00 9.452977e-01 4.567408e+00 -7.970173e+00 -4.577605e+00 -2.347120e-01 3.504246e+00 7.387748e-01 -5.517172e+00 -6.194789e-01 -5.921983e-01 8.337978e-01 1.535040e+00 4.810685e-01 -2.093218e+00 -1.172916e+00 8.823833e-01 1.667657e+00 2.410654e-01 -1.576288e+00 -8.693362e-01 -4.222387e-03
<VARIANCE> 25
 8.486386e+00 1.948318e+01 2.599294e+01 3.886623e+01 4.051449e+01 4.934582e+01 5.053313e+01 3.333186e+01 4.270558e+01 3.654392e+01 4.611524e+01 3.184293e+01 4.408961e-01 1.023875e+00 1.386724e+00 2.803810e+00 2.461897e+00 2.642990e+00 2.883227e+00 2.606698e+00 2.088899e+00 2.873655e+00 1.785175e+00 2.367647e+00 6.763592e-04
<GCONST> 8.803462e+01
<MIXTURE> 108 5.452374e-03
<MEAN> 25
 8.453057e+00 -2.710050e+00 -8.325106e+00 -9.618763e+00 9.452977e-01 4.567408e+00 -7.970173e+00 -4.577605e+00 -2.347120e-01 3.504246e+00 7.387748e-01 -5.517172e+00 -6.194789e-01 -5.921983e-01 8.337978e-01 1.535040e+00 4.810685e-01 -2.093218e+00 -1.172916e+00 8.823833e-01 1.667657e+00 2.410654e-01 -1.576288e+00 -8.693362e-01 -4.222387e-03
<VARIANCE> 25
 8.486386e+00 1.948318e+01 2.599294e+01 3.886623e+01 4.051449e+01 4.934582e+01 5.053313e+01 3.333186e+01 4.270558e+01 3.654392e+01 4.611524e+01 3.184293e+01 4.408961e-01 1.023875e+00 1.386724e+00 2.803810e+00 2.461897e+00 2.642990e+00 2.883227e+00 2.606698e+00 2.088899e+00 2.873655e+00 1.785175e+00 2.367647e+00 6.763592e-04
<GCONST> 8.803462e+01
<MIXTURE> 109 6.661064e-03
<MEAN> 25
 3.861128e+00 -1.043912e+01 -8.337414e+00 -1.271996e+00 3.029897e+00 -3.044232e-01 -1.694924e-01 1.625839e+00 -2.400306e+00 -8.276551e+00 -5.382642e+00 -5.093638e-02 -2.879632e-02 -1.343733e-01 -2.905803e-02 2.283076e-01 1.999373e-01 1.235635e-01 -1.098875e-01 -7.458904e-02 -3.163899e-02 -1.333556e-01 2.100091e-01 7.410404e-03 -3.205049e-03
<VARIANCE> 25
 1.018848e+01 1.821670e+01 1.960101e+01 3.067730e+01 4.188599e+01 3.771130e+01 4.575218e+01 3.421393e+01 4.577363e+01 3.490029e+01 2.884038e+01 2.781574e+01 1.887372e-01 4.264714e-01 5.349541e-01 6.487215e-01 1.221662e+00 9.958467e-01 1.249609e+00 1.141411e+00 1.103440e+00 9.411605e-01 8.671184e-01 8.859091e-01 1.809384e-04
<GCONST> 7.448392e+01
<MIXTURE> 110 6.661064e-03
<MEAN> 25
 3.861128e+00 -1.043912e+01 -8.337414e+00 -1.271996e+00 3.029897e+00 -3.044232e-01 -1.694924e-01 1.625839e+00 -2.400306e+00 -8.276551e+00 -5.382642e+00 -5.093638e-02 -2.879632e-02 -1.343733e-01 -2.905803e-02 2.283076e-01 1.999373e-01 1.235635e-01 -1.098875e-01 -7.458904e-02 -3.163899e-02 -1.333556e-01 2.100091e-01 7.410404e-03 -3.205049e-03
<VARIANCE> 25
 1.018848e+01 1.821670e+01 1.960101e+01 3.067730e+01 4.188599e+01 3.771130e+01 4.575218e+01 3.421393e+01 4.577363e+01 3.490029e+01 2.884038e+01 2.781574e+01 1.887372e-01 4.264714e-01 5.349541e-01 6.487215e-01 1.221662e+00 9.958467e-01 1.249609e+00 1.141411e+00 1.103440e+00 9.411605e-01 8.671184e-01 8.859091e-01 1.809384e-04
<GCONST> 7.448392e+01
<MIXTURE> 111 4.337247e-03
<MEAN> 25
 -4.473494e+00 -9.069857e-01 -1.723315e+00 1.687678e+00 9.671423e-01 9.626850e-01 3.130366e-01 2.125868e-01 9.101974e-02 -5.419555e-01 -6.308630e-01 1.963904e+00 -2.110139e-02 -3.251315e-02 -7.241166e-02 -7.354562e-02 -3.739572e-02 6.164809e-03 -1.040110e-03 -5.914785e-02 -1.404867e-01 -2.028147e-01 -1.900418e-01 -1.065959e-01 -2.144400e-04
<VARIANCE> 25
 7.000207e+00 4.977603e+00 1.023160e+01 9.405980e+00 1.312937e+01 2.385089e+01 1.466889e+01 1.317334e+01 1.161987e+01 1.191114e+01 1.362832e+01 1.158906e+01 7.916333e-02 1.636117e-01 2.752598e-01 4.204444e-01 5.694045e-01 7.054772e-01 8.005025e-01 8.581505e-01 8.927274e-01 8.559485e-01 8.619677e-01 8.478974e-01 2.231013e-05
<GCONST> 5.598409e+01
<MIXTURE> 112 4.337247e-03
<MEAN> 25
 -4.473494e+00 -9.069857e-01 -1.723315e+00 1.687678e+00 9.671423e-01 9.626850e-01 3.130366e-01 2.125868e-01 9.101974e-02 -5.419555e-01 -6.308630e-01 1.963904e+00 -2.110139e-02 -3.251315e-02 -7.241166e-02 -7.354562e-02 -3.739572e-02 6.164809e-03 -1.040110e-03 -5.914785e-02 -1.404867e-01 -2.028147e-01 -1.900418e-01 -1.065959e-01 -2.144400e-04
<VARIANCE> 25
 7.000207e+00 4.977603e+00 1.023160e+01 9.405980e+00 1.312937e+01 2.385089e+01 1.466889e+01 1.317334e+01 1.161987e+01 1.191114e+01 1.362832e+01 1.158906e+01 7.916333e-02 1.636117e-01 2.752598e-01 4.204444e-01 5.694045e-01 7.054772e-01 8.005025e-01 8.581505e-01 8.927274e-01 8.559485e-01 8.619677e-01 8.478974e-01 2.231013e-05
<GCONST> 5.598409e+01
<MIXTURE> 113 5.938666e-03
<MEAN> 25
 1.004537e+01 1.670808e+00 -8.700347e+00 -1.689585e+01 -1.607679e+00 6.035339e+00 -4.780107e+00 -1.712621e+00 -5.341430e+00 -6.261678e-01 6.899235e-01 -3.790313e-01 1.021470e-03 1.396445e-02 -7.491273e-02 -8.835671e-02 1.160141e-01 1.827968e-01 5.324142e-02 -1.955680e-03 -4.480483e-02 -3.144039e-02 2.102134e-01 2.841237e-03 -1.505190e-03
<VARIANCE> 25
 8.538951e+00 1.589319e+01 2.878352e+01 3.356699e+01 5.668816e+01 3.501250e+01 4.272363e+01 4.006678e+01 3.900077e+01 4.501225e+01 3.745049e+01 2.793001e+01 1.192007e-01 3.310495e-01 3.161587e-01 6.324261e-01 6.075342e-01 6.859539e-01 7.533332e-01 8.450648e-01 9.825737e-01 9.299123e-01 7.403566e-01 7.068918e-01 1.203920e-04
<GCONST> 7.126109e+01
<MIXTURE> 114 5.938666e-03
<MEAN> 25
 1.004537e+01 1.670808e+00 -8.700347e+00 -1.689585e+01 -1.607679e+00 6.035339e+00 -4.780107e+00 -1.712621e+00 -5.341430e+00 -6.261678e-01 6.899235e-01 -3.790313e-01 1.021470e-03 1.396445e-02 -7.491273e-02 -8.835671e-02 1.160141e-01 1.827968e-01 5.324142e-02 -1.955680e-03 -4.480483e-02 -3.144039e-02 2.102134e-01 2.841237e-03 -1.505190e-03
<VARIANCE> 25
 8.538951e+00 1.589319e+01 2.878352e+01 3.356699e+01 5.668816e+01 3.501250e+01 4.272363e+01 4.006678e+01 3.900077e+01 4.501225e+01 3.745049e+01 2.793001e+01 1.192007e-01 3.310495e-01 3.161587e-01 6.324261e-01 6.075342e-01 6.859539e-01 7.533332e-01 8.450648e-01 9.825737e-01 9.299123e-01 7.403566e-01 7.068918e-01 1.203920e-04
<GCONST> 7.126109e+01
<MIXTURE> 115 2.935202e-03
<MEAN> 25
 -3.912167e+00 -8.331860e-01 -3.392537e+00 3.643010e+00 2.771111e+00 -6.613817e-01 2.043433e+00 6.862860e-01 1.633542e+00 8.031014e-02 -5.002538e-02 2.569349e+00 2.482304e-02 -1.062809e-01 -2.570503e-01 -4.470927e-01 -5.701457e-01 -6.730393e-01 -6.084554e-01 -5.143616e-01 -5.603759e-01 -4.903260e-01 -3.468183e-01 -2.102910e-01 -5.274408e-06
<VARIANCE> 25
 9.199440e+00 9.681170e+00 1.468088e+01 1.221952e+01 1.563258e+01 1.819162e+01 1.725581e+01 2.162977e+01 1.853708e+01 1.684311e+01 1.856811e+01 1.437704e+01 1.965839e-01 3.613616e-01 4.967071e-01 5.410931e-01 7.089785e-01 7.664926e-01 9.831471e-01 1.099721e+00 1.160995e+00 9.924151e-01 9.909468e-01 1.083467e+00 9.595223e-07
<GCONST> 6.039482e+01
<MIXTURE> 116 2.935202e-03
<MEAN> 25
 -3.912167e+00 -8.331860e-01 -3.392537e+00 3.643010e+00 2.771111e+00 -6.613817e-01 2.043433e+00 6.862860e-01 1.633542e+00 8.031014e-02 -5.002538e-02 2.569349e+00 2.482304e-02 -1.062809e-01 -2.570503e-01 -4.470927e-01 -5.701457e-01 -6.730393e-01 -6.084554e-01 -5.143616e-01 -5.603759e-01 -4.903260e-01 -3.468183e-01 -2.102910e-01 -5.274408e-06
<VARIANCE> 25
 9.199440e+00 9.681170e+00 1.468088e+01 1.221952e+01 1.563258e+01 1.819162e+01 1.725581e+01 2.162977e+01 1.853708e+01 1.684311e+01 1.856811e+01 1.437704e+01 1.965839e-01 3.613616e-01 4.967071e-01 5.410931e-01 7.089785e-01 7.664926e-01 9.831471e-01 1.099721e+00 1.160995e+00 9.924151e-01 9.909468e-01 1.083467e+00 9.595223e-07
<GCONST> 6.039482e+01
<MIXTURE> 117 6.506003e-03
<MEAN> 25
 -5.390219e+00 1.893347e+00 1.288034e+00 9.903252e+00 7.441323e+00 5.660956e+00 6.336923e+00 5.111779e+00 6.501520e+00 4.745801e+00 5.857448e+00 2.887455e+00 -4.445980e-02 -2.384122e-01 -3.767913e-01 -4.422037e-01 -2.878531e-01 -3.182749e-01 -3.061873e-01 -4.061415e-01 -3.940316e-01 -3.704322e-01 -3.456707e-01 -1.209873e-01 -7.693184e-06
<VARIANCE> 25
 9.340655e+00 1.092596e+01 8.892471e+00 1.269392e+01 2.174167e+01 1.532672e+01 1.765629e+01 1.749266e+01 1.565668e+01 1.475657e+01 1.735611e+01 1.389651e+01 1.982704e-01 2.853267e-01 3.995629e-01 5.439603e-01 8.331057e-01 9.230831e-01 1.158052e+00 1.177112e+00 1.455412e+00 1.058345e+00 1.282875e+00 1.065890e+00 8.642680e-07
<GCONST> 6.020084e+01
<MIXTURE> 118 6.506003e-03
<MEAN> 25
 -5.390219e+00 1.893347e+00 1.288034e+00 9.903252e+00 7.441323e+00 5.660956e+00 6.336923e+00 5.111779e+00 6.501520e+00 4.745801e+00 5.857448e+00 2.887455e+00 -4.445980e-02 -2.384122e-01 -3.767913e-01 -4.422037e-01 -2.878531e-01 -3.182749e-01 -3.061873e-01 -4.061415e-01 -3.940316e-01 -3.704322e-01 -3.456707e-01 -1.209873e-01 -7.693184e-06
<VARIANCE> 25
 9.340655e+00 1.092596e+01 8.892471e+00 1.269392e+01 2.174167e+01 1.532672e+01 1.765629e+01 1.749266e+01 1.565668e+01 1.475657e+01 1.735611e+01 1.389651e+01 1.982704e-01 2.853267e-01 3.995629e-01 5.439603e-01 8.331057e-01 9.230831e-01 1.158052e+00 1.177112e+00 1.455412e+00 1.058345e+00 1.282875e+00 1.065890e+00 8.642680e-07
<GCONST> 6.020084e+01
<MIXTURE> 119 4.297961e-03
<MEAN> 25
 -4.962980e+00 -7.658493e+00 2.166312e+00 2.011931e+00 2.309563e+00 1.444336e-01 5.189885e+00 5.955744e+00 1.204291e+00 9.609365e-01 6.574221e+00 1.562790e+00 -5.114776e-02 -8.335435e-02 3.863174e-02 -5.447491e-02 -1.291292e-01 -1.796266e-01 -7.022617e-02 -1.358045e-02 -9.742707e-02 -1.172876e-01 -5.553628e-02 -6.155248e-02 1.170256e-03
<VARIANCE> 25
 8.445076e+00 9.818674e+00 1.691471e+01 2.003801e+01 2.319975e+01 2.346261e+01 2.557173e+01 2.640087e+01 2.507939e+01 2.789947e+01 2.040995e+01 2.024313e+01 1.597002e-01 2.825099e-01 4.613096e-01 6.310755e-01 7.987984e-01 1.001876e+00 1.091516e+00 1.284093e+00 1.322329e+00 1.277696e+00 1.189760e+00 1.110946e+00 2.302806e-04
<GCONST> 6.978907e+01
<MIXTURE> 120 4.297961e-03
<MEAN> 25
 -4.962980e+00 -7.658493e+00 2.166312e+00 2.011931e+00 2.309563e+00 1.444336e-01 5.189885e+00 5.955744e+00 1.204291e+00 9.609365e-01 6.574221e+00 1.562790e+00 -5.114776e-02 -8.335435e-02 3.863174e-02 -5.447491e-02 -1.291292e-01 -1.796266e-01 -7.022617e-02 -1.358045e-02 -9.742707e-02 -1.172876e-01 -5.553628e-02 -6.155248e-02 1.170256e-03
<VARIANCE> 25
 8.445076e+00 9.818674e+00 1.691471e+01 2.003801e+01 2.319975e+01 2.346261e+01 2.557173e+01 2.640087e+01 2.507939e+01 2.789947e+01 2.040995e+01 2.024313e+01 1.597002e-01 2.825099e-01 4.613096e-01 6.310755e-01 7.987984e-01 1.001876e+00 1.091516e+00 1.284093e+00 1.322329e+00 1.277696e+00 1.189760e+00 1.110946e+00 2.302806e-04
<GCONST> 6.978907e+01
<MIXTURE> 121 4.567511e-03
<MEAN> 25
 2.090795e-01 -2.522696e+00 5.159572e+00 -1.290072e+01 -1.264763e+01 -1.669182e+00 9.946636e-01 -5.093465e+00 -4.202038e+00 -4.897249e-01 -5.504446e+00 -4.309861e+00 2.425837e-02 1.330152e-01 -4.243611e-02 7.983314e-02 1.593010e-01 7.807676e-02 -7.972267e-02 -1.833361e-01 -2.683041e-01 -2.581679e-01 -1.138132e-01 3.073968e-04 -7.438981e-03
<VARIANCE> 25
 7.730262e+00 1.559624e+01 1.731466e+01 2.035236e+01 2.439425e+01 2.924907e+01 2.953982e+01 2.482094e+01 3.527221e+01 2.831833e+01 1.974801e+01 2.118190e+01 1.549742e-01 6.433066e-01 6.241276e-01 7.045217e-01 7.710532e-01 1.149313e+00 1.117521e+00 1.120143e+00 1.216720e+00 1.192216e+00 9.416705e-01 8.719807e-01 2.107356e-04
<GCONST> 7.140074e+01
<MIXTURE> 122 4.567511e-03
<MEAN> 25
 2.090795e-01 -2.522696e+00 5.159572e+00 -1.290072e+01 -1.264763e+01 -1.669182e+00 9.946636e-01 -5.093465e+00 -4.202038e+00 -4.897249e-01 -5.504446e+00 -4.309861e+00 2.425837e-02 1.330152e-01 -4.243611e-02 7.983314e-02 1.593010e-01 7.807676e-02 -7.972267e-02 -1.833361e-01 -2.683041e-01 -2.581679e-01 -1.138132e-01 3.073968e-04 -7.438981e-03
<VARIANCE> 25
 7.730262e+00 1.559624e+01 1.731466e+01 2.035236e+01 2.439425e+01 2.924907e+01 2.953982e+01 2.482094e+01 3.527221e+01 2.831833e+01 1.974801e+01 2.118190e+01 1.549742e-01 6.433066e-01 6.241276e-01 7.045217e-01 7.710532e-01 1.149313e+00 1.117521e+00 1.120143e+00 1.216720e+00 1.192216e+00 9.416705e-01 8.719807e-01 2.107356e-04
<GCONST> 7.140074e+01
<MIXTURE> 123 4.393044e-03
<MEAN> 25
 -4.263561e+00 9.319331e-01 9.796789e-02 6.181754e+00 5.288188e+00 3.519089e+00 3.292635e+00 4.440885e-01 2.914370e-01 -5.224567e-01 1.179605e-02 8.153847e-01 -4.810638e-01 -7.747979e-01 -8.654597e-01 -6.230051e-01 -2.622166e-01 6.238524e-02 3.785985e-01 6.485505e-01 7.953479e-01 7.709888e-01 7.218808e-01 5.287551e-01 -2.904308e-03
<VARIANCE> 25
 1.053552e+01 1.026901e+01 1.574169e+01 1.725719e+01 2.197281e+01 2.731737e+01 2.188827e+01 1.900581e+01 1.925982e+01 1.765007e+01 2.225385e+01 1.977206e+01 3.807336e-01 3.625844e-01 5.116982e-01 7.246866e-01 9.961525e-01 1.154741e+00 1.202457e+00 1.188133e+00 1.167064e+00 1.178218e+00 1.214580e+00 1.202704e+00 9.849298e-05
<GCONST> 6.957545e+01
<MIXTURE> 124 4.069876e-03
<MEAN> 25
 -6.562458e+00 -1.212231e+00 -2.926890e+00 5.104788e+00 4.981825e+00 3.386595e+00 5.382710e+00 2.569887e+00 3.199732e+00 1.274149e+00 1.121246e+00 3.043446e+00 -2.046934e-01 -3.223638e-01 -3.622645e-01 -2.162844e-01 1.279123e-01 5.198033e-01 8.101721e-01 8.597211e-01 6.552158e-01 3.272063e-01 7.190398e-02 -2.493004e-02 4.313331e-05
<VARIANCE> 25
 1.101035e+01 6.997967e+00 1.115279e+01 1.243136e+01 1.219025e+01 1.981982e+01 1.557162e+01 1.707080e+01 1.547482e+01 1.609032e+01 1.922882e+01 1.443041e+01 1.047973e-01 1.685358e-01 2.700980e-01 4.175988e-01 5.929742e-01 7.072409e-01 7.483925e-01 8.138943e-01 9.085521e-01 9.813666e-01 1.008142e+00 9.926273e-01 1.797028e-05
<GCONST> 5.881254e+01
<MIXTURE> 125 4.069876e-03
<MEAN> 25
 -6.562458e+00 -1.212231e+00 -2.926890e+00 5.104788e+00 4.981825e+00 3.386595e+00 5.382710e+00 2.569887e+00 3.199732e+00 1.274149e+00 1.121246e+00 3.043446e+00 -2.046934e-01 -3.223638e-01 -3.622645e-01 -2.162844e-01 1.279123e-01 5.198033e-01 8.101721e-01 8.597211e-01 6.552158e-01 3.272063e-01 7.190398e-02 -2.493004e-02 4.313331e-05
<VARIANCE> 25
 1.101035e+01 6.997967e+00 1.115279e+01 1.243136e+01 1.219025e+01 1.981982e+01 1.557162e+01 1.707080e+01 1.547482e+01 1.609032e+01 1.922882e+01 1.443041e+01 1.047973e-01 1.685358e-01 2.700980e-01 4.175988e-01 5.929742e-01 7.072409e-01 7.483925e-01 8.138943e-01 9.085521e-01 9.813666e-01 1.008142e+00 9.926273e-01 1.797028e-05
<GCONST> 5.881254e+01
<MIXTURE> 126 2.402244e-03
<MEAN> 25
 -3.313607e+00 -7.437996e+00 -6.735803e+00 1.784371e+00 7.572935e+00 -5.781672e+00 -2.601352e+00 5.095102e+00 4.449180e+00 -2.422701e+00 -1.722334e+00 1.320971e+00 -2.901342e-02 -7.916592e-02 5.653465e-02 -1.090715e-01 -2.546328e-01 -2.099156e-01 -1.547786e-01 -9.180278e-02 3.237417e-03 -1.062494e-01 -5.180587e-02 -2.598427e-02 8.411165e-04
<VARIANCE> 25
 3.880072e+00 1.040122e+01 1.215341e+01 9.025790e+00 1.779718e+01 1.812700e+01 1.604716e+01 2.004298e+01 2.515161e+01 1.969267e+01 1.562846e+01 1.480500e+01 1.208446e-01 4.715038e-01 4.747179e-01 4.458981e-01 6.399419e-01 7.958254e-01 9.400609e-01 1.769519e+00 2.121619e+00 1.951749e+00 1.158651e+00 1.313265e+00 1.913338e-04
<GCONST> 6.623701e+01
<MIXTURE> 127 2.402244e-03
<MEAN> 25
 -3.313607e+00 -7.437996e+00 -6.735803e+00 1.784371e+00 7.572935e+00 -5.781672e+00 -2.601352e+00 5.095102e+00 4.449180e+00 -2.422701e+00 -1.722334e+00 1.320971e+00 -2.901342e-02 -7.916592e-02 5.653465e-02 -1.090715e-01 -2.546328e-01 -2.099156e-01 -1.547786e-01 -9.180278e-02 3.237417e-03 -1.062494e-01 -5.180587e-02 -2.598427e-02 8.411165e-04
<VARIANCE> 25
 3.880072e+00 1.040122e+01 1.215341e+01 9.025790e+00 1.779718e+01 1.812700e+01 1.604716e+01 2.004298e+01 2.515161e+01 1.969267e+01 1.562846e+01 1.480500e+01 1.208446e-01 4.715038e-01 4.747179e-01 4.458981e-01 6.399419e-01 7.958254e-01 9.400609e-01 1.769519e+00 2.121619e+00 1.951749e+00 1.158651e+00 1.313265e+00 1.913338e-04
<GCONST> 6.623701e+01
<MIXTURE> 128 3.790457e-03
<MEAN> 25
 -4.600809e+00 2.025342e+00 -8.323659e-01 6.255059e+00 5.183652e+00 1.135673e+00 3.543713e+00 2.623356e+00 4.624685e+00 3.617913e+00 2.865548e+00 2.768345e+00 -2.628763e-01 -1.282064e-01 2.770746e-01 8.813952e-01 1.071951e+00 1.080399e+00 9.205765e-01 1.723179e-02 -8.294945e-01 -6.181766e-01 -5.063961e-01 -1.470813e-01 -1.256077e-07
<VARIANCE> 25
 1.151451e+01 1.213787e+01 1.697117e+01 1.885172e+01 2.650616e+01 2.092657e+01 2.147002e+01 2.393602e+01 2.662550e+01 2.076788e+01 2.704861e+01 1.948279e+01 9.527096e-01 1.235782e+00 1.513361e+00 1.602556e+00 1.628574e+00 1.642248e+00 2.393035e+00 2.169354e+00 2.987637e+00 1.968048e+00 2.044055e+00 2.019811e+00 8.546830e-07
<GCONST> 7.469474e+01
<TRANSP> 3
 0.000000e+00 1.000000e+00 0.000000e+00
 0.000000e+00 9.999990e-01 9.999998e-07
 0.000000e+00 0.000000e+00 0.000000e+00
<ENDHMM>
