~o
<STREAMINFO> 1 25
<VECSIZE> 25<NULLD><MFCC_E_D_N><DIAGC>
~h "jmodel"
<BEGINHMM>
<NUMSTATES> 3
<STATE> 2
<NUMMIXES> 128
<MIXTURE> 1 5.748963e-03
<MEAN> 25
 -2.556800e+00 3.180518e+00 2.300676e+00 8.714572e+00 4.380606e+00 3.426177e+00 4.009124e+00 3.904566e+00 5.825712e+00 5.231200e+00 5.886651e+00 3.077342e+00 -1.999055e+00 -1.630810e+00 -8.426293e-01 1.058233e+00 1.560976e+00 2.210986e+00 2.158838e+00 2.084735e+00 1.709384e+00 1.265403e+00 1.561640e+00 5.989375e-01 -4.707034e-02
<VARIANCE> 25
 1.016715e+01 1.170345e+01 1.489908e+01 1.890726e+01 2.307955e+01 2.216415e+01 2.241588e+01 2.206187e+01 2.090859e+01 2.251534e+01 2.085983e+01 1.702248e+01 1.785785e+00 2.103716e+00 3.103000e+00 3.254964e+00 3.719837e+00 3.425844e+00 3.305714e+00 3.367127e+00 3.555523e+00 3.711259e+00 3.503379e+00 2.863424e+00 3.112170e-03
<GCONST> 8.853861e+01
<MIXTURE> 2 4.549242e-03
<MEAN> 25
 -4.875545e+00 1.311391e+00 9.941204e-01 9.899835e+00 6.692223e+00 7.424818e+00 7.846845e+00 6.958234e+00 8.373561e+00 6.372387e+00 7.624145e+00 3.074464e+00 -6.198115e-02 4.163909e-02 1.425231e-01 2.258827e-01 2.654320e-01 2.813801e-01 2.954626e-01 3.194490e-01 3.496992e-01 3.088716e-01 1.972176e-01 8.000351e-02 1.363144e-06
<VARIANCE> 25
 6.952302e+00 8.903781e+00 1.065189e+01 1.591022e+01 1.723506e+01 1.556295e+01 1.689942e+01 1.848519e+01 1.658770e+01 1.739385e+01 1.811084e+01 1.434050e+01 1.252539e-01 2.266255e-01 3.364564e-01 4.671178e-01 6.496761e-01 8.148537e-01 9.298573e-01 1.003367e+00 1.051684e+00 1.077765e+00 1.075643e+00 1.013968e+00 1.000339e-06
<GCONST> 5.804481e+01
<MIXTURE> 3 4.549242e-03
<MEAN> 25
 -4.875545e+00 1.311391e+00 9.941204e-01 9.899835e+00 6.692223e+00 7.424818e+00 7.846845e+00 6.958234e+00 8.373561e+00 6.372387e+00 7.624145e+00 3.074464e+00 -6.198115e-02 4.163909e-02 1.425231e-01 2.258827e-01 2.654320e-01 2.813801e-01 2.954626e-01 3.194490e-01 3.496992e-01 3.088716e-01 1.972176e-01 8.000351e-02 1.363144e-06
<VARIANCE> 25
 6.952302e+00 8.903781e+00 1.065189e+01 1.591022e+01 1.723506e+01 1.556295e+01 1.689942e+01 1.848519e+01 1.658770e+01 1.739385e+01 1.811084e+01 1.434050e+01 1.252539e-01 2.266255e-01 3.364564e-01 4.671178e-01 6.496761e-01 8.148537e-01 9.298573e-01 1.003367e+00 1.051684e+00 1.077765e+00 1.075643e+00 1.013968e+00 1.000339e-06
<GCONST> 5.804481e+01
<MIXTURE> 4 1.671429e-02
<MEAN> 25
 3.079362e+00 2.165250e+00 -3.553512e+00 4.112713e-01 4.702246e+00 6.388811e-02 -8.317808e-01 -3.753249e-01 1.504667e+00 8.771168e-01 -1.353990e+00 9.103765e-01 -2.585896e+00 9.680757e-01 1.841335e+00 2.595482e+00 6.732243e-01 3.865536e-01 1.701760e+00 7.957600e-01 1.536577e+00 1.729805e-01 9.972772e-01 6.952531e-01 -8.337042e-02
<VARIANCE> 25
 2.106381e+01 2.538317e+01 2.668159e+01 3.716976e+01 3.985506e+01 5.767847e+01 6.134582e+01 4.486202e+01 5.424354e+01 5.328370e+01 4.404076e+01 3.310818e+01 2.449199e+00 4.342742e+00 3.611758e+00 6.131482e+00 5.429655e+00 5.914657e+00 5.334614e+00 5.572852e+00 6.161183e+00 6.144259e+00 5.409494e+00 4.223323e+00 8.209038e-03
<GCONST> 1.043257e+02
<MIXTURE> 5 3.206198e-03
<MEAN> 25
 -3.403492e+00 2.165456e+00 5.939645e-01 9.399028e+00 6.700177e+00 6.319516e+00 7.094920e+00 4.718541e+00 5.528576e+00 3.803045e+00 4.640435e+00 2.594855e+00 -3.237047e-01 7.526108e-01 1.221024e+00 1.026125e+00 3.103516e-01 -1.041690e-01 -8.300983e-02 2.878033e-02 4.524511e-01 6.796716e-01 4.038465e-01 8.632628e-02 -1.919685e-05
<VARIANCE> 25
 1.025881e+01 1.402775e+01 2.345256e+01 2.588120e+01 2.022631e+01 1.939547e+01 2.011127e+01 2.038779e+01 2.161274e+01 2.165044e+01 2.413667e+01 1.633988e+01 1.207317e+00 1.241218e+00 1.355316e+00 1.689586e+00 2.288113e+00 2.383318e+00 2.295722e+00 2.281211e+00 2.315726e+00 2.233718e+00 2.078639e+00 1.870166e+00 1.019948e-06
<GCONST> 7.522884e+01
<MIXTURE> 6 5.475854e-03
<MEAN> 25
 9.088425e+00 -4.000106e-01 -6.826171e+00 -9.729024e+00 -2.031169e+00 6.335972e+00 -6.418000e+00 -4.971419e+00 -4.225001e+00 2.263011e+00 4.555192e+00 -1.455846e+00 4.868786e-01 8.551722e-01 -3.249631e-01 -1.268625e+00 -5.399656e-01 1.284567e+00 1.569736e+00 1.009832e-01 -1.171538e+00 -1.188260e+00 2.333197e-01 1.373974e+00 -1.047579e-02
<VARIANCE> 25
 1.074262e+01 1.553097e+01 2.229683e+01 4.845219e+01 3.351556e+01 2.860399e+01 4.532624e+01 3.515737e+01 3.901791e+01 3.668090e+01 3.838829e+01 2.593631e+01 2.833799e-01 7.826151e-01 9.362959e-01 2.190373e+00 1.822019e+00 1.820645e+00 1.786250e+00 2.099833e+00 2.265643e+00 1.811674e+00 2.078319e+00 1.602079e+00 6.098254e-04
<GCONST> 8.340388e+01
<MIXTURE> 7 5.475854e-03
<MEAN> 25
 9.088425e+00 -4.000106e-01 -6.826171e+00 -9.729024e+00 -2.031169e+00 6.335972e+00 -6.418000e+00 -4.971419e+00 -4.225001e+00 2.263011e+00 4.555192e+00 -1.455846e+00 4.868786e-01 8.551722e-01 -3.249631e-01 -1.268625e+00 -5.399656e-01 1.284567e+00 1.569736e+00 1.009832e-01 -1.171538e+00 -1.188260e+00 2.333197e-01 1.373974e+00 -1.047579e-02
<VARIANCE> 25
 1.074262e+01 1.553097e+01 2.229683e+01 4.845219e+01 3.351556e+01 2.860399e+01 4.532624e+01 3.515737e+01 3.901791e+01 3.668090e+01 3.838829e+01 2.593631e+01 2.833799e-01 7.826151e-01 9.362959e-01 2.190373e+00 1.822019e+00 1.820645e+00 1.786250e+00 2.099833e+00 2.265643e+00 1.811674e+00 2.078319e+00 1.602079e+00 6.098254e-04
<GCONST> 8.340388e+01
<MIXTURE> 8 1.165917e-02
<MEAN> 25
 -4.726291e+00 1.362157e+00 1.288901e+00 9.549093e+00 6.576122e+00 6.254205e+00 6.479256e+00 5.686710e+00 6.666752e+00 5.623711e+00 6.569427e+00 3.150557e+00 -6.296453e-01 -1.424419e+00 -1.069372e+00 -1.730425e+00 -2.315000e-01 -9.467566e-01 -1.778240e-01 -2.906587e-01 -2.526108e-01 -1.734041e-01 -2.125684e-01 8.113129e-02 9.880593e-02
<VARIANCE> 25
 9.355076e+00 9.840693e+00 1.161632e+01 1.616809e+01 1.663032e+01 1.569985e+01 1.811654e+01 1.750478e+01 1.708533e+01 1.744765e+01 1.887771e+01 1.399205e+01 2.755184e+00 2.815712e+00 3.908322e+00 3.759394e+00 3.455258e+00 3.314825e+00 3.126594e+00 3.079479e+00 2.878887e+00 2.654653e+00 2.434125e+00 1.901175e+00 6.684265e-03
<GCONST> 8.629974e+01
<MIXTURE> 9 1.199672e-02
<MEAN> 25
 9.067013e+00 3.275707e+00 -6.141525e+00 -1.034231e+01 -1.860050e+00 4.820376e+00 -2.248582e+00 -2.299882e+00 -5.444360e+00 -1.037398e+00 6.987792e-01 -1.174734e-01 1.396006e+00 -1.383183e-01 -5.158542e-01 -2.629073e+00 -1.632734e+00 8.594927e-01 -1.043430e+00 -1.429221e-01 -2.883691e-01 -4.821899e-01 5.815153e-01 -1.736378e-01 7.060796e-02
<VARIANCE> 25
 1.275432e+01 2.090208e+01 3.225576e+01 5.350631e+01 5.106288e+01 3.173561e+01 4.216663e+01 5.020932e+01 4.081255e+01 4.125277e+01 3.541308e+01 2.608606e+01 2.080878e+00 2.355460e+00 4.458860e+00 4.767108e+00 4.811275e+00 3.931462e+00 4.208418e+00 5.950211e+00 5.147419e+00 4.072156e+00 3.859051e+00 2.687103e+00 2.266459e-03
<GCONST> 9.839030e+01
<MIXTURE> 10 6.596976e-03
<MEAN> 25
 8.485271e-01 7.567830e+00 5.299453e+00 7.070206e+00 1.645710e+00 -2.106123e+00 -6.141361e-01 -1.695917e+00 9.237902e-01 8.647868e-01 9.204769e-01 6.896864e-01 -1.909612e+00 -6.758031e-01 -4.046873e-01 2.949438e+00 2.451331e+00 2.646058e+00 2.379900e+00 2.277178e+00 1.906874e+00 1.527282e+00 2.307543e+00 4.857568e-01 -1.373590e-01
<VARIANCE> 25
 1.932790e+01 2.069595e+01 2.240197e+01 2.910050e+01 3.802232e+01 3.448364e+01 3.531898e+01 3.338596e+01 2.746830e+01 2.865012e+01 2.708123e+01 2.482450e+01 2.219084e+00 3.379060e+00 5.670502e+00 5.527796e+00 5.485795e+00 4.690955e+00 4.650250e+00 4.777664e+00 4.471085e+00 4.973581e+00 4.434602e+00 3.255171e+00 2.701760e-03
<GCONST> 9.751443e+01
<MIXTURE> 11 1.633820e-02
<MEAN> 25
 6.151161e+00 3.316794e+00 2.627163e+00 4.453996e+00 -3.535672e-01 -5.840933e-01 9.280409e-01 -6.195864e+00 -2.918114e+00 3.786128e-02 -2.255260e+00 -1.406736e+00 -3.390977e-01 6.395333e-01 3.341429e-01 1.786467e-01 5.407028e-01 -9.484515e-02 5.179381e-01 -4.295623e-01 4.155209e-01 -4.639818e-01 -3.571388e-01 1.118506e-01 -1.083712e-02
<VARIANCE> 25
 9.105572e+00 2.010727e+01 1.712459e+01 2.655137e+01 3.722634e+01 3.088774e+01 3.997713e+01 4.020313e+01 3.569701e+01 2.583474e+01 2.678637e+01 1.749642e+01 8.547086e-01 1.128249e+00 2.547125e+00 2.602086e+00 2.180537e+00 2.297460e+00 2.228509e+00 4.051746e+00 2.016461e+00 1.649113e+00 1.467756e+00 1.175533e+00 6.110267e-04
<GCONST> 8.469627e+01
<MIXTURE> 12 5.904134e-03
<MEAN> 25
 1.064086e+01 3.736801e+00 -4.459938e+00 -1.574047e+01 -8.596517e+00 8.621098e+00 -7.997668e-01 -1.810953e+00 -1.649180e+00 -4.825496e+00 1.607074e+00 6.745179e-01 5.791866e-02 2.862385e-01 8.408399e-02 -3.745263e-01 -2.943132e-01 2.544127e-02 3.099041e-01 4.387602e-01 1.512826e-01 -3.717673e-01 -3.726383e-01 5.809694e-02 -6.440626e-03
<VARIANCE> 25
 9.461127e+00 2.062263e+01 2.302073e+01 3.751752e+01 4.187284e+01 3.047223e+01 4.153363e+01 4.887145e+01 4.425289e+01 3.704580e+01 3.897664e+01 2.853083e+01 2.513554e-01 6.903086e-01 6.765893e-01 1.160334e+00 1.217929e+00 1.044428e+00 1.159167e+00 1.375943e+00 1.254836e+00 1.238419e+00 1.223967e+00 9.503305e-01 5.689456e-04
<GCONST> 7.899911e+01
<MIXTURE> 13 5.904134e-03
<MEAN> 25
 1.064086e+01 3.736801e+00 -4.459938e+00 -1.574047e+01 -8.596517e+00 8.621098e+00 -7.997668e-01 -1.810953e+00 -1.649180e+00 -4.825496e+00 1.607074e+00 6.745179e-01 5.791866e-02 2.862385e-01 8.408399e-02 -3.745263e-01 -2.943132e-01 2.544127e-02 3.099041e-01 4.387602e-01 1.512826e-01 -3.717673e-01 -3.726383e-01 5.809694e-02 -6.440626e-03
<VARIANCE> 25
 9.461127e+00 2.062263e+01 2.302073e+01 3.751752e+01 4.187284e+01 3.047223e+01 4.153363e+01 4.887145e+01 4.425289e+01 3.704580e+01 3.897664e+01 2.853083e+01 2.513554e-01 6.903086e-01 6.765893e-01 1.160334e+00 1.217929e+00 1.044428e+00 1.159167e+00 1.375943e+00 1.254836e+00 1.238419e+00 1.223967e+00 9.503305e-01 5.689456e-04
<GCONST> 7.899911e+01
<MIXTURE> 14 6.488954e-03
<MEAN> 25
 -4.160956e+00 -4.459729e-01 -4.256380e-01 8.680660e+00 7.432059e+00 7.427529e+00 7.705297e+00 7.317317e+00 7.565444e+00 4.841010e+00 6.667449e+00 3.920833e+00 -2.605543e-01 1.827894e-01 3.678041e-01 2.886528e-01 6.763926e-02 2.356767e-02 1.153658e-01 1.030898e-01 3.125400e-01 5.093446e-01 5.280153e-01 6.231101e-02 -9.078437e-03
<VARIANCE> 25
 9.619738e+00 1.390238e+01 1.819277e+01 2.018718e+01 2.034276e+01 1.907456e+01 2.120181e+01 2.014093e+01 2.148908e+01 2.660121e+01 2.144028e+01 1.619216e+01 9.356407e-01 1.607231e+00 1.711915e+00 1.904435e+00 2.361068e+00 2.280725e+00 2.180605e+00 2.301162e+00 2.367737e+00 2.437596e+00 2.129866e+00 1.784211e+00 9.940277e-04
<GCONST> 8.202576e+01
<MIXTURE> 15 2.475190e-03
<MEAN> 25
 -5.423502e+00 -6.446487e-01 -2.015528e-01 7.367606e+00 5.719546e+00 5.701324e+00 6.060439e+00 4.979875e+00 5.165641e+00 4.153934e+00 5.502209e+00 2.540168e+00 -1.212561e-01 -2.924751e-02 7.500476e-02 2.437310e-01 4.893897e-01 7.865580e-01 1.072429e+00 1.182212e+00 1.059264e+00 7.561490e-01 4.196509e-01 1.534197e-01 -8.411831e-05
<VARIANCE> 25
 6.987940e+00 5.606237e+00 9.033636e+00 1.281498e+01 1.407755e+01 1.429685e+01 1.491948e+01 1.489782e+01 1.410664e+01 1.418715e+01 1.510109e+01 1.250846e+01 1.247590e-01 2.062559e-01 3.197541e-01 5.030894e-01 6.995949e-01 7.936521e-01 7.630951e-01 7.917010e-01 9.090131e-01 1.023886e+00 1.071357e+00 1.041162e+00 2.798203e-05
<GCONST> 5.858923e+01
<MIXTURE> 16 2.475190e-03
<MEAN> 25
 -5.423502e+00 -6.446487e-01 -2.015528e-01 7.367606e+00 5.719546e+00 5.701324e+00 6.060439e+00 4.979875e+00 5.165641e+00 4.153934e+00 5.502209e+00 2.540168e+00 -1.212561e-01 -2.924751e-02 7.500476e-02 2.437310e-01 4.893897e-01 7.865580e-01 1.072429e+00 1.182212e+00 1.059264e+00 7.561490e-01 4.196509e-01 1.534197e-01 -8.411831e-05
<VARIANCE> 25
 6.987940e+00 5.606237e+00 9.033636e+00 1.281498e+01 1.407755e+01 1.429685e+01 1.491948e+01 1.489782e+01 1.410664e+01 1.418715e+01 1.510109e+01 1.250846e+01 1.247590e-01 2.062559e-01 3.197541e-01 5.030894e-01 6.995949e-01 7.936521e-01 7.630951e-01 7.917010e-01 9.090131e-01 1.023886e+00 1.071357e+00 1.041162e+00 2.798203e-05
<GCONST> 5.858923e+01
<MIXTURE> 17 9.518312e-03
<MEAN> 25
 3.024168e+00 -7.870238e-01 6.573080e+00 1.883558e+00 -5.959321e+00 -6.007045e+00 -2.804479e+00 3.870052e-01 -3.135790e+00 -2.858540e+00 -2.671147e-01 9.171843e-02 -6.206051e-01 -1.190726e+00 1.292216e+00 -1.892664e+00 -2.558412e+00 -1.570126e-01 1.726600e-01 8.349913e-01 -6.873764e-01 -2.176286e-02 9.774148e-01 5.718067e-01 8.241836e-02
<VARIANCE> 25
 1.785107e+01 2.849468e+01 2.727341e+01 3.649486e+01 4.174271e+01 4.398987e+01 3.799867e+01 3.290391e+01 3.475665e+01 2.576677e+01 2.562962e+01 2.490392e+01 1.767635e+00 2.389261e+00 3.630189e+00 3.141693e+00 4.128676e+00 4.839078e+00 4.493717e+00 4.178482e+00 5.048359e+00 3.723645e+00 2.749609e+00 2.729743e+00 1.995913e-03
<GCONST> 9.551940e+01
<MIXTURE> 18 1.221018e-02
<MEAN> 25
 3.016034e+00 4.059445e+00 6.388588e+00 4.598221e+00 -4.706669e+00 -8.304236e+00 -9.364764e-01 -1.207563e+00 -5.046958e+00 -1.395577e+00 -2.588409e-01 3.811855e-01 -6.960981e-01 2.005407e+00 -2.587596e-01 9.950826e-01 3.180959e+00 1.111474e+00 4.570226e-01 -2.429016e-01 1.130665e+00 3.796036e-01 -2.742854e-01 -3.164518e-01 -1.186595e-01
<VARIANCE> 25
 1.745422e+01 2.287788e+01 2.857571e+01 2.362326e+01 3.601524e+01 2.868002e+01 3.706726e+01 3.331918e+01 4.852790e+01 3.492061e+01 2.925894e+01 2.719081e+01 2.172425e+00 2.663961e+00 4.082482e+00 8.275574e+00 3.480130e+00 4.587889e+00 4.690550e+00 3.973694e+00 5.464186e+00 3.808422e+00 3.864572e+00 3.487058e+00 3.711632e-03
<GCONST> 9.763622e+01
<MIXTURE> 19 9.912824e-03
<MEAN> 25
 -1.035194e+01 1.207252e+00 7.083221e-01 1.251115e+00 2.838692e+00 1.695397e+00 4.783966e+00 6.080104e-01 3.443831e+00 6.057860e-01 9.833165e-01 1.359447e+00 1.864068e+00 1.477982e+00 1.946732e+00 8.149747e-01 -1.102006e+00 -1.003213e+00 -9.790536e-01 -7.616425e-01 -2.018554e+00 -1.075787e+00 -7.172424e-01 -8.558214e-01 7.654387e-04
<VARIANCE> 25
 4.870047e+01 2.592228e+01 4.242668e+01 4.602678e+01 3.961721e+01 2.717618e+01 3.621005e+01 2.659447e+01 3.179272e+01 2.493649e+01 2.681270e+01 1.798365e+01 2.492799e+00 2.042532e+00 2.066449e+00 2.127535e+00 2.271552e+00 2.224114e+00 2.408075e+00 3.935098e+00 2.711371e+00 2.430916e+00 1.974735e+00 1.532820e+00 2.061583e-03
<GCONST> 9.115623e+01
<MIXTURE> 20 6.308331e-03
<MEAN> 25
 -1.389852e+01 7.255654e+00 9.472163e-01 5.958548e+00 4.872708e+00 1.087559e+00 5.664767e+00 3.454646e-01 1.314649e+00 3.929689e-01 2.226754e+00 5.597627e-02 -3.226093e+00 -7.750100e-01 -1.587437e+00 4.011979e-01 1.426926e+00 1.964078e+00 2.083846e+00 1.697075e+00 2.221756e+00 1.881073e+00 1.452334e+00 1.093596e+00 4.643553e-02
<VARIANCE> 25
 1.926634e+01 2.172271e+01 2.882480e+01 3.442232e+01 2.852117e+01 2.842084e+01 2.977626e+01 3.272478e+01 2.712810e+01 2.732040e+01 2.409368e+01 2.209530e+01 1.953274e+00 2.078571e+00 1.749561e+00 2.369468e+00 2.623118e+00 2.209722e+00 2.214266e+00 3.356300e+00 2.107874e+00 2.665686e+00 2.561229e+00 1.912940e+00 1.731374e-03
<GCONST> 8.889137e+01
<MIXTURE> 21 7.928653e-03
<MEAN> 25
 3.933825e+00 -4.507174e+00 5.642772e+00 -1.271311e+00 -1.050341e+01 -8.665384e+00 -2.541452e+00 4.289735e+00 -2.392365e+00 -3.188337e+00 2.200318e-01 3.840599e-01 -7.086653e-01 1.329890e+00 2.534218e+00 -9.490648e-02 -1.439564e+00 3.470901e-01 5.705834e-01 -1.463301e+00 -1.927681e+00 2.839476e-01 1.318026e+00 2.131383e-01 -1.318903e-02
<VARIANCE> 25
 8.908649e+00 1.818534e+01 2.970691e+01 2.989015e+01 2.824562e+01 3.247015e+01 4.193594e+01 4.062141e+01 4.478511e+01 3.228037e+01 3.285978e+01 2.262710e+01 3.686658e-01 9.330510e-01 1.910754e+00 1.359569e+00 2.546884e+00 2.200886e+00 3.552985e+00 2.496060e+00 2.147591e+00 2.615244e+00 1.960351e+00 2.252965e+00 4.235881e-04
<GCONST> 8.521096e+01
<MIXTURE> 22 8.827789e-03
<MEAN> 25
 -1.791042e+01 7.137938e+00 -4.112400e+00 7.384564e+00 4.584344e+00 2.754047e+00 8.417953e+00 1.731013e+00 5.393034e+00 3.287816e+00 5.699109e+00 1.190003e+00 -3.113825e-01 -2.055449e-01 -1.244338e-01 -1.457820e-01 -9.788356e-03 1.388432e-01 1.857426e-01 1.804756e-01 2.444872e-01 2.020900e-01 1.696332e-01 1.915092e-01 8.871377e-03
<VARIANCE> 25
 8.128751e+00 1.688550e+01 1.746735e+01 2.512087e+01 2.297066e+01 2.082164e+01 1.949901e+01 1.883752e+01 1.817629e+01 2.088482e+01 1.928857e+01 1.384897e+01 1.092116e+00 1.355499e+00 1.368083e+00 1.571684e+00 1.407142e+00 1.523710e+00 1.517400e+00 1.556541e+00 1.643086e+00 1.555139e+00 1.356529e+00 1.181800e+00 1.742255e-03
<GCONST> 7.839365e+01
<MIXTURE> 23 6.455497e-03
<MEAN> 25
 6.799836e+00 1.872078e+00 1.703614e+00 8.927331e-01 -3.372331e+00 -1.005106e+00 -2.819924e+00 -4.657913e+00 -3.594625e+00 2.327472e-01 -3.811927e+00 -2.318466e+00 2.210296e-02 1.648785e-01 -6.120164e-02 5.557660e-02 1.371440e-01 1.980086e-01 3.225983e-02 -1.239115e-02 1.979811e-02 5.644839e-02 -2.445704e-02 8.368627e-02 -4.315235e-03
<VARIANCE> 25
 9.227360e+00 1.700285e+01 2.519678e+01 3.309520e+01 4.252702e+01 4.940737e+01 5.852385e+01 5.472182e+01 3.857463e+01 3.656513e+01 4.269748e+01 2.985511e+01 1.044996e-01 3.010501e-01 3.546481e-01 4.968435e-01 7.508096e-01 6.120449e-01 6.365577e-01 9.451406e-01 8.679837e-01 8.209774e-01 7.784563e-01 6.462806e-01 6.877251e-05
<GCONST> 7.076139e+01
<MIXTURE> 24 6.455497e-03
<MEAN> 25
 6.799836e+00 1.872078e+00 1.703614e+00 8.927331e-01 -3.372331e+00 -1.005106e+00 -2.819924e+00 -4.657913e+00 -3.594625e+00 2.327472e-01 -3.811927e+00 -2.318466e+00 2.210296e-02 1.648785e-01 -6.120164e-02 5.557660e-02 1.371440e-01 1.980086e-01 3.225983e-02 -1.239115e-02 1.979811e-02 5.644839e-02 -2.445704e-02 8.368627e-02 -4.315235e-03
<VARIANCE> 25
 9.227360e+00 1.700285e+01 2.519678e+01 3.309520e+01 4.252702e+01 4.940737e+01 5.852385e+01 5.472182e+01 3.857463e+01 3.656513e+01 4.269748e+01 2.985511e+01 1.044996e-01 3.010501e-01 3.546481e-01 4.968435e-01 7.508096e-01 6.120449e-01 6.365577e-01 9.451406e-01 8.679837e-01 8.209774e-01 7.784563e-01 6.462806e-01 6.877251e-05
<GCONST> 7.076139e+01
<MIXTURE> 25 1.118642e-02
<MEAN> 25
 -3.621454e-01 3.404471e+00 1.504631e+01 -5.312679e-01 -1.044466e+01 -1.443671e+00 -4.555023e+00 -3.148172e+00 -6.130031e+00 -5.674128e+00 4.595950e+00 -1.635310e+00 -1.727612e-01 2.279055e-01 1.094128e-01 2.957068e-01 2.809172e-01 -3.402213e-01 5.286371e-01 -1.303196e-01 -5.690251e-01 8.048867e-02 -3.865680e-02 -2.147698e-02 -1.006227e-02
<VARIANCE> 25
 9.152866e+00 1.967254e+01 2.891631e+01 2.539745e+01 3.026463e+01 3.547660e+01 2.463032e+01 2.529163e+01 2.919212e+01 3.275162e+01 1.939494e+01 2.319266e+01 5.004678e-01 1.486585e+00 1.209496e+00 1.343713e+00 2.309780e+00 2.624097e+00 1.987812e+00 1.416154e+00 1.716172e+00 1.427772e+00 1.387038e+00 1.195775e+00 1.140741e-03
<GCONST> 8.177715e+01
<MIXTURE> 26 7.727677e-03
<MEAN> 25
 2.134434e+00 -6.015703e+00 -9.792770e+00 -8.775451e-01 7.845500e+00 5.359927e+00 3.955723e+00 -3.902602e-01 2.613450e+00 -1.182922e+00 -2.890926e+00 -1.017726e+00 -7.338250e-01 5.552627e-01 3.433554e-01 7.158970e-01 1.456245e-01 2.395534e-01 3.693117e-01 2.251983e-01 3.361174e-01 1.005703e-01 4.005435e-01 4.924237e-01 -4.468292e-02
<VARIANCE> 25
 2.325364e+01 3.477080e+01 2.714593e+01 5.941753e+01 3.772452e+01 3.999545e+01 4.356752e+01 4.161689e+01 4.127074e+01 5.176336e+01 3.813428e+01 4.310932e+01 1.767829e+00 1.871328e+00 1.840007e+00 1.978819e+00 2.233045e+00 2.236338e+00 2.566000e+00 2.841846e+00 2.302848e+00 2.256092e+00 2.064991e+00 1.992751e+00 3.847890e-03
<GCONST> 9.350746e+01
<MIXTURE> 27 7.727677e-03
<MEAN> 25
 2.134434e+00 -6.015703e+00 -9.792770e+00 -8.775451e-01 7.845500e+00 5.359927e+00 3.955723e+00 -3.902602e-01 2.613450e+00 -1.182922e+00 -2.890926e+00 -1.017726e+00 -7.338250e-01 5.552627e-01 3.433554e-01 7.158970e-01 1.456245e-01 2.395534e-01 3.693117e-01 2.251983e-01 3.361174e-01 1.005703e-01 4.005435e-01 4.924237e-01 -4.468292e-02
<VARIANCE> 25
 2.325364e+01 3.477080e+01 2.714593e+01 5.941753e+01 3.772452e+01 3.999545e+01 4.356752e+01 4.161689e+01 4.127074e+01 5.176336e+01 3.813428e+01 4.310932e+01 1.767829e+00 1.871328e+00 1.840007e+00 1.978819e+00 2.233045e+00 2.236338e+00 2.566000e+00 2.841846e+00 2.302848e+00 2.256092e+00 2.064991e+00 1.992751e+00 3.847890e-03
<GCONST> 9.350746e+01
<MIXTURE> 28 5.036674e-03
<MEAN> 25
 -5.451219e+00 8.675916e-03 -1.570332e+00 6.602252e+00 5.222189e+00 3.525059e+00 5.404633e+00 3.128405e+00 3.949164e+00 2.373812e+00 2.633283e+00 3.219299e+00 -1.151341e-01 2.227944e-01 5.284233e-01 7.850581e-01 8.235067e-01 7.029389e-01 5.232705e-01 3.898786e-01 4.421262e-01 4.823396e-01 3.714681e-01 1.884261e-01 -1.120329e-05
<VARIANCE> 25
 1.048994e+01 8.365978e+00 1.214253e+01 1.499785e+01 1.475230e+01 1.774312e+01 1.806570e+01 1.914038e+01 1.744762e+01 1.688461e+01 2.058143e+01 1.499294e+01 2.564713e-01 3.367849e-01 4.066635e-01 4.662426e-01 6.252355e-01 8.474237e-01 1.054484e+00 1.149803e+00 1.104847e+00 1.029228e+00 1.034875e+00 1.067930e+00 1.006055e-06
<GCONST> 6.032156e+01
<MIXTURE> 29 5.036674e-03
<MEAN> 25
 -5.451219e+00 8.675916e-03 -1.570332e+00 6.602252e+00 5.222189e+00 3.525059e+00 5.404633e+00 3.128405e+00 3.949164e+00 2.373812e+00 2.633283e+00 3.219299e+00 -1.151341e-01 2.227944e-01 5.284233e-01 7.850581e-01 8.235067e-01 7.029389e-01 5.232705e-01 3.898786e-01 4.421262e-01 4.823396e-01 3.714681e-01 1.884261e-01 -1.120329e-05
<VARIANCE> 25
 1.048994e+01 8.365978e+00 1.214253e+01 1.499785e+01 1.475230e+01 1.774312e+01 1.806570e+01 1.914038e+01 1.744762e+01 1.688461e+01 2.058143e+01 1.499294e+01 2.564713e-01 3.367849e-01 4.066635e-01 4.662426e-01 6.252355e-01 8.474237e-01 1.054484e+00 1.149803e+00 1.104847e+00 1.029228e+00 1.034875e+00 1.067930e+00 1.006055e-06
<GCONST> 6.032156e+01
<MIXTURE> 30 8.917812e-03
<MEAN> 25
 -4.489410e+00 -2.074804e-01 6.449244e-01 9.091181e+00 7.771138e+00 7.518177e+00 7.574065e+00 6.887698e+00 6.552196e+00 4.870875e+00 7.002658e+00 3.491337e+00 -2.289712e-02 3.125006e-02 5.636872e-02 9.021125e-02 8.844096e-02 4.553641e-02 1.559305e-02 -7.191222e-03 1.537654e-02 5.009047e-02 6.364059e-02 3.217253e-02 -5.490844e-04
<VARIANCE> 25
 6.936997e+00 9.907519e+00 1.041911e+01 1.373102e+01 1.572899e+01 1.640841e+01 1.913496e+01 1.816216e+01 1.639710e+01 1.863505e+01 2.124400e+01 1.439375e+01 9.754136e-02 1.995879e-01 3.243226e-01 4.815202e-01 6.399065e-01 7.234684e-01 7.728006e-01 8.188841e-01 8.762484e-01 9.362028e-01 9.207134e-01 8.641903e-01 5.089624e-05
<GCONST> 6.065376e+01
<MIXTURE> 31 4.136493e-03
<MEAN> 25
 -3.110684e+00 -5.576130e+00 -9.489488e-02 4.631163e+00 3.661877e+00 1.893018e+00 5.224489e+00 6.574717e+00 3.527220e+00 9.535633e-01 6.337645e+00 3.075271e+00 2.433912e-01 4.411296e-01 -2.040802e-01 3.309762e-01 1.718589e-01 4.296549e-01 1.895689e-01 1.318961e-03 3.486183e-01 3.635836e-01 1.159711e-01 1.059365e-01 -1.768489e-02
<VARIANCE> 25
 7.502958e+00 1.478175e+01 1.705529e+01 2.128849e+01 2.412754e+01 2.417815e+01 2.280253e+01 2.508098e+01 3.526201e+01 2.813004e+01 1.989586e+01 1.824268e+01 1.904168e-01 5.218429e-01 5.739836e-01 7.569432e-01 1.119817e+00 1.059471e+00 1.222796e+00 1.503909e+00 1.325985e+00 1.279246e+00 1.204967e+00 1.124986e+00 2.566414e-04
<GCONST> 7.226435e+01
<MIXTURE> 32 4.136493e-03
<MEAN> 25
 -3.110684e+00 -5.576130e+00 -9.489488e-02 4.631163e+00 3.661877e+00 1.893018e+00 5.224489e+00 6.574717e+00 3.527220e+00 9.535633e-01 6.337645e+00 3.075271e+00 2.433912e-01 4.411296e-01 -2.040802e-01 3.309762e-01 1.718589e-01 4.296549e-01 1.895689e-01 1.318961e-03 3.486183e-01 3.635836e-01 1.159711e-01 1.059365e-01 -1.768489e-02
<VARIANCE> 25
 7.502958e+00 1.478175e+01 1.705529e+01 2.128849e+01 2.412754e+01 2.417815e+01 2.280253e+01 2.508098e+01 3.526201e+01 2.813004e+01 1.989586e+01 1.824268e+01 1.904168e-01 5.218429e-01 5.739836e-01 7.569432e-01 1.119817e+00 1.059471e+00 1.222796e+00 1.503909e+00 1.325985e+00 1.279246e+00 1.204967e+00 1.124986e+00 2.566414e-04
<GCONST> 7.226435e+01
<MIXTURE> 33 1.508826e-02
<MEAN> 25
 6.091950e+00 -3.581260e+00 -2.256161e+00 -1.974313e+00 -1.594683e+00 -5.535741e+00 -7.224325e+00 1.919207e+00 1.104247e+00 -6.508197e-03 -4.154170e+00 -3.104397e+00 5.615603e-01 -1.017460e+00 -2.293879e+00 -1.939431e+00 1.375898e+00 1.324485e+00 -9.006125e-01 6.686624e-01 9.860563e-01 6.046123e-01 -3.189346e-01 -1.273599e+00 3.226532e-02
<VARIANCE> 25
 1.063259e+01 2.011553e+01 2.666677e+01 3.926170e+01 4.265881e+01 4.140163e+01 4.450892e+01 4.350446e+01 4.768410e+01 4.012717e+01 3.283146e+01 2.609471e+01 1.138571e+00 1.862259e+00 2.298521e+00 2.216182e+00 3.990561e+00 3.148623e+00 4.322808e+00 5.270877e+00 3.985681e+00 4.012404e+00 2.986945e+00 2.358956e+00 1.564019e-03
<GCONST> 9.392158e+01
<MIXTURE> 34 1.588179e-02
<MEAN> 25
 8.401623e+00 1.695843e-01 1.784617e-01 1.169608e+00 -2.033912e+00 -1.171267e+00 -5.543716e+00 -4.285309e+00 -2.291824e+00 4.750267e-01 -2.255617e+00 -3.172846e+00 -3.585532e-02 1.293334e+00 1.490196e+00 2.174307e+00 5.371416e-02 -1.932990e-01 9.703658e-01 -1.934405e+00 -3.914861e-01 1.425063e-02 -5.241739e-01 3.011667e-01 -5.681195e-02
<VARIANCE> 25
 8.348677e+00 2.743569e+01 2.962276e+01 4.384164e+01 4.395227e+01 4.657747e+01 5.421171e+01 5.443941e+01 4.994429e+01 3.879383e+01 4.458261e+01 2.979725e+01 1.152245e+00 1.792464e+00 3.852327e+00 4.118035e+00 5.075489e+00 5.264484e+00 5.039978e+00 6.815991e+00 6.175652e+00 4.751382e+00 4.458295e+00 3.556425e+00 1.245374e-03
<GCONST> 9.869082e+01
<MIXTURE> 35 1.467755e-02
<MEAN> 25
 -2.238545e+00 -4.591811e+00 -8.239159e+00 -1.330184e+00 1.010599e+01 -1.760302e-01 1.344202e+00 2.331501e+00 1.747613e+00 4.239349e+00 2.633326e-01 1.261806e+00 3.043168e-01 -8.956094e-01 -1.418778e+00 -8.495313e-01 9.885437e-02 -4.313222e-01 -4.671092e-01 -3.800501e-01 1.894218e-01 -9.436110e-02 -4.997140e-01 -4.191215e-01 9.387328e-02
<VARIANCE> 25
 1.726387e+01 2.584356e+01 4.671784e+01 6.106847e+01 3.668533e+01 5.133952e+01 4.376563e+01 3.710455e+01 4.504371e+01 3.367924e+01 3.125276e+01 2.728753e+01 3.435115e+00 3.068621e+00 6.053769e+00 6.836929e+00 5.638278e+00 5.426311e+00 4.418124e+00 4.304718e+00 5.579077e+00 4.288342e+00 3.894716e+00 3.172446e+00 5.159074e-03
<GCONST> 1.018768e+02
<MIXTURE> 36 1.093293e-02
<MEAN> 25
 4.170726e+00 -3.470211e+00 4.158291e+00 5.142996e+00 -9.162910e+00 -9.087239e+00 -6.045937e+00 4.989034e+00 -5.192547e+00 -1.918007e+00 1.492512e+00 4.275994e-02 3.638225e-01 1.866141e-01 -9.404141e-01 -4.879067e-01 9.428492e-01 2.675346e-01 -6.071972e-01 2.361191e-01 3.608072e-01 6.273471e-01 -3.543950e-01 -7.225922e-01 -1.459221e-02
<VARIANCE> 25
 8.393826e+00 1.190256e+01 3.064090e+01 2.960449e+01 2.483804e+01 2.508780e+01 4.104816e+01 3.859806e+01 4.274184e+01 3.391058e+01 2.204995e+01 2.289762e+01 4.313947e-01 5.944622e-01 1.781199e+00 1.495914e+00 1.427339e+00 1.507138e+00 2.153288e+00 1.886748e+00 1.750702e+00 1.755540e+00 1.258260e+00 1.278693e+00 5.742433e-04
<GCONST> 8.059038e+01
<MIXTURE> 37 1.246826e-02
<MEAN> 25
 5.288215e-01 7.750840e+00 1.202897e+01 -5.538770e+00 -8.005596e+00 -1.065364e+00 -5.066379e+00 -8.310642e+00 -3.705880e+00 -9.160558e-01 -3.640012e+00 -1.295037e+00 1.789819e-01 6.441073e-01 -1.350927e+00 3.562412e+00 1.987279e+00 -3.045663e-01 1.089320e+00 4.364769e-01 5.304974e-01 -3.236896e-01 5.339102e-01 -9.571723e-02 -9.465817e-02
<VARIANCE> 25
 1.593495e+01 2.601539e+01 3.090805e+01 5.112439e+01 3.404322e+01 3.199286e+01 4.394559e+01 3.497109e+01 3.873869e+01 3.591823e+01 3.783588e+01 3.077361e+01 2.947587e+00 3.408056e+00 3.009443e+00 4.208064e+00 4.613803e+00 3.747670e+00 4.201950e+00 3.796371e+00 3.465008e+00 3.613379e+00 3.863835e+00 2.790806e+00 3.935869e-03
<GCONST> 9.780141e+01
<MIXTURE> 38 1.154525e-02
<MEAN> 25
 -4.942589e+00 8.115682e+00 4.270568e+00 2.665283e+00 8.938723e-01 -5.016379e+00 -3.177481e-01 -2.778560e+00 -1.980003e+00 -3.385941e+00 -1.284422e+00 -1.269859e-01 -4.253752e+00 1.176473e+00 -4.015337e-01 1.435621e+00 2.176127e+00 1.362010e+00 2.095784e+00 6.212659e-01 1.081419e+00 4.530448e-01 6.902336e-01 5.312529e-01 4.757774e-02
<VARIANCE> 25
 3.060476e+01 3.028324e+01 3.595427e+01 3.148560e+01 4.614165e+01 3.185789e+01 3.417047e+01 3.644054e+01 4.770662e+01 2.903602e+01 2.207202e+01 2.658958e+01 2.436654e+00 3.437774e+00 3.499971e+00 4.668208e+00 5.497920e+00 4.786361e+00 4.353575e+00 4.720903e+00 4.376291e+00 5.174253e+00 4.407474e+00 3.119632e+00 1.993576e-03
<GCONST> 9.857415e+01
<MIXTURE> 39 9.501865e-03
<MEAN> 25
 1.245410e+00 2.672347e+00 1.004146e+01 -9.104903e+00 -1.083787e+01 -1.031951e+00 -2.979066e+00 -6.564673e+00 -4.332192e+00 7.680639e-01 -3.550043e+00 -2.215260e+00 -7.541846e-01 1.505434e+00 1.587113e+00 -1.420967e+00 7.520334e-02 1.220816e+00 -1.218890e+00 -1.190417e+00 4.619397e-01 4.077437e-01 -4.827259e-01 1.156059e-01 1.399777e-03
<VARIANCE> 25
 9.041602e+00 2.964448e+01 3.182988e+01 3.831906e+01 4.318928e+01 4.176622e+01 4.337215e+01 3.284330e+01 4.008426e+01 3.274827e+01 3.575351e+01 2.902402e+01 7.084398e-01 1.541182e+00 1.541344e+00 2.907589e+00 2.423792e+00 2.766837e+00 3.029057e+00 2.852405e+00 2.472248e+00 2.611657e+00 2.091432e+00 2.054273e+00 1.182231e-03
<GCONST> 8.975807e+01
<MIXTURE> 40 1.030800e-02
<MEAN> 25
 -9.025537e+00 2.085932e+00 -1.131343e+00 7.933973e+00 3.831961e+00 5.547786e+00 5.294905e+00 4.227392e+00 4.953689e+00 3.986303e+00 5.550775e+00 1.690279e+00 -9.731597e-02 -2.330457e-01 -1.503160e-02 -2.525665e-01 -9.190857e-02 -1.611016e-01 6.663311e-02 3.778291e-02 4.226433e-02 -3.360355e-03 9.002315e-02 3.040185e-02 3.636639e-03
<VARIANCE> 25
 4.451642e+01 2.039071e+01 2.871026e+01 2.969013e+01 2.573634e+01 1.857735e+01 1.918630e+01 1.834030e+01 2.031962e+01 1.951828e+01 1.930758e+01 1.422492e+01 7.314452e-01 7.559552e-01 8.672878e-01 1.097612e+00 1.159443e+00 1.325391e+00 1.289748e+00 1.338454e+00 1.387675e+00 1.203120e+00 1.169608e+00 1.061509e+00 8.368318e-04
<GCONST> 7.711440e+01
<MIXTURE> 41 6.713375e-03
<MEAN> 25
 1.052220e+00 1.733922e+00 1.018993e+01 -6.473960e+00 -9.864527e+00 -3.782441e+00 -2.573961e+00 -4.643484e+00 -4.603822e+00 2.839644e+00 -1.747895e+00 -1.006879e+00 1.150212e-01 -7.836369e-01 1.787454e+00 -3.367576e+00 -2.640265e+00 -2.006928e-01 -5.238854e-01 -2.602131e-01 -1.187086e+00 1.157580e+00 -1.024086e+00 1.522468e-01 8.701149e-02
<VARIANCE> 25
 1.164694e+01 2.767196e+01 3.130129e+01 4.012129e+01 4.067569e+01 3.736431e+01 3.471178e+01 2.988340e+01 3.103287e+01 2.744173e+01 2.960836e+01 2.540419e+01 2.968792e+00 3.080306e+00 3.706582e+00 3.982920e+00 5.005498e+00 5.563714e+00 4.400580e+00 4.342315e+00 5.419955e+00 4.002394e+00 3.589741e+00 3.068128e+00 2.750635e-03
<GCONST> 9.726122e+01
<MIXTURE> 42 1.106211e-02
<MEAN> 25
 -2.941299e+00 3.203255e+00 4.915777e+00 3.601097e+00 -1.396960e+00 -5.632036e+00 4.536579e-01 -1.065229e+00 -1.417287e+00 -1.134359e+00 -1.542840e+00 1.327214e+00 4.061429e+00 -3.706134e-01 1.052811e+00 9.220777e-01 -2.475576e+00 -1.606012e+00 -2.555538e+00 -1.647267e-01 -2.135621e+00 -3.553624e-01 5.244577e-01 -5.358357e-01 1.271504e-02
<VARIANCE> 25
 3.285242e+01 2.000669e+01 3.882732e+01 2.635719e+01 3.917815e+01 3.608855e+01 3.701987e+01 2.302756e+01 3.125400e+01 2.284386e+01 1.747116e+01 1.536153e+01 3.100875e+00 3.738051e+00 5.586905e+00 5.473893e+00 4.451088e+00 5.217625e+00 5.205173e+00 5.287784e+00 8.027624e+00 4.123445e+00 3.571617e+00 3.282161e+00 3.474494e-03
<GCONST> 9.816105e+01
<MIXTURE> 43 7.108249e-03
<MEAN> 25
 3.157968e+00 -6.269418e+00 -2.216295e+00 -5.118298e+00 -7.333406e+00 -3.403271e+00 4.080106e+00 1.405761e+00 -5.124158e+00 -7.035749e+00 -4.286295e+00 -1.245753e+00 2.381729e-01 2.153286e+00 1.913377e+00 -1.487065e-01 -1.393169e+00 -7.797236e-01 -9.599944e-01 -7.982156e-01 8.324772e-01 1.451206e+00 3.447576e-01 1.631338e-02 -4.500138e-02
<VARIANCE> 25
 9.536489e+00 1.971289e+01 2.730214e+01 3.555489e+01 3.870585e+01 3.643177e+01 3.349340e+01 4.081372e+01 4.001758e+01 3.874259e+01 2.651908e+01 2.931031e+01 6.860789e-01 1.255699e+00 1.561666e+00 2.505533e+00 2.524779e+00 2.395546e+00 2.645660e+00 3.072046e+00 2.612050e+00 2.593922e+00 2.313755e+00 1.908664e+00 9.371336e-04
<GCONST> 8.807133e+01
<MIXTURE> 44 7.328289e-03
<MEAN> 25
 -1.224461e+01 1.265697e+00 2.929041e+00 -5.058745e+00 3.549094e+00 4.339961e-01 -1.750133e-01 8.560854e-01 3.901333e+00 -1.494456e+00 1.087976e+00 2.270454e+00 -3.968095e-01 -7.137203e-02 1.420525e-01 2.554126e-01 -7.574090e-02 1.153638e-01 4.994733e-01 6.825171e-02 2.035579e-01 2.502937e-01 9.468706e-02 1.937657e-01 7.272950e-03
<VARIANCE> 25
 4.547531e+01 1.839310e+01 2.288759e+01 3.306952e+01 4.001127e+01 3.522832e+01 1.822016e+01 2.896697e+01 4.275396e+01 3.183780e+01 2.065721e+01 1.561601e+01 1.170020e+00 1.060998e+00 1.306948e+00 1.617262e+00 2.471758e+00 1.649720e+00 1.186061e+00 1.730393e+00 2.206405e+00 2.005331e+00 1.305205e+00 1.168720e+00 1.098944e-03
<GCONST> 8.400266e+01
<MIXTURE> 45 1.364932e-02
<MEAN> 25
 -1.174627e+01 1.830481e+00 -8.930740e-01 2.390483e+00 4.793909e+00 -1.921973e-01 6.001082e+00 4.770468e-01 5.284841e+00 1.214462e+00 1.410197e+00 2.916864e+00 -3.029272e+00 5.881423e-01 -1.057695e-01 -7.529370e-03 -4.386932e-01 6.435367e-02 1.038018e+00 -6.778353e-02 2.427688e-01 1.681050e-01 1.852068e-01 1.555641e-01 1.127809e-01
<VARIANCE> 25
 3.493121e+01 3.155032e+01 2.367158e+01 3.638354e+01 3.570598e+01 2.286255e+01 3.514454e+01 3.381328e+01 3.608016e+01 2.484941e+01 2.341740e+01 1.386289e+01 2.163470e+00 2.276103e+00 2.853745e+00 2.957770e+00 3.649860e+00 2.316377e+00 2.896707e+00 2.235542e+00 2.459266e+00 2.384924e+00 1.672058e+00 1.869077e+00 3.718523e-03
<GCONST> 9.112080e+01
<MIXTURE> 46 9.336259e-03
<MEAN> 25
 -9.525202e+00 2.207954e+00 1.246659e+00 7.268176e+00 5.664382e+00 3.208869e+00 7.100742e+00 4.283719e+00 5.890820e+00 4.541862e+00 4.932734e+00 2.835415e+00 1.051981e+00 -2.237997e-01 6.209463e-02 1.029601e+00 5.211213e-01 9.054638e-01 4.021543e-01 6.994280e-01 3.758017e-01 4.716155e-01 6.319910e-01 4.737536e-01 -1.015093e-01
<VARIANCE> 25
 3.401835e+01 4.261292e+01 3.788229e+01 5.123825e+01 5.338262e+01 4.010533e+01 3.711625e+01 3.573868e+01 3.345044e+01 3.070391e+01 2.793998e+01 2.005731e+01 3.910767e+00 4.013571e+00 3.879286e+00 4.076254e+00 4.239540e+00 3.708580e+00 3.294034e+00 3.227908e+00 3.470585e+00 2.966982e+00 2.274474e+00 1.830466e+00 8.142116e-03
<GCONST> 9.850011e+01
<MIXTURE> 47 7.116147e-03
<MEAN> 25
 7.127782e+00 -7.177720e+00 -7.528602e+00 -6.481385e+00 1.628187e+00 7.828368e-01 -2.284523e+00 1.176304e+00 3.225554e+00 1.318966e-01 -3.984539e+00 -6.475711e+00 -1.999007e-01 -1.234859e+00 -6.748657e-01 -4.498388e-01 6.455719e-01 7.827421e-01 8.522990e-01 3.057514e-01 7.227055e-02 -8.532792e-01 -4.692146e-01 -4.574898e-01 2.884439e-02
<VARIANCE> 25
 1.136213e+01 2.131449e+01 2.116444e+01 3.232390e+01 3.574887e+01 5.116926e+01 4.522766e+01 3.989983e+01 4.683572e+01 4.586343e+01 4.878753e+01 3.378146e+01 5.205200e-01 7.598165e-01 1.116732e+00 1.738286e+00 2.002450e+00 2.175882e+00 2.456686e+00 2.466385e+00 2.307112e+00 2.149755e+00 2.130415e+00 1.943187e+00 5.790394e-04
<GCONST> 8.663110e+01
<MIXTURE> 48 7.116147e-03
<MEAN> 25
 7.127782e+00 -7.177720e+00 -7.528602e+00 -6.481385e+00 1.628187e+00 7.828368e-01 -2.284523e+00 1.176304e+00 3.225554e+00 1.318966e-01 -3.984539e+00 -6.475711e+00 -1.999007e-01 -1.234859e+00 -6.748657e-01 -4.498388e-01 6.455719e-01 7.827421e-01 8.522990e-01 3.057514e-01 7.227055e-02 -8.532792e-01 -4.692146e-01 -4.574898e-01 2.884439e-02
<VARIANCE> 25
 1.136213e+01 2.131449e+01 2.116444e+01 3.232390e+01 3.574887e+01 5.116926e+01 4.522766e+01 3.989983e+01 4.683572e+01 4.586343e+01 4.878753e+01 3.378146e+01 5.205200e-01 7.598165e-01 1.116732e+00 1.738286e+00 2.002450e+00 2.175882e+00 2.456686e+00 2.466385e+00 2.307112e+00 2.149755e+00 2.130415e+00 1.943187e+00 5.790394e-04
<GCONST> 8.663110e+01
<MIXTURE> 49 5.548473e-03
<MEAN> 25
 -5.058741e+00 3.189676e-01 1.423571e-01 8.427417e+00 6.158168e+00 5.641865e+00 6.049949e+00 4.507359e+00 5.099495e+00 3.646610e+00 4.915026e+00 2.836479e+00 3.630880e-01 6.571551e-01 6.992186e-01 3.502242e-01 -1.805061e-01 -6.694043e-01 -9.973001e-01 -1.126629e+00 -9.567320e-01 -6.784588e-01 -4.852009e-01 -2.750665e-01 4.311422e-06
<VARIANCE> 25
 9.639610e+00 1.014435e+01 1.425691e+01 1.617387e+01 1.589244e+01 1.713912e+01 1.934138e+01 1.943108e+01 1.877508e+01 1.857239e+01 2.052421e+01 1.428724e+01 2.823991e-01 2.627852e-01 3.592889e-01 6.220796e-01 9.189336e-01 9.878196e-01 1.006221e+00 1.051500e+00 1.128471e+00 1.211726e+00 1.282022e+00 1.205583e+00 1.432370e-05
<GCONST> 6.449706e+01
<MIXTURE> 50 6.234641e-03
<MEAN> 25
 -4.637394e+00 1.283906e-01 -1.446269e+00 6.146358e+00 4.192220e+00 2.320818e+00 3.672730e+00 1.940011e+00 2.838485e+00 1.330454e+00 2.108459e+00 2.826195e+00 5.992097e-02 1.727816e-01 9.780663e-02 -1.771725e-01 -5.115989e-01 -6.100176e-01 -4.292046e-01 -4.460829e-02 4.353744e-01 7.692013e-01 7.402779e-01 4.476537e-01 -1.485169e-05
<VARIANCE> 25
 1.089161e+01 1.132119e+01 1.424907e+01 1.595068e+01 1.535587e+01 1.877896e+01 1.854602e+01 1.960472e+01 1.912998e+01 1.802067e+01 2.192383e+01 1.521755e+01 1.470436e-01 2.422224e-01 3.794357e-01 5.459027e-01 5.994135e-01 7.333574e-01 9.571416e-01 1.125276e+00 1.061829e+00 9.140760e-01 9.138941e-01 9.852899e-01 1.000703e-06
<GCONST> 5.979433e+01
<MIXTURE> 51 6.234641e-03
<MEAN> 25
 -4.637394e+00 1.283906e-01 -1.446269e+00 6.146358e+00 4.192220e+00 2.320818e+00 3.672730e+00 1.940011e+00 2.838485e+00 1.330454e+00 2.108459e+00 2.826195e+00 5.992097e-02 1.727816e-01 9.780663e-02 -1.771725e-01 -5.115989e-01 -6.100176e-01 -4.292046e-01 -4.460829e-02 4.353744e-01 7.692013e-01 7.402779e-01 4.476537e-01 -1.485169e-05
<VARIANCE> 25
 1.089161e+01 1.132119e+01 1.424907e+01 1.595068e+01 1.535587e+01 1.877896e+01 1.854602e+01 1.960472e+01 1.912998e+01 1.802067e+01 2.192383e+01 1.521755e+01 1.470436e-01 2.422224e-01 3.794357e-01 5.459027e-01 5.994135e-01 7.333574e-01 9.571416e-01 1.125276e+00 1.061829e+00 9.140760e-01 9.138941e-01 9.852899e-01 1.000703e-06
<GCONST> 5.979433e+01
<MIXTURE> 52 6.367945e-03
<MEAN> 25
 1.006704e+01 2.048645e+00 -6.175822e+00 -1.418285e+01 -4.160262e+00 8.510094e+00 -2.720687e+00 -3.011968e+00 -4.391099e+00 -2.096086e+00 3.297904e+00 7.305321e-01 -3.856198e-01 -4.751401e-01 -7.162720e-02 1.123451e+00 1.327967e+00 -4.628735e-01 -6.001416e-01 -6.489407e-01 4.170064e-02 1.238505e+00 3.823503e-01 -5.395886e-01 -1.377288e-02
<VARIANCE> 25
 9.511568e+00 2.034935e+01 2.514675e+01 3.928922e+01 4.596038e+01 3.056928e+01 4.643068e+01 4.884171e+01 4.320075e+01 4.597147e+01 4.027615e+01 2.975426e+01 4.483359e-01 1.471516e+00 1.318887e+00 2.770120e+00 2.335439e+00 2.196191e+00 2.996059e+00 2.800800e+00 3.018726e+00 2.663044e+00 2.508840e+00 2.265377e+00 1.532320e-03
<GCONST> 8.974789e+01
<MIXTURE> 53 6.367945e-03
<MEAN> 25
 1.006704e+01 2.048645e+00 -6.175822e+00 -1.418285e+01 -4.160262e+00 8.510094e+00 -2.720687e+00 -3.011968e+00 -4.391099e+00 -2.096086e+00 3.297904e+00 7.305321e-01 -3.856198e-01 -4.751401e-01 -7.162720e-02 1.123451e+00 1.327967e+00 -4.628735e-01 -6.001416e-01 -6.489407e-01 4.170064e-02 1.238505e+00 3.823503e-01 -5.395886e-01 -1.377288e-02
<VARIANCE> 25
 9.511568e+00 2.034935e+01 2.514675e+01 3.928922e+01 4.596038e+01 3.056928e+01 4.643068e+01 4.884171e+01 4.320075e+01 4.597147e+01 4.027615e+01 2.975426e+01 4.483359e-01 1.471516e+00 1.318887e+00 2.770120e+00 2.335439e+00 2.196191e+00 2.996059e+00 2.800800e+00 3.018726e+00 2.663044e+00 2.508840e+00 2.265377e+00 1.532320e-03
<GCONST> 8.974789e+01
<MIXTURE> 54 7.368620e-03
<MEAN> 25
 -3.633801e+00 4.931954e-02 -6.831419e-01 8.036570e+00 6.484003e+00 4.625407e+00 4.675332e+00 4.601055e+00 4.053099e+00 3.593801e+00 4.457477e+00 2.326298e+00 -2.133210e-03 2.653849e-02 3.415401e-02 4.748240e-02 5.136495e-02 4.707923e-02 3.888674e-02 2.892036e-02 3.080963e-02 2.506088e-02 1.452187e-02 1.778039e-03 -1.219590e-05
<VARIANCE> 25
 9.137465e+00 1.036359e+01 9.295803e+00 1.818508e+01 1.332127e+01 1.353345e+01 1.197145e+01 1.128198e+01 1.134292e+01 1.354989e+01 1.780268e+01 1.253449e+01 4.087522e-02 8.734614e-02 1.540843e-01 2.265825e-01 3.079380e-01 3.969485e-01 4.608482e-01 5.215847e-01 5.420835e-01 5.211474e-01 5.144392e-01 5.164422e-01 1.000000e-06
<GCONST> 4.724841e+01
<MIXTURE> 55 7.368620e-03
<MEAN> 25
 -3.633801e+00 4.931954e-02 -6.831419e-01 8.036570e+00 6.484003e+00 4.625407e+00 4.675332e+00 4.601055e+00 4.053099e+00 3.593801e+00 4.457477e+00 2.326298e+00 -2.133210e-03 2.653849e-02 3.415401e-02 4.748240e-02 5.136495e-02 4.707923e-02 3.888674e-02 2.892036e-02 3.080963e-02 2.506088e-02 1.452187e-02 1.778039e-03 -1.219590e-05
<VARIANCE> 25
 9.137465e+00 1.036359e+01 9.295803e+00 1.818508e+01 1.332127e+01 1.353345e+01 1.197145e+01 1.128198e+01 1.134292e+01 1.354989e+01 1.780268e+01 1.253449e+01 4.087522e-02 8.734614e-02 1.540843e-01 2.265825e-01 3.079380e-01 3.969485e-01 4.608482e-01 5.215847e-01 5.420835e-01 5.211474e-01 5.144392e-01 5.164422e-01 1.000000e-06
<GCONST> 4.724841e+01
<MIXTURE> 56 6.132464e-03
<MEAN> 25
 6.367959e+00 -5.132893e+00 -7.897945e+00 -7.534755e+00 3.244890e+00 3.602698e+00 -2.704790e+00 -7.086896e-01 1.208674e+00 1.609252e+00 -1.125567e+00 -6.278499e+00 -7.372075e-03 1.584496e-02 -6.898183e-02 4.161527e-02 1.748364e-01 1.566281e-01 1.888775e-01 -1.234728e-01 -3.133485e-02 -1.142475e-02 -7.621796e-02 5.519440e-02 -6.595906e-03
<VARIANCE> 25
 1.015252e+01 2.316905e+01 1.893200e+01 3.417027e+01 2.761516e+01 3.960633e+01 6.494661e+01 2.976174e+01 6.445518e+01 3.492242e+01 3.793084e+01 2.802992e+01 1.684437e-01 4.010852e-01 3.647006e-01 7.447224e-01 7.927902e-01 9.214426e-01 1.049445e+00 9.467446e-01 9.631864e-01 8.974090e-01 9.363068e-01 6.505578e-01 1.844368e-04
<GCONST> 7.357364e+01
<MIXTURE> 57 6.132464e-03
<MEAN> 25
 6.367959e+00 -5.132893e+00 -7.897945e+00 -7.534755e+00 3.244890e+00 3.602698e+00 -2.704790e+00 -7.086896e-01 1.208674e+00 1.609252e+00 -1.125567e+00 -6.278499e+00 -7.372075e-03 1.584496e-02 -6.898183e-02 4.161527e-02 1.748364e-01 1.566281e-01 1.888775e-01 -1.234728e-01 -3.133485e-02 -1.142475e-02 -7.621796e-02 5.519440e-02 -6.595906e-03
<VARIANCE> 25
 1.015252e+01 2.316905e+01 1.893200e+01 3.417027e+01 2.761516e+01 3.960633e+01 6.494661e+01 2.976174e+01 6.445518e+01 3.492242e+01 3.793084e+01 2.802992e+01 1.684437e-01 4.010852e-01 3.647006e-01 7.447224e-01 7.927902e-01 9.214426e-01 1.049445e+00 9.467446e-01 9.631864e-01 8.974090e-01 9.363068e-01 6.505578e-01 1.844368e-04
<GCONST> 7.357364e+01
<MIXTURE> 58 6.172147e-03
<MEAN> 25
 1.889440e+00 -3.118964e+00 7.013251e+00 -3.298808e+00 -1.325638e+01 -4.841197e+00 1.556897e+00 1.358503e+00 -3.755423e+00 1.877123e+00 4.289912e-01 3.673598e-01 -6.118460e-03 -1.116422e-01 -9.056269e-02 6.816684e-02 -5.433926e-02 1.312387e-01 4.242736e-01 9.537845e-03 -1.430620e-02 7.814000e-02 4.022599e-02 -1.658352e-01 1.648202e-04
<VARIANCE> 25
 7.487112e+00 1.257821e+01 1.715541e+01 3.375714e+01 2.018650e+01 3.984714e+01 2.606383e+01 2.949739e+01 3.476249e+01 2.572095e+01 1.884015e+01 2.170488e+01 2.563787e-01 7.054492e-01 6.032190e-01 1.162548e+00 9.352462e-01 1.063070e+00 9.920981e-01 1.282992e+00 1.216256e+00 1.021508e+00 9.064240e-01 8.667389e-01 6.807899e-04
<GCONST> 7.385197e+01
<MIXTURE> 59 6.172147e-03
<MEAN> 25
 1.889440e+00 -3.118964e+00 7.013251e+00 -3.298808e+00 -1.325638e+01 -4.841197e+00 1.556897e+00 1.358503e+00 -3.755423e+00 1.877123e+00 4.289912e-01 3.673598e-01 -6.118460e-03 -1.116422e-01 -9.056269e-02 6.816684e-02 -5.433926e-02 1.312387e-01 4.242736e-01 9.537845e-03 -1.430620e-02 7.814000e-02 4.022599e-02 -1.658352e-01 1.648202e-04
<VARIANCE> 25
 7.487112e+00 1.257821e+01 1.715541e+01 3.375714e+01 2.018650e+01 3.984714e+01 2.606383e+01 2.949739e+01 3.476249e+01 2.572095e+01 1.884015e+01 2.170488e+01 2.563787e-01 7.054492e-01 6.032190e-01 1.162548e+00 9.352462e-01 1.063070e+00 9.920981e-01 1.282992e+00 1.216256e+00 1.021508e+00 9.064240e-01 8.667389e-01 6.807899e-04
<GCONST> 7.385197e+01
<MIXTURE> 60 4.479129e-03
<MEAN> 25
 -4.259410e+00 -6.649728e-01 -1.086609e+00 3.691769e+00 1.731534e+00 2.118158e+00 1.633119e+00 1.530130e+00 2.160808e+00 1.262441e+00 2.385371e+00 1.915623e+00 -2.861448e-02 5.649701e-02 1.007424e-01 1.308341e-01 1.290141e-01 1.293168e-01 1.784139e-01 3.234746e-01 5.449245e-01 6.645656e-01 5.554177e-01 3.036337e-01 -3.919346e-04
<VARIANCE> 25
 6.964477e+00 4.522050e+00 1.027769e+01 1.134090e+01 1.357390e+01 1.699165e+01 1.402965e+01 1.185366e+01 1.281897e+01 1.323197e+01 1.593126e+01 1.229752e+01 8.697256e-02 1.683288e-01 2.794878e-01 4.332703e-01 5.867383e-01 7.277853e-01 8.281391e-01 9.013918e-01 9.024878e-01 8.352503e-01 8.397639e-01 8.626524e-01 2.295066e-05
<GCONST> 5.635535e+01
<MIXTURE> 61 4.479129e-03
<MEAN> 25
 -4.259410e+00 -6.649728e-01 -1.086609e+00 3.691769e+00 1.731534e+00 2.118158e+00 1.633119e+00 1.530130e+00 2.160808e+00 1.262441e+00 2.385371e+00 1.915623e+00 -2.861448e-02 5.649701e-02 1.007424e-01 1.308341e-01 1.290141e-01 1.293168e-01 1.784139e-01 3.234746e-01 5.449245e-01 6.645656e-01 5.554177e-01 3.036337e-01 -3.919346e-04
<VARIANCE> 25
 6.964477e+00 4.522050e+00 1.027769e+01 1.134090e+01 1.357390e+01 1.699165e+01 1.402965e+01 1.185366e+01 1.281897e+01 1.323197e+01 1.593126e+01 1.229752e+01 8.697256e-02 1.683288e-01 2.794878e-01 4.332703e-01 5.867383e-01 7.277853e-01 8.281391e-01 9.013918e-01 9.024878e-01 8.352503e-01 8.397639e-01 8.626524e-01 2.295066e-05
<GCONST> 5.635535e+01
<MIXTURE> 62 3.278034e-03
<MEAN> 25
 -5.090816e+00 1.241015e+00 1.026035e+00 8.818177e+00 6.130501e+00 5.050539e+00 5.499253e+00 4.034197e+00 4.986768e+00 3.917560e+00 4.966113e+00 2.951303e+00 -1.003311e+00 -1.166701e+00 -9.531915e-01 -2.766574e-01 4.276158e-01 1.005240e+00 1.384646e+00 1.552275e+00 1.478686e+00 1.243434e+00 1.067067e+00 7.260072e-01 -1.264950e-03
<VARIANCE> 25
 9.873394e+00 9.959248e+00 1.311623e+01 1.673821e+01 1.741659e+01 1.752459e+01 1.970198e+01 1.911515e+01 1.886694e+01 1.872893e+01 2.156366e+01 1.479584e+01 4.017101e-01 4.320247e-01 5.541764e-01 7.795765e-01 1.035008e+00 1.192294e+00 1.252333e+00 1.279006e+00 1.329702e+00 1.363838e+00 1.400063e+00 1.371503e+00 1.632235e-05
<GCONST> 6.752739e+01
<MIXTURE> 63 4.351215e-03
<MEAN> 25
 -3.165025e+00 -2.339826e+00 -4.317720e+00 1.662847e+00 3.173957e+00 3.623258e-01 2.670468e+00 1.613569e+00 4.828768e+00 -1.630560e+00 -7.667550e-01 2.678376e+00 -1.006636e-01 2.419619e-01 3.032056e-01 6.563541e-01 4.046707e-01 4.667687e-01 3.342424e-01 3.117264e-01 1.419395e-01 1.968203e-01 1.443430e-01 1.395167e-01 -4.411806e-03
<VARIANCE> 25
 1.111317e+01 1.298995e+01 1.411906e+01 2.242007e+01 1.579567e+01 2.644100e+01 1.982999e+01 2.423405e+01 4.233361e+01 2.040723e+01 1.814530e+01 1.485406e+01 2.585305e-01 5.065470e-01 5.709004e-01 8.196252e-01 1.019590e+00 1.172680e+00 1.154781e+00 1.762072e+00 1.252870e+00 1.241225e+00 1.186969e+00 1.256696e+00 1.670798e-04
<GCONST> 7.148563e+01
<MIXTURE> 64 4.351215e-03
<MEAN> 25
 -3.165025e+00 -2.339826e+00 -4.317720e+00 1.662847e+00 3.173957e+00 3.623258e-01 2.670468e+00 1.613569e+00 4.828768e+00 -1.630560e+00 -7.667550e-01 2.678376e+00 -1.006636e-01 2.419619e-01 3.032056e-01 6.563541e-01 4.046707e-01 4.667687e-01 3.342424e-01 3.117264e-01 1.419395e-01 1.968203e-01 1.443430e-01 1.395167e-01 -4.411806e-03
<VARIANCE> 25
 1.111317e+01 1.298995e+01 1.411906e+01 2.242007e+01 1.579567e+01 2.644100e+01 1.982999e+01 2.423405e+01 4.233361e+01 2.040723e+01 1.814530e+01 1.485406e+01 2.585305e-01 5.065470e-01 5.709004e-01 8.196252e-01 1.019590e+00 1.172680e+00 1.154781e+00 1.762072e+00 1.252870e+00 1.241225e+00 1.186969e+00 1.256696e+00 1.670798e-04
<GCONST> 7.148563e+01
<MIXTURE> 65 1.721197e-02
<MEAN> 25
 6.743754e+00 2.252823e+00 6.781173e-01 1.179497e+00 -3.952313e+00 -2.036216e+00 -3.921829e+00 -4.507446e+00 -3.587305e+00 -1.671005e+00 -4.659939e+00 -1.831098e+00 1.668745e-01 4.021271e-02 3.642331e-02 -1.972165e-01 -2.119394e-01 3.202181e-01 -1.608372e-01 5.385455e-03 1.701357e-01 4.752922e-02 -7.183393e-02 -1.834060e-01 -4.682683e-03
<VARIANCE> 25
 1.007800e+01 1.876907e+01 2.410173e+01 3.253969e+01 3.892617e+01 5.868233e+01 6.224963e+01 5.734958e+01 5.222885e+01 4.999822e+01 4.720286e+01 3.705301e+01 4.551542e-01 8.667818e-01 1.730652e+00 1.939370e+00 2.151952e+00 1.992985e+00 2.402092e+00 3.390226e+00 2.512027e+00 2.430410e+00 1.925606e+00 1.716796e+00 3.312294e-04
<GCONST> 8.792896e+01
<MIXTURE> 66 1.191532e-02
<MEAN> 25
 6.601295e+00 -3.783196e+00 -5.557536e+00 -4.619197e+00 1.420490e+00 -4.606406e+00 -6.764828e+00 1.104633e+00 3.443245e-01 -1.762003e+00 -5.989546e+00 -3.207178e+00 -4.788211e-02 1.617190e+00 2.226968e+00 2.296214e+00 -1.173112e+00 -1.233290e+00 1.669580e-01 -6.221119e-01 3.335728e-03 -2.775018e-01 -2.173773e-01 1.013049e+00 -6.207854e-02
<VARIANCE> 25
 8.661329e+00 2.334540e+01 2.668623e+01 3.269353e+01 3.748790e+01 5.603101e+01 5.511724e+01 4.389209e+01 5.504858e+01 6.568545e+01 3.639377e+01 3.648089e+01 1.232434e+00 2.384297e+00 2.265983e+00 2.462802e+00 4.163982e+00 4.165733e+00 4.420831e+00 4.861449e+00 4.513542e+00 4.925139e+00 3.742564e+00 3.198819e+00 1.494178e-03
<GCONST> 9.664896e+01
<MIXTURE> 67 1.559142e-02
<MEAN> 25
 8.507081e+00 1.927676e+00 -6.461117e+00 -6.924275e+00 1.205997e+00 3.090703e+00 -4.404361e+00 -2.396900e+00 -4.842311e+00 8.850392e-01 2.509789e-02 -8.310874e-01 -9.731674e-01 1.663848e+00 1.262895e+00 2.614325e+00 1.487053e+00 -5.495067e-01 1.470446e+00 1.664949e-01 5.663874e-01 7.288175e-02 -1.702613e-01 7.234717e-01 -1.246162e-01
<VARIANCE> 25
 1.154534e+01 3.430941e+01 2.969737e+01 6.096901e+01 4.428627e+01 4.783457e+01 6.409842e+01 4.684059e+01 6.789175e+01 5.072110e+01 4.954683e+01 4.783450e+01 1.990040e+00 3.241062e+00 3.292686e+00 5.485284e+00 4.090743e+00 4.054276e+00 4.358166e+00 4.640396e+00 5.941422e+00 4.462220e+00 4.625164e+00 3.737473e+00 2.928929e-03
<GCONST> 1.018782e+02
<MIXTURE> 68 1.485092e-02
<MEAN> 25
 -2.044538e+00 -2.080159e+00 -4.090653e+00 1.216039e+00 5.284252e+00 -7.392466e-01 2.212121e+00 1.322439e+00 2.286407e+00 1.291626e+00 7.024221e-01 1.453917e+00 2.689110e+00 5.156263e-01 1.891720e-02 -2.314274e+00 -2.472022e+00 -1.449593e+00 -2.380691e+00 -1.707466e+00 -1.850656e+00 -1.286830e+00 -1.739787e+00 -9.970351e-01 9.856135e-02
<VARIANCE> 25
 2.506975e+01 2.973343e+01 5.527329e+01 4.925305e+01 4.431068e+01 5.039485e+01 4.331882e+01 4.245846e+01 3.934815e+01 4.229406e+01 3.561218e+01 2.514948e+01 1.894380e+00 3.427511e+00 5.714310e+00 6.091308e+00 4.464541e+00 5.553307e+00 5.423157e+00 4.740344e+00 5.210133e+00 5.219427e+00 5.288716e+00 3.165438e+00 5.822428e-03
<GCONST> 1.027657e+02
<MIXTURE> 69 1.204884e-02
<MEAN> 25
 4.624350e+00 -4.189474e+00 -3.510817e+00 -3.638715e+00 -3.336159e+00 -7.814820e+00 -1.147499e+00 2.224999e+00 -3.148053e-01 -4.627100e+00 -5.572786e+00 9.013644e-01 1.633615e+00 -2.205654e+00 -1.313412e+00 -2.264637e+00 -4.801155e-01 -3.531716e-01 -4.486334e-01 6.176223e-01 -6.364937e-01 -1.425402e+00 -2.178934e+00 -1.781509e-01 6.143667e-02
<VARIANCE> 25
 8.886151e+00 2.162340e+01 2.659313e+01 2.576309e+01 4.395716e+01 3.542738e+01 4.832519e+01 3.126104e+01 3.969564e+01 3.804903e+01 3.136823e+01 2.458413e+01 3.616425e+00 2.923779e+00 3.331289e+00 3.721126e+00 5.871636e+00 4.938554e+00 7.132656e+00 5.989149e+00 6.004831e+00 5.860045e+00 4.318350e+00 3.649178e+00 2.504172e-03
<GCONST> 9.869971e+01
<MIXTURE> 70 1.329190e-02
<MEAN> 25
 6.872555e+00 -1.806823e+00 -4.126291e+00 -3.765210e+00 3.085070e-01 -8.270296e-01 -7.260309e+00 -4.160194e+00 -4.104857e-01 3.073698e+00 7.884555e-01 -4.825740e+00 1.853618e+00 -1.067558e+00 -6.998036e-01 -2.039329e+00 -1.516017e+00 1.091830e+00 -1.626380e+00 1.173191e-01 -2.495065e-01 1.655576e-01 6.198312e-01 -1.322515e+00 5.424185e-02
<VARIANCE> 25
 1.065995e+01 1.969290e+01 2.550291e+01 4.092708e+01 3.309883e+01 3.906871e+01 4.626327e+01 3.846558e+01 4.625543e+01 2.828619e+01 4.300124e+01 2.350358e+01 3.133018e+00 2.772716e+00 4.187894e+00 4.512419e+00 4.706922e+00 5.528073e+00 6.315696e+00 6.805685e+00 7.780460e+00 4.815957e+00 5.034733e+00 3.784383e+00 2.357389e-03
<GCONST> 9.962925e+01
<MIXTURE> 71 1.406903e-02
<MEAN> 25
 5.537769e+00 4.756463e+00 4.046397e+00 2.159331e+00 -2.368283e+00 -3.414791e+00 -3.196229e+00 -5.870944e+00 -4.094635e+00 -1.994818e+00 -4.497453e+00 -3.387702e+00 -1.465454e+00 -5.887381e-01 -2.819754e-01 -2.026312e+00 1.195484e+00 -8.476152e-02 -6.679008e-02 1.483224e+00 6.511922e-01 -2.249850e-01 5.839123e-01 1.274773e-01 2.998956e-02
<VARIANCE> 25
 2.102434e+01 2.411854e+01 2.152505e+01 4.763897e+01 4.240734e+01 3.778193e+01 3.926169e+01 4.204734e+01 3.798453e+01 4.123232e+01 3.555874e+01 3.195464e+01 1.617765e+00 2.747411e+00 4.968413e+00 5.161975e+00 4.565750e+00 4.271161e+00 4.987517e+00 4.930866e+00 5.489552e+00 3.799800e+00 3.200284e+00 3.095155e+00 2.057742e-03
<GCONST> 9.834233e+01
<MIXTURE> 72 8.134747e-03
<MEAN> 25
 3.641804e+00 -3.683911e+00 4.979511e+00 -1.024704e+00 -1.018428e+01 -9.795650e+00 -2.688437e+00 2.291229e+00 -5.684400e+00 -1.858742e+00 -1.738220e+00 9.983804e-01 9.812881e-01 -7.500913e-01 -2.576768e+00 4.131933e-01 1.966915e+00 -6.533210e-01 -1.379585e+00 1.557728e+00 1.591571e+00 -3.742433e-01 -1.275689e+00 2.270921e-01 -5.026748e-03
<VARIANCE> 25
 1.015106e+01 1.789831e+01 3.298284e+01 5.345380e+01 2.996123e+01 3.163856e+01 3.893404e+01 3.444172e+01 4.503033e+01 3.883376e+01 3.552218e+01 2.939040e+01 4.588180e-01 9.640511e-01 1.846740e+00 1.508759e+00 2.241762e+00 2.291209e+00 3.038637e+00 2.592008e+00 2.946279e+00 3.140220e+00 1.852786e+00 2.249976e+00 5.180819e-04
<GCONST> 8.709313e+01
<MIXTURE> 73 1.213625e-02
<MEAN> 25
 -5.478258e+00 -7.265493e-01 -1.228705e+00 4.738460e+00 4.383784e+00 2.110618e+00 5.322484e+00 3.161001e+00 4.607815e+00 2.885363e+00 3.917796e+00 2.667353e+00 7.245126e-01 -9.372857e-01 -6.804483e-01 -2.455597e+00 -1.496255e+00 -1.774172e+00 -9.585965e-01 -4.680125e-01 -1.207564e+00 -5.243961e-01 -1.128001e+00 -2.940760e-01 1.491781e-01
<VARIANCE> 25
 1.236861e+01 1.254891e+01 1.451165e+01 2.184799e+01 2.239071e+01 2.385500e+01 1.958941e+01 1.990791e+01 1.766809e+01 2.178841e+01 2.318939e+01 1.627192e+01 3.888521e+00 2.992062e+00 6.579681e+00 4.859386e+00 6.545451e+00 4.333899e+00 4.085090e+00 4.015958e+00 4.890195e+00 4.389525e+00 3.368895e+00 2.503684e+00 4.439443e-03
<GCONST> 9.272711e+01
<MIXTURE> 74 1.756491e-02
<MEAN> 25
 4.018015e+00 -1.562705e+00 4.979270e+00 -3.930623e-01 -6.803440e+00 -7.630024e+00 -2.606528e+00 2.426559e+00 -5.674572e+00 -2.070065e+00 -1.210701e+00 -6.549649e-02 3.144858e-01 1.829396e+00 2.633132e-01 1.060762e+00 1.432553e+00 4.311965e-01 1.247162e-01 -1.820066e+00 6.664246e-01 4.453743e-02 -1.245578e-01 -2.046736e-01 -7.057402e-02
<VARIANCE> 25
 1.099467e+01 1.779413e+01 3.224870e+01 3.598421e+01 4.909123e+01 3.405030e+01 4.285119e+01 5.617416e+01 5.057809e+01 3.850307e+01 3.402542e+01 2.818711e+01 1.730473e+00 1.788627e+00 3.522224e+00 3.848026e+00 3.679977e+00 3.423775e+00 4.384048e+00 6.047350e+00 4.528113e+00 3.407317e+00 2.998430e+00 2.828212e+00 1.741083e-03
<GCONST> 9.599616e+01
<MIXTURE> 75 9.711651e-03
<MEAN> 25
 1.885192e+00 -1.633073e+00 9.359861e+00 3.604661e+00 -1.081696e+01 -7.607884e+00 -4.378637e+00 7.466729e-01 -6.680298e+00 -3.600570e+00 2.834317e+00 9.843340e-01 1.932889e+00 -1.475569e+00 -3.259476e-01 1.316498e-01 -2.044461e+00 -8.231640e-01 -1.922552e+00 1.045244e+00 -8.975065e-01 1.409034e-01 8.188099e-01 -3.469393e-01 3.825394e-02
<VARIANCE> 25
 1.008256e+01 1.393101e+01 3.191288e+01 3.941416e+01 2.261255e+01 2.708786e+01 2.670524e+01 2.764715e+01 3.712642e+01 2.738582e+01 1.688650e+01 2.153590e+01 2.286702e+00 1.711657e+00 4.204608e+00 2.759789e+00 3.716182e+00 4.114101e+00 5.800845e+00 2.974345e+00 4.775568e+00 3.455603e+00 2.781125e+00 2.527174e+00 1.288147e-03
<GCONST> 9.136151e+01
<MIXTURE> 76 1.052359e-02
<MEAN> 25
 -4.189168e+00 -2.897774e-01 -2.119606e+00 1.879647e+00 4.526535e+00 2.719023e+00 4.320975e+00 1.338994e+00 5.097229e+00 -6.866476e-01 7.559351e-01 1.764073e+00 -1.176796e-01 -4.111716e-01 -1.083808e-01 -9.265113e-01 -6.019643e-01 -9.936259e-01 -5.729691e-01 -4.064609e-01 -3.334153e-01 -3.196150e-01 -1.272874e-01 -1.668204e-01 1.478706e-02
<VARIANCE> 25
 3.597097e+01 2.554571e+01 2.186004e+01 3.786068e+01 3.211847e+01 2.733149e+01 2.101390e+01 2.288268e+01 3.860605e+01 2.454193e+01 2.591329e+01 1.553566e+01 9.753691e-01 1.058108e+00 1.215227e+00 1.074725e+00 1.660356e+00 1.868697e+00 1.504239e+00 2.064197e+00 2.631053e+00 1.489065e+00 1.284288e+00 9.871079e-01 9.322084e-04
<GCONST> 8.248206e+01
<MIXTURE> 77 1.244626e-02
<MEAN> 25
 -5.351537e-01 8.531691e+00 1.233451e+01 -1.140901e+01 -6.926255e+00 1.042744e+00 -9.255798e+00 -7.198927e+00 -3.256001e+00 -3.063926e-01 -4.457723e+00 -1.514551e+00 5.525634e-02 1.091617e-01 8.854830e-02 2.745233e-01 -7.707266e-02 7.008229e-02 -5.276713e-02 -5.663054e-02 4.527601e-02 -6.751072e-02 7.312059e-02 1.005588e-01 -9.312317e-03
<VARIANCE> 25
 1.047126e+01 1.978562e+01 2.770816e+01 4.268919e+01 3.280254e+01 3.343550e+01 3.617485e+01 3.120408e+01 3.525597e+01 3.305768e+01 3.864115e+01 3.424638e+01 3.001287e-01 7.980695e-01 6.424293e-01 1.094491e+00 1.358251e+00 9.777757e-01 1.211296e+00 1.055135e+00 1.095152e+00 1.068390e+00 1.056952e+00 9.198977e-01 5.449259e-04
<GCONST> 7.799586e+01
<MIXTURE> 78 9.702551e-03
<MEAN> 25
 -1.137877e+01 9.618160e-01 -1.087056e+00 1.404811e+00 4.083179e+00 -2.209653e+00 3.755743e+00 1.630911e+00 3.534356e+00 6.030379e-01 -5.976597e-01 2.866874e+00 2.096659e+00 -2.550826e-01 2.121504e-01 7.454343e-01 -2.718835e-01 -1.726057e-02 -1.159569e-01 3.814319e-02 5.684576e-02 1.897658e-01 -2.537695e-01 -4.848992e-01 -5.139445e-02
<VARIANCE> 25
 3.977268e+01 2.860158e+01 3.089216e+01 3.524800e+01 4.558141e+01 3.426266e+01 3.473144e+01 3.667206e+01 3.294000e+01 2.585486e+01 2.519371e+01 1.935759e+01 4.950719e+00 2.234293e+00 3.172283e+00 2.944311e+00 2.851231e+00 3.369993e+00 3.245120e+00 3.239035e+00 3.409790e+00 2.870021e+00 2.137437e+00 1.945845e+00 4.612277e-03
<GCONST> 9.499667e+01
<MIXTURE> 79 1.156824e-02
<MEAN> 25
 2.348627e+00 1.585428e+00 9.156255e+00 -6.455992e+00 -1.199612e+01 -1.824172e+00 -1.921865e+00 -6.412491e+00 -6.550073e+00 2.335979e-01 -3.370724e+00 -3.245413e+00 1.207353e+00 -5.317451e-01 -1.421898e+00 2.340168e+00 3.842527e-01 -1.494675e+00 5.501543e-01 8.834156e-01 -4.625185e-01 -5.310330e-01 3.474498e-01 2.844891e-01 -3.566280e-02
<VARIANCE> 25
 1.445612e+01 2.394270e+01 3.750659e+01 5.095248e+01 3.342965e+01 4.326596e+01 4.228952e+01 3.682591e+01 3.903027e+01 4.008985e+01 4.486215e+01 3.068871e+01 9.641360e-01 2.237419e+00 1.892835e+00 2.084108e+00 2.459307e+00 2.812794e+00 3.218629e+00 3.506978e+00 2.535640e+00 2.709402e+00 2.307011e+00 2.007751e+00 1.247874e-03
<GCONST> 9.183242e+01
<MIXTURE> 80 7.550998e-03
<MEAN> 25
 -1.448627e+01 3.345278e+00 1.175354e+00 3.199076e+00 1.624971e+00 1.361284e+00 7.231478e+00 2.777865e+00 2.846341e+00 1.338976e+00 4.187724e+00 9.206792e-01 4.176482e+00 -4.102629e-02 1.514338e+00 -7.899065e-01 -2.696918e+00 -2.781020e+00 -2.457030e+00 -1.663176e+00 -2.335395e+00 -1.553324e+00 -1.402270e+00 -5.097758e-01 -4.005946e-02
<VARIANCE> 25
 1.899823e+01 2.122226e+01 3.301583e+01 3.540491e+01 3.322197e+01 2.655325e+01 3.391100e+01 2.776118e+01 2.535960e+01 3.867699e+01 2.948036e+01 1.728343e+01 2.238977e+00 2.405830e+00 2.591581e+00 4.710578e+00 3.376092e+00 2.458692e+00 3.568620e+00 3.962673e+00 3.531914e+00 2.735352e+00 3.011569e+00 2.034394e+00 1.507253e-03
<GCONST> 9.229652e+01
<MIXTURE> 81 8.025434e-03
<MEAN> 25
 -1.248640e+00 3.940078e+00 9.843444e+00 -1.470188e+01 -8.539534e+00 -1.643147e+00 -6.755233e+00 -8.388472e+00 -3.675677e+00 -4.576264e-01 -7.096447e+00 -2.283228e+00 9.001681e-02 -5.895013e-01 -5.096397e-02 -7.194442e-01 -3.431184e-01 3.289824e-01 2.647981e-01 1.923183e-01 4.678113e-02 3.796074e-03 -4.282661e-01 -3.424931e-02 8.925572e-03
<VARIANCE> 25
 9.952237e+00 3.154987e+01 2.718574e+01 2.839359e+01 3.738790e+01 3.015948e+01 4.322854e+01 2.700819e+01 4.031193e+01 3.040114e+01 2.815396e+01 2.955218e+01 7.693534e-01 2.164900e+00 1.519651e+00 3.310419e+00 2.893167e+00 2.024227e+00 3.176559e+00 2.231776e+00 2.947248e+00 2.608103e+00 2.224407e+00 2.148350e+00 1.264075e-03
<GCONST> 8.905274e+01
<MIXTURE> 82 8.213053e-03
<MEAN> 25
 -9.988251e+00 -3.801631e+00 1.525280e+00 -2.938665e+00 2.940502e+00 6.327970e-01 2.029780e+00 7.793923e-01 3.406628e+00 1.464265e+00 1.591534e+00 3.128439e+00 -1.381307e+00 -9.029053e-02 2.991528e-01 -2.428545e+00 -1.182046e+00 -1.140787e+00 -9.236239e-01 -8.978529e-01 -2.222937e-01 -5.310657e-01 -3.081673e-01 -6.369384e-02 1.750899e-01
<VARIANCE> 25
 1.834348e+01 2.451948e+01 3.164165e+01 3.058512e+01 3.452531e+01 3.122238e+01 3.161169e+01 3.266964e+01 3.556583e+01 2.682611e+01 3.043185e+01 1.705316e+01 3.760115e+00 2.967675e+00 3.226386e+00 3.972627e+00 3.669240e+00 3.707711e+00 3.104866e+00 2.985252e+00 3.063108e+00 2.731236e+00 2.383074e+00 1.849040e+00 3.621940e-03
<GCONST> 9.375262e+01
<MIXTURE> 83 1.167529e-02
<MEAN> 25
 -2.003936e+01 5.503257e+00 -1.789023e+00 -4.054801e-01 7.827375e+00 -1.233548e+00 5.459491e+00 3.042269e+00 1.194970e+00 2.188884e+00 7.241486e-01 2.882487e+00 -2.637815e-02 -4.501354e-01 5.089390e-03 -3.655155e-01 -4.975263e-01 -1.259816e-01 -1.339464e-01 -9.938083e-02 -4.174248e-02 -3.873037e-02 -3.037921e-02 -3.465090e-02 4.401364e-03
<VARIANCE> 25
 8.826286e+00 1.645503e+01 2.850842e+01 2.248425e+01 2.129313e+01 2.408022e+01 2.203163e+01 2.338215e+01 2.045521e+01 2.223340e+01 2.319165e+01 1.448843e+01 1.060898e+00 9.360325e-01 1.241038e+00 1.065651e+00 1.359273e+00 1.291427e+00 1.284068e+00 1.388533e+00 1.349847e+00 1.312103e+00 1.220929e+00 1.071789e+00 8.923279e-04
<GCONST> 7.704189e+01
<MIXTURE> 84 1.066614e-02
<MEAN> 25
 7.402936e-01 8.523252e+00 6.860626e+00 7.546864e+00 2.710028e+00 -1.239651e+00 -8.659529e-01 -4.583490e+00 -3.964728e+00 -3.064512e+00 -2.168276e+00 -1.367258e+00 -1.741155e+00 -9.465840e-01 -1.199606e+00 1.197618e+00 2.210051e+00 1.283077e+00 1.507171e+00 1.198019e+00 1.180375e+00 4.170521e-01 1.376718e-01 4.466498e-01 -6.391130e-02
<VARIANCE> 25
 2.298914e+01 1.862737e+01 2.082311e+01 2.422554e+01 2.682927e+01 2.870735e+01 2.942781e+01 2.428119e+01 2.368769e+01 2.296316e+01 2.279340e+01 2.236078e+01 1.924641e+00 2.688694e+00 3.477273e+00 3.132268e+00 3.335815e+00 3.574888e+00 3.103588e+00 3.168362e+00 3.250037e+00 3.020068e+00 3.750683e+00 2.609399e+00 3.574529e-03
<GCONST> 9.170827e+01
<MIXTURE> 85 7.591393e-03
<MEAN> 25
 -3.107931e+00 7.854404e+00 5.716354e+00 1.300664e+00 -3.486793e+00 -5.320006e+00 -2.967245e+00 -6.092625e+00 -3.536888e+00 -3.167852e+00 -4.775802e-01 -1.890389e+00 3.933400e+00 3.203878e-01 1.754156e+00 -2.076610e+00 -3.413644e+00 -2.582063e+00 -2.883656e+00 -2.326145e+00 -2.266382e+00 -1.251049e+00 -2.295796e+00 -6.092995e-01 9.473472e-03
<VARIANCE> 25
 4.229947e+01 2.362567e+01 3.638160e+01 3.818496e+01 3.971973e+01 4.104982e+01 3.212953e+01 2.795572e+01 2.672822e+01 2.614629e+01 2.613111e+01 2.055606e+01 2.729224e+00 4.311897e+00 4.066545e+00 5.228407e+00 4.415401e+00 3.870425e+00 3.850547e+00 4.020224e+00 3.894746e+00 4.062938e+00 3.939407e+00 3.481652e+00 5.439830e-03
<GCONST> 9.838966e+01
<MIXTURE> 86 1.273941e-02
<MEAN> 25
 -4.971983e+00 -1.210053e+00 -7.968596e-01 6.332405e+00 5.017162e+00 4.675529e+00 5.317773e+00 4.571973e+00 4.667364e+00 3.911742e+00 5.336302e+00 2.700665e+00 -6.627989e-03 -8.619618e-03 -3.803198e-02 -6.504755e-02 -1.170284e-01 -1.846160e-01 -2.671674e-01 -3.325653e-01 -3.532000e-01 -3.194463e-01 -2.299759e-01 -1.067256e-01 -5.486291e-04
<VARIANCE> 25
 7.898701e+00 5.636201e+00 9.976841e+00 1.234598e+01 1.586831e+01 1.433636e+01 1.353329e+01 1.305466e+01 1.325824e+01 1.426968e+01 1.433200e+01 1.277488e+01 9.993920e-02 1.931258e-01 3.184164e-01 4.842571e-01 6.384058e-01 7.353833e-01 7.434732e-01 7.648045e-01 8.308126e-01 8.840865e-01 9.114537e-01 9.034203e-01 5.343593e-05
<GCONST> 5.813287e+01
<MIXTURE> 87 1.100681e-02
<MEAN> 25
 -3.114662e+00 4.297839e+00 3.324963e+00 6.501241e+00 5.607982e+00 8.209820e-01 1.621134e+00 -1.042109e+00 -3.967810e-01 -1.012363e+00 -7.977822e-01 3.666576e-03 -2.171791e+00 -2.632698e+00 -1.987880e+00 -2.123600e+00 -5.609090e-02 -1.733234e-01 6.691675e-01 1.214042e+00 1.425641e+00 1.021347e+00 9.081414e-01 9.974132e-01 1.017607e-01
<VARIANCE> 25
 3.751071e+01 2.971122e+01 2.746784e+01 3.717641e+01 2.765353e+01 3.137099e+01 2.769165e+01 2.665759e+01 2.659176e+01 2.493130e+01 2.387770e+01 2.302739e+01 3.847523e+00 2.952824e+00 4.071723e+00 4.111212e+00 4.831453e+00 4.133334e+00 4.376661e+00 4.012981e+00 3.593931e+00 3.324847e+00 3.261195e+00 2.728020e+00 5.257070e-03
<GCONST> 9.659414e+01
<MIXTURE> 88 1.256585e-02
<MEAN> 25
 -3.891979e+00 -8.164603e-01 -1.714995e+00 4.731836e+00 5.268637e+00 3.456225e+00 4.526204e+00 2.962635e+00 4.886613e+00 1.444676e+00 2.886668e+00 2.319832e+00 -1.672583e-03 2.322554e-01 1.911640e-01 3.235586e-01 1.482766e-01 6.144152e-03 -4.835244e-02 -3.533200e-01 -3.462689e-01 -1.991549e-01 2.044770e-02 -1.116474e-01 -2.633615e-03
<VARIANCE> 25
 1.083557e+01 9.496107e+00 1.415282e+01 1.894665e+01 2.109554e+01 2.054215e+01 1.789490e+01 1.957024e+01 2.585834e+01 2.088024e+01 1.964627e+01 1.404396e+01 1.340992e+00 1.528885e+00 2.281833e+00 2.280676e+00 3.012122e+00 2.893056e+00 2.402295e+00 2.503974e+00 2.856345e+00 2.372433e+00 2.223444e+00 1.832188e+00 1.399196e-03
<GCONST> 8.308661e+01
<MIXTURE> 89 9.333527e-03
<MEAN> 25
 6.049603e+00 -6.781993e+00 -3.554685e+00 -3.179329e+00 -1.591965e+00 -5.530057e+00 -6.069687e+00 4.061311e+00 3.536732e+00 -2.818737e+00 -5.976505e+00 -3.244260e+00 -5.667021e-01 1.567658e-01 1.974259e+00 9.074411e-01 -1.859076e+00 -1.638322e+00 8.787384e-01 1.264799e+00 -7.772413e-01 -1.306344e+00 4.012869e-01 1.533841e+00 -4.889896e-03
<VARIANCE> 25
 9.046074e+00 2.686199e+01 3.086417e+01 3.005374e+01 3.590741e+01 4.186423e+01 5.962979e+01 4.205404e+01 3.983809e+01 4.228642e+01 3.603011e+01 3.245259e+01 3.556292e-01 8.389469e-01 1.499476e+00 1.321864e+00 1.921507e+00 2.126770e+00 2.571465e+00 2.050826e+00 2.256618e+00 2.130573e+00 2.319613e+00 1.464024e+00 3.644093e-04
<GCONST> 8.532919e+01
<MIXTURE> 90 7.114505e-03
<MEAN> 25
 2.455386e+00 -9.676675e+00 -4.743048e+00 -3.958925e+00 -3.392689e+00 -1.788189e+00 3.357384e+00 1.193909e+00 -7.514526e+00 -1.018834e+01 -3.430750e+00 -7.419057e-01 -1.636028e-01 9.029809e-01 1.166116e+00 -8.565895e-01 -1.609119e+00 -2.109127e-01 6.423295e-01 -2.070565e-01 -1.725789e-01 7.396803e-01 1.807762e-01 -5.504450e-01 -1.114258e-02
<VARIANCE> 25
 8.481016e+00 1.833306e+01 1.979319e+01 2.806155e+01 3.677254e+01 3.234201e+01 3.842135e+01 3.637429e+01 3.528856e+01 2.786201e+01 2.693862e+01 2.605211e+01 2.233111e-01 6.228615e-01 7.868122e-01 1.043772e+00 1.479292e+00 1.588709e+00 1.776532e+00 1.653792e+00 1.811472e+00 1.681967e+00 1.493924e+00 1.305477e+00 2.145139e-04
<GCONST> 7.817889e+01
<MIXTURE> 91 7.852945e-03
<MEAN> 25
 6.202671e+00 -7.234266e+00 -8.304779e+00 -5.157285e+00 3.860802e+00 8.275372e-02 -2.113692e+00 6.223577e-01 8.802422e-01 -2.704808e+00 -4.562606e+00 -4.900826e+00 2.509030e-01 9.590558e-01 1.907982e-01 4.797169e-01 -7.321885e-02 -5.139907e-01 -3.605584e-01 -1.202142e-01 -9.088749e-02 4.026572e-01 -1.359769e-01 2.370884e-01 -3.356098e-02
<VARIANCE> 25
 1.023335e+01 2.428216e+01 2.015719e+01 3.921688e+01 3.404591e+01 5.338350e+01 5.301024e+01 3.816339e+01 5.716581e+01 6.334298e+01 3.935604e+01 4.072778e+01 4.310725e-01 8.877993e-01 1.122206e+00 1.412688e+00 2.138968e+00 2.302372e+00 2.452928e+00 2.410120e+00 2.337648e+00 2.198981e+00 1.948726e+00 1.791841e+00 5.926433e-04
<GCONST> 8.715482e+01
<MIXTURE> 92 7.852945e-03
<MEAN> 25
 6.202671e+00 -7.234266e+00 -8.304779e+00 -5.157285e+00 3.860802e+00 8.275372e-02 -2.113692e+00 6.223577e-01 8.802422e-01 -2.704808e+00 -4.562606e+00 -4.900826e+00 2.509030e-01 9.590558e-01 1.907982e-01 4.797169e-01 -7.321885e-02 -5.139907e-01 -3.605584e-01 -1.202142e-01 -9.088749e-02 4.026572e-01 -1.359769e-01 2.370884e-01 -3.356098e-02
<VARIANCE> 25
 1.023335e+01 2.428216e+01 2.015719e+01 3.921688e+01 3.404591e+01 5.338350e+01 5.301024e+01 3.816339e+01 5.716581e+01 6.334298e+01 3.935604e+01 4.072778e+01 4.310725e-01 8.877993e-01 1.122206e+00 1.412688e+00 2.138968e+00 2.302372e+00 2.452928e+00 2.410120e+00 2.337648e+00 2.198981e+00 1.948726e+00 1.791841e+00 5.926433e-04
<GCONST> 8.715482e+01
<MIXTURE> 93 6.122769e-03
<MEAN> 25
 -6.825895e+00 -9.611586e-01 -2.402192e+00 5.798003e+00 5.908190e+00 3.922837e+00 6.123403e+00 3.608907e+00 4.119752e+00 2.509214e+00 1.818367e+00 3.705920e+00 -6.164292e-02 -1.543845e-01 -2.573701e-01 -3.317079e-01 -3.337438e-01 -2.844666e-01 -2.177786e-01 -1.742935e-01 -1.667385e-01 -1.506247e-01 -1.044078e-01 -3.554671e-02 -3.836839e-06
<VARIANCE> 25
 9.094255e+00 6.027880e+00 8.185131e+00 1.136978e+01 1.149331e+01 1.598242e+01 1.527687e+01 1.644505e+01 1.475908e+01 1.454302e+01 1.678705e+01 1.344850e+01 8.272339e-02 1.533681e-01 2.637359e-01 3.805596e-01 4.977746e-01 6.423296e-01 7.793687e-01 8.873208e-01 9.166389e-01 8.761463e-01 8.923404e-01 9.178811e-01 9.999876e-07
<GCONST> 5.360275e+01
<MIXTURE> 94 6.122769e-03
<MEAN> 25
 -6.825895e+00 -9.611586e-01 -2.402192e+00 5.798003e+00 5.908190e+00 3.922837e+00 6.123403e+00 3.608907e+00 4.119752e+00 2.509214e+00 1.818367e+00 3.705920e+00 -6.164292e-02 -1.543845e-01 -2.573701e-01 -3.317079e-01 -3.337438e-01 -2.844666e-01 -2.177786e-01 -1.742935e-01 -1.667385e-01 -1.506247e-01 -1.044078e-01 -3.554671e-02 -3.836839e-06
<VARIANCE> 25
 9.094255e+00 6.027880e+00 8.185131e+00 1.136978e+01 1.149331e+01 1.598242e+01 1.527687e+01 1.644505e+01 1.475908e+01 1.454302e+01 1.678705e+01 1.344850e+01 8.272339e-02 1.533681e-01 2.637359e-01 3.805596e-01 4.977746e-01 6.423296e-01 7.793687e-01 8.873208e-01 9.166389e-01 8.761463e-01 8.923404e-01 9.178811e-01 9.999876e-07
<GCONST> 5.360275e+01
<MIXTURE> 95 5.258835e-03
<MEAN> 25
 -5.816763e+00 -7.403212e-01 -1.990221e+00 4.881626e+00 4.230699e+00 2.812920e+00 4.173714e+00 1.662319e+00 2.250326e+00 8.618115e-01 1.198964e+00 2.592302e+00 1.443700e-01 1.483779e-01 8.609716e-02 -8.471449e-02 -3.777784e-01 -7.199705e-01 -1.054279e+00 -1.282030e+00 -1.263189e+00 -9.905251e-01 -6.488271e-01 -3.070778e-01 -1.369096e-04
<VARIANCE> 25
 1.028849e+01 6.483414e+00 1.221356e+01 1.289969e+01 1.403485e+01 1.829452e+01 1.787545e+01 1.687606e+01 1.568691e+01 1.546091e+01 1.994458e+01 1.432688e+01 2.104815e-01 2.947802e-01 4.537030e-01 6.338621e-01 8.010322e-01 9.015973e-01 9.125624e-01 9.243934e-01 9.714968e-01 1.075863e+00 1.158308e+00 1.114030e+00 4.196117e-05
<GCONST> 6.330935e+01
<MIXTURE> 96 7.034694e-03
<MEAN> 25
 -5.158257e+00 -4.305584e-01 -2.211730e+00 5.086245e+00 3.797254e+00 1.837559e+00 3.493414e+00 1.725926e+00 2.553472e+00 8.672643e-01 1.141467e+00 2.850309e+00 -3.224714e-02 8.796617e-02 2.213577e-01 3.987048e-01 5.425245e-01 4.969015e-01 2.477984e-01 -1.388905e-01 -4.750320e-01 -6.311285e-01 -5.973921e-01 -3.636510e-01 -1.407337e-05
<VARIANCE> 25
 1.148940e+01 9.735070e+00 1.289128e+01 1.485692e+01 1.542892e+01 1.960522e+01 1.814157e+01 1.983117e+01 1.949740e+01 1.723650e+01 1.956961e+01 1.442399e+01 1.199621e-01 2.160864e-01 3.203492e-01 4.001800e-01 4.931321e-01 6.552324e-01 8.592952e-01 1.003806e+00 9.616631e-01 8.967659e-01 8.899060e-01 9.350466e-01 9.922696e-07
<GCONST> 5.783723e+01
<MIXTURE> 97 7.034694e-03
<MEAN> 25
 -5.158257e+00 -4.305584e-01 -2.211730e+00 5.086245e+00 3.797254e+00 1.837559e+00 3.493414e+00 1.725926e+00 2.553472e+00 8.672643e-01 1.141467e+00 2.850309e+00 -3.224714e-02 8.796617e-02 2.213577e-01 3.987048e-01 5.425245e-01 4.969015e-01 2.477984e-01 -1.388905e-01 -4.750320e-01 -6.311285e-01 -5.973921e-01 -3.636510e-01 -1.407337e-05
<VARIANCE> 25
 1.148940e+01 9.735070e+00 1.289128e+01 1.485692e+01 1.542892e+01 1.960522e+01 1.814157e+01 1.983117e+01 1.949740e+01 1.723650e+01 1.956961e+01 1.442399e+01 1.199621e-01 2.160864e-01 3.203492e-01 4.001800e-01 4.931321e-01 6.552324e-01 8.592952e-01 1.003806e+00 9.616631e-01 8.967659e-01 8.899060e-01 9.350466e-01 9.922696e-07
<GCONST> 5.783723e+01
<MIXTURE> 98 9.917808e-03
<MEAN> 25
 -8.395880e-01 1.514131e+00 -1.970807e-01 1.985419e+00 3.802666e+00 2.844714e+00 3.056772e+00 1.752457e+00 2.379656e+00 6.890674e-01 3.121982e-01 4.836062e-01 -1.588772e+00 -1.270056e+00 -5.957204e-01 -1.514898e-01 9.010836e-01 3.615107e-01 1.273676e+00 1.141732e+00 2.015423e+00 9.543995e-01 1.405385e+00 7.087932e-01 -3.137688e-02
<VARIANCE> 25
 1.296056e+01 1.741541e+01 2.544215e+01 4.015356e+01 3.536743e+01 4.022359e+01 3.064031e+01 2.407655e+01 2.773761e+01 2.531303e+01 2.494877e+01 1.883238e+01 1.137007e+00 1.240999e+00 2.559699e+00 2.713346e+00 2.543257e+00 2.761279e+00 2.587401e+00 2.638901e+00 2.669106e+00 2.494512e+00 2.817231e+00 2.206411e+00 1.935227e-03
<GCONST> 8.849360e+01
<MIXTURE> 99 6.696178e-03
<MEAN> 25
 -5.348646e+00 9.269868e+00 6.304556e+00 2.389839e+00 1.141755e+00 -3.505271e+00 -1.907171e+00 -4.377673e+00 -1.968363e+00 -4.215193e+00 -1.345642e+00 2.248114e-01 2.388644e-01 -5.161650e-01 3.304072e-01 -4.038948e-01 -1.334785e+00 -2.094683e-01 -4.738164e-01 -2.490407e-03 -8.951221e-02 -2.194188e-01 4.095591e-01 -1.855242e-02 1.208683e-02
<VARIANCE> 25
 3.202281e+01 2.125975e+01 3.868459e+01 3.108121e+01 3.296252e+01 3.997971e+01 2.571894e+01 2.440335e+01 2.813441e+01 2.285702e+01 2.035188e+01 2.434538e+01 2.262720e+00 1.935382e+00 1.190839e+00 1.978377e+00 2.649996e+00 2.183595e+00 1.703210e+00 1.528589e+00 1.581962e+00 1.430986e+00 1.449553e+00 1.184350e+00 1.231980e-03
<GCONST> 8.556423e+01
<MIXTURE> 100 4.498084e-03
<MEAN> 25
 -1.599375e+00 6.342331e+00 1.027483e+01 -7.458877e+00 -1.077710e+01 -5.073762e+00 -4.941346e+00 -9.963698e+00 -4.717216e+00 -8.520222e-01 -2.732501e+00 -2.707941e+00 2.916624e+00 -1.260349e+00 1.300582e+00 -2.185220e+00 -3.420264e+00 -7.844455e-01 -1.218553e+00 -8.188395e-01 -1.477812e+00 3.475724e-01 -1.655112e+00 -2.856462e-01 2.063450e-03
<VARIANCE> 25
 1.362054e+01 2.106013e+01 2.245849e+01 2.644279e+01 2.305241e+01 2.371508e+01 2.909738e+01 2.174595e+01 2.747239e+01 2.266322e+01 2.240210e+01 2.133002e+01 1.801245e+00 3.951659e+00 2.920373e+00 4.285366e+00 4.184083e+00 4.535114e+00 4.013481e+00 4.339697e+00 4.177476e+00 3.895912e+00 3.909123e+00 3.224061e+00 1.678646e-03
<GCONST> 9.257363e+01
<MIXTURE> 101 6.007792e-03
<MEAN> 25
 7.302163e+00 -3.112650e+00 -6.392223e+00 -5.224946e+00 2.364226e-01 -1.362075e+00 -1.165380e+01 -1.836792e+00 1.018562e-01 3.212211e+00 -1.782432e+00 -5.197193e+00 6.145275e-01 6.196015e-01 -1.387359e+00 -1.437276e+00 9.937817e-01 2.228429e+00 1.239932e-01 -1.439213e+00 -9.611519e-01 8.920187e-01 1.264524e+00 -2.610220e-01 -4.198191e-03
<VARIANCE> 25
 1.089058e+01 1.495278e+01 2.550632e+01 5.008257e+01 3.428710e+01 3.170484e+01 3.946259e+01 3.167232e+01 4.326646e+01 3.853470e+01 4.621432e+01 2.110175e+01 2.783376e-01 5.788004e-01 1.053848e+00 1.510292e+00 1.485962e+00 1.823574e+00 2.046374e+00 1.806121e+00 2.335793e+00 2.022855e+00 1.640068e+00 1.991859e+00 3.059485e-04
<GCONST> 8.220367e+01
<MIXTURE> 102 6.007792e-03
<MEAN> 25
 7.302163e+00 -3.112650e+00 -6.392223e+00 -5.224946e+00 2.364226e-01 -1.362075e+00 -1.165380e+01 -1.836792e+00 1.018562e-01 3.212211e+00 -1.782432e+00 -5.197193e+00 6.145275e-01 6.196015e-01 -1.387359e+00 -1.437276e+00 9.937817e-01 2.228429e+00 1.239932e-01 -1.439213e+00 -9.611519e-01 8.920187e-01 1.264524e+00 -2.610220e-01 -4.198191e-03
<VARIANCE> 25
 1.089058e+01 1.495278e+01 2.550632e+01 5.008257e+01 3.428710e+01 3.170484e+01 3.946259e+01 3.167232e+01 4.326646e+01 3.853470e+01 4.621432e+01 2.110175e+01 2.783376e-01 5.788004e-01 1.053848e+00 1.510292e+00 1.485962e+00 1.823574e+00 2.046374e+00 1.806121e+00 2.335793e+00 2.022855e+00 1.640068e+00 1.991859e+00 3.059485e-04
<GCONST> 8.220367e+01
<MIXTURE> 103 5.694618e-03
<MEAN> 25
 3.331891e+00 -9.373319e+00 -6.056354e+00 -3.208272e+00 -1.257734e+00 -1.931170e+00 2.479830e+00 2.421944e+00 -4.303509e+00 -9.146028e+00 -4.922798e+00 3.662757e-01 -1.606492e-01 -1.476627e+00 -9.763396e-01 3.663040e-01 1.215512e+00 1.005481e+00 1.248139e-01 -2.800103e-01 -8.103279e-01 -9.528224e-01 -4.772696e-02 1.057625e-01 2.617012e-02
<VARIANCE> 25
 1.024848e+01 2.063271e+01 2.284187e+01 3.229171e+01 4.766779e+01 3.460066e+01 4.583065e+01 3.697504e+01 4.749549e+01 2.964198e+01 3.070561e+01 2.597386e+01 6.344523e-01 1.241044e+00 1.519066e+00 1.926484e+00 2.886499e+00 2.387812e+00 2.956451e+00 2.576525e+00 2.627626e+00 2.495582e+00 2.081066e+00 1.998381e+00 8.282555e-04
<GCONST> 8.768424e+01
<MIXTURE> 104 5.694618e-03
<MEAN> 25
 3.331891e+00 -9.373319e+00 -6.056354e+00 -3.208272e+00 -1.257734e+00 -1.931170e+00 2.479830e+00 2.421944e+00 -4.303509e+00 -9.146028e+00 -4.922798e+00 3.662757e-01 -1.606492e-01 -1.476627e+00 -9.763396e-01 3.663040e-01 1.215512e+00 1.005481e+00 1.248139e-01 -2.800103e-01 -8.103279e-01 -9.528224e-01 -4.772696e-02 1.057625e-01 2.617012e-02
<VARIANCE> 25
 1.024848e+01 2.063271e+01 2.284187e+01 3.229171e+01 4.766779e+01 3.460066e+01 4.583065e+01 3.697504e+01 4.749549e+01 2.964198e+01 3.070561e+01 2.597386e+01 6.344523e-01 1.241044e+00 1.519066e+00 1.926484e+00 2.886499e+00 2.387812e+00 2.956451e+00 2.576525e+00 2.627626e+00 2.495582e+00 2.081066e+00 1.998381e+00 8.282555e-04
<GCONST> 8.768424e+01
<MIXTURE> 105 4.710235e-03
<MEAN> 25
 1.745465e+00 -1.827953e+00 8.042585e+00 -1.621894e+00 -1.148053e+01 -4.068595e+00 -3.393253e+00 3.538093e-01 -4.393712e+00 -1.994696e+00 1.326829e+00 -1.291477e-01 -6.091930e-03 2.533690e-02 -1.738199e-02 -1.248520e-02 4.595607e-02 4.873049e-02 -7.505046e-02 3.041993e-02 -1.259322e-01 6.435046e-03 -5.937644e-02 -6.185916e-02 -1.397534e-03
<VARIANCE> 25
 1.197002e+01 2.328082e+01 4.017152e+01 4.036136e+01 3.559728e+01 4.669346e+01 3.871763e+01 3.890321e+01 3.343931e+01 3.765741e+01 3.584414e+01 3.138000e+01 7.251722e-02 1.593189e-01 2.917767e-01 3.351144e-01 3.421612e-01 3.794647e-01 5.098104e-01 5.543303e-01 5.840498e-01 4.614611e-01 4.326347e-01 3.792906e-01 8.130632e-05
<GCONST> 6.523812e+01
<MIXTURE> 106 4.710235e-03
<MEAN> 25
 1.745465e+00 -1.827953e+00 8.042585e+00 -1.621894e+00 -1.148053e+01 -4.068595e+00 -3.393253e+00 3.538093e-01 -4.393712e+00 -1.994696e+00 1.326829e+00 -1.291477e-01 -6.091930e-03 2.533690e-02 -1.738199e-02 -1.248520e-02 4.595607e-02 4.873049e-02 -7.505046e-02 3.041993e-02 -1.259322e-01 6.435046e-03 -5.937644e-02 -6.185916e-02 -1.397534e-03
<VARIANCE> 25
 1.197002e+01 2.328082e+01 4.017152e+01 4.036136e+01 3.559728e+01 4.669346e+01 3.871763e+01 3.890321e+01 3.343931e+01 3.765741e+01 3.584414e+01 3.138000e+01 7.251722e-02 1.593189e-01 2.917767e-01 3.351144e-01 3.421612e-01 3.794647e-01 5.098104e-01 5.543303e-01 5.840498e-01 4.614611e-01 4.326347e-01 3.792906e-01 8.130632e-05
<GCONST> 6.523812e+01
<MIXTURE> 107 5.452374e-03
<MEAN> 25
 8.505150e+00 -2.227068e+00 -7.959091e+00 -9.336764e+00 1.985686e+00 2.955767e+00 -8.577609e+00 -4.440249e+00 -1.079348e+00 3.407655e+00 9.297382e-01 -4.999664e+00 -5.888595e-01 -7.419354e-01 8.414197e-01 1.761592e+00 2.156886e-01 -1.945461e+00 -8.885227e-01 8.306040e-01 1.735333e+00 2.877876e-02 -1.635871e+00 -7.922842e-01 -1.795431e-03
<VARIANCE> 25
 9.471891e+00 2.023511e+01 2.772022e+01 4.292635e+01 3.485920e+01 3.763944e+01 5.028870e+01 3.550098e+01 4.565535e+01 4.058606e+01 5.131861e+01 3.021668e+01 3.591369e-01 9.633884e-01 1.443388e+00 2.371592e+00 2.217611e+00 2.890852e+00 2.723915e+00 2.649838e+00 2.379938e+00 3.009508e+00 1.897064e+00 2.163661e+00 6.853050e-04
<GCONST> 8.792110e+01
<MIXTURE> 108 5.452374e-03
<MEAN> 25
 8.505150e+00 -2.227068e+00 -7.959091e+00 -9.336764e+00 1.985686e+00 2.955767e+00 -8.577609e+00 -4.440249e+00 -1.079348e+00 3.407655e+00 9.297382e-01 -4.999664e+00 -5.888595e-01 -7.419354e-01 8.414197e-01 1.761592e+00 2.156886e-01 -1.945461e+00 -8.885227e-01 8.306040e-01 1.735333e+00 2.877876e-02 -1.635871e+00 -7.922842e-01 -1.795431e-03
<VARIANCE> 25
 9.471891e+00 2.023511e+01 2.772022e+01 4.292635e+01 3.485920e+01 3.763944e+01 5.028870e+01 3.550098e+01 4.565535e+01 4.058606e+01 5.131861e+01 3.021668e+01 3.591369e-01 9.633884e-01 1.443388e+00 2.371592e+00 2.217611e+00 2.890852e+00 2.723915e+00 2.649838e+00 2.379938e+00 3.009508e+00 1.897064e+00 2.163661e+00 6.853050e-04
<GCONST> 8.792110e+01
<MIXTURE> 109 6.661064e-03
<MEAN> 25
 3.767967e+00 -9.677925e+00 -7.698775e+00 -1.882158e+00 2.841096e+00 2.133197e-01 2.796151e-01 1.339581e+00 -9.619253e-01 -7.922942e+00 -4.846604e+00 -3.981250e-02 -3.252366e-02 -1.125937e-01 -4.435498e-02 2.619503e-01 2.076216e-01 1.728391e-01 -1.392546e-01 -9.913787e-02 -7.247910e-02 -1.341129e-01 2.146907e-01 7.007740e-02 -4.133522e-03
<VARIANCE> 25
 8.934402e+00 2.169377e+01 2.044147e+01 3.103138e+01 3.732755e+01 3.377665e+01 4.520117e+01 3.119241e+01 6.662622e+01 3.502885e+01 3.019145e+01 2.580115e+01 1.798381e-01 4.285105e-01 4.857483e-01 6.372169e-01 1.182647e+00 9.272649e-01 1.250984e+00 1.163277e+00 1.141166e+00 8.859527e-01 8.446769e-01 8.610118e-01 1.695784e-04
<GCONST> 7.421235e+01
<MIXTURE> 110 6.661064e-03
<MEAN> 25
 3.767967e+00 -9.677925e+00 -7.698775e+00 -1.882158e+00 2.841096e+00 2.133197e-01 2.796151e-01 1.339581e+00 -9.619253e-01 -7.922942e+00 -4.846604e+00 -3.981250e-02 -3.252366e-02 -1.125937e-01 -4.435498e-02 2.619503e-01 2.076216e-01 1.728391e-01 -1.392546e-01 -9.913787e-02 -7.247910e-02 -1.341129e-01 2.146907e-01 7.007740e-02 -4.133522e-03
<VARIANCE> 25
 8.934402e+00 2.169377e+01 2.044147e+01 3.103138e+01 3.732755e+01 3.377665e+01 4.520117e+01 3.119241e+01 6.662622e+01 3.502885e+01 3.019145e+01 2.580115e+01 1.798381e-01 4.285105e-01 4.857483e-01 6.372169e-01 1.182647e+00 9.272649e-01 1.250984e+00 1.163277e+00 1.141166e+00 8.859527e-01 8.446769e-01 8.610118e-01 1.695784e-04
<GCONST> 7.421235e+01
<MIXTURE> 111 4.337247e-03
<MEAN> 25
 -4.456289e+00 -9.054796e-01 -1.725065e+00 1.678471e+00 9.659824e-01 9.664854e-01 3.032231e-01 2.155911e-01 7.412730e-02 -5.308434e-01 -6.280670e-01 1.956262e+00 -2.118013e-02 -3.225594e-02 -7.288054e-02 -7.372324e-02 -3.819501e-02 7.811659e-03 -1.707376e-03 -5.849222e-02 -1.406523e-01 -2.003611e-01 -1.913157e-01 -1.057254e-01 -2.176551e-04
<VARIANCE> 25
 7.133561e+00 4.974114e+00 1.022391e+01 9.445218e+00 1.317023e+01 2.381021e+01 1.474140e+01 1.315247e+01 1.173885e+01 1.197665e+01 1.363686e+01 1.161156e+01 7.910572e-02 1.634135e-01 2.751279e-01 4.209496e-01 5.702963e-01 7.063292e-01 8.008094e-01 8.582054e-01 8.922313e-01 8.585573e-01 8.619455e-01 8.473562e-01 2.231294e-05
<GCONST> 5.603262e+01
<MIXTURE> 112 4.337247e-03
<MEAN> 25
 -4.456289e+00 -9.054796e-01 -1.725065e+00 1.678471e+00 9.659824e-01 9.664854e-01 3.032231e-01 2.155911e-01 7.412730e-02 -5.308434e-01 -6.280670e-01 1.956262e+00 -2.118013e-02 -3.225594e-02 -7.288054e-02 -7.372324e-02 -3.819501e-02 7.811659e-03 -1.707376e-03 -5.849222e-02 -1.406523e-01 -2.003611e-01 -1.913157e-01 -1.057254e-01 -2.176551e-04
<VARIANCE> 25
 7.133561e+00 4.974114e+00 1.022391e+01 9.445218e+00 1.317023e+01 2.381021e+01 1.474140e+01 1.315247e+01 1.173885e+01 1.197665e+01 1.363686e+01 1.161156e+01 7.910572e-02 1.634135e-01 2.751279e-01 4.209496e-01 5.702963e-01 7.063292e-01 8.008094e-01 8.582054e-01 8.922313e-01 8.585573e-01 8.619455e-01 8.473562e-01 2.231294e-05
<GCONST> 5.603262e+01
<MIXTURE> 113 5.938666e-03
<MEAN> 25
 9.420102e+00 1.568614e+00 -8.402236e+00 -1.583327e+01 -7.776374e-01 5.449104e+00 -5.318327e+00 -1.155106e+00 -5.787326e+00 1.432442e-01 4.027169e-01 -5.135406e-01 6.806671e-03 2.340151e-02 -5.658168e-02 -1.022902e-01 7.959183e-02 1.860662e-01 9.135235e-02 3.515764e-02 -5.801270e-02 -1.250585e-02 1.189064e-01 5.467032e-02 -1.624675e-03
<VARIANCE> 25
 1.086211e+01 1.535880e+01 2.836717e+01 4.413647e+01 5.000917e+01 3.185465e+01 3.867266e+01 3.676822e+01 3.510077e+01 4.657094e+01 3.489569e+01 2.734694e+01 1.139287e-01 3.102795e-01 3.029527e-01 6.277831e-01 6.423950e-01 6.376575e-01 8.541157e-01 8.279700e-01 9.650185e-01 9.220306e-01 7.610347e-01 6.698628e-01 1.155101e-04
<GCONST> 7.099187e+01
<MIXTURE> 114 5.938666e-03
<MEAN> 25
 9.420102e+00 1.568614e+00 -8.402236e+00 -1.583327e+01 -7.776374e-01 5.449104e+00 -5.318327e+00 -1.155106e+00 -5.787326e+00 1.432442e-01 4.027169e-01 -5.135406e-01 6.806671e-03 2.340151e-02 -5.658168e-02 -1.022902e-01 7.959183e-02 1.860662e-01 9.135235e-02 3.515764e-02 -5.801270e-02 -1.250585e-02 1.189064e-01 5.467032e-02 -1.624675e-03
<VARIANCE> 25
 1.086211e+01 1.535880e+01 2.836717e+01 4.413647e+01 5.000917e+01 3.185465e+01 3.867266e+01 3.676822e+01 3.510077e+01 4.657094e+01 3.489569e+01 2.734694e+01 1.139287e-01 3.102795e-01 3.029527e-01 6.277831e-01 6.423950e-01 6.376575e-01 8.541157e-01 8.279700e-01 9.650185e-01 9.220306e-01 7.610347e-01 6.698628e-01 1.155101e-04
<GCONST> 7.099187e+01
<MIXTURE> 115 2.935202e-03
<MEAN> 25
 -4.004710e+00 -7.277271e-01 -3.100776e+00 3.651643e+00 2.412047e+00 -3.930219e-01 2.225357e+00 4.078580e-01 1.386149e+00 -3.690307e-02 1.959366e-02 2.670708e+00 3.365621e-02 -7.407020e-02 -2.292916e-01 -4.424010e-01 -6.353769e-01 -6.663653e-01 -5.937192e-01 -5.036388e-01 -4.864562e-01 -4.524141e-01 -3.402110e-01 -1.631062e-01 -2.877483e-06
<VARIANCE> 25
 9.451283e+00 1.004047e+01 1.351508e+01 1.277306e+01 1.352167e+01 1.784785e+01 1.706338e+01 2.075346e+01 1.812892e+01 1.736937e+01 1.929084e+01 1.468911e+01 2.049608e-01 3.463604e-01 4.856835e-01 5.657930e-01 6.354708e-01 8.012648e-01 1.007675e+00 1.136767e+00 1.073680e+00 1.001913e+00 1.029935e+00 1.062387e+00 1.003682e-06
<GCONST> 6.028073e+01
<MIXTURE> 116 2.935202e-03
<MEAN> 25
 -4.004710e+00 -7.277271e-01 -3.100776e+00 3.651643e+00 2.412047e+00 -3.930219e-01 2.225357e+00 4.078580e-01 1.386149e+00 -3.690307e-02 1.959366e-02 2.670708e+00 3.365621e-02 -7.407020e-02 -2.292916e-01 -4.424010e-01 -6.353769e-01 -6.663653e-01 -5.937192e-01 -5.036388e-01 -4.864562e-01 -4.524141e-01 -3.402110e-01 -1.631062e-01 -2.877483e-06
<VARIANCE> 25
 9.451283e+00 1.004047e+01 1.351508e+01 1.277306e+01 1.352167e+01 1.784785e+01 1.706338e+01 2.075346e+01 1.812892e+01 1.736937e+01 1.929084e+01 1.468911e+01 2.049608e-01 3.463604e-01 4.856835e-01 5.657930e-01 6.354708e-01 8.012648e-01 1.007675e+00 1.136767e+00 1.073680e+00 1.001913e+00 1.029935e+00 1.062387e+00 1.003682e-06
<GCONST> 6.028073e+01
<MIXTURE> 117 6.506003e-03
<MEAN> 25
 -4.644456e+00 1.117723e+00 1.054377e+00 9.758358e+00 6.260106e+00 6.256610e+00 6.462952e+00 5.044497e+00 6.385850e+00 4.928762e+00 6.366961e+00 2.709790e+00 -7.501535e-02 -2.341191e-01 -3.583294e-01 -4.199616e-01 -3.674591e-01 -3.027187e-01 -2.873092e-01 -3.314821e-01 -3.917985e-01 -3.689751e-01 -2.630671e-01 -1.159945e-01 -8.993641e-06
<VARIANCE> 25
 7.187672e+00 8.754166e+00 9.809673e+00 1.430862e+01 1.561768e+01 1.534953e+01 1.772633e+01 1.796152e+01 1.640358e+01 1.637597e+01 1.674278e+01 1.475347e+01 2.166213e-01 3.075213e-01 4.261374e-01 6.171552e-01 8.538945e-01 1.055386e+00 1.177567e+00 1.232956e+00 1.223953e+00 1.194824e+00 1.167235e+00 1.113671e+00 1.000161e-06
<GCONST> 6.042999e+01
<MIXTURE> 118 6.506003e-03
<MEAN> 25
 -4.644456e+00 1.117723e+00 1.054377e+00 9.758358e+00 6.260106e+00 6.256610e+00 6.462952e+00 5.044497e+00 6.385850e+00 4.928762e+00 6.366961e+00 2.709790e+00 -7.501535e-02 -2.341191e-01 -3.583294e-01 -4.199616e-01 -3.674591e-01 -3.027187e-01 -2.873092e-01 -3.314821e-01 -3.917985e-01 -3.689751e-01 -2.630671e-01 -1.159945e-01 -8.993641e-06
<VARIANCE> 25
 7.187672e+00 8.754166e+00 9.809673e+00 1.430862e+01 1.561768e+01 1.534953e+01 1.772633e+01 1.796152e+01 1.640358e+01 1.637597e+01 1.674278e+01 1.475347e+01 2.166213e-01 3.075213e-01 4.261374e-01 6.171552e-01 8.538945e-01 1.055386e+00 1.177567e+00 1.232956e+00 1.223953e+00 1.194824e+00 1.167235e+00 1.113671e+00 1.000161e-06
<GCONST> 6.042999e+01
<MIXTURE> 119 4.297961e-03
<MEAN> 25
 -4.865836e+00 -7.538504e+00 2.182766e+00 1.849832e+00 2.194876e+00 2.429624e-01 5.320573e+00 5.823622e+00 1.517280e+00 9.427910e-01 6.567159e+00 1.593170e+00 -5.110465e-02 -8.565629e-02 2.873785e-02 -5.336231e-02 -1.092285e-01 -1.726960e-01 -8.552769e-02 -3.541598e-02 -1.015050e-01 -1.047675e-01 -4.888430e-02 -6.015198e-02 9.004357e-04
<VARIANCE> 25
 8.897980e+00 1.006903e+01 1.646046e+01 2.155233e+01 2.293377e+01 2.292810e+01 2.489387e+01 2.668007e+01 3.271984e+01 2.764457e+01 2.019923e+01 2.006550e+01 1.584460e-01 2.847241e-01 4.556500e-01 6.288910e-01 8.141167e-01 9.912010e-01 1.114858e+00 1.308707e+00 1.286778e+00 1.234775e+00 1.174657e+00 1.098794e+00 2.302221e-04
<GCONST> 7.004587e+01
<MIXTURE> 120 4.297961e-03
<MEAN> 25
 -4.865836e+00 -7.538504e+00 2.182766e+00 1.849832e+00 2.194876e+00 2.429624e-01 5.320573e+00 5.823622e+00 1.517280e+00 9.427910e-01 6.567159e+00 1.593170e+00 -5.110465e-02 -8.565629e-02 2.873785e-02 -5.336231e-02 -1.092285e-01 -1.726960e-01 -8.552769e-02 -3.541598e-02 -1.015050e-01 -1.047675e-01 -4.888430e-02 -6.015198e-02 9.004357e-04
<VARIANCE> 25
 8.897980e+00 1.006903e+01 1.646046e+01 2.155233e+01 2.293377e+01 2.292810e+01 2.489387e+01 2.668007e+01 3.271984e+01 2.764457e+01 2.019923e+01 2.006550e+01 1.584460e-01 2.847241e-01 4.556500e-01 6.288910e-01 8.141167e-01 9.912010e-01 1.114858e+00 1.308707e+00 1.286778e+00 1.234775e+00 1.174657e+00 1.098794e+00 2.302221e-04
<GCONST> 7.004587e+01
<MIXTURE> 121 4.567511e-03
<MEAN> 25
 2.490366e-01 -2.466310e+00 5.088849e+00 -1.279745e+01 -1.254551e+01 -1.582463e+00 1.035801e+00 -5.029313e+00 -4.103604e+00 -4.735645e-01 -5.507086e+00 -4.294901e+00 2.376498e-02 1.221920e-01 -4.426709e-02 7.239097e-02 1.509905e-01 7.303268e-02 -7.940475e-02 -1.815915e-01 -2.682685e-01 -2.497420e-01 -1.220796e-01 -9.932196e-04 -7.477173e-03
<VARIANCE> 25
 7.789236e+00 1.568563e+01 1.739449e+01 2.105995e+01 2.501438e+01 2.950896e+01 2.927948e+01 2.487238e+01 3.639206e+01 2.803445e+01 1.978573e+01 2.110827e+01 1.534595e-01 6.452857e-01 6.194628e-01 7.034757e-01 7.715922e-01 1.146376e+00 1.107871e+00 1.117598e+00 1.213944e+00 1.202000e+00 9.411377e-01 8.645976e-01 2.084935e-04
<GCONST> 7.145717e+01
<MIXTURE> 122 4.567511e-03
<MEAN> 25
 2.490366e-01 -2.466310e+00 5.088849e+00 -1.279745e+01 -1.254551e+01 -1.582463e+00 1.035801e+00 -5.029313e+00 -4.103604e+00 -4.735645e-01 -5.507086e+00 -4.294901e+00 2.376498e-02 1.221920e-01 -4.426709e-02 7.239097e-02 1.509905e-01 7.303268e-02 -7.940475e-02 -1.815915e-01 -2.682685e-01 -2.497420e-01 -1.220796e-01 -9.932196e-04 -7.477173e-03
<VARIANCE> 25
 7.789236e+00 1.568563e+01 1.739449e+01 2.105995e+01 2.501438e+01 2.950896e+01 2.927948e+01 2.487238e+01 3.639206e+01 2.803445e+01 1.978573e+01 2.110827e+01 1.534595e-01 6.452857e-01 6.194628e-01 7.034757e-01 7.715922e-01 1.146376e+00 1.107871e+00 1.117598e+00 1.213944e+00 1.202000e+00 9.411377e-01 8.645976e-01 2.084935e-04
<GCONST> 7.145717e+01
<MIXTURE> 123 4.393044e-03
<MEAN> 25
 -3.716155e+00 1.479388e+00 1.465763e-01 6.014720e+00 5.087688e+00 4.076880e+00 3.150504e+00 2.114826e-01 7.283583e-01 -1.144261e+00 -5.841937e-01 6.497982e-01 -3.650801e-01 -7.788219e-01 -8.086240e-01 -7.026888e-01 -3.537821e-01 2.718088e-02 3.071354e-01 6.965573e-01 6.872919e-01 7.112703e-01 7.485498e-01 5.163442e-01 -2.675062e-03
<VARIANCE> 25
 1.260467e+01 1.256128e+01 1.447285e+01 1.804128e+01 2.104314e+01 2.956589e+01 2.087121e+01 1.825539e+01 2.017875e+01 2.018889e+01 2.456158e+01 1.864782e+01 4.907642e-01 3.447286e-01 5.308676e-01 7.508518e-01 1.064516e+00 1.125923e+00 1.232790e+00 1.126595e+00 1.280989e+00 1.183840e+00 1.172775e+00 1.127215e+00 9.230274e-05
<GCONST> 7.030738e+01
<MIXTURE> 124 4.069876e-03
<MEAN> 25
 -6.562804e+00 -1.210836e+00 -2.923331e+00 5.104230e+00 4.971162e+00 3.389626e+00 5.388865e+00 2.565366e+00 3.196041e+00 1.277469e+00 1.127798e+00 3.044425e+00 -2.049145e-01 -3.230758e-01 -3.622712e-01 -2.162599e-01 1.278685e-01 5.195089e-01 8.101912e-01 8.607196e-01 6.547736e-01 3.275027e-01 7.201779e-02 -2.465305e-02 4.117606e-05
<VARIANCE> 25
 1.102413e+01 6.981636e+00 1.114033e+01 1.244656e+01 1.210994e+01 1.981725e+01 1.552532e+01 1.706827e+01 1.547823e+01 1.608592e+01 1.919996e+01 1.443888e+01 1.048190e-01 1.680917e-01 2.702605e-01 4.185944e-01 5.930013e-01 7.065774e-01 7.481525e-01 8.152827e-01 9.082790e-01 9.807647e-01 1.008204e+00 9.928721e-01 1.799004e-05
<GCONST> 5.880224e+01
<MIXTURE> 125 4.069876e-03
<MEAN> 25
 -6.562804e+00 -1.210836e+00 -2.923331e+00 5.104230e+00 4.971162e+00 3.389626e+00 5.388865e+00 2.565366e+00 3.196041e+00 1.277469e+00 1.127798e+00 3.044425e+00 -2.049145e-01 -3.230758e-01 -3.622712e-01 -2.162599e-01 1.278685e-01 5.195089e-01 8.101912e-01 8.607196e-01 6.547736e-01 3.275027e-01 7.201779e-02 -2.465305e-02 4.117606e-05
<VARIANCE> 25
 1.102413e+01 6.981636e+00 1.114033e+01 1.244656e+01 1.210994e+01 1.981725e+01 1.552532e+01 1.706827e+01 1.547823e+01 1.608592e+01 1.919996e+01 1.443888e+01 1.048190e-01 1.680917e-01 2.702605e-01 4.185944e-01 5.930013e-01 7.065774e-01 7.481525e-01 8.152827e-01 9.082790e-01 9.807647e-01 1.008204e+00 9.928721e-01 1.799004e-05
<GCONST> 5.880224e+01
<MIXTURE> 126 2.402244e-03
<MEAN> 25
 -3.546098e+00 -6.691333e+00 -5.116831e+00 1.817506e+00 4.248969e+00 -2.956765e+00 2.638830e-01 3.244068e+00 4.098861e+00 -2.795915e+00 -1.248874e+00 2.929973e+00 -6.996133e-03 -1.126716e-02 -4.600352e-02 -1.220680e-01 -2.982357e-01 -3.585690e-01 -3.021390e-01 -1.206785e-01 -1.480394e-01 -1.531595e-01 -1.181187e-01 -2.526552e-02 -2.213215e-03
<VARIANCE> 25
 7.950581e+00 1.296284e+01 1.360559e+01 1.850461e+01 2.357861e+01 2.370261e+01 2.243142e+01 2.863788e+01 3.913903e+01 2.527874e+01 2.135826e+01 1.860670e+01 1.650967e-01 3.495375e-01 4.616396e-01 5.880417e-01 7.462718e-01 9.798979e-01 1.131385e+00 1.315183e+00 1.410461e+00 1.297494e+00 1.191657e+00 1.115266e+00 2.120585e-04
<GCONST> 7.014222e+01
<MIXTURE> 127 2.402244e-03
<MEAN> 25
 -3.546098e+00 -6.691333e+00 -5.116831e+00 1.817506e+00 4.248969e+00 -2.956765e+00 2.638830e-01 3.244068e+00 4.098861e+00 -2.795915e+00 -1.248874e+00 2.929973e+00 -6.996133e-03 -1.126716e-02 -4.600352e-02 -1.220680e-01 -2.982357e-01 -3.585690e-01 -3.021390e-01 -1.206785e-01 -1.480394e-01 -1.531595e-01 -1.181187e-01 -2.526552e-02 -2.213215e-03
<VARIANCE> 25
 7.950581e+00 1.296284e+01 1.360559e+01 1.850461e+01 2.357861e+01 2.370261e+01 2.243142e+01 2.863788e+01 3.913903e+01 2.527874e+01 2.135826e+01 1.860670e+01 1.650967e-01 3.495375e-01 4.616396e-01 5.880417e-01 7.462718e-01 9.798979e-01 1.131385e+00 1.315183e+00 1.410461e+00 1.297494e+00 1.191657e+00 1.115266e+00 2.120585e-04
<GCONST> 7.014222e+01
<MIXTURE> 128 3.790457e-03
<MEAN> 25
 -3.796096e+00 1.331236e+00 -4.844393e-01 6.173607e+00 3.358873e+00 1.871669e+00 3.403244e+00 2.812506e+00 4.612654e+00 3.366000e+00 3.410447e+00 3.628104e+00 -4.115641e-01 -2.392013e-01 9.990414e-02 7.802419e-01 1.179201e+00 1.200740e+00 7.115834e-01 2.029285e-01 -4.148434e-01 -7.401967e-01 -6.697571e-01 -4.452989e-01 -1.374251e-04
<VARIANCE> 25
 1.014972e+01 1.210918e+01 1.465581e+01 2.152126e+01 2.051269e+01 2.030677e+01 2.362090e+01 2.792473e+01 3.340352e+01 2.467999e+01 2.779015e+01 1.775763e+01 8.566903e-01 1.133162e+00 1.308626e+00 1.507571e+00 1.517416e+00 1.873780e+00 2.156790e+00 2.329312e+00 2.053038e+00 1.807606e+00 1.675828e+00 1.723907e+00 1.204958e-06
<GCONST> 7.400415e+01
<TRANSP> 3
 0.000000e+00 1.000000e+00 0.000000e+00
 0.000000e+00 9.999990e-01 9.999998e-07
 0.000000e+00 0.000000e+00 0.000000e+00
<ENDHMM>
