~o
<STREAMINFO> 1 25
<VECSIZE> 25<NULLD><MFCC_E_D_N><DIAGC>
~h "jmodel"
<BEGINHMM>
<NUMSTATES> 3
<STATE> 2
<NUMMIXES> 128
<MIXTURE> 1 5.748963e-03
<MEAN> 25
 -2.545986e+00 3.203613e+00 2.337094e+00 8.650455e+00 4.370925e+00 3.408695e+00 4.009161e+00 3.890397e+00 5.801547e+00 5.213939e+00 5.824601e+00 3.089971e+00 -1.981982e+00 -1.623035e+00 -8.853493e-01 1.057985e+00 1.548396e+00 2.218204e+00 2.154631e+00 2.076083e+00 1.703467e+00 1.258250e+00 1.574688e+00 5.894650e-01 -4.661064e-02
<VARIANCE> 25
 1.006750e+01 1.166164e+01 1.484106e+01 1.929314e+01 2.290130e+01 2.202178e+01 2.187423e+01 2.188655e+01 2.085815e+01 2.238061e+01 2.097448e+01 1.696529e+01 1.806886e+00 2.096464e+00 3.024450e+00 3.196440e+00 3.710849e+00 3.331792e+00 3.284981e+00 3.349246e+00 3.486220e+00 3.694955e+00 3.493242e+00 2.845529e+00 3.092394e-03
<GCONST> 8.837155e+01
<MIXTURE> 2 4.549242e-03
<MEAN> 25
 -4.875471e+00 1.311815e+00 9.943232e-01 9.898950e+00 6.692328e+00 7.424395e+00 7.846935e+00 6.957534e+00 8.373267e+00 6.372652e+00 7.623889e+00 3.074494e+00 -6.204743e-02 4.155464e-02 1.424623e-01 2.257967e-01 2.652596e-01 2.813456e-01 2.955372e-01 3.195572e-01 3.498071e-01 3.088693e-01 1.971015e-01 7.999118e-02 1.113059e-06
<VARIANCE> 25
 6.952529e+00 8.901571e+00 1.065044e+01 1.591838e+01 1.723440e+01 1.556267e+01 1.689788e+01 1.848798e+01 1.658563e+01 1.738636e+01 1.811197e+01 1.433929e+01 1.252671e-01 2.266583e-01 3.365399e-01 4.672056e-01 6.492425e-01 8.148336e-01 9.299445e-01 1.003152e+00 1.051613e+00 1.077749e+00 1.075669e+00 1.013913e+00 1.000307e-06
<GCONST> 5.804413e+01
<MIXTURE> 3 4.549242e-03
<MEAN> 25
 -4.875471e+00 1.311815e+00 9.943232e-01 9.898950e+00 6.692328e+00 7.424395e+00 7.846935e+00 6.957534e+00 8.373267e+00 6.372652e+00 7.623889e+00 3.074494e+00 -6.204743e-02 4.155464e-02 1.424623e-01 2.257967e-01 2.652596e-01 2.813456e-01 2.955372e-01 3.195572e-01 3.498071e-01 3.088693e-01 1.971015e-01 7.999118e-02 1.113059e-06
<VARIANCE> 25
 6.952529e+00 8.901571e+00 1.065044e+01 1.591838e+01 1.723440e+01 1.556267e+01 1.689788e+01 1.848798e+01 1.658563e+01 1.738636e+01 1.811197e+01 1.433929e+01 1.252671e-01 2.266583e-01 3.365399e-01 4.672056e-01 6.492425e-01 8.148336e-01 9.299445e-01 1.003152e+00 1.051613e+00 1.077749e+00 1.075669e+00 1.013913e+00 1.000307e-06
<GCONST> 5.804413e+01
<MIXTURE> 4 1.671429e-02
<MEAN> 25
 3.571731e+00 2.276489e+00 -3.772572e+00 9.406650e-01 4.143923e+00 -4.720323e-01 -1.793379e-02 8.699016e-02 1.314284e+00 1.128512e+00 -1.810511e+00 2.097919e-01 -2.695950e+00 1.152730e+00 1.754586e+00 3.011661e+00 9.395120e-01 4.777451e-01 1.354731e+00 1.000247e+00 1.094568e+00 3.532219e-01 1.153532e+00 8.590149e-01 -1.019739e-01
<VARIANCE> 25
 2.051150e+01 2.954012e+01 2.802208e+01 3.900776e+01 4.395360e+01 6.690621e+01 6.276884e+01 5.146571e+01 5.589619e+01 5.986180e+01 4.876229e+01 3.473935e+01 2.340865e+00 4.958147e+00 3.583715e+00 4.940657e+00 4.785726e+00 5.906730e+00 6.354477e+00 5.345689e+00 6.086016e+00 6.385836e+00 5.989630e+00 4.331439e+00 5.878181e-03
<GCONST> 1.049397e+02
<MIXTURE> 5 3.206198e-03
<MEAN> 25
 -3.417573e+00 2.179521e+00 6.103469e-01 9.423720e+00 6.696395e+00 6.313645e+00 7.110674e+00 4.722705e+00 5.497910e+00 3.847781e+00 4.656220e+00 2.605652e+00 -3.245949e-01 7.524419e-01 1.224763e+00 1.032936e+00 3.074545e-01 -1.004840e-01 -8.330655e-02 3.423966e-02 4.580132e-01 6.830288e-01 4.028470e-01 8.761915e-02 -2.681977e-05
<VARIANCE> 25
 1.024875e+01 1.394498e+01 2.348570e+01 2.566557e+01 2.021495e+01 1.943035e+01 2.011483e+01 2.035159e+01 2.142897e+01 2.127493e+01 2.410118e+01 1.635527e+01 1.209567e+00 1.244398e+00 1.356657e+00 1.673215e+00 2.283921e+00 2.375536e+00 2.301153e+00 2.275805e+00 2.314687e+00 2.238980e+00 2.087461e+00 1.873524e+00 1.002283e-06
<GCONST> 7.516909e+01
<MIXTURE> 6 5.475854e-03
<MEAN> 25
 9.625237e+00 -1.132942e+00 -6.594657e+00 -1.076818e+01 -2.403872e+00 6.011777e+00 -4.910710e+00 -4.811769e+00 -4.466852e+00 2.501580e+00 3.919794e+00 -1.268619e+00 5.121005e-01 8.213217e-01 -2.837768e-01 -1.301560e+00 -5.684690e-01 1.184346e+00 1.553780e+00 2.120926e-01 -1.221166e+00 -1.323665e+00 4.407921e-01 1.151532e+00 -8.665495e-03
<VARIANCE> 25
 7.967493e+00 1.818925e+01 2.120081e+01 3.589554e+01 3.277497e+01 3.055434e+01 4.595089e+01 3.563202e+01 4.060764e+01 3.787458e+01 4.041133e+01 2.608074e+01 3.111216e-01 8.899216e-01 9.004041e-01 2.098122e+00 1.641512e+00 1.940072e+00 1.716786e+00 1.837310e+00 2.127509e+00 1.874356e+00 2.175168e+00 1.301464e+00 6.429589e-04
<GCONST> 8.289973e+01
<MIXTURE> 7 5.475854e-03
<MEAN> 25
 9.625237e+00 -1.132942e+00 -6.594657e+00 -1.076818e+01 -2.403872e+00 6.011777e+00 -4.910710e+00 -4.811769e+00 -4.466852e+00 2.501580e+00 3.919794e+00 -1.268619e+00 5.121005e-01 8.213217e-01 -2.837768e-01 -1.301560e+00 -5.684690e-01 1.184346e+00 1.553780e+00 2.120926e-01 -1.221166e+00 -1.323665e+00 4.407921e-01 1.151532e+00 -8.665495e-03
<VARIANCE> 25
 7.967493e+00 1.818925e+01 2.120081e+01 3.589554e+01 3.277497e+01 3.055434e+01 4.595089e+01 3.563202e+01 4.060764e+01 3.787458e+01 4.041133e+01 2.608074e+01 3.111216e-01 8.899216e-01 9.004041e-01 2.098122e+00 1.641512e+00 1.940072e+00 1.716786e+00 1.837310e+00 2.127509e+00 1.874356e+00 2.175168e+00 1.301464e+00 6.429589e-04
<GCONST> 8.289973e+01
<MIXTURE> 8 1.165917e-02
<MEAN> 25
 -4.679634e+00 1.371826e+00 1.259218e+00 9.518098e+00 6.547033e+00 6.241159e+00 6.461121e+00 5.662199e+00 6.639719e+00 5.564027e+00 6.533036e+00 3.124835e+00 -6.365047e-01 -1.413875e+00 -1.076460e+00 -1.728525e+00 -2.349612e-01 -9.470853e-01 -2.009760e-01 -2.963832e-01 -2.493855e-01 -1.579031e-01 -1.898580e-01 9.428684e-02 9.836665e-02
<VARIANCE> 25
 9.537854e+00 9.769091e+00 1.162350e+01 1.611109e+01 1.656437e+01 1.559427e+01 1.800796e+01 1.743437e+01 1.697810e+01 1.772856e+01 1.887246e+01 1.394926e+01 2.738414e+00 2.805728e+00 3.877194e+00 3.727911e+00 3.426368e+00 3.287841e+00 3.169833e+00 3.058881e+00 2.850366e+00 2.659653e+00 2.481987e+00 1.903710e+00 6.649902e-03
<GCONST> 8.626642e+01
<MIXTURE> 9 1.199672e-02
<MEAN> 25
 9.071214e+00 2.512005e+00 -6.085496e+00 -1.030975e+01 -2.005395e+00 4.218833e+00 -1.927837e+00 -2.145870e+00 -5.789332e+00 -1.884545e-01 3.441682e-01 -2.093131e-01 1.494882e+00 -2.901562e-01 -4.122262e-01 -2.718597e+00 -1.712226e+00 7.215501e-01 -8.409778e-01 -2.673036e-01 -4.373950e-01 -4.174239e-01 4.979214e-01 -1.175083e-01 7.280112e-02
<VARIANCE> 25
 1.144718e+01 2.479060e+01 3.020785e+01 4.998854e+01 4.585382e+01 3.289265e+01 3.996785e+01 4.691359e+01 3.987609e+01 4.618264e+01 3.373783e+01 2.572330e+01 2.003694e+00 2.420630e+00 4.241072e+00 4.433431e+00 4.785628e+00 3.814379e+00 4.030804e+00 5.419003e+00 5.226108e+00 3.963255e+00 3.670989e+00 2.564729e+00 2.020814e-03
<GCONST> 9.762459e+01
<MIXTURE> 10 6.596976e-03
<MEAN> 25
 8.365869e-01 7.614480e+00 5.353929e+00 7.145274e+00 1.594727e+00 -2.123967e+00 -5.493132e-01 -1.687460e+00 8.644976e-01 8.756118e-01 8.318443e-01 6.395500e-01 -1.919493e+00 -6.711904e-01 -4.619993e-01 3.009002e+00 2.459212e+00 2.706360e+00 2.367181e+00 2.273448e+00 1.863373e+00 1.538813e+00 2.326793e+00 5.244673e-01 -1.378582e-01
<VARIANCE> 25
 1.953455e+01 2.069534e+01 2.238167e+01 2.900367e+01 3.816856e+01 3.484732e+01 3.550119e+01 3.372894e+01 2.756448e+01 2.902883e+01 2.689340e+01 2.508681e+01 2.232705e+00 3.412685e+00 5.516900e+00 5.234536e+00 5.543705e+00 4.458116e+00 4.692931e+00 4.836096e+00 4.373238e+00 5.011091e+00 4.447558e+00 3.181908e+00 2.706061e-03
<GCONST> 9.745274e+01
<MIXTURE> 11 1.633820e-02
<MEAN> 25
 7.114933e+00 2.839692e+00 3.187551e+00 4.992661e+00 -9.424226e-01 -3.059815e+00 -1.201391e+00 -6.260496e+00 -3.970456e+00 7.062959e-01 -1.097869e+00 -1.567580e+00 -4.933756e-01 7.297295e-01 2.392842e-01 2.445202e-01 8.086643e-01 -1.236079e-01 1.516669e-01 1.578544e-01 5.241870e-01 -1.706162e-01 -5.334491e-02 2.813112e-01 -2.371226e-02
<VARIANCE> 25
 9.767587e+00 1.901794e+01 1.585717e+01 2.215711e+01 3.385645e+01 2.839459e+01 4.925829e+01 3.755544e+01 5.119868e+01 3.044352e+01 3.601375e+01 2.157868e+01 8.243272e-01 1.149230e+00 1.847924e+00 2.191021e+00 2.002377e+00 2.052386e+00 1.558771e+00 3.872581e+00 2.795555e+00 2.009945e+00 1.510156e+00 1.303888e+00 9.651540e-04
<GCONST> 8.544755e+01
<MIXTURE> 12 5.904134e-03
<MEAN> 25
 1.074552e+01 3.717420e+00 -4.499092e+00 -1.591607e+01 -8.670347e+00 8.598391e+00 -8.746624e-01 -1.888921e+00 -1.701882e+00 -4.879609e+00 1.784873e+00 7.232815e-01 6.788366e-02 2.935530e-01 7.943216e-02 -3.676288e-01 -3.100561e-01 2.634956e-02 3.006760e-01 4.439329e-01 1.428532e-01 -3.791098e-01 -3.822674e-01 5.568573e-02 -6.221393e-03
<VARIANCE> 25
 8.914050e+00 2.105766e+01 2.324871e+01 3.597175e+01 4.196404e+01 3.116957e+01 4.168349e+01 4.894133e+01 4.411805e+01 3.737987e+01 3.783015e+01 2.882633e+01 2.457329e-01 6.852087e-01 6.843114e-01 1.166297e+00 1.182624e+00 1.052457e+00 1.180745e+00 1.382187e+00 1.240785e+00 1.232911e+00 1.217773e+00 9.536164e-01 5.793780e-04
<GCONST> 7.893291e+01
<MIXTURE> 13 5.904134e-03
<MEAN> 25
 1.074552e+01 3.717420e+00 -4.499092e+00 -1.591607e+01 -8.670347e+00 8.598391e+00 -8.746624e-01 -1.888921e+00 -1.701882e+00 -4.879609e+00 1.784873e+00 7.232815e-01 6.788366e-02 2.935530e-01 7.943216e-02 -3.676288e-01 -3.100561e-01 2.634956e-02 3.006760e-01 4.439329e-01 1.428532e-01 -3.791098e-01 -3.822674e-01 5.568573e-02 -6.221393e-03
<VARIANCE> 25
 8.914050e+00 2.105766e+01 2.324871e+01 3.597175e+01 4.196404e+01 3.116957e+01 4.168349e+01 4.894133e+01 4.411805e+01 3.737987e+01 3.783015e+01 2.882633e+01 2.457329e-01 6.852087e-01 6.843114e-01 1.166297e+00 1.182624e+00 1.052457e+00 1.180745e+00 1.382187e+00 1.240785e+00 1.232911e+00 1.217773e+00 9.536164e-01 5.793780e-04
<GCONST> 7.893291e+01
<MIXTURE> 14 6.488954e-03
<MEAN> 25
 -4.279331e+00 -3.817335e-01 -3.189220e-01 8.891738e+00 7.490992e+00 7.358572e+00 7.818744e+00 7.327302e+00 7.240297e+00 5.188628e+00 6.848018e+00 4.074895e+00 -2.720931e-01 1.930967e-01 3.649537e-01 3.104337e-01 -1.233705e-04 5.792855e-02 9.460371e-02 1.793147e-01 3.017299e-01 5.440204e-01 5.092459e-01 7.647659e-02 -9.158447e-03
<VARIANCE> 25
 9.524640e+00 1.380616e+01 1.853499e+01 1.781594e+01 2.088636e+01 1.955474e+01 2.140148e+01 2.058062e+01 2.000126e+01 2.403568e+01 2.134177e+01 1.601166e+01 9.631187e-01 1.631682e+00 1.772228e+00 1.931405e+00 2.241447e+00 2.248769e+00 2.262247e+00 2.236356e+00 2.281627e+00 2.497577e+00 2.192845e+00 1.808451e+00 1.030030e-03
<GCONST> 8.189606e+01
<MIXTURE> 15 2.475190e-03
<MEAN> 25
 -5.408937e+00 -6.438137e-01 -2.009325e-01 7.346132e+00 5.719375e+00 5.690048e+00 6.059120e+00 4.973732e+00 5.167990e+00 4.136649e+00 5.488456e+00 2.529452e+00 -1.207882e-01 -3.002659e-02 7.569935e-02 2.441026e-01 4.853332e-01 7.851579e-01 1.072426e+00 1.181415e+00 1.060488e+00 7.566095e-01 4.184251e-01 1.510986e-01 -5.885019e-05
<VARIANCE> 25
 7.098863e+00 5.600619e+00 9.005337e+00 1.295230e+01 1.405470e+01 1.428813e+01 1.487832e+01 1.496162e+01 1.408429e+01 1.424105e+01 1.512318e+01 1.250340e+01 1.257409e-01 2.065614e-01 3.208836e-01 5.043841e-01 7.048481e-01 7.944295e-01 7.615461e-01 7.903268e-01 9.083923e-01 1.023839e+00 1.070400e+00 1.040082e+00 2.814486e-05
<GCONST> 5.863729e+01
<MIXTURE> 16 2.475190e-03
<MEAN> 25
 -5.408937e+00 -6.438137e-01 -2.009325e-01 7.346132e+00 5.719375e+00 5.690048e+00 6.059120e+00 4.973732e+00 5.167990e+00 4.136649e+00 5.488456e+00 2.529452e+00 -1.207882e-01 -3.002659e-02 7.569935e-02 2.441026e-01 4.853332e-01 7.851579e-01 1.072426e+00 1.181415e+00 1.060488e+00 7.566095e-01 4.184251e-01 1.510986e-01 -5.885019e-05
<VARIANCE> 25
 7.098863e+00 5.600619e+00 9.005337e+00 1.295230e+01 1.405470e+01 1.428813e+01 1.487832e+01 1.496162e+01 1.408429e+01 1.424105e+01 1.512318e+01 1.250340e+01 1.257409e-01 2.065614e-01 3.208836e-01 5.043841e-01 7.048481e-01 7.944295e-01 7.615461e-01 7.903268e-01 9.083923e-01 1.023839e+00 1.070400e+00 1.040082e+00 2.814486e-05
<GCONST> 5.863729e+01
<MIXTURE> 17 9.518312e-03
<MEAN> 25
 3.413621e+00 -4.201776e-01 6.310771e+00 2.361735e+00 -5.090117e+00 -5.381613e+00 -3.539912e+00 -3.904443e-01 -2.330889e+00 -3.370759e+00 -4.204060e-01 2.360228e-01 -7.418019e-01 -9.916504e-01 1.446460e+00 -2.030114e+00 -2.249308e+00 -1.271566e-01 8.541404e-04 6.866755e-01 -4.523123e-01 -6.445032e-02 9.372039e-01 4.609866e-01 7.639615e-02
<VARIANCE> 25
 1.525972e+01 2.984778e+01 2.789310e+01 3.500843e+01 4.396881e+01 5.167245e+01 3.822688e+01 3.157498e+01 3.257608e+01 2.382374e+01 2.719961e+01 2.523389e+01 1.652933e+00 2.699510e+00 3.807338e+00 2.844276e+00 3.861377e+00 4.843315e+00 4.685050e+00 4.216513e+00 3.859346e+00 4.176776e+00 3.007746e+00 2.436134e+00 2.096657e-03
<GCONST> 9.535628e+01
<MIXTURE> 18 1.221018e-02
<MEAN> 25
 4.142251e+00 4.065760e+00 5.826850e+00 5.140294e+00 -4.726888e+00 -8.269485e+00 -2.553032e+00 -8.026379e-01 -3.693136e+00 -1.781892e+00 -9.019151e-01 3.233496e-01 -6.949707e-01 2.035904e+00 -3.787894e-01 1.626549e+00 3.382914e+00 1.509837e+00 6.325009e-01 -4.161353e-01 8.315113e-01 8.324648e-01 -4.390281e-01 -4.091399e-01 -1.165502e-01
<VARIANCE> 25
 1.459918e+01 2.453280e+01 3.633922e+01 2.502768e+01 3.887846e+01 3.009231e+01 4.030963e+01 3.296481e+01 3.722626e+01 3.474227e+01 2.950825e+01 2.969153e+01 2.335417e+00 2.806766e+00 4.558524e+00 4.714376e+00 4.449298e+00 4.221654e+00 4.335004e+00 4.462654e+00 4.338172e+00 4.949381e+00 4.272492e+00 4.369517e+00 3.992797e-03
<GCONST> 9.815160e+01
<MIXTURE> 19 9.912824e-03
<MEAN> 25
 -9.156909e+00 2.028549e+00 3.982599e-01 1.654456e+00 3.259516e+00 2.802205e+00 3.390233e+00 5.958797e-01 1.333564e+00 1.110414e+00 9.194691e-01 1.229916e+00 2.005747e+00 1.388484e+00 2.226779e+00 5.822298e-01 -1.146151e+00 -8.609455e-01 -1.024644e+00 -1.386383e+00 -1.611887e+00 -1.150707e+00 -5.722784e-01 -6.036028e-01 3.038749e-03
<VARIANCE> 25
 5.515699e+01 2.508276e+01 4.594279e+01 4.457780e+01 3.690196e+01 3.117065e+01 3.122557e+01 3.465760e+01 2.755462e+01 2.487326e+01 2.704033e+01 1.768041e+01 2.202686e+00 2.441784e+00 2.120917e+00 2.324974e+00 2.206259e+00 2.126128e+00 2.940731e+00 2.084397e+00 1.884615e+00 1.965091e+00 2.006542e+00 1.876688e+00 2.218759e-03
<GCONST> 9.069925e+01
<MIXTURE> 20 6.308331e-03
<MEAN> 25
 -1.437845e+01 7.316024e+00 1.580505e+00 5.170753e+00 4.158415e+00 2.238683e+00 4.921111e+00 6.708680e-01 1.167206e+00 4.433966e-01 2.006452e+00 -1.924259e-01 -3.255140e+00 -8.527734e-01 -1.489681e+00 2.640047e-01 1.443238e+00 1.991593e+00 1.967309e+00 2.063390e+00 2.131043e+00 1.946701e+00 1.585240e+00 7.956260e-01 4.846712e-02
<VARIANCE> 25
 1.855951e+01 2.159677e+01 3.341566e+01 4.310484e+01 3.266390e+01 2.898942e+01 2.820046e+01 2.909554e+01 2.621248e+01 2.716569e+01 2.606818e+01 1.931246e+01 1.934123e+00 1.995628e+00 1.797713e+00 2.365262e+00 2.558110e+00 2.171964e+00 2.125276e+00 2.137041e+00 2.056455e+00 2.539340e+00 2.172056e+00 1.917868e+00 1.737962e-03
<GCONST> 8.831686e+01
<MIXTURE> 21 7.928653e-03
<MEAN> 25
 3.759119e+00 -4.085037e+00 5.817142e+00 -9.627640e-01 -9.222960e+00 -8.431886e+00 -2.883565e+00 3.306990e+00 -1.486895e+00 -3.543559e+00 -2.608449e-01 4.486823e-01 -7.477190e-01 1.208250e+00 2.547299e+00 -1.374504e-01 -1.528097e+00 4.267206e-01 3.532826e-01 -1.383235e+00 -1.947709e+00 2.878211e-01 1.374316e+00 2.590379e-01 -9.158213e-03
<VARIANCE> 25
 8.320619e+00 1.821802e+01 2.653969e+01 2.749814e+01 3.803930e+01 3.108453e+01 3.873166e+01 4.025841e+01 4.069353e+01 2.807341e+01 3.197711e+01 2.074068e+01 3.712750e-01 9.870049e-01 1.687335e+00 1.269819e+00 2.046028e+00 2.010785e+00 3.600565e+00 2.328430e+00 1.929698e+00 2.463082e+00 1.868663e+00 2.036400e+00 4.786608e-04
<GCONST> 8.407565e+01
<MIXTURE> 22 8.827789e-03
<MEAN> 25
 -1.792383e+01 7.152463e+00 -4.112354e+00 7.371621e+00 4.592332e+00 2.772339e+00 8.392063e+00 1.748585e+00 5.381881e+00 3.293213e+00 5.706076e+00 1.182909e+00 -3.094141e-01 -2.080757e-01 -1.259810e-01 -1.481731e-01 -6.864026e-03 1.373892e-01 1.804171e-01 1.774906e-01 2.474146e-01 2.068046e-01 1.729613e-01 1.918008e-01 8.846974e-03
<VARIANCE> 25
 8.110619e+00 1.680624e+01 1.757830e+01 2.540451e+01 2.293534e+01 2.088637e+01 1.944006e+01 1.868550e+01 1.812952e+01 2.087819e+01 1.928390e+01 1.377460e+01 1.089616e+00 1.355500e+00 1.362488e+00 1.570904e+00 1.408006e+00 1.524952e+00 1.507196e+00 1.530943e+00 1.613157e+00 1.543067e+00 1.356155e+00 1.166791e+00 1.743230e-03
<GCONST> 7.831874e+01
<MIXTURE> 23 6.455497e-03
<MEAN> 25
 7.655722e+00 2.097250e+00 2.534322e+00 2.382355e+00 -4.500715e+00 -3.204297e+00 -3.872395e+00 -5.013719e+00 -2.114929e+00 -1.255533e+00 -3.017450e+00 -1.709149e+00 1.509180e-02 1.734358e-01 2.733210e-02 2.917666e-02 1.017210e-01 8.518498e-02 -3.293388e-02 -1.292704e-02 -5.977993e-02 2.606523e-02 -6.272396e-02 -2.153776e-03 -4.977687e-03
<VARIANCE> 25
 1.016100e+01 1.978613e+01 2.392946e+01 3.499555e+01 3.376604e+01 4.628959e+01 5.236994e+01 5.908289e+01 5.154986e+01 4.353620e+01 5.007529e+01 3.535996e+01 1.138201e-01 2.851863e-01 3.814324e-01 4.661700e-01 6.839451e-01 7.493372e-01 8.305469e-01 8.230591e-01 1.002189e+00 8.881211e-01 7.871745e-01 7.397788e-01 1.046435e-04
<GCONST> 7.254196e+01
<MIXTURE> 24 6.455497e-03
<MEAN> 25
 7.655722e+00 2.097250e+00 2.534322e+00 2.382355e+00 -4.500715e+00 -3.204297e+00 -3.872395e+00 -5.013719e+00 -2.114929e+00 -1.255533e+00 -3.017450e+00 -1.709149e+00 1.509180e-02 1.734358e-01 2.733210e-02 2.917666e-02 1.017210e-01 8.518498e-02 -3.293388e-02 -1.292704e-02 -5.977993e-02 2.606523e-02 -6.272396e-02 -2.153776e-03 -4.977687e-03
<VARIANCE> 25
 1.016100e+01 1.978613e+01 2.392946e+01 3.499555e+01 3.376604e+01 4.628959e+01 5.236994e+01 5.908289e+01 5.154986e+01 4.353620e+01 5.007529e+01 3.535996e+01 1.138201e-01 2.851863e-01 3.814324e-01 4.661700e-01 6.839451e-01 7.493372e-01 8.305469e-01 8.230591e-01 1.002189e+00 8.881211e-01 7.871745e-01 7.397788e-01 1.046435e-04
<GCONST> 7.254196e+01
<MIXTURE> 25 1.118642e-02
<MEAN> 25
 1.195325e-01 3.349046e+00 1.626929e+01 -8.159425e-01 -1.039811e+01 -1.622561e+00 -5.146545e+00 -2.829498e+00 -6.824189e+00 -4.877356e+00 3.272152e+00 -1.119973e+00 -1.921491e-01 4.756712e-01 2.450197e-01 9.646653e-02 1.806758e-01 1.719270e-02 1.471212e-01 -1.259976e-01 -2.139415e-01 1.798985e-01 -8.332956e-02 -1.031117e-01 -1.046203e-02
<VARIANCE> 25
 8.544182e+00 2.102132e+01 2.117913e+01 2.662019e+01 3.560439e+01 3.815805e+01 2.484028e+01 2.908252e+01 2.638135e+01 3.640350e+01 2.468620e+01 2.758137e+01 5.834168e-01 1.317988e+00 1.491437e+00 1.305634e+00 2.117285e+00 2.036835e+00 1.682935e+00 1.558229e+00 1.525826e+00 1.700095e+00 1.251468e+00 1.178866e+00 1.274405e-03
<GCONST> 8.216604e+01
<MIXTURE> 26 7.727677e-03
<MEAN> 25
 2.020978e+00 -6.163564e+00 -1.032845e+01 -6.450165e-01 7.782832e+00 5.243165e+00 3.962665e+00 -3.766813e-01 1.970570e+00 -9.277002e-01 -2.823842e+00 -1.161145e+00 -6.538957e-01 6.061985e-01 3.722236e-01 6.906015e-01 1.939211e-01 2.390883e-01 3.020950e-01 3.152981e-01 3.045913e-01 1.284009e-01 3.317389e-01 3.301454e-01 -4.966564e-02
<VARIANCE> 25
 2.547554e+01 3.408487e+01 2.535732e+01 6.004969e+01 3.906242e+01 4.176225e+01 4.500280e+01 4.291236e+01 4.046456e+01 5.371908e+01 3.890416e+01 4.680410e+01 1.591259e+00 1.898089e+00 1.875724e+00 1.976853e+00 2.253639e+00 2.271152e+00 2.495393e+00 2.641564e+00 2.375324e+00 2.454182e+00 2.218752e+00 2.239782e+00 3.478559e-03
<GCONST> 9.383569e+01
<MIXTURE> 27 7.727677e-03
<MEAN> 25
 2.020978e+00 -6.163564e+00 -1.032845e+01 -6.450165e-01 7.782832e+00 5.243165e+00 3.962665e+00 -3.766813e-01 1.970570e+00 -9.277002e-01 -2.823842e+00 -1.161145e+00 -6.538957e-01 6.061985e-01 3.722236e-01 6.906015e-01 1.939211e-01 2.390883e-01 3.020950e-01 3.152981e-01 3.045913e-01 1.284009e-01 3.317389e-01 3.301454e-01 -4.966564e-02
<VARIANCE> 25
 2.547554e+01 3.408487e+01 2.535732e+01 6.004969e+01 3.906242e+01 4.176225e+01 4.500280e+01 4.291236e+01 4.046456e+01 5.371908e+01 3.890416e+01 4.680410e+01 1.591259e+00 1.898089e+00 1.875724e+00 1.976853e+00 2.253639e+00 2.271152e+00 2.495393e+00 2.641564e+00 2.375324e+00 2.454182e+00 2.218752e+00 2.239782e+00 3.478559e-03
<GCONST> 9.383569e+01
<MIXTURE> 28 5.036674e-03
<MEAN> 25
 -5.433053e+00 1.810682e-02 -1.547784e+00 6.550146e+00 5.247854e+00 3.485478e+00 5.393241e+00 3.077771e+00 3.933368e+00 2.370532e+00 2.623064e+00 3.218343e+00 -1.184151e-01 2.199366e-01 5.271376e-01 7.820099e-01 8.212093e-01 7.072768e-01 5.249291e-01 3.902717e-01 4.481072e-01 4.812714e-01 3.698300e-01 1.913336e-01 6.970643e-06
<VARIANCE> 25
 1.048425e+01 8.339768e+00 1.216059e+01 1.527233e+01 1.465817e+01 1.771755e+01 1.797846e+01 1.929620e+01 1.713086e+01 1.669302e+01 2.047742e+01 1.494725e+01 2.566636e-01 3.367584e-01 4.064517e-01 4.650977e-01 6.216782e-01 8.545562e-01 1.051389e+00 1.142515e+00 1.099647e+00 1.031029e+00 1.040453e+00 1.065812e+00 1.053553e-06
<GCONST> 6.033270e+01
<MIXTURE> 29 5.036674e-03
<MEAN> 25
 -5.433053e+00 1.810682e-02 -1.547784e+00 6.550146e+00 5.247854e+00 3.485478e+00 5.393241e+00 3.077771e+00 3.933368e+00 2.370532e+00 2.623064e+00 3.218343e+00 -1.184151e-01 2.199366e-01 5.271376e-01 7.820099e-01 8.212093e-01 7.072768e-01 5.249291e-01 3.902717e-01 4.481072e-01 4.812714e-01 3.698300e-01 1.913336e-01 6.970643e-06
<VARIANCE> 25
 1.048425e+01 8.339768e+00 1.216059e+01 1.527233e+01 1.465817e+01 1.771755e+01 1.797846e+01 1.929620e+01 1.713086e+01 1.669302e+01 2.047742e+01 1.494725e+01 2.566636e-01 3.367584e-01 4.064517e-01 4.650977e-01 6.216782e-01 8.545562e-01 1.051389e+00 1.142515e+00 1.099647e+00 1.031029e+00 1.040453e+00 1.065812e+00 1.053553e-06
<GCONST> 6.033270e+01
<MIXTURE> 30 8.917812e-03
<MEAN> 25
 -4.491580e+00 -1.970942e-01 6.536242e-01 9.073515e+00 7.770343e+00 7.504267e+00 7.584764e+00 6.877648e+00 6.538441e+00 4.891592e+00 7.004639e+00 3.494681e+00 -2.340357e-02 3.015316e-02 5.631722e-02 8.781207e-02 7.882800e-02 4.367584e-02 1.419101e-02 -1.693664e-03 1.920806e-02 5.252607e-02 6.205407e-02 3.488990e-02 -5.416718e-04
<VARIANCE> 25
 6.973088e+00 9.853621e+00 1.038150e+01 1.390442e+01 1.574842e+01 1.641737e+01 1.909745e+01 1.817950e+01 1.628463e+01 1.836448e+01 2.125624e+01 1.437988e+01 9.765826e-02 1.994262e-01 3.254609e-01 4.834859e-01 6.234887e-01 7.234589e-01 7.721553e-01 8.126372e-01 8.775254e-01 9.368156e-01 9.197497e-01 8.616556e-01 5.103714e-05
<GCONST> 6.061565e+01
<MIXTURE> 31 4.136493e-03
<MEAN> 25
 -3.139825e+00 -5.611597e+00 2.977159e-02 4.896564e+00 3.655670e+00 1.707958e+00 5.237609e+00 6.686461e+00 2.787892e+00 1.160092e+00 6.480412e+00 3.074994e+00 2.619951e-01 4.695759e-01 -1.891558e-01 3.191763e-01 8.964211e-02 4.149998e-01 2.050532e-01 4.058957e-02 4.105229e-01 3.969344e-01 1.099278e-01 1.057025e-01 -1.772114e-02
<VARIANCE> 25
 8.154888e+00 1.519942e+01 1.716343e+01 1.767213e+01 2.483766e+01 2.340757e+01 2.328699e+01 2.506820e+01 2.564211e+01 2.769859e+01 2.004236e+01 1.858011e+01 1.913741e-01 4.848892e-01 6.177992e-01 7.667035e-01 9.927886e-01 1.073116e+00 1.205224e+00 1.393170e+00 1.359160e+00 1.308253e+00 1.222709e+00 1.115877e+00 2.720115e-04
<GCONST> 7.183562e+01
<MIXTURE> 32 4.136493e-03
<MEAN> 25
 -3.139825e+00 -5.611597e+00 2.977159e-02 4.896564e+00 3.655670e+00 1.707958e+00 5.237609e+00 6.686461e+00 2.787892e+00 1.160092e+00 6.480412e+00 3.074994e+00 2.619951e-01 4.695759e-01 -1.891558e-01 3.191763e-01 8.964211e-02 4.149998e-01 2.050532e-01 4.058957e-02 4.105229e-01 3.969344e-01 1.099278e-01 1.057025e-01 -1.772114e-02
<VARIANCE> 25
 8.154888e+00 1.519942e+01 1.716343e+01 1.767213e+01 2.483766e+01 2.340757e+01 2.328699e+01 2.506820e+01 2.564211e+01 2.769859e+01 2.004236e+01 1.858011e+01 1.913741e-01 4.848892e-01 6.177992e-01 7.667035e-01 9.927886e-01 1.073116e+00 1.205224e+00 1.393170e+00 1.359160e+00 1.308253e+00 1.222709e+00 1.115877e+00 2.720115e-04
<GCONST> 7.183562e+01
<MIXTURE> 33 1.508826e-02
<MEAN> 25
 6.391404e+00 -3.554906e+00 -2.456698e+00 -2.035758e+00 -1.548681e+00 -5.052990e+00 -6.797490e+00 1.575049e+00 2.477176e+00 1.061907e-01 -3.690375e+00 -2.768744e+00 4.418513e-01 -8.808208e-01 -2.451223e+00 -1.866915e+00 1.547441e+00 1.289099e+00 -6.116755e-01 3.795218e-01 7.883989e-01 7.748813e-01 -4.213285e-01 -1.123405e+00 3.729865e-02
<VARIANCE> 25
 8.697765e+00 1.925109e+01 2.478037e+01 3.638601e+01 3.530224e+01 3.913613e+01 3.999331e+01 4.040533e+01 4.384492e+01 3.963335e+01 3.359426e+01 2.483092e+01 1.295693e+00 2.107294e+00 2.040372e+00 2.012795e+00 4.507252e+00 3.094661e+00 3.804534e+00 5.202741e+00 3.880129e+00 4.097462e+00 2.879668e+00 2.817304e+00 1.878352e-03
<GCONST> 9.329743e+01
<MIXTURE> 34 1.588179e-02
<MEAN> 25
 9.119322e+00 -1.366122e+00 -4.001091e-01 9.914706e-01 -2.870184e+00 -1.668146e+00 -4.259784e+00 -3.913867e+00 -3.283965e+00 1.104786e+00 -1.835738e+00 -3.605655e+00 -2.128848e-01 1.369235e+00 1.567604e+00 2.385094e+00 2.879024e-01 -4.178965e-01 6.951259e-01 -1.764616e+00 -4.805851e-01 -1.444966e-01 -5.848233e-01 3.934017e-01 -5.704720e-02
<VARIANCE> 25
 6.500335e+00 2.928573e+01 2.436851e+01 4.308787e+01 3.337038e+01 4.057838e+01 5.886597e+01 4.553053e+01 5.903520e+01 3.706369e+01 4.091786e+01 2.598634e+01 1.223331e+00 1.625984e+00 3.551087e+00 3.685020e+00 5.098792e+00 4.849408e+00 4.316095e+00 5.367281e+00 5.672570e+00 5.253170e+00 5.010690e+00 3.285863e+00 9.780147e-04
<GCONST> 9.679230e+01
<MIXTURE> 35 1.467755e-02
<MEAN> 25
 -1.455486e+00 -3.603460e+00 -1.107084e+01 -5.277020e-01 9.673311e+00 8.873827e-01 9.810356e-01 8.125787e-01 1.614354e-01 5.138076e+00 3.762079e-01 1.914037e+00 1.086820e-01 -6.685297e-01 -1.343686e+00 -1.182646e+00 7.815037e-01 -3.729267e-01 -3.735220e-01 -1.127481e-01 -8.594504e-01 8.891895e-01 -2.932420e-01 -7.540298e-01 9.675673e-02
<VARIANCE> 25
 1.565123e+01 2.407574e+01 3.791351e+01 4.984025e+01 3.901463e+01 3.952297e+01 3.891034e+01 4.034136e+01 4.898415e+01 3.890743e+01 2.606568e+01 2.460161e+01 3.530251e+00 2.780230e+00 6.389449e+00 4.067004e+00 5.945131e+00 4.088763e+00 3.727113e+00 3.945173e+00 5.653595e+00 4.436927e+00 3.013252e+00 3.697660e+00 4.243076e-03
<GCONST> 9.972929e+01
<MIXTURE> 36 1.093293e-02
<MEAN> 25
 4.611966e+00 -2.850181e+00 5.850596e+00 4.399346e+00 -9.913583e+00 -8.098922e+00 -6.654631e+00 3.166513e+00 -2.333434e+00 -4.668375e+00 2.730495e+00 1.178649e+00 2.879506e-01 1.761480e-01 -1.072531e+00 2.475305e-02 1.038321e+00 1.832653e-01 -5.821851e-01 1.208793e-01 6.050163e-01 5.044969e-01 -6.482250e-01 -4.598939e-01 -1.790265e-02
<VARIANCE> 25
 8.447959e+00 1.215419e+01 2.065981e+01 3.128739e+01 4.552420e+01 2.778957e+01 3.553920e+01 2.990996e+01 4.883947e+01 2.689012e+01 2.313506e+01 2.205704e+01 3.913184e-01 5.435760e-01 1.676620e+00 1.076083e+00 1.853011e+00 1.488318e+00 1.819127e+00 1.756920e+00 2.029672e+00 2.561251e+00 1.285311e+00 1.505247e+00 6.131666e-04
<GCONST> 8.070705e+01
<MIXTURE> 37 1.246826e-02
<MEAN> 25
 5.225155e-01 7.742061e+00 1.204625e+01 -5.462625e+00 -7.854118e+00 -1.059097e+00 -5.072108e+00 -8.206125e+00 -3.655152e+00 -8.643724e-01 -3.737554e+00 -1.205598e+00 1.905343e-01 6.491644e-01 -1.366505e+00 3.527783e+00 1.974263e+00 -2.838184e-01 1.094280e+00 4.106902e-01 5.472206e-01 -3.318168e-01 5.512096e-01 -8.958307e-02 -9.398071e-02
<VARIANCE> 25
 1.572247e+01 2.566110e+01 3.038830e+01 5.075707e+01 3.537896e+01 3.153130e+01 4.333685e+01 3.539736e+01 3.820628e+01 3.555027e+01 3.749664e+01 3.087877e+01 2.919417e+00 3.363944e+00 2.987170e+00 4.222924e+00 4.558545e+00 3.714522e+00 4.144187e+00 3.796731e+00 3.419577e+00 3.571571e+00 3.828240e+00 2.754881e+00 3.926923e-03
<GCONST> 9.763195e+01
<MIXTURE> 38 1.154525e-02
<MEAN> 25
 -5.391587e+00 9.050093e+00 5.813408e+00 1.955176e+00 3.633974e-02 -3.718523e+00 -1.288967e+00 -2.923165e+00 -2.153372e+00 -3.312372e+00 -1.777586e+00 -4.958393e-02 -4.329805e+00 9.621188e-01 -3.135092e-01 1.000348e+00 2.188999e+00 1.473744e+00 2.210092e+00 9.091980e-01 7.374545e-01 2.178825e-01 7.154900e-01 2.332570e-01 5.281735e-02
<VARIANCE> 25
 2.986223e+01 2.411242e+01 3.685395e+01 3.319586e+01 4.184687e+01 3.853254e+01 3.371336e+01 3.476971e+01 3.060572e+01 2.952691e+01 2.166971e+01 2.452608e+01 2.037091e+00 3.517102e+00 3.185901e+00 4.886571e+00 3.917539e+00 4.281784e+00 4.016488e+00 3.767352e+00 3.654306e+00 4.623659e+00 3.975112e+00 2.698063e+00 1.734024e-03
<GCONST> 9.626331e+01
<MIXTURE> 39 9.501865e-03
<MEAN> 25
 1.041062e+00 3.048681e+00 1.014576e+01 -7.791688e+00 -9.788831e+00 -2.359151e-01 -3.858422e+00 -5.905996e+00 -4.235091e+00 3.685650e-01 -4.066351e+00 -1.308301e+00 -8.440967e-01 1.426187e+00 1.708543e+00 -1.362324e+00 -3.251155e-02 8.277178e-01 -1.096672e+00 -9.380631e-01 4.049567e-01 6.362318e-01 -4.376526e-01 1.788582e-01 8.193839e-03
<VARIANCE> 25
 8.005900e+00 2.736173e+01 2.683727e+01 4.010460e+01 4.096338e+01 3.799334e+01 4.000078e+01 3.192978e+01 3.536786e+01 2.972258e+01 3.259502e+01 2.873593e+01 7.154196e-01 1.313237e+00 1.342013e+00 2.437655e+00 2.143911e+00 3.076217e+00 2.736341e+00 2.755041e+00 2.219557e+00 2.654620e+00 1.890086e+00 1.770528e+00 1.167645e-03
<GCONST> 8.787802e+01
<MIXTURE> 40 1.030800e-02
<MEAN> 25
 -8.310764e+00 1.877387e+00 -9.723710e-01 7.531816e+00 3.404794e+00 5.091865e+00 5.082131e+00 4.364170e+00 4.874953e+00 3.566466e+00 5.423660e+00 1.556259e+00 -6.601766e-02 -2.129780e-01 -5.774863e-02 -2.239960e-01 -1.998401e-01 -1.106559e-01 7.510812e-02 7.776006e-02 8.100619e-02 2.843044e-02 6.758236e-02 3.662355e-02 4.421243e-03
<VARIANCE> 25
 5.481558e+01 1.969387e+01 2.804986e+01 2.937057e+01 2.594986e+01 2.024756e+01 1.874211e+01 1.758125e+01 1.712726e+01 2.009316e+01 1.823829e+01 1.348651e+01 7.261937e-01 6.960939e-01 8.988740e-01 1.150135e+00 1.147605e+00 1.155193e+00 1.281009e+00 1.231689e+00 1.276007e+00 1.201193e+00 1.107315e+00 1.013510e+00 7.942954e-04
<GCONST> 7.654665e+01
<MIXTURE> 41 6.713375e-03
<MEAN> 25
 1.301891e+00 1.828655e+00 1.039370e+01 -6.851000e+00 -1.030706e+01 -3.730912e+00 -2.544431e+00 -5.009162e+00 -4.631584e+00 2.584871e+00 -1.768319e+00 -9.118896e-01 7.318437e-02 -7.417372e-01 1.710250e+00 -3.533205e+00 -2.446713e+00 -1.261327e-01 -5.199817e-01 -3.430210e-01 -8.248654e-01 1.078196e+00 -1.040296e+00 9.417023e-02 8.562537e-02
<VARIANCE> 25
 1.160409e+01 2.948462e+01 3.289574e+01 4.024549e+01 3.977725e+01 4.059335e+01 3.691256e+01 2.960911e+01 3.282293e+01 2.891374e+01 3.161096e+01 2.693260e+01 3.161366e+00 3.298060e+00 3.784711e+00 3.781894e+00 4.859733e+00 5.794600e+00 4.667529e+00 4.506141e+00 3.938399e+00 4.207387e+00 3.788213e+00 3.186351e+00 2.910570e-03
<GCONST> 9.780481e+01
<MIXTURE> 42 1.106211e-02
<MEAN> 25
 -2.144883e+00 4.336841e+00 5.040922e+00 3.056375e+00 -7.018229e-01 -5.154864e+00 -4.358745e-01 -2.383771e+00 -1.651704e+00 -1.085901e+00 -2.194085e+00 9.155599e-01 4.154336e+00 -3.604345e-01 1.541921e+00 1.399367e-01 -2.937297e+00 -1.443972e+00 -2.351270e+00 -7.564285e-01 -1.119093e+00 -7.084506e-01 6.698914e-01 -7.939706e-01 9.077253e-03
<VARIANCE> 25
 3.444936e+01 1.943376e+01 4.748918e+01 2.450891e+01 4.733095e+01 4.422997e+01 3.708400e+01 2.660814e+01 2.668175e+01 2.473784e+01 1.913977e+01 1.687671e+01 3.665917e+00 4.454379e+00 5.608646e+00 4.465121e+00 4.226102e+00 6.586243e+00 4.597907e+00 4.746609e+00 5.461369e+00 4.459728e+00 4.059450e+00 3.595186e+00 4.059549e-03
<GCONST> 9.911357e+01
<MIXTURE> 43 7.108249e-03
<MEAN> 25
 3.191553e+00 -6.296334e+00 -2.244821e+00 -5.169724e+00 -7.365322e+00 -3.387227e+00 4.129645e+00 1.304672e+00 -5.082749e+00 -7.056166e+00 -4.295781e+00 -1.247857e+00 2.351313e-01 2.157345e+00 1.914387e+00 -1.247697e-01 -1.416811e+00 -7.935551e-01 -9.618406e-01 -7.825510e-01 8.172336e-01 1.462449e+00 3.426245e-01 2.195371e-02 -4.500543e-02
<VARIANCE> 25
 9.724469e+00 1.963526e+01 2.729634e+01 3.515232e+01 3.843821e+01 3.650227e+01 3.325874e+01 3.964288e+01 3.973780e+01 3.880959e+01 2.662805e+01 2.947044e+01 6.891196e-01 1.256257e+00 1.565683e+00 2.501146e+00 2.397922e+00 2.379121e+00 2.663486e+00 3.035965e+00 2.636412e+00 2.583195e+00 2.321379e+00 1.914011e+00 9.450535e-04
<GCONST> 8.800023e+01
<MIXTURE> 44 7.328289e-03
<MEAN> 25
 -1.750140e+01 3.077453e+00 5.788548e+00 -3.437896e+00 -2.466961e-01 6.140963e+00 1.172327e+00 1.596694e+00 3.285118e+00 -1.946689e+00 -6.578295e-01 8.763261e-01 -5.554257e-02 -2.381307e-01 1.061006e-01 4.616948e-01 -2.486432e-01 1.573329e-01 4.055971e-01 1.655913e-01 2.263255e-01 1.656475e-01 9.816147e-02 6.523383e-02 -1.471058e-03
<VARIANCE> 25
 3.034174e+01 1.667207e+01 2.051683e+01 1.675386e+01 2.552214e+01 2.497819e+01 1.674589e+01 1.757923e+01 2.225269e+01 1.751632e+01 1.832916e+01 1.284895e+01 1.017374e+00 8.596538e-01 9.498991e-01 1.216472e+00 1.552034e+00 9.428236e-01 1.214082e+00 1.056705e+00 1.488595e+00 1.125750e+00 1.085231e+00 9.409842e-01 9.456016e-04
<GCONST> 7.579678e+01
<MIXTURE> 45 1.364932e-02
<MEAN> 25
 -1.177905e+01 3.411386e+00 -1.125588e+00 2.568208e+00 5.388279e+00 2.339090e-01 4.418048e+00 2.790835e+00 3.485733e+00 2.027699e+00 2.259794e+00 2.490561e+00 -2.903697e+00 5.875545e-01 -5.886625e-01 -5.932213e-01 2.232883e-01 4.174602e-02 5.423598e-01 9.845622e-02 -9.743771e-02 -2.025270e-02 1.851535e-01 8.861230e-02 1.158570e-01
<VARIANCE> 25
 4.191148e+01 2.965765e+01 3.318502e+01 3.437818e+01 3.176587e+01 2.811769e+01 3.037904e+01 2.608030e+01 2.621025e+01 2.358044e+01 2.741496e+01 1.495005e+01 2.347038e+00 2.921205e+00 2.992503e+00 2.594193e+00 2.385926e+00 2.576134e+00 2.331745e+00 2.206987e+00 2.233528e+00 2.174152e+00 1.962227e+00 1.584979e+00 4.004062e-03
<GCONST> 9.064691e+01
<MIXTURE> 46 9.336259e-03
<MEAN> 25
 -9.465944e+00 2.307313e+00 1.215208e+00 7.544528e+00 5.909826e+00 3.349660e+00 7.052737e+00 4.489709e+00 5.702974e+00 4.677652e+00 5.020688e+00 2.920110e+00 1.060322e+00 -2.414097e-01 4.047231e-02 1.002200e+00 6.006132e-01 9.397757e-01 3.896228e-01 6.713687e-01 4.694366e-01 5.042598e-01 6.373557e-01 5.209796e-01 -1.054104e-01
<VARIANCE> 25
 3.450460e+01 4.367875e+01 3.864004e+01 4.992146e+01 5.105281e+01 4.079909e+01 3.705040e+01 3.526328e+01 3.315280e+01 3.093718e+01 2.825969e+01 2.019226e+01 3.903504e+00 4.130112e+00 3.879038e+00 4.139143e+00 4.166997e+00 3.687840e+00 3.377979e+00 3.115658e+00 2.984797e+00 2.864404e+00 2.305732e+00 1.782786e+00 7.944752e-03
<GCONST> 9.829252e+01
<MIXTURE> 47 7.116147e-03
<MEAN> 25
 7.363305e+00 -7.236788e+00 -7.599164e+00 -6.547659e+00 1.362250e+00 6.828202e-01 -2.570377e+00 1.329566e+00 2.314480e+00 7.009713e-01 -3.918254e+00 -6.548117e+00 -1.014972e-01 -1.264982e+00 -6.714284e-01 -3.987741e-01 4.548029e-01 7.891707e-01 8.530333e-01 2.716659e-01 1.193866e-01 -7.841886e-01 -4.491354e-01 -4.135241e-01 3.049511e-02
<VARIANCE> 25
 1.019614e+01 2.036230e+01 1.989183e+01 3.249781e+01 3.483064e+01 4.969978e+01 4.404855e+01 3.856736e+01 4.880590e+01 4.877086e+01 4.713210e+01 3.202116e+01 6.042666e-01 7.404079e-01 1.090572e+00 1.646280e+00 2.311965e+00 2.079521e+00 2.223395e+00 2.348126e+00 2.255602e+00 2.254658e+00 2.053321e+00 1.995203e+00 5.653845e-04
<GCONST> 8.630505e+01
<MIXTURE> 48 7.116147e-03
<MEAN> 25
 7.363305e+00 -7.236788e+00 -7.599164e+00 -6.547659e+00 1.362250e+00 6.828202e-01 -2.570377e+00 1.329566e+00 2.314480e+00 7.009713e-01 -3.918254e+00 -6.548117e+00 -1.014972e-01 -1.264982e+00 -6.714284e-01 -3.987741e-01 4.548029e-01 7.891707e-01 8.530333e-01 2.716659e-01 1.193866e-01 -7.841886e-01 -4.491354e-01 -4.135241e-01 3.049511e-02
<VARIANCE> 25
 1.019614e+01 2.036230e+01 1.989183e+01 3.249781e+01 3.483064e+01 4.969978e+01 4.404855e+01 3.856736e+01 4.880590e+01 4.877086e+01 4.713210e+01 3.202116e+01 6.042666e-01 7.404079e-01 1.090572e+00 1.646280e+00 2.311965e+00 2.079521e+00 2.223395e+00 2.348126e+00 2.255602e+00 2.254658e+00 2.053321e+00 1.995203e+00 5.653845e-04
<GCONST> 8.630505e+01
<MIXTURE> 49 5.548473e-03
<MEAN> 25
 -5.067610e+00 3.514210e-01 1.474785e-01 8.430412e+00 6.146959e+00 5.608403e+00 6.061360e+00 4.477287e+00 5.028262e+00 3.709984e+00 4.915956e+00 2.847609e+00 3.671339e-01 6.554926e-01 7.042753e-01 3.531990e-01 -1.945449e-01 -6.649286e-01 -1.010226e+00 -1.121647e+00 -9.587311e-01 -6.803148e-01 -4.917778e-01 -2.679654e-01 -6.845735e-06
<VARIANCE> 25
 9.691828e+00 1.001503e+01 1.435537e+01 1.597654e+01 1.586691e+01 1.711976e+01 1.938301e+01 1.941436e+01 1.817794e+01 1.804559e+01 2.073202e+01 1.431300e+01 2.799487e-01 2.651299e-01 3.597831e-01 6.116084e-01 8.685200e-01 9.804116e-01 9.902241e-01 1.051563e+00 1.133742e+00 1.215692e+00 1.279408e+00 1.213743e+00 1.450622e-05
<GCONST> 6.436349e+01
<MIXTURE> 50 6.234641e-03
<MEAN> 25
 -4.214710e+00 -1.212315e-01 -1.542908e+00 6.101681e+00 4.069299e+00 2.137630e+00 3.464812e+00 1.962314e+00 2.880030e+00 1.234962e+00 2.101940e+00 2.784652e+00 7.111960e-02 2.124270e-01 1.301288e-01 -1.519264e-01 -4.714428e-01 -6.238432e-01 -4.567430e-01 -6.684657e-02 5.157656e-01 8.444028e-01 7.107694e-01 4.203476e-01 5.506531e-05
<VARIANCE> 25
 1.297622e+01 1.124800e+01 1.483860e+01 1.470702e+01 1.481717e+01 1.801881e+01 1.842922e+01 1.831091e+01 1.810701e+01 1.701962e+01 2.050927e+01 1.436407e+01 1.427121e-01 2.465352e-01 3.918956e-01 4.969121e-01 5.866552e-01 7.081820e-01 9.358874e-01 1.057194e+00 1.094129e+00 9.569784e-01 8.851665e-01 9.391375e-01 1.071502e-06
<GCONST> 5.938316e+01
<MIXTURE> 51 6.234641e-03
<MEAN> 25
 -4.214710e+00 -1.212315e-01 -1.542908e+00 6.101681e+00 4.069299e+00 2.137630e+00 3.464812e+00 1.962314e+00 2.880030e+00 1.234962e+00 2.101940e+00 2.784652e+00 7.111960e-02 2.124270e-01 1.301288e-01 -1.519264e-01 -4.714428e-01 -6.238432e-01 -4.567430e-01 -6.684657e-02 5.157656e-01 8.444028e-01 7.107694e-01 4.203476e-01 5.506531e-05
<VARIANCE> 25
 1.297622e+01 1.124800e+01 1.483860e+01 1.470702e+01 1.481717e+01 1.801881e+01 1.842922e+01 1.831091e+01 1.810701e+01 1.701962e+01 2.050927e+01 1.436407e+01 1.427121e-01 2.465352e-01 3.918956e-01 4.969121e-01 5.866552e-01 7.081820e-01 9.358874e-01 1.057194e+00 1.094129e+00 9.569784e-01 8.851665e-01 9.391375e-01 1.071502e-06
<GCONST> 5.938316e+01
<MIXTURE> 52 6.367945e-03
<MEAN> 25
 1.010722e+01 1.989373e+00 -6.179941e+00 -1.415314e+01 -4.173223e+00 8.399032e+00 -2.658980e+00 -3.038152e+00 -4.490374e+00 -2.111872e+00 3.355116e+00 7.704738e-01 -3.882512e-01 -4.657479e-01 -6.060193e-02 1.150510e+00 1.338023e+00 -4.736612e-01 -6.043153e-01 -6.409758e-01 6.421921e-02 1.209181e+00 3.959934e-01 -5.363023e-01 -1.456433e-02
<VARIANCE> 25
 9.239559e+00 2.054903e+01 2.506602e+01 3.948818e+01 4.539876e+01 3.169505e+01 4.670427e+01 4.838914e+01 4.324863e+01 4.566136e+01 3.946722e+01 2.975629e+01 4.512815e-01 1.489459e+00 1.307046e+00 2.732772e+00 2.304339e+00 2.185211e+00 2.980003e+00 2.802390e+00 3.084718e+00 2.784983e+00 2.498402e+00 2.268155e+00 1.580642e-03
<GCONST> 8.979237e+01
<MIXTURE> 53 6.367945e-03
<MEAN> 25
 1.010722e+01 1.989373e+00 -6.179941e+00 -1.415314e+01 -4.173223e+00 8.399032e+00 -2.658980e+00 -3.038152e+00 -4.490374e+00 -2.111872e+00 3.355116e+00 7.704738e-01 -3.882512e-01 -4.657479e-01 -6.060193e-02 1.150510e+00 1.338023e+00 -4.736612e-01 -6.043153e-01 -6.409758e-01 6.421921e-02 1.209181e+00 3.959934e-01 -5.363023e-01 -1.456433e-02
<VARIANCE> 25
 9.239559e+00 2.054903e+01 2.506602e+01 3.948818e+01 4.539876e+01 3.169505e+01 4.670427e+01 4.838914e+01 4.324863e+01 4.566136e+01 3.946722e+01 2.975629e+01 4.512815e-01 1.489459e+00 1.307046e+00 2.732772e+00 2.304339e+00 2.185211e+00 2.980003e+00 2.802390e+00 3.084718e+00 2.784983e+00 2.498402e+00 2.268155e+00 1.580642e-03
<GCONST> 8.979237e+01
<MIXTURE> 54 7.368620e-03
<MEAN> 25
 -3.631382e+00 4.848241e-02 -6.830249e-01 8.033554e+00 6.483015e+00 4.623491e+00 4.673248e+00 4.598167e+00 4.053731e+00 3.592277e+00 4.456098e+00 2.324954e+00 -2.192469e-03 2.660140e-02 3.386490e-02 4.742855e-02 5.110741e-02 4.740700e-02 3.911009e-02 2.918606e-02 3.152782e-02 2.537226e-02 1.440746e-02 1.557859e-03 -1.270552e-05
<VARIANCE> 25
 9.159573e+00 1.036102e+01 9.294916e+00 1.819292e+01 1.331905e+01 1.353587e+01 1.198036e+01 1.129406e+01 1.133917e+01 1.354865e+01 1.779831e+01 1.253243e+01 4.088226e-02 8.758111e-02 1.542591e-01 2.264995e-01 3.080024e-01 3.970831e-01 4.610142e-01 5.217797e-01 5.436314e-01 5.211979e-01 5.142259e-01 5.162871e-01 1.000858e-06
<GCONST> 4.725990e+01
<MIXTURE> 55 7.368620e-03
<MEAN> 25
 -3.631382e+00 4.848241e-02 -6.830249e-01 8.033554e+00 6.483015e+00 4.623491e+00 4.673248e+00 4.598167e+00 4.053731e+00 3.592277e+00 4.456098e+00 2.324954e+00 -2.192469e-03 2.660140e-02 3.386490e-02 4.742855e-02 5.110741e-02 4.740700e-02 3.911009e-02 2.918606e-02 3.152782e-02 2.537226e-02 1.440746e-02 1.557859e-03 -1.270552e-05
<VARIANCE> 25
 9.159573e+00 1.036102e+01 9.294916e+00 1.819292e+01 1.331905e+01 1.353587e+01 1.198036e+01 1.129406e+01 1.133917e+01 1.354865e+01 1.779831e+01 1.253243e+01 4.088226e-02 8.758111e-02 1.542591e-01 2.264995e-01 3.080024e-01 3.970831e-01 4.610142e-01 5.217797e-01 5.436314e-01 5.211979e-01 5.142259e-01 5.162871e-01 1.000858e-06
<GCONST> 4.725990e+01
<MIXTURE> 56 6.132464e-03
<MEAN> 25
 7.628088e+00 -6.544317e+00 -8.936397e+00 -8.254854e+00 3.030130e+00 3.394300e+00 -2.195015e+00 -1.243648e+00 1.346573e+00 1.258666e+00 -2.187241e+00 -6.755316e+00 6.761782e-03 -3.011857e-02 -6.371760e-02 3.498711e-02 2.361909e-01 1.698810e-01 2.483885e-01 -1.413965e-01 -5.567357e-02 -1.201219e-01 -6.075625e-02 7.275617e-02 -7.163295e-03
<VARIANCE> 25
 8.705765e+00 2.189257e+01 1.889204e+01 3.958897e+01 3.705104e+01 4.844413e+01 5.595804e+01 3.392528e+01 4.149092e+01 3.943996e+01 3.713901e+01 2.994097e+01 2.044536e-01 4.316590e-01 4.510400e-01 7.089785e-01 7.932625e-01 1.127283e+00 1.062309e+00 8.611091e-01 8.961681e-01 9.711420e-01 9.777110e-01 7.531154e-01 2.336651e-04
<GCONST> 7.469482e+01
<MIXTURE> 57 6.132464e-03
<MEAN> 25
 7.628088e+00 -6.544317e+00 -8.936397e+00 -8.254854e+00 3.030130e+00 3.394300e+00 -2.195015e+00 -1.243648e+00 1.346573e+00 1.258666e+00 -2.187241e+00 -6.755316e+00 6.761782e-03 -3.011857e-02 -6.371760e-02 3.498711e-02 2.361909e-01 1.698810e-01 2.483885e-01 -1.413965e-01 -5.567357e-02 -1.201219e-01 -6.075625e-02 7.275617e-02 -7.163295e-03
<VARIANCE> 25
 8.705765e+00 2.189257e+01 1.889204e+01 3.958897e+01 3.705104e+01 4.844413e+01 5.595804e+01 3.392528e+01 4.149092e+01 3.943996e+01 3.713901e+01 2.994097e+01 2.044536e-01 4.316590e-01 4.510400e-01 7.089785e-01 7.932625e-01 1.127283e+00 1.062309e+00 8.611091e-01 8.961681e-01 9.711420e-01 9.777110e-01 7.531154e-01 2.336651e-04
<GCONST> 7.469482e+01
<MIXTURE> 58 6.172147e-03
<MEAN> 25
 2.564701e+00 -3.020602e+00 7.334252e+00 -4.935357e+00 -1.308729e+01 -5.532776e+00 1.406060e+00 6.887906e-01 -2.318753e+00 1.615558e+00 4.663607e-01 -7.645094e-01 -3.881986e-02 -1.285695e-01 -8.226041e-02 -1.530644e-01 -3.954472e-02 2.580784e-01 3.417496e-01 2.328782e-01 -1.682925e-02 1.820271e-02 -7.436978e-02 -1.241366e-01 -3.264737e-03
<VARIANCE> 25
 7.288108e+00 1.467204e+01 2.050272e+01 2.864964e+01 2.552822e+01 4.480662e+01 3.333668e+01 3.475672e+01 3.188642e+01 3.139915e+01 2.224253e+01 1.951217e+01 2.987318e-01 7.817417e-01 7.530414e-01 9.904925e-01 8.994803e-01 1.192742e+00 1.165555e+00 1.277909e+00 1.110442e+00 1.074227e+00 9.109392e-01 8.509595e-01 7.170825e-04
<GCONST> 7.547646e+01
<MIXTURE> 59 6.172147e-03
<MEAN> 25
 2.564701e+00 -3.020602e+00 7.334252e+00 -4.935357e+00 -1.308729e+01 -5.532776e+00 1.406060e+00 6.887906e-01 -2.318753e+00 1.615558e+00 4.663607e-01 -7.645094e-01 -3.881986e-02 -1.285695e-01 -8.226041e-02 -1.530644e-01 -3.954472e-02 2.580784e-01 3.417496e-01 2.328782e-01 -1.682925e-02 1.820271e-02 -7.436978e-02 -1.241366e-01 -3.264737e-03
<VARIANCE> 25
 7.288108e+00 1.467204e+01 2.050272e+01 2.864964e+01 2.552822e+01 4.480662e+01 3.333668e+01 3.475672e+01 3.188642e+01 3.139915e+01 2.224253e+01 1.951217e+01 2.987318e-01 7.817417e-01 7.530414e-01 9.904925e-01 8.994803e-01 1.192742e+00 1.165555e+00 1.277909e+00 1.110442e+00 1.074227e+00 9.109392e-01 8.509595e-01 7.170825e-04
<GCONST> 7.547646e+01
<MIXTURE> 60 4.479129e-03
<MEAN> 25
 -3.800633e+00 -7.083683e-01 -1.116864e+00 3.214139e+00 1.910000e+00 1.914602e+00 1.575642e+00 1.188911e+00 2.472397e+00 1.113180e+00 2.332690e+00 1.793867e+00 -4.124733e-02 6.626203e-02 7.311765e-02 1.272822e-01 1.125783e-01 1.720390e-01 1.828342e-01 3.085352e-01 6.363181e-01 6.480666e-01 4.985625e-01 2.783260e-01 -1.291823e-04
<VARIANCE> 25
 1.043902e+01 4.502288e+00 9.741551e+00 1.459392e+01 1.291340e+01 1.601361e+01 1.389578e+01 1.317578e+01 1.329055e+01 1.327601e+01 1.465483e+01 1.182804e+01 8.764988e-02 1.846171e-01 2.952959e-01 4.378979e-01 5.946845e-01 7.529307e-01 8.035474e-01 8.380680e-01 1.003993e+00 7.766063e-01 8.336588e-01 8.192679e-01 2.301655e-05
<GCONST> 5.694627e+01
<MIXTURE> 61 4.479129e-03
<MEAN> 25
 -3.800633e+00 -7.083683e-01 -1.116864e+00 3.214139e+00 1.910000e+00 1.914602e+00 1.575642e+00 1.188911e+00 2.472397e+00 1.113180e+00 2.332690e+00 1.793867e+00 -4.124733e-02 6.626203e-02 7.311765e-02 1.272822e-01 1.125783e-01 1.720390e-01 1.828342e-01 3.085352e-01 6.363181e-01 6.480666e-01 4.985625e-01 2.783260e-01 -1.291823e-04
<VARIANCE> 25
 1.043902e+01 4.502288e+00 9.741551e+00 1.459392e+01 1.291340e+01 1.601361e+01 1.389578e+01 1.317578e+01 1.329055e+01 1.327601e+01 1.465483e+01 1.182804e+01 8.764988e-02 1.846171e-01 2.952959e-01 4.378979e-01 5.946845e-01 7.529307e-01 8.035474e-01 8.380680e-01 1.003993e+00 7.766063e-01 8.336588e-01 8.192679e-01 2.301655e-05
<GCONST> 5.694627e+01
<MIXTURE> 62 3.278034e-03
<MEAN> 25
 -4.878036e+00 1.361574e+00 1.086481e+00 8.369052e+00 6.084349e+00 4.819873e+00 5.274057e+00 3.968653e+00 5.060712e+00 3.843676e+00 4.799012e+00 2.771007e+00 -9.754778e-01 -1.154725e+00 -9.905034e-01 -2.851223e-01 4.457512e-01 9.677043e-01 1.437802e+00 1.571684e+00 1.540204e+00 1.200811e+00 1.031333e+00 6.079011e-01 -1.635678e-03
<VARIANCE> 25
 1.027774e+01 9.747720e+00 1.255537e+01 1.950538e+01 1.668157e+01 1.768253e+01 1.980714e+01 1.829967e+01 1.806991e+01 1.803785e+01 2.100911e+01 1.464267e+01 3.957801e-01 4.130144e-01 5.615106e-01 7.429909e-01 9.915004e-01 1.165069e+00 1.243574e+00 1.244288e+00 1.342644e+00 1.339326e+00 1.355888e+00 1.557863e+00 1.854235e-05
<GCONST> 6.748476e+01
<MIXTURE> 63 4.351215e-03
<MEAN> 25
 -3.047573e+00 -1.588140e+00 -4.063143e+00 2.000531e+00 3.204681e+00 -5.278110e-01 2.730383e+00 9.236928e-01 2.741235e+00 -1.445496e+00 -9.910021e-01 1.061444e+00 -1.103962e-01 3.443964e-01 6.097180e-01 6.190931e-01 5.452621e-01 5.748351e-01 5.440487e-01 1.711966e-01 8.159586e-02 1.640408e-01 3.901989e-02 9.990393e-02 -1.623413e-03
<VARIANCE> 25
 1.244574e+01 1.136116e+01 1.605892e+01 1.553363e+01 1.328306e+01 1.934150e+01 1.829850e+01 1.938616e+01 2.608267e+01 2.088710e+01 1.705361e+01 1.967338e+01 2.558461e-01 3.891726e-01 5.996484e-01 6.688824e-01 9.439330e-01 1.118111e+00 1.154968e+00 1.087178e+00 1.278180e+00 1.436218e+00 1.664481e+00 1.504460e+00 1.739426e-04
<GCONST> 6.988367e+01
<MIXTURE> 64 4.351215e-03
<MEAN> 25
 -3.047573e+00 -1.588140e+00 -4.063143e+00 2.000531e+00 3.204681e+00 -5.278110e-01 2.730383e+00 9.236928e-01 2.741235e+00 -1.445496e+00 -9.910021e-01 1.061444e+00 -1.103962e-01 3.443964e-01 6.097180e-01 6.190931e-01 5.452621e-01 5.748351e-01 5.440487e-01 1.711966e-01 8.159586e-02 1.640408e-01 3.901989e-02 9.990393e-02 -1.623413e-03
<VARIANCE> 25
 1.244574e+01 1.136116e+01 1.605892e+01 1.553363e+01 1.328306e+01 1.934150e+01 1.829850e+01 1.938616e+01 2.608267e+01 2.088710e+01 1.705361e+01 1.967338e+01 2.558461e-01 3.891726e-01 5.996484e-01 6.688824e-01 9.439330e-01 1.118111e+00 1.154968e+00 1.087178e+00 1.278180e+00 1.436218e+00 1.664481e+00 1.504460e+00 1.739426e-04
<GCONST> 6.988367e+01
<MIXTURE> 65 1.721197e-02
<MEAN> 25
 7.413654e+00 1.527468e+00 1.687308e+00 1.027616e+00 -4.657355e+00 -4.144989e+00 -5.475722e+00 -5.657959e+00 -2.902222e+00 -2.480531e+00 -4.401722e+00 -1.365326e+00 1.534960e-01 1.148398e-01 7.580436e-02 1.164716e-01 -1.358064e-01 2.737007e-01 -9.704424e-02 -9.724553e-02 3.327963e-01 6.276217e-02 -7.554302e-02 -1.514242e-01 -5.194782e-03
<VARIANCE> 25
 1.117706e+01 1.799924e+01 2.409382e+01 3.182864e+01 3.598029e+01 5.023656e+01 5.181355e+01 5.670211e+01 5.864288e+01 5.367722e+01 5.827545e+01 4.472599e+01 4.908098e-01 8.817223e-01 1.526349e+00 1.750902e+00 1.887892e+00 2.084683e+00 2.225727e+00 2.762396e+00 3.010603e+00 2.815507e+00 2.171127e+00 1.968044e+00 4.487868e-04
<GCONST> 8.851111e+01
<MIXTURE> 66 1.191532e-02
<MEAN> 25
 6.962763e+00 -4.348218e+00 -5.290447e+00 -3.898210e+00 7.983290e-01 -5.052651e+00 -6.156189e+00 1.072963e+00 4.849823e-01 -1.540275e+00 -5.565149e+00 -3.122857e+00 -2.350145e-01 1.614897e+00 2.190585e+00 2.303303e+00 -9.714658e-01 -1.237088e+00 3.256287e-02 -5.841885e-01 1.459707e-01 -5.099189e-01 -4.069676e-01 1.044249e+00 -6.143286e-02
<VARIANCE> 25
 8.789857e+00 2.043380e+01 2.451866e+01 3.818607e+01 3.556170e+01 5.031808e+01 5.373444e+01 3.998770e+01 5.447342e+01 6.167918e+01 3.815517e+01 3.358296e+01 1.469735e+00 2.379559e+00 2.151337e+00 2.452144e+00 4.238466e+00 3.861770e+00 4.089022e+00 4.346241e+00 4.797602e+00 5.352657e+00 4.131591e+00 2.985685e+00 1.348736e-03
<GCONST> 9.615481e+01
<MIXTURE> 67 1.559142e-02
<MEAN> 25
 9.070791e+00 1.577518e+00 -5.883560e+00 -7.916770e+00 6.242115e-01 2.236232e+00 -1.855108e+00 -2.164070e+00 -5.193415e+00 5.223567e-01 5.722021e-01 -1.127779e+00 -1.078830e+00 1.653591e+00 9.908607e-01 2.939537e+00 1.412840e+00 -5.736054e-01 8.751964e-01 2.845197e-01 3.723185e-01 -1.560164e-01 -7.845672e-02 6.063790e-01 -1.236730e-01
<VARIANCE> 25
 1.031209e+01 3.456830e+01 2.620968e+01 4.903951e+01 4.242506e+01 4.930237e+01 6.417797e+01 4.505488e+01 6.632298e+01 5.026347e+01 4.942805e+01 4.304860e+01 1.878604e+00 3.181106e+00 2.874061e+00 3.937789e+00 3.863215e+00 3.902068e+00 5.040868e+00 4.619693e+00 5.122678e+00 4.937826e+00 4.688896e+00 3.221768e+00 2.808818e-03
<GCONST> 1.005176e+02
<MIXTURE> 68 1.485092e-02
<MEAN> 25
 -1.840753e+00 -2.142499e+00 -4.317365e+00 1.230867e+00 5.497166e+00 -5.448684e-01 1.983177e+00 1.699970e+00 1.851202e+00 1.998733e+00 6.118996e-01 1.602440e+00 2.741818e+00 4.510548e-01 1.508009e-01 -2.518047e+00 -2.419368e+00 -1.540441e+00 -2.269591e+00 -1.643818e+00 -1.632580e+00 -1.366302e+00 -1.879835e+00 -1.106975e+00 9.935746e-02
<VARIANCE> 25
 2.553674e+01 3.067863e+01 5.695163e+01 5.018157e+01 4.741506e+01 5.260723e+01 4.384699e+01 4.106512e+01 4.042002e+01 4.330971e+01 3.583760e+01 2.574729e+01 1.803894e+00 3.737136e+00 5.992735e+00 5.673222e+00 4.617513e+00 5.343980e+00 5.577545e+00 5.222243e+00 4.779814e+00 5.289632e+00 4.924260e+00 3.471140e+00 6.090987e-03
<GCONST> 1.031611e+02
<MIXTURE> 69 1.204884e-02
<MEAN> 25
 4.706025e+00 -3.985991e+00 -3.830391e+00 -3.389345e+00 -3.090603e+00 -7.147159e+00 -1.050383e+00 1.984416e+00 -4.293234e-01 -4.182242e+00 -5.011823e+00 9.785982e-01 1.461200e+00 -2.042495e+00 -1.364354e+00 -2.255471e+00 -4.924980e-01 -3.048365e-01 -3.130545e-01 4.885795e-01 -9.799600e-01 -1.214911e+00 -2.001052e+00 -8.266743e-02 6.374294e-02
<VARIANCE> 25
 8.270113e+00 2.023349e+01 2.488885e+01 2.525995e+01 3.981750e+01 3.595267e+01 4.427495e+01 2.898735e+01 3.863720e+01 3.977804e+01 3.199960e+01 2.266343e+01 3.997743e+00 3.074078e+00 3.397753e+00 3.389443e+00 5.400212e+00 4.512848e+00 6.711548e+00 5.628733e+00 6.702822e+00 6.014913e+00 4.193028e+00 3.408891e+00 2.421293e-03
<GCONST> 9.796907e+01
<MIXTURE> 70 1.329190e-02
<MEAN> 25
 7.259709e+00 -2.412507e+00 -4.272990e+00 -4.547457e+00 3.974184e-01 -1.269010e+00 -6.220348e+00 -2.803044e+00 -1.799345e+00 4.135857e+00 3.178942e-01 -4.768495e+00 2.092783e+00 -1.331546e+00 -3.125407e-01 -2.177116e+00 -1.901028e+00 5.543448e-01 -1.207924e+00 1.250456e-02 -1.761385e-01 2.579132e-01 2.838290e-01 -1.277271e+00 5.745098e-02
<VARIANCE> 25
 8.687506e+00 1.972365e+01 2.281711e+01 4.138428e+01 2.966957e+01 3.272081e+01 4.226499e+01 3.514157e+01 5.364633e+01 2.878457e+01 3.406790e+01 2.416312e+01 2.766154e+00 2.467874e+00 4.307549e+00 4.004315e+00 5.602307e+00 5.361562e+00 5.092500e+00 5.980395e+00 6.002353e+00 4.371157e+00 4.439680e+00 3.376886e+00 1.957806e-03
<GCONST> 9.750400e+01
<MIXTURE> 71 1.406903e-02
<MEAN> 25
 6.048600e+00 4.989307e+00 4.375371e+00 2.976210e+00 -3.161924e+00 -3.115796e+00 -3.580690e+00 -6.259594e+00 -4.391093e+00 -2.580967e+00 -5.271553e+00 -2.829700e+00 -1.551203e+00 -5.792311e-01 -1.109123e-01 -1.739572e+00 1.049670e+00 -1.459597e-01 2.411102e-02 1.453491e+00 2.320700e-01 -8.194120e-02 6.492150e-01 2.239735e-01 4.035213e-02
<VARIANCE> 25
 1.938461e+01 2.510646e+01 2.413434e+01 4.262999e+01 3.956749e+01 4.060377e+01 4.087527e+01 4.131977e+01 3.861641e+01 4.168159e+01 3.532655e+01 3.474136e+01 1.689718e+00 3.027250e+00 5.430965e+00 4.604669e+00 4.594783e+00 4.461586e+00 4.629167e+00 5.190856e+00 4.298286e+00 4.379570e+00 3.482512e+00 3.111374e+00 1.407625e-03
<GCONST> 9.818401e+01
<MIXTURE> 72 8.134747e-03
<MEAN> 25
 3.810383e+00 -3.591057e+00 5.587975e+00 -1.533114e+00 -1.081001e+01 -9.737552e+00 -2.627952e+00 2.185556e+00 -5.565771e+00 -2.397810e+00 -1.458247e+00 9.882094e-01 9.266453e-01 -7.373551e-01 -2.558918e+00 5.464150e-01 1.955756e+00 -6.656961e-01 -1.372609e+00 1.552433e+00 1.790378e+00 -6.146007e-01 -1.190124e+00 3.947424e-01 -6.377564e-03
<VARIANCE> 25
 1.010739e+01 1.817953e+01 3.086914e+01 4.622435e+01 3.355688e+01 3.189349e+01 3.856836e+01 3.466053e+01 4.580732e+01 3.890111e+01 3.837132e+01 2.812752e+01 4.073032e-01 9.835121e-01 1.894359e+00 1.523229e+00 2.516282e+00 2.243485e+00 2.943423e+00 2.610615e+00 2.433589e+00 2.843282e+00 2.040149e+00 2.032274e+00 5.132883e-04
<GCONST> 8.676364e+01
<MIXTURE> 73 1.213625e-02
<MEAN> 25
 -5.125707e+00 -7.520722e-01 -1.515400e+00 4.826015e+00 4.219238e+00 2.236698e+00 5.253396e+00 3.237626e+00 4.142653e+00 3.372031e+00 4.049859e+00 2.899311e+00 7.850022e-01 -1.035261e+00 -9.713433e-01 -2.638613e+00 -1.171563e+00 -1.629782e+00 -8.546657e-01 -5.738752e-01 -1.050350e+00 -4.965740e-01 -1.072970e+00 -2.514575e-01 1.522191e-01
<VARIANCE> 25
 1.635897e+01 1.267694e+01 1.520014e+01 2.170927e+01 2.214353e+01 2.358920e+01 2.043931e+01 2.007352e+01 1.835585e+01 1.938527e+01 2.244919e+01 1.503228e+01 3.945003e+00 2.987290e+00 5.845250e+00 4.427016e+00 6.095846e+00 4.551670e+00 4.123560e+00 4.103165e+00 4.007604e+00 4.701894e+00 3.378339e+00 2.558819e+00 4.212112e-03
<GCONST> 9.254671e+01
<MIXTURE> 74 1.756491e-02
<MEAN> 25
 4.696112e+00 -1.595297e+00 4.571586e+00 -6.848776e-01 -8.194551e+00 -8.054027e+00 -2.694239e+00 8.068455e-01 -4.353859e+00 -2.618681e+00 -1.510509e+00 3.898609e-01 2.064454e-01 1.876844e+00 3.680465e-02 1.605671e+00 1.417553e+00 3.583640e-01 -1.053167e-01 -1.307283e+00 3.955346e-01 2.215409e-01 -2.766564e-01 -2.223618e-01 -7.674756e-02
<VARIANCE> 25
 1.125489e+01 2.034691e+01 3.905608e+01 4.033710e+01 3.961430e+01 3.728460e+01 4.992637e+01 4.311788e+01 4.871125e+01 4.222593e+01 3.897956e+01 3.251052e+01 2.053584e+00 2.141945e+00 3.931182e+00 2.787011e+00 4.309022e+00 3.687672e+00 4.809802e+00 4.163395e+00 4.453704e+00 4.568123e+00 3.506380e+00 3.437118e+00 1.667928e-03
<GCONST> 9.723254e+01
<MIXTURE> 75 9.711651e-03
<MEAN> 25
 2.594065e+00 -1.327991e+00 1.114467e+01 2.720854e+00 -1.272565e+01 -7.563649e+00 -4.117807e+00 -3.199911e-01 -6.249908e+00 -4.559083e+00 3.371122e+00 9.798285e-01 2.043650e+00 -1.628407e+00 -5.438883e-02 5.177176e-02 -2.335245e+00 -1.235763e+00 -1.850605e+00 1.253190e+00 -7.221902e-01 -4.938416e-01 1.347407e+00 -1.992572e-01 3.127987e-02
<VARIANCE> 25
 9.396374e+00 1.478632e+01 2.554774e+01 2.736189e+01 2.757941e+01 2.763598e+01 2.702420e+01 2.609689e+01 4.155348e+01 2.616344e+01 1.875405e+01 2.097104e+01 2.609097e+00 1.654316e+00 3.920208e+00 2.500076e+00 3.270568e+00 6.000165e+00 4.070983e+00 3.424004e+00 5.002343e+00 2.926702e+00 2.878414e+00 2.839277e+00 1.497162e-03
<GCONST> 9.122798e+01
<MIXTURE> 76 1.052359e-02
<MEAN> 25
 -3.177979e+00 -7.124928e-01 -3.043530e+00 2.293900e+00 2.852616e+00 7.704057e-01 3.104570e+00 2.044732e+00 3.357880e+00 -1.458959e-01 2.120606e+00 1.805484e+00 -2.992094e-01 -4.801262e-01 -5.736935e-01 -8.981883e-01 -6.833631e-01 -7.230196e-01 -5.671489e-01 -6.772879e-01 -4.480865e-01 -1.298498e-01 -4.136208e-01 -2.553434e-01 2.542273e-02
<VARIANCE> 25
 3.586850e+01 1.695488e+01 2.233971e+01 2.089918e+01 2.226016e+01 2.031937e+01 2.007868e+01 1.919517e+01 2.362240e+01 1.926257e+01 1.971824e+01 1.323226e+01 1.022951e+00 8.174692e-01 1.233200e+00 9.141531e-01 1.085483e+00 1.381355e+00 1.382702e+00 1.369231e+00 1.602074e+00 1.418781e+00 1.418795e+00 1.660742e+00 1.152258e-03
<GCONST> 7.815317e+01
<MIXTURE> 77 1.244626e-02
<MEAN> 25
 -6.513850e-01 7.900492e+00 1.245741e+01 -1.014680e+01 -5.987381e+00 5.614220e-01 -8.883237e+00 -6.178725e+00 -3.247035e+00 2.096107e-01 -4.879241e+00 -8.433680e-01 9.931454e-02 2.499664e-01 -2.141675e-02 2.391726e-01 1.058721e-01 2.827976e-02 4.588408e-02 -2.002207e-01 2.836777e-01 -3.897548e-02 5.429978e-02 7.617583e-02 -1.084565e-02
<VARIANCE> 25
 9.500923e+00 2.059446e+01 2.432141e+01 4.951429e+01 3.557590e+01 3.057724e+01 3.321624e+01 3.494946e+01 3.204131e+01 3.032719e+01 3.331084e+01 3.311312e+01 3.204915e-01 7.588896e-01 7.842889e-01 9.569167e-01 1.220956e+00 9.776758e-01 1.159075e+00 1.117611e+00 1.259699e+00 1.140897e+00 8.825328e-01 8.300597e-01 5.296963e-04
<GCONST> 7.749401e+01
<MIXTURE> 78 9.702551e-03
<MEAN> 25
 -1.158220e+01 1.095970e+00 -1.471420e+00 2.255916e+00 4.214866e+00 -1.977836e+00 3.830846e+00 2.663356e+00 2.552064e+00 7.036311e-01 -4.880151e-01 2.945544e+00 2.381138e+00 -2.830572e-01 2.081575e-01 6.022758e-01 -5.065822e-02 5.560410e-03 -2.668847e-01 -1.218796e-01 1.776463e-01 1.321807e-01 -3.690988e-01 -4.696424e-01 -6.099749e-02
<VARIANCE> 25
 4.208130e+01 3.188943e+01 3.460680e+01 3.184351e+01 4.159198e+01 3.940103e+01 3.558758e+01 3.216453e+01 2.842369e+01 2.756508e+01 2.685666e+01 2.017694e+01 4.861151e+00 2.528083e+00 2.872583e+00 3.073862e+00 2.812487e+00 3.433006e+00 3.309293e+00 2.856233e+00 2.459635e+00 2.341166e+00 2.201286e+00 2.101862e+00 4.628217e-03
<GCONST> 9.466464e+01
<MIXTURE> 79 1.156824e-02
<MEAN> 25
 2.417295e+00 1.580953e+00 9.188393e+00 -6.573251e+00 -1.203094e+01 -1.825174e+00 -1.925358e+00 -6.447363e+00 -6.562441e+00 3.228083e-01 -3.518665e+00 -3.264419e+00 1.219716e+00 -5.220730e-01 -1.434374e+00 2.345331e+00 3.809222e-01 -1.467290e+00 5.360171e-01 8.823824e-01 -4.300527e-01 -5.494974e-01 3.620228e-01 2.818852e-01 -3.633130e-02
<VARIANCE> 25
 1.423598e+01 2.410654e+01 3.791945e+01 4.992827e+01 3.398669e+01 4.337953e+01 4.274851e+01 3.683259e+01 3.902610e+01 3.969495e+01 4.388062e+01 3.079313e+01 9.430219e-01 2.260634e+00 1.889831e+00 2.099677e+00 2.468939e+00 2.824181e+00 3.200226e+00 3.540481e+00 2.522080e+00 2.739991e+00 2.315931e+00 2.024567e+00 1.228037e-03
<GCONST> 9.182373e+01
<MIXTURE> 80 7.550998e-03
<MEAN> 25
 -1.454378e+01 3.614984e+00 1.618265e+00 3.194365e+00 1.554699e+00 2.278318e+00 6.691782e+00 2.278468e+00 2.758389e+00 1.947684e+00 4.002886e+00 1.164068e+00 4.316400e+00 -8.012827e-02 1.572031e+00 -9.362802e-01 -2.857630e+00 -2.855767e+00 -2.195508e+00 -1.949850e+00 -2.199576e+00 -1.553996e+00 -1.476459e+00 -5.518383e-01 -4.312408e-02
<VARIANCE> 25
 1.943081e+01 1.912787e+01 3.956710e+01 3.251933e+01 3.470475e+01 3.306017e+01 2.637662e+01 2.648153e+01 2.463751e+01 2.781197e+01 3.085051e+01 1.643794e+01 2.167624e+00 2.454393e+00 2.483268e+00 4.088134e+00 3.099138e+00 2.552008e+00 2.933305e+00 2.952491e+00 2.977902e+00 2.594719e+00 2.784299e+00 1.969741e+00 1.384640e-03
<GCONST> 9.075761e+01
<MIXTURE> 81 8.025434e-03
<MEAN> 25
 -1.121673e+00 4.096922e+00 1.018295e+01 -1.465294e+01 -9.017399e+00 -1.374353e+00 -6.794990e+00 -8.363416e+00 -4.108750e+00 -4.022003e-01 -7.582742e+00 -2.167682e+00 1.091975e-01 -5.673218e-01 1.292062e-02 -5.623971e-01 -4.631507e-01 3.161170e-01 3.185142e-01 1.320589e-01 -1.246616e-01 1.162521e-01 -4.599746e-01 -1.224038e-01 1.183481e-02
<VARIANCE> 25
 1.003364e+01 3.252968e+01 2.613519e+01 3.070517e+01 3.370057e+01 3.035519e+01 4.496056e+01 2.829520e+01 3.779815e+01 3.156287e+01 2.503943e+01 3.116566e+01 8.212211e-01 2.279480e+00 1.557310e+00 2.841774e+00 2.635214e+00 2.132785e+00 3.244305e+00 2.265811e+00 2.353270e+00 2.526920e+00 2.280003e+00 2.054044e+00 1.182549e-03
<GCONST> 8.866801e+01
<MIXTURE> 82 8.213053e-03
<MEAN> 25
 -9.947626e+00 -3.893528e+00 1.623902e+00 -2.967571e+00 3.108987e+00 6.693253e-01 1.986323e+00 9.323119e-01 2.975328e+00 1.727656e+00 1.744355e+00 3.079719e+00 -1.313556e+00 -1.256626e-01 2.874465e-01 -2.601489e+00 -1.103448e+00 -1.263499e+00 -1.011341e+00 -8.716239e-01 -3.187554e-01 -4.752672e-01 -3.185963e-01 -9.815519e-02 1.782100e-01
<VARIANCE> 25
 1.815355e+01 2.494345e+01 3.248341e+01 3.084376e+01 3.296969e+01 3.223696e+01 3.176099e+01 3.294225e+01 3.081610e+01 2.509725e+01 3.075125e+01 1.748437e+01 3.750734e+00 3.043951e+00 3.318055e+00 3.266150e+00 3.559097e+00 3.283036e+00 2.942219e+00 3.012377e+00 2.795443e+00 2.493285e+00 2.447079e+00 1.873763e+00 3.448944e-03
<GCONST> 9.308482e+01
<MIXTURE> 83 1.167529e-02
<MEAN> 25
 -2.007294e+01 5.481517e+00 -8.125579e-01 -8.947636e-01 6.892962e+00 7.467907e-02 5.189949e+00 2.801799e+00 1.636881e+00 1.663709e+00 4.192648e-01 2.452924e+00 -6.111538e-02 -4.384964e-01 -1.608485e-02 -2.705327e-01 -4.771320e-01 -5.957542e-02 -1.518656e-01 -9.310077e-02 -8.824424e-02 -2.983626e-02 -3.764189e-02 -3.082176e-02 4.340878e-03
<VARIANCE> 25
 7.914133e+00 1.487969e+01 3.203130e+01 2.188415e+01 2.582903e+01 3.371190e+01 2.051075e+01 2.156513e+01 2.099617e+01 2.255165e+01 2.172351e+01 1.455363e+01 9.753217e-01 8.459391e-01 1.137633e+00 1.032804e+00 1.305794e+00 1.217331e+00 1.192096e+00 1.266816e+00 1.322829e+00 1.218747e+00 1.154292e+00 9.859890e-01 8.046968e-04
<GCONST> 7.637237e+01
<MIXTURE> 84 1.066614e-02
<MEAN> 25
 1.206935e+00 8.501086e+00 7.075631e+00 7.321030e+00 2.951151e+00 -1.003147e+00 -1.756058e+00 -4.282117e+00 -3.793037e+00 -2.443059e+00 -2.490880e+00 -1.139500e+00 -1.575044e+00 -1.021251e+00 -1.300048e+00 1.082292e+00 2.080799e+00 1.442317e+00 1.430039e+00 1.222333e+00 1.271428e+00 3.226180e-01 5.227047e-01 3.648631e-01 -6.835632e-02
<VARIANCE> 25
 2.189338e+01 1.805169e+01 2.189590e+01 2.518018e+01 2.598324e+01 2.592783e+01 2.880116e+01 2.413915e+01 2.406116e+01 2.483117e+01 2.271858e+01 2.540666e+01 2.206628e+00 2.411571e+00 3.497693e+00 3.237525e+00 3.184107e+00 3.049295e+00 2.954808e+00 3.388834e+00 3.190630e+00 2.940488e+00 3.495388e+00 2.557518e+00 3.253856e-03
<GCONST> 9.142364e+01
<MIXTURE> 85 7.591393e-03
<MEAN> 25
 -3.094470e+00 7.736620e+00 5.719558e+00 1.394250e+00 -3.547254e+00 -4.981592e+00 -2.791418e+00 -6.173114e+00 -3.513926e+00 -3.076990e+00 -4.660360e-01 -1.860433e+00 3.901119e+00 3.136915e-01 1.779357e+00 -2.042434e+00 -3.391002e+00 -2.577715e+00 -2.890411e+00 -2.270049e+00 -2.280035e+00 -1.259557e+00 -2.169874e+00 -5.501390e-01 9.678933e-03
<VARIANCE> 25
 4.146306e+01 2.335003e+01 3.653286e+01 3.741483e+01 4.029796e+01 4.298669e+01 3.253188e+01 2.722052e+01 2.599821e+01 2.547385e+01 2.570193e+01 1.991917e+01 2.860459e+00 4.229923e+00 3.996502e+00 5.116924e+00 4.288722e+00 3.988714e+00 3.720253e+00 3.975210e+00 3.829369e+00 3.973270e+00 4.298577e+00 3.490333e+00 5.293022e-03
<GCONST> 9.825359e+01
<MIXTURE> 86 1.273941e-02
<MEAN> 25
 -4.958223e+00 -1.179190e+00 -7.954100e-01 5.734300e+00 4.985530e+00 4.513628e+00 5.422315e+00 4.416543e+00 4.927540e+00 3.742278e+00 5.057023e+00 2.493789e+00 1.834091e-03 -1.744637e-02 -6.253277e-02 -1.439619e-01 -1.909795e-01 -2.104256e-01 -2.831434e-01 -3.157755e-01 -3.098892e-01 -2.952797e-01 -1.949659e-01 -8.048650e-02 -1.496582e-04
<VARIANCE> 25
 8.119140e+00 5.362222e+00 9.748339e+00 1.673487e+01 1.513821e+01 1.394817e+01 1.318034e+01 1.273746e+01 1.432241e+01 1.437329e+01 1.467849e+01 1.279547e+01 1.003154e-01 1.857373e-01 3.258216e-01 5.663769e-01 7.290953e-01 7.003090e-01 7.280268e-01 7.727309e-01 8.486717e-01 8.552061e-01 9.045638e-01 8.691475e-01 5.312656e-05
<GCONST> 5.852957e+01
<MIXTURE> 87 1.100681e-02
<MEAN> 25
 -3.187921e+00 4.485445e+00 3.378785e+00 6.900155e+00 5.489943e+00 8.858249e-01 1.602666e+00 -9.086439e-01 -5.229641e-01 -9.145663e-01 -7.827860e-01 6.716289e-02 -2.128187e+00 -2.717776e+00 -2.110087e+00 -2.213766e+00 -6.838266e-03 -1.553027e-01 6.069443e-01 1.252167e+00 1.335760e+00 1.041163e+00 9.176765e-01 9.853782e-01 1.038276e-01
<VARIANCE> 25
 3.836453e+01 2.919549e+01 2.903413e+01 3.367293e+01 2.842537e+01 3.133508e+01 2.777498e+01 2.686791e+01 2.589061e+01 2.470235e+01 2.443646e+01 2.274285e+01 3.834084e+00 2.843001e+00 3.902546e+00 3.583719e+00 4.812068e+00 4.247906e+00 4.110736e+00 3.998998e+00 3.787826e+00 3.406207e+00 3.362055e+00 2.688450e+00 4.984326e-03
<GCONST> 9.634293e+01
<MIXTURE> 88 1.256585e-02
<MEAN> 25
 -3.583841e+00 -4.722984e-01 -1.942791e+00 4.974149e+00 4.681576e+00 3.212327e+00 4.417531e+00 2.752420e+00 3.770040e+00 2.469654e+00 2.048313e+00 1.668214e+00 5.674251e-02 2.426033e-01 3.320478e-01 3.561065e-01 1.533737e-01 2.784647e-01 -3.078765e-01 -3.297738e-01 -2.810079e-01 -1.442972e-01 1.565444e-02 2.233805e-01 -2.390617e-03
<VARIANCE> 25
 1.027683e+01 8.994860e+00 1.401809e+01 1.469296e+01 1.782987e+01 1.810997e+01 1.699994e+01 1.797566e+01 1.675192e+01 1.757262e+01 2.150715e+01 1.597825e+01 1.295288e+00 1.568457e+00 2.257735e+00 2.115463e+00 2.259521e+00 2.474796e+00 2.704722e+00 2.365698e+00 2.331194e+00 2.509080e+00 2.258682e+00 2.119672e+00 1.355056e-03
<GCONST> 8.140350e+01
<MIXTURE> 89 9.333527e-03
<MEAN> 25
 6.061211e+00 -6.772290e+00 -3.535082e+00 -3.118762e+00 -1.618089e+00 -5.552779e+00 -6.072432e+00 4.063221e+00 3.421767e+00 -2.797229e+00 -5.934983e+00 -3.244246e+00 -5.636202e-01 1.467556e-01 1.969962e+00 8.910792e-01 -1.852528e+00 -1.627216e+00 8.953591e-01 1.238419e+00 -7.814233e-01 -1.329985e+00 4.043705e-01 1.519306e+00 -5.223613e-03
<VARIANCE> 25
 8.967909e+00 2.664825e+01 3.088335e+01 3.011734e+01 3.566592e+01 4.131618e+01 5.919323e+01 4.168520e+01 3.922705e+01 4.199656e+01 3.604157e+01 3.210656e+01 3.559647e-01 8.475891e-01 1.506130e+00 1.321607e+00 1.923362e+00 2.133164e+00 2.577265e+00 2.068280e+00 2.245167e+00 2.179562e+00 2.303789e+00 1.472612e+00 3.802712e-04
<GCONST> 8.533582e+01
<MIXTURE> 90 7.114505e-03
<MEAN> 25
 2.431069e+00 -9.640774e+00 -4.682192e+00 -3.892311e+00 -3.351486e+00 -1.811542e+00 3.290924e+00 1.167577e+00 -7.478771e+00 -1.022409e+01 -3.461824e+00 -7.151551e-01 -1.603525e-01 9.052377e-01 1.165425e+00 -8.526142e-01 -1.588300e+00 -1.971655e-01 6.422945e-01 -1.970694e-01 -1.672075e-01 7.303174e-01 1.671416e-01 -5.367824e-01 -1.105725e-02
<VARIANCE> 25
 8.515516e+00 1.822003e+01 2.029937e+01 2.847206e+01 3.655746e+01 3.183684e+01 3.870810e+01 3.605487e+01 3.521857e+01 2.769698e+01 2.731284e+01 2.592679e+01 2.225894e-01 6.097645e-01 7.824626e-01 1.051789e+00 1.518746e+00 1.603061e+00 1.766957e+00 1.655281e+00 1.801934e+00 1.671401e+00 1.514860e+00 1.314406e+00 2.149635e-04
<GCONST> 7.821429e+01
<MIXTURE> 91 7.852945e-03
<MEAN> 25
 6.568579e+00 -7.519943e+00 -8.397637e+00 -5.149547e+00 3.530155e+00 -7.933311e-03 -1.840274e+00 7.908447e-01 1.590551e-01 -2.501137e+00 -4.530768e+00 -4.956921e+00 2.539448e-01 9.733207e-01 2.720686e-01 5.064721e-01 -2.251422e-02 -5.633052e-01 -2.338762e-01 -1.191754e-01 -1.724850e-01 3.244440e-01 -7.965116e-02 2.119326e-01 -3.533566e-02
<VARIANCE> 25
 1.000517e+01 2.158309e+01 1.917336e+01 3.837750e+01 3.571112e+01 5.246900e+01 5.295082e+01 3.751799e+01 5.511146e+01 6.328656e+01 3.806161e+01 4.001104e+01 4.195644e-01 8.652905e-01 1.203380e+00 1.386393e+00 2.120961e+00 2.265508e+00 2.629380e+00 2.279606e+00 2.315663e+00 2.404259e+00 1.932361e+00 1.728233e+00 5.659498e-04
<GCONST> 8.684300e+01
<MIXTURE> 92 7.852945e-03
<MEAN> 25
 6.568579e+00 -7.519943e+00 -8.397637e+00 -5.149547e+00 3.530155e+00 -7.933311e-03 -1.840274e+00 7.908447e-01 1.590551e-01 -2.501137e+00 -4.530768e+00 -4.956921e+00 2.539448e-01 9.733207e-01 2.720686e-01 5.064721e-01 -2.251422e-02 -5.633052e-01 -2.338762e-01 -1.191754e-01 -1.724850e-01 3.244440e-01 -7.965116e-02 2.119326e-01 -3.533566e-02
<VARIANCE> 25
 1.000517e+01 2.158309e+01 1.917336e+01 3.837750e+01 3.571112e+01 5.246900e+01 5.295082e+01 3.751799e+01 5.511146e+01 6.328656e+01 3.806161e+01 4.001104e+01 4.195644e-01 8.652905e-01 1.203380e+00 1.386393e+00 2.120961e+00 2.265508e+00 2.629380e+00 2.279606e+00 2.315663e+00 2.404259e+00 1.932361e+00 1.728233e+00 5.659498e-04
<GCONST> 8.684300e+01
<MIXTURE> 93 6.122769e-03
<MEAN> 25
 -6.817581e+00 -9.508753e-01 -2.376788e+00 5.770470e+00 5.916297e+00 3.921078e+00 6.118739e+00 3.573979e+00 4.123018e+00 2.497217e+00 1.808503e+00 3.690707e+00 -6.292378e-02 -1.574767e-01 -2.582867e-01 -3.316777e-01 -3.354706e-01 -2.799328e-01 -2.115068e-01 -1.664373e-01 -1.630375e-01 -1.447723e-01 -1.039989e-01 -3.883436e-02 -4.957083e-06
<VARIANCE> 25
 9.084637e+00 6.020657e+00 8.269327e+00 1.143974e+01 1.144233e+01 1.589674e+01 1.519792e+01 1.658730e+01 1.468896e+01 1.449142e+01 1.671613e+01 1.341526e+01 8.279540e-02 1.543039e-01 2.629204e-01 3.788190e-01 4.962045e-01 6.427915e-01 7.834471e-01 8.955753e-01 9.152808e-01 8.792356e-01 8.878566e-01 9.147881e-01 9.989178e-07
<GCONST> 5.359932e+01
<MIXTURE> 94 6.122769e-03
<MEAN> 25
 -6.817581e+00 -9.508753e-01 -2.376788e+00 5.770470e+00 5.916297e+00 3.921078e+00 6.118739e+00 3.573979e+00 4.123018e+00 2.497217e+00 1.808503e+00 3.690707e+00 -6.292378e-02 -1.574767e-01 -2.582867e-01 -3.316777e-01 -3.354706e-01 -2.799328e-01 -2.115068e-01 -1.664373e-01 -1.630375e-01 -1.447723e-01 -1.039989e-01 -3.883436e-02 -4.957083e-06
<VARIANCE> 25
 9.084637e+00 6.020657e+00 8.269327e+00 1.143974e+01 1.144233e+01 1.589674e+01 1.519792e+01 1.658730e+01 1.468896e+01 1.449142e+01 1.671613e+01 1.341526e+01 8.279540e-02 1.543039e-01 2.629204e-01 3.788190e-01 4.962045e-01 6.427915e-01 7.834471e-01 8.955753e-01 9.152808e-01 8.792356e-01 8.878566e-01 9.147881e-01 9.989178e-07
<GCONST> 5.359932e+01
<MIXTURE> 95 5.258835e-03
<MEAN> 25
 -4.941663e+00 -7.390901e-01 -2.214352e+00 3.275302e+00 4.036697e+00 2.153971e+00 3.972227e+00 1.504634e+00 3.044836e+00 3.597902e-01 1.104607e+00 1.974542e+00 1.303244e-01 5.357340e-02 4.037468e-02 -1.815916e-01 -3.718273e-01 -7.512507e-01 -1.062163e+00 -1.241079e+00 -1.275768e+00 -8.628364e-01 -6.331869e-01 -3.225789e-01 9.226681e-04
<VARIANCE> 25
 1.301412e+01 5.553357e+00 1.135863e+01 1.867844e+01 1.254715e+01 1.612770e+01 1.478417e+01 1.471828e+01 1.541614e+01 1.457720e+01 1.710201e+01 1.299097e+01 2.110741e-01 2.847415e-01 4.732649e-01 7.370144e-01 7.663337e-01 7.601498e-01 7.475773e-01 7.612694e-01 1.019121e+00 9.243000e-01 1.071932e+00 1.073114e+00 4.198667e-05
<GCONST> 6.212878e+01
<MIXTURE> 96 7.034694e-03
<MEAN> 25
 -4.934949e+00 -5.162938e-01 -2.174807e+00 4.748489e+00 3.777371e+00 1.639335e+00 3.611202e+00 1.818576e+00 2.853544e+00 6.372968e-01 1.001486e+00 2.622873e+00 -2.298979e-02 6.582808e-02 2.625455e-01 4.345872e-01 5.103681e-01 4.446967e-01 2.288923e-01 -1.019322e-01 -4.882229e-01 -6.652277e-01 -6.759481e-01 -3.995181e-01 1.292866e-05
<VARIANCE> 25
 1.184774e+01 9.144276e+00 1.376254e+01 1.556297e+01 1.423557e+01 1.855167e+01 1.713155e+01 1.809863e+01 1.894915e+01 1.721381e+01 2.059107e+01 1.432683e+01 1.192726e-01 2.118942e-01 3.339211e-01 4.349271e-01 5.068285e-01 6.640123e-01 8.567461e-01 9.706364e-01 9.448791e-01 8.264529e-01 9.085770e-01 8.973547e-01 1.310655e-06
<GCONST> 5.790918e+01
<MIXTURE> 97 7.034694e-03
<MEAN> 25
 -4.934949e+00 -5.162938e-01 -2.174807e+00 4.748489e+00 3.777371e+00 1.639335e+00 3.611202e+00 1.818576e+00 2.853544e+00 6.372968e-01 1.001486e+00 2.622873e+00 -2.298979e-02 6.582808e-02 2.625455e-01 4.345872e-01 5.103681e-01 4.446967e-01 2.288923e-01 -1.019322e-01 -4.882229e-01 -6.652277e-01 -6.759481e-01 -3.995181e-01 1.292866e-05
<VARIANCE> 25
 1.184774e+01 9.144276e+00 1.376254e+01 1.556297e+01 1.423557e+01 1.855167e+01 1.713155e+01 1.809863e+01 1.894915e+01 1.721381e+01 2.059107e+01 1.432683e+01 1.192726e-01 2.118942e-01 3.339211e-01 4.349271e-01 5.068285e-01 6.640123e-01 8.567461e-01 9.706364e-01 9.448791e-01 8.264529e-01 9.085770e-01 8.973547e-01 1.310655e-06
<GCONST> 5.790918e+01
<MIXTURE> 98 9.917808e-03
<MEAN> 25
 -1.351788e-01 1.320641e+00 -1.285585e-01 3.791714e+00 3.764821e+00 1.534583e+00 1.758677e+00 1.873296e+00 8.364631e-01 1.634894e+00 7.833328e-01 9.168509e-01 -1.439697e+00 -1.280974e+00 -1.065193e+00 -2.677604e-01 2.508742e-01 8.626224e-01 1.273502e+00 1.469654e+00 1.781015e+00 4.004371e-01 1.053533e+00 7.974036e-01 -4.171419e-02
<VARIANCE> 25
 1.419244e+01 1.690465e+01 2.710975e+01 2.501763e+01 3.103656e+01 2.986850e+01 3.387838e+01 2.324551e+01 2.523356e+01 2.417895e+01 2.089338e+01 2.181580e+01 1.208396e+00 1.283000e+00 2.101621e+00 2.375802e+00 2.619031e+00 2.109673e+00 2.741405e+00 2.554930e+00 2.207546e+00 3.821062e+00 2.748641e+00 2.193725e+00 2.043558e-03
<GCONST> 8.742169e+01
<MIXTURE> 99 6.696178e-03
<MEAN> 25
 -5.920659e+00 9.455541e+00 7.140998e+00 3.137481e+00 7.090247e-01 -4.619888e+00 -2.326091e+00 -3.926924e+00 -3.256509e+00 -3.404369e+00 -1.904186e+00 6.153165e-01 3.760168e-01 -5.706554e-01 4.065436e-01 -4.532419e-01 -1.072210e+00 -4.976255e-01 -2.995631e-01 -2.182014e-01 -6.286796e-02 -4.165913e-02 2.136370e-01 1.918581e-01 1.271350e-02
<VARIANCE> 25
 3.480539e+01 2.616119e+01 4.362376e+01 2.961437e+01 3.393101e+01 3.634770e+01 2.775401e+01 2.752655e+01 2.609874e+01 2.683004e+01 2.026986e+01 2.695894e+01 2.415153e+00 1.871431e+00 1.656288e+00 1.662241e+00 2.605107e+00 1.998538e+00 1.709845e+00 1.570580e+00 1.605489e+00 1.639771e+00 1.328362e+00 1.182491e+00 1.521839e-03
<GCONST> 8.662633e+01
<MIXTURE> 100 4.498084e-03
<MEAN> 25
 -1.600404e+00 6.343222e+00 1.027713e+01 -7.456415e+00 -1.078128e+01 -5.070292e+00 -4.937490e+00 -9.966628e+00 -4.717160e+00 -8.553023e-01 -2.733273e+00 -2.707544e+00 2.918288e+00 -1.259906e+00 1.299754e+00 -2.184870e+00 -3.419104e+00 -7.858914e-01 -1.219757e+00 -8.192920e-01 -1.476498e+00 3.464175e-01 -1.653943e+00 -2.853403e-01 2.015081e-03
<VARIANCE> 25
 1.363034e+01 2.105505e+01 2.245953e+01 2.649191e+01 2.302669e+01 2.375750e+01 2.914758e+01 2.170594e+01 2.747296e+01 2.264168e+01 2.240205e+01 2.133155e+01 1.802219e+00 3.952559e+00 2.919009e+00 4.287076e+00 4.182788e+00 4.542894e+00 4.015339e+00 4.338749e+00 4.170114e+00 3.894412e+00 3.915142e+00 3.225043e+00 1.674387e-03
<GCONST> 9.257521e+01
<MIXTURE> 101 6.007792e-03
<MEAN> 25
 8.095662e+00 -3.488324e+00 -6.311584e+00 -6.862201e+00 8.412145e-01 -1.260200e+00 -1.057874e+01 -2.056546e+00 1.620298e+00 2.718897e+00 -2.382296e+00 -5.139814e+00 6.728863e-01 6.495484e-01 -1.455488e+00 -1.608808e+00 1.030795e+00 2.316700e+00 1.984404e-01 -1.458930e+00 -1.063325e+00 1.034690e+00 1.371654e+00 -4.144039e-01 -4.809340e-03
<VARIANCE> 25
 9.262929e+00 1.670329e+01 2.981580e+01 4.278510e+01 3.622795e+01 3.577842e+01 3.706403e+01 3.618772e+01 3.792291e+01 4.397146e+01 5.174065e+01 2.421320e+01 2.938631e-01 6.705078e-01 1.174013e+00 1.552672e+00 1.688277e+00 2.097281e+00 2.086295e+00 1.992640e+00 2.348370e+00 2.218490e+00 1.786001e+00 1.934604e+00 3.448420e-04
<GCONST> 8.364383e+01
<MIXTURE> 102 6.007792e-03
<MEAN> 25
 8.095662e+00 -3.488324e+00 -6.311584e+00 -6.862201e+00 8.412145e-01 -1.260200e+00 -1.057874e+01 -2.056546e+00 1.620298e+00 2.718897e+00 -2.382296e+00 -5.139814e+00 6.728863e-01 6.495484e-01 -1.455488e+00 -1.608808e+00 1.030795e+00 2.316700e+00 1.984404e-01 -1.458930e+00 -1.063325e+00 1.034690e+00 1.371654e+00 -4.144039e-01 -4.809340e-03
<VARIANCE> 25
 9.262929e+00 1.670329e+01 2.981580e+01 4.278510e+01 3.622795e+01 3.577842e+01 3.706403e+01 3.618772e+01 3.792291e+01 4.397146e+01 5.174065e+01 2.421320e+01 2.938631e-01 6.705078e-01 1.174013e+00 1.552672e+00 1.688277e+00 2.097281e+00 2.086295e+00 1.992640e+00 2.348370e+00 2.218490e+00 1.786001e+00 1.934604e+00 3.448420e-04
<GCONST> 8.364383e+01
<MIXTURE> 103 5.694618e-03
<MEAN> 25
 3.363258e+00 -9.369224e+00 -6.086242e+00 -3.043035e+00 -1.337950e+00 -1.976315e+00 2.388261e+00 2.514626e+00 -4.534244e+00 -9.187767e+00 -5.007514e+00 3.475507e-01 -1.563541e-01 -1.479820e+00 -9.778176e-01 3.678454e-01 1.194519e+00 1.014531e+00 1.662581e-01 -2.750205e-01 -7.737881e-01 -9.541594e-01 -4.057944e-02 1.239715e-01 2.660597e-02
<VARIANCE> 25
 1.026390e+01 2.107991e+01 2.290607e+01 3.149926e+01 4.749983e+01 3.462843e+01 4.621357e+01 3.631070e+01 4.217225e+01 2.947049e+01 3.001910e+01 2.614531e+01 6.382031e-01 1.247608e+00 1.525789e+00 1.929659e+00 2.927143e+00 2.389767e+00 2.890712e+00 2.558889e+00 2.551173e+00 2.564192e+00 2.083812e+00 1.998935e+00 8.338625e-04
<GCONST> 8.754053e+01
<MIXTURE> 104 5.694618e-03
<MEAN> 25
 3.363258e+00 -9.369224e+00 -6.086242e+00 -3.043035e+00 -1.337950e+00 -1.976315e+00 2.388261e+00 2.514626e+00 -4.534244e+00 -9.187767e+00 -5.007514e+00 3.475507e-01 -1.563541e-01 -1.479820e+00 -9.778176e-01 3.678454e-01 1.194519e+00 1.014531e+00 1.662581e-01 -2.750205e-01 -7.737881e-01 -9.541594e-01 -4.057944e-02 1.239715e-01 2.660597e-02
<VARIANCE> 25
 1.026390e+01 2.107991e+01 2.290607e+01 3.149926e+01 4.749983e+01 3.462843e+01 4.621357e+01 3.631070e+01 4.217225e+01 2.947049e+01 3.001910e+01 2.614531e+01 6.382031e-01 1.247608e+00 1.525789e+00 1.929659e+00 2.927143e+00 2.389767e+00 2.890712e+00 2.558889e+00 2.551173e+00 2.564192e+00 2.083812e+00 1.998935e+00 8.338625e-04
<GCONST> 8.754053e+01
<MIXTURE> 105 4.710235e-03
<MEAN> 25
 2.221300e+00 -1.452363e+00 9.175132e+00 -2.471037e+00 -1.127973e+01 -4.973011e+00 -4.181666e+00 -7.861658e-01 -3.688121e+00 -3.146700e+00 1.415931e+00 -1.058179e+00 -3.040682e-03 3.804428e-02 3.984198e-02 -3.882953e-02 -1.835576e-03 6.020315e-02 -2.323467e-02 5.465573e-02 -5.373056e-02 4.545058e-02 3.408378e-02 -2.534646e-02 -2.540850e-03
<VARIANCE> 25
 1.330274e+01 2.759829e+01 4.078372e+01 4.428906e+01 3.884759e+01 5.165775e+01 3.991242e+01 4.295085e+01 3.921093e+01 4.087812e+01 4.090782e+01 2.978321e+01 8.473827e-02 1.925756e-01 3.515324e-01 2.878036e-01 4.056706e-01 4.580582e-01 4.846717e-01 4.825161e-01 5.550297e-01 4.550323e-01 4.160112e-01 3.907088e-01 9.788694e-05
<GCONST> 6.692047e+01
<MIXTURE> 106 4.710235e-03
<MEAN> 25
 2.221300e+00 -1.452363e+00 9.175132e+00 -2.471037e+00 -1.127973e+01 -4.973011e+00 -4.181666e+00 -7.861658e-01 -3.688121e+00 -3.146700e+00 1.415931e+00 -1.058179e+00 -3.040682e-03 3.804428e-02 3.984198e-02 -3.882953e-02 -1.835576e-03 6.020315e-02 -2.323467e-02 5.465573e-02 -5.373056e-02 4.545058e-02 3.408378e-02 -2.534646e-02 -2.540850e-03
<VARIANCE> 25
 1.330274e+01 2.759829e+01 4.078372e+01 4.428906e+01 3.884759e+01 5.165775e+01 3.991242e+01 4.295085e+01 3.921093e+01 4.087812e+01 4.090782e+01 2.978321e+01 8.473827e-02 1.925756e-01 3.515324e-01 2.878036e-01 4.056706e-01 4.580582e-01 4.846717e-01 4.825161e-01 5.550297e-01 4.550323e-01 4.160112e-01 3.907088e-01 9.788694e-05
<GCONST> 6.692047e+01
<MIXTURE> 107 5.452374e-03
<MEAN> 25
 8.749042e+00 -2.776980e+00 -7.721973e+00 -8.976420e+00 1.960007e+00 2.373135e+00 -7.970086e+00 -4.113676e+00 -1.186887e+00 3.794539e+00 1.192713e+00 -5.074607e+00 -5.379226e-01 -7.053442e-01 7.717940e-01 2.014114e+00 4.784331e-02 -1.807547e+00 -9.074604e-01 7.505234e-01 1.977518e+00 -3.861190e-03 -1.617662e+00 -7.750795e-01 -4.188648e-03
<VARIANCE> 25
 8.928916e+00 2.086525e+01 2.686188e+01 4.460378e+01 3.332430e+01 3.818615e+01 5.049076e+01 3.489288e+01 4.405796e+01 4.267003e+01 4.785701e+01 2.901438e+01 3.922735e-01 9.323135e-01 1.393470e+00 2.922893e+00 2.494144e+00 3.050879e+00 2.409092e+00 2.415185e+00 2.581792e+00 3.006154e+00 1.954192e+00 2.091581e+00 7.116716e-04
<GCONST> 8.805872e+01
<MIXTURE> 108 5.452374e-03
<MEAN> 25
 8.749042e+00 -2.776980e+00 -7.721973e+00 -8.976420e+00 1.960007e+00 2.373135e+00 -7.970086e+00 -4.113676e+00 -1.186887e+00 3.794539e+00 1.192713e+00 -5.074607e+00 -5.379226e-01 -7.053442e-01 7.717940e-01 2.014114e+00 4.784331e-02 -1.807547e+00 -9.074604e-01 7.505234e-01 1.977518e+00 -3.861190e-03 -1.617662e+00 -7.750795e-01 -4.188648e-03
<VARIANCE> 25
 8.928916e+00 2.086525e+01 2.686188e+01 4.460378e+01 3.332430e+01 3.818615e+01 5.049076e+01 3.489288e+01 4.405796e+01 4.267003e+01 4.785701e+01 2.901438e+01 3.922735e-01 9.323135e-01 1.393470e+00 2.922893e+00 2.494144e+00 3.050879e+00 2.409092e+00 2.415185e+00 2.581792e+00 3.006154e+00 1.954192e+00 2.091581e+00 7.116716e-04
<GCONST> 8.805872e+01
<MIXTURE> 109 6.661064e-03
<MEAN> 25
 4.047843e+00 -9.597343e+00 -7.960800e+00 -1.135337e+00 2.333064e+00 -9.948322e-02 -3.696366e-02 1.450415e+00 -2.158500e+00 -8.151778e+00 -4.607088e+00 2.076158e-01 -3.590157e-02 -1.324046e-01 -1.916863e-02 3.248118e-01 2.089124e-01 1.436922e-01 -3.690246e-03 -9.868421e-02 -3.738766e-02 -1.614957e-01 2.044888e-01 2.880993e-02 -3.887916e-03
<VARIANCE> 25
 8.266088e+00 2.199702e+01 1.875431e+01 2.826533e+01 3.757410e+01 3.261464e+01 4.177124e+01 3.088654e+01 4.252322e+01 3.253208e+01 3.042183e+01 2.541866e+01 1.843408e-01 3.800480e-01 5.171747e-01 6.558910e-01 1.145920e+00 9.210019e-01 1.343240e+00 9.997056e-01 1.066541e+00 1.087426e+00 8.629455e-01 8.314017e-01 1.782955e-04
<GCONST> 7.337283e+01
<MIXTURE> 110 6.661064e-03
<MEAN> 25
 4.047843e+00 -9.597343e+00 -7.960800e+00 -1.135337e+00 2.333064e+00 -9.948322e-02 -3.696366e-02 1.450415e+00 -2.158500e+00 -8.151778e+00 -4.607088e+00 2.076158e-01 -3.590157e-02 -1.324046e-01 -1.916863e-02 3.248118e-01 2.089124e-01 1.436922e-01 -3.690246e-03 -9.868421e-02 -3.738766e-02 -1.614957e-01 2.044888e-01 2.880993e-02 -3.887916e-03
<VARIANCE> 25
 8.266088e+00 2.199702e+01 1.875431e+01 2.826533e+01 3.757410e+01 3.261464e+01 4.177124e+01 3.088654e+01 4.252322e+01 3.253208e+01 3.042183e+01 2.541866e+01 1.843408e-01 3.800480e-01 5.171747e-01 6.558910e-01 1.145920e+00 9.210019e-01 1.343240e+00 9.997056e-01 1.066541e+00 1.087426e+00 8.629455e-01 8.314017e-01 1.782955e-04
<GCONST> 7.337283e+01
<MIXTURE> 111 4.337247e-03
<MEAN> 25
 -4.262296e+00 -9.370779e-01 -1.842730e+00 1.099241e+00 1.055283e+00 5.899863e-01 6.469810e-01 -1.055343e-02 6.210752e-01 -5.098281e-01 -7.747631e-01 1.572655e+00 -3.920548e-02 -2.470108e-02 -5.866582e-02 -5.536070e-02 -4.718107e-02 -5.873504e-02 -6.046960e-02 -8.037453e-02 -1.508006e-01 -2.577780e-01 -2.322403e-01 -1.242765e-01 4.357472e-04
<VARIANCE> 25
 8.336207e+00 4.591181e+00 9.776695e+00 1.190969e+01 1.209690e+01 2.236781e+01 1.435471e+01 1.315655e+01 1.338631e+01 1.118745e+01 1.501085e+01 1.268593e+01 8.268490e-02 1.650548e-01 2.758004e-01 4.882286e-01 5.368524e-01 6.915890e-01 7.879782e-01 8.306943e-01 1.045594e+00 8.973379e-01 8.376790e-01 7.943968e-01 2.490719e-05
<GCONST> 5.666368e+01
<MIXTURE> 112 4.337247e-03
<MEAN> 25
 -4.262296e+00 -9.370779e-01 -1.842730e+00 1.099241e+00 1.055283e+00 5.899863e-01 6.469810e-01 -1.055343e-02 6.210752e-01 -5.098281e-01 -7.747631e-01 1.572655e+00 -3.920548e-02 -2.470108e-02 -5.866582e-02 -5.536070e-02 -4.718107e-02 -5.873504e-02 -6.046960e-02 -8.037453e-02 -1.508006e-01 -2.577780e-01 -2.322403e-01 -1.242765e-01 4.357472e-04
<VARIANCE> 25
 8.336207e+00 4.591181e+00 9.776695e+00 1.190969e+01 1.209690e+01 2.236781e+01 1.435471e+01 1.315655e+01 1.338631e+01 1.118745e+01 1.501085e+01 1.268593e+01 8.268490e-02 1.650548e-01 2.758004e-01 4.882286e-01 5.368524e-01 6.915890e-01 7.879782e-01 8.306943e-01 1.045594e+00 8.973379e-01 8.376790e-01 7.943968e-01 2.490719e-05
<GCONST> 5.666368e+01
<MIXTURE> 113 5.938666e-03
<MEAN> 25
 9.941293e+00 1.607828e+00 -8.766175e+00 -1.678988e+01 -1.153087e+00 5.473654e+00 -5.223793e+00 -1.420481e+00 -5.704694e+00 -2.899944e-01 2.666491e-01 -2.938296e-01 1.411632e-02 -5.243687e-03 -6.032865e-02 -1.134882e-01 8.674698e-02 1.726215e-01 7.687624e-02 2.203220e-02 -4.392533e-02 -5.374366e-02 1.783273e-01 5.506376e-02 -1.304147e-03
<VARIANCE> 25
 8.736460e+00 1.696780e+01 2.905640e+01 3.614849e+01 5.208668e+01 3.450513e+01 3.901972e+01 3.835379e+01 3.680190e+01 4.764556e+01 3.559512e+01 2.830924e+01 1.233891e-01 3.317745e-01 3.116955e-01 6.194889e-01 6.206492e-01 6.677840e-01 7.999213e-01 8.380304e-01 9.520203e-01 9.005397e-01 7.104628e-01 7.143964e-01 1.254336e-04
<GCONST> 7.115545e+01
<MIXTURE> 114 5.938666e-03
<MEAN> 25
 9.941293e+00 1.607828e+00 -8.766175e+00 -1.678988e+01 -1.153087e+00 5.473654e+00 -5.223793e+00 -1.420481e+00 -5.704694e+00 -2.899944e-01 2.666491e-01 -2.938296e-01 1.411632e-02 -5.243687e-03 -6.032865e-02 -1.134882e-01 8.674698e-02 1.726215e-01 7.687624e-02 2.203220e-02 -4.392533e-02 -5.374366e-02 1.783273e-01 5.506376e-02 -1.304147e-03
<VARIANCE> 25
 8.736460e+00 1.696780e+01 2.905640e+01 3.614849e+01 5.208668e+01 3.450513e+01 3.901972e+01 3.835379e+01 3.680190e+01 4.764556e+01 3.559512e+01 2.830924e+01 1.233891e-01 3.317745e-01 3.116955e-01 6.194889e-01 6.206492e-01 6.677840e-01 7.999213e-01 8.380304e-01 9.520203e-01 9.005397e-01 7.104628e-01 7.143964e-01 1.254336e-04
<GCONST> 7.115545e+01
<MIXTURE> 115 2.935202e-03
<MEAN> 25
 -3.622994e+00 -7.778165e-01 -3.221988e+00 3.472784e+00 2.521647e+00 -4.185458e-01 2.096144e+00 4.754277e-01 1.438330e+00 -3.560627e-01 1.700322e-01 2.525757e+00 4.900049e-02 -7.128094e-02 -1.741541e-01 -3.960209e-01 -6.007421e-01 -6.775744e-01 -6.427872e-01 -5.293183e-01 -5.547399e-01 -4.362876e-01 -3.361936e-01 -1.443361e-01 -4.088550e-05
<VARIANCE> 25
 1.178149e+01 9.526146e+00 1.322425e+01 1.276407e+01 1.323530e+01 1.684436e+01 1.676670e+01 1.988148e+01 1.728588e+01 1.887493e+01 1.857932e+01 1.445212e+01 2.002632e-01 3.355232e-01 5.253596e-01 5.799834e-01 6.269921e-01 7.626669e-01 1.009564e+00 1.082918e+00 1.226469e+00 9.650791e-01 9.834677e-01 1.023028e+00 1.052989e-06
<GCONST> 6.026653e+01
<MIXTURE> 116 2.935202e-03
<MEAN> 25
 -3.622994e+00 -7.778165e-01 -3.221988e+00 3.472784e+00 2.521647e+00 -4.185458e-01 2.096144e+00 4.754277e-01 1.438330e+00 -3.560627e-01 1.700322e-01 2.525757e+00 4.900049e-02 -7.128094e-02 -1.741541e-01 -3.960209e-01 -6.007421e-01 -6.775744e-01 -6.427872e-01 -5.293183e-01 -5.547399e-01 -4.362876e-01 -3.361936e-01 -1.443361e-01 -4.088550e-05
<VARIANCE> 25
 1.178149e+01 9.526146e+00 1.322425e+01 1.276407e+01 1.323530e+01 1.684436e+01 1.676670e+01 1.988148e+01 1.728588e+01 1.887493e+01 1.857932e+01 1.445212e+01 2.002632e-01 3.355232e-01 5.253596e-01 5.799834e-01 6.269921e-01 7.626669e-01 1.009564e+00 1.082918e+00 1.226469e+00 9.650791e-01 9.834677e-01 1.023028e+00 1.052989e-06
<GCONST> 6.026653e+01
<MIXTURE> 117 6.506003e-03
<MEAN> 25
 -4.634709e+00 1.124923e+00 1.052887e+00 9.728647e+00 6.263928e+00 6.252935e+00 6.463256e+00 5.031217e+00 6.392517e+00 4.920805e+00 6.354762e+00 2.703771e+00 -7.695291e-02 -2.357169e-01 -3.602641e-01 -4.214842e-01 -3.661925e-01 -3.016075e-01 -2.811424e-01 -3.308307e-01 -3.871344e-01 -3.688134e-01 -2.640683e-01 -1.180676e-01 -1.582039e-05
<VARIANCE> 25
 7.198940e+00 8.743699e+00 9.780705e+00 1.455431e+01 1.557495e+01 1.530690e+01 1.767251e+01 1.796502e+01 1.636933e+01 1.634470e+01 1.674076e+01 1.472074e+01 2.171682e-01 3.073849e-01 4.260873e-01 6.160764e-01 8.516909e-01 1.052577e+00 1.186498e+00 1.229491e+00 1.227326e+00 1.191375e+00 1.164005e+00 1.111714e+00 1.012412e-06
<GCONST> 6.043694e+01
<MIXTURE> 118 6.506003e-03
<MEAN> 25
 -4.634709e+00 1.124923e+00 1.052887e+00 9.728647e+00 6.263928e+00 6.252935e+00 6.463256e+00 5.031217e+00 6.392517e+00 4.920805e+00 6.354762e+00 2.703771e+00 -7.695291e-02 -2.357169e-01 -3.602641e-01 -4.214842e-01 -3.661925e-01 -3.016075e-01 -2.811424e-01 -3.308307e-01 -3.871344e-01 -3.688134e-01 -2.640683e-01 -1.180676e-01 -1.582039e-05
<VARIANCE> 25
 7.198940e+00 8.743699e+00 9.780705e+00 1.455431e+01 1.557495e+01 1.530690e+01 1.767251e+01 1.796502e+01 1.636933e+01 1.634470e+01 1.674076e+01 1.472074e+01 2.171682e-01 3.073849e-01 4.260873e-01 6.160764e-01 8.516909e-01 1.052577e+00 1.186498e+00 1.229491e+00 1.227326e+00 1.191375e+00 1.164005e+00 1.111714e+00 1.012412e-06
<GCONST> 6.043694e+01
<MIXTURE> 119 4.297961e-03
<MEAN> 25
 -4.959881e+00 -7.578470e+00 2.205791e+00 1.977484e+00 2.243829e+00 2.185647e-01 5.279180e+00 5.912152e+00 1.232147e+00 9.636508e-01 6.569246e+00 1.555531e+00 -4.881485e-02 -7.954720e-02 3.784085e-02 -5.848278e-02 -1.334738e-01 -1.827790e-01 -6.858604e-02 -9.987102e-03 -8.524976e-02 -1.101374e-01 -5.591165e-02 -5.765386e-02 1.165972e-03
<VARIANCE> 25
 8.667822e+00 1.010293e+01 1.653242e+01 2.033199e+01 2.275396e+01 2.306104e+01 2.485981e+01 2.644355e+01 2.546173e+01 2.792852e+01 2.050125e+01 2.028995e+01 1.601779e-01 2.811280e-01 4.611126e-01 6.432484e-01 8.099699e-01 9.975448e-01 1.096664e+00 1.277683e+00 1.286142e+00 1.242821e+00 1.193134e+00 1.106771e+00 2.303480e-04
<GCONST> 6.976497e+01
<MIXTURE> 120 4.297961e-03
<MEAN> 25
 -4.959881e+00 -7.578470e+00 2.205791e+00 1.977484e+00 2.243829e+00 2.185647e-01 5.279180e+00 5.912152e+00 1.232147e+00 9.636508e-01 6.569246e+00 1.555531e+00 -4.881485e-02 -7.954720e-02 3.784085e-02 -5.848278e-02 -1.334738e-01 -1.827790e-01 -6.858604e-02 -9.987102e-03 -8.524976e-02 -1.101374e-01 -5.591165e-02 -5.765386e-02 1.165972e-03
<VARIANCE> 25
 8.667822e+00 1.010293e+01 1.653242e+01 2.033199e+01 2.275396e+01 2.306104e+01 2.485981e+01 2.644355e+01 2.546173e+01 2.792852e+01 2.050125e+01 2.028995e+01 1.601779e-01 2.811280e-01 4.611126e-01 6.432484e-01 8.099699e-01 9.975448e-01 1.096664e+00 1.277683e+00 1.286142e+00 1.242821e+00 1.193134e+00 1.106771e+00 2.303480e-04
<GCONST> 6.976497e+01
<MIXTURE> 121 4.567511e-03
<MEAN> 25
 2.079116e-01 -2.523420e+00 5.155130e+00 -1.289380e+01 -1.264187e+01 -1.666761e+00 9.950720e-01 -5.106714e+00 -4.197917e+00 -4.926411e-01 -5.506769e+00 -4.310264e+00 2.397927e-02 1.322826e-01 -4.145681e-02 7.965253e-02 1.580912e-01 7.900303e-02 -7.966580e-02 -1.827248e-01 -2.688865e-01 -2.574421e-01 -1.144530e-01 1.072980e-03 -7.437998e-03
<VARIANCE> 25
 7.729547e+00 1.559821e+01 1.727755e+01 2.049437e+01 2.444091e+01 2.924084e+01 2.954718e+01 2.456857e+01 3.527405e+01 2.834221e+01 1.974011e+01 2.118361e+01 1.549631e-01 6.428683e-01 6.230866e-01 7.047547e-01 7.713668e-01 1.149956e+00 1.118085e+00 1.121173e+00 1.217676e+00 1.192750e+00 9.419813e-01 8.714702e-01 2.108838e-04
<GCONST> 7.139978e+01
<MIXTURE> 122 4.567511e-03
<MEAN> 25
 2.079116e-01 -2.523420e+00 5.155130e+00 -1.289380e+01 -1.264187e+01 -1.666761e+00 9.950720e-01 -5.106714e+00 -4.197917e+00 -4.926411e-01 -5.506769e+00 -4.310264e+00 2.397927e-02 1.322826e-01 -4.145681e-02 7.965253e-02 1.580912e-01 7.900303e-02 -7.966580e-02 -1.827248e-01 -2.688865e-01 -2.574421e-01 -1.144530e-01 1.072980e-03 -7.437998e-03
<VARIANCE> 25
 7.729547e+00 1.559821e+01 1.727755e+01 2.049437e+01 2.444091e+01 2.924084e+01 2.954718e+01 2.456857e+01 3.527405e+01 2.834221e+01 1.974011e+01 2.118361e+01 1.549631e-01 6.428683e-01 6.230866e-01 7.047547e-01 7.713668e-01 1.149956e+00 1.118085e+00 1.121173e+00 1.217676e+00 1.192750e+00 9.419813e-01 8.714702e-01 2.108838e-04
<GCONST> 7.139978e+01
<MIXTURE> 123 4.393044e-03
<MEAN> 25
 -3.108374e+00 9.660699e-01 -1.063175e-01 5.066059e+00 5.067719e+00 2.823669e+00 3.135076e+00 7.871338e-01 1.485164e+00 -5.100533e-01 2.138254e-01 6.589823e-01 -4.987063e-01 -7.338279e-01 -9.740780e-01 -6.179330e-01 -2.692460e-01 1.032341e-01 4.862409e-01 5.785124e-01 8.184829e-01 6.493932e-01 6.462412e-01 4.339682e-01 -3.069692e-03
<VARIANCE> 25
 1.517415e+01 9.043852e+00 1.455264e+01 1.813543e+01 1.873263e+01 2.473117e+01 2.149561e+01 1.657822e+01 2.289553e+01 1.696734e+01 1.935976e+01 1.659489e+01 3.188213e-01 3.265027e-01 5.589660e-01 6.233724e-01 9.268188e-01 1.028224e+00 1.256456e+00 1.225338e+00 1.261688e+00 1.092184e+00 1.305691e+00 1.256623e+00 1.002350e-04
<GCONST> 6.886747e+01
<MIXTURE> 124 4.069876e-03
<MEAN> 25
 -6.210778e+00 -8.873711e-01 -2.429867e+00 4.312895e+00 5.294681e+00 3.326473e+00 5.421669e+00 2.075707e+00 3.546687e+00 1.043473e+00 9.963936e-01 2.617907e+00 -2.421527e-01 -3.634701e-01 -3.765518e-01 -2.412240e-01 7.922617e-02 5.482365e-01 8.624071e-01 8.346059e-01 7.178566e-01 3.979833e-01 7.799254e-02 -8.540069e-02 2.068393e-04
<VARIANCE> 25
 1.157179e+01 6.922497e+00 1.125776e+01 1.478803e+01 1.173252e+01 1.754735e+01 1.401188e+01 1.698859e+01 1.531580e+01 1.548063e+01 1.705029e+01 1.387678e+01 1.087060e-01 1.743749e-01 2.546288e-01 4.047447e-01 6.184925e-01 7.160847e-01 7.311341e-01 7.667276e-01 9.025030e-01 9.933357e-01 9.195055e-01 9.454039e-01 1.717786e-05
<GCONST> 5.832718e+01
<MIXTURE> 125 4.069876e-03
<MEAN> 25
 -6.210778e+00 -8.873711e-01 -2.429867e+00 4.312895e+00 5.294681e+00 3.326473e+00 5.421669e+00 2.075707e+00 3.546687e+00 1.043473e+00 9.963936e-01 2.617907e+00 -2.421527e-01 -3.634701e-01 -3.765518e-01 -2.412240e-01 7.922617e-02 5.482365e-01 8.624071e-01 8.346059e-01 7.178566e-01 3.979833e-01 7.799254e-02 -8.540069e-02 2.068393e-04
<VARIANCE> 25
 1.157179e+01 6.922497e+00 1.125776e+01 1.478803e+01 1.173252e+01 1.754735e+01 1.401188e+01 1.698859e+01 1.531580e+01 1.548063e+01 1.705029e+01 1.387678e+01 1.087060e-01 1.743749e-01 2.546288e-01 4.047447e-01 6.184925e-01 7.160847e-01 7.311341e-01 7.667276e-01 9.025030e-01 9.933357e-01 9.195055e-01 9.454039e-01 1.717786e-05
<GCONST> 5.832718e+01
<MIXTURE> 126 2.402244e-03
<MEAN> 25
 -3.678124e+00 -6.800582e+00 -5.244287e+00 2.245584e+00 4.191196e+00 -3.197424e+00 1.093997e-01 3.501558e+00 3.374205e+00 -2.696464e+00 -1.375581e+00 2.995326e+00 -6.501139e-03 -7.416773e-03 -3.562814e-02 -1.561455e-01 -3.165658e-01 -3.895601e-01 -2.707948e-01 -1.633326e-01 -1.219048e-01 -1.209116e-01 -1.078030e-01 -3.392970e-02 -1.346280e-03
<VARIANCE> 25
 8.197246e+00 1.312337e+01 1.383244e+01 1.525197e+01 2.458066e+01 2.332102e+01 2.252292e+01 2.800849e+01 3.116287e+01 2.598125e+01 2.173379e+01 1.905830e+01 1.733717e-01 3.489819e-01 4.865014e-01 5.762230e-01 7.503951e-01 9.847130e-01 1.119552e+00 1.250504e+00 1.337787e+00 1.307385e+00 1.212381e+00 1.141302e+00 2.093249e-04
<GCONST> 6.986745e+01
<MIXTURE> 127 2.402244e-03
<MEAN> 25
 -3.678124e+00 -6.800582e+00 -5.244287e+00 2.245584e+00 4.191196e+00 -3.197424e+00 1.093997e-01 3.501558e+00 3.374205e+00 -2.696464e+00 -1.375581e+00 2.995326e+00 -6.501139e-03 -7.416773e-03 -3.562814e-02 -1.561455e-01 -3.165658e-01 -3.895601e-01 -2.707948e-01 -1.633326e-01 -1.219048e-01 -1.209116e-01 -1.078030e-01 -3.392970e-02 -1.346280e-03
<VARIANCE> 25
 8.197246e+00 1.312337e+01 1.383244e+01 1.525197e+01 2.458066e+01 2.332102e+01 2.252292e+01 2.800849e+01 3.116287e+01 2.598125e+01 2.173379e+01 1.905830e+01 1.733717e-01 3.489819e-01 4.865014e-01 5.762230e-01 7.503951e-01 9.847130e-01 1.119552e+00 1.250504e+00 1.337787e+00 1.307385e+00 1.212381e+00 1.141302e+00 2.093249e-04
<GCONST> 6.986745e+01
<MIXTURE> 128 3.790457e-03
<MEAN> 25
 -3.942688e+00 1.505815e+00 -3.438170e-01 6.478726e+00 3.644018e+00 1.850242e+00 3.582007e+00 2.377825e+00 4.038681e+00 3.694189e+00 3.727311e+00 3.491116e+00 -3.944755e-01 -1.997169e-01 1.090149e-01 7.379717e-01 1.170057e+00 1.117174e+00 7.219976e-01 1.488204e-01 -4.323350e-01 -7.937157e-01 -7.177525e-01 -3.988990e-01 -1.182441e-05
<VARIANCE> 25
 1.014352e+01 1.171810e+01 1.485761e+01 1.999629e+01 1.989633e+01 2.097363e+01 2.406981e+01 2.444179e+01 2.672171e+01 2.364849e+01 2.671480e+01 1.813460e+01 8.836715e-01 1.135638e+00 1.364633e+00 1.503471e+00 1.585165e+00 1.878204e+00 2.227990e+00 2.335135e+00 2.131792e+00 1.843497e+00 1.752652e+00 1.733780e+00 1.059449e-06
<GCONST> 7.364648e+01
<TRANSP> 3
 0.000000e+00 1.000000e+00 0.000000e+00
 0.000000e+00 9.999990e-01 9.999998e-07
 0.000000e+00 0.000000e+00 0.000000e+00
<ENDHMM>
