~o
<STREAMINFO> 1 25
<VECSIZE> 25<NULLD><MFCC_E_D_N><DIAGC>
~h "jmodel"
<BEGINHMM>
<NUMSTATES> 3
<STATE> 2
<NUMMIXES> 128
<MIXTURE> 1 5.748963e-03
<MEAN> 25
 -2.584658e+00 3.180107e+00 2.311349e+00 8.751562e+00 4.375658e+00 3.449168e+00 4.063108e+00 3.936065e+00 5.831944e+00 5.251812e+00 5.883364e+00 3.078158e+00 -2.004280e+00 -1.634759e+00 -8.648166e-01 1.075765e+00 1.560143e+00 2.232980e+00 2.153329e+00 2.084515e+00 1.694048e+00 1.269203e+00 1.567297e+00 6.130987e-01 -4.692332e-02
<VARIANCE> 25
 1.006452e+01 1.176361e+01 1.494370e+01 1.871775e+01 2.322682e+01 2.214655e+01 2.189001e+01 2.197637e+01 2.099528e+01 2.254001e+01 2.094932e+01 1.709571e+01 1.789098e+00 2.111276e+00 3.026272e+00 3.209476e+00 3.740959e+00 3.356690e+00 3.323912e+00 3.380616e+00 3.521265e+00 3.726885e+00 3.512868e+00 2.833643e+00 3.120754e-03
<GCONST> 8.846887e+01
<MIXTURE> 2 4.549242e-03
<MEAN> 25
 -4.875671e+00 1.311720e+00 9.943511e-01 9.899809e+00 6.692275e+00 7.424650e+00 7.847087e+00 6.958091e+00 8.373269e+00 6.373019e+00 7.624402e+00 3.074697e+00 -6.200235e-02 4.161923e-02 1.425301e-01 2.258583e-01 2.652900e-01 2.813653e-01 2.954302e-01 3.195550e-01 3.497573e-01 3.089160e-01 1.971766e-01 8.006547e-02 1.228299e-06
<VARIANCE> 25
 6.952293e+00 8.901894e+00 1.065126e+01 1.591096e+01 1.723581e+01 1.556308e+01 1.689898e+01 1.848562e+01 1.658668e+01 1.738619e+01 1.811029e+01 1.434002e+01 1.252503e-01 2.266278e-01 3.364712e-01 4.671271e-01 6.492781e-01 8.148874e-01 9.298787e-01 1.003176e+00 1.051662e+00 1.077774e+00 1.075658e+00 1.013934e+00 1.000000e-06
<GCONST> 5.804302e+01
<MIXTURE> 3 4.549242e-03
<MEAN> 25
 -4.875671e+00 1.311720e+00 9.943511e-01 9.899809e+00 6.692275e+00 7.424650e+00 7.847087e+00 6.958091e+00 8.373269e+00 6.373019e+00 7.624402e+00 3.074697e+00 -6.200235e-02 4.161923e-02 1.425301e-01 2.258583e-01 2.652900e-01 2.813653e-01 2.954302e-01 3.195550e-01 3.497573e-01 3.089160e-01 1.971766e-01 8.006547e-02 1.228299e-06
<VARIANCE> 25
 6.952293e+00 8.901894e+00 1.065126e+01 1.591096e+01 1.723581e+01 1.556308e+01 1.689898e+01 1.848562e+01 1.658668e+01 1.738619e+01 1.811029e+01 1.434002e+01 1.252503e-01 2.266278e-01 3.364712e-01 4.671271e-01 6.492781e-01 8.148874e-01 9.298787e-01 1.003176e+00 1.051662e+00 1.077774e+00 1.075658e+00 1.013934e+00 1.000000e-06
<GCONST> 5.804302e+01
<MIXTURE> 4 1.671429e-02
<MEAN> 25
 3.417090e+00 2.249286e+00 -3.525907e+00 4.788707e-01 4.907257e+00 -1.521785e-01 9.004585e-01 -6.302728e-02 1.394871e+00 1.228388e+00 -1.653117e+00 -2.062589e-01 -2.735199e+00 1.326026e+00 1.653952e+00 2.758359e+00 9.459985e-01 3.560400e-01 1.423217e+00 9.421849e-01 8.794338e-01 4.364778e-01 1.047943e+00 8.997623e-01 -9.494066e-02
<VARIANCE> 25
 1.937709e+01 2.717661e+01 2.722883e+01 3.703141e+01 4.470242e+01 6.333350e+01 6.419862e+01 4.886500e+01 5.009655e+01 5.665376e+01 4.448873e+01 3.275438e+01 2.251434e+00 4.977655e+00 3.430677e+00 5.282076e+00 4.678267e+00 5.687015e+00 6.113232e+00 5.207873e+00 6.130915e+00 5.832464e+00 5.704644e+00 3.959029e+00 6.138127e-03
<GCONST> 1.040203e+02
<MIXTURE> 5 3.206198e-03
<MEAN> 25
 -3.414532e+00 2.182955e+00 6.089249e-01 9.391614e+00 6.708470e+00 6.291689e+00 7.105602e+00 4.710272e+00 5.480152e+00 3.852021e+00 4.651481e+00 2.599875e+00 -3.319234e-01 7.549151e-01 1.223984e+00 1.028035e+00 3.112915e-01 -1.042912e-01 -7.937244e-02 3.353247e-02 4.559074e-01 6.842950e-01 3.993561e-01 8.836787e-02 -2.799123e-05
<VARIANCE> 25
 1.023950e+01 1.392086e+01 2.344369e+01 2.608451e+01 2.024086e+01 1.964912e+01 2.011056e+01 2.038216e+01 2.152078e+01 2.127526e+01 2.405670e+01 1.633668e+01 1.229596e+00 1.244977e+00 1.354493e+00 1.677968e+00 2.284784e+00 2.376629e+00 2.308042e+00 2.270047e+00 2.312115e+00 2.233345e+00 2.092619e+00 1.869135e+00 9.992525e-07
<GCONST> 7.520881e+01
<MIXTURE> 6 5.475854e-03
<MEAN> 25
 9.535971e+00 -3.576115e-01 -6.698975e+00 -1.096980e+01 -1.808044e+00 6.494103e+00 -5.466964e+00 -5.235685e+00 -3.717581e+00 1.816183e+00 4.726331e+00 -1.351146e+00 5.550796e-01 9.029400e-01 -3.163739e-01 -1.445465e+00 -7.039067e-01 1.258487e+00 1.527351e+00 2.504971e-01 -1.147014e+00 -1.186634e+00 2.843612e-01 1.296353e+00 -9.401544e-03
<VARIANCE> 25
 9.132530e+00 1.639752e+01 2.289272e+01 3.750288e+01 3.710707e+01 3.047824e+01 4.595863e+01 3.646038e+01 3.901957e+01 3.772534e+01 4.037193e+01 2.735687e+01 3.986571e-01 8.202922e-01 9.282945e-01 1.901695e+00 1.623761e+00 1.991979e+00 1.836097e+00 1.960861e+00 2.398541e+00 1.897887e+00 2.177645e+00 1.468481e+00 5.916493e-04
<GCONST> 8.361839e+01
<MIXTURE> 7 5.475854e-03
<MEAN> 25
 9.535971e+00 -3.576115e-01 -6.698975e+00 -1.096980e+01 -1.808044e+00 6.494103e+00 -5.466964e+00 -5.235685e+00 -3.717581e+00 1.816183e+00 4.726331e+00 -1.351146e+00 5.550796e-01 9.029400e-01 -3.163739e-01 -1.445465e+00 -7.039067e-01 1.258487e+00 1.527351e+00 2.504971e-01 -1.147014e+00 -1.186634e+00 2.843612e-01 1.296353e+00 -9.401544e-03
<VARIANCE> 25
 9.132530e+00 1.639752e+01 2.289272e+01 3.750288e+01 3.710707e+01 3.047824e+01 4.595863e+01 3.646038e+01 3.901957e+01 3.772534e+01 4.037193e+01 2.735687e+01 3.986571e-01 8.202922e-01 9.282945e-01 1.901695e+00 1.623761e+00 1.991979e+00 1.836097e+00 1.960861e+00 2.398541e+00 1.897887e+00 2.177645e+00 1.468481e+00 5.916493e-04
<GCONST> 8.361839e+01
<MIXTURE> 8 1.165917e-02
<MEAN> 25
 -4.733046e+00 1.361436e+00 1.286747e+00 9.549881e+00 6.573102e+00 6.251873e+00 6.480055e+00 5.684952e+00 6.663050e+00 5.625007e+00 6.570015e+00 3.153116e+00 -6.305242e-01 -1.424358e+00 -1.071015e+00 -1.728326e+00 -2.348706e-01 -9.442819e-01 -1.766762e-01 -2.878354e-01 -2.520724e-01 -1.747314e-01 -2.127904e-01 8.272959e-02 9.885968e-02
<VARIANCE> 25
 9.343484e+00 9.840377e+00 1.164107e+01 1.613889e+01 1.664870e+01 1.570254e+01 1.811374e+01 1.751442e+01 1.705104e+01 1.741662e+01 1.887154e+01 1.399360e+01 2.755756e+00 2.814995e+00 3.903981e+00 3.767526e+00 3.468931e+00 3.316519e+00 3.129708e+00 3.081177e+00 2.871567e+00 2.654251e+00 2.433049e+00 1.903179e+00 6.678115e-03
<GCONST> 8.630045e+01
<MIXTURE> 9 1.199672e-02
<MEAN> 25
 9.030264e+00 3.291591e+00 -6.056062e+00 -9.638592e+00 -2.314558e+00 5.011314e+00 -1.348062e+00 -2.111051e+00 -5.477366e+00 -9.629391e-01 5.304317e-01 -2.641201e-01 1.548217e+00 -2.264229e-01 -4.462199e-01 -2.290632e+00 -1.688621e+00 1.017260e+00 -1.014826e+00 -2.210789e-01 -5.231978e-01 -2.601638e-01 5.542295e-01 -1.649302e-01 6.813249e-02
<VARIANCE> 25
 1.134241e+01 1.914489e+01 2.983721e+01 5.396243e+01 4.509533e+01 2.978550e+01 4.307298e+01 4.634991e+01 3.882459e+01 3.759238e+01 3.259958e+01 2.438230e+01 2.112995e+00 2.229458e+00 4.061853e+00 5.438700e+00 4.720613e+00 4.002315e+00 3.781152e+00 5.495224e+00 5.311095e+00 4.396487e+00 3.570152e+00 2.594178e+00 2.179205e-03
<GCONST> 9.734295e+01
<MIXTURE> 10 6.596976e-03
<MEAN> 25
 8.200915e-01 7.631129e+00 5.372116e+00 7.133188e+00 1.598045e+00 -2.120032e+00 -5.165323e-01 -1.689212e+00 8.740129e-01 8.605093e-01 8.364849e-01 6.553490e-01 -1.923827e+00 -6.721563e-01 -4.589844e-01 3.022954e+00 2.465863e+00 2.705362e+00 2.372628e+00 2.276142e+00 1.860349e+00 1.544463e+00 2.333367e+00 5.248277e-01 -1.379922e-01
<VARIANCE> 25
 1.953215e+01 2.068658e+01 2.229373e+01 2.924552e+01 3.838991e+01 3.495617e+01 3.510695e+01 3.383617e+01 2.758233e+01 2.903303e+01 2.693282e+01 2.498967e+01 2.232954e+00 3.424262e+00 5.529431e+00 5.188182e+00 5.556499e+00 4.486269e+00 4.697719e+00 4.844416e+00 4.388901e+00 5.017138e+00 4.443754e+00 3.187543e+00 2.711380e-03
<GCONST> 9.747168e+01
<MIXTURE> 11 1.633820e-02
<MEAN> 25
 7.566538e+00 2.319898e+00 3.649389e+00 5.072840e+00 -2.994299e+00 -1.796703e+00 -1.203287e+00 -6.259328e+00 -4.890913e+00 1.196411e+00 -1.571580e+00 -1.873976e+00 -2.976068e-01 5.524975e-01 -1.212123e-02 1.378844e-02 6.767284e-01 2.299566e-01 4.593397e-01 -5.348640e-01 -2.852353e-02 3.205532e-01 -1.555623e-01 1.087569e-02 -1.587934e-02
<VARIANCE> 25
 1.044996e+01 2.364250e+01 1.702734e+01 2.533524e+01 3.565760e+01 3.345337e+01 3.991063e+01 3.588092e+01 4.211557e+01 2.818011e+01 2.836724e+01 2.609816e+01 8.475557e-01 9.887297e-01 2.053296e+00 1.973272e+00 2.410924e+00 2.235523e+00 2.527647e+00 3.966478e+00 2.028634e+00 1.948306e+00 1.441235e+00 1.466085e+00 7.454238e-04
<GCONST> 8.569361e+01
<MIXTURE> 12 5.904134e-03
<MEAN> 25
 1.076502e+01 3.743170e+00 -4.502652e+00 -1.599152e+01 -8.694913e+00 8.642161e+00 -8.960279e-01 -1.921733e+00 -1.724223e+00 -4.884842e+00 1.774539e+00 7.159317e-01 6.775130e-02 2.936203e-01 7.981037e-02 -3.681513e-01 -3.100824e-01 2.947887e-02 3.052590e-01 4.476267e-01 1.409741e-01 -3.842762e-01 -3.855077e-01 5.392389e-02 -6.299450e-03
<VARIANCE> 25
 8.883303e+00 2.100048e+01 2.335298e+01 3.505647e+01 4.206661e+01 3.095656e+01 4.179514e+01 4.897519e+01 4.406549e+01 3.740158e+01 3.799244e+01 2.892612e+01 2.468492e-01 6.884208e-01 6.861651e-01 1.169845e+00 1.186730e+00 1.053880e+00 1.171353e+00 1.386154e+00 1.240600e+00 1.223334e+00 1.221346e+00 9.564112e-01 5.787174e-04
<GCONST> 7.892290e+01
<MIXTURE> 13 5.904134e-03
<MEAN> 25
 1.076502e+01 3.743170e+00 -4.502652e+00 -1.599152e+01 -8.694913e+00 8.642161e+00 -8.960279e-01 -1.921733e+00 -1.724223e+00 -4.884842e+00 1.774539e+00 7.159317e-01 6.775130e-02 2.936203e-01 7.981037e-02 -3.681513e-01 -3.100824e-01 2.947887e-02 3.052590e-01 4.476267e-01 1.409741e-01 -3.842762e-01 -3.855077e-01 5.392389e-02 -6.299450e-03
<VARIANCE> 25
 8.883303e+00 2.100048e+01 2.335298e+01 3.505647e+01 4.206661e+01 3.095656e+01 4.179514e+01 4.897519e+01 4.406549e+01 3.740158e+01 3.799244e+01 2.892612e+01 2.468492e-01 6.884208e-01 6.861651e-01 1.169845e+00 1.186730e+00 1.053880e+00 1.171353e+00 1.386154e+00 1.240600e+00 1.223334e+00 1.221346e+00 9.564112e-01 5.787174e-04
<GCONST> 7.892290e+01
<MIXTURE> 14 6.488954e-03
<MEAN> 25
 -4.283236e+00 -4.224287e-01 -3.845165e-01 8.761351e+00 7.550202e+00 7.357965e+00 7.817254e+00 7.249903e+00 7.313048e+00 5.137344e+00 6.807871e+00 4.066296e+00 -2.772203e-01 1.850685e-01 3.583438e-01 3.151243e-01 3.995710e-03 3.138569e-02 8.794165e-02 1.657807e-01 3.217940e-01 5.560887e-01 5.070764e-01 1.076380e-01 -9.049617e-03
<VARIANCE> 25
 9.307236e+00 1.377927e+01 1.874169e+01 1.901951e+01 2.084595e+01 1.941522e+01 2.124223e+01 2.072826e+01 2.008415e+01 2.412487e+01 2.134843e+01 1.589666e+01 9.499228e-01 1.621625e+00 1.758321e+00 1.915871e+00 2.223408e+00 2.319939e+00 2.244419e+00 2.225611e+00 2.308166e+00 2.508434e+00 2.167348e+00 1.865977e+00 1.022149e-03
<GCONST> 8.194127e+01
<MIXTURE> 15 2.475190e-03
<MEAN> 25
 -5.423510e+00 -6.447904e-01 -2.018330e-01 7.366948e+00 5.720277e+00 5.701618e+00 6.060750e+00 4.979272e+00 5.165653e+00 4.153806e+00 5.501998e+00 2.539905e+00 -1.212794e-01 -2.919737e-02 7.499182e-02 2.437006e-01 4.893565e-01 7.860723e-01 1.072211e+00 1.181901e+00 1.059487e+00 7.563218e-01 4.197501e-01 1.537261e-01 -8.143896e-05
<VARIANCE> 25
 6.985836e+00 5.606309e+00 9.034667e+00 1.282039e+01 1.407877e+01 1.429547e+01 1.491872e+01 1.489753e+01 1.410326e+01 1.418602e+01 1.510108e+01 1.250706e+01 1.247613e-01 2.061687e-01 3.197389e-01 5.030345e-01 6.995214e-01 7.950544e-01 7.634654e-01 7.919303e-01 9.091298e-01 1.024074e+00 1.071215e+00 1.041897e+00 2.796274e-05
<GCONST> 5.859104e+01
<MIXTURE> 16 2.475190e-03
<MEAN> 25
 -5.423510e+00 -6.447904e-01 -2.018330e-01 7.366948e+00 5.720277e+00 5.701618e+00 6.060750e+00 4.979272e+00 5.165653e+00 4.153806e+00 5.501998e+00 2.539905e+00 -1.212794e-01 -2.919737e-02 7.499182e-02 2.437006e-01 4.893565e-01 7.860723e-01 1.072211e+00 1.181901e+00 1.059487e+00 7.563218e-01 4.197501e-01 1.537261e-01 -8.143896e-05
<VARIANCE> 25
 6.985836e+00 5.606309e+00 9.034667e+00 1.282039e+01 1.407877e+01 1.429547e+01 1.491872e+01 1.489753e+01 1.410326e+01 1.418602e+01 1.510108e+01 1.250706e+01 1.247613e-01 2.061687e-01 3.197389e-01 5.030345e-01 6.995214e-01 7.950544e-01 7.634654e-01 7.919303e-01 9.091298e-01 1.024074e+00 1.071215e+00 1.041897e+00 2.796274e-05
<GCONST> 5.859104e+01
<MIXTURE> 17 9.518312e-03
<MEAN> 25
 3.652720e+00 -8.173804e-01 6.082161e+00 2.647350e+00 -5.710862e+00 -6.263215e+00 -3.067598e+00 3.069581e-01 -2.910118e+00 -2.830288e+00 3.754816e-02 2.542086e-01 -6.777462e-01 -1.151118e+00 1.416269e+00 -1.816438e+00 -2.570064e+00 -1.025831e-01 1.138533e-01 6.942853e-01 -3.937991e-01 -2.731770e-01 1.016975e+00 4.274911e-01 7.760574e-02
<VARIANCE> 25
 1.507277e+01 2.864371e+01 2.896414e+01 3.861871e+01 5.012577e+01 4.460988e+01 3.800985e+01 3.394649e+01 3.373986e+01 2.624554e+01 2.605956e+01 2.740257e+01 1.873094e+00 2.573032e+00 3.750993e+00 3.698002e+00 4.447526e+00 5.230664e+00 4.767890e+00 4.484471e+00 3.988259e+00 3.677447e+00 2.795153e+00 2.549417e+00 2.051200e-03
<GCONST> 9.613876e+01
<MIXTURE> 18 1.221018e-02
<MEAN> 25
 3.972756e+00 3.954883e+00 5.937367e+00 4.629986e+00 -4.007614e+00 -7.705770e+00 -1.583073e+00 -8.983714e-01 -3.158424e+00 -2.780734e+00 -7.678443e-01 6.060733e-01 -7.458966e-01 2.066240e+00 -2.192255e-01 1.340662e+00 3.483263e+00 1.142973e+00 9.722801e-01 -4.604737e-01 9.024844e-01 7.372919e-01 -3.509345e-01 -1.625343e-01 -1.121155e-01
<VARIANCE> 25
 1.480108e+01 2.527149e+01 3.125537e+01 2.354512e+01 4.523455e+01 3.143642e+01 3.478753e+01 3.224846e+01 3.443924e+01 3.217335e+01 2.894933e+01 2.704878e+01 2.178915e+00 2.617586e+00 4.007304e+00 5.618173e+00 4.132608e+00 4.751337e+00 4.231086e+00 4.082244e+00 4.156770e+00 4.017303e+00 3.953101e+00 3.212449e+00 4.079724e-03
<GCONST> 9.696529e+01
<MIXTURE> 19 9.912824e-03
<MEAN> 25
 -8.927855e+00 1.239744e+00 -7.546800e-01 8.453348e-01 4.666587e+00 1.105383e+00 4.713438e+00 9.871913e-01 3.237822e+00 6.289915e-01 2.550710e-01 1.402696e+00 1.960153e+00 1.449940e+00 2.022289e+00 9.422252e-01 -9.232135e-01 -7.841974e-01 -8.998197e-01 -1.323244e+00 -1.767718e+00 -1.151951e+00 -9.768819e-01 -6.803352e-01 8.592021e-04
<VARIANCE> 25
 4.377728e+01 3.157354e+01 4.290557e+01 5.107849e+01 3.511273e+01 3.546907e+01 2.961592e+01 3.229874e+01 2.605187e+01 2.329151e+01 2.676474e+01 1.698245e+01 2.033619e+00 2.078255e+00 2.012784e+00 2.469198e+00 3.189074e+00 2.764791e+00 2.513563e+00 2.632120e+00 2.286374e+00 2.327315e+00 2.458950e+00 1.759942e+00 1.977821e-03
<GCONST> 9.141061e+01
<MIXTURE> 20 6.308331e-03
<MEAN> 25
 -1.416642e+01 7.423259e+00 8.280604e-01 6.133453e+00 4.868242e+00 1.619964e+00 5.206152e+00 8.485628e-01 9.182762e-01 8.005142e-01 2.562084e+00 -3.016405e-01 -3.283735e+00 -8.611854e-01 -1.564340e+00 3.329962e-01 1.536605e+00 2.060459e+00 1.975722e+00 2.053201e+00 2.139193e+00 2.034604e+00 1.679188e+00 9.432115e-01 4.731198e-02
<VARIANCE> 25
 1.973426e+01 2.344845e+01 3.107746e+01 3.724461e+01 3.099227e+01 2.800281e+01 2.986605e+01 3.141553e+01 2.791809e+01 2.814540e+01 2.512015e+01 2.090616e+01 2.090927e+00 2.191377e+00 1.905687e+00 2.538563e+00 2.709774e+00 2.316464e+00 2.309703e+00 2.319830e+00 2.242197e+00 2.660617e+00 2.247927e+00 1.865407e+00 1.883849e-03
<GCONST> 8.923769e+01
<MIXTURE> 21 7.928653e-03
<MEAN> 25
 3.900780e+00 -4.312209e+00 5.803163e+00 -5.044717e-01 -1.061948e+01 -8.524388e+00 -2.287535e+00 4.378486e+00 -2.885473e+00 -2.690356e+00 8.629260e-01 -1.165646e-02 -7.960442e-01 1.316117e+00 2.619411e+00 -2.293627e-01 -1.585548e+00 2.836808e-01 6.456334e-01 -1.452837e+00 -1.696905e+00 2.158636e-01 1.220059e+00 4.217939e-01 -1.051898e-02
<VARIANCE> 25
 8.216087e+00 1.731670e+01 2.679938e+01 3.509345e+01 2.596754e+01 3.074417e+01 3.982700e+01 3.629432e+01 4.445316e+01 3.314500e+01 3.432559e+01 2.262523e+01 4.097641e-01 8.678671e-01 1.772993e+00 1.462166e+00 2.067681e+00 2.048392e+00 3.372383e+00 2.354832e+00 2.547402e+00 2.452866e+00 1.922183e+00 2.358486e+00 4.346328e-04
<GCONST> 8.469719e+01
<MIXTURE> 22 8.827789e-03
<MEAN> 25
 -1.786167e+01 7.364375e+00 -4.576471e+00 6.974689e+00 4.960672e+00 2.628273e+00 8.374777e+00 1.796026e+00 5.351985e+00 3.322245e+00 5.346678e+00 7.907147e-01 -3.355780e-01 -2.469773e-01 -9.711729e-02 -1.568249e-01 -1.416666e-02 1.186042e-01 1.493624e-01 2.306406e-01 3.100706e-01 1.690757e-01 1.658238e-01 1.630909e-01 8.887837e-03
<VARIANCE> 25
 7.868409e+00 1.712021e+01 2.008094e+01 2.726407e+01 2.440923e+01 2.021297e+01 1.901988e+01 1.792338e+01 1.757442e+01 2.029674e+01 2.088740e+01 1.634050e+01 1.134987e+00 1.333355e+00 1.371873e+00 1.523883e+00 1.368133e+00 1.457972e+00 1.471083e+00 1.544847e+00 1.614522e+00 1.509050e+00 1.317941e+00 1.130715e+00 1.715035e-03
<GCONST> 7.848225e+01
<MIXTURE> 23 6.455497e-03
<MEAN> 25
 7.982697e+00 1.811016e+00 3.295191e+00 2.603543e+00 -4.437202e+00 -2.878604e+00 -3.515587e+00 -6.579610e+00 -4.348064e+00 7.044143e-04 -3.119124e+00 -2.025152e+00 2.319166e-03 1.914900e-01 4.126223e-02 2.970781e-02 1.823727e-02 1.943687e-01 2.644546e-02 -2.411924e-01 2.186038e-03 8.672984e-02 3.800169e-03 1.005540e-01 -4.694736e-03
<VARIANCE> 25
 9.821465e+00 2.126434e+01 2.193828e+01 3.583817e+01 3.572802e+01 4.652990e+01 5.386646e+01 4.939061e+01 4.560031e+01 4.540611e+01 4.563811e+01 3.540205e+01 1.181020e-01 2.609913e-01 4.604026e-01 4.801045e-01 5.178578e-01 9.124613e-01 8.266110e-01 1.058531e+00 8.547975e-01 7.995577e-01 7.464058e-01 6.708519e-01 8.465219e-05
<GCONST> 7.195982e+01
<MIXTURE> 24 6.455497e-03
<MEAN> 25
 7.982697e+00 1.811016e+00 3.295191e+00 2.603543e+00 -4.437202e+00 -2.878604e+00 -3.515587e+00 -6.579610e+00 -4.348064e+00 7.044143e-04 -3.119124e+00 -2.025152e+00 2.319166e-03 1.914900e-01 4.126223e-02 2.970781e-02 1.823727e-02 1.943687e-01 2.644546e-02 -2.411924e-01 2.186038e-03 8.672984e-02 3.800169e-03 1.005540e-01 -4.694736e-03
<VARIANCE> 25
 9.821465e+00 2.126434e+01 2.193828e+01 3.583817e+01 3.572802e+01 4.652990e+01 5.386646e+01 4.939061e+01 4.560031e+01 4.540611e+01 4.563811e+01 3.540205e+01 1.181020e-01 2.609913e-01 4.604026e-01 4.801045e-01 5.178578e-01 9.124613e-01 8.266110e-01 1.058531e+00 8.547975e-01 7.995577e-01 7.464058e-01 6.708519e-01 8.465219e-05
<GCONST> 7.195982e+01
<MIXTURE> 25 1.118642e-02
<MEAN> 25
 2.660811e-02 3.238165e+00 1.429056e+01 8.951020e-02 -1.282211e+01 2.828434e-01 -7.612752e+00 -3.398762e+00 -6.846206e+00 -4.055963e+00 3.577355e+00 -7.818705e-02 -1.944301e-01 5.807526e-01 -1.555507e-01 -5.858120e-03 4.452570e-01 3.394259e-02 1.709873e-01 -5.994281e-02 -3.786115e-01 1.417587e-01 -2.339987e-01 -8.888404e-03 -9.070911e-03
<VARIANCE> 25
 6.331439e+00 1.620996e+01 2.312021e+01 2.104472e+01 2.583740e+01 3.585448e+01 2.868314e+01 2.218134e+01 2.077957e+01 2.808448e+01 1.614636e+01 2.277335e+01 5.533274e-01 1.350141e+00 1.182152e+00 1.066920e+00 2.336203e+00 1.746467e+00 1.961035e+00 1.574373e+00 1.509624e+00 1.151830e+00 1.491996e+00 1.041060e+00 9.251844e-04
<GCONST> 7.881077e+01
<MIXTURE> 26 7.727677e-03
<MEAN> 25
 9.815142e-01 -5.015114e+00 -9.459140e+00 -2.340311e+00 8.734377e+00 4.827042e+00 4.890589e+00 -1.769685e-01 4.091880e+00 -5.734724e-01 -2.705622e+00 -1.577842e+00 -5.677415e-01 7.439516e-01 1.820693e-01 5.294034e-01 2.620355e-01 -3.713022e-02 3.704704e-01 1.339323e-01 8.795284e-02 6.037254e-02 2.476611e-01 4.195979e-01 -3.337524e-02
<VARIANCE> 25
 2.274404e+01 2.890155e+01 2.208146e+01 5.355961e+01 3.842393e+01 4.065280e+01 4.126949e+01 3.915923e+01 3.965294e+01 4.866589e+01 3.659729e+01 3.650362e+01 1.504049e+00 2.284472e+00 1.694419e+00 1.961277e+00 2.138182e+00 2.567738e+00 2.909204e+00 2.983982e+00 2.591302e+00 2.295446e+00 2.235683e+00 1.697033e+00 3.255585e-03
<GCONST> 9.270319e+01
<MIXTURE> 27 7.727677e-03
<MEAN> 25
 9.815142e-01 -5.015114e+00 -9.459140e+00 -2.340311e+00 8.734377e+00 4.827042e+00 4.890589e+00 -1.769685e-01 4.091880e+00 -5.734724e-01 -2.705622e+00 -1.577842e+00 -5.677415e-01 7.439516e-01 1.820693e-01 5.294034e-01 2.620355e-01 -3.713022e-02 3.704704e-01 1.339323e-01 8.795284e-02 6.037254e-02 2.476611e-01 4.195979e-01 -3.337524e-02
<VARIANCE> 25
 2.274404e+01 2.890155e+01 2.208146e+01 5.355961e+01 3.842393e+01 4.065280e+01 4.126949e+01 3.915923e+01 3.965294e+01 4.866589e+01 3.659729e+01 3.650362e+01 1.504049e+00 2.284472e+00 1.694419e+00 1.961277e+00 2.138182e+00 2.567738e+00 2.909204e+00 2.983982e+00 2.591302e+00 2.295446e+00 2.235683e+00 1.697033e+00 3.255585e-03
<GCONST> 9.270319e+01
<MIXTURE> 28 5.036674e-03
<MEAN> 25
 -5.451398e+00 1.173188e-02 -1.569348e+00 6.616112e+00 5.232445e+00 3.518146e+00 5.416386e+00 3.130101e+00 3.922709e+00 2.394317e+00 2.638268e+00 3.220319e+00 -1.152384e-01 2.232149e-01 5.287891e-01 7.848873e-01 8.221791e-01 7.029085e-01 5.231570e-01 3.919785e-01 4.448699e-01 4.824392e-01 3.710219e-01 1.896322e-01 -1.242039e-05
<VARIANCE> 25
 1.043670e+01 8.352219e+00 1.216001e+01 1.484498e+01 1.471093e+01 1.773179e+01 1.804015e+01 1.901541e+01 1.718633e+01 1.673192e+01 2.060882e+01 1.500423e+01 2.565343e-01 3.365489e-01 4.068651e-01 4.641503e-01 6.216285e-01 8.471454e-01 1.056550e+00 1.144814e+00 1.102584e+00 1.029903e+00 1.036726e+00 1.066775e+00 9.999825e-07
<GCONST> 6.025281e+01
<MIXTURE> 29 5.036674e-03
<MEAN> 25
 -5.451398e+00 1.173188e-02 -1.569348e+00 6.616112e+00 5.232445e+00 3.518146e+00 5.416386e+00 3.130101e+00 3.922709e+00 2.394317e+00 2.638268e+00 3.220319e+00 -1.152384e-01 2.232149e-01 5.287891e-01 7.848873e-01 8.221791e-01 7.029085e-01 5.231570e-01 3.919785e-01 4.448699e-01 4.824392e-01 3.710219e-01 1.896322e-01 -1.242039e-05
<VARIANCE> 25
 1.043670e+01 8.352219e+00 1.216001e+01 1.484498e+01 1.471093e+01 1.773179e+01 1.804015e+01 1.901541e+01 1.718633e+01 1.673192e+01 2.060882e+01 1.500423e+01 2.565343e-01 3.365489e-01 4.068651e-01 4.641503e-01 6.216285e-01 8.471454e-01 1.056550e+00 1.144814e+00 1.102584e+00 1.029903e+00 1.036726e+00 1.066775e+00 9.999825e-07
<GCONST> 6.025281e+01
<MIXTURE> 30 8.917812e-03
<MEAN> 25
 -4.492166e+00 -1.976775e-01 6.510652e-01 9.083033e+00 7.776860e+00 7.510837e+00 7.583649e+00 6.878198e+00 6.537070e+00 4.892109e+00 7.010187e+00 3.501750e+00 -2.396784e-02 3.029455e-02 5.641378e-02 8.889659e-02 8.162423e-02 4.280278e-02 1.314051e-02 -3.334433e-03 1.859680e-02 5.291065e-02 6.158278e-02 3.619409e-02 -5.488946e-04
<VARIANCE> 25
 6.944863e+00 9.864309e+00 1.041270e+01 1.379432e+01 1.574525e+01 1.640972e+01 1.911774e+01 1.818274e+01 1.628652e+01 1.839441e+01 2.124057e+01 1.435625e+01 9.744760e-02 1.995266e-01 3.248062e-01 4.813379e-01 6.190732e-01 7.273663e-01 7.724100e-01 8.121073e-01 8.785508e-01 9.394220e-01 9.202427e-01 8.655102e-01 5.100905e-05
<GCONST> 6.060591e+01
<MIXTURE> 31 4.136493e-03
<MEAN> 25
 -3.291975e+00 -5.676127e+00 3.002039e-02 4.829743e+00 3.729569e+00 1.714572e+00 5.240880e+00 6.631660e+00 2.771631e+00 1.213329e+00 6.486247e+00 3.132163e+00 2.520727e-01 4.712823e-01 -2.118634e-01 3.079052e-01 1.232053e-01 4.212309e-01 1.851202e-01 1.739329e-02 3.861885e-01 3.845531e-01 1.057186e-01 1.174615e-01 -1.829846e-02
<VARIANCE> 25
 7.186563e+00 1.523034e+01 1.754898e+01 1.832343e+01 2.552707e+01 2.408389e+01 2.352620e+01 2.525306e+01 2.615487e+01 2.810550e+01 2.055085e+01 1.879698e+01 1.903036e-01 4.984386e-01 5.997770e-01 7.648988e-01 9.617718e-01 1.104750e+00 1.229836e+00 1.387263e+00 1.344998e+00 1.319375e+00 1.241719e+00 1.139300e+00 2.597756e-04
<GCONST> 7.190556e+01
<MIXTURE> 32 4.136493e-03
<MEAN> 25
 -3.291975e+00 -5.676127e+00 3.002039e-02 4.829743e+00 3.729569e+00 1.714572e+00 5.240880e+00 6.631660e+00 2.771631e+00 1.213329e+00 6.486247e+00 3.132163e+00 2.520727e-01 4.712823e-01 -2.118634e-01 3.079052e-01 1.232053e-01 4.212309e-01 1.851202e-01 1.739329e-02 3.861885e-01 3.845531e-01 1.057186e-01 1.174615e-01 -1.829846e-02
<VARIANCE> 25
 7.186563e+00 1.523034e+01 1.754898e+01 1.832343e+01 2.552707e+01 2.408389e+01 2.352620e+01 2.525306e+01 2.615487e+01 2.810550e+01 2.055085e+01 1.879698e+01 1.903036e-01 4.984386e-01 5.997770e-01 7.648988e-01 9.617718e-01 1.104750e+00 1.229836e+00 1.387263e+00 1.344998e+00 1.319375e+00 1.241719e+00 1.139300e+00 2.597756e-04
<GCONST> 7.190556e+01
<MIXTURE> 33 1.508826e-02
<MEAN> 25
 6.100510e+00 -4.260325e+00 -2.142372e+00 -1.671348e+00 -2.123864e+00 -4.843760e+00 -6.329195e+00 2.615577e+00 2.504080e+00 -2.771083e-01 -4.777196e+00 -3.266928e+00 6.717898e-01 -1.196080e+00 -2.276551e+00 -1.746349e+00 1.626466e+00 1.468928e+00 -6.612827e-01 4.510854e-01 1.104853e+00 6.691436e-01 -4.143766e-01 -1.343856e+00 3.156570e-02
<VARIANCE> 25
 9.701726e+00 1.855295e+01 2.492933e+01 3.551990e+01 3.628973e+01 4.058726e+01 4.071523e+01 4.426437e+01 3.644997e+01 3.755697e+01 3.080543e+01 2.469264e+01 1.027639e+00 1.705074e+00 2.032955e+00 2.011760e+00 3.822053e+00 3.040163e+00 3.767465e+00 5.069580e+00 3.333675e+00 3.796118e+00 3.100725e+00 2.232577e+00 1.429031e-03
<GCONST> 9.186758e+01
<MIXTURE> 34 1.588179e-02
<MEAN> 25
 8.843907e+00 -2.096688e-01 8.713944e-02 1.206338e+00 -2.694012e+00 -1.524723e+00 -5.778816e+00 -4.340569e+00 -1.981624e+00 2.640743e-01 -2.304670e+00 -3.688459e+00 -6.523536e-02 1.358177e+00 1.439182e+00 2.157611e+00 1.344936e-01 -1.418923e-01 8.742275e-01 -1.683638e+00 -8.327098e-01 2.752633e-01 -4.839628e-01 2.205131e-01 -6.143355e-02
<VARIANCE> 25
 7.370038e+00 3.017286e+01 2.816662e+01 4.965865e+01 4.182672e+01 4.716463e+01 5.327690e+01 5.484017e+01 5.021848e+01 4.121338e+01 4.666870e+01 2.994233e+01 1.312379e+00 1.926774e+00 3.996789e+00 4.522427e+00 5.704722e+00 5.600841e+00 5.302129e+00 5.950738e+00 5.154702e+00 4.783578e+00 4.854384e+00 3.823745e+00 1.113313e-03
<GCONST> 9.910306e+01
<MIXTURE> 35 1.467755e-02
<MEAN> 25
 -2.539199e+00 -4.623366e+00 -8.352121e+00 -1.597700e+00 9.871734e+00 1.681121e+00 1.662249e+00 3.274052e+00 2.921453e+00 4.210907e+00 4.651954e-01 -3.145049e-01 3.516245e-01 -8.102117e-01 -1.315550e+00 -1.216271e+00 -1.122292e-01 -7.580978e-01 1.536880e-01 -1.488197e-01 -1.535991e-02 3.461272e-01 -7.439767e-01 -4.932324e-01 8.856190e-02
<VARIANCE> 25
 1.517759e+01 2.297814e+01 4.330749e+01 5.323688e+01 3.613689e+01 5.257275e+01 4.269627e+01 3.790164e+01 5.085187e+01 3.160573e+01 3.402074e+01 3.476800e+01 2.852147e+00 3.032135e+00 5.228720e+00 4.497085e+00 5.177322e+00 5.130504e+00 5.394903e+00 4.702549e+00 4.268592e+00 4.373396e+00 4.016821e+00 3.310311e+00 4.712998e-03
<GCONST> 1.009258e+02
<MIXTURE> 36 1.093293e-02
<MEAN> 25
 4.777378e+00 -3.553737e+00 6.391868e+00 3.331523e+00 -1.028884e+01 -7.091242e+00 -6.475449e+00 3.385909e+00 -3.490523e+00 -3.877564e+00 2.009655e+00 1.773858e+00 4.998446e-01 6.859884e-02 -8.673358e-01 1.344667e-01 1.046630e+00 -1.349950e-01 -1.870226e-02 -2.109548e-02 3.999552e-01 2.424363e-01 -2.617890e-01 -4.839612e-01 -1.655326e-02
<VARIANCE> 25
 8.560223e+00 1.472825e+01 1.702870e+01 2.328659e+01 2.432221e+01 2.911611e+01 3.291861e+01 2.541702e+01 3.166958e+01 2.621022e+01 2.027086e+01 2.409856e+01 4.596559e-01 7.146378e-01 1.193289e+00 1.371863e+00 2.202392e+00 1.478418e+00 2.675933e+00 2.588649e+00 2.278633e+00 1.555284e+00 1.244280e+00 1.373043e+00 7.264467e-04
<GCONST> 8.004064e+01
<MIXTURE> 37 1.246826e-02
<MEAN> 25
 4.434757e-01 7.721339e+00 1.165298e+01 -5.110947e+00 -8.036494e+00 -8.759298e-01 -5.212229e+00 -8.169991e+00 -3.824441e+00 -8.704668e-01 -3.701891e+00 -1.084086e+00 1.441730e-01 7.029060e-01 -1.323985e+00 3.203007e+00 2.224259e+00 -4.907291e-01 1.233070e+00 2.611194e-01 6.639227e-01 -2.318979e-01 4.486740e-01 -1.261294e-01 -9.011880e-02
<VARIANCE> 25
 1.499914e+01 2.462168e+01 3.086419e+01 5.036987e+01 3.309115e+01 3.136795e+01 4.209709e+01 3.383837e+01 3.703776e+01 3.360427e+01 3.547234e+01 2.948104e+01 2.780852e+00 3.237079e+00 2.827572e+00 5.725204e+00 5.160932e+00 4.011632e+00 4.191568e+00 4.000585e+00 3.476990e+00 3.493951e+00 3.774097e+00 2.622152e+00 3.957650e-03
<GCONST> 9.758209e+01
<MIXTURE> 38 1.154525e-02
<MEAN> 25
 -4.313087e+00 8.851071e+00 4.440168e+00 2.262224e+00 1.927987e+00 -5.504688e+00 -4.624922e-01 -3.079519e+00 -2.562106e+00 -2.476647e+00 -1.471356e+00 -5.615492e-01 -4.221494e+00 1.146771e+00 -3.962459e-01 1.302426e+00 2.685533e+00 1.125187e+00 2.045056e+00 1.031305e+00 6.858089e-01 6.155413e-01 1.003508e+00 3.697177e-01 4.390627e-02
<VARIANCE> 25
 2.897595e+01 2.737583e+01 3.641485e+01 3.942401e+01 5.661814e+01 3.460554e+01 3.365285e+01 3.991891e+01 3.269988e+01 3.331331e+01 2.244278e+01 2.655050e+01 2.944497e+00 3.777942e+00 3.649761e+00 5.171615e+00 4.600893e+00 5.490932e+00 4.419152e+00 4.485433e+00 4.245430e+00 4.562282e+00 4.071764e+00 3.026305e+00 2.074203e-03
<GCONST> 9.891905e+01
<MIXTURE> 39 9.501865e-03
<MEAN> 25
 1.367947e+00 1.869025e+00 9.877286e+00 -5.812969e+00 -1.226501e+01 -5.345531e-01 -3.404131e+00 -5.002054e+00 -4.710914e+00 8.752765e-01 -2.674658e+00 -1.526224e+00 -8.118990e-01 1.515081e+00 1.405331e+00 -1.382191e+00 -9.904882e-02 1.363104e+00 -1.347300e+00 -1.339357e+00 7.486615e-01 3.917224e-01 -5.554321e-01 3.646439e-01 9.902954e-04
<VARIANCE> 25
 6.966805e+00 2.449212e+01 2.545364e+01 5.446067e+01 3.301425e+01 3.504221e+01 4.276433e+01 3.358838e+01 3.504265e+01 3.125351e+01 3.023096e+01 2.506496e+01 5.833135e-01 1.207492e+00 1.375295e+00 2.261778e+00 2.332642e+00 2.365222e+00 3.058964e+00 2.174782e+00 2.206484e+00 2.052333e+00 1.739930e+00 1.982428e+00 9.351058e-04
<GCONST> 8.643410e+01
<MIXTURE> 40 1.030800e-02
<MEAN> 25
 -9.290484e+00 2.076654e+00 -1.171784e+00 7.919764e+00 3.913207e+00 5.369214e+00 5.316051e+00 4.205033e+00 4.643381e+00 4.180419e+00 5.629624e+00 1.673929e+00 -1.249223e-01 -2.371364e-01 -2.049399e-02 -2.084076e-01 -1.117258e-01 -1.165783e-01 5.694661e-02 9.199014e-02 -2.437617e-03 8.686636e-03 4.891012e-02 1.131371e-02 4.397550e-03
<VARIANCE> 25
 4.170669e+01 2.049999e+01 2.950948e+01 2.998975e+01 2.748569e+01 1.961395e+01 1.959392e+01 1.818666e+01 1.842457e+01 1.867146e+01 1.889682e+01 1.491325e+01 7.765762e-01 7.219688e-01 8.693125e-01 1.192088e+00 1.193595e+00 1.245015e+00 1.299421e+00 1.279773e+00 1.243105e+00 1.212828e+00 1.175368e+00 1.075743e+00 8.500223e-04
<GCONST> 7.706797e+01
<MIXTURE> 41 6.713375e-03
<MEAN> 25
 1.311438e+00 1.770098e+00 1.046012e+01 -6.887383e+00 -1.049423e+01 -3.826180e+00 -2.509331e+00 -5.017274e+00 -4.663598e+00 2.637026e+00 -1.731017e+00 -9.293371e-01 8.142288e-02 -7.553669e-01 1.692164e+00 -3.536788e+00 -2.467256e+00 -9.807951e-02 -5.226372e-01 -3.587468e-01 -8.226269e-01 1.081273e+00 -1.039346e+00 8.562620e-02 8.589815e-02
<VARIANCE> 25
 1.165011e+01 2.954922e+01 3.247901e+01 4.060665e+01 3.863743e+01 4.006236e+01 3.701250e+01 3.004213e+01 3.292338e+01 2.872302e+01 3.174838e+01 2.710502e+01 3.168732e+00 3.302114e+00 3.802690e+00 3.850186e+00 4.889622e+00 5.885478e+00 4.733225e+00 4.545656e+00 3.967686e+00 4.196597e+00 3.819031e+00 3.217471e+00 2.932729e-03
<GCONST> 9.789011e+01
<MIXTURE> 42 1.106211e-02
<MEAN> 25
 -1.929947e+00 3.985494e+00 3.401528e+00 2.012002e+00 1.060410e+00 -4.823738e+00 -6.424457e-02 -1.652482e+00 -1.165213e+00 -1.271993e+00 -2.027112e+00 6.199504e-01 3.805436e+00 -4.695038e-01 1.396064e+00 1.933926e-01 -3.108830e+00 -4.529083e-01 -2.153042e+00 -8.590969e-01 -1.436042e+00 -5.932277e-01 6.513190e-01 -5.685773e-01 9.006489e-03
<VARIANCE> 25
 3.052629e+01 2.150542e+01 4.103955e+01 2.749455e+01 4.462201e+01 4.042331e+01 3.376024e+01 3.120982e+01 2.243034e+01 2.290155e+01 1.754210e+01 2.036343e+01 3.927542e+00 4.039387e+00 4.686574e+00 4.758845e+00 4.196968e+00 5.802395e+00 4.153117e+00 4.541902e+00 4.678620e+00 4.071607e+00 3.292771e+00 3.119559e+00 3.652728e-03
<GCONST> 9.770279e+01
<MIXTURE> 43 7.108249e-03
<MEAN> 25
 3.165630e+00 -6.299940e+00 -2.242833e+00 -5.180702e+00 -7.398102e+00 -3.402103e+00 4.132028e+00 1.316749e+00 -5.063513e+00 -7.079857e+00 -4.318421e+00 -1.244699e+00 2.374370e-01 2.162409e+00 1.911986e+00 -1.354364e-01 -1.428006e+00 -7.934108e-01 -9.667068e-01 -7.826577e-01 8.229357e-01 1.466675e+00 3.420676e-01 2.280219e-02 -4.503233e-02
<VARIANCE> 25
 9.600158e+00 1.970434e+01 2.738127e+01 3.525875e+01 3.844461e+01 3.659050e+01 3.330745e+01 3.978894e+01 3.963760e+01 3.874452e+01 2.652411e+01 2.956849e+01 6.916232e-01 1.252398e+00 1.571573e+00 2.490466e+00 2.378945e+00 2.382717e+00 2.659957e+00 3.033081e+00 2.606937e+00 2.576259e+00 2.328892e+00 1.919641e+00 9.458380e-04
<GCONST> 8.798431e+01
<MIXTURE> 44 7.328289e-03
<MEAN> 25
 -1.378082e+01 1.569935e+00 2.923674e+00 -3.496797e+00 4.312854e+00 1.451796e+00 4.540263e-01 2.125411e+00 1.777973e+00 -3.958873e-01 1.731847e+00 1.774137e+00 -2.916554e-01 -3.493086e-02 1.872529e-01 3.329372e-01 -1.015707e-01 2.310432e-01 4.371122e-01 2.389666e-01 1.885887e-01 6.766397e-02 2.052733e-02 1.721928e-02 6.451217e-03
<VARIANCE> 25
 4.992796e+01 2.612721e+01 3.424387e+01 2.738164e+01 3.580669e+01 3.231696e+01 2.588133e+01 2.954576e+01 2.876093e+01 2.536157e+01 2.668476e+01 2.053905e+01 1.216174e+00 1.419037e+00 1.353902e+00 1.435925e+00 2.454436e+00 1.774170e+00 1.457774e+00 1.703048e+00 1.663727e+00 1.469840e+00 1.254751e+00 1.294776e+00 1.215196e-03
<GCONST> 8.481342e+01
<MIXTURE> 45 1.364932e-02
<MEAN> 25
 -1.025487e+01 4.697161e+00 -3.142307e+00 1.546580e+00 8.004580e+00 -5.742852e-01 5.038441e+00 1.682066e+00 2.973682e+00 1.613649e+00 1.388096e+00 1.251435e+00 -2.903813e+00 1.034328e+00 -4.880112e-01 -1.020494e-01 -2.728502e-01 3.136325e-02 4.863797e-01 3.616373e-01 -7.755923e-02 1.369468e-01 7.473905e-02 1.577307e-01 9.359901e-02
<VARIANCE> 25
 3.058123e+01 3.184731e+01 3.052894e+01 2.737377e+01 2.919592e+01 2.303941e+01 2.001177e+01 1.896868e+01 2.472878e+01 1.772829e+01 2.181268e+01 1.580845e+01 1.835781e+00 2.931317e+00 2.008674e+00 2.261605e+00 3.830755e+00 2.958905e+00 2.232718e+00 2.047087e+00 1.810759e+00 1.800483e+00 1.666489e+00 1.417221e+00 3.420430e-03
<GCONST> 8.744026e+01
<MIXTURE> 46 9.336259e-03
<MEAN> 25
 -9.401149e+00 2.197924e+00 8.493977e-01 7.096796e+00 5.959643e+00 3.287803e+00 7.046220e+00 4.436057e+00 5.933010e+00 4.595927e+00 5.006447e+00 2.827106e+00 1.029737e+00 -2.635488e-01 3.451827e-02 1.022546e+00 5.090741e-01 9.505917e-01 3.855423e-01 6.238981e-01 4.535616e-01 4.447009e-01 6.282627e-01 5.150188e-01 -1.006085e-01
<VARIANCE> 25
 3.332880e+01 4.299270e+01 4.005904e+01 5.238094e+01 5.182879e+01 4.060078e+01 3.560483e+01 3.442159e+01 3.470804e+01 3.014968e+01 2.789083e+01 2.139705e+01 3.937527e+00 4.032627e+00 3.818771e+00 4.101379e+00 4.273858e+00 3.674000e+00 3.409533e+00 3.203776e+00 3.011639e+00 2.859604e+00 2.248129e+00 1.734464e+00 8.197092e-03
<GCONST> 9.834178e+01
<MIXTURE> 47 7.116147e-03
<MEAN> 25
 7.074878e+00 -7.225089e+00 -7.714302e+00 -6.470322e+00 1.485319e+00 8.225548e-01 -2.279004e+00 1.355439e+00 3.186054e+00 2.321015e-01 -4.231413e+00 -6.649263e+00 -1.859982e-01 -1.216745e+00 -7.034445e-01 -4.353181e-01 6.274371e-01 7.743643e-01 8.922582e-01 2.667929e-01 1.242740e-01 -8.324284e-01 -4.548458e-01 -4.317700e-01 2.974698e-02
<VARIANCE> 25
 1.258029e+01 2.123512e+01 2.011597e+01 3.363425e+01 3.668443e+01 5.230668e+01 4.466801e+01 4.057771e+01 4.363183e+01 4.666887e+01 4.771115e+01 3.282719e+01 5.234357e-01 8.309315e-01 1.122141e+00 1.637646e+00 1.988644e+00 2.310499e+00 2.364585e+00 2.474649e+00 2.182968e+00 2.190369e+00 2.166867e+00 2.033924e+00 5.448204e-04
<GCONST> 8.668954e+01
<MIXTURE> 48 7.116147e-03
<MEAN> 25
 7.074878e+00 -7.225089e+00 -7.714302e+00 -6.470322e+00 1.485319e+00 8.225548e-01 -2.279004e+00 1.355439e+00 3.186054e+00 2.321015e-01 -4.231413e+00 -6.649263e+00 -1.859982e-01 -1.216745e+00 -7.034445e-01 -4.353181e-01 6.274371e-01 7.743643e-01 8.922582e-01 2.667929e-01 1.242740e-01 -8.324284e-01 -4.548458e-01 -4.317700e-01 2.974698e-02
<VARIANCE> 25
 1.258029e+01 2.123512e+01 2.011597e+01 3.363425e+01 3.668443e+01 5.230668e+01 4.466801e+01 4.057771e+01 4.363183e+01 4.666887e+01 4.771115e+01 3.282719e+01 5.234357e-01 8.309315e-01 1.122141e+00 1.637646e+00 1.988644e+00 2.310499e+00 2.364585e+00 2.474649e+00 2.182968e+00 2.190369e+00 2.166867e+00 2.033924e+00 5.448204e-04
<GCONST> 8.668954e+01
<MIXTURE> 49 5.548473e-03
<MEAN> 25
 -5.087413e+00 3.546844e-01 1.706273e-01 8.453805e+00 6.148569e+00 5.620664e+00 6.068994e+00 4.488375e+00 5.026372e+00 3.723335e+00 4.934920e+00 2.862813e+00 3.660309e-01 6.559638e-01 7.026308e-01 3.534171e-01 -1.966146e-01 -6.695549e-01 -1.009074e+00 -1.121594e+00 -9.561393e-01 -6.807097e-01 -4.928806e-01 -2.714971e-01 -2.000163e-05
<VARIANCE> 25
 9.598189e+00 1.003655e+01 1.425588e+01 1.587391e+01 1.589445e+01 1.713651e+01 1.943516e+01 1.942941e+01 1.823057e+01 1.795002e+01 2.063224e+01 1.428909e+01 2.804037e-01 2.632446e-01 3.594763e-01 6.115528e-01 8.694222e-01 9.741678e-01 9.925043e-01 1.052714e+00 1.135394e+00 1.219649e+00 1.280763e+00 1.208688e+00 1.434327e-05
<GCONST> 6.432168e+01
<MIXTURE> 50 6.234641e-03
<MEAN> 25
 -4.600117e+00 5.292023e-02 -1.476092e+00 6.160305e+00 4.225508e+00 2.372357e+00 3.743616e+00 1.975091e+00 2.890339e+00 1.288304e+00 2.135821e+00 2.778759e+00 5.305155e-02 1.649113e-01 8.689246e-02 -1.894815e-01 -5.168397e-01 -6.221457e-01 -4.561482e-01 -4.914245e-02 4.451140e-01 7.783903e-01 7.163610e-01 4.401157e-01 -3.296597e-05
<VARIANCE> 25
 1.078441e+01 1.115570e+01 1.422413e+01 1.537075e+01 1.516279e+01 1.911647e+01 1.846951e+01 1.926652e+01 1.936210e+01 1.842617e+01 2.142939e+01 1.539943e+01 1.439193e-01 2.465203e-01 3.807832e-01 5.236883e-01 5.943909e-01 7.299569e-01 1.016415e+00 1.105276e+00 1.048992e+00 9.003528e-01 9.493877e-01 9.796546e-01 1.020984e-06
<GCONST> 5.975027e+01
<MIXTURE> 51 6.234641e-03
<MEAN> 25
 -4.600117e+00 5.292023e-02 -1.476092e+00 6.160305e+00 4.225508e+00 2.372357e+00 3.743616e+00 1.975091e+00 2.890339e+00 1.288304e+00 2.135821e+00 2.778759e+00 5.305155e-02 1.649113e-01 8.689246e-02 -1.894815e-01 -5.168397e-01 -6.221457e-01 -4.561482e-01 -4.914245e-02 4.451140e-01 7.783903e-01 7.163610e-01 4.401157e-01 -3.296597e-05
<VARIANCE> 25
 1.078441e+01 1.115570e+01 1.422413e+01 1.537075e+01 1.516279e+01 1.911647e+01 1.846951e+01 1.926652e+01 1.936210e+01 1.842617e+01 2.142939e+01 1.539943e+01 1.439193e-01 2.465203e-01 3.807832e-01 5.236883e-01 5.943909e-01 7.299569e-01 1.016415e+00 1.105276e+00 1.048992e+00 9.003528e-01 9.493877e-01 9.796546e-01 1.020984e-06
<GCONST> 5.975027e+01
<MIXTURE> 52 6.367945e-03
<MEAN> 25
 9.982441e+00 1.986927e+00 -6.139432e+00 -1.369477e+01 -4.068113e+00 8.413395e+00 -2.425517e+00 -2.917188e+00 -4.579296e+00 -1.833707e+00 3.218776e+00 5.629613e-01 -3.636158e-01 -4.971555e-01 -2.387086e-02 1.109130e+00 1.314981e+00 -4.551280e-01 -6.455483e-01 -6.352453e-01 2.125204e-02 1.294298e+00 3.726113e-01 -5.297546e-01 -1.236146e-02
<VARIANCE> 25
 9.278625e+00 1.966496e+01 2.420950e+01 4.326968e+01 4.433501e+01 2.970872e+01 4.647519e+01 4.709776e+01 4.262319e+01 4.600029e+01 3.840947e+01 2.932454e+01 4.656229e-01 1.420713e+00 1.315701e+00 2.662944e+00 2.272215e+00 2.159956e+00 2.880867e+00 2.707421e+00 3.010764e+00 2.651949e+00 2.423859e+00 2.178848e+00 1.561792e-03
<GCONST> 8.935503e+01
<MIXTURE> 53 6.367945e-03
<MEAN> 25
 9.982441e+00 1.986927e+00 -6.139432e+00 -1.369477e+01 -4.068113e+00 8.413395e+00 -2.425517e+00 -2.917188e+00 -4.579296e+00 -1.833707e+00 3.218776e+00 5.629613e-01 -3.636158e-01 -4.971555e-01 -2.387086e-02 1.109130e+00 1.314981e+00 -4.551280e-01 -6.455483e-01 -6.352453e-01 2.125204e-02 1.294298e+00 3.726113e-01 -5.297546e-01 -1.236146e-02
<VARIANCE> 25
 9.278625e+00 1.966496e+01 2.420950e+01 4.326968e+01 4.433501e+01 2.970872e+01 4.647519e+01 4.709776e+01 4.262319e+01 4.600029e+01 3.840947e+01 2.932454e+01 4.656229e-01 1.420713e+00 1.315701e+00 2.662944e+00 2.272215e+00 2.159956e+00 2.880867e+00 2.707421e+00 3.010764e+00 2.651949e+00 2.423859e+00 2.178848e+00 1.561792e-03
<GCONST> 8.935503e+01
<MIXTURE> 54 7.368620e-03
<MEAN> 25
 -3.633801e+00 4.931954e-02 -6.831419e-01 8.036570e+00 6.484003e+00 4.625407e+00 4.675332e+00 4.601055e+00 4.053099e+00 3.593801e+00 4.457477e+00 2.326298e+00 -2.133210e-03 2.653849e-02 3.415401e-02 4.748240e-02 5.136495e-02 4.707923e-02 3.888674e-02 2.892036e-02 3.080963e-02 2.506088e-02 1.452187e-02 1.778039e-03 -1.219590e-05
<VARIANCE> 25
 9.137465e+00 1.036359e+01 9.295803e+00 1.818508e+01 1.332127e+01 1.353345e+01 1.197145e+01 1.128198e+01 1.134292e+01 1.354989e+01 1.780268e+01 1.253449e+01 4.087522e-02 8.734614e-02 1.540843e-01 2.265825e-01 3.079380e-01 3.969485e-01 4.608482e-01 5.215847e-01 5.420835e-01 5.211474e-01 5.144392e-01 5.164422e-01 1.000000e-06
<GCONST> 4.724841e+01
<MIXTURE> 55 7.368620e-03
<MEAN> 25
 -3.633801e+00 4.931954e-02 -6.831419e-01 8.036570e+00 6.484003e+00 4.625407e+00 4.675332e+00 4.601055e+00 4.053099e+00 3.593801e+00 4.457477e+00 2.326298e+00 -2.133210e-03 2.653849e-02 3.415401e-02 4.748240e-02 5.136495e-02 4.707923e-02 3.888674e-02 2.892036e-02 3.080963e-02 2.506088e-02 1.452187e-02 1.778039e-03 -1.219590e-05
<VARIANCE> 25
 9.137465e+00 1.036359e+01 9.295803e+00 1.818508e+01 1.332127e+01 1.353345e+01 1.197145e+01 1.128198e+01 1.134292e+01 1.354989e+01 1.780268e+01 1.253449e+01 4.087522e-02 8.734614e-02 1.540843e-01 2.265825e-01 3.079380e-01 3.969485e-01 4.608482e-01 5.215847e-01 5.420835e-01 5.211474e-01 5.144392e-01 5.164422e-01 1.000000e-06
<GCONST> 4.724841e+01
<MIXTURE> 56 6.132464e-03
<MEAN> 25
 7.284271e+00 -6.649111e+00 -9.049491e+00 -8.407253e+00 3.987139e+00 4.026932e+00 -1.991930e+00 -1.477775e+00 2.232703e+00 4.828918e-01 -2.515911e+00 -7.006649e+00 -1.333550e-02 3.091102e-02 -6.455909e-02 1.088436e-02 2.960291e-01 3.791706e-02 1.237030e-01 -1.576707e-01 -7.623391e-02 -4.447462e-02 -9.191243e-02 -1.430842e-02 -6.223944e-03
<VARIANCE> 25
 1.071876e+01 2.274642e+01 1.939676e+01 4.067577e+01 3.215973e+01 4.898594e+01 6.015873e+01 3.527591e+01 4.143679e+01 3.769521e+01 3.874363e+01 3.032745e+01 1.978499e-01 4.269092e-01 4.680482e-01 7.536963e-01 7.966173e-01 1.106013e+00 9.284838e-01 8.807619e-01 9.056249e-01 9.673126e-01 1.000691e+00 8.167761e-01 2.433169e-04
<GCONST> 7.506285e+01
<MIXTURE> 57 6.132464e-03
<MEAN> 25
 7.284271e+00 -6.649111e+00 -9.049491e+00 -8.407253e+00 3.987139e+00 4.026932e+00 -1.991930e+00 -1.477775e+00 2.232703e+00 4.828918e-01 -2.515911e+00 -7.006649e+00 -1.333550e-02 3.091102e-02 -6.455909e-02 1.088436e-02 2.960291e-01 3.791706e-02 1.237030e-01 -1.576707e-01 -7.623391e-02 -4.447462e-02 -9.191243e-02 -1.430842e-02 -6.223944e-03
<VARIANCE> 25
 1.071876e+01 2.274642e+01 1.939676e+01 4.067577e+01 3.215973e+01 4.898594e+01 6.015873e+01 3.527591e+01 4.143679e+01 3.769521e+01 3.874363e+01 3.032745e+01 1.978499e-01 4.269092e-01 4.680482e-01 7.536963e-01 7.966173e-01 1.106013e+00 9.284838e-01 8.807619e-01 9.056249e-01 9.673126e-01 1.000691e+00 8.167761e-01 2.433169e-04
<GCONST> 7.506285e+01
<MIXTURE> 58 6.172147e-03
<MEAN> 25
 2.558065e+00 -2.693903e+00 7.284534e+00 -3.627026e+00 -1.355072e+01 -4.826381e+00 -3.342274e-02 1.017936e+00 -3.377219e+00 1.305165e+00 6.328362e-01 6.378170e-01 1.165966e-02 -1.487156e-01 -1.189730e-01 -1.156659e-01 -3.493062e-03 1.766546e-01 1.827419e-01 2.185542e-01 8.816940e-04 1.982692e-02 -1.066873e-03 -1.967768e-01 -1.376875e-03
<VARIANCE> 25
 6.455626e+00 1.406941e+01 1.606076e+01 2.981003e+01 2.080621e+01 3.859647e+01 3.533018e+01 2.920984e+01 3.068425e+01 2.723346e+01 1.902739e+01 2.250658e+01 2.867037e-01 8.909529e-01 7.208445e-01 9.682639e-01 7.524281e-01 1.045106e+00 1.194468e+00 1.337167e+00 1.209955e+00 9.503638e-01 8.167335e-01 7.607087e-01 5.785038e-04
<GCONST> 7.375487e+01
<MIXTURE> 59 6.172147e-03
<MEAN> 25
 2.558065e+00 -2.693903e+00 7.284534e+00 -3.627026e+00 -1.355072e+01 -4.826381e+00 -3.342274e-02 1.017936e+00 -3.377219e+00 1.305165e+00 6.328362e-01 6.378170e-01 1.165966e-02 -1.487156e-01 -1.189730e-01 -1.156659e-01 -3.493062e-03 1.766546e-01 1.827419e-01 2.185542e-01 8.816940e-04 1.982692e-02 -1.066873e-03 -1.967768e-01 -1.376875e-03
<VARIANCE> 25
 6.455626e+00 1.406941e+01 1.606076e+01 2.981003e+01 2.080621e+01 3.859647e+01 3.533018e+01 2.920984e+01 3.068425e+01 2.723346e+01 1.902739e+01 2.250658e+01 2.867037e-01 8.909529e-01 7.208445e-01 9.682639e-01 7.524281e-01 1.045106e+00 1.194468e+00 1.337167e+00 1.209955e+00 9.503638e-01 8.167335e-01 7.607087e-01 5.785038e-04
<GCONST> 7.375487e+01
<MIXTURE> 60 4.479129e-03
<MEAN> 25
 -4.252007e+00 -6.724299e-01 -1.096366e+00 3.683962e+00 1.752198e+00 2.134208e+00 1.650689e+00 1.533110e+00 2.183736e+00 1.254039e+00 2.385088e+00 1.915720e+00 -2.935042e-02 5.614691e-02 1.008738e-01 1.306895e-01 1.297894e-01 1.223361e-01 1.767783e-01 3.200784e-01 5.496721e-01 6.687299e-01 5.553049e-01 3.083534e-01 -3.605064e-04
<VARIANCE> 25
 6.968486e+00 4.530854e+00 1.029883e+01 1.132913e+01 1.370205e+01 1.703963e+01 1.403158e+01 1.182595e+01 1.292172e+01 1.321655e+01 1.589325e+01 1.225977e+01 8.720557e-02 1.682254e-01 2.787995e-01 4.309998e-01 5.849289e-01 7.429640e-01 8.281083e-01 8.984094e-01 9.073107e-01 8.393415e-01 8.381220e-01 8.725122e-01 2.322514e-05
<GCONST> 5.641033e+01
<MIXTURE> 61 4.479129e-03
<MEAN> 25
 -4.252007e+00 -6.724299e-01 -1.096366e+00 3.683962e+00 1.752198e+00 2.134208e+00 1.650689e+00 1.533110e+00 2.183736e+00 1.254039e+00 2.385088e+00 1.915720e+00 -2.935042e-02 5.614691e-02 1.008738e-01 1.306895e-01 1.297894e-01 1.223361e-01 1.767783e-01 3.200784e-01 5.496721e-01 6.687299e-01 5.553049e-01 3.083534e-01 -3.605064e-04
<VARIANCE> 25
 6.968486e+00 4.530854e+00 1.029883e+01 1.132913e+01 1.370205e+01 1.703963e+01 1.403158e+01 1.182595e+01 1.292172e+01 1.321655e+01 1.589325e+01 1.225977e+01 8.720557e-02 1.682254e-01 2.787995e-01 4.309998e-01 5.849289e-01 7.429640e-01 8.281083e-01 8.984094e-01 9.073107e-01 8.393415e-01 8.381220e-01 8.725122e-01 2.322514e-05
<GCONST> 5.641033e+01
<MIXTURE> 62 3.278034e-03
<MEAN> 25
 -5.090882e+00 1.241071e+00 1.026068e+00 8.818391e+00 6.131017e+00 5.050757e+00 5.499551e+00 4.033818e+00 4.986322e+00 3.917765e+00 4.966440e+00 2.951090e+00 -1.003313e+00 -1.166677e+00 -9.532121e-01 -2.767621e-01 4.275909e-01 1.005062e+00 1.384621e+00 1.552196e+00 1.478764e+00 1.243518e+00 1.067131e+00 7.261537e-01 -1.264598e-03
<VARIANCE> 25
 9.873344e+00 9.959269e+00 1.311668e+01 1.673630e+01 1.741402e+01 1.752429e+01 1.970130e+01 1.911231e+01 1.886055e+01 1.872725e+01 2.156104e+01 1.479564e+01 4.017235e-01 4.320526e-01 5.541587e-01 7.793664e-01 1.035012e+00 1.192576e+00 1.252452e+00 1.279132e+00 1.329704e+00 1.363841e+00 1.400006e+00 1.371397e+00 1.632529e-05
<GCONST> 6.752670e+01
<MIXTURE> 63 4.351215e-03
<MEAN> 25
 -3.332603e+00 -2.256475e+00 -4.905763e+00 1.387085e+00 4.597599e+00 3.685054e-01 3.055423e+00 1.440541e+00 3.973676e+00 -1.667922e+00 -1.273085e+00 2.159391e+00 -1.122861e-01 3.202913e-01 4.136220e-01 5.084009e-01 4.412590e-01 2.142694e-01 3.336681e-01 1.413214e-01 2.891558e-01 2.975415e-01 2.761340e-01 2.292484e-01 -2.622308e-03
<VARIANCE> 25
 9.300087e+00 1.238093e+01 1.444557e+01 2.101487e+01 2.112881e+01 3.146054e+01 1.966163e+01 2.116905e+01 3.039994e+01 2.278340e+01 1.698907e+01 1.711108e+01 2.573327e-01 4.063160e-01 5.649944e-01 7.983760e-01 8.799545e-01 1.244935e+00 1.252716e+00 1.232342e+00 1.314848e+00 1.285489e+00 1.354221e+00 1.391216e+00 2.061927e-04
<GCONST> 7.129494e+01
<MIXTURE> 64 4.351215e-03
<MEAN> 25
 -3.332603e+00 -2.256475e+00 -4.905763e+00 1.387085e+00 4.597599e+00 3.685054e-01 3.055423e+00 1.440541e+00 3.973676e+00 -1.667922e+00 -1.273085e+00 2.159391e+00 -1.122861e-01 3.202913e-01 4.136220e-01 5.084009e-01 4.412590e-01 2.142694e-01 3.336681e-01 1.413214e-01 2.891558e-01 2.975415e-01 2.761340e-01 2.292484e-01 -2.622308e-03
<VARIANCE> 25
 9.300087e+00 1.238093e+01 1.444557e+01 2.101487e+01 2.112881e+01 3.146054e+01 1.966163e+01 2.116905e+01 3.039994e+01 2.278340e+01 1.698907e+01 1.711108e+01 2.573327e-01 4.063160e-01 5.649944e-01 7.983760e-01 8.799545e-01 1.244935e+00 1.252716e+00 1.232342e+00 1.314848e+00 1.285489e+00 1.354221e+00 1.391216e+00 2.061927e-04
<GCONST> 7.129494e+01
<MIXTURE> 65 1.721197e-02
<MEAN> 25
 7.829992e+00 1.310106e+00 1.922603e+00 1.276354e+00 -5.204348e+00 -3.267109e+00 -4.681858e+00 -6.201061e+00 -4.871652e+00 -1.142237e+00 -4.407943e+00 -1.702412e+00 1.316580e-01 1.241651e-01 -2.154976e-01 1.314952e-01 -2.162631e-01 3.151698e-01 -2.193148e-01 -1.029670e-01 2.130861e-01 1.876826e-01 -2.706426e-02 -2.095683e-01 -3.043044e-03
<VARIANCE> 25
 9.531451e+00 1.829439e+01 2.448586e+01 3.303855e+01 3.517212e+01 5.462979e+01 5.561714e+01 5.672091e+01 5.166406e+01 5.547528e+01 5.150346e+01 4.636988e+01 5.413386e-01 8.196321e-01 2.143520e+00 1.681303e+00 1.912951e+00 2.141535e+00 2.509501e+00 3.889599e+00 2.263103e+00 2.371449e+00 2.015712e+00 1.900483e+00 4.082829e-04
<GCONST> 8.853809e+01
<MIXTURE> 66 1.191532e-02
<MEAN> 25
 6.689750e+00 -4.045208e+00 -5.579957e+00 -4.818963e+00 1.321008e+00 -4.924187e+00 -6.781395e+00 1.180923e+00 6.382603e-01 -1.987488e+00 -5.943194e+00 -3.478908e+00 -7.573598e-02 1.660892e+00 2.222470e+00 2.267342e+00 -1.198835e+00 -1.243553e+00 7.267672e-02 -5.469061e-01 -1.278601e-01 -2.029669e-01 -1.877305e-01 1.045946e+00 -6.374582e-02
<VARIANCE> 25
 8.815466e+00 2.231508e+01 2.658978e+01 3.272492e+01 3.795216e+01 5.377278e+01 5.606338e+01 4.486647e+01 5.330494e+01 6.600564e+01 3.807011e+01 3.593110e+01 1.311322e+00 2.449963e+00 2.322737e+00 2.596295e+00 4.292326e+00 4.281478e+00 4.369171e+00 4.797733e+00 4.347193e+00 4.928473e+00 3.895584e+00 3.198988e+00 1.460028e-03
<GCONST> 9.681113e+01
<MIXTURE> 67 1.559142e-02
<MEAN> 25
 8.762795e+00 1.877712e+00 -5.770263e+00 -8.046951e+00 1.395104e+00 3.143100e+00 -2.545352e+00 -2.392201e+00 -3.799100e+00 3.611641e-01 5.447950e-01 -1.614055e+00 -1.063881e+00 1.729042e+00 1.106401e+00 2.796259e+00 1.312735e+00 -3.670856e-01 1.208022e+00 8.176375e-02 3.496933e-01 -1.466645e-02 -3.535072e-01 7.320484e-01 -1.231301e-01
<VARIANCE> 25
 1.052618e+01 3.642019e+01 2.746887e+01 4.983574e+01 4.497895e+01 4.819465e+01 6.074944e+01 4.999678e+01 5.836231e+01 5.351928e+01 5.171640e+01 4.348226e+01 2.010740e+00 3.329662e+00 2.909018e+00 4.802955e+00 4.256828e+00 4.544028e+00 4.465281e+00 4.631025e+00 5.820844e+00 5.056068e+00 5.043169e+00 3.389760e+00 2.984651e-03
<GCONST> 1.015191e+02
<MIXTURE> 68 1.485092e-02
<MEAN> 25
 -2.076514e+00 -2.239321e+00 -3.885767e+00 1.279619e+00 5.131932e+00 -4.843695e-01 2.242557e+00 1.799533e+00 1.902911e+00 1.488299e+00 3.165080e-01 1.586875e+00 2.777554e+00 5.166739e-01 7.064825e-02 -2.459181e+00 -2.362253e+00 -1.441773e+00 -2.275183e+00 -1.730266e+00 -1.768701e+00 -1.385266e+00 -1.817025e+00 -9.059584e-01 9.567870e-02
<VARIANCE> 25
 2.459348e+01 3.040273e+01 5.681635e+01 5.116333e+01 4.721127e+01 5.385554e+01 4.405114e+01 4.259338e+01 3.896597e+01 4.159097e+01 3.603619e+01 2.654318e+01 1.977060e+00 3.584550e+00 5.549309e+00 5.815546e+00 4.566982e+00 5.637023e+00 5.775439e+00 4.876852e+00 4.835163e+00 5.132445e+00 5.216527e+00 3.528646e+00 6.388483e-03
<GCONST> 1.032604e+02
<MIXTURE> 69 1.204884e-02
<MEAN> 25
 4.653054e+00 -4.204321e+00 -3.534253e+00 -3.616957e+00 -3.516338e+00 -7.829319e+00 -1.112442e+00 2.230863e+00 -3.486892e-01 -4.697869e+00 -5.671506e+00 9.604128e-01 1.679567e+00 -2.220891e+00 -1.328370e+00 -2.229130e+00 -5.400326e-01 -3.420414e-01 -4.733284e-01 6.076712e-01 -6.466858e-01 -1.446162e+00 -2.183908e+00 -1.662088e-01 6.226482e-02
<VARIANCE> 25
 8.914558e+00 2.177549e+01 2.687577e+01 2.601737e+01 4.270795e+01 3.575782e+01 4.874666e+01 3.162022e+01 3.970041e+01 3.794843e+01 3.094368e+01 2.467958e+01 3.538044e+00 2.934740e+00 3.328075e+00 3.712111e+00 5.765437e+00 5.004256e+00 7.091822e+00 6.064044e+00 5.894440e+00 5.853640e+00 4.382214e+00 3.692872e+00 2.439657e-03
<GCONST> 9.867952e+01
<MIXTURE> 70 1.329190e-02
<MEAN> 25
 7.317468e+00 -1.784131e+00 -4.033889e+00 -3.637158e+00 -1.608468e-01 -3.132959e-01 -6.648045e+00 -3.910613e+00 -9.085854e-02 2.949947e+00 4.792546e-01 -4.946996e+00 2.126294e+00 -1.058975e+00 -7.650891e-01 -2.060559e+00 -1.616778e+00 1.099186e+00 -1.219816e+00 -2.647942e-01 -3.136394e-02 -3.266430e-03 7.153836e-01 -1.114572e+00 5.016667e-02
<VARIANCE> 25
 9.505544e+00 2.084086e+01 2.536369e+01 4.332733e+01 3.391752e+01 4.055438e+01 5.209935e+01 3.962028e+01 4.608973e+01 3.002235e+01 4.423254e+01 2.458732e+01 3.825590e+00 2.896862e+00 4.327783e+00 4.811612e+00 4.778690e+00 6.066932e+00 6.301302e+00 7.667917e+00 6.632011e+00 4.919365e+00 5.266254e+00 5.007216e+00 2.874078e-03
<GCONST> 1.009126e+02
<MIXTURE> 71 1.406903e-02
<MEAN> 25
 5.335270e+00 5.568046e+00 4.139043e+00 2.343752e+00 -2.640233e+00 -3.263647e+00 -3.255891e+00 -7.090513e+00 -4.064957e+00 -1.926946e+00 -4.821316e+00 -2.820167e+00 -1.457372e+00 -5.098867e-01 -3.063081e-01 -1.836096e+00 1.802301e+00 -6.395037e-01 3.824271e-01 1.302816e+00 5.136259e-01 2.479803e-02 6.362935e-01 9.721760e-02 3.334217e-02
<VARIANCE> 25
 2.254750e+01 2.606294e+01 2.202523e+01 4.473874e+01 4.597288e+01 3.634584e+01 3.734710e+01 4.145898e+01 3.779412e+01 4.109802e+01 3.244299e+01 3.161917e+01 1.563998e+00 2.796090e+00 4.684540e+00 4.612147e+00 7.342113e+00 5.493980e+00 4.959523e+00 5.378876e+00 4.040524e+00 3.832146e+00 3.193023e+00 2.908198e+00 1.504494e-03
<GCONST> 9.826204e+01
<MIXTURE> 72 8.134747e-03
<MEAN> 25
 3.547070e+00 -3.324243e+00 4.924705e+00 -3.277722e-01 -1.045422e+01 -8.172429e+00 -3.186778e+00 3.292922e+00 -5.275638e+00 -1.576926e+00 -1.103400e+00 1.058280e+00 9.788090e-01 -9.410412e-01 -2.382793e+00 6.374810e-01 2.300704e+00 -8.468938e-01 -5.259305e-01 1.416588e+00 1.595495e+00 -6.136262e-01 -1.209898e+00 -1.179992e-01 -8.599034e-03
<VARIANCE> 25
 8.751674e+00 1.589858e+01 2.669107e+01 3.701461e+01 2.735895e+01 3.080264e+01 3.370676e+01 3.204653e+01 3.831871e+01 3.096643e+01 3.131354e+01 2.212417e+01 4.258552e-01 8.947675e-01 1.522282e+00 1.411827e+00 1.772042e+00 2.152038e+00 3.428789e+00 2.228679e+00 2.120633e+00 2.250069e+00 1.607969e+00 2.117032e+00 5.169367e-04
<GCONST> 8.351164e+01
<MIXTURE> 73 1.213625e-02
<MEAN> 25
 -5.637173e+00 -7.941312e-01 -1.337700e+00 4.727408e+00 4.243741e+00 2.308678e+00 5.436145e+00 3.472332e+00 4.431161e+00 3.329667e+00 4.197206e+00 2.965808e+00 7.605338e-01 -9.933360e-01 -9.146019e-01 -2.562709e+00 -1.315828e+00 -1.716120e+00 -8.491961e-01 -4.458296e-01 -9.138156e-01 -6.749743e-01 -1.087495e+00 -2.633288e-01 1.521048e-01
<VARIANCE> 25
 1.271478e+01 1.305935e+01 1.520551e+01 2.386658e+01 2.349882e+01 2.428394e+01 2.052715e+01 1.975116e+01 1.826027e+01 1.903543e+01 2.282089e+01 1.605179e+01 4.047880e+00 3.043007e+00 5.849524e+00 4.840076e+00 6.193311e+00 4.503554e+00 4.383478e+00 4.256299e+00 3.865769e+00 4.190635e+00 3.516015e+00 2.716301e+00 4.422550e-03
<GCONST> 9.278908e+01
<MIXTURE> 74 1.756491e-02
<MEAN> 25
 4.658493e+00 -1.760170e+00 4.910722e+00 -3.800201e-02 -8.786336e+00 -7.748603e+00 -2.715148e+00 7.381269e-01 -4.112389e+00 -2.963767e+00 -1.293123e+00 6.750556e-01 2.415920e-01 1.798907e+00 -1.240472e-02 1.449777e+00 1.566079e+00 1.926975e-01 3.735132e-01 -1.509634e+00 4.537549e-01 2.067315e-01 -2.250160e-01 -1.808312e-01 -7.332546e-02
<VARIANCE> 25
 1.094284e+01 1.995910e+01 3.371851e+01 4.073869e+01 3.428160e+01 3.831829e+01 4.638426e+01 4.178087e+01 4.373608e+01 4.311767e+01 3.688862e+01 3.133263e+01 1.974586e+00 2.046023e+00 3.460825e+00 2.768482e+00 4.382115e+00 3.580399e+00 5.041801e+00 4.374921e+00 4.048242e+00 3.557415e+00 3.215147e+00 3.194565e+00 1.700096e-03
<GCONST> 9.602542e+01
<MIXTURE> 75 9.711651e-03
<MEAN> 25
 2.289047e+00 -1.403026e+00 9.797112e+00 2.404056e+00 -1.125039e+01 -5.585577e+00 -4.335001e+00 -9.573786e-01 -4.062589e+00 -3.950274e+00 2.019800e+00 2.122124e+00 1.534026e+00 -1.517808e+00 5.451890e-01 1.006693e-01 -2.963574e+00 2.214905e-01 -1.864027e+00 8.590577e-01 -6.179577e-01 -3.961661e-01 8.108160e-01 -2.807560e-01 3.787285e-02
<VARIANCE> 25
 8.540257e+00 1.469279e+01 2.120509e+01 1.884221e+01 2.445776e+01 3.046516e+01 2.417244e+01 2.977576e+01 3.213215e+01 2.219025e+01 2.274054e+01 1.886610e+01 1.966658e+00 1.548720e+00 3.114597e+00 2.206799e+00 4.674053e+00 3.846804e+00 3.103346e+00 3.452413e+00 3.184180e+00 2.347330e+00 2.210993e+00 2.414546e+00 1.087144e-03
<GCONST> 8.775735e+01
<MIXTURE> 76 1.052359e-02
<MEAN> 25
 -5.491519e+00 -1.294092e+00 -2.392319e+00 1.820005e+00 5.205174e+00 1.353657e+00 4.269517e+00 1.327331e+00 3.682106e+00 1.802638e-01 9.586781e-01 2.202367e+00 -2.409718e-01 -4.663597e-01 -1.608327e-01 -6.755643e-01 -4.176736e-01 -8.428898e-01 -5.312961e-01 -3.244901e-02 -4.832186e-01 -3.324609e-01 -3.163343e-01 -2.366711e-01 2.028733e-02
<VARIANCE> 25
 3.099321e+01 2.112290e+01 3.026241e+01 3.035059e+01 3.652971e+01 2.823152e+01 2.543969e+01 2.558613e+01 2.762876e+01 2.250132e+01 2.587929e+01 1.877516e+01 1.039741e+00 8.835456e-01 1.222807e+00 1.291301e+00 1.753235e+00 1.403320e+00 1.623648e+00 1.755208e+00 1.634776e+00 1.592326e+00 1.534041e+00 1.197287e+00 9.475524e-04
<GCONST> 8.221166e+01
<MIXTURE> 77 1.244626e-02
<MEAN> 25
 -4.837369e-01 8.367708e+00 1.230404e+01 -1.105433e+01 -7.359702e+00 1.066436e+00 -9.413359e+00 -7.131158e+00 -3.534761e+00 -2.350402e-01 -4.324009e+00 -1.298396e+00 6.134539e-02 1.512109e-01 3.253948e-02 2.389989e-01 1.660365e-02 6.309094e-02 -5.126690e-02 -2.646292e-02 3.562575e-02 -4.192634e-02 -3.564248e-03 1.168741e-01 -9.489628e-03
<VARIANCE> 25
 1.004357e+01 2.032391e+01 2.699270e+01 4.682335e+01 3.473123e+01 3.303048e+01 3.595504e+01 3.092965e+01 3.445932e+01 3.211357e+01 3.853913e+01 3.444098e+01 2.943307e-01 7.726743e-01 6.640388e-01 1.049035e+00 1.284031e+00 9.769094e-01 1.227965e+00 1.073924e+00 1.080531e+00 1.029572e+00 9.880286e-01 9.134030e-01 5.252463e-04
<GCONST> 7.777980e+01
<MIXTURE> 78 9.702551e-03
<MEAN> 25
 -1.145705e+01 2.063097e+00 -2.408012e+00 1.406517e+00 5.495361e+00 -2.037777e+00 4.167149e+00 3.246330e+00 3.375209e+00 5.475656e-01 -6.016823e-01 1.559092e+00 2.400439e+00 -5.843486e-01 4.237516e-01 4.645196e-01 -1.404166e-01 3.330523e-01 -4.462042e-01 -2.041359e-01 -1.554599e-01 -2.029861e-02 -9.107476e-02 -5.111958e-01 -5.915393e-02
<VARIANCE> 25
 3.848369e+01 3.298671e+01 3.015557e+01 3.013647e+01 4.114171e+01 3.159206e+01 2.899061e+01 3.060256e+01 2.809016e+01 2.404465e+01 2.316083e+01 2.700111e+01 5.238023e+00 2.744085e+00 2.649350e+00 2.977926e+00 2.701831e+00 3.309389e+00 2.792943e+00 2.881930e+00 3.019527e+00 2.102696e+00 2.438310e+00 1.825638e+00 4.222274e-03
<GCONST> 9.369836e+01
<MIXTURE> 79 1.156824e-02
<MEAN> 25
 2.472565e+00 1.076767e+00 8.965594e+00 -5.626398e+00 -1.235507e+01 -1.678633e+00 -2.719215e+00 -5.618876e+00 -7.008127e+00 3.483353e-01 -2.848274e+00 -2.517728e+00 1.238504e+00 -5.535150e-01 -1.446460e+00 2.325729e+00 5.232944e-01 -1.522324e+00 5.465631e-01 9.172263e-01 -3.952001e-01 -6.160513e-01 3.026333e-01 2.239512e-01 -3.463852e-02
<VARIANCE> 25
 1.299120e+01 2.425422e+01 3.525673e+01 5.247128e+01 3.127607e+01 3.962845e+01 4.381026e+01 3.915547e+01 3.724789e+01 3.617354e+01 4.451506e+01 3.273947e+01 8.900454e-01 2.069427e+00 1.714891e+00 1.965004e+00 2.510613e+00 2.599502e+00 2.952595e+00 3.296881e+00 2.365142e+00 2.584022e+00 2.182294e+00 1.880525e+00 1.140688e-03
<GCONST> 9.070599e+01
<MIXTURE> 80 7.550998e-03
<MEAN> 25
 -1.451872e+01 4.087905e+00 4.323092e-01 2.685690e+00 2.815130e+00 1.431345e+00 6.356247e+00 2.754080e+00 2.923408e+00 2.311364e+00 4.695402e+00 8.105010e-01 4.333869e+00 -1.220617e-01 1.637639e+00 -1.145584e+00 -2.811114e+00 -2.618529e+00 -2.289080e+00 -2.049243e+00 -2.022954e+00 -1.615831e+00 -1.512400e+00 -6.039841e-01 -4.598280e-02
<VARIANCE> 25
 2.050381e+01 1.956248e+01 3.491513e+01 3.434401e+01 3.264328e+01 2.820866e+01 2.732662e+01 2.989625e+01 2.693217e+01 2.790885e+01 2.650445e+01 2.112143e+01 2.366196e+00 2.852829e+00 2.577191e+00 3.983227e+00 3.447273e+00 3.235966e+00 2.945033e+00 3.123246e+00 2.712421e+00 2.720725e+00 3.174422e+00 2.068601e+00 1.551018e-03
<GCONST> 9.179241e+01
<MIXTURE> 81 8.025434e-03
<MEAN> 25
 -1.118445e+00 4.064717e+00 1.017319e+01 -1.478729e+01 -9.079921e+00 -1.419751e+00 -6.763671e+00 -8.418725e+00 -4.147551e+00 -4.133719e-01 -7.567428e+00 -2.240784e+00 1.332045e-01 -5.858672e-01 -3.292392e-03 -5.559540e-01 -4.621901e-01 3.332975e-01 3.211114e-01 1.362042e-01 -1.394954e-01 1.065229e-01 -4.697636e-01 -1.242738e-01 1.149870e-02
<VARIANCE> 25
 1.014143e+01 3.277729e+01 2.649054e+01 2.950763e+01 3.373295e+01 3.053641e+01 4.548007e+01 2.830793e+01 3.801840e+01 3.187407e+01 2.532637e+01 3.108083e+01 7.730642e-01 2.277487e+00 1.545304e+00 2.869896e+00 2.669606e+00 2.127687e+00 3.285598e+00 2.290376e+00 2.356101e+00 2.536603e+00 2.297620e+00 2.078106e+00 1.182680e-03
<GCONST> 8.870244e+01
<MIXTURE> 82 8.213053e-03
<MEAN> 25
 -9.929086e+00 -3.873533e+00 1.605336e+00 -2.978926e+00 3.149811e+00 6.697227e-01 1.999529e+00 9.537094e-01 3.002723e+00 1.720769e+00 1.741788e+00 3.061471e+00 -1.312942e+00 -1.230714e-01 2.892099e-01 -2.582366e+00 -1.116892e+00 -1.258163e+00 -9.956938e-01 -8.560571e-01 -3.164471e-01 -4.711260e-01 -3.174339e-01 -9.727699e-02 1.775686e-01
<VARIANCE> 25
 1.812030e+01 2.497624e+01 3.234521e+01 3.075782e+01 3.318748e+01 3.210580e+01 3.167026e+01 3.287168e+01 3.087196e+01 2.498307e+01 3.079058e+01 1.763377e+01 3.734341e+00 3.028431e+00 3.301263e+00 3.320322e+00 3.604435e+00 3.285601e+00 2.974338e+00 3.033308e+00 2.788126e+00 2.491760e+00 2.449091e+00 1.877868e+00 3.505916e-03
<GCONST> 9.313104e+01
<MIXTURE> 83 1.167529e-02
<MEAN> 25
 -1.954847e+01 6.713896e+00 -3.984447e+00 -3.289654e-01 8.857504e+00 -8.244109e-01 5.701445e+00 2.687227e+00 2.093716e+00 1.994647e+00 -6.686211e-02 9.883454e-01 -1.267392e-01 -5.786178e-01 1.775752e-01 -3.152284e-01 -5.103322e-01 -1.288307e-01 -2.413230e-01 1.836188e-01 2.578703e-01 -2.354923e-01 1.831818e-02 -6.859767e-02 3.295787e-03
<VARIANCE> 25
 7.949234e+00 1.824649e+01 3.813118e+01 1.878576e+01 2.068446e+01 2.015364e+01 1.959138e+01 2.053777e+01 1.953317e+01 2.109452e+01 2.166164e+01 2.335332e+01 1.093951e+00 8.165479e-01 1.258307e+00 8.947864e-01 1.159022e+00 1.038475e+00 1.103940e+00 1.488044e+00 1.380458e+00 1.241957e+00 1.048114e+00 8.799978e-01 8.499823e-04
<GCONST> 7.585100e+01
<MIXTURE> 84 1.066614e-02
<MEAN> 25
 1.145139e+00 8.964990e+00 7.153834e+00 7.732955e+00 2.953722e+00 -1.016801e+00 -1.514343e+00 -4.513787e+00 -4.044130e+00 -2.820015e+00 -2.387119e+00 -1.568072e+00 -1.771714e+00 -1.152007e+00 -1.197282e+00 1.230607e+00 2.310653e+00 1.438360e+00 1.456773e+00 1.274552e+00 1.161742e+00 4.224893e-01 4.158278e-01 4.258094e-01 -7.057880e-02
<VARIANCE> 25
 2.324667e+01 1.827136e+01 2.167872e+01 2.708732e+01 3.044451e+01 2.861307e+01 2.755499e+01 2.638501e+01 2.520501e+01 2.531604e+01 2.326847e+01 2.423791e+01 2.072506e+00 2.560731e+00 3.787712e+00 3.454378e+00 3.424289e+00 3.565027e+00 3.263235e+00 3.427021e+00 3.459133e+00 3.237487e+00 3.555798e+00 2.759394e+00 3.520924e-03
<GCONST> 9.273338e+01
<MIXTURE> 85 7.591393e-03
<MEAN> 25
 -3.345547e+00 8.043810e+00 5.551381e+00 9.196315e-01 -3.204180e+00 -4.909832e+00 -2.731285e+00 -6.368828e+00 -3.240402e+00 -3.075355e+00 -3.350946e-01 -1.927430e+00 3.850444e+00 2.133678e-01 1.780230e+00 -1.946750e+00 -3.531208e+00 -2.431324e+00 -2.873666e+00 -2.321299e+00 -2.199605e+00 -1.150197e+00 -2.107212e+00 -6.122867e-01 8.739641e-03
<VARIANCE> 25
 4.136030e+01 2.360323e+01 3.532822e+01 3.845745e+01 4.042969e+01 4.184051e+01 3.138890e+01 2.756371e+01 2.719395e+01 2.504210e+01 2.540417e+01 2.002408e+01 2.819405e+00 4.291223e+00 3.862246e+00 5.310742e+00 4.504369e+00 4.011837e+00 3.673666e+00 3.814927e+00 3.753551e+00 4.010231e+00 4.325281e+00 3.337134e+00 5.179099e-03
<GCONST> 9.816316e+01
<MIXTURE> 86 1.273941e-02
<MEAN> 25
 -4.961299e+00 -1.214055e+00 -8.077511e-01 6.318955e+00 5.023358e+00 4.684319e+00 5.317976e+00 4.566595e+00 4.678353e+00 3.895103e+00 5.328815e+00 2.697404e+00 -7.131333e-03 -8.783882e-03 -3.845704e-02 -6.564102e-02 -1.171381e-01 -1.892510e-01 -2.681660e-01 -3.319807e-01 -3.481733e-01 -3.134217e-01 -2.303483e-01 -1.031314e-01 -5.236305e-04
<VARIANCE> 25
 7.938475e+00 5.628915e+00 1.000776e+01 1.238273e+01 1.586383e+01 1.435118e+01 1.352084e+01 1.303189e+01 1.326980e+01 1.438751e+01 1.432882e+01 1.275556e+01 1.000519e-01 1.930864e-01 3.178565e-01 4.831589e-01 6.352988e-01 7.408043e-01 7.448208e-01 7.623720e-01 8.397900e-01 8.958436e-01 9.108948e-01 9.102209e-01 5.361455e-05
<GCONST> 5.818027e+01
<MIXTURE> 87 1.100681e-02
<MEAN> 25
 -3.268800e+00 4.568661e+00 3.452168e+00 6.640087e+00 5.760582e+00 7.315192e-01 1.616768e+00 -1.060294e+00 -5.056823e-01 -7.785472e-01 -7.900648e-01 -3.876704e-02 -2.117809e+00 -2.708939e+00 -2.073382e+00 -2.201805e+00 7.760374e-02 -2.244110e-01 6.426814e-01 1.289634e+00 1.384461e+00 1.037984e+00 9.518071e-01 9.818073e-01 1.017312e-01
<VARIANCE> 25
 3.717204e+01 2.932619e+01 2.754026e+01 3.749921e+01 2.914146e+01 3.219146e+01 2.747002e+01 2.821783e+01 2.560328e+01 2.448885e+01 2.422546e+01 2.290413e+01 3.791139e+00 2.839785e+00 3.851025e+00 3.606246e+00 5.564764e+00 4.390069e+00 4.101551e+00 3.824174e+00 3.488786e+00 3.313158e+00 3.348261e+00 2.679925e+00 5.119269e-03
<GCONST> 9.646034e+01
<MIXTURE> 88 1.256585e-02
<MEAN> 25
 -4.289620e+00 -1.013976e+00 -1.869163e+00 4.134180e+00 5.462186e+00 2.834848e+00 4.577983e+00 3.334686e+00 4.385023e+00 1.529079e+00 2.407586e+00 2.209946e+00 -2.982224e-02 4.594897e-02 3.937163e-01 5.451897e-01 7.247538e-02 6.929164e-02 -1.085684e-01 -6.686505e-02 -3.991978e-01 -1.469074e-01 -2.549571e-01 -1.407656e-01 -2.548249e-03
<VARIANCE> 25
 9.032759e+00 8.721900e+00 1.473833e+01 2.265998e+01 2.736254e+01 2.063153e+01 1.925915e+01 1.828490e+01 1.949247e+01 1.869583e+01 2.183541e+01 1.493655e+01 1.374125e+00 1.419295e+00 2.267195e+00 2.276085e+00 2.825758e+00 2.823146e+00 2.541793e+00 2.484150e+00 3.024876e+00 2.324331e+00 2.549989e+00 2.060340e+00 1.447844e-03
<GCONST> 8.331039e+01
<MIXTURE> 89 9.333527e-03
<MEAN> 25
 5.944599e+00 -6.083200e+00 -3.283170e+00 -1.811456e+00 -1.828538e+00 -5.353665e+00 -5.780799e+00 4.227190e+00 2.239872e+00 -1.845379e+00 -5.448446e+00 -3.252656e+00 -6.680754e-01 1.293466e-01 2.078748e+00 8.487943e-01 -1.846830e+00 -1.754023e+00 8.448323e-01 1.372254e+00 -6.728373e-01 -1.295816e+00 3.974400e-01 1.490714e+00 2.582558e-04
<VARIANCE> 25
 8.212833e+00 2.753806e+01 2.822239e+01 4.376541e+01 3.973496e+01 3.819434e+01 5.333241e+01 3.864580e+01 4.711031e+01 4.435932e+01 3.319282e+01 3.159047e+01 3.808087e-01 7.420670e-01 1.478612e+00 1.251985e+00 1.689385e+00 2.020184e+00 2.428925e+00 2.093178e+00 2.058346e+00 1.961270e+00 2.021896e+00 1.341486e+00 4.735199e-04
<GCONST> 8.498679e+01
<MIXTURE> 90 7.114505e-03
<MEAN> 25
 2.444420e+00 -9.710816e+00 -4.751362e+00 -3.981582e+00 -3.373068e+00 -1.815447e+00 3.363587e+00 1.186488e+00 -7.521527e+00 -1.020427e+01 -3.429454e+00 -7.346228e-01 -1.633563e-01 9.088664e-01 1.167160e+00 -8.534262e-01 -1.611548e+00 -2.125064e-01 6.436394e-01 -2.086433e-01 -1.684430e-01 7.359761e-01 1.843697e-01 -5.495577e-01 -1.113493e-02
<VARIANCE> 25
 8.504749e+00 1.787020e+01 1.984922e+01 2.802736e+01 3.700358e+01 3.215624e+01 3.850620e+01 3.637032e+01 3.527779e+01 2.777365e+01 2.696818e+01 2.613256e+01 2.236493e-01 6.120597e-01 7.876013e-01 1.041860e+00 1.470450e+00 1.589998e+00 1.779724e+00 1.658278e+00 1.809809e+00 1.677031e+00 1.495306e+00 1.307786e+00 2.149586e-04
<GCONST> 7.814444e+01
<MIXTURE> 91 7.852945e-03
<MEAN> 25
 6.314852e+00 -7.493281e+00 -8.306071e+00 -5.110580e+00 4.072652e+00 -1.450986e-01 -2.000480e+00 9.247940e-01 8.917666e-01 -2.520135e+00 -4.674512e+00 -5.211092e+00 2.583447e-01 1.004542e+00 2.235248e-01 3.434473e-01 4.364258e-02 -5.822224e-01 -2.667287e-01 -1.665211e-01 -1.538739e-01 4.523357e-01 1.427169e-02 2.205571e-01 -3.513246e-02
<VARIANCE> 25
 1.034344e+01 2.218200e+01 1.992023e+01 3.892444e+01 3.389449e+01 5.259859e+01 5.229855e+01 3.827325e+01 5.000929e+01 6.361258e+01 3.716617e+01 3.929638e+01 4.348644e-01 8.551477e-01 1.103091e+00 1.510793e+00 2.329074e+00 2.258876e+00 2.546387e+00 2.350746e+00 2.209204e+00 2.116437e+00 2.239637e+00 1.752999e+00 6.022087e-04
<GCONST> 8.694154e+01
<MIXTURE> 92 7.852945e-03
<MEAN> 25
 6.314852e+00 -7.493281e+00 -8.306071e+00 -5.110580e+00 4.072652e+00 -1.450986e-01 -2.000480e+00 9.247940e-01 8.917666e-01 -2.520135e+00 -4.674512e+00 -5.211092e+00 2.583447e-01 1.004542e+00 2.235248e-01 3.434473e-01 4.364258e-02 -5.822224e-01 -2.667287e-01 -1.665211e-01 -1.538739e-01 4.523357e-01 1.427169e-02 2.205571e-01 -3.513246e-02
<VARIANCE> 25
 1.034344e+01 2.218200e+01 1.992023e+01 3.892444e+01 3.389449e+01 5.259859e+01 5.229855e+01 3.827325e+01 5.000929e+01 6.361258e+01 3.716617e+01 3.929638e+01 4.348644e-01 8.551477e-01 1.103091e+00 1.510793e+00 2.329074e+00 2.258876e+00 2.546387e+00 2.350746e+00 2.209204e+00 2.116437e+00 2.239637e+00 1.752999e+00 6.022087e-04
<GCONST> 8.694154e+01
<MIXTURE> 93 6.122769e-03
<MEAN> 25
 -6.781028e+00 -9.745962e-01 -2.408693e+00 5.781026e+00 5.900533e+00 3.960052e+00 6.127899e+00 3.594137e+00 4.166819e+00 2.445619e+00 1.810210e+00 3.668113e+00 -6.254634e-02 -1.578776e-01 -2.596777e-01 -3.368980e-01 -3.373821e-01 -2.896925e-01 -2.334056e-01 -1.725298e-01 -1.613937e-01 -1.433137e-01 -1.105902e-01 -3.523879e-02 -1.358684e-05
<VARIANCE> 25
 9.381534e+00 6.023133e+00 8.144547e+00 1.135256e+01 1.143729e+01 1.612667e+01 1.519379e+01 1.638790e+01 1.505077e+01 1.514945e+01 1.670203e+01 1.361391e+01 8.238347e-02 1.545521e-01 2.631090e-01 3.829769e-01 4.970936e-01 6.432253e-01 8.162452e-01 8.827324e-01 9.164364e-01 8.803827e-01 8.936302e-01 9.125907e-01 1.010543e-06
<GCONST> 5.374867e+01
<MIXTURE> 94 6.122769e-03
<MEAN> 25
 -6.781028e+00 -9.745962e-01 -2.408693e+00 5.781026e+00 5.900533e+00 3.960052e+00 6.127899e+00 3.594137e+00 4.166819e+00 2.445619e+00 1.810210e+00 3.668113e+00 -6.254634e-02 -1.578776e-01 -2.596777e-01 -3.368980e-01 -3.373821e-01 -2.896925e-01 -2.334056e-01 -1.725298e-01 -1.613937e-01 -1.433137e-01 -1.105902e-01 -3.523879e-02 -1.358684e-05
<VARIANCE> 25
 9.381534e+00 6.023133e+00 8.144547e+00 1.135256e+01 1.143729e+01 1.612667e+01 1.519379e+01 1.638790e+01 1.505077e+01 1.514945e+01 1.670203e+01 1.361391e+01 8.238347e-02 1.545521e-01 2.631090e-01 3.829769e-01 4.970936e-01 6.432253e-01 8.162452e-01 8.827324e-01 9.164364e-01 8.803827e-01 8.936302e-01 9.125907e-01 1.010543e-06
<GCONST> 5.374867e+01
<MIXTURE> 95 5.258835e-03
<MEAN> 25
 -5.818667e+00 -7.414856e-01 -1.991976e+00 4.891599e+00 4.222094e+00 2.815773e+00 4.172485e+00 1.663574e+00 2.242006e+00 8.631988e-01 1.197915e+00 2.589118e+00 1.448691e-01 1.455205e-01 8.395454e-02 -8.507976e-02 -3.788163e-01 -7.180774e-01 -1.057683e+00 -1.280518e+00 -1.262565e+00 -9.904225e-01 -6.502842e-01 -3.077563e-01 -1.394181e-04
<VARIANCE> 25
 1.028127e+01 6.487037e+00 1.222285e+01 1.278924e+01 1.396702e+01 1.833634e+01 1.789616e+01 1.689012e+01 1.557228e+01 1.547339e+01 1.995847e+01 1.435538e+01 2.094701e-01 2.940131e-01 4.548886e-01 6.316727e-01 8.000461e-01 8.954536e-01 9.154508e-01 9.243547e-01 9.722819e-01 1.077846e+00 1.158598e+00 1.113661e+00 4.197370e-05
<GCONST> 6.328661e+01
<MIXTURE> 96 7.034694e-03
<MEAN> 25
 -5.096617e+00 -4.548323e-01 -2.243812e+00 5.163442e+00 3.866025e+00 1.791500e+00 3.541564e+00 1.804454e+00 2.453324e+00 9.500268e-01 1.147328e+00 2.837060e+00 -2.968572e-02 8.781718e-02 2.134452e-01 4.057709e-01 5.389190e-01 4.999178e-01 2.461856e-01 -1.265927e-01 -4.634682e-01 -6.517519e-01 -6.085007e-01 -3.674148e-01 -1.581725e-05
<VARIANCE> 25
 1.101269e+01 9.725793e+00 1.288797e+01 1.428386e+01 1.502157e+01 1.952103e+01 1.807640e+01 1.930165e+01 1.800627e+01 1.660934e+01 1.976781e+01 1.453522e+01 1.204454e-01 2.181620e-01 3.166946e-01 3.977613e-01 4.946341e-01 6.606441e-01 8.674805e-01 9.963814e-01 9.568296e-01 8.641497e-01 8.866692e-01 9.406790e-01 9.999957e-07
<GCONST> 5.757112e+01
<MIXTURE> 97 7.034694e-03
<MEAN> 25
 -5.096617e+00 -4.548323e-01 -2.243812e+00 5.163442e+00 3.866025e+00 1.791500e+00 3.541564e+00 1.804454e+00 2.453324e+00 9.500268e-01 1.147328e+00 2.837060e+00 -2.968572e-02 8.781718e-02 2.134452e-01 4.057709e-01 5.389190e-01 4.999178e-01 2.461856e-01 -1.265927e-01 -4.634682e-01 -6.517519e-01 -6.085007e-01 -3.674148e-01 -1.581725e-05
<VARIANCE> 25
 1.101269e+01 9.725793e+00 1.288797e+01 1.428386e+01 1.502157e+01 1.952103e+01 1.807640e+01 1.930165e+01 1.800627e+01 1.660934e+01 1.976781e+01 1.453522e+01 1.204454e-01 2.181620e-01 3.166946e-01 3.977613e-01 4.946341e-01 6.606441e-01 8.674805e-01 9.963814e-01 9.568296e-01 8.641497e-01 8.866692e-01 9.406790e-01 9.999957e-07
<GCONST> 5.757112e+01
<MIXTURE> 98 9.917808e-03
<MEAN> 25
 -1.404870e+00 6.501313e-01 -5.123152e-01 1.767144e+00 5.635335e+00 2.428973e+00 2.345537e+00 1.554019e+00 2.971136e+00 4.755971e-01 2.064744e-01 -1.516553e-01 -1.498712e+00 -1.320460e+00 -1.112501e+00 7.143247e-02 5.182680e-01 9.063211e-01 5.022410e-01 1.268834e+00 1.933498e+00 9.306259e-01 1.205342e+00 6.201097e-01 -3.181844e-02
<VARIANCE> 25
 1.498589e+01 1.644567e+01 2.496751e+01 3.504137e+01 4.575772e+01 3.747544e+01 2.728347e+01 2.691241e+01 2.741164e+01 3.093245e+01 2.096105e+01 2.329324e+01 1.173593e+00 1.187546e+00 2.235512e+00 2.041934e+00 3.225631e+00 3.508462e+00 3.791607e+00 2.743804e+00 3.390409e+00 2.487875e+00 2.390381e+00 1.786283e+00 1.964509e-03
<GCONST> 8.917795e+01
<MIXTURE> 99 6.696178e-03
<MEAN> 25
 -6.255370e+00 9.577977e+00 6.301777e+00 2.745520e+00 1.365684e+00 -4.909355e+00 -1.267445e+00 -4.315308e+00 -2.797894e+00 -3.230274e+00 -1.781727e+00 9.630442e-01 4.882194e-01 -6.365316e-01 4.407004e-01 -3.578751e-01 -1.382793e+00 -3.953622e-01 -3.950214e-01 -3.552001e-01 -7.157235e-02 -1.121887e-01 2.501055e-01 8.038051e-02 1.205614e-02
<VARIANCE> 25
 3.478034e+01 2.767077e+01 4.351677e+01 3.280104e+01 3.954738e+01 3.356919e+01 2.690338e+01 2.968258e+01 2.742432e+01 2.633164e+01 1.890372e+01 3.022682e+01 2.173517e+00 1.801482e+00 1.447351e+00 1.621926e+00 3.705426e+00 2.306175e+00 1.660121e+00 1.810239e+00 1.485294e+00 1.514046e+00 1.180255e+00 1.422195e+00 1.401223e-03
<GCONST> 8.710616e+01
<MIXTURE> 100 4.498084e-03
<MEAN> 25
 -1.812653e+00 6.453012e+00 9.835233e+00 -6.641596e+00 -1.028630e+01 -4.678555e+00 -4.636998e+00 -1.005856e+01 -4.358375e+00 -5.934366e-01 -2.159569e+00 -2.546004e+00 2.851995e+00 -1.424129e+00 1.375162e+00 -1.656490e+00 -3.669564e+00 -6.620575e-01 -1.480125e+00 -6.737975e-01 -1.600752e+00 3.467455e-01 -1.308314e+00 -1.168232e-01 2.398764e-03
<VARIANCE> 25
 1.254940e+01 1.953268e+01 2.152470e+01 2.869831e+01 2.266502e+01 2.246819e+01 2.912156e+01 1.912012e+01 2.505096e+01 2.149739e+01 2.284478e+01 1.978194e+01 1.618770e+00 3.658469e+00 2.612675e+00 5.536474e+00 4.116990e+00 4.075980e+00 3.972155e+00 4.119870e+00 3.781689e+00 3.419925e+00 4.214788e+00 3.100672e+00 1.476713e-03
<GCONST> 9.151009e+01
<MIXTURE> 101 6.007792e-03
<MEAN> 25
 7.952040e+00 -3.692942e+00 -6.183827e+00 -6.279387e+00 8.543756e-01 -1.060868e+00 -1.005754e+01 -1.558514e+00 1.733836e+00 2.836921e+00 -2.652369e+00 -5.123868e+00 7.073508e-01 6.170460e-01 -1.400730e+00 -1.653915e+00 1.124542e+00 2.211854e+00 1.841030e-01 -1.455323e+00 -1.054164e+00 1.035193e+00 1.414520e+00 -4.248986e-01 -5.588483e-03
<VARIANCE> 25
 9.117007e+00 1.638411e+01 2.861170e+01 4.559354e+01 3.420254e+01 3.470206e+01 3.907350e+01 3.814697e+01 3.651028e+01 4.174976e+01 5.007523e+01 2.280736e+01 2.970291e-01 6.647773e-01 1.161740e+00 1.498320e+00 1.716597e+00 2.159600e+00 2.005570e+00 1.897983e+00 2.235925e+00 2.089442e+00 1.760948e+00 1.839310e+00 3.394186e-04
<GCONST> 8.319040e+01
<MIXTURE> 102 6.007792e-03
<MEAN> 25
 7.952040e+00 -3.692942e+00 -6.183827e+00 -6.279387e+00 8.543756e-01 -1.060868e+00 -1.005754e+01 -1.558514e+00 1.733836e+00 2.836921e+00 -2.652369e+00 -5.123868e+00 7.073508e-01 6.170460e-01 -1.400730e+00 -1.653915e+00 1.124542e+00 2.211854e+00 1.841030e-01 -1.455323e+00 -1.054164e+00 1.035193e+00 1.414520e+00 -4.248986e-01 -5.588483e-03
<VARIANCE> 25
 9.117007e+00 1.638411e+01 2.861170e+01 4.559354e+01 3.420254e+01 3.470206e+01 3.907350e+01 3.814697e+01 3.651028e+01 4.174976e+01 5.007523e+01 2.280736e+01 2.970291e-01 6.647773e-01 1.161740e+00 1.498320e+00 1.716597e+00 2.159600e+00 2.005570e+00 1.897983e+00 2.235925e+00 2.089442e+00 1.760948e+00 1.839310e+00 3.394186e-04
<GCONST> 8.319040e+01
<MIXTURE> 103 5.694618e-03
<MEAN> 25
 3.353305e+00 -9.448523e+00 -6.125774e+00 -3.078484e+00 -1.309404e+00 -1.950417e+00 2.431412e+00 2.517813e+00 -4.559227e+00 -9.222138e+00 -5.062223e+00 3.465221e-01 -1.552853e-01 -1.484471e+00 -9.805680e-01 3.688641e-01 1.217551e+00 1.019384e+00 1.593118e-01 -2.671478e-01 -7.759483e-01 -9.370575e-01 -4.074259e-02 1.152141e-01 2.685934e-02
<VARIANCE> 25
 1.038561e+01 2.043744e+01 2.286382e+01 3.165411e+01 4.825589e+01 3.501687e+01 4.626313e+01 3.666432e+01 4.263137e+01 2.950192e+01 2.998946e+01 2.635916e+01 6.448002e-01 1.252728e+00 1.532569e+00 1.942261e+00 2.921134e+00 2.405065e+00 2.880044e+00 2.568304e+00 2.566560e+00 2.533655e+00 2.101893e+00 2.015640e+00 8.055473e-04
<GCONST> 8.758729e+01
<MIXTURE> 104 5.694618e-03
<MEAN> 25
 3.353305e+00 -9.448523e+00 -6.125774e+00 -3.078484e+00 -1.309404e+00 -1.950417e+00 2.431412e+00 2.517813e+00 -4.559227e+00 -9.222138e+00 -5.062223e+00 3.465221e-01 -1.552853e-01 -1.484471e+00 -9.805680e-01 3.688641e-01 1.217551e+00 1.019384e+00 1.593118e-01 -2.671478e-01 -7.759483e-01 -9.370575e-01 -4.074259e-02 1.152141e-01 2.685934e-02
<VARIANCE> 25
 1.038561e+01 2.043744e+01 2.286382e+01 3.165411e+01 4.825589e+01 3.501687e+01 4.626313e+01 3.666432e+01 4.263137e+01 2.950192e+01 2.998946e+01 2.635916e+01 6.448002e-01 1.252728e+00 1.532569e+00 1.942261e+00 2.921134e+00 2.405065e+00 2.880044e+00 2.568304e+00 2.566560e+00 2.533655e+00 2.101893e+00 2.015640e+00 8.055473e-04
<GCONST> 8.758729e+01
<MIXTURE> 105 4.710235e-03
<MEAN> 25
 1.834303e+00 -1.045223e+00 8.944822e+00 -1.437497e+00 -1.288717e+01 -4.337741e+00 -5.724867e+00 -9.185787e-01 -5.127718e+00 -2.176443e+00 2.141393e+00 5.190485e-01 4.511981e-02 -7.737348e-02 -2.581825e-02 -5.840833e-02 5.768808e-03 -3.210599e-02 3.073797e-02 2.430251e-01 -2.045133e-01 -1.097351e-02 6.562424e-02 -4.265341e-02 -6.686357e-04
<VARIANCE> 25
 1.078951e+01 2.369514e+01 3.125105e+01 3.791730e+01 3.325684e+01 4.208725e+01 3.823531e+01 3.399512e+01 3.523561e+01 3.480316e+01 3.329605e+01 3.051249e+01 8.250219e-02 2.470107e-01 3.414073e-01 2.931462e-01 3.216568e-01 5.851941e-01 6.008883e-01 5.729074e-01 5.552413e-01 4.237311e-01 3.476671e-01 3.936559e-01 7.627593e-05
<GCONST> 6.516911e+01
<MIXTURE> 106 4.710235e-03
<MEAN> 25
 1.834303e+00 -1.045223e+00 8.944822e+00 -1.437497e+00 -1.288717e+01 -4.337741e+00 -5.724867e+00 -9.185787e-01 -5.127718e+00 -2.176443e+00 2.141393e+00 5.190485e-01 4.511981e-02 -7.737348e-02 -2.581825e-02 -5.840833e-02 5.768808e-03 -3.210599e-02 3.073797e-02 2.430251e-01 -2.045133e-01 -1.097351e-02 6.562424e-02 -4.265341e-02 -6.686357e-04
<VARIANCE> 25
 1.078951e+01 2.369514e+01 3.125105e+01 3.791730e+01 3.325684e+01 4.208725e+01 3.823531e+01 3.399512e+01 3.523561e+01 3.480316e+01 3.329605e+01 3.051249e+01 8.250219e-02 2.470107e-01 3.414073e-01 2.931462e-01 3.216568e-01 5.851941e-01 6.008883e-01 5.729074e-01 5.552413e-01 4.237311e-01 3.476671e-01 3.936559e-01 7.627593e-05
<GCONST> 6.516911e+01
<MIXTURE> 107 5.452374e-03
<MEAN> 25
 8.506952e+00 -2.172865e+00 -7.756896e+00 -8.385569e+00 1.518036e+00 3.035333e+00 -7.979536e+00 -4.371241e+00 -1.622269e+00 3.893101e+00 9.219778e-01 -5.068233e+00 -6.164220e-01 -7.139930e-01 8.144030e-01 1.718438e+00 1.629617e-01 -2.018844e+00 -9.764330e-01 9.997656e-01 1.691955e+00 6.073488e-02 -1.516194e+00 -7.717742e-01 -1.109327e-05
<VARIANCE> 25
 8.661813e+00 1.897019e+01 2.685133e+01 5.453338e+01 3.596656e+01 3.545594e+01 5.215475e+01 3.463740e+01 4.843392e+01 4.180727e+01 4.771358e+01 2.807452e+01 3.404226e-01 9.180692e-01 1.541244e+00 2.264442e+00 2.286887e+00 2.691055e+00 2.449493e+00 3.063714e+00 2.251867e+00 2.890275e+00 1.986524e+00 2.055225e+00 7.570786e-04
<GCONST> 8.781458e+01
<MIXTURE> 108 5.452374e-03
<MEAN> 25
 8.506952e+00 -2.172865e+00 -7.756896e+00 -8.385569e+00 1.518036e+00 3.035333e+00 -7.979536e+00 -4.371241e+00 -1.622269e+00 3.893101e+00 9.219778e-01 -5.068233e+00 -6.164220e-01 -7.139930e-01 8.144030e-01 1.718438e+00 1.629617e-01 -2.018844e+00 -9.764330e-01 9.997656e-01 1.691955e+00 6.073488e-02 -1.516194e+00 -7.717742e-01 -1.109327e-05
<VARIANCE> 25
 8.661813e+00 1.897019e+01 2.685133e+01 5.453338e+01 3.596656e+01 3.545594e+01 5.215475e+01 3.463740e+01 4.843392e+01 4.180727e+01 4.771358e+01 2.807452e+01 3.404226e-01 9.180692e-01 1.541244e+00 2.264442e+00 2.286887e+00 2.691055e+00 2.449493e+00 3.063714e+00 2.251867e+00 2.890275e+00 1.986524e+00 2.055225e+00 7.570786e-04
<GCONST> 8.781458e+01
<MIXTURE> 109 6.661064e-03
<MEAN> 25
 3.613139e+00 -9.957078e+00 -8.191040e+00 -1.581643e+00 2.843916e+00 7.523224e-01 -9.750619e-02 1.167235e+00 -1.264068e+00 -8.396032e+00 -5.105509e+00 -4.185236e-01 -3.273610e-02 -1.131112e-01 -5.631132e-02 1.860635e-01 2.847229e-01 1.559878e-01 -6.877123e-02 -1.380712e-01 -1.225354e-01 -1.775609e-01 1.988091e-01 4.374699e-02 -2.167808e-03
<VARIANCE> 25
 9.618712e+00 1.891769e+01 1.793782e+01 2.860164e+01 3.728978e+01 3.736736e+01 4.298650e+01 3.123739e+01 5.490297e+01 3.310764e+01 2.774758e+01 2.716255e+01 1.761102e-01 4.115255e-01 5.403258e-01 6.564425e-01 1.176985e+00 9.988860e-01 1.293009e+00 1.013833e+00 1.074653e+00 9.172692e-01 8.365267e-01 9.098367e-01 1.768959e-04
<GCONST> 7.380767e+01
<MIXTURE> 110 6.661064e-03
<MEAN> 25
 3.613139e+00 -9.957078e+00 -8.191040e+00 -1.581643e+00 2.843916e+00 7.523224e-01 -9.750619e-02 1.167235e+00 -1.264068e+00 -8.396032e+00 -5.105509e+00 -4.185236e-01 -3.273610e-02 -1.131112e-01 -5.631132e-02 1.860635e-01 2.847229e-01 1.559878e-01 -6.877123e-02 -1.380712e-01 -1.225354e-01 -1.775609e-01 1.988091e-01 4.374699e-02 -2.167808e-03
<VARIANCE> 25
 9.618712e+00 1.891769e+01 1.793782e+01 2.860164e+01 3.728978e+01 3.736736e+01 4.298650e+01 3.123739e+01 5.490297e+01 3.310764e+01 2.774758e+01 2.716255e+01 1.761102e-01 4.115255e-01 5.403258e-01 6.564425e-01 1.176985e+00 9.988860e-01 1.293009e+00 1.013833e+00 1.074653e+00 9.172692e-01 8.365267e-01 9.098367e-01 1.768959e-04
<GCONST> 7.380767e+01
<MIXTURE> 111 4.337247e-03
<MEAN> 25
 -4.471869e+00 -9.061587e-01 -1.720141e+00 1.687839e+00 9.632649e-01 9.653600e-01 3.139255e-01 2.111688e-01 8.968344e-02 -5.414127e-01 -6.298033e-01 1.964611e+00 -2.107281e-02 -3.234647e-02 -7.233379e-02 -7.365344e-02 -3.719778e-02 6.320107e-03 -1.497524e-03 -5.923874e-02 -1.399162e-01 -2.029516e-01 -1.902248e-01 -1.063465e-01 -2.143401e-04
<VARIANCE> 25
 7.011953e+00 4.977480e+00 1.022602e+01 9.408113e+00 1.313559e+01 2.384607e+01 1.466627e+01 1.316389e+01 1.161593e+01 1.191505e+01 1.362516e+01 1.158876e+01 7.916874e-02 1.635919e-01 2.752822e-01 4.205138e-01 5.693785e-01 7.054011e-01 8.013945e-01 8.580830e-01 8.937207e-01 8.563800e-01 8.619639e-01 8.477448e-01 2.233987e-05
<GCONST> 5.598837e+01
<MIXTURE> 112 4.337247e-03
<MEAN> 25
 -4.471869e+00 -9.061587e-01 -1.720141e+00 1.687839e+00 9.632649e-01 9.653600e-01 3.139255e-01 2.111688e-01 8.968344e-02 -5.414127e-01 -6.298033e-01 1.964611e+00 -2.107281e-02 -3.234647e-02 -7.233379e-02 -7.365344e-02 -3.719778e-02 6.320107e-03 -1.497524e-03 -5.923874e-02 -1.399162e-01 -2.029516e-01 -1.902248e-01 -1.063465e-01 -2.143401e-04
<VARIANCE> 25
 7.011953e+00 4.977480e+00 1.022602e+01 9.408113e+00 1.313559e+01 2.384607e+01 1.466627e+01 1.316389e+01 1.161593e+01 1.191505e+01 1.362516e+01 1.158876e+01 7.916874e-02 1.635919e-01 2.752822e-01 4.205138e-01 5.693785e-01 7.054011e-01 8.013945e-01 8.580830e-01 8.937207e-01 8.563800e-01 8.619639e-01 8.477448e-01 2.233987e-05
<GCONST> 5.598837e+01
<MIXTURE> 113 5.938666e-03
<MEAN> 25
 9.975637e+00 1.753367e+00 -8.776292e+00 -1.703093e+01 -1.033022e+00 5.658461e+00 -5.271138e+00 -1.464096e+00 -5.699446e+00 -4.862504e-01 2.991443e-01 -2.019867e-01 4.552914e-03 1.313501e-02 -5.794794e-02 -1.128198e-01 1.057075e-01 1.495656e-01 5.765672e-02 3.517893e-02 -5.711612e-02 -4.882576e-02 1.797779e-01 3.507917e-02 -1.390864e-03
<VARIANCE> 25
 8.868175e+00 1.637587e+01 2.966982e+01 3.441541e+01 5.268134e+01 3.383075e+01 3.975171e+01 3.910513e+01 3.734697e+01 4.640346e+01 3.625806e+01 2.842809e+01 1.217165e-01 3.208238e-01 3.179892e-01 6.310154e-01 6.140479e-01 6.538888e-01 7.780820e-01 8.449784e-01 9.586939e-01 9.100044e-01 7.236932e-01 7.128638e-01 1.250527e-04
<GCONST> 7.111797e+01
<MIXTURE> 114 5.938666e-03
<MEAN> 25
 9.975637e+00 1.753367e+00 -8.776292e+00 -1.703093e+01 -1.033022e+00 5.658461e+00 -5.271138e+00 -1.464096e+00 -5.699446e+00 -4.862504e-01 2.991443e-01 -2.019867e-01 4.552914e-03 1.313501e-02 -5.794794e-02 -1.128198e-01 1.057075e-01 1.495656e-01 5.765672e-02 3.517893e-02 -5.711612e-02 -4.882576e-02 1.797779e-01 3.507917e-02 -1.390864e-03
<VARIANCE> 25
 8.868175e+00 1.637587e+01 2.966982e+01 3.441541e+01 5.268134e+01 3.383075e+01 3.975171e+01 3.910513e+01 3.734697e+01 4.640346e+01 3.625806e+01 2.842809e+01 1.217165e-01 3.208238e-01 3.179892e-01 6.310154e-01 6.140479e-01 6.538888e-01 7.780820e-01 8.449784e-01 9.586939e-01 9.100044e-01 7.236932e-01 7.128638e-01 1.250527e-04
<GCONST> 7.111797e+01
<MIXTURE> 115 2.935202e-03
<MEAN> 25
 -3.784850e+00 -8.629789e-01 -3.121700e+00 3.545947e+00 2.375414e+00 -5.336985e-02 2.250180e+00 6.223994e-01 2.025314e+00 -2.256671e-01 1.922091e-01 2.542356e+00 1.394651e-02 -1.164114e-01 -2.752197e-01 -5.057246e-01 -6.496465e-01 -6.854214e-01 -7.047497e-01 -5.099808e-01 -4.964371e-01 -4.388849e-01 -3.748796e-01 -1.759180e-01 -2.689344e-05
<VARIANCE> 25
 9.923526e+00 9.622392e+00 1.286799e+01 1.234737e+01 1.302977e+01 1.947006e+01 1.664189e+01 2.086069e+01 2.456692e+01 1.752079e+01 1.883087e+01 1.446474e+01 1.996621e-01 3.654591e-01 5.026624e-01 6.230777e-01 6.078559e-01 7.637357e-01 1.190394e+00 1.083743e+00 1.067041e+00 9.816285e-01 9.934354e-01 1.017921e+00 9.912633e-07
<GCONST> 6.057397e+01
<MIXTURE> 116 2.935202e-03
<MEAN> 25
 -3.784850e+00 -8.629789e-01 -3.121700e+00 3.545947e+00 2.375414e+00 -5.336985e-02 2.250180e+00 6.223994e-01 2.025314e+00 -2.256671e-01 1.922091e-01 2.542356e+00 1.394651e-02 -1.164114e-01 -2.752197e-01 -5.057246e-01 -6.496465e-01 -6.854214e-01 -7.047497e-01 -5.099808e-01 -4.964371e-01 -4.388849e-01 -3.748796e-01 -1.759180e-01 -2.689344e-05
<VARIANCE> 25
 9.923526e+00 9.622392e+00 1.286799e+01 1.234737e+01 1.302977e+01 1.947006e+01 1.664189e+01 2.086069e+01 2.456692e+01 1.752079e+01 1.883087e+01 1.446474e+01 1.996621e-01 3.654591e-01 5.026624e-01 6.230777e-01 6.078559e-01 7.637357e-01 1.190394e+00 1.083743e+00 1.067041e+00 9.816285e-01 9.934354e-01 1.017921e+00 9.912633e-07
<GCONST> 6.057397e+01
<MIXTURE> 117 6.506003e-03
<MEAN> 25
 -4.616490e+00 1.097232e+00 1.032307e+00 9.716546e+00 6.236788e+00 6.260780e+00 6.443202e+00 5.042823e+00 6.425427e+00 4.883746e+00 6.351145e+00 2.695260e+00 -7.629602e-02 -2.378317e-01 -3.622526e-01 -4.268965e-01 -3.705078e-01 -3.060846e-01 -3.002889e-01 -3.324366e-01 -3.933404e-01 -3.676828e-01 -2.666643e-01 -1.173680e-01 -1.137451e-05
<VARIANCE> 25
 7.307282e+00 8.792907e+00 9.857603e+00 1.458778e+01 1.566518e+01 1.529713e+01 1.775498e+01 1.789907e+01 1.664159e+01 1.673503e+01 1.672329e+01 1.473541e+01 2.158647e-01 3.087627e-01 4.274978e-01 6.242236e-01 8.511561e-01 1.052400e+00 1.204853e+00 1.227793e+00 1.222630e+00 1.192243e+00 1.163938e+00 1.108830e+00 9.990313e-07
<GCONST> 6.052277e+01
<MIXTURE> 118 6.506003e-03
<MEAN> 25
 -4.616490e+00 1.097232e+00 1.032307e+00 9.716546e+00 6.236788e+00 6.260780e+00 6.443202e+00 5.042823e+00 6.425427e+00 4.883746e+00 6.351145e+00 2.695260e+00 -7.629602e-02 -2.378317e-01 -3.622526e-01 -4.268965e-01 -3.705078e-01 -3.060846e-01 -3.002889e-01 -3.324366e-01 -3.933404e-01 -3.676828e-01 -2.666643e-01 -1.173680e-01 -1.137451e-05
<VARIANCE> 25
 7.307282e+00 8.792907e+00 9.857603e+00 1.458778e+01 1.566518e+01 1.529713e+01 1.775498e+01 1.789907e+01 1.664159e+01 1.673503e+01 1.672329e+01 1.473541e+01 2.158647e-01 3.087627e-01 4.274978e-01 6.242236e-01 8.511561e-01 1.052400e+00 1.204853e+00 1.227793e+00 1.222630e+00 1.192243e+00 1.163938e+00 1.108830e+00 9.990313e-07
<GCONST> 6.052277e+01
<MIXTURE> 119 4.297961e-03
<MEAN> 25
 -4.966069e+00 -7.599554e+00 2.232521e+00 1.995826e+00 2.245228e+00 2.114973e-01 5.283151e+00 5.902759e+00 1.189620e+00 9.469385e-01 6.575081e+00 1.567805e+00 -4.894860e-02 -8.222906e-02 3.817425e-02 -5.492051e-02 -1.289496e-01 -1.837538e-01 -7.484102e-02 -9.833901e-03 -8.859933e-02 -1.154287e-01 -5.554868e-02 -5.903465e-02 1.187368e-03
<VARIANCE> 25
 8.497476e+00 1.001210e+01 1.664294e+01 2.018067e+01 2.292421e+01 2.319127e+01 2.489690e+01 2.666597e+01 2.510085e+01 2.805544e+01 2.060035e+01 2.033896e+01 1.607216e-01 2.841400e-01 4.587007e-01 6.318364e-01 8.058326e-01 1.007872e+00 1.103760e+00 1.278408e+00 1.286311e+00 1.256054e+00 1.188859e+00 1.116135e+00 2.328990e-04
<GCONST> 6.978539e+01
<MIXTURE> 120 4.297961e-03
<MEAN> 25
 -4.966069e+00 -7.599554e+00 2.232521e+00 1.995826e+00 2.245228e+00 2.114973e-01 5.283151e+00 5.902759e+00 1.189620e+00 9.469385e-01 6.575081e+00 1.567805e+00 -4.894860e-02 -8.222906e-02 3.817425e-02 -5.492051e-02 -1.289496e-01 -1.837538e-01 -7.484102e-02 -9.833901e-03 -8.859933e-02 -1.154287e-01 -5.554868e-02 -5.903465e-02 1.187368e-03
<VARIANCE> 25
 8.497476e+00 1.001210e+01 1.664294e+01 2.018067e+01 2.292421e+01 2.319127e+01 2.489690e+01 2.666597e+01 2.510085e+01 2.805544e+01 2.060035e+01 2.033896e+01 1.607216e-01 2.841400e-01 4.587007e-01 6.318364e-01 8.058326e-01 1.007872e+00 1.103760e+00 1.278408e+00 1.286311e+00 1.256054e+00 1.188859e+00 1.116135e+00 2.328990e-04
<GCONST> 6.978539e+01
<MIXTURE> 121 4.567511e-03
<MEAN> 25
 2.172938e-01 -2.516857e+00 5.156868e+00 -1.286873e+01 -1.264008e+01 -1.663026e+00 9.839847e-01 -5.093014e+00 -4.201765e+00 -4.887071e-01 -5.493883e+00 -4.282369e+00 2.535586e-02 1.318901e-01 -4.449324e-02 8.323614e-02 1.595091e-01 7.646786e-02 -8.348412e-02 -1.836553e-01 -2.701232e-01 -2.581500e-01 -1.141706e-01 5.318127e-04 -7.421046e-03
<VARIANCE> 25
 7.744678e+00 1.557589e+01 1.722784e+01 2.067708e+01 2.435571e+01 2.916434e+01 2.952908e+01 2.457615e+01 3.518596e+01 2.825631e+01 1.974876e+01 2.141843e+01 1.551595e-01 6.415291e-01 6.241527e-01 7.080019e-01 7.688803e-01 1.147971e+00 1.120791e+00 1.117890e+00 1.216207e+00 1.189488e+00 9.389727e-01 8.694497e-01 2.102932e-04
<GCONST> 7.139356e+01
<MIXTURE> 122 4.567511e-03
<MEAN> 25
 2.172938e-01 -2.516857e+00 5.156868e+00 -1.286873e+01 -1.264008e+01 -1.663026e+00 9.839847e-01 -5.093014e+00 -4.201765e+00 -4.887071e-01 -5.493883e+00 -4.282369e+00 2.535586e-02 1.318901e-01 -4.449324e-02 8.323614e-02 1.595091e-01 7.646786e-02 -8.348412e-02 -1.836553e-01 -2.701232e-01 -2.581500e-01 -1.141706e-01 5.318127e-04 -7.421046e-03
<VARIANCE> 25
 7.744678e+00 1.557589e+01 1.722784e+01 2.067708e+01 2.435571e+01 2.916434e+01 2.952908e+01 2.457615e+01 3.518596e+01 2.825631e+01 1.974876e+01 2.141843e+01 1.551595e-01 6.415291e-01 6.241527e-01 7.080019e-01 7.688803e-01 1.147971e+00 1.120791e+00 1.117890e+00 1.216207e+00 1.189488e+00 9.389727e-01 8.694497e-01 2.102932e-04
<GCONST> 7.139356e+01
<MIXTURE> 123 4.393044e-03
<MEAN> 25
 -4.211855e+00 9.008156e-01 8.108170e-02 5.941654e+00 5.397635e+00 3.431165e+00 3.396423e+00 4.884544e-01 4.232608e-01 -4.985278e-01 -1.710245e-02 7.518917e-01 -4.839348e-01 -7.746483e-01 -8.453556e-01 -6.065828e-01 -2.361830e-01 5.100507e-02 3.453047e-01 6.509430e-01 8.138399e-01 7.566978e-01 6.913203e-01 5.168023e-01 -2.939375e-03
<VARIANCE> 25
 1.045629e+01 1.020575e+01 1.557395e+01 1.921049e+01 2.229286e+01 2.831768e+01 2.182693e+01 1.866885e+01 2.040367e+01 1.795960e+01 2.196833e+01 1.986879e+01 3.727062e-01 3.606801e-01 5.120046e-01 7.273161e-01 9.875299e-01 1.205956e+00 1.240306e+00 1.185192e+00 1.160656e+00 1.213421e+00 1.221544e+00 1.249030e+00 1.022867e-04
<GCONST> 6.990111e+01
<MIXTURE> 124 4.069876e-03
<MEAN> 25
 -6.561625e+00 -1.212207e+00 -2.924166e+00 5.103326e+00 4.974491e+00 3.392605e+00 5.391408e+00 2.565590e+00 3.197600e+00 1.277379e+00 1.128249e+00 3.042831e+00 -2.049486e-01 -3.230118e-01 -3.620310e-01 -2.164827e-01 1.279334e-01 5.180778e-01 8.094993e-01 8.594318e-01 6.556334e-01 3.283535e-01 7.235812e-02 -2.378700e-02 4.662625e-05
<VARIANCE> 25
 1.102347e+01 6.981784e+00 1.113875e+01 1.244092e+01 1.211160e+01 1.981811e+01 1.550957e+01 1.705927e+01 1.546890e+01 1.607450e+01 1.919501e+01 1.443661e+01 1.048083e-01 1.680693e-01 2.702084e-01 4.177734e-01 5.927790e-01 7.106260e-01 7.497125e-01 8.146609e-01 9.091848e-01 9.820433e-01 1.007922e+00 9.952585e-01 1.801556e-05
<GCONST> 5.880864e+01
<MIXTURE> 125 4.069876e-03
<MEAN> 25
 -6.561625e+00 -1.212207e+00 -2.924166e+00 5.103326e+00 4.974491e+00 3.392605e+00 5.391408e+00 2.565590e+00 3.197600e+00 1.277379e+00 1.128249e+00 3.042831e+00 -2.049486e-01 -3.230118e-01 -3.620310e-01 -2.164827e-01 1.279334e-01 5.180778e-01 8.094993e-01 8.594318e-01 6.556334e-01 3.283535e-01 7.235812e-02 -2.378700e-02 4.662625e-05
<VARIANCE> 25
 1.102347e+01 6.981784e+00 1.113875e+01 1.244092e+01 1.211160e+01 1.981811e+01 1.550957e+01 1.705927e+01 1.546890e+01 1.607450e+01 1.919501e+01 1.443661e+01 1.048083e-01 1.680693e-01 2.702084e-01 4.177734e-01 5.927790e-01 7.106260e-01 7.497125e-01 8.146609e-01 9.091848e-01 9.820433e-01 1.007922e+00 9.952585e-01 1.801556e-05
<GCONST> 5.880864e+01
<MIXTURE> 126 2.402244e-03
<MEAN> 25
 -3.363784e+00 -6.311228e+00 -5.525861e+00 1.401993e+00 4.989017e+00 -2.633750e+00 4.393336e-01 3.017247e+00 4.400871e+00 -2.742857e+00 -1.749228e+00 2.908372e+00 -1.490115e-02 4.992414e-02 -6.573898e-02 -2.482166e-01 -2.302489e-01 -4.982915e-01 -2.146389e-01 -9.201889e-02 -2.061206e-01 -4.128217e-02 -1.584042e-01 -8.193184e-02 5.157988e-04
<VARIANCE> 25
 7.517773e+00 1.301194e+01 1.248195e+01 1.875321e+01 2.787624e+01 2.592025e+01 2.217544e+01 2.675647e+01 3.412360e+01 2.348191e+01 2.139223e+01 1.709993e+01 1.685271e-01 3.349457e-01 4.480382e-01 5.930476e-01 8.334647e-01 1.009111e+00 1.062734e+00 1.318191e+00 1.548239e+00 1.291974e+00 1.494666e+00 1.247978e+00 2.139230e-04
<GCONST> 7.037361e+01
<MIXTURE> 127 2.402244e-03
<MEAN> 25
 -3.363784e+00 -6.311228e+00 -5.525861e+00 1.401993e+00 4.989017e+00 -2.633750e+00 4.393336e-01 3.017247e+00 4.400871e+00 -2.742857e+00 -1.749228e+00 2.908372e+00 -1.490115e-02 4.992414e-02 -6.573898e-02 -2.482166e-01 -2.302489e-01 -4.982915e-01 -2.146389e-01 -9.201889e-02 -2.061206e-01 -4.128217e-02 -1.584042e-01 -8.193184e-02 5.157988e-04
<VARIANCE> 25
 7.517773e+00 1.301194e+01 1.248195e+01 1.875321e+01 2.787624e+01 2.592025e+01 2.217544e+01 2.675647e+01 3.412360e+01 2.348191e+01 2.139223e+01 1.709993e+01 1.685271e-01 3.349457e-01 4.480382e-01 5.930476e-01 8.334647e-01 1.009111e+00 1.062734e+00 1.318191e+00 1.548239e+00 1.291974e+00 1.494666e+00 1.247978e+00 2.139230e-04
<GCONST> 7.037361e+01
<MIXTURE> 128 3.790457e-03
<MEAN> 25
 -3.915892e+00 1.541180e+00 -3.371405e-01 6.529540e+00 3.633557e+00 1.822445e+00 3.576679e+00 2.374498e+00 3.934678e+00 3.701369e+00 3.753574e+00 3.506064e+00 -4.045270e-01 -1.935598e-01 9.768812e-02 7.201332e-01 1.189413e+00 1.124136e+00 7.221475e-01 1.309707e-01 -4.346006e-01 -7.809123e-01 -7.080935e-01 -3.946116e-01 -3.823353e-05
<VARIANCE> 25
 1.024831e+01 1.168471e+01 1.492173e+01 1.969877e+01 2.033057e+01 2.134324e+01 2.422218e+01 2.467951e+01 2.650815e+01 2.382206e+01 2.672694e+01 1.817325e+01 9.227637e-01 1.161666e+00 1.369711e+00 1.503563e+00 1.579612e+00 1.882198e+00 2.248415e+00 2.313845e+00 2.146328e+00 1.857290e+00 1.742136e+00 1.745297e+00 9.959152e-07
<GCONST> 7.372145e+01
<TRANSP> 3
 0.000000e+00 1.000000e+00 0.000000e+00
 0.000000e+00 9.999990e-01 9.999998e-07
 0.000000e+00 0.000000e+00 0.000000e+00
<ENDHMM>
