~o
<STREAMINFO> 1 25
<VECSIZE> 25<NULLD><MFCC_E_D_N><DIAGC>
~h "jmodel"
<BEGINHMM>
<NUMSTATES> 3
<STATE> 2
<NUMMIXES> 128
<MIXTURE> 1 5.748963e-03
<MEAN> 25
 -2.574106e+00 3.174668e+00 2.289732e+00 8.727349e+00 4.357203e+00 3.450167e+00 4.058516e+00 3.927127e+00 5.839455e+00 5.229644e+00 5.873228e+00 3.070006e+00 -2.008416e+00 -1.633079e+00 -8.608112e-01 1.076308e+00 1.555731e+00 2.233907e+00 2.144262e+00 2.082527e+00 1.700894e+00 1.267108e+00 1.560973e+00 6.171296e-01 -4.646687e-02
<VARIANCE> 25
 1.006026e+01 1.173668e+01 1.505078e+01 1.884905e+01 2.318812e+01 2.207952e+01 2.182838e+01 2.192647e+01 2.095986e+01 2.262692e+01 2.092047e+01 1.705616e+01 1.788660e+00 2.105548e+00 3.019528e+00 3.200072e+00 3.735166e+00 3.347357e+00 3.340051e+00 3.372791e+00 3.528914e+00 3.719461e+00 3.514877e+00 2.829626e+00 3.174762e-03
<GCONST> 8.847551e+01
<MIXTURE> 2 4.549242e-03
<MEAN> 25
 -4.875671e+00 1.311720e+00 9.943511e-01 9.899809e+00 6.692275e+00 7.424650e+00 7.847087e+00 6.958091e+00 8.373269e+00 6.373019e+00 7.624402e+00 3.074697e+00 -6.200235e-02 4.161923e-02 1.425301e-01 2.258583e-01 2.652900e-01 2.813653e-01 2.954302e-01 3.195550e-01 3.497573e-01 3.089160e-01 1.971766e-01 8.006547e-02 1.228299e-06
<VARIANCE> 25
 6.952293e+00 8.901894e+00 1.065126e+01 1.591096e+01 1.723581e+01 1.556308e+01 1.689898e+01 1.848562e+01 1.658668e+01 1.738619e+01 1.811029e+01 1.434002e+01 1.252503e-01 2.266278e-01 3.364712e-01 4.671271e-01 6.492781e-01 8.148874e-01 9.298787e-01 1.003176e+00 1.051662e+00 1.077774e+00 1.075658e+00 1.013934e+00 1.000000e-06
<GCONST> 5.804302e+01
<MIXTURE> 3 4.549242e-03
<MEAN> 25
 -4.875671e+00 1.311720e+00 9.943511e-01 9.899809e+00 6.692275e+00 7.424650e+00 7.847087e+00 6.958091e+00 8.373269e+00 6.373019e+00 7.624402e+00 3.074697e+00 -6.200235e-02 4.161923e-02 1.425301e-01 2.258583e-01 2.652900e-01 2.813653e-01 2.954302e-01 3.195550e-01 3.497573e-01 3.089160e-01 1.971766e-01 8.006547e-02 1.228299e-06
<VARIANCE> 25
 6.952293e+00 8.901894e+00 1.065126e+01 1.591096e+01 1.723581e+01 1.556308e+01 1.689898e+01 1.848562e+01 1.658668e+01 1.738619e+01 1.811029e+01 1.434002e+01 1.252503e-01 2.266278e-01 3.364712e-01 4.671271e-01 6.492781e-01 8.148874e-01 9.298787e-01 1.003176e+00 1.051662e+00 1.077774e+00 1.075658e+00 1.013934e+00 1.000000e-06
<GCONST> 5.804302e+01
<MIXTURE> 4 1.671429e-02
<MEAN> 25
 3.319030e+00 2.471615e+00 -3.695951e+00 8.149238e-01 4.358306e+00 -2.607235e-01 -5.415098e-03 8.416585e-02 1.468618e+00 1.332704e+00 -1.735028e+00 2.108983e-02 -2.757888e+00 1.181465e+00 1.758772e+00 3.052827e+00 8.573468e-01 5.331981e-01 1.498621e+00 9.944130e-01 9.927596e-01 4.678634e-01 1.200677e+00 8.619554e-01 -1.005955e-01
<VARIANCE> 25
 2.173274e+01 2.924574e+01 2.925628e+01 4.005136e+01 4.540224e+01 6.795550e+01 6.478110e+01 5.410728e+01 5.475853e+01 6.141150e+01 5.010233e+01 3.562440e+01 2.347736e+00 5.023437e+00 3.695326e+00 4.950250e+00 5.215647e+00 6.129771e+00 6.027740e+00 5.625779e+00 5.876311e+00 6.446568e+00 6.084788e+00 4.481730e+00 6.570180e-03
<GCONST> 1.055494e+02
<MIXTURE> 5 3.206198e-03
<MEAN> 25
 -3.406168e+00 2.176300e+00 6.077980e-01 9.413703e+00 6.700373e+00 6.308754e+00 7.097167e+00 4.717114e+00 5.494448e+00 3.836565e+00 4.651663e+00 2.600433e+00 -3.243502e-01 7.508858e-01 1.223128e+00 1.032326e+00 3.092157e-01 -1.010710e-01 -8.269987e-02 3.199111e-02 4.572858e-01 6.838617e-01 4.027568e-01 8.555483e-02 -2.692015e-05
<VARIANCE> 25
 1.031378e+01 1.393578e+01 2.345695e+01 2.571888e+01 2.019843e+01 1.943638e+01 2.022614e+01 2.035953e+01 2.138787e+01 2.133215e+01 2.409430e+01 1.636299e+01 1.213254e+00 1.244922e+00 1.357831e+00 1.671518e+00 2.283516e+00 2.374187e+00 2.310290e+00 2.275661e+00 2.314283e+00 2.234809e+00 2.088223e+00 1.874862e+00 9.999319e-07
<GCONST> 7.518510e+01
<MIXTURE> 6 5.475854e-03
<MEAN> 25
 9.349124e+00 8.026861e-02 -5.945439e+00 -9.234772e+00 -2.251296e+00 5.893692e+00 -6.305251e+00 -5.303628e+00 -4.360546e+00 2.382468e+00 5.155637e+00 -7.684078e-01 4.920743e-01 9.683108e-01 -4.031977e-01 -1.257505e+00 -5.716803e-01 1.292546e+00 1.469974e+00 3.190066e-01 -1.365479e+00 -1.228201e+00 1.742681e-01 1.469572e+00 -8.306068e-03
<VARIANCE> 25
 8.329210e+00 1.673745e+01 2.417171e+01 5.042653e+01 3.186444e+01 2.996990e+01 3.971869e+01 3.291162e+01 3.864685e+01 3.735683e+01 3.759566e+01 2.732670e+01 2.776169e-01 7.752489e-01 8.737179e-01 1.947417e+00 1.411084e+00 1.740120e+00 1.826988e+00 1.934129e+00 2.277643e+00 1.905842e+00 2.043963e+00 1.607435e+00 5.040255e-04
<GCONST> 8.245790e+01
<MIXTURE> 7 5.475854e-03
<MEAN> 25
 9.349124e+00 8.026861e-02 -5.945439e+00 -9.234772e+00 -2.251296e+00 5.893692e+00 -6.305251e+00 -5.303628e+00 -4.360546e+00 2.382468e+00 5.155637e+00 -7.684078e-01 4.920743e-01 9.683108e-01 -4.031977e-01 -1.257505e+00 -5.716803e-01 1.292546e+00 1.469974e+00 3.190066e-01 -1.365479e+00 -1.228201e+00 1.742681e-01 1.469572e+00 -8.306068e-03
<VARIANCE> 25
 8.329210e+00 1.673745e+01 2.417171e+01 5.042653e+01 3.186444e+01 2.996990e+01 3.971869e+01 3.291162e+01 3.864685e+01 3.735683e+01 3.759566e+01 2.732670e+01 2.776169e-01 7.752489e-01 8.737179e-01 1.947417e+00 1.411084e+00 1.740120e+00 1.826988e+00 1.934129e+00 2.277643e+00 1.905842e+00 2.043963e+00 1.607435e+00 5.040255e-04
<GCONST> 8.245790e+01
<MIXTURE> 8 1.165917e-02
<MEAN> 25
 -4.706219e+00 1.341224e+00 1.204778e+00 9.450482e+00 6.519277e+00 6.313879e+00 6.460367e+00 5.645183e+00 6.722956e+00 5.587407e+00 6.551010e+00 3.069183e+00 -6.802101e-01 -1.432005e+00 -1.037794e+00 -1.687901e+00 -2.248695e-01 -9.382602e-01 -2.075181e-01 -2.697317e-01 -2.151478e-01 -1.669101e-01 -2.250409e-01 9.646104e-02 9.950255e-02
<VARIANCE> 25
 9.312539e+00 9.777581e+00 1.211340e+01 1.683681e+01 1.671078e+01 1.584551e+01 1.794777e+01 1.747960e+01 1.719902e+01 1.734496e+01 1.870580e+01 1.441247e+01 2.935471e+00 2.786993e+00 3.953161e+00 3.870175e+00 3.418051e+00 3.282027e+00 3.170053e+00 3.079499e+00 2.959838e+00 2.628098e+00 2.417618e+00 1.899113e+00 6.638207e-03
<GCONST> 8.648512e+01
<MIXTURE> 9 1.199672e-02
<MEAN> 25
 9.290991e+00 3.385458e+00 -6.202157e+00 -1.065949e+01 -2.208804e+00 4.960130e+00 -2.211403e+00 -2.302212e+00 -5.388003e+00 -1.250036e+00 5.784804e-01 -2.354147e-02 1.440901e+00 -1.287171e-01 -4.905192e-01 -2.700841e+00 -1.646023e+00 8.549592e-01 -9.719689e-01 -2.316440e-01 -1.820127e-01 -5.731584e-01 6.163971e-01 -1.524485e-01 7.325540e-02
<VARIANCE> 25
 1.227049e+01 2.142462e+01 3.353877e+01 5.358227e+01 5.014125e+01 3.231278e+01 4.316635e+01 5.209110e+01 4.204597e+01 4.157882e+01 3.613146e+01 2.701156e+01 2.087735e+00 2.447590e+00 4.566660e+00 4.877894e+00 5.005894e+00 4.089549e+00 4.234472e+00 6.033419e+00 5.035360e+00 4.083730e+00 4.012369e+00 2.802646e+00 2.215047e-03
<GCONST> 9.879601e+01
<MIXTURE> 10 6.596976e-03
<MEAN> 25
 8.244374e-01 7.626842e+00 5.376117e+00 7.143859e+00 1.592619e+00 -2.112695e+00 -5.227267e-01 -1.678917e+00 8.678379e-01 8.542055e-01 8.357978e-01 6.615680e-01 -1.918460e+00 -6.719862e-01 -4.598821e-01 3.030247e+00 2.461786e+00 2.705694e+00 2.371833e+00 2.268639e+00 1.856601e+00 1.532346e+00 2.334211e+00 5.226637e-01 -1.378757e-01
<VARIANCE> 25
 1.950085e+01 2.066167e+01 2.225296e+01 2.902356e+01 3.823634e+01 3.486700e+01 3.507678e+01 3.378208e+01 2.756593e+01 2.901899e+01 2.690871e+01 2.497268e+01 2.247253e+00 3.419290e+00 5.523540e+00 5.165952e+00 5.541202e+00 4.470050e+00 4.690947e+00 4.868397e+00 4.389153e+00 5.081298e+00 4.433685e+00 3.186913e+00 2.719878e-03
<GCONST> 9.745788e+01
<MIXTURE> 11 1.633820e-02
<MEAN> 25
 6.943913e+00 3.545177e+00 3.751536e+00 5.493021e+00 -2.679772e+00 -1.942435e+00 -3.229671e+00 -4.955308e+00 -3.156589e+00 -6.211525e-01 -1.036791e+00 -1.310098e+00 -3.254769e-01 5.753472e-01 9.668102e-02 1.628229e-01 8.137689e-01 -1.114354e-01 4.151700e-01 -9.860400e-02 -2.110241e-01 -5.974829e-02 -2.424340e-01 -8.713316e-03 -1.471560e-02
<VARIANCE> 25
 1.008125e+01 2.087372e+01 1.742455e+01 2.949790e+01 3.664739e+01 3.139436e+01 4.517141e+01 3.695835e+01 3.572086e+01 4.076554e+01 3.387850e+01 2.572912e+01 8.935604e-01 1.285343e+00 1.306084e+00 2.585913e+00 2.166046e+00 1.983081e+00 2.005920e+00 2.297034e+00 2.297117e+00 2.532166e+00 2.001720e+00 1.603961e+00 7.917352e-04
<GCONST> 8.618732e+01
<MIXTURE> 12 5.904134e-03
<MEAN> 25
 1.070896e+01 3.776524e+00 -4.474413e+00 -1.564549e+01 -8.586301e+00 8.539032e+00 -7.955777e-01 -1.918662e+00 -1.884368e+00 -4.717439e+00 1.877298e+00 7.860352e-01 6.137563e-02 2.767369e-01 8.432730e-02 -3.665854e-01 -2.809533e-01 3.713950e-02 3.283066e-01 4.385440e-01 1.609543e-01 -3.656567e-01 -3.732775e-01 4.184217e-02 -6.537232e-03
<VARIANCE> 25
 8.794544e+00 2.053974e+01 2.281573e+01 3.893020e+01 4.154062e+01 3.063453e+01 4.167559e+01 4.784787e+01 4.422081e+01 3.765723e+01 3.758214e+01 2.858993e+01 2.449401e-01 6.876817e-01 6.754572e-01 1.147232e+00 1.219422e+00 1.035199e+00 1.174127e+00 1.367877e+00 1.262829e+00 1.212229e+00 1.210827e+00 9.433006e-01 5.684070e-04
<GCONST> 7.883334e+01
<MIXTURE> 13 5.904134e-03
<MEAN> 25
 1.070896e+01 3.776524e+00 -4.474413e+00 -1.564549e+01 -8.586301e+00 8.539032e+00 -7.955777e-01 -1.918662e+00 -1.884368e+00 -4.717439e+00 1.877298e+00 7.860352e-01 6.137563e-02 2.767369e-01 8.432730e-02 -3.665854e-01 -2.809533e-01 3.713950e-02 3.283066e-01 4.385440e-01 1.609543e-01 -3.656567e-01 -3.732775e-01 4.184217e-02 -6.537232e-03
<VARIANCE> 25
 8.794544e+00 2.053974e+01 2.281573e+01 3.893020e+01 4.154062e+01 3.063453e+01 4.167559e+01 4.784787e+01 4.422081e+01 3.765723e+01 3.758214e+01 2.858993e+01 2.449401e-01 6.876817e-01 6.754572e-01 1.147232e+00 1.219422e+00 1.035199e+00 1.174127e+00 1.367877e+00 1.262829e+00 1.212229e+00 1.210827e+00 9.433006e-01 5.684070e-04
<GCONST> 7.883334e+01
<MIXTURE> 14 6.488954e-03
<MEAN> 25
 -4.307875e+00 -3.824833e-01 -3.130274e-01 8.884152e+00 7.518771e+00 7.364912e+00 7.817614e+00 7.327621e+00 7.250344e+00 5.207263e+00 6.868681e+00 4.093195e+00 -2.768308e-01 1.934874e-01 3.632384e-01 3.118886e-01 9.169522e-03 5.972594e-02 1.003122e-01 1.730851e-01 2.951051e-01 5.407496e-01 5.044770e-01 7.810485e-02 -9.235366e-03
<VARIANCE> 25
 9.321680e+00 1.383114e+01 1.859046e+01 1.809669e+01 2.086741e+01 1.964130e+01 2.153693e+01 2.062815e+01 2.004669e+01 2.402592e+01 2.136428e+01 1.598038e+01 9.664289e-01 1.636795e+00 1.771623e+00 1.931685e+00 2.242565e+00 2.254411e+00 2.255844e+00 2.249700e+00 2.280901e+00 2.502039e+00 2.194062e+00 1.814672e+00 1.032869e-03
<GCONST> 8.192872e+01
<MIXTURE> 15 2.475190e-03
<MEAN> 25
 -5.419142e+00 -6.434612e-01 -2.060412e-01 7.358542e+00 5.715282e+00 5.698172e+00 6.063034e+00 4.976737e+00 5.163610e+00 4.146334e+00 5.500158e+00 2.536718e+00 -1.204690e-01 -2.897100e-02 7.455872e-02 2.441293e-01 4.895779e-01 7.858019e-01 1.072250e+00 1.182094e+00 1.058658e+00 7.554026e-01 4.198814e-01 1.532199e-01 -8.820827e-05
<VARIANCE> 25
 6.997264e+00 5.599616e+00 9.040058e+00 1.286671e+01 1.408212e+01 1.428952e+01 1.490810e+01 1.488869e+01 1.408400e+01 1.422090e+01 1.509603e+01 1.250242e+01 1.255530e-01 2.060157e-01 3.195595e-01 5.028543e-01 6.990670e-01 7.946082e-01 7.628126e-01 7.914014e-01 9.087260e-01 1.023611e+00 1.070575e+00 1.041381e+00 2.797941e-05
<GCONST> 5.859514e+01
<MIXTURE> 16 2.475190e-03
<MEAN> 25
 -5.419142e+00 -6.434612e-01 -2.060412e-01 7.358542e+00 5.715282e+00 5.698172e+00 6.063034e+00 4.976737e+00 5.163610e+00 4.146334e+00 5.500158e+00 2.536718e+00 -1.204690e-01 -2.897100e-02 7.455872e-02 2.441293e-01 4.895779e-01 7.858019e-01 1.072250e+00 1.182094e+00 1.058658e+00 7.554026e-01 4.198814e-01 1.532199e-01 -8.820827e-05
<VARIANCE> 25
 6.997264e+00 5.599616e+00 9.040058e+00 1.286671e+01 1.408212e+01 1.428952e+01 1.490810e+01 1.488869e+01 1.408400e+01 1.422090e+01 1.509603e+01 1.250242e+01 1.255530e-01 2.060157e-01 3.195595e-01 5.028543e-01 6.990670e-01 7.946082e-01 7.628126e-01 7.914014e-01 9.087260e-01 1.023611e+00 1.070575e+00 1.041381e+00 2.797941e-05
<GCONST> 5.859514e+01
<MIXTURE> 17 9.518312e-03
<MEAN> 25
 3.549264e+00 -8.317774e-01 6.086543e+00 2.043950e+00 -5.392067e+00 -6.431367e+00 -3.281941e+00 -1.660421e-01 -2.674195e+00 -3.303882e+00 1.852373e-01 -7.677529e-02 -7.970782e-01 -1.187210e+00 1.253327e+00 -2.016317e+00 -2.347519e+00 -7.040618e-02 1.419332e-01 6.721033e-01 -2.115218e-01 -9.728013e-02 9.959047e-01 3.378728e-01 8.048036e-02
<VARIANCE> 25
 1.716288e+01 3.026915e+01 3.120230e+01 4.092343e+01 5.089097e+01 4.701358e+01 4.085321e+01 3.405305e+01 3.402565e+01 2.771645e+01 2.743204e+01 2.747595e+01 1.890014e+00 2.624304e+00 3.921636e+00 3.265271e+00 4.057200e+00 5.386878e+00 4.875178e+00 4.764716e+00 3.994948e+00 4.083596e+00 3.021795e+00 2.738804e+00 2.144621e-03
<GCONST> 9.698589e+01
<MIXTURE> 18 1.221018e-02
<MEAN> 25
 3.923941e+00 4.435883e+00 6.661700e+00 4.816254e+00 -4.502868e+00 -7.979585e+00 -2.032338e+00 -1.211895e+00 -3.437593e+00 -2.217485e+00 -8.274396e-01 5.793139e-01 -7.506694e-01 2.067786e+00 -2.277935e-01 1.864039e+00 3.141714e+00 1.291550e+00 8.723149e-01 -2.446966e-01 6.262624e-01 3.956482e-01 -2.439823e-01 -1.152711e-01 -1.171200e-01
<VARIANCE> 25
 1.523036e+01 2.425146e+01 3.069538e+01 2.504576e+01 4.102091e+01 3.436623e+01 3.764059e+01 3.343454e+01 3.695684e+01 3.563620e+01 3.057982e+01 2.973482e+01 2.461883e+00 2.984442e+00 4.434511e+00 5.078453e+00 3.996794e+00 4.926614e+00 4.444839e+00 4.217175e+00 4.506886e+00 4.516771e+00 4.397897e+00 3.499347e+00 4.350934e-03
<GCONST> 9.821767e+01
<MIXTURE> 19 9.912824e-03
<MEAN> 25
 -9.543595e+00 1.335807e+00 8.117460e-02 8.992923e-01 3.337085e+00 1.067432e+00 2.913857e+00 4.110666e-01 2.308652e+00 1.393781e+00 6.859573e-01 1.090870e+00 2.035225e+00 1.507355e+00 2.071727e+00 9.259134e-01 -1.120101e+00 -7.424229e-01 -1.108254e+00 -1.549512e+00 -1.414427e+00 -1.031489e+00 -6.992701e-01 -6.398214e-01 -5.722593e-04
<VARIANCE> 25
 4.882919e+01 2.784435e+01 4.326767e+01 4.575851e+01 3.295525e+01 3.134520e+01 2.979533e+01 3.371151e+01 2.497075e+01 2.809445e+01 2.741999e+01 2.129380e+01 2.255499e+00 2.215228e+00 2.031471e+00 2.301545e+00 2.789078e+00 2.425256e+00 2.754216e+00 2.338602e+00 1.860713e+00 2.039698e+00 2.389210e+00 2.456389e+00 2.148726e-03
<GCONST> 9.141396e+01
<MIXTURE> 20 6.308331e-03
<MEAN> 25
 -1.415860e+01 7.408567e+00 8.375998e-01 6.138445e+00 4.839069e+00 1.636944e+00 5.207585e+00 8.507214e-01 9.310259e-01 7.904298e-01 2.552748e+00 -3.089847e-01 -3.282545e+00 -8.664144e-01 -1.562059e+00 3.318704e-01 1.537416e+00 2.061269e+00 1.975440e+00 2.054834e+00 2.144693e+00 2.040105e+00 1.681777e+00 9.481862e-01 4.731634e-02
<VARIANCE> 25
 1.987681e+01 2.344132e+01 3.094043e+01 3.719915e+01 3.084668e+01 2.783996e+01 2.987160e+01 3.141751e+01 2.796497e+01 2.819147e+01 2.529104e+01 2.090718e+01 2.096672e+00 2.181252e+00 1.910877e+00 2.537967e+00 2.704001e+00 2.312492e+00 2.313368e+00 2.319203e+00 2.236086e+00 2.650022e+00 2.246987e+00 1.868323e+00 1.885577e-03
<GCONST> 8.923220e+01
<MIXTURE> 21 7.928653e-03
<MEAN> 25
 3.626951e+00 -4.906029e+00 6.538376e+00 -2.309417e+00 -1.041336e+01 -6.431790e+00 -3.321756e+00 5.070128e+00 -2.878854e+00 -1.166614e+00 -1.415278e+00 1.827466e+00 -5.664721e-01 1.158821e+00 2.231370e+00 7.149398e-02 -1.749429e+00 4.284097e-01 3.822951e-01 -1.535652e+00 -2.502058e+00 1.479579e-01 1.350816e+00 5.353433e-01 -1.104647e-02
<VARIANCE> 25
 6.746876e+00 1.368902e+01 2.316101e+01 2.196286e+01 2.348155e+01 3.320581e+01 3.172615e+01 3.224525e+01 4.153844e+01 3.103757e+01 3.079346e+01 2.160264e+01 3.220609e-01 7.405344e-01 1.574023e+00 9.701697e-01 1.762045e+00 1.590475e+00 2.751962e+00 1.940998e+00 2.231333e+00 1.937638e+00 1.551608e+00 1.803622e+00 3.169662e-04
<GCONST> 8.008822e+01
<MIXTURE> 22 8.827789e-03
<MEAN> 25
 -1.671640e+01 7.633205e+00 -6.080323e+00 6.178932e+00 4.437101e+00 7.900190e-01 9.250937e+00 7.934032e-01 5.124491e+00 2.922223e+00 4.573109e+00 7.795325e-03 -1.913382e-01 -1.647833e-01 5.287025e-02 8.463578e-02 -9.149855e-02 1.567436e-01 4.664443e-02 1.441843e-01 2.793669e-01 -3.187416e-02 1.381486e-01 2.253224e-01 4.559123e-03
<VARIANCE> 25
 8.484350e+00 1.327180e+01 2.202187e+01 2.311823e+01 1.687144e+01 2.254134e+01 1.688847e+01 1.728255e+01 1.786426e+01 1.753062e+01 1.829298e+01 1.329326e+01 8.570303e-01 1.366152e+00 1.446631e+00 1.379221e+00 1.175233e+00 1.280504e+00 1.638008e+00 1.379091e+00 1.382567e+00 1.283849e+00 1.098194e+00 8.899078e-01 1.501681e-03
<GCONST> 7.588306e+01
<MIXTURE> 23 6.455497e-03
<MEAN> 25
 7.863486e+00 2.823448e+00 1.726168e+00 2.349618e+00 -4.098829e+00 -9.942303e-01 -3.516211e+00 -5.255775e+00 -4.926839e+00 -1.098330e+00 -2.015491e+00 -7.731071e-02 5.418493e-02 7.847270e-02 2.597726e-02 -1.870877e-02 -2.257560e-02 3.705457e-02 2.237261e-01 -3.050679e-02 8.571098e-02 3.478247e-02 3.531180e-02 -1.252902e-01 -5.309275e-03
<VARIANCE> 25
 9.084511e+00 1.842546e+01 2.343093e+01 3.545934e+01 3.422026e+01 4.764570e+01 4.638115e+01 4.316032e+01 4.659628e+01 4.386090e+01 4.452937e+01 3.838436e+01 9.951345e-02 2.537267e-01 3.070722e-01 5.062892e-01 5.475233e-01 6.054829e-01 9.613449e-01 7.881722e-01 7.682341e-01 7.635288e-01 8.552808e-01 7.131675e-01 7.128633e-05
<GCONST> 7.035598e+01
<MIXTURE> 24 6.455497e-03
<MEAN> 25
 7.863486e+00 2.823448e+00 1.726168e+00 2.349618e+00 -4.098829e+00 -9.942303e-01 -3.516211e+00 -5.255775e+00 -4.926839e+00 -1.098330e+00 -2.015491e+00 -7.731071e-02 5.418493e-02 7.847270e-02 2.597726e-02 -1.870877e-02 -2.257560e-02 3.705457e-02 2.237261e-01 -3.050679e-02 8.571098e-02 3.478247e-02 3.531180e-02 -1.252902e-01 -5.309275e-03
<VARIANCE> 25
 9.084511e+00 1.842546e+01 2.343093e+01 3.545934e+01 3.422026e+01 4.764570e+01 4.638115e+01 4.316032e+01 4.659628e+01 4.386090e+01 4.452937e+01 3.838436e+01 9.951345e-02 2.537267e-01 3.070722e-01 5.062892e-01 5.475233e-01 6.054829e-01 9.613449e-01 7.881722e-01 7.682341e-01 7.635288e-01 8.552808e-01 7.131675e-01 7.128633e-05
<GCONST> 7.035598e+01
<MIXTURE> 25 1.118642e-02
<MEAN> 25
 4.304096e-01 3.056836e+00 1.589995e+01 -9.543372e-01 -1.090960e+01 -1.450729e+00 -5.423626e+00 -2.592196e+00 -7.254273e+00 -4.245828e+00 3.386108e+00 -4.627734e-01 -1.410278e-01 4.645622e-01 1.011975e-01 1.089336e-01 2.904730e-01 1.193072e-01 1.796651e-01 -5.474129e-02 -2.881121e-01 -7.189089e-03 -1.310746e-01 -7.183281e-02 -1.094060e-02
<VARIANCE> 25
 7.859731e+00 2.137326e+01 2.215283e+01 2.499547e+01 3.317076e+01 3.624598e+01 2.461243e+01 2.701777e+01 3.027762e+01 3.936778e+01 2.090743e+01 3.197555e+01 5.792994e-01 1.266419e+00 1.328887e+00 1.320430e+00 2.250823e+00 1.927816e+00 1.679494e+00 1.674015e+00 1.661897e+00 1.578972e+00 1.264744e+00 1.176614e+00 1.140737e-03
<GCONST> 8.190778e+01
<MIXTURE> 26 7.727677e-03
<MEAN> 25
 2.107983e+00 -6.194802e+00 -9.996401e+00 -7.855626e-01 7.918078e+00 5.206473e+00 3.980962e+00 -2.633037e-01 2.331171e+00 -9.155161e-01 -2.930667e+00 -1.275659e+00 -6.525050e-01 5.745444e-01 3.398805e-01 6.579044e-01 1.857374e-01 2.478773e-01 2.975164e-01 2.894445e-01 2.984717e-01 1.131290e-01 3.544624e-01 4.182174e-01 -4.907891e-02
<VARIANCE> 25
 2.497265e+01 3.448765e+01 2.709235e+01 5.983466e+01 3.761473e+01 4.287445e+01 4.443146e+01 4.191481e+01 3.918235e+01 5.507860e+01 3.876298e+01 4.634981e+01 1.673172e+00 1.919059e+00 1.852835e+00 1.931711e+00 2.329228e+00 2.361532e+00 2.609514e+00 2.690239e+00 2.328937e+00 2.263969e+00 2.124061e+00 1.974940e+00 3.413292e-03
<GCONST> 9.369373e+01
<MIXTURE> 27 7.727677e-03
<MEAN> 25
 2.107983e+00 -6.194802e+00 -9.996401e+00 -7.855626e-01 7.918078e+00 5.206473e+00 3.980962e+00 -2.633037e-01 2.331171e+00 -9.155161e-01 -2.930667e+00 -1.275659e+00 -6.525050e-01 5.745444e-01 3.398805e-01 6.579044e-01 1.857374e-01 2.478773e-01 2.975164e-01 2.894445e-01 2.984717e-01 1.131290e-01 3.544624e-01 4.182174e-01 -4.907891e-02
<VARIANCE> 25
 2.497265e+01 3.448765e+01 2.709235e+01 5.983466e+01 3.761473e+01 4.287445e+01 4.443146e+01 4.191481e+01 3.918235e+01 5.507860e+01 3.876298e+01 4.634981e+01 1.673172e+00 1.919059e+00 1.852835e+00 1.931711e+00 2.329228e+00 2.361532e+00 2.609514e+00 2.690239e+00 2.328937e+00 2.263969e+00 2.124061e+00 1.974940e+00 3.413292e-03
<GCONST> 9.369373e+01
<MIXTURE> 28 5.036674e-03
<MEAN> 25
 -5.418548e+00 7.987402e-03 -1.566259e+00 6.591941e+00 5.245864e+00 3.517911e+00 5.395356e+00 3.127898e+00 3.925593e+00 2.376471e+00 2.626548e+00 3.209174e+00 -1.190049e-01 2.203082e-01 5.256726e-01 7.842029e-01 8.251117e-01 6.969221e-01 5.292525e-01 3.902529e-01 4.456287e-01 4.822906e-01 3.652311e-01 1.853941e-01 -9.476215e-06
<VARIANCE> 25
 1.072471e+01 8.328094e+00 1.212301e+01 1.496585e+01 1.472751e+01 1.767216e+01 1.812236e+01 1.895230e+01 1.712836e+01 1.676697e+01 2.057982e+01 1.499233e+01 2.602257e-01 3.379377e-01 4.082107e-01 4.627291e-01 6.226135e-01 8.553863e-01 1.063882e+00 1.141981e+00 1.099069e+00 1.026526e+00 1.043992e+00 1.069064e+00 1.001309e-06
<GCONST> 6.031600e+01
<MIXTURE> 29 5.036674e-03
<MEAN> 25
 -5.418548e+00 7.987402e-03 -1.566259e+00 6.591941e+00 5.245864e+00 3.517911e+00 5.395356e+00 3.127898e+00 3.925593e+00 2.376471e+00 2.626548e+00 3.209174e+00 -1.190049e-01 2.203082e-01 5.256726e-01 7.842029e-01 8.251117e-01 6.969221e-01 5.292525e-01 3.902529e-01 4.456287e-01 4.822906e-01 3.652311e-01 1.853941e-01 -9.476215e-06
<VARIANCE> 25
 1.072471e+01 8.328094e+00 1.212301e+01 1.496585e+01 1.472751e+01 1.767216e+01 1.812236e+01 1.895230e+01 1.712836e+01 1.676697e+01 2.057982e+01 1.499233e+01 2.602257e-01 3.379377e-01 4.082107e-01 4.627291e-01 6.226135e-01 8.553863e-01 1.063882e+00 1.141981e+00 1.099069e+00 1.026526e+00 1.043992e+00 1.069064e+00 1.001309e-06
<GCONST> 6.031600e+01
<MIXTURE> 30 8.917812e-03
<MEAN> 25
 -4.493019e+00 -1.954428e-01 6.532177e-01 9.083022e+00 7.771774e+00 7.509251e+00 7.583271e+00 6.875678e+00 6.533793e+00 4.895009e+00 7.012156e+00 3.499291e+00 -2.377830e-02 3.014784e-02 5.623968e-02 8.892379e-02 8.180644e-02 4.417890e-02 1.361140e-02 -3.546332e-03 1.662888e-02 5.150958e-02 6.161022e-02 3.519557e-02 -5.517335e-04
<VARIANCE> 25
 6.938882e+00 9.858258e+00 1.039714e+01 1.379583e+01 1.577390e+01 1.641447e+01 1.911700e+01 1.822111e+01 1.627913e+01 1.836900e+01 2.123066e+01 1.437696e+01 9.740754e-02 1.995852e-01 3.250134e-01 4.813257e-01 6.193224e-01 7.239766e-01 7.720534e-01 8.131108e-01 8.771033e-01 9.371247e-01 9.209694e-01 8.628859e-01 5.099242e-05
<GCONST> 6.059669e+01
<MIXTURE> 31 4.136493e-03
<MEAN> 25
 -3.223955e+00 -5.496000e+00 -3.975294e-02 4.704089e+00 3.700416e+00 1.746020e+00 5.268007e+00 6.466941e+00 2.743258e+00 1.063509e+00 6.533925e+00 3.082287e+00 2.764141e-01 4.602185e-01 -2.081183e-01 3.333536e-01 1.472653e-01 3.745099e-01 2.035077e-01 7.113689e-02 3.944073e-01 3.795148e-01 1.122409e-01 7.865628e-02 -1.815849e-02
<VARIANCE> 25
 7.172483e+00 1.582936e+01 1.729143e+01 1.828014e+01 2.456895e+01 2.338863e+01 2.304554e+01 2.579167e+01 2.515290e+01 2.791247e+01 1.978142e+01 1.855529e+01 2.057932e-01 4.903257e-01 5.862023e-01 7.663677e-01 9.586650e-01 1.149215e+00 1.192787e+00 1.449674e+00 1.310290e+00 1.281985e+00 1.209809e+00 1.152852e+00 2.519088e-04
<GCONST> 7.175153e+01
<MIXTURE> 32 4.136493e-03
<MEAN> 25
 -3.223955e+00 -5.496000e+00 -3.975294e-02 4.704089e+00 3.700416e+00 1.746020e+00 5.268007e+00 6.466941e+00 2.743258e+00 1.063509e+00 6.533925e+00 3.082287e+00 2.764141e-01 4.602185e-01 -2.081183e-01 3.333536e-01 1.472653e-01 3.745099e-01 2.035077e-01 7.113689e-02 3.944073e-01 3.795148e-01 1.122409e-01 7.865628e-02 -1.815849e-02
<VARIANCE> 25
 7.172483e+00 1.582936e+01 1.729143e+01 1.828014e+01 2.456895e+01 2.338863e+01 2.304554e+01 2.579167e+01 2.515290e+01 2.791247e+01 1.978142e+01 1.855529e+01 2.057932e-01 4.903257e-01 5.862023e-01 7.663677e-01 9.586650e-01 1.149215e+00 1.192787e+00 1.449674e+00 1.310290e+00 1.281985e+00 1.209809e+00 1.152852e+00 2.519088e-04
<GCONST> 7.175153e+01
<MIXTURE> 33 1.508826e-02
<MEAN> 25
 6.419932e+00 -4.350667e+00 -1.954131e+00 -2.552124e+00 -1.618502e+00 -5.081528e+00 -7.159652e+00 1.467612e+00 2.607558e+00 -2.320661e-01 -4.440675e+00 -2.818185e+00 5.663803e-01 -1.239492e+00 -2.148823e+00 -1.860289e+00 1.305604e+00 1.318719e+00 -7.818066e-01 8.329548e-01 9.600623e-01 5.968844e-01 -3.188788e-01 -1.270933e+00 3.579824e-02
<VARIANCE> 25
 1.006308e+01 2.233007e+01 2.660198e+01 3.272279e+01 3.964217e+01 4.546348e+01 3.969497e+01 4.356002e+01 4.066506e+01 4.148756e+01 3.308785e+01 2.707701e+01 1.201771e+00 1.807137e+00 2.701343e+00 2.036513e+00 4.078756e+00 3.186706e+00 3.970209e+00 5.369367e+00 3.475261e+00 4.297347e+00 3.292321e+00 2.435985e+00 1.497713e-03
<GCONST> 9.369821e+01
<MIXTURE> 34 1.588179e-02
<MEAN> 25
 8.845142e+00 1.886177e-04 2.290941e-01 1.385944e+00 -3.015206e+00 -1.539537e+00 -6.260049e+00 -4.575263e+00 -1.898440e+00 2.491529e-01 -2.528928e+00 -3.566696e+00 -2.655798e-02 1.358379e+00 1.441648e+00 2.338391e+00 1.931155e-02 -1.792122e-01 7.961746e-01 -1.624897e+00 -9.072660e-01 2.731041e-01 -5.374444e-01 2.159963e-01 -6.135815e-02
<VARIANCE> 25
 7.762051e+00 3.058358e+01 2.913325e+01 5.021576e+01 4.199944e+01 4.832700e+01 5.441552e+01 5.594441e+01 5.203377e+01 4.285286e+01 4.798672e+01 3.148760e+01 1.255495e+00 1.970712e+00 4.202022e+00 4.182219e+00 5.712794e+00 5.751806e+00 5.414037e+00 6.046064e+00 5.107748e+00 4.947894e+00 4.926781e+00 3.924667e+00 1.164199e-03
<GCONST> 9.956061e+01
<MIXTURE> 35 1.467755e-02
<MEAN> 25
 -2.007326e+00 -4.791430e+00 -8.759352e+00 -5.256637e-01 9.648909e+00 3.225152e-01 1.247693e+00 3.001650e+00 1.109186e+00 4.224258e+00 6.845115e-01 1.245037e+00 2.323009e-01 -1.062160e+00 -1.266548e+00 -1.240278e+00 2.479975e-01 -5.733837e-01 -5.496219e-01 -2.103472e-01 1.348046e-02 2.753075e-01 -6.261368e-01 -5.572155e-01 1.012481e-01
<VARIANCE> 25
 1.815658e+01 2.792984e+01 4.987925e+01 6.014970e+01 3.863194e+01 5.600817e+01 4.798666e+01 4.273367e+01 4.810159e+01 3.628437e+01 3.661426e+01 3.052638e+01 3.973867e+00 3.246233e+00 6.434043e+00 5.726768e+00 5.776995e+00 5.704422e+00 4.688208e+00 4.367592e+00 4.869501e+00 5.068375e+00 3.720357e+00 3.646339e+00 5.428023e-03
<GCONST> 1.032471e+02
<MIXTURE> 36 1.093293e-02
<MEAN> 25
 4.998034e+00 -3.591990e+00 6.959620e+00 2.619082e+00 -9.913801e+00 -6.532217e+00 -6.998990e+00 2.294364e+00 -2.023948e+00 -3.321384e+00 1.647148e+00 1.281213e+00 2.769340e-01 3.041952e-01 -7.524905e-01 2.889101e-01 8.359711e-01 2.003851e-02 -4.799892e-01 3.532647e-01 1.864737e-01 6.561785e-01 -1.830457e-01 -4.989885e-01 -1.367373e-02
<VARIANCE> 25
 8.651423e+00 1.666143e+01 1.738081e+01 2.299344e+01 2.994201e+01 3.230103e+01 3.566824e+01 2.915722e+01 3.639196e+01 2.737504e+01 2.263848e+01 2.471007e+01 4.627889e-01 9.144040e-01 1.215767e+00 1.308432e+00 1.330318e+00 1.407182e+00 1.938741e+00 2.114845e+00 3.054563e+00 1.910187e+00 1.494896e+00 1.169804e+00 5.797371e-04
<GCONST> 8.047254e+01
<MIXTURE> 37 1.246826e-02
<MEAN> 25
 5.822160e-01 7.467392e+00 1.164474e+01 -5.111220e+00 -7.521619e+00 -1.023410e+00 -5.093263e+00 -7.882166e+00 -3.673393e+00 -7.551126e-01 -3.569833e+00 -9.762772e-01 2.292643e-01 6.286559e-01 -1.338236e+00 3.574593e+00 1.930936e+00 -3.363899e-01 1.108436e+00 3.238523e-01 5.852082e-01 -3.978753e-01 6.317713e-01 -1.762426e-01 -9.111023e-02
<VARIANCE> 25
 1.495614e+01 2.573289e+01 3.113727e+01 5.052802e+01 3.845598e+01 3.003122e+01 4.125423e+01 3.605569e+01 3.630777e+01 3.538628e+01 3.565320e+01 3.024258e+01 2.843855e+00 3.208842e+00 2.843679e+00 3.914351e+00 4.409460e+00 3.580976e+00 3.954751e+00 3.751756e+00 3.469512e+00 3.540991e+00 3.974909e+00 2.794101e+00 3.871302e-03
<GCONST> 9.719788e+01
<MIXTURE> 38 1.154525e-02
<MEAN> 25
 -4.173987e+00 8.688334e+00 4.570682e+00 3.299146e+00 1.490750e+00 -4.860929e+00 -3.964742e-01 -2.702873e+00 -2.757801e+00 -3.380376e+00 -1.517727e+00 -6.245292e-01 -4.354627e+00 1.254387e+00 -3.727401e-01 1.210536e+00 2.442549e+00 1.301237e+00 2.036456e+00 8.224370e-01 6.938434e-01 8.255970e-01 7.581657e-01 3.830346e-01 4.821627e-02
<VARIANCE> 25
 3.074045e+01 2.874549e+01 3.613861e+01 3.106375e+01 5.032420e+01 3.433612e+01 3.490443e+01 3.866451e+01 3.224245e+01 3.251337e+01 2.419683e+01 2.685682e+01 2.450414e+00 3.634802e+00 3.661575e+00 5.436069e+00 4.186440e+00 4.738549e+00 4.444409e+00 4.490227e+00 4.197150e+00 5.033753e+00 4.684869e+00 3.072744e+00 1.902872e-03
<GCONST> 9.846026e+01
<MIXTURE> 39 9.501865e-03
<MEAN> 25
 1.056738e+00 2.468354e+00 1.000769e+01 -8.987132e+00 -1.101741e+01 -1.124940e+00 -3.221211e+00 -6.566552e+00 -4.417600e+00 1.122224e+00 -3.498321e+00 -2.331130e+00 -7.371549e-01 1.482103e+00 1.620359e+00 -1.284913e+00 -2.861342e-02 1.263823e+00 -1.129812e+00 -1.306101e+00 4.417765e-01 4.995664e-01 -5.295538e-01 1.358832e-01 2.643585e-03
<VARIANCE> 25
 1.137481e+01 2.957356e+01 3.196856e+01 3.829722e+01 3.840449e+01 4.174990e+01 4.447715e+01 3.288772e+01 3.905909e+01 3.384158e+01 3.597108e+01 2.967654e+01 6.702315e-01 1.534926e+00 1.488038e+00 3.131690e+00 2.797177e+00 2.811920e+00 3.081005e+00 2.834398e+00 2.447356e+00 2.653642e+00 2.069582e+00 2.001309e+00 1.198035e-03
<GCONST> 9.006510e+01
<MIXTURE> 40 1.030800e-02
<MEAN> 25
 -9.193014e+00 2.118166e+00 -1.201991e+00 7.952642e+00 3.860035e+00 5.335717e+00 5.295932e+00 4.159549e+00 4.584780e+00 4.034663e+00 5.623454e+00 1.638133e+00 -9.619833e-02 -2.302165e-01 -3.980409e-02 -2.026620e-01 -8.238667e-02 -1.289603e-01 7.390587e-02 7.251824e-02 7.352596e-04 1.460689e-02 5.550039e-02 2.030328e-02 3.837014e-03
<VARIANCE> 25
 4.338562e+01 2.084128e+01 2.961641e+01 2.837211e+01 2.581208e+01 1.969709e+01 1.971293e+01 1.894724e+01 1.746984e+01 1.927460e+01 1.919874e+01 1.445905e+01 7.791666e-01 7.415408e-01 8.748778e-01 1.105456e+00 1.141742e+00 1.253467e+00 1.340541e+00 1.324619e+00 1.248209e+00 1.212409e+00 1.179898e+00 1.078575e+00 8.572896e-04
<GCONST> 7.703174e+01
<MIXTURE> 41 6.713375e-03
<MEAN> 25
 1.010821e+00 1.695773e+00 1.024939e+01 -6.856622e+00 -1.021396e+01 -3.906748e+00 -2.721481e+00 -5.146882e+00 -4.502156e+00 2.845375e+00 -1.612043e+00 -1.109437e+00 4.786016e-02 -7.298020e-01 1.703753e+00 -3.395076e+00 -2.502833e+00 -2.333895e-02 -4.622708e-01 -4.493650e-01 -7.584263e-01 1.128041e+00 -1.052224e+00 9.630658e-02 8.507463e-02
<VARIANCE> 25
 1.421787e+01 2.901698e+01 3.328053e+01 3.921090e+01 3.965862e+01 3.908575e+01 3.779637e+01 2.937259e+01 3.284887e+01 2.904445e+01 3.147314e+01 2.725083e+01 3.126789e+00 3.242321e+00 3.712864e+00 4.528473e+00 4.823802e+00 5.959189e+00 4.640152e+00 4.716828e+00 4.011839e+00 4.168678e+00 3.723367e+00 3.142274e+00 2.893122e-03
<GCONST> 9.813041e+01
<MIXTURE> 42 1.106211e-02
<MEAN> 25
 -1.903808e+00 3.711983e+00 4.001776e+00 2.395999e+00 3.634978e-01 -5.549138e+00 -1.324234e+00 -2.174924e+00 -1.001254e+00 -1.231419e+00 -1.662285e+00 6.613524e-01 3.859803e+00 -3.130885e-01 1.541677e+00 3.375485e-01 -2.580021e+00 -8.565351e-01 -2.159159e+00 -8.065999e-01 -8.328496e-01 -6.089936e-01 6.909331e-01 -8.448883e-01 5.316099e-03
<VARIANCE> 25
 3.158860e+01 2.133197e+01 4.390290e+01 2.361108e+01 3.559575e+01 3.715331e+01 3.319147e+01 2.748522e+01 2.569737e+01 2.511088e+01 1.950031e+01 1.916390e+01 3.540112e+00 4.269853e+00 5.204660e+00 4.248355e+00 4.639994e+00 5.505024e+00 4.707774e+00 5.191427e+00 4.231730e+00 4.830434e+00 3.996053e+00 4.277577e+00 3.920081e-03
<GCONST> 9.836303e+01
<MIXTURE> 43 7.108249e-03
<MEAN> 25
 3.165468e+00 -6.305417e+00 -2.249252e+00 -5.186100e+00 -7.390028e+00 -3.404634e+00 4.135903e+00 1.311594e+00 -5.059196e+00 -7.092728e+00 -4.319942e+00 -1.254615e+00 2.386084e-01 2.162441e+00 1.913236e+00 -1.332787e-01 -1.429049e+00 -7.935652e-01 -9.701720e-01 -7.784154e-01 8.216413e-01 1.468058e+00 3.433928e-01 2.071370e-02 -4.508923e-02
<VARIANCE> 25
 9.601643e+00 1.969963e+01 2.733124e+01 3.519968e+01 3.848737e+01 3.662166e+01 3.330455e+01 3.978836e+01 3.965918e+01 3.864184e+01 2.656137e+01 2.956555e+01 6.914137e-01 1.257785e+00 1.569958e+00 2.489542e+00 2.377727e+00 2.383131e+00 2.652027e+00 3.027732e+00 2.606235e+00 2.577098e+00 2.332016e+00 1.920485e+00 9.437176e-04
<GCONST> 8.797887e+01
<MIXTURE> 44 7.328289e-03
<MEAN> 25
 -1.416617e+01 1.713968e+00 3.082489e+00 -3.070393e+00 3.517091e+00 1.550250e+00 2.315189e-01 2.441055e+00 1.573460e+00 -1.041301e+00 1.597602e+00 1.705994e+00 -1.780947e-01 2.896904e-03 9.746695e-02 3.009532e-01 -1.224342e-01 1.615347e-01 4.596404e-01 8.793600e-02 2.857020e-01 1.431057e-01 4.279753e-02 1.022206e-01 4.768159e-03
<VARIANCE> 25
 5.054996e+01 2.777440e+01 3.539487e+01 2.860200e+01 2.838534e+01 3.001172e+01 2.623721e+01 3.156150e+01 2.699734e+01 2.725849e+01 2.687980e+01 1.956216e+01 1.233368e+00 1.488326e+00 1.406780e+00 1.287626e+00 2.147892e+00 1.665445e+00 1.480372e+00 1.753587e+00 1.529146e+00 1.585358e+00 1.406609e+00 1.225027e+00 1.254000e-03
<GCONST> 8.462497e+01
<MIXTURE> 45 1.364932e-02
<MEAN> 25
 -9.912798e+00 2.440940e+00 -1.768057e+00 1.768141e+00 6.491779e+00 -2.150273e-01 6.602879e+00 1.784737e+00 3.159473e+00 1.111164e+00 1.902698e+00 1.534011e+00 -2.982632e+00 8.021383e-01 -5.245006e-01 -3.898310e-01 -8.921483e-02 -5.134323e-01 6.099914e-01 -2.267016e-02 -3.785736e-02 -1.233580e-01 -8.382028e-02 4.038087e-02 1.065636e-01
<VARIANCE> 25
 3.609161e+01 2.450900e+01 2.124820e+01 2.446481e+01 2.547460e+01 2.856586e+01 3.139850e+01 2.405156e+01 3.181687e+01 1.916543e+01 2.017819e+01 1.188544e+01 1.896377e+00 2.611717e+00 2.210584e+00 1.963595e+00 1.886189e+00 2.042994e+00 2.489648e+00 2.201262e+00 2.163702e+00 1.728787e+00 2.453580e+00 1.529342e+00 2.868605e-03
<GCONST> 8.700123e+01
<MIXTURE> 46 9.336259e-03
<MEAN> 25
 -9.401142e+00 2.273276e+00 1.124181e+00 7.456793e+00 5.881054e+00 3.315519e+00 6.996161e+00 4.486413e+00 5.730050e+00 4.587809e+00 4.992361e+00 2.885484e+00 1.061718e+00 -2.547963e-01 4.827755e-02 9.775891e-01 5.962879e-01 9.201059e-01 3.730972e-01 6.701857e-01 4.530221e-01 4.997691e-01 6.416721e-01 5.078066e-01 -1.046560e-01
<VARIANCE> 25
 3.438612e+01 4.354738e+01 3.846729e+01 5.019160e+01 5.043120e+01 4.058477e+01 3.702699e+01 3.514662e+01 3.331157e+01 3.138366e+01 2.813427e+01 2.011672e+01 3.946580e+00 4.135586e+00 3.856580e+00 4.144027e+00 4.136984e+00 3.706443e+00 3.369958e+00 3.131212e+00 2.986168e+00 2.845665e+00 2.311332e+00 1.793936e+00 7.997653e-03
<GCONST> 9.829371e+01
<MIXTURE> 47 7.116147e-03
<MEAN> 25
 6.858456e+00 -7.525489e+00 -6.660914e+00 -5.730539e+00 2.134229e+00 1.664295e+00 -1.485765e+00 1.412558e+00 3.071020e+00 1.446717e+00 -4.133690e+00 -6.502525e+00 -8.548614e-02 -1.157412e+00 -4.738944e-01 -5.223411e-01 5.449236e-01 5.476368e-01 6.487569e-01 4.435495e-01 3.116507e-02 -4.015462e-01 -5.807126e-01 -5.196044e-01 3.255745e-02
<VARIANCE> 25
 9.293498e+00 1.797811e+01 2.048973e+01 2.762655e+01 3.329209e+01 4.356836e+01 5.133550e+01 3.292471e+01 3.947450e+01 4.109837e+01 3.940089e+01 2.817787e+01 5.847083e-01 6.901925e-01 1.034278e+00 1.403981e+00 1.748072e+00 2.105962e+00 2.567002e+00 2.458454e+00 2.291096e+00 2.483897e+00 1.791293e+00 1.718271e+00 4.929720e-04
<GCONST> 8.437953e+01
<MIXTURE> 48 7.116147e-03
<MEAN> 25
 6.858456e+00 -7.525489e+00 -6.660914e+00 -5.730539e+00 2.134229e+00 1.664295e+00 -1.485765e+00 1.412558e+00 3.071020e+00 1.446717e+00 -4.133690e+00 -6.502525e+00 -8.548614e-02 -1.157412e+00 -4.738944e-01 -5.223411e-01 5.449236e-01 5.476368e-01 6.487569e-01 4.435495e-01 3.116507e-02 -4.015462e-01 -5.807126e-01 -5.196044e-01 3.255745e-02
<VARIANCE> 25
 9.293498e+00 1.797811e+01 2.048973e+01 2.762655e+01 3.329209e+01 4.356836e+01 5.133550e+01 3.292471e+01 3.947450e+01 4.109837e+01 3.940089e+01 2.817787e+01 5.847083e-01 6.901925e-01 1.034278e+00 1.403981e+00 1.748072e+00 2.105962e+00 2.567002e+00 2.458454e+00 2.291096e+00 2.483897e+00 1.791293e+00 1.718271e+00 4.929720e-04
<GCONST> 8.437953e+01
<MIXTURE> 49 5.548473e-03
<MEAN> 25
 -5.086483e+00 3.546833e-01 1.694660e-01 8.451368e+00 6.146289e+00 5.619941e+00 6.068613e+00 4.486644e+00 5.026767e+00 3.720984e+00 4.934197e+00 2.860600e+00 3.658555e-01 6.557607e-01 7.024493e-01 3.532241e-01 -1.966451e-01 -6.693412e-01 -1.008946e+00 -1.121478e+00 -9.560348e-01 -6.804776e-01 -4.930209e-01 -2.719509e-01 -1.913709e-05
<VARIANCE> 25
 9.598217e+00 1.003309e+01 1.425654e+01 1.588945e+01 1.590609e+01 1.713240e+01 1.943010e+01 1.943371e+01 1.822942e+01 1.796420e+01 2.063187e+01 1.430104e+01 2.804742e-01 2.633157e-01 3.595093e-01 6.115832e-01 8.692518e-01 9.739753e-01 9.923638e-01 1.052798e+00 1.135406e+00 1.219453e+00 1.280909e+00 1.209124e+00 1.434927e-05
<GCONST> 6.432532e+01
<MIXTURE> 50 6.234641e-03
<MEAN> 25
 -4.367146e+00 1.658899e-01 -1.227419e+00 6.276924e+00 4.222461e+00 2.201770e+00 3.432802e+00 1.829673e+00 2.652147e+00 1.057670e+00 2.249881e+00 2.644836e+00 6.810900e-02 1.689498e-01 1.074990e-01 -2.280017e-01 -5.133327e-01 -6.489920e-01 -4.347300e-01 -2.279470e-02 4.703290e-01 7.660017e-01 7.058766e-01 3.678447e-01 -4.319614e-05
<VARIANCE> 25
 1.242191e+01 1.091737e+01 1.541430e+01 1.538923e+01 1.491394e+01 1.806366e+01 2.044445e+01 1.942642e+01 1.839903e+01 1.999558e+01 2.108386e+01 1.614235e+01 1.436111e-01 2.352817e-01 3.795630e-01 5.874882e-01 5.833275e-01 7.508610e-01 9.353833e-01 1.097653e+00 1.045884e+00 8.777302e-01 9.429312e-01 1.116188e+00 9.986119e-07
<GCONST> 6.010532e+01
<MIXTURE> 51 6.234641e-03
<MEAN> 25
 -4.367146e+00 1.658899e-01 -1.227419e+00 6.276924e+00 4.222461e+00 2.201770e+00 3.432802e+00 1.829673e+00 2.652147e+00 1.057670e+00 2.249881e+00 2.644836e+00 6.810900e-02 1.689498e-01 1.074990e-01 -2.280017e-01 -5.133327e-01 -6.489920e-01 -4.347300e-01 -2.279470e-02 4.703290e-01 7.660017e-01 7.058766e-01 3.678447e-01 -4.319614e-05
<VARIANCE> 25
 1.242191e+01 1.091737e+01 1.541430e+01 1.538923e+01 1.491394e+01 1.806366e+01 2.044445e+01 1.942642e+01 1.839903e+01 1.999558e+01 2.108386e+01 1.614235e+01 1.436111e-01 2.352817e-01 3.795630e-01 5.874882e-01 5.833275e-01 7.508610e-01 9.353833e-01 1.097653e+00 1.045884e+00 8.777302e-01 9.429312e-01 1.116188e+00 9.986119e-07
<GCONST> 6.010532e+01
<MIXTURE> 52 6.367945e-03
<MEAN> 25
 9.979254e+00 2.198956e+00 -5.998218e+00 -1.359021e+01 -4.099462e+00 8.253308e+00 -2.138011e+00 -2.963853e+00 -4.558630e+00 -1.779439e+00 3.565958e+00 8.043149e-01 -3.965535e-01 -5.136513e-01 -1.691592e-02 1.077353e+00 1.378644e+00 -4.199339e-01 -5.519431e-01 -6.106661e-01 1.817171e-01 1.194167e+00 3.409457e-01 -5.178257e-01 -1.484732e-02
<VARIANCE> 25
 9.000028e+00 1.958901e+01 2.431897e+01 4.289562e+01 4.322438e+01 2.997854e+01 4.884694e+01 4.613155e+01 4.085289e+01 4.489564e+01 3.811160e+01 2.815458e+01 4.244379e-01 1.405467e+00 1.266779e+00 2.641871e+00 2.204812e+00 2.106390e+00 2.902658e+00 2.676049e+00 3.089717e+00 2.545408e+00 2.417233e+00 2.148556e+00 1.466357e-03
<GCONST> 8.891052e+01
<MIXTURE> 53 6.367945e-03
<MEAN> 25
 9.979254e+00 2.198956e+00 -5.998218e+00 -1.359021e+01 -4.099462e+00 8.253308e+00 -2.138011e+00 -2.963853e+00 -4.558630e+00 -1.779439e+00 3.565958e+00 8.043149e-01 -3.965535e-01 -5.136513e-01 -1.691592e-02 1.077353e+00 1.378644e+00 -4.199339e-01 -5.519431e-01 -6.106661e-01 1.817171e-01 1.194167e+00 3.409457e-01 -5.178257e-01 -1.484732e-02
<VARIANCE> 25
 9.000028e+00 1.958901e+01 2.431897e+01 4.289562e+01 4.322438e+01 2.997854e+01 4.884694e+01 4.613155e+01 4.085289e+01 4.489564e+01 3.811160e+01 2.815458e+01 4.244379e-01 1.405467e+00 1.266779e+00 2.641871e+00 2.204812e+00 2.106390e+00 2.902658e+00 2.676049e+00 3.089717e+00 2.545408e+00 2.417233e+00 2.148556e+00 1.466357e-03
<GCONST> 8.891052e+01
<MIXTURE> 54 7.368620e-03
<MEAN> 25
 -3.633746e+00 4.933883e-02 -6.835626e-01 8.035493e+00 6.483167e+00 4.625055e+00 4.675813e+00 4.600749e+00 4.053129e+00 3.593227e+00 4.457029e+00 2.325981e+00 -2.124936e-03 2.652565e-02 3.410448e-02 4.751961e-02 5.144873e-02 4.720714e-02 3.907571e-02 2.902487e-02 3.081293e-02 2.499397e-02 1.469119e-02 1.927014e-03 -1.258076e-05
<VARIANCE> 25
 9.136238e+00 1.036218e+01 9.295828e+00 1.819108e+01 1.332457e+01 1.353251e+01 1.197150e+01 1.128112e+01 1.134138e+01 1.355045e+01 1.780172e+01 1.253351e+01 4.087013e-02 8.733541e-02 1.540812e-01 2.265617e-01 3.079473e-01 3.970139e-01 4.610465e-01 5.215933e-01 5.420095e-01 5.211089e-01 5.145787e-01 5.165340e-01 1.000947e-06
<GCONST> 4.724983e+01
<MIXTURE> 55 7.368620e-03
<MEAN> 25
 -3.633746e+00 4.933883e-02 -6.835626e-01 8.035493e+00 6.483167e+00 4.625055e+00 4.675813e+00 4.600749e+00 4.053129e+00 3.593227e+00 4.457029e+00 2.325981e+00 -2.124936e-03 2.652565e-02 3.410448e-02 4.751961e-02 5.144873e-02 4.720714e-02 3.907571e-02 2.902487e-02 3.081293e-02 2.499397e-02 1.469119e-02 1.927014e-03 -1.258076e-05
<VARIANCE> 25
 9.136238e+00 1.036218e+01 9.295828e+00 1.819108e+01 1.332457e+01 1.353251e+01 1.197150e+01 1.128112e+01 1.134138e+01 1.355045e+01 1.780172e+01 1.253351e+01 4.087013e-02 8.733541e-02 1.540812e-01 2.265617e-01 3.079473e-01 3.970139e-01 4.610465e-01 5.215933e-01 5.420095e-01 5.211089e-01 5.145787e-01 5.165340e-01 1.000947e-06
<GCONST> 4.724983e+01
<MIXTURE> 56 6.132464e-03
<MEAN> 25
 7.374515e+00 -6.845636e+00 -8.552618e+00 -8.195209e+00 4.121871e+00 3.742248e+00 -1.847963e+00 -1.216456e+00 2.011503e+00 1.084313e+00 -2.620303e+00 -6.956376e+00 -2.178900e-02 -1.360459e-02 -4.378915e-02 -8.916074e-03 2.433250e-01 -1.558438e-02 2.119457e-02 -9.280429e-02 -1.234698e-02 -1.214649e-02 -1.370829e-01 -9.047894e-03 -4.252363e-03
<VARIANCE> 25
 8.959174e+00 2.195198e+01 2.208581e+01 4.021626e+01 3.200161e+01 4.697588e+01 6.187794e+01 3.580735e+01 3.859676e+01 3.698712e+01 3.745446e+01 3.084821e+01 2.029062e-01 4.369699e-01 4.294529e-01 7.358223e-01 7.780014e-01 1.140660e+00 1.007444e+00 9.344215e-01 9.498662e-01 9.007020e-01 1.018126e+00 7.544507e-01 3.165174e-04
<GCONST> 7.511964e+01
<MIXTURE> 57 6.132464e-03
<MEAN> 25
 7.374515e+00 -6.845636e+00 -8.552618e+00 -8.195209e+00 4.121871e+00 3.742248e+00 -1.847963e+00 -1.216456e+00 2.011503e+00 1.084313e+00 -2.620303e+00 -6.956376e+00 -2.178900e-02 -1.360459e-02 -4.378915e-02 -8.916074e-03 2.433250e-01 -1.558438e-02 2.119457e-02 -9.280429e-02 -1.234698e-02 -1.214649e-02 -1.370829e-01 -9.047894e-03 -4.252363e-03
<VARIANCE> 25
 8.959174e+00 2.195198e+01 2.208581e+01 4.021626e+01 3.200161e+01 4.697588e+01 6.187794e+01 3.580735e+01 3.859676e+01 3.698712e+01 3.745446e+01 3.084821e+01 2.029062e-01 4.369699e-01 4.294529e-01 7.358223e-01 7.780014e-01 1.140660e+00 1.007444e+00 9.344215e-01 9.498662e-01 9.007020e-01 1.018126e+00 7.544507e-01 3.165174e-04
<GCONST> 7.511964e+01
<MIXTURE> 58 6.172147e-03
<MEAN> 25
 2.530902e+00 -2.997418e+00 7.711211e+00 -4.896874e+00 -1.338511e+01 -5.119778e+00 8.861970e-01 8.228893e-01 -3.035305e+00 1.913124e+00 3.820567e-01 -1.042374e-02 -3.447907e-02 -7.844391e-02 -6.385410e-02 -1.218628e-01 -2.510962e-02 2.117619e-01 3.175727e-01 1.998572e-01 -3.916093e-02 1.241760e-02 -7.577772e-02 -1.395638e-01 -2.474453e-03
<VARIANCE> 25
 6.856747e+00 1.448111e+01 2.001436e+01 2.631632e+01 2.317374e+01 4.496226e+01 3.581008e+01 3.211754e+01 3.869189e+01 2.890882e+01 2.123048e+01 2.542475e+01 3.128206e-01 7.963604e-01 7.889851e-01 9.943278e-01 8.871523e-01 1.145388e+00 1.142435e+00 1.280062e+00 1.135831e+00 1.076662e+00 9.121809e-01 8.488265e-01 6.769517e-04
<GCONST> 7.553011e+01
<MIXTURE> 59 6.172147e-03
<MEAN> 25
 2.530902e+00 -2.997418e+00 7.711211e+00 -4.896874e+00 -1.338511e+01 -5.119778e+00 8.861970e-01 8.228893e-01 -3.035305e+00 1.913124e+00 3.820567e-01 -1.042374e-02 -3.447907e-02 -7.844391e-02 -6.385410e-02 -1.218628e-01 -2.510962e-02 2.117619e-01 3.175727e-01 1.998572e-01 -3.916093e-02 1.241760e-02 -7.577772e-02 -1.395638e-01 -2.474453e-03
<VARIANCE> 25
 6.856747e+00 1.448111e+01 2.001436e+01 2.631632e+01 2.317374e+01 4.496226e+01 3.581008e+01 3.211754e+01 3.869189e+01 2.890882e+01 2.123048e+01 2.542475e+01 3.128206e-01 7.963604e-01 7.889851e-01 9.943278e-01 8.871523e-01 1.145388e+00 1.142435e+00 1.280062e+00 1.135831e+00 1.076662e+00 9.121809e-01 8.488265e-01 6.769517e-04
<GCONST> 7.553011e+01
<MIXTURE> 60 4.479129e-03
<MEAN> 25
 -3.955084e+00 -5.391444e-01 -1.370629e+00 2.899161e+00 1.392155e+00 2.196179e+00 2.180845e+00 1.102843e+00 2.449128e+00 9.420675e-01 2.466432e+00 1.329286e+00 -2.400768e-02 3.861816e-02 5.520146e-02 1.231240e-01 1.645138e-01 2.373820e-01 2.346176e-01 2.526607e-01 4.214657e-01 6.069703e-01 6.561305e-01 4.200902e-01 -4.385540e-04
<VARIANCE> 25
 6.592719e+00 4.033361e+00 9.593672e+00 1.296373e+01 1.267754e+01 1.498318e+01 1.474080e+01 1.297486e+01 1.154870e+01 1.266268e+01 1.587390e+01 1.421477e+01 8.415503e-02 1.522488e-01 2.601289e-01 3.801615e-01 5.883719e-01 8.291818e-01 7.909171e-01 8.960955e-01 1.009437e+00 7.812708e-01 9.928743e-01 9.024556e-01 2.506102e-05
<GCONST> 5.628085e+01
<MIXTURE> 61 4.479129e-03
<MEAN> 25
 -3.955084e+00 -5.391444e-01 -1.370629e+00 2.899161e+00 1.392155e+00 2.196179e+00 2.180845e+00 1.102843e+00 2.449128e+00 9.420675e-01 2.466432e+00 1.329286e+00 -2.400768e-02 3.861816e-02 5.520146e-02 1.231240e-01 1.645138e-01 2.373820e-01 2.346176e-01 2.526607e-01 4.214657e-01 6.069703e-01 6.561305e-01 4.200902e-01 -4.385540e-04
<VARIANCE> 25
 6.592719e+00 4.033361e+00 9.593672e+00 1.296373e+01 1.267754e+01 1.498318e+01 1.474080e+01 1.297486e+01 1.154870e+01 1.266268e+01 1.587390e+01 1.421477e+01 8.415503e-02 1.522488e-01 2.601289e-01 3.801615e-01 5.883719e-01 8.291818e-01 7.909171e-01 8.960955e-01 1.009437e+00 7.812708e-01 9.928743e-01 9.024556e-01 2.506102e-05
<GCONST> 5.628085e+01
<MIXTURE> 62 3.278034e-03
<MEAN> 25
 -5.089509e+00 1.242379e+00 1.023440e+00 8.808643e+00 6.127952e+00 5.047559e+00 5.497495e+00 4.030913e+00 4.986274e+00 3.911503e+00 4.956553e+00 2.944273e+00 -1.002890e+00 -1.166886e+00 -9.522747e-01 -2.762854e-01 4.273113e-01 1.004598e+00 1.384389e+00 1.552281e+00 1.478907e+00 1.244138e+00 1.067431e+00 7.275800e-01 -1.261082e-03
<VARIANCE> 25
 9.889176e+00 9.959083e+00 1.311513e+01 1.682928e+01 1.742358e+01 1.752447e+01 1.969507e+01 1.910869e+01 1.884353e+01 1.875552e+01 2.168487e+01 1.483853e+01 4.017403e-01 4.319389e-01 5.547101e-01 7.789314e-01 1.035521e+00 1.192039e+00 1.251694e+00 1.280126e+00 1.328952e+00 1.363792e+00 1.401032e+00 1.375165e+00 1.634090e-05
<GCONST> 6.754724e+01
<MIXTURE> 63 4.351215e-03
<MEAN> 25
 -3.895029e+00 -1.852016e+00 -4.390339e+00 2.202972e+00 3.175062e+00 -6.037496e-02 3.087028e+00 1.464382e+00 2.753630e+00 -1.438451e+00 -8.334730e-01 1.887789e+00 -5.391778e-02 2.649189e-01 3.075583e-01 4.932266e-01 3.908890e-01 3.118417e-01 3.942686e-01 1.433829e-01 1.092659e-01 2.234977e-01 3.068191e-01 1.816048e-01 -4.199893e-03
<VARIANCE> 25
 8.932517e+00 1.643831e+01 1.555541e+01 1.668841e+01 1.853810e+01 2.547749e+01 2.094008e+01 2.271621e+01 2.517163e+01 2.085778e+01 2.090075e+01 1.767978e+01 2.937259e-01 4.547628e-01 6.539617e-01 6.345990e-01 8.891550e-01 1.202489e+00 1.117273e+00 1.584503e+00 1.588467e+00 1.428624e+00 1.353430e+00 1.296718e+00 1.674114e-04
<GCONST> 7.142580e+01
<MIXTURE> 64 4.351215e-03
<MEAN> 25
 -3.895029e+00 -1.852016e+00 -4.390339e+00 2.202972e+00 3.175062e+00 -6.037496e-02 3.087028e+00 1.464382e+00 2.753630e+00 -1.438451e+00 -8.334730e-01 1.887789e+00 -5.391778e-02 2.649189e-01 3.075583e-01 4.932266e-01 3.908890e-01 3.118417e-01 3.942686e-01 1.433829e-01 1.092659e-01 2.234977e-01 3.068191e-01 1.816048e-01 -4.199893e-03
<VARIANCE> 25
 8.932517e+00 1.643831e+01 1.555541e+01 1.668841e+01 1.853810e+01 2.547749e+01 2.094008e+01 2.271621e+01 2.517163e+01 2.085778e+01 2.090075e+01 1.767978e+01 2.937259e-01 4.547628e-01 6.539617e-01 6.345990e-01 8.891550e-01 1.202489e+00 1.117273e+00 1.584503e+00 1.588467e+00 1.428624e+00 1.353430e+00 1.296718e+00 1.674114e-04
<GCONST> 7.142580e+01
<MIXTURE> 65 1.721197e-02
<MEAN> 25
 7.483126e+00 1.683070e+00 2.040357e+00 1.163293e+00 -4.930100e+00 -3.647838e+00 -5.832508e+00 -6.071279e+00 -3.586215e+00 -2.049707e+00 -3.659439e+00 -1.495487e+00 2.732733e-01 1.242951e-01 1.133095e-02 1.575323e-01 -1.611490e-01 2.678394e-01 -1.810139e-01 -1.592697e-01 6.635657e-02 1.545266e-02 4.917962e-02 -6.288609e-02 -4.322242e-03
<VARIANCE> 25
 1.010678e+01 1.922298e+01 2.406808e+01 3.519027e+01 3.819300e+01 5.082173e+01 5.162918e+01 5.179018e+01 5.008739e+01 5.494391e+01 6.334490e+01 4.935276e+01 6.194723e-01 9.495344e-01 1.382286e+00 1.779743e+00 1.918259e+00 2.013147e+00 2.126209e+00 2.710766e+00 2.659486e+00 2.818903e+00 2.312431e+00 2.391972e+00 3.827299e-04
<GCONST> 8.871677e+01
<MIXTURE> 66 1.191532e-02
<MEAN> 25
 6.643991e+00 -4.253027e+00 -5.504426e+00 -4.792304e+00 1.344934e+00 -4.789132e+00 -6.772599e+00 1.184370e+00 8.924544e-01 -1.841782e+00 -6.177301e+00 -3.492026e+00 -1.709039e-02 1.620809e+00 2.193561e+00 2.281860e+00 -1.268598e+00 -1.206240e+00 -1.791298e-02 -5.526693e-01 -7.949138e-02 -2.353291e-01 -1.871127e-01 1.095648e+00 -6.259578e-02
<VARIANCE> 25
 8.733642e+00 2.251151e+01 2.666031e+01 3.219769e+01 3.761379e+01 5.460445e+01 5.499493e+01 4.405817e+01 5.382859e+01 6.635501e+01 3.624222e+01 3.569703e+01 1.268535e+00 2.460478e+00 2.341959e+00 2.443141e+00 4.097778e+00 4.252114e+00 4.408606e+00 4.710823e+00 4.290654e+00 4.903584e+00 3.814310e+00 3.273424e+00 1.475267e-03
<GCONST> 9.657542e+01
<MIXTURE> 67 1.559142e-02
<MEAN> 25
 8.982341e+00 2.034675e+00 -5.973047e+00 -8.267240e+00 9.035420e-01 3.082880e+00 -3.319475e+00 -2.240136e+00 -3.773622e+00 7.802456e-01 -4.995233e-02 -1.731053e+00 -1.073509e+00 1.829219e+00 1.062305e+00 3.070535e+00 1.393086e+00 -5.097771e-01 1.301159e+00 1.209894e-01 1.582684e-01 2.506083e-01 -2.772571e-01 6.244199e-01 -1.299092e-01
<VARIANCE> 25
 1.146938e+01 3.882899e+01 3.079981e+01 5.586801e+01 4.912129e+01 5.404591e+01 6.210763e+01 5.277333e+01 6.473714e+01 5.709811e+01 5.576686e+01 4.735235e+01 2.179195e+00 3.471762e+00 3.288275e+00 4.523184e+00 4.520350e+00 4.549894e+00 4.706422e+00 5.068035e+00 5.474938e+00 4.776994e+00 5.132814e+00 3.744951e+00 3.047275e-03
<GCONST> 1.029145e+02
<MIXTURE> 68 1.485092e-02
<MEAN> 25
 -2.046164e+00 -2.277880e+00 -4.079686e+00 1.231169e+00 5.228241e+00 -7.223044e-01 2.103652e+00 1.795781e+00 2.021873e+00 1.632363e+00 4.656743e-01 1.783894e+00 2.750807e+00 5.449766e-01 2.354413e-02 -2.536094e+00 -2.389462e+00 -1.564974e+00 -2.349608e+00 -1.791642e+00 -1.643792e+00 -1.455608e+00 -1.948419e+00 -1.071394e+00 1.017436e-01
<VARIANCE> 25
 2.588792e+01 3.174846e+01 5.805744e+01 5.194531e+01 4.625701e+01 5.470115e+01 4.505789e+01 4.209604e+01 3.994378e+01 4.327427e+01 3.712994e+01 2.606913e+01 1.905755e+00 3.711389e+00 5.891041e+00 5.984462e+00 4.718266e+00 5.590239e+00 5.752121e+00 4.941453e+00 4.921798e+00 5.262969e+00 5.132795e+00 3.416101e+00 6.238599e-03
<GCONST> 1.035645e+02
<MIXTURE> 69 1.204884e-02
<MEAN> 25
 4.607791e+00 -4.170374e+00 -3.479668e+00 -3.634498e+00 -3.297706e+00 -7.862285e+00 -1.157181e+00 2.219080e+00 -3.841105e-01 -4.759340e+00 -5.520063e+00 8.593832e-01 1.634812e+00 -2.223746e+00 -1.302691e+00 -2.218886e+00 -5.113456e-01 -3.368913e-01 -4.859324e-01 6.171973e-01 -6.076406e-01 -1.420205e+00 -2.143135e+00 -1.911112e-01 6.074471e-02
<VARIANCE> 25
 8.926518e+00 2.161811e+01 2.666375e+01 2.557963e+01 4.419208e+01 3.511185e+01 4.815836e+01 3.130808e+01 3.919865e+01 3.766943e+01 3.169115e+01 2.494818e+01 3.619346e+00 2.886070e+00 3.364425e+00 3.697625e+00 5.757593e+00 4.925975e+00 6.982471e+00 6.009038e+00 5.840606e+00 5.884453e+00 4.426737e+00 3.661020e+00 2.603857e-03
<GCONST> 9.869102e+01
<MIXTURE> 70 1.329190e-02
<MEAN> 25
 7.095021e+00 -2.100827e+00 -3.570255e+00 -3.209639e+00 -2.849865e-01 -7.438615e-01 -7.480464e+00 -3.776491e+00 5.342954e-01 2.756579e+00 2.604252e-01 -5.167703e+00 1.913009e+00 -1.046268e+00 -7.119427e-01 -2.025112e+00 -1.512418e+00 1.144928e+00 -1.345010e+00 -1.645880e-01 2.414158e-01 1.456753e-01 8.040684e-01 -1.388002e+00 5.513132e-02
<VARIANCE> 25
 1.114945e+01 2.128232e+01 2.732221e+01 4.530109e+01 3.380367e+01 4.178279e+01 4.665203e+01 4.138342e+01 4.383304e+01 3.144374e+01 4.412396e+01 2.628870e+01 3.290859e+00 3.086843e+00 4.477795e+00 4.911398e+00 4.857944e+00 5.925146e+00 6.322878e+00 7.130640e+00 5.853798e+00 5.264360e+00 5.699834e+00 4.126211e+00 2.493873e-03
<GCONST> 1.008099e+02
<MIXTURE> 71 1.406903e-02
<MEAN> 25
 5.769310e+00 4.536935e+00 4.464814e+00 3.124078e+00 -2.428751e+00 -4.202454e+00 -3.927956e+00 -5.733109e+00 -4.683525e+00 -1.633111e+00 -4.134354e+00 -2.859498e+00 -1.580537e+00 -4.337161e-01 -3.849077e-01 -2.115092e+00 1.629645e+00 -2.849164e-01 3.956433e-01 1.263836e+00 2.877977e-01 -2.389758e-01 5.955702e-01 1.033200e-01 2.875401e-02
<VARIANCE> 25
 1.745809e+01 2.240122e+01 2.101440e+01 4.154593e+01 4.200694e+01 4.015634e+01 3.709663e+01 3.775557e+01 3.217135e+01 4.822444e+01 3.523534e+01 3.169419e+01 1.461311e+00 2.927898e+00 4.440454e+00 4.613834e+00 5.284948e+00 4.368608e+00 4.588076e+00 4.730672e+00 3.583282e+00 3.931433e+00 3.282399e+00 2.996378e+00 1.847776e-03
<GCONST> 9.705601e+01
<MIXTURE> 72 8.134747e-03
<MEAN> 25
 3.317816e+00 -3.160764e+00 5.808074e+00 -1.749156e+00 -1.023303e+01 -8.397073e+00 -2.825424e+00 9.788189e-01 -4.761270e+00 -1.675242e+00 -2.302953e+00 1.681667e+00 8.771109e-01 -8.059475e-01 -2.221712e+00 4.874774e-01 1.975547e+00 -8.706189e-01 -1.096423e+00 1.228977e+00 2.017999e+00 -5.617562e-01 -1.281017e+00 4.184934e-01 -7.230034e-03
<VARIANCE> 25
 1.018786e+01 1.792306e+01 2.819162e+01 3.484357e+01 2.956242e+01 3.485345e+01 3.633678e+01 3.481828e+01 4.831060e+01 3.531578e+01 3.370716e+01 2.823654e+01 4.853255e-01 1.055387e+00 2.192621e+00 1.217906e+00 2.035343e+00 2.329945e+00 2.772349e+00 2.676152e+00 2.459682e+00 2.798230e+00 1.917507e+00 1.928085e+00 4.653677e-04
<GCONST> 8.586271e+01
<MIXTURE> 73 1.213625e-02
<MEAN> 25
 -5.585884e+00 -6.863189e-01 -1.516426e+00 4.579243e+00 4.381437e+00 2.107247e+00 5.630399e+00 3.078491e+00 4.276279e+00 3.107944e+00 4.170037e+00 2.785003e+00 5.297442e-01 -8.778329e-01 -9.018519e-01 -2.401329e+00 -1.314088e+00 -1.739032e+00 -8.129638e-01 -5.657780e-01 -8.391466e-01 -6.708339e-01 -1.247337e+00 -3.973666e-01 1.510160e-01
<VARIANCE> 25
 1.216613e+01 1.263091e+01 1.479022e+01 2.231014e+01 2.228691e+01 2.662560e+01 1.919353e+01 2.051176e+01 1.823871e+01 1.915415e+01 2.144223e+01 1.544955e+01 4.706025e+00 3.324766e+00 5.639841e+00 5.073815e+00 5.846680e+00 4.267680e+00 4.272619e+00 4.135064e+00 3.849087e+00 3.946227e+00 3.600929e+00 2.863304e+00 4.218076e-03
<GCONST> 9.257945e+01
<MIXTURE> 74 1.756491e-02
<MEAN> 25
 4.307470e+00 -1.582258e+00 5.428727e+00 -2.709723e-01 -9.382055e+00 -6.916764e+00 -3.516415e+00 1.369584e-01 -4.494719e+00 -2.791099e+00 -1.176066e+00 6.959812e-01 1.722033e-01 1.923003e+00 -8.576634e-02 1.637179e+00 1.383667e+00 3.262227e-02 1.254957e-01 -1.322949e+00 5.902545e-01 1.456073e-01 -3.374493e-01 -2.122755e-01 -7.032623e-02
<VARIANCE> 25
 1.070546e+01 1.922834e+01 3.239278e+01 3.875488e+01 3.892396e+01 4.326864e+01 4.806358e+01 4.436996e+01 4.469980e+01 4.353989e+01 3.596445e+01 3.028988e+01 1.947485e+00 1.925624e+00 3.513960e+00 2.358047e+00 3.516988e+00 3.856729e+00 4.398468e+00 3.718684e+00 5.731294e+00 3.836729e+00 3.395728e+00 2.962881e+00 1.770297e-03
<GCONST> 9.597143e+01
<MIXTURE> 75 9.711651e-03
<MEAN> 25
 2.927155e+00 -1.735364e+00 1.013179e+01 2.107273e+00 -1.097577e+01 -6.825498e+00 -4.906049e+00 -1.297938e+00 -3.588848e+00 -4.330455e+00 2.424651e+00 1.027664e+00 1.849487e+00 -1.612079e+00 3.142983e-01 -1.820423e-01 -2.145875e+00 -4.246481e-01 -1.535535e+00 1.025794e+00 -1.509705e-01 -4.197266e-01 1.017201e+00 -3.562303e-01 3.133047e-02
<VARIANCE> 25
 1.021257e+01 1.673236e+01 2.808384e+01 2.284297e+01 2.650982e+01 3.049227e+01 2.542901e+01 2.803499e+01 3.247239e+01 2.685034e+01 2.280805e+01 2.308091e+01 1.946069e+00 2.083782e+00 3.682069e+00 2.002165e+00 3.321530e+00 3.626421e+00 3.345132e+00 3.016964e+00 3.236546e+00 2.883029e+00 2.567322e+00 3.017758e+00 1.436981e-03
<GCONST> 8.978648e+01
<MIXTURE> 76 1.052359e-02
<MEAN> 25
 -7.549862e+00 -1.665941e-02 -3.053632e+00 2.767118e+00 4.346891e+00 1.073825e-01 4.172879e+00 1.874998e+00 3.488271e+00 -6.510548e-01 6.768499e-01 1.512609e+00 -2.515021e-04 -5.018561e-01 -3.206541e-01 -6.585355e-01 -5.244347e-01 -9.621208e-01 -7.050580e-01 -2.809974e-01 -3.886906e-01 -2.306583e-01 -2.586482e-01 -1.577216e-01 1.318063e-02
<VARIANCE> 25
 3.548921e+01 3.069107e+01 2.662362e+01 2.365738e+01 2.271520e+01 2.758963e+01 2.881772e+01 2.774405e+01 2.586596e+01 2.148989e+01 2.298226e+01 1.712132e+01 1.184747e+00 1.321313e+00 1.382389e+00 9.753512e-01 1.196392e+00 1.499219e+00 2.111006e+00 1.670128e+00 1.426584e+00 1.672182e+00 1.721653e+00 1.481752e+00 1.261767e-03
<GCONST> 8.252766e+01
<MIXTURE> 77 1.244626e-02
<MEAN> 25
 -4.457774e-01 8.035221e+00 1.206549e+01 -1.060351e+01 -6.397498e+00 1.009212e+00 -9.115157e+00 -6.293960e+00 -3.714667e+00 -1.477390e-01 -4.587148e+00 -3.973188e-01 5.330032e-02 1.551246e-01 4.432263e-03 1.974677e-01 1.311476e-01 1.166577e-01 2.925375e-02 2.634718e-02 9.360383e-02 -9.172106e-02 -4.953334e-03 1.252885e-01 -9.661270e-03
<VARIANCE> 25
 9.511290e+00 2.047650e+01 2.608605e+01 4.508015e+01 3.412139e+01 3.054544e+01 3.323222e+01 3.571025e+01 3.387326e+01 3.089143e+01 3.490626e+01 4.217206e+01 3.001508e-01 7.105954e-01 6.305897e-01 1.078530e+00 1.362770e+00 9.872350e-01 1.255228e+00 1.064503e+00 1.070589e+00 1.008692e+00 9.089256e-01 8.487826e-01 4.993505e-04
<GCONST> 7.743524e+01
<MIXTURE> 78 9.702551e-03
<MEAN> 25
 -9.423331e+00 9.032913e-01 -2.427587e+00 1.251648e+00 3.418532e+00 -2.263904e+00 3.274004e+00 2.705519e+00 3.241154e+00 -1.919824e-01 -2.724164e-01 1.448735e+00 2.306263e+00 -4.067670e-01 1.784197e-01 1.822917e-01 7.549494e-02 -1.758980e-01 -6.029856e-01 -3.313013e-01 -2.278345e-01 1.615878e-01 -4.205272e-02 -6.160464e-01 -6.241561e-02
<VARIANCE> 25
 3.785656e+01 2.659656e+01 2.567155e+01 2.411701e+01 2.925652e+01 3.167514e+01 2.973047e+01 3.169440e+01 2.248814e+01 2.365934e+01 2.099150e+01 1.955740e+01 4.051894e+00 2.653611e+00 2.533602e+00 2.966270e+00 2.265542e+00 2.803519e+00 3.359591e+00 3.072061e+00 2.268341e+00 1.927844e+00 2.265759e+00 1.916403e+00 3.971567e-03
<GCONST> 9.125411e+01
<MIXTURE> 79 1.156824e-02
<MEAN> 25
 2.368654e+00 1.541175e+00 9.080561e+00 -6.228325e+00 -1.160928e+01 -1.692850e+00 -2.130615e+00 -6.125233e+00 -6.557268e+00 4.129215e-01 -3.401100e+00 -2.828545e+00 1.205696e+00 -4.807001e-01 -1.406357e+00 2.352179e+00 3.985420e-01 -1.425399e+00 5.691634e-01 7.767699e-01 -3.042154e-01 -6.094249e-01 4.197079e-01 1.985505e-01 -3.590506e-02
<VARIANCE> 25
 1.356265e+01 2.343769e+01 3.607919e+01 4.926395e+01 3.870864e+01 4.148628e+01 4.110450e+01 3.692833e+01 3.956456e+01 3.793334e+01 4.183046e+01 3.225702e+01 9.319522e-01 2.181420e+00 1.849442e+00 2.116764e+00 2.368495e+00 2.713152e+00 3.062625e+00 3.560038e+00 2.766176e+00 2.708418e+00 2.401799e+00 2.141235e+00 1.171654e-03
<GCONST> 9.164492e+01
<MIXTURE> 80 7.550998e-03
<MEAN> 25
 -1.459644e+01 3.982121e+00 6.635713e-01 2.860945e+00 2.453522e+00 1.396477e+00 6.392806e+00 2.486725e+00 2.722864e+00 2.357307e+00 4.843350e+00 1.179079e+00 4.276976e+00 -2.125397e-02 1.635390e+00 -1.134063e+00 -2.881400e+00 -2.773301e+00 -2.324875e+00 -2.019577e+00 -1.969599e+00 -1.679319e+00 -1.645648e+00 -5.990734e-01 -4.424202e-02
<VARIANCE> 25
 2.095485e+01 1.982899e+01 3.458171e+01 3.461614e+01 3.011064e+01 2.920340e+01 2.827394e+01 2.857509e+01 2.668472e+01 2.884170e+01 2.682868e+01 1.807746e+01 2.380291e+00 2.670055e+00 2.668332e+00 4.111269e+00 3.406160e+00 2.705220e+00 3.021332e+00 3.198206e+00 2.752425e+00 2.706844e+00 2.783398e+00 2.146512e+00 1.509796e-03
<GCONST> 9.140136e+01
<MIXTURE> 81 8.025434e-03
<MEAN> 25
 -1.139595e+00 4.049437e+00 1.014870e+01 -1.474240e+01 -9.048556e+00 -1.437332e+00 -6.773785e+00 -8.408863e+00 -4.141359e+00 -3.896932e-01 -7.537011e+00 -2.250365e+00 1.300174e-01 -5.825319e-01 1.588920e-03 -5.494464e-01 -4.702308e-01 3.436733e-01 3.213013e-01 1.283717e-01 -1.364138e-01 1.118608e-01 -4.728863e-01 -1.230266e-01 1.157484e-02
<VARIANCE> 25
 1.029715e+01 3.274061e+01 2.662282e+01 2.989272e+01 3.379761e+01 3.044755e+01 4.534766e+01 2.826135e+01 3.793147e+01 3.206710e+01 2.551648e+01 3.110775e+01 7.741730e-01 2.271467e+00 1.549758e+00 2.877352e+00 2.693945e+00 2.138741e+00 3.267347e+00 2.318274e+00 2.358872e+00 2.546679e+00 2.291456e+00 2.071394e+00 1.181929e-03
<GCONST> 8.876466e+01
<MIXTURE> 82 8.213053e-03
<MEAN> 25
 -9.898597e+00 -3.832704e+00 1.496830e+00 -2.726606e+00 3.140798e+00 7.550706e-01 2.127081e+00 1.036117e+00 3.271029e+00 1.518936e+00 1.683112e+00 2.913954e+00 -1.380766e+00 -1.182389e-01 2.973409e-01 -2.452825e+00 -1.104151e+00 -1.272325e+00 -9.800397e-01 -8.266808e-01 -2.965668e-01 -4.491496e-01 -4.033877e-01 -1.208769e-01 1.742931e-01
<VARIANCE> 25
 1.878545e+01 2.445685e+01 3.148898e+01 3.128477e+01 3.217178e+01 3.369792e+01 3.118525e+01 3.319003e+01 3.538373e+01 2.521773e+01 2.990237e+01 1.756042e+01 3.695182e+00 3.030933e+00 3.259224e+00 3.574538e+00 3.464766e+00 3.203497e+00 2.964310e+00 3.097095e+00 2.732213e+00 2.433503e+00 2.524704e+00 1.912900e+00 3.617700e-03
<GCONST> 9.330029e+01
<MIXTURE> 83 1.167529e-02
<MEAN> 25
 -1.852559e+01 5.879221e+00 -3.808647e+00 -3.368984e-01 7.477164e+00 -1.870875e+00 6.901416e+00 1.908819e+00 1.005674e+00 1.838035e+00 5.427512e-01 1.667650e+00 -8.049398e-02 -2.955920e-01 -2.231610e-01 -1.105073e-01 -5.493335e-01 -1.152458e-01 -3.034099e-01 -2.332320e-01 -6.797099e-02 8.344634e-03 1.876751e-02 -1.316786e-01 4.802643e-03
<VARIANCE> 25
 1.309456e+01 1.434630e+01 3.481651e+01 1.874528e+01 1.788372e+01 2.099223e+01 2.433020e+01 2.506134e+01 1.982944e+01 1.891200e+01 1.943326e+01 1.547574e+01 8.905255e-01 9.958961e-01 1.685115e+00 1.100400e+00 1.153715e+00 1.091885e+00 1.399282e+00 1.163928e+00 1.156183e+00 1.201653e+00 1.096801e+00 1.044713e+00 8.068250e-04
<GCONST> 7.619663e+01
<MIXTURE> 84 1.066614e-02
<MEAN> 25
 1.246826e+00 8.639935e+00 7.045870e+00 7.763102e+00 3.027664e+00 -9.160910e-01 -1.463861e+00 -4.054850e+00 -3.888022e+00 -3.059352e+00 -2.189866e+00 -1.297055e+00 -1.645832e+00 -1.040523e+00 -1.186879e+00 1.361349e+00 2.202635e+00 1.430032e+00 1.471451e+00 1.059136e+00 1.027778e+00 1.739266e-01 4.095727e-01 4.049666e-01 -6.529815e-02
<VARIANCE> 25
 2.176035e+01 1.798387e+01 2.010159e+01 2.291504e+01 2.758025e+01 2.596048e+01 2.591204e+01 2.590177e+01 2.343459e+01 2.490314e+01 2.299382e+01 2.358289e+01 2.287012e+00 2.531649e+00 3.498114e+00 3.871545e+00 3.041419e+00 3.152195e+00 3.033352e+00 3.610148e+00 3.355679e+00 4.458716e+00 3.517144e+00 2.593683e+00 3.630336e-03
<GCONST> 9.211038e+01
<MIXTURE> 85 7.591393e-03
<MEAN> 25
 -3.111392e+00 7.874826e+00 5.719750e+00 1.282295e+00 -3.490044e+00 -5.316154e+00 -2.977957e+00 -6.122780e+00 -3.533771e+00 -3.177039e+00 -4.784154e-01 -1.894716e+00 3.939422e+00 3.247754e-01 1.755967e+00 -2.085272e+00 -3.410091e+00 -2.576850e+00 -2.881680e+00 -2.335323e+00 -2.245828e+00 -1.264458e+00 -2.297648e+00 -6.098657e-01 9.159170e-03
<VARIANCE> 25
 4.241320e+01 2.352034e+01 3.645736e+01 3.815268e+01 3.969201e+01 4.119758e+01 3.213450e+01 2.786196e+01 2.663015e+01 2.611059e+01 2.618760e+01 2.056978e+01 2.710598e+00 4.318623e+00 4.052888e+00 5.190040e+00 4.408722e+00 3.894799e+00 3.856909e+00 4.003049e+00 3.846769e+00 4.039780e+00 3.948684e+00 3.508703e+00 5.436338e-03
<GCONST> 9.836404e+01
<MIXTURE> 86 1.273941e-02
<MEAN> 25
 -4.622631e+00 -1.100388e+00 -1.074836e+00 5.577431e+00 4.583015e+00 4.588612e+00 5.289777e+00 3.948567e+00 5.021819e+00 3.529833e+00 5.223464e+00 2.201179e+00 -3.516073e-02 -3.090427e-02 -9.455822e-02 -4.937945e-02 -8.584427e-02 -1.961994e-01 -2.450585e-01 -3.670650e-01 -3.728906e-01 -3.325205e-01 -2.827652e-01 -1.264052e-01 3.461705e-04
<VARIANCE> 25
 7.820859e+00 5.073748e+00 9.888684e+00 1.475276e+01 1.602759e+01 1.301049e+01 1.204129e+01 1.465349e+01 1.332449e+01 1.473897e+01 1.323749e+01 1.389356e+01 1.020327e-01 1.851933e-01 3.256310e-01 4.433193e-01 6.068478e-01 6.699725e-01 6.844059e-01 7.652115e-01 8.561066e-01 8.818875e-01 1.083196e+00 9.989377e-01 5.450104e-05
<GCONST> 5.814772e+01
<MIXTURE> 87 1.100681e-02
<MEAN> 25
 -3.161559e+00 4.509291e+00 3.431102e+00 6.674098e+00 5.754174e+00 7.320412e-01 1.647713e+00 -8.785083e-01 -6.078551e-01 -1.007100e+00 -7.645936e-01 -9.077253e-02 -2.161010e+00 -2.620710e+00 -2.047508e+00 -2.199126e+00 4.833105e-02 -1.664744e-01 6.232029e-01 1.226175e+00 1.353282e+00 1.030806e+00 8.397249e-01 1.005102e+00 1.004520e-01
<VARIANCE> 25
 3.667865e+01 2.858447e+01 2.726892e+01 3.528412e+01 2.868654e+01 3.218600e+01 2.726011e+01 2.699409e+01 2.580055e+01 2.480779e+01 2.483754e+01 2.242343e+01 3.711102e+00 3.106337e+00 3.819045e+00 3.638388e+00 4.765183e+00 4.148997e+00 4.030839e+00 3.825939e+00 3.482720e+00 3.681972e+00 3.490496e+00 2.619903e+00 5.133406e-03
<GCONST> 9.627295e+01
<MIXTURE> 88 1.256585e-02
<MEAN> 25
 -3.345176e+00 -9.285325e-01 -1.625744e+00 3.678465e+00 4.638965e+00 3.004761e+00 4.064269e+00 3.151692e+00 3.955542e+00 1.200438e+00 2.388462e+00 1.771410e+00 2.072634e-01 2.710575e-03 6.098188e-02 3.561944e-01 5.101624e-01 1.317575e-01 9.337445e-02 -3.759524e-01 -3.160461e-01 -8.609194e-02 -3.846033e-02 -2.347719e-01 -3.797055e-03
<VARIANCE> 25
 1.105779e+01 8.487927e+00 1.214837e+01 1.786294e+01 1.784948e+01 1.675162e+01 1.668423e+01 2.035177e+01 1.687432e+01 1.785780e+01 2.280205e+01 1.471613e+01 1.829044e+00 1.394434e+00 1.698652e+00 1.924201e+00 2.216770e+00 2.298604e+00 2.625500e+00 2.510898e+00 2.542352e+00 2.115672e+00 2.219777e+00 2.025321e+00 1.402531e-03
<GCONST> 8.117177e+01
<MIXTURE> 89 9.333527e-03
<MEAN> 25
 5.592776e+00 -7.440832e+00 -1.953492e+00 -3.590299e+00 -1.704092e+00 -4.203891e+00 -6.472106e+00 5.519534e+00 4.663820e+00 -4.844084e-01 -6.989550e+00 -2.707231e+00 -6.296913e-01 3.926248e-01 1.764739e+00 6.930419e-01 -1.677863e+00 -1.508741e+00 8.539240e-01 1.120767e+00 -1.001761e+00 -1.043700e+00 2.400873e-01 1.491668e+00 -6.651403e-04
<VARIANCE> 25
 7.505054e+00 2.086683e+01 2.890245e+01 2.271915e+01 2.768758e+01 3.546045e+01 4.433923e+01 3.560217e+01 3.240652e+01 4.217094e+01 2.846665e+01 2.534514e+01 2.825426e-01 7.564453e-01 1.252399e+00 1.116601e+00 1.596049e+00 1.638874e+00 1.957644e+00 1.645347e+00 1.966773e+00 1.736146e+00 1.916872e+00 1.263414e+00 3.224662e-04
<GCONST> 8.053948e+01
<MIXTURE> 90 7.114505e-03
<MEAN> 25
 2.445192e+00 -9.717153e+00 -4.754813e+00 -3.978981e+00 -3.380812e+00 -1.815405e+00 3.366760e+00 1.180974e+00 -7.529887e+00 -1.021686e+01 -3.430218e+00 -7.438712e-01 -1.633157e-01 9.083654e-01 1.168223e+00 -8.537953e-01 -1.612133e+00 -2.109397e-01 6.443188e-01 -2.094175e-01 -1.682230e-01 7.368828e-01 1.826010e-01 -5.498049e-01 -1.115528e-02
<VARIANCE> 25
 8.519082e+00 1.787141e+01 1.981070e+01 2.801401e+01 3.683830e+01 3.216999e+01 3.850953e+01 3.639587e+01 3.521740e+01 2.768937e+01 2.700476e+01 2.617348e+01 2.238484e-01 6.135960e-01 7.872516e-01 1.042433e+00 1.471402e+00 1.593677e+00 1.780006e+00 1.654391e+00 1.810361e+00 1.677754e+00 1.495597e+00 1.308379e+00 2.150542e-04
<GCONST> 7.814477e+01
<MIXTURE> 91 7.852945e-03
<MEAN> 25
 6.316819e+00 -7.820251e+00 -7.779598e+00 -4.933220e+00 3.859829e+00 4.146306e-01 -2.208305e+00 7.160167e-01 1.574289e+00 -2.037864e+00 -5.214432e+00 -4.935697e+00 3.116373e-01 9.271762e-01 2.526885e-01 5.419739e-01 -2.612445e-01 -4.777190e-01 -5.798197e-01 -1.852500e-01 1.071741e-01 2.324919e-01 -6.974124e-02 4.923580e-01 -3.355687e-02
<VARIANCE> 25
 9.167768e+00 2.055684e+01 2.171909e+01 3.667396e+01 3.202003e+01 5.111576e+01 4.900959e+01 3.531466e+01 5.086049e+01 6.275280e+01 3.536485e+01 3.899895e+01 4.205658e-01 8.917805e-01 1.018017e+00 1.335202e+00 2.256291e+00 2.212146e+00 2.434691e+00 2.206169e+00 2.462363e+00 2.339703e+00 1.933914e+00 2.186334e+00 5.752321e-04
<GCONST> 8.636758e+01
<MIXTURE> 92 7.852945e-03
<MEAN> 25
 6.316819e+00 -7.820251e+00 -7.779598e+00 -4.933220e+00 3.859829e+00 4.146306e-01 -2.208305e+00 7.160167e-01 1.574289e+00 -2.037864e+00 -5.214432e+00 -4.935697e+00 3.116373e-01 9.271762e-01 2.526885e-01 5.419739e-01 -2.612445e-01 -4.777190e-01 -5.798197e-01 -1.852500e-01 1.071741e-01 2.324919e-01 -6.974124e-02 4.923580e-01 -3.355687e-02
<VARIANCE> 25
 9.167768e+00 2.055684e+01 2.171909e+01 3.667396e+01 3.202003e+01 5.111576e+01 4.900959e+01 3.531466e+01 5.086049e+01 6.275280e+01 3.536485e+01 3.899895e+01 4.205658e-01 8.917805e-01 1.018017e+00 1.335202e+00 2.256291e+00 2.212146e+00 2.434691e+00 2.206169e+00 2.462363e+00 2.339703e+00 1.933914e+00 2.186334e+00 5.752321e-04
<GCONST> 8.636758e+01
<MIXTURE> 93 6.122769e-03
<MEAN> 25
 -6.822179e+00 -9.609364e-01 -2.402567e+00 5.795480e+00 5.904969e+00 3.920899e+00 6.123584e+00 3.606617e+00 4.119686e+00 2.505627e+00 1.818959e+00 3.699084e+00 -6.135668e-02 -1.541664e-01 -2.575296e-01 -3.315793e-01 -3.342089e-01 -2.843645e-01 -2.177290e-01 -1.737576e-01 -1.660528e-01 -1.504287e-01 -1.053168e-01 -3.633910e-02 -3.245898e-06
<VARIANCE> 25
 9.110297e+00 6.024134e+00 8.180503e+00 1.137302e+01 1.150416e+01 1.597957e+01 1.526707e+01 1.644343e+01 1.474945e+01 1.455498e+01 1.678065e+01 1.351668e+01 8.294711e-02 1.533538e-01 2.637402e-01 3.804073e-01 4.979158e-01 6.419907e-01 7.791429e-01 8.876767e-01 9.172462e-01 8.756770e-01 8.933143e-01 9.185731e-01 1.001105e-06
<GCONST> 5.361366e+01
<MIXTURE> 94 6.122769e-03
<MEAN> 25
 -6.822179e+00 -9.609364e-01 -2.402567e+00 5.795480e+00 5.904969e+00 3.920899e+00 6.123584e+00 3.606617e+00 4.119686e+00 2.505627e+00 1.818959e+00 3.699084e+00 -6.135668e-02 -1.541664e-01 -2.575296e-01 -3.315793e-01 -3.342089e-01 -2.843645e-01 -2.177290e-01 -1.737576e-01 -1.660528e-01 -1.504287e-01 -1.053168e-01 -3.633910e-02 -3.245898e-06
<VARIANCE> 25
 9.110297e+00 6.024134e+00 8.180503e+00 1.137302e+01 1.150416e+01 1.597957e+01 1.526707e+01 1.644343e+01 1.474945e+01 1.455498e+01 1.678065e+01 1.351668e+01 8.294711e-02 1.533538e-01 2.637402e-01 3.804073e-01 4.979158e-01 6.419907e-01 7.791429e-01 8.876767e-01 9.172462e-01 8.756770e-01 8.933143e-01 9.185731e-01 1.001105e-06
<GCONST> 5.361366e+01
<MIXTURE> 95 5.258835e-03
<MEAN> 25
 -5.654785e+00 -6.983483e-01 -2.109073e+00 4.592269e+00 3.999613e+00 2.816944e+00 4.209738e+00 1.494040e+00 2.520239e+00 6.785350e-01 1.110070e+00 2.206176e+00 1.204927e-01 1.449973e-01 9.730624e-02 -1.086020e-01 -3.948496e-01 -6.788700e-01 -1.033017e+00 -1.261600e+00 -1.240026e+00 -9.475108e-01 -6.827300e-01 -3.694233e-01 5.440349e-05
<VARIANCE> 25
 1.010470e+01 6.157758e+00 1.178112e+01 1.340899e+01 1.411859e+01 1.749703e+01 1.688786e+01 1.664773e+01 1.615820e+01 1.518505e+01 2.004334e+01 1.601987e+01 2.082286e-01 2.818950e-01 4.564756e-01 6.168110e-01 7.731594e-01 8.819417e-01 8.872562e-01 9.064432e-01 9.776086e-01 1.070124e+00 1.172015e+00 1.161827e+00 4.124517e-05
<GCONST> 6.311728e+01
<MIXTURE> 96 7.034694e-03
<MEAN> 25
 -5.080583e+00 -4.535897e-01 -2.241785e+00 5.156179e+00 3.865099e+00 1.792483e+00 3.542875e+00 1.798025e+00 2.455104e+00 9.315711e-01 1.146822e+00 2.818060e+00 -2.966899e-02 8.724272e-02 2.120626e-01 4.047293e-01 5.367863e-01 4.977379e-01 2.461249e-01 -1.256909e-01 -4.603928e-01 -6.499113e-01 -6.096431e-01 -3.699427e-01 -1.502379e-05
<VARIANCE> 25
 1.109468e+01 9.701896e+00 1.287409e+01 1.432834e+01 1.502770e+01 1.948529e+01 1.805686e+01 1.927297e+01 1.798663e+01 1.674283e+01 1.973196e+01 1.468074e+01 1.217492e-01 2.181900e-01 3.173374e-01 3.977475e-01 4.990995e-01 6.613234e-01 8.700832e-01 9.961584e-01 9.591934e-01 8.637900e-01 8.884781e-01 9.418678e-01 1.006618e-06
<GCONST> 5.762681e+01
<MIXTURE> 97 7.034694e-03
<MEAN> 25
 -5.080583e+00 -4.535897e-01 -2.241785e+00 5.156179e+00 3.865099e+00 1.792483e+00 3.542875e+00 1.798025e+00 2.455104e+00 9.315711e-01 1.146822e+00 2.818060e+00 -2.966899e-02 8.724272e-02 2.120626e-01 4.047293e-01 5.367863e-01 4.977379e-01 2.461249e-01 -1.256909e-01 -4.603928e-01 -6.499113e-01 -6.096431e-01 -3.699427e-01 -1.502379e-05
<VARIANCE> 25
 1.109468e+01 9.701896e+00 1.287409e+01 1.432834e+01 1.502770e+01 1.948529e+01 1.805686e+01 1.927297e+01 1.798663e+01 1.674283e+01 1.973196e+01 1.468074e+01 1.217492e-01 2.181900e-01 3.173374e-01 3.977475e-01 4.990995e-01 6.613234e-01 8.700832e-01 9.961584e-01 9.591934e-01 8.637900e-01 8.884781e-01 9.418678e-01 1.006618e-06
<GCONST> 5.762681e+01
<MIXTURE> 98 9.917808e-03
<MEAN> 25
 -1.298920e+00 1.062387e+00 -5.336787e-01 3.060628e+00 3.655255e+00 1.933374e+00 2.970591e+00 1.741775e+00 1.980502e+00 2.971266e-01 4.443932e-01 1.932415e-01 -1.731908e+00 -1.412638e+00 -8.238323e-01 5.403332e-02 6.566468e-01 8.443508e-01 9.863865e-01 1.384299e+00 1.787449e+00 9.943266e-01 1.122032e+00 1.069175e+00 -2.208531e-02
<VARIANCE> 25
 1.453189e+01 1.667216e+01 2.654770e+01 3.275343e+01 3.794254e+01 3.560754e+01 2.779609e+01 2.564260e+01 2.822604e+01 2.744458e+01 2.910000e+01 2.237272e+01 1.494639e+00 1.261096e+00 2.150336e+00 2.565402e+00 2.747395e+00 2.758037e+00 2.665635e+00 2.529479e+00 2.577947e+00 3.240856e+00 2.724685e+00 2.194366e+00 2.926136e-03
<GCONST> 8.946597e+01
<MIXTURE> 99 6.696178e-03
<MEAN> 25
 -6.030374e+00 9.177670e+00 4.353796e+00 2.580756e+00 1.521783e+00 -5.338944e+00 -4.173990e-01 -3.781152e+00 -2.872792e+00 -4.789342e+00 -1.824563e+00 -3.402061e-01 5.571455e-01 -7.334834e-01 1.869827e-01 -4.062108e-01 -1.082516e+00 -3.549907e-01 -4.347548e-01 -1.284956e-01 -7.132817e-03 -1.106533e-01 2.796958e-01 -3.538540e-02 2.999304e-03
<VARIANCE> 25
 3.040755e+01 2.428304e+01 5.378758e+01 3.057528e+01 3.070288e+01 2.825270e+01 3.044178e+01 2.557135e+01 2.310928e+01 3.022482e+01 1.960831e+01 3.075420e+01 1.857676e+00 1.970827e+00 1.392334e+00 1.500702e+00 2.147670e+00 2.229333e+00 1.456423e+00 1.662173e+00 1.627199e+00 1.679814e+00 1.763891e+00 1.320737e+00 1.574515e-03
<GCONST> 8.621266e+01
<MIXTURE> 100 4.498084e-03
<MEAN> 25
 -1.609936e+00 6.243090e+00 1.021185e+01 -7.383716e+00 -1.067952e+01 -4.972836e+00 -4.919591e+00 -9.952394e+00 -4.649738e+00 -8.160976e-01 -2.692464e+00 -2.646053e+00 2.916530e+00 -1.234599e+00 1.315596e+00 -2.137665e+00 -3.393493e+00 -7.544870e-01 -1.202706e+00 -7.935328e-01 -1.468424e+00 3.089465e-01 -1.629403e+00 -2.295702e-01 1.727687e-03
<VARIANCE> 25
 1.351157e+01 2.144776e+01 2.244281e+01 2.647441e+01 2.339631e+01 2.417602e+01 2.880942e+01 2.142525e+01 2.740952e+01 2.251042e+01 2.221920e+01 2.139483e+01 1.796630e+00 3.941416e+00 2.895049e+00 4.381605e+00 4.177671e+00 4.536700e+00 3.978326e+00 4.357438e+00 4.121148e+00 3.972570e+00 3.903154e+00 3.409435e+00 1.663015e-03
<GCONST> 9.263275e+01
<MIXTURE> 101 6.007792e-03
<MEAN> 25
 7.887546e+00 -3.295801e+00 -6.067910e+00 -6.462458e+00 6.540521e-01 -1.312520e+00 -1.037944e+01 -2.095257e+00 1.637586e+00 2.853308e+00 -1.687495e+00 -5.442593e+00 7.274959e-01 6.552734e-01 -1.380961e+00 -1.545683e+00 8.888918e-01 2.230466e+00 1.005064e-01 -1.452489e+00 -1.089536e+00 1.103269e+00 1.363709e+00 -3.030090e-01 -4.136774e-03
<VARIANCE> 25
 9.482893e+00 1.641457e+01 2.915608e+01 4.303257e+01 3.483464e+01 3.401337e+01 3.571146e+01 3.427379e+01 3.610207e+01 4.188794e+01 5.682695e+01 2.448876e+01 3.254806e-01 6.377777e-01 1.200989e+00 1.534602e+00 1.932629e+00 2.105808e+00 2.123355e+00 1.889271e+00 2.230324e+00 2.171623e+00 1.710287e+00 2.066696e+00 3.351723e-04
<GCONST> 8.354732e+01
<MIXTURE> 102 6.007792e-03
<MEAN> 25
 7.887546e+00 -3.295801e+00 -6.067910e+00 -6.462458e+00 6.540521e-01 -1.312520e+00 -1.037944e+01 -2.095257e+00 1.637586e+00 2.853308e+00 -1.687495e+00 -5.442593e+00 7.274959e-01 6.552734e-01 -1.380961e+00 -1.545683e+00 8.888918e-01 2.230466e+00 1.005064e-01 -1.452489e+00 -1.089536e+00 1.103269e+00 1.363709e+00 -3.030090e-01 -4.136774e-03
<VARIANCE> 25
 9.482893e+00 1.641457e+01 2.915608e+01 4.303257e+01 3.483464e+01 3.401337e+01 3.571146e+01 3.427379e+01 3.610207e+01 4.188794e+01 5.682695e+01 2.448876e+01 3.254806e-01 6.377777e-01 1.200989e+00 1.534602e+00 1.932629e+00 2.105808e+00 2.123355e+00 1.889271e+00 2.230324e+00 2.171623e+00 1.710287e+00 2.066696e+00 3.351723e-04
<GCONST> 8.354732e+01
<MIXTURE> 103 5.694618e-03
<MEAN> 25
 3.324965e+00 -9.367708e+00 -6.085824e+00 -3.130259e+00 -1.191277e+00 -2.044509e+00 2.347767e+00 2.478062e+00 -4.581960e+00 -9.212812e+00 -4.972587e+00 3.411819e-01 -1.751932e-01 -1.478583e+00 -9.674263e-01 3.683567e-01 1.174671e+00 1.021428e+00 1.425208e-01 -2.761637e-01 -7.549765e-01 -9.135855e-01 -2.926438e-02 1.028776e-01 2.715267e-02
<VARIANCE> 25
 1.034074e+01 2.084291e+01 2.273927e+01 3.139254e+01 4.867216e+01 3.525610e+01 4.650928e+01 3.632352e+01 4.166601e+01 2.928665e+01 3.015226e+01 2.618982e+01 6.863471e-01 1.240343e+00 1.530180e+00 1.921937e+00 3.031869e+00 2.379429e+00 2.891942e+00 2.562788e+00 2.591686e+00 2.567499e+00 2.075458e+00 2.015738e+00 8.137923e-04
<GCONST> 8.765839e+01
<MIXTURE> 104 5.694618e-03
<MEAN> 25
 3.324965e+00 -9.367708e+00 -6.085824e+00 -3.130259e+00 -1.191277e+00 -2.044509e+00 2.347767e+00 2.478062e+00 -4.581960e+00 -9.212812e+00 -4.972587e+00 3.411819e-01 -1.751932e-01 -1.478583e+00 -9.674263e-01 3.683567e-01 1.174671e+00 1.021428e+00 1.425208e-01 -2.761637e-01 -7.549765e-01 -9.135855e-01 -2.926438e-02 1.028776e-01 2.715267e-02
<VARIANCE> 25
 1.034074e+01 2.084291e+01 2.273927e+01 3.139254e+01 4.867216e+01 3.525610e+01 4.650928e+01 3.632352e+01 4.166601e+01 2.928665e+01 3.015226e+01 2.618982e+01 6.863471e-01 1.240343e+00 1.530180e+00 1.921937e+00 3.031869e+00 2.379429e+00 2.891942e+00 2.562788e+00 2.591686e+00 2.567499e+00 2.075458e+00 2.015738e+00 8.137923e-04
<GCONST> 8.765839e+01
<MIXTURE> 105 4.710235e-03
<MEAN> 25
 2.082140e+00 -1.618455e+00 9.866557e+00 -2.353234e+00 -1.208668e+01 -3.604215e+00 -4.881166e+00 -5.518843e-01 -5.807122e+00 -1.922254e+00 9.701893e-01 6.195040e-01 4.334761e-02 4.090545e-02 2.459645e-02 2.807644e-02 -1.538867e-02 1.259341e-01 -1.288284e-02 -8.170478e-02 -1.594052e-01 -1.706994e-02 1.605462e-01 -6.070732e-02 -1.651752e-03
<VARIANCE> 25
 1.143286e+01 2.444118e+01 3.728863e+01 3.732087e+01 3.690633e+01 5.107660e+01 3.564234e+01 3.616500e+01 4.812501e+01 4.100923e+01 3.632386e+01 3.676005e+01 9.113832e-02 1.685668e-01 4.711931e-01 3.047836e-01 3.619548e-01 4.140017e-01 4.867931e-01 5.196090e-01 5.377781e-01 4.542891e-01 4.296620e-01 3.806920e-01 8.435644e-05
<GCONST> 6.631626e+01
<MIXTURE> 106 4.710235e-03
<MEAN> 25
 2.082140e+00 -1.618455e+00 9.866557e+00 -2.353234e+00 -1.208668e+01 -3.604215e+00 -4.881166e+00 -5.518843e-01 -5.807122e+00 -1.922254e+00 9.701893e-01 6.195040e-01 4.334761e-02 4.090545e-02 2.459645e-02 2.807644e-02 -1.538867e-02 1.259341e-01 -1.288284e-02 -8.170478e-02 -1.594052e-01 -1.706994e-02 1.605462e-01 -6.070732e-02 -1.651752e-03
<VARIANCE> 25
 1.143286e+01 2.444118e+01 3.728863e+01 3.732087e+01 3.690633e+01 5.107660e+01 3.564234e+01 3.616500e+01 4.812501e+01 4.100923e+01 3.632386e+01 3.676005e+01 9.113832e-02 1.685668e-01 4.711931e-01 3.047836e-01 3.619548e-01 4.140017e-01 4.867931e-01 5.196090e-01 5.377781e-01 4.542891e-01 4.296620e-01 3.806920e-01 8.435644e-05
<GCONST> 6.631626e+01
<MIXTURE> 107 5.452374e-03
<MEAN> 25
 8.407547e+00 -2.100524e+00 -7.414109e+00 -8.821260e+00 2.023548e+00 3.136359e+00 -7.458282e+00 -4.137147e+00 -9.369555e-01 3.540815e+00 1.129462e+00 -4.470624e+00 -6.328328e-01 -8.085911e-01 8.034132e-01 1.676898e+00 3.718251e-01 -1.874132e+00 -9.647504e-01 8.698199e-01 1.841071e+00 -6.043452e-02 -1.712917e+00 -7.689307e-01 -4.415539e-03
<VARIANCE> 25
 9.008750e+00 1.971203e+01 2.942605e+01 4.409710e+01 3.286495e+01 3.573348e+01 5.986470e+01 3.490436e+01 4.247400e+01 3.868275e+01 4.901527e+01 3.175189e+01 3.377720e-01 8.985893e-01 1.345529e+00 2.293348e+00 2.379053e+00 2.764974e+00 2.433090e+00 2.339345e+00 2.193608e+00 2.922260e+00 1.813682e+00 2.070570e+00 7.284633e-04
<GCONST> 8.727596e+01
<MIXTURE> 108 5.452374e-03
<MEAN> 25
 8.407547e+00 -2.100524e+00 -7.414109e+00 -8.821260e+00 2.023548e+00 3.136359e+00 -7.458282e+00 -4.137147e+00 -9.369555e-01 3.540815e+00 1.129462e+00 -4.470624e+00 -6.328328e-01 -8.085911e-01 8.034132e-01 1.676898e+00 3.718251e-01 -1.874132e+00 -9.647504e-01 8.698199e-01 1.841071e+00 -6.043452e-02 -1.712917e+00 -7.689307e-01 -4.415539e-03
<VARIANCE> 25
 9.008750e+00 1.971203e+01 2.942605e+01 4.409710e+01 3.286495e+01 3.573348e+01 5.986470e+01 3.490436e+01 4.247400e+01 3.868275e+01 4.901527e+01 3.175189e+01 3.377720e-01 8.985893e-01 1.345529e+00 2.293348e+00 2.379053e+00 2.764974e+00 2.433090e+00 2.339345e+00 2.193608e+00 2.922260e+00 1.813682e+00 2.070570e+00 7.284633e-04
<GCONST> 8.727596e+01
<MIXTURE> 109 6.661064e-03
<MEAN> 25
 4.170609e+00 -1.032993e+01 -8.004582e+00 -1.288688e+00 2.766313e+00 4.465851e-02 -1.599670e-01 1.295185e+00 -2.222561e+00 -7.985260e+00 -5.259231e+00 4.250012e-02 -2.771197e-02 -1.503480e-01 -1.599887e-02 2.457345e-01 1.667766e-01 1.094970e-01 -1.601806e-01 -9.031778e-02 -1.323142e-02 -1.091899e-01 2.167183e-01 1.449140e-03 -3.129018e-03
<VARIANCE> 25
 9.157532e+00 1.874347e+01 2.112026e+01 3.069281e+01 3.950196e+01 3.556978e+01 4.565553e+01 3.398682e+01 4.739322e+01 3.793609e+01 2.893271e+01 2.790208e+01 1.900047e-01 4.222756e-01 5.225554e-01 6.254575e-01 1.220904e+00 9.731370e-01 1.255123e+00 1.089920e+00 1.103662e+00 9.631814e-01 8.847008e-01 8.967268e-01 1.906364e-04
<GCONST> 7.445869e+01
<MIXTURE> 110 6.661064e-03
<MEAN> 25
 4.170609e+00 -1.032993e+01 -8.004582e+00 -1.288688e+00 2.766313e+00 4.465851e-02 -1.599670e-01 1.295185e+00 -2.222561e+00 -7.985260e+00 -5.259231e+00 4.250012e-02 -2.771197e-02 -1.503480e-01 -1.599887e-02 2.457345e-01 1.667766e-01 1.094970e-01 -1.601806e-01 -9.031778e-02 -1.323142e-02 -1.091899e-01 2.167183e-01 1.449140e-03 -3.129018e-03
<VARIANCE> 25
 9.157532e+00 1.874347e+01 2.112026e+01 3.069281e+01 3.950196e+01 3.556978e+01 4.565553e+01 3.398682e+01 4.739322e+01 3.793609e+01 2.893271e+01 2.790208e+01 1.900047e-01 4.222756e-01 5.225554e-01 6.254575e-01 1.220904e+00 9.731370e-01 1.255123e+00 1.089920e+00 1.103662e+00 9.631814e-01 8.847008e-01 8.967268e-01 1.906364e-04
<GCONST> 7.445869e+01
<MIXTURE> 111 4.337247e-03
<MEAN> 25
 -4.156554e+00 -6.697338e-01 -1.858376e+00 1.197638e+00 9.849722e-01 1.712749e+00 1.072827e+00 -4.615154e-01 7.391273e-01 -8.169999e-01 -2.593300e-01 1.178129e+00 -4.040634e-02 -3.532198e-02 -5.261480e-02 -1.058807e-01 -7.777703e-02 5.475442e-02 1.778171e-02 -9.345881e-02 -2.202156e-01 -2.487574e-01 -1.910876e-01 -9.376198e-02 -4.510277e-04
<VARIANCE> 25
 6.053691e+00 4.486687e+00 8.554434e+00 8.841880e+00 1.138141e+01 2.285500e+01 1.528290e+01 1.346294e+01 1.176600e+01 1.056252e+01 1.340048e+01 1.364714e+01 7.321368e-02 1.430307e-01 2.647434e-01 3.991635e-01 5.234492e-01 6.983131e-01 6.934538e-01 8.092604e-01 7.922032e-01 7.751530e-01 9.207173e-01 8.985077e-01 3.012669e-05
<GCONST> 5.501593e+01
<MIXTURE> 112 4.337247e-03
<MEAN> 25
 -4.156554e+00 -6.697338e-01 -1.858376e+00 1.197638e+00 9.849722e-01 1.712749e+00 1.072827e+00 -4.615154e-01 7.391273e-01 -8.169999e-01 -2.593300e-01 1.178129e+00 -4.040634e-02 -3.532198e-02 -5.261480e-02 -1.058807e-01 -7.777703e-02 5.475442e-02 1.778171e-02 -9.345881e-02 -2.202156e-01 -2.487574e-01 -1.910876e-01 -9.376198e-02 -4.510277e-04
<VARIANCE> 25
 6.053691e+00 4.486687e+00 8.554434e+00 8.841880e+00 1.138141e+01 2.285500e+01 1.528290e+01 1.346294e+01 1.176600e+01 1.056252e+01 1.340048e+01 1.364714e+01 7.321368e-02 1.430307e-01 2.647434e-01 3.991635e-01 5.234492e-01 6.983131e-01 6.934538e-01 8.092604e-01 7.922032e-01 7.751530e-01 9.207173e-01 8.985077e-01 3.012669e-05
<GCONST> 5.501593e+01
<MIXTURE> 113 5.938666e-03
<MEAN> 25
 9.890994e+00 1.974802e+00 -8.402899e+00 -1.591851e+01 -1.318876e+00 5.560673e+00 -4.859103e+00 -1.391659e+00 -6.085164e+00 -3.046889e-01 6.517485e-01 1.054094e-01 -1.643850e-03 1.071801e-02 -6.087241e-02 -1.488982e-01 1.097171e-01 1.463347e-01 1.642905e-01 4.009821e-02 -3.659616e-02 -1.008649e-02 2.096246e-01 -1.204264e-02 -1.940567e-03
<VARIANCE> 25
 8.345424e+00 1.585599e+01 2.933062e+01 4.740565e+01 5.009324e+01 3.163206e+01 3.987406e+01 3.651308e+01 3.693949e+01 4.381676e+01 3.548590e+01 2.782523e+01 1.175476e-01 3.010043e-01 2.987417e-01 6.147471e-01 6.029297e-01 6.185650e-01 8.712468e-01 8.258169e-01 9.415959e-01 8.806416e-01 7.407140e-01 7.016706e-01 1.200173e-04
<GCONST> 7.078401e+01
<MIXTURE> 114 5.938666e-03
<MEAN> 25
 9.890994e+00 1.974802e+00 -8.402899e+00 -1.591851e+01 -1.318876e+00 5.560673e+00 -4.859103e+00 -1.391659e+00 -6.085164e+00 -3.046889e-01 6.517485e-01 1.054094e-01 -1.643850e-03 1.071801e-02 -6.087241e-02 -1.488982e-01 1.097171e-01 1.463347e-01 1.642905e-01 4.009821e-02 -3.659616e-02 -1.008649e-02 2.096246e-01 -1.204264e-02 -1.940567e-03
<VARIANCE> 25
 8.345424e+00 1.585599e+01 2.933062e+01 4.740565e+01 5.009324e+01 3.163206e+01 3.987406e+01 3.651308e+01 3.693949e+01 4.381676e+01 3.548590e+01 2.782523e+01 1.175476e-01 3.010043e-01 2.987417e-01 6.147471e-01 6.029297e-01 6.185650e-01 8.712468e-01 8.258169e-01 9.415959e-01 8.806416e-01 7.407140e-01 7.016706e-01 1.200173e-04
<GCONST> 7.078401e+01
<MIXTURE> 115 2.935202e-03
<MEAN> 25
 -3.925497e+00 -5.744201e-01 -3.058001e+00 3.373839e+00 2.273397e+00 -5.679781e-01 2.444810e+00 2.671604e-01 1.610059e+00 -4.748230e-01 -1.199054e-01 1.677951e+00 4.568779e-02 -2.997328e-02 -2.134401e-01 -4.718023e-01 -6.916078e-01 -6.164826e-01 -5.890378e-01 -4.304138e-01 -4.179096e-01 -4.640086e-01 -4.930091e-01 -3.382365e-01 1.072919e-04
<VARIANCE> 25
 9.660711e+00 9.664480e+00 1.289935e+01 1.296234e+01 1.243497e+01 1.776352e+01 1.663062e+01 1.912895e+01 1.701156e+01 1.772948e+01 1.921250e+01 2.280779e+01 2.001313e-01 3.332792e-01 5.083209e-01 5.494242e-01 6.113867e-01 7.794442e-01 9.410354e-01 1.174113e+00 1.148734e+00 1.018527e+00 1.153299e+00 1.245025e+00 1.072672e-06
<GCONST> 6.070345e+01
<MIXTURE> 116 2.935202e-03
<MEAN> 25
 -3.925497e+00 -5.744201e-01 -3.058001e+00 3.373839e+00 2.273397e+00 -5.679781e-01 2.444810e+00 2.671604e-01 1.610059e+00 -4.748230e-01 -1.199054e-01 1.677951e+00 4.568779e-02 -2.997328e-02 -2.134401e-01 -4.718023e-01 -6.916078e-01 -6.164826e-01 -5.890378e-01 -4.304138e-01 -4.179096e-01 -4.640086e-01 -4.930091e-01 -3.382365e-01 1.072919e-04
<VARIANCE> 25
 9.660711e+00 9.664480e+00 1.289935e+01 1.296234e+01 1.243497e+01 1.776352e+01 1.663062e+01 1.912895e+01 1.701156e+01 1.772948e+01 1.921250e+01 2.280779e+01 2.001313e-01 3.332792e-01 5.083209e-01 5.494242e-01 6.113867e-01 7.794442e-01 9.410354e-01 1.174113e+00 1.148734e+00 1.018527e+00 1.153299e+00 1.245025e+00 1.072672e-06
<GCONST> 6.070345e+01
<MIXTURE> 117 6.506003e-03
<MEAN> 25
 -4.644264e+00 1.117689e+00 1.054300e+00 9.757948e+00 6.259770e+00 6.256072e+00 6.462993e+00 5.044131e+00 6.385443e+00 4.928502e+00 6.366995e+00 2.709238e+00 -7.498568e-02 -2.341078e-01 -3.583605e-01 -4.199411e-01 -3.675706e-01 -3.027213e-01 -2.873157e-01 -3.313685e-01 -3.916621e-01 -3.689257e-01 -2.631998e-01 -1.160679e-01 -9.010170e-06
<VARIANCE> 25
 7.188420e+00 8.752687e+00 9.809737e+00 1.431110e+01 1.561856e+01 1.535067e+01 1.772610e+01 1.796170e+01 1.640248e+01 1.637704e+01 1.674024e+01 1.475971e+01 2.166296e-01 3.074941e-01 4.261248e-01 6.170910e-01 8.536580e-01 1.055303e+00 1.177501e+00 1.232962e+00 1.224109e+00 1.194804e+00 1.167259e+00 1.113730e+00 1.000020e-06
<GCONST> 6.042996e+01
<MIXTURE> 118 6.506003e-03
<MEAN> 25
 -4.644264e+00 1.117689e+00 1.054300e+00 9.757948e+00 6.259770e+00 6.256072e+00 6.462993e+00 5.044131e+00 6.385443e+00 4.928502e+00 6.366995e+00 2.709238e+00 -7.498568e-02 -2.341078e-01 -3.583605e-01 -4.199411e-01 -3.675706e-01 -3.027213e-01 -2.873157e-01 -3.313685e-01 -3.916621e-01 -3.689257e-01 -2.631998e-01 -1.160679e-01 -9.010170e-06
<VARIANCE> 25
 7.188420e+00 8.752687e+00 9.809737e+00 1.431110e+01 1.561856e+01 1.535067e+01 1.772610e+01 1.796170e+01 1.640248e+01 1.637704e+01 1.674024e+01 1.475971e+01 2.166296e-01 3.074941e-01 4.261248e-01 6.170910e-01 8.536580e-01 1.055303e+00 1.177501e+00 1.232962e+00 1.224109e+00 1.194804e+00 1.167259e+00 1.113730e+00 1.000020e-06
<GCONST> 6.042996e+01
<MIXTURE> 119 4.297961e-03
<MEAN> 25
 -4.957249e+00 -7.603042e+00 2.212505e+00 1.998218e+00 2.238314e+00 2.146709e-01 5.269028e+00 5.913218e+00 1.178153e+00 9.466785e-01 6.601735e+00 1.550216e+00 -4.987939e-02 -8.074332e-02 3.634554e-02 -5.506872e-02 -1.213304e-01 -1.800341e-01 -6.704703e-02 -1.439314e-02 -9.078667e-02 -1.097498e-01 -5.189700e-02 -5.423350e-02 1.084597e-03
<VARIANCE> 25
 8.566530e+00 9.978868e+00 1.658911e+01 2.017624e+01 2.286851e+01 2.317616e+01 2.493198e+01 2.657162e+01 2.499021e+01 2.808487e+01 2.039649e+01 2.046378e+01 1.619829e-01 2.820205e-01 4.583077e-01 6.320053e-01 8.078115e-01 1.005979e+00 1.097314e+00 1.279767e+00 1.285652e+00 1.243395e+00 1.194296e+00 1.119619e+00 2.310599e-04
<GCONST> 6.975891e+01
<MIXTURE> 120 4.297961e-03
<MEAN> 25
 -4.957249e+00 -7.603042e+00 2.212505e+00 1.998218e+00 2.238314e+00 2.146709e-01 5.269028e+00 5.913218e+00 1.178153e+00 9.466785e-01 6.601735e+00 1.550216e+00 -4.987939e-02 -8.074332e-02 3.634554e-02 -5.506872e-02 -1.213304e-01 -1.800341e-01 -6.704703e-02 -1.439314e-02 -9.078667e-02 -1.097498e-01 -5.189700e-02 -5.423350e-02 1.084597e-03
<VARIANCE> 25
 8.566530e+00 9.978868e+00 1.658911e+01 2.017624e+01 2.286851e+01 2.317616e+01 2.493198e+01 2.657162e+01 2.499021e+01 2.808487e+01 2.039649e+01 2.046378e+01 1.619829e-01 2.820205e-01 4.583077e-01 6.320053e-01 8.078115e-01 1.005979e+00 1.097314e+00 1.279767e+00 1.285652e+00 1.243395e+00 1.194296e+00 1.119619e+00 2.310599e-04
<GCONST> 6.975891e+01
<MIXTURE> 121 4.567511e-03
<MEAN> 25
 2.002144e-01 -2.517822e+00 5.141736e+00 -1.287768e+01 -1.263071e+01 -1.659578e+00 9.985395e-01 -5.093838e+00 -4.207606e+00 -5.001978e-01 -5.502484e+00 -4.301925e+00 2.469053e-02 1.325441e-01 -4.197377e-02 7.997536e-02 1.570279e-01 7.998624e-02 -7.970373e-02 -1.830787e-01 -2.676332e-01 -2.578822e-01 -1.127869e-01 2.548472e-03 -7.442112e-03
<VARIANCE> 25
 7.774424e+00 1.562769e+01 1.749890e+01 2.051077e+01 2.457158e+01 2.923089e+01 2.958186e+01 2.457742e+01 3.536008e+01 2.843681e+01 1.972421e+01 2.138762e+01 1.553062e-01 6.416700e-01 6.232800e-01 7.037244e-01 7.712974e-01 1.154029e+00 1.115654e+00 1.120631e+00 1.224177e+00 1.192172e+00 9.445689e-01 8.727665e-01 2.104681e-04
<GCONST> 7.144912e+01
<MIXTURE> 122 4.567511e-03
<MEAN> 25
 2.002144e-01 -2.517822e+00 5.141736e+00 -1.287768e+01 -1.263071e+01 -1.659578e+00 9.985395e-01 -5.093838e+00 -4.207606e+00 -5.001978e-01 -5.502484e+00 -4.301925e+00 2.469053e-02 1.325441e-01 -4.197377e-02 7.997536e-02 1.570279e-01 7.998624e-02 -7.970373e-02 -1.830787e-01 -2.676332e-01 -2.578822e-01 -1.127869e-01 2.548472e-03 -7.442112e-03
<VARIANCE> 25
 7.774424e+00 1.562769e+01 1.749890e+01 2.051077e+01 2.457158e+01 2.923089e+01 2.958186e+01 2.457742e+01 3.536008e+01 2.843681e+01 1.972421e+01 2.138762e+01 1.553062e-01 6.416700e-01 6.232800e-01 7.037244e-01 7.712974e-01 1.154029e+00 1.115654e+00 1.120631e+00 1.224177e+00 1.192172e+00 9.445689e-01 8.727665e-01 2.104681e-04
<GCONST> 7.144912e+01
<MIXTURE> 123 4.393044e-03
<MEAN> 25
 -4.302107e+00 1.889135e+00 -6.551291e-01 4.622257e+00 4.983352e+00 2.497277e+00 3.415005e+00 5.524071e-01 1.319432e+00 -1.743486e+00 -1.456444e+00 -2.754653e-01 -4.021074e-01 -7.720391e-01 -8.396569e-01 -5.693855e-01 -2.322444e-01 2.272858e-01 3.962754e-01 6.638320e-01 8.290741e-01 7.445740e-01 8.597615e-01 7.991532e-01 -2.690561e-03
<VARIANCE> 25
 1.044328e+01 1.434176e+01 1.518427e+01 2.193281e+01 2.028631e+01 2.501517e+01 1.921134e+01 1.612884e+01 1.893635e+01 1.955595e+01 2.941698e+01 2.276852e+01 3.444766e-01 3.759876e-01 5.578864e-01 6.145566e-01 9.313320e-01 1.262002e+00 1.034302e+00 1.378242e+00 1.102829e+00 1.224917e+00 1.323057e+00 1.708774e+00 1.027706e-04
<GCONST> 7.048634e+01
<MIXTURE> 124 4.069876e-03
<MEAN> 25
 -6.378634e+00 -1.169665e+00 -2.974234e+00 4.912491e+00 4.837180e+00 3.354393e+00 5.479221e+00 2.580921e+00 3.272992e+00 1.163359e+00 1.146938e+00 2.908297e+00 -2.070197e-01 -3.114195e-01 -3.701888e-01 -2.073759e-01 1.186993e-01 5.344654e-01 7.858763e-01 8.385000e-01 6.656612e-01 3.201677e-01 6.053822e-02 -1.920794e-02 1.802552e-04
<VARIANCE> 25
 1.164740e+01 6.795762e+00 1.085736e+01 1.299290e+01 1.230054e+01 1.919898e+01 1.542186e+01 1.660704e+01 1.532065e+01 1.592748e+01 1.864041e+01 1.456707e+01 1.041336e-01 1.666376e-01 2.655054e-01 4.070258e-01 5.921125e-01 7.206690e-01 7.720810e-01 8.066058e-01 9.108233e-01 9.957862e-01 1.030465e+00 9.883097e-01 1.885013e-05
<GCONST> 5.881642e+01
<MIXTURE> 125 4.069876e-03
<MEAN> 25
 -6.378634e+00 -1.169665e+00 -2.974234e+00 4.912491e+00 4.837180e+00 3.354393e+00 5.479221e+00 2.580921e+00 3.272992e+00 1.163359e+00 1.146938e+00 2.908297e+00 -2.070197e-01 -3.114195e-01 -3.701888e-01 -2.073759e-01 1.186993e-01 5.344654e-01 7.858763e-01 8.385000e-01 6.656612e-01 3.201677e-01 6.053822e-02 -1.920794e-02 1.802552e-04
<VARIANCE> 25
 1.164740e+01 6.795762e+00 1.085736e+01 1.299290e+01 1.230054e+01 1.919898e+01 1.542186e+01 1.660704e+01 1.532065e+01 1.592748e+01 1.864041e+01 1.456707e+01 1.041336e-01 1.666376e-01 2.655054e-01 4.070258e-01 5.921125e-01 7.206690e-01 7.720810e-01 8.066058e-01 9.108233e-01 9.957862e-01 1.030465e+00 9.883097e-01 1.885013e-05
<GCONST> 5.881642e+01
<MIXTURE> 126 2.402244e-03
<MEAN> 25
 -3.778209e+00 -6.840942e+00 -5.264820e+00 2.263788e+00 4.230190e+00 -3.176308e+00 1.300625e-01 3.530430e+00 3.404666e+00 -2.707557e+00 -1.417059e+00 2.995589e+00 -1.703689e-03 -1.076284e-02 -3.854337e-02 -1.545262e-01 -3.154652e-01 -3.896931e-01 -2.700247e-01 -1.594547e-01 -1.217766e-01 -1.141016e-01 -9.247407e-02 -2.827580e-02 -1.412641e-03
<VARIANCE> 25
 7.467220e+00 1.323581e+01 1.371661e+01 1.522099e+01 2.466198e+01 2.386252e+01 2.281187e+01 2.823785e+01 3.147372e+01 2.596673e+01 2.157711e+01 1.936631e+01 1.704242e-01 3.528310e-01 4.832214e-01 5.636238e-01 7.495970e-01 9.901444e-01 1.110844e+00 1.282910e+00 1.351124e+00 1.315638e+00 1.244494e+00 1.153129e+00 2.094841e-04
<GCONST> 6.987814e+01
<MIXTURE> 127 2.402244e-03
<MEAN> 25
 -3.778209e+00 -6.840942e+00 -5.264820e+00 2.263788e+00 4.230190e+00 -3.176308e+00 1.300625e-01 3.530430e+00 3.404666e+00 -2.707557e+00 -1.417059e+00 2.995589e+00 -1.703689e-03 -1.076284e-02 -3.854337e-02 -1.545262e-01 -3.154652e-01 -3.896931e-01 -2.700247e-01 -1.594547e-01 -1.217766e-01 -1.141016e-01 -9.247407e-02 -2.827580e-02 -1.412641e-03
<VARIANCE> 25
 7.467220e+00 1.323581e+01 1.371661e+01 1.522099e+01 2.466198e+01 2.386252e+01 2.281187e+01 2.823785e+01 3.147372e+01 2.596673e+01 2.157711e+01 1.936631e+01 1.704242e-01 3.528310e-01 4.832214e-01 5.636238e-01 7.495970e-01 9.901444e-01 1.110844e+00 1.282910e+00 1.351124e+00 1.315638e+00 1.244494e+00 1.153129e+00 2.094841e-04
<GCONST> 6.987814e+01
<MIXTURE> 128 3.790457e-03
<MEAN> 25
 -3.472189e+00 1.398700e+00 -3.490508e-01 6.186896e+00 3.942862e+00 1.942357e+00 3.314833e+00 2.374819e+00 4.002737e+00 3.337563e+00 3.513568e+00 3.328065e+00 -4.433526e-01 -2.218245e-01 7.346431e-02 7.184588e-01 1.214030e+00 1.011021e+00 8.037366e-01 1.143836e-01 -3.778433e-01 -7.193484e-01 -7.418710e-01 -4.361990e-01 2.115247e-05
<VARIANCE> 25
 1.317849e+01 1.141097e+01 1.418675e+01 2.075153e+01 2.070538e+01 2.022381e+01 2.413656e+01 2.333946e+01 2.501579e+01 2.474432e+01 2.643317e+01 1.792301e+01 8.860212e-01 1.094640e+00 1.302770e+00 1.425367e+00 1.515751e+00 2.016923e+00 2.263532e+00 2.205334e+00 2.093330e+00 1.837068e+00 1.679998e+00 1.684111e+00 1.002359e-06
<GCONST> 7.349237e+01
<TRANSP> 3
 0.000000e+00 1.000000e+00 0.000000e+00
 0.000000e+00 9.999990e-01 9.999998e-07
 0.000000e+00 0.000000e+00 0.000000e+00
<ENDHMM>
