~o
<STREAMINFO> 1 25
<VECSIZE> 25<NULLD><MFCC_E_D_N><DIAGC>
~h "jmodel"
<BEGINHMM>
<NUMSTATES> 3
<STATE> 2
<NUMMIXES> 128
<MIXTURE> 1 5.748963e-03
<MEAN> 25
 -2.584020e+00 3.181731e+00 2.311688e+00 8.751412e+00 4.371750e+00 3.447821e+00 4.061818e+00 3.935158e+00 5.830481e+00 5.252118e+00 5.883576e+00 3.079368e+00 -2.003922e+00 -1.634530e+00 -8.640068e-01 1.075809e+00 1.560555e+00 2.232527e+00 2.154246e+00 2.084986e+00 1.693298e+00 1.269487e+00 1.566969e+00 6.132518e-01 -4.691629e-02
<VARIANCE> 25
 1.005995e+01 1.175603e+01 1.494093e+01 1.871508e+01 2.319232e+01 2.215117e+01 2.189823e+01 2.196923e+01 2.099942e+01 2.253732e+01 2.094642e+01 1.708065e+01 1.790102e+00 2.111290e+00 3.025346e+00 3.209163e+00 3.738538e+00 3.356950e+00 3.318575e+00 3.379084e+00 3.521074e+00 3.725985e+00 3.513657e+00 2.833354e+00 3.120821e-03
<GCONST> 8.846266e+01
<MIXTURE> 2 4.549242e-03
<MEAN> 25
 -4.875671e+00 1.311720e+00 9.943511e-01 9.899809e+00 6.692275e+00 7.424650e+00 7.847087e+00 6.958091e+00 8.373269e+00 6.373019e+00 7.624402e+00 3.074697e+00 -6.200235e-02 4.161923e-02 1.425301e-01 2.258583e-01 2.652900e-01 2.813653e-01 2.954302e-01 3.195550e-01 3.497573e-01 3.089160e-01 1.971766e-01 8.006547e-02 1.228299e-06
<VARIANCE> 25
 6.952293e+00 8.901894e+00 1.065126e+01 1.591096e+01 1.723581e+01 1.556308e+01 1.689898e+01 1.848562e+01 1.658668e+01 1.738619e+01 1.811029e+01 1.434002e+01 1.252503e-01 2.266278e-01 3.364712e-01 4.671271e-01 6.492781e-01 8.148874e-01 9.298787e-01 1.003176e+00 1.051662e+00 1.077774e+00 1.075658e+00 1.013934e+00 1.000000e-06
<GCONST> 5.804302e+01
<MIXTURE> 3 4.549242e-03
<MEAN> 25
 -4.875671e+00 1.311720e+00 9.943511e-01 9.899809e+00 6.692275e+00 7.424650e+00 7.847087e+00 6.958091e+00 8.373269e+00 6.373019e+00 7.624402e+00 3.074697e+00 -6.200235e-02 4.161923e-02 1.425301e-01 2.258583e-01 2.652900e-01 2.813653e-01 2.954302e-01 3.195550e-01 3.497573e-01 3.089160e-01 1.971766e-01 8.006547e-02 1.228299e-06
<VARIANCE> 25
 6.952293e+00 8.901894e+00 1.065126e+01 1.591096e+01 1.723581e+01 1.556308e+01 1.689898e+01 1.848562e+01 1.658668e+01 1.738619e+01 1.811029e+01 1.434002e+01 1.252503e-01 2.266278e-01 3.364712e-01 4.671271e-01 6.492781e-01 8.148874e-01 9.298787e-01 1.003176e+00 1.051662e+00 1.077774e+00 1.075658e+00 1.013934e+00 1.000000e-06
<GCONST> 5.804302e+01
<MIXTURE> 4 1.671429e-02
<MEAN> 25
 3.440892e+00 2.551259e+00 -3.800298e+00 9.386208e-01 4.323654e+00 -2.120736e-01 7.338794e-02 1.010411e-02 1.506433e+00 1.301670e+00 -1.888064e+00 1.044955e-01 -2.771860e+00 1.218052e+00 1.777984e+00 3.092029e+00 9.219770e-01 5.016313e-01 1.518005e+00 1.044353e+00 9.765449e-01 4.318071e-01 1.241554e+00 8.998587e-01 -1.040977e-01
<VARIANCE> 25
 2.117819e+01 2.952561e+01 2.922288e+01 3.982352e+01 4.574656e+01 6.880700e+01 6.534728e+01 5.379034e+01 5.544356e+01 6.221894e+01 4.980312e+01 3.594386e+01 2.349297e+00 5.057050e+00 3.736519e+00 4.946174e+00 5.021662e+00 6.164816e+00 6.105545e+00 5.576555e+00 5.969862e+00 6.436297e+00 6.121706e+00 4.466030e+00 6.091296e-03
<GCONST> 1.055080e+02
<MIXTURE> 5 3.206198e-03
<MEAN> 25
 -3.416789e+00 2.180966e+00 6.101953e-01 9.426852e+00 6.695788e+00 6.315834e+00 7.111528e+00 4.722121e+00 5.494727e+00 3.847914e+00 4.658829e+00 2.607075e+00 -3.245110e-01 7.526739e-01 1.224437e+00 1.032526e+00 3.073476e-01 -1.002166e-01 -8.380120e-02 3.324948e-02 4.577757e-01 6.838629e-01 4.040896e-01 8.826412e-02 -2.780637e-05
<VARIANCE> 25
 1.025007e+01 1.394183e+01 2.348258e+01 2.563234e+01 2.022651e+01 1.942642e+01 2.011591e+01 2.036557e+01 2.142360e+01 2.128076e+01 2.409366e+01 1.635908e+01 1.209968e+00 1.244575e+00 1.357876e+00 1.673313e+00 2.284986e+00 2.375945e+00 2.301131e+00 2.275414e+00 2.315490e+00 2.238092e+00 2.085587e+00 1.874347e+00 9.999759e-07
<GCONST> 7.516768e+01
<MIXTURE> 6 5.475854e-03
<MEAN> 25
 9.672127e+00 -4.210480e-01 -6.675442e+00 -1.102243e+01 -2.121879e+00 6.739407e+00 -5.883978e+00 -5.292339e+00 -3.648302e+00 1.829074e+00 4.632437e+00 -1.238579e+00 4.862968e-01 8.925452e-01 -3.511266e-01 -1.463595e+00 -6.327805e-01 1.309975e+00 1.533951e+00 2.482672e-01 -1.217349e+00 -1.217881e+00 3.170326e-01 1.219835e+00 -8.151714e-03
<VARIANCE> 25
 9.179100e+00 1.701791e+01 2.393848e+01 3.912099e+01 3.665842e+01 3.054980e+01 4.400666e+01 3.794756e+01 4.064177e+01 3.938644e+01 4.201104e+01 2.838107e+01 3.109835e-01 8.579076e-01 9.432423e-01 1.978419e+00 1.615862e+00 2.015097e+00 1.914494e+00 2.047954e+00 2.390914e+00 1.964957e+00 2.250255e+00 1.455693e+00 5.838929e-04
<GCONST> 8.388099e+01
<MIXTURE> 7 5.475854e-03
<MEAN> 25
 9.672127e+00 -4.210480e-01 -6.675442e+00 -1.102243e+01 -2.121879e+00 6.739407e+00 -5.883978e+00 -5.292339e+00 -3.648302e+00 1.829074e+00 4.632437e+00 -1.238579e+00 4.862968e-01 8.925452e-01 -3.511266e-01 -1.463595e+00 -6.327805e-01 1.309975e+00 1.533951e+00 2.482672e-01 -1.217349e+00 -1.217881e+00 3.170326e-01 1.219835e+00 -8.151714e-03
<VARIANCE> 25
 9.179100e+00 1.701791e+01 2.393848e+01 3.912099e+01 3.665842e+01 3.054980e+01 4.400666e+01 3.794756e+01 4.064177e+01 3.938644e+01 4.201104e+01 2.838107e+01 3.109835e-01 8.579076e-01 9.432423e-01 1.978419e+00 1.615862e+00 2.015097e+00 1.914494e+00 2.047954e+00 2.390914e+00 1.964957e+00 2.250255e+00 1.455693e+00 5.838929e-04
<GCONST> 8.388099e+01
<MIXTURE> 8 1.165917e-02
<MEAN> 25
 -4.730012e+00 1.362827e+00 1.293033e+00 9.558970e+00 6.574624e+00 6.254719e+00 6.479286e+00 5.688630e+00 6.659335e+00 5.632132e+00 6.573339e+00 3.153065e+00 -6.297832e-01 -1.425648e+00 -1.071320e+00 -1.731297e+00 -2.312828e-01 -9.455293e-01 -1.777655e-01 -2.896672e-01 -2.529475e-01 -1.739840e-01 -2.134086e-01 8.120477e-02 9.888625e-02
<VARIANCE> 25
 9.340043e+00 9.846444e+00 1.161142e+01 1.606023e+01 1.664104e+01 1.570742e+01 1.813372e+01 1.750992e+01 1.704146e+01 1.737655e+01 1.887422e+01 1.399651e+01 2.757053e+00 2.815493e+00 3.906712e+00 3.761520e+00 3.455861e+00 3.315818e+00 3.128734e+00 3.080569e+00 2.871850e+00 2.655658e+00 2.434767e+00 1.902147e+00 6.682295e-03
<GCONST> 8.628812e+01
<MIXTURE> 9 1.199672e-02
<MEAN> 25
 9.299265e+00 3.393037e+00 -6.207809e+00 -1.067437e+01 -2.213575e+00 4.969481e+00 -2.208504e+00 -2.304530e+00 -5.393764e+00 -1.256339e+00 5.689674e-01 -1.013718e-02 1.440945e+00 -1.285884e-01 -4.913883e-01 -2.704074e+00 -1.645938e+00 8.551304e-01 -9.721217e-01 -2.303821e-01 -1.804974e-01 -5.773324e-01 6.145320e-01 -1.529069e-01 7.332495e-02
<VARIANCE> 25
 1.223661e+01 2.140636e+01 3.355948e+01 5.349723e+01 5.016221e+01 3.228386e+01 4.319109e+01 5.215271e+01 4.207303e+01 4.158581e+01 3.611193e+01 2.691799e+01 2.087793e+00 2.450434e+00 4.572169e+00 4.876676e+00 5.011343e+00 4.095113e+00 4.237164e+00 6.042059e+00 5.038188e+00 4.079162e+00 4.015942e+00 2.804367e+00 2.213743e-03
<GCONST> 9.879652e+01
<MIXTURE> 10 6.596976e-03
<MEAN> 25
 8.209450e-01 7.634243e+00 5.375917e+00 7.148799e+00 1.587201e+00 -2.115091e+00 -5.182687e-01 -1.685290e+00 8.743395e-01 8.598922e-01 8.390528e-01 6.573750e-01 -1.924877e+00 -6.733211e-01 -4.585880e-01 3.028174e+00 2.463233e+00 2.710400e+00 2.373847e+00 2.277867e+00 1.861597e+00 1.545119e+00 2.335851e+00 5.248767e-01 -1.381402e-01
<VARIANCE> 25
 1.954153e+01 2.068576e+01 2.230394e+01 2.906196e+01 3.831323e+01 3.494015e+01 3.514534e+01 3.384069e+01 2.761214e+01 2.904888e+01 2.695844e+01 2.501392e+01 2.234952e+00 3.426110e+00 5.535480e+00 5.169495e+00 5.552304e+00 4.469672e+00 4.699881e+00 4.843516e+00 4.388582e+00 5.021007e+00 4.442230e+00 3.191038e+00 2.697031e-03
<GCONST> 9.745950e+01
<MIXTURE> 11 1.633820e-02
<MEAN> 25
 7.310012e+00 4.030801e+00 3.448928e+00 4.771080e+00 -3.182736e+00 -2.070271e+00 -2.288888e+00 -5.967611e+00 -3.424734e+00 7.879544e-03 -2.730050e+00 -2.176069e+00 -2.096910e-01 4.982178e-01 1.550244e-01 2.894703e-01 5.031887e-01 -4.723414e-02 2.700078e-01 -7.466476e-02 -2.068098e-01 -6.089215e-02 -7.359764e-02 1.411443e-01 -1.592344e-02
<VARIANCE> 25
 1.290011e+01 2.332580e+01 1.888872e+01 3.105806e+01 3.608263e+01 3.727941e+01 4.544181e+01 4.355619e+01 4.067906e+01 3.334398e+01 3.342810e+01 2.736320e+01 8.979961e-01 1.166818e+00 1.606073e+00 2.110437e+00 1.996524e+00 2.157362e+00 2.016323e+00 2.715629e+00 2.176167e+00 1.879457e+00 1.922793e+00 1.578753e+00 9.009382e-04
<GCONST> 8.678891e+01
<MIXTURE> 12 5.904134e-03
<MEAN> 25
 1.071721e+01 3.713580e+00 -4.490077e+00 -1.593295e+01 -8.657692e+00 8.637617e+00 -8.946602e-01 -1.928996e+00 -1.729410e+00 -4.860462e+00 1.761136e+00 7.131087e-01 7.149265e-02 2.920458e-01 7.849855e-02 -3.639126e-01 -2.969896e-01 2.727236e-02 3.089235e-01 4.514696e-01 1.371367e-01 -3.934021e-01 -3.932190e-01 4.436847e-02 -6.316864e-03
<VARIANCE> 25
 9.214091e+00 2.102373e+01 2.324682e+01 3.542975e+01 4.205225e+01 3.079234e+01 4.155834e+01 4.869646e+01 4.380817e+01 3.728668e+01 3.780711e+01 2.877596e+01 2.481352e-01 6.849878e-01 6.824406e-01 1.166752e+00 1.210182e+00 1.050145e+00 1.166616e+00 1.381519e+00 1.236789e+00 1.233353e+00 1.225214e+00 9.668327e-01 5.753820e-04
<GCONST> 7.894456e+01
<MIXTURE> 13 5.904134e-03
<MEAN> 25
 1.071721e+01 3.713580e+00 -4.490077e+00 -1.593295e+01 -8.657692e+00 8.637617e+00 -8.946602e-01 -1.928996e+00 -1.729410e+00 -4.860462e+00 1.761136e+00 7.131087e-01 7.149265e-02 2.920458e-01 7.849855e-02 -3.639126e-01 -2.969896e-01 2.727236e-02 3.089235e-01 4.514696e-01 1.371367e-01 -3.934021e-01 -3.932190e-01 4.436847e-02 -6.316864e-03
<VARIANCE> 25
 9.214091e+00 2.102373e+01 2.324682e+01 3.542975e+01 4.205225e+01 3.079234e+01 4.155834e+01 4.869646e+01 4.380817e+01 3.728668e+01 3.780711e+01 2.877596e+01 2.481352e-01 6.849878e-01 6.824406e-01 1.166752e+00 1.210182e+00 1.050145e+00 1.166616e+00 1.381519e+00 1.236789e+00 1.233353e+00 1.225214e+00 9.668327e-01 5.753820e-04
<GCONST> 7.894456e+01
<MIXTURE> 14 6.488954e-03
<MEAN> 25
 -4.316832e+00 -3.788341e-01 -3.096557e-01 8.905516e+00 7.510628e+00 7.376767e+00 7.826598e+00 7.326051e+00 7.250950e+00 5.224892e+00 6.865096e+00 4.101417e+00 -2.744186e-01 1.935605e-01 3.651405e-01 3.098859e-01 6.503705e-03 6.037599e-02 9.686799e-02 1.769073e-01 2.960072e-01 5.398875e-01 5.065760e-01 7.607405e-02 -9.326451e-03
<VARIANCE> 25
 9.292362e+00 1.385477e+01 1.862844e+01 1.789195e+01 2.093615e+01 1.960409e+01 2.153279e+01 2.062407e+01 2.008159e+01 2.392520e+01 2.138295e+01 1.597651e+01 9.620696e-01 1.640242e+00 1.773445e+00 1.935611e+00 2.245327e+00 2.259020e+00 2.255710e+00 2.240932e+00 2.284884e+00 2.506757e+00 2.196364e+00 1.812955e+00 1.029736e-03
<GCONST> 8.191776e+01
<MIXTURE> 15 2.475190e-03
<MEAN> 25
 -5.401936e+00 -6.423757e-01 -1.885196e-01 7.349017e+00 5.706643e+00 5.703324e+00 6.038836e+00 4.980323e+00 5.140803e+00 4.129066e+00 5.471080e+00 2.528523e+00 -1.208205e-01 -3.044144e-02 7.811318e-02 2.447683e-01 4.894940e-01 7.839155e-01 1.071952e+00 1.180409e+00 1.059218e+00 7.550130e-01 4.139694e-01 1.535999e-01 -1.160114e-04
<VARIANCE> 25
 7.057648e+00 5.587983e+00 9.059986e+00 1.286602e+01 1.406249e+01 1.433556e+01 1.501471e+01 1.483485e+01 1.416274e+01 1.428045e+01 1.523870e+01 1.248496e+01 1.243606e-01 2.058646e-01 3.215322e-01 5.013237e-01 6.969536e-01 7.940051e-01 7.609887e-01 7.893311e-01 9.057993e-01 1.019800e+00 1.075436e+00 1.036670e+00 2.838749e-05
<GCONST> 5.861839e+01
<MIXTURE> 16 2.475190e-03
<MEAN> 25
 -5.401936e+00 -6.423757e-01 -1.885196e-01 7.349017e+00 5.706643e+00 5.703324e+00 6.038836e+00 4.980323e+00 5.140803e+00 4.129066e+00 5.471080e+00 2.528523e+00 -1.208205e-01 -3.044144e-02 7.811318e-02 2.447683e-01 4.894940e-01 7.839155e-01 1.071952e+00 1.180409e+00 1.059218e+00 7.550130e-01 4.139694e-01 1.535999e-01 -1.160114e-04
<VARIANCE> 25
 7.057648e+00 5.587983e+00 9.059986e+00 1.286602e+01 1.406249e+01 1.433556e+01 1.501471e+01 1.483485e+01 1.416274e+01 1.428045e+01 1.523870e+01 1.248496e+01 1.243606e-01 2.058646e-01 3.215322e-01 5.013237e-01 6.969536e-01 7.940051e-01 7.609887e-01 7.893311e-01 9.057993e-01 1.019800e+00 1.075436e+00 1.036670e+00 2.838749e-05
<GCONST> 5.861839e+01
<MIXTURE> 17 9.518312e-03
<MEAN> 25
 3.750632e+00 -7.764243e-01 6.405895e+00 2.380084e+00 -5.995707e+00 -6.377849e+00 -3.151027e+00 -1.442621e-01 -2.662426e+00 -3.269048e+00 6.836704e-02 -1.138893e-02 -7.645048e-01 -1.218495e+00 1.304822e+00 -2.127687e+00 -2.359884e+00 -1.549117e-01 1.797213e-01 7.587853e-01 -2.813473e-01 -1.810971e-01 1.030296e+00 4.029541e-01 8.221588e-02
<VARIANCE> 25
 1.658046e+01 3.157948e+01 3.005997e+01 3.971474e+01 4.487040e+01 4.889315e+01 4.232599e+01 3.421256e+01 3.548503e+01 2.694656e+01 2.805094e+01 2.800651e+01 1.829104e+00 2.701984e+00 4.012036e+00 3.092668e+00 4.109493e+00 5.473167e+00 4.998420e+00 4.739954e+00 4.074396e+00 4.026230e+00 3.069123e+00 2.729484e+00 2.135564e-03
<GCONST> 9.696191e+01
<MIXTURE> 18 1.221018e-02
<MEAN> 25
 3.949151e+00 4.620141e+00 6.743297e+00 4.738075e+00 -4.612407e+00 -8.354593e+00 -1.742449e+00 -1.170497e+00 -3.369233e+00 -2.456036e+00 -8.846857e-01 5.743709e-01 -7.606180e-01 2.159873e+00 -1.992837e-01 2.030940e+00 3.115810e+00 1.484383e+00 8.039236e-01 -2.098701e-01 6.180461e-01 5.190024e-01 -2.893363e-01 -6.151826e-02 -1.238054e-01
<VARIANCE> 25
 1.610423e+01 2.531826e+01 3.287365e+01 2.616645e+01 4.002284e+01 3.366718e+01 3.865940e+01 3.510806e+01 3.917823e+01 3.450740e+01 3.254795e+01 3.096626e+01 2.562887e+00 3.033682e+00 4.732889e+00 4.050530e+00 4.092024e+00 4.669842e+00 4.654266e+00 4.453412e+00 4.487794e+00 4.311319e+00 4.569698e+00 3.625693e+00 4.114394e-03
<GCONST> 9.852153e+01
<MIXTURE> 19 9.912824e-03
<MEAN> 25
 -1.010006e+01 1.813500e+00 3.067466e-01 1.069204e+00 3.967875e+00 1.579216e+00 3.378542e+00 1.125041e+00 2.076781e+00 1.182872e+00 1.102215e+00 2.028065e+00 2.083355e+00 1.740448e+00 2.153645e+00 7.482231e-01 -1.049524e+00 -1.019885e+00 -1.045849e+00 -1.413780e+00 -1.494314e+00 -1.141836e+00 -8.364427e-01 -8.032079e-01 1.441050e-03
<VARIANCE> 25
 5.376080e+01 3.009976e+01 4.806295e+01 5.337318e+01 3.387392e+01 3.276472e+01 3.129627e+01 2.964811e+01 2.846601e+01 2.700438e+01 3.020632e+01 1.971969e+01 2.408386e+00 2.223590e+00 2.199304e+00 2.333595e+00 2.561952e+00 2.244759e+00 2.446290e+00 2.392872e+00 2.104055e+00 2.042159e+00 2.241123e+00 1.773784e+00 2.391900e-03
<GCONST> 9.169744e+01
<MIXTURE> 20 6.308331e-03
<MEAN> 25
 -1.418137e+01 7.416168e+00 8.452278e-01 6.152230e+00 4.843570e+00 1.637064e+00 5.209281e+00 8.537047e-01 9.223186e-01 7.987704e-01 2.568562e+00 -3.024330e-01 -3.285918e+00 -8.668860e-01 -1.565160e+00 3.325770e-01 1.541036e+00 2.063149e+00 1.979242e+00 2.056204e+00 2.144586e+00 2.040238e+00 1.684732e+00 9.453080e-01 4.732087e-02
<VARIANCE> 25
 1.966428e+01 2.345553e+01 3.096041e+01 3.717641e+01 3.084958e+01 2.789022e+01 2.993266e+01 3.147507e+01 2.796391e+01 2.821381e+01 2.515964e+01 2.091760e+01 2.092124e+00 2.182239e+00 1.909939e+00 2.541346e+00 2.702734e+00 2.313087e+00 2.310090e+00 2.320004e+00 2.235425e+00 2.652230e+00 2.241434e+00 1.865648e+00 1.886440e-03
<GCONST> 8.921881e+01
<MIXTURE> 21 7.928653e-03
<MEAN> 25
 3.994992e+00 -4.525931e+00 5.762674e+00 -1.552815e+00 -1.057063e+01 -8.714204e+00 -2.628501e+00 4.163620e+00 -2.065225e+00 -3.401665e+00 2.456744e-01 3.421431e-01 -7.183887e-01 1.336217e+00 2.583548e+00 -4.391934e-02 -1.551147e+00 3.355092e-01 5.832085e-01 -1.500421e+00 -1.956851e+00 3.120122e-01 1.321306e+00 2.478377e-01 -1.272487e-02
<VARIANCE> 25
 8.936422e+00 1.870628e+01 2.966130e+01 2.837124e+01 2.857098e+01 3.320701e+01 4.296397e+01 3.934801e+01 4.285818e+01 3.157253e+01 3.376559e+01 2.319490e+01 3.761079e-01 9.610915e-01 1.866265e+00 1.288259e+00 2.208169e+00 2.183750e+00 3.651047e+00 2.499965e+00 2.158645e+00 2.591301e+00 2.027704e+00 2.281042e+00 4.292229e-04
<GCONST> 8.510645e+01
<MIXTURE> 22 8.827789e-03
<MEAN> 25
 -1.792091e+01 7.154785e+00 -4.131347e+00 7.392482e+00 4.602546e+00 2.761039e+00 8.399819e+00 1.748462e+00 5.379299e+00 3.301012e+00 5.716434e+00 1.185148e+00 -3.095726e-01 -2.075880e-01 -1.255633e-01 -1.492641e-01 -7.208806e-03 1.369678e-01 1.807591e-01 1.779423e-01 2.484757e-01 2.073076e-01 1.726615e-01 1.924446e-01 8.857626e-03
<VARIANCE> 25
 8.116920e+00 1.682541e+01 1.738343e+01 2.517213e+01 2.289636e+01 2.083704e+01 1.943101e+01 1.871084e+01 1.813996e+01 2.086667e+01 1.924184e+01 1.378720e+01 1.090756e+00 1.357369e+00 1.363971e+00 1.572030e+00 1.408815e+00 1.526971e+00 1.508942e+00 1.532825e+00 1.614233e+00 1.544764e+00 1.357418e+00 1.168007e+00 1.745583e-03
<GCONST> 7.830949e+01
<MIXTURE> 23 6.455497e-03
<MEAN> 25
 6.829613e+00 1.691440e+00 2.300875e+00 2.130626e+00 -3.879910e+00 -2.672836e+00 -3.661509e+00 -5.557934e+00 -3.060963e+00 -1.047913e+00 -3.356233e+00 -1.741865e+00 3.074731e-02 1.812948e-01 -4.747286e-04 7.403025e-02 3.245310e-02 2.685403e-02 3.560715e-02 7.555397e-03 -3.935441e-02 1.420648e-02 1.358739e-01 1.363301e-01 -4.583111e-03
<VARIANCE> 25
 1.090557e+01 1.857547e+01 2.076365e+01 3.134531e+01 3.198529e+01 4.261525e+01 4.642784e+01 4.599275e+01 3.811624e+01 3.721085e+01 3.927048e+01 3.258956e+01 1.107804e-01 2.905690e-01 3.975300e-01 4.702896e-01 5.782447e-01 7.291363e-01 7.386670e-01 9.194106e-01 8.875187e-01 8.804851e-01 9.549434e-01 8.418975e-01 8.920988e-05
<GCONST> 7.087896e+01
<MIXTURE> 24 6.455497e-03
<MEAN> 25
 6.829613e+00 1.691440e+00 2.300875e+00 2.130626e+00 -3.879910e+00 -2.672836e+00 -3.661509e+00 -5.557934e+00 -3.060963e+00 -1.047913e+00 -3.356233e+00 -1.741865e+00 3.074731e-02 1.812948e-01 -4.747286e-04 7.403025e-02 3.245310e-02 2.685403e-02 3.560715e-02 7.555397e-03 -3.935441e-02 1.420648e-02 1.358739e-01 1.363301e-01 -4.583111e-03
<VARIANCE> 25
 1.090557e+01 1.857547e+01 2.076365e+01 3.134531e+01 3.198529e+01 4.261525e+01 4.642784e+01 4.599275e+01 3.811624e+01 3.721085e+01 3.927048e+01 3.258956e+01 1.107804e-01 2.905690e-01 3.975300e-01 4.702896e-01 5.782447e-01 7.291363e-01 7.386670e-01 9.194106e-01 8.875187e-01 8.804851e-01 9.549434e-01 8.418975e-01 8.920988e-05
<GCONST> 7.087896e+01
<MIXTURE> 25 1.118642e-02
<MEAN> 25
 2.752289e-01 3.460676e+00 1.667981e+01 -1.040761e+00 -1.126553e+01 -1.734521e+00 -4.994182e+00 -2.929263e+00 -6.878346e+00 -5.416414e+00 4.076225e+00 -1.634866e+00 -1.316158e-01 4.364974e-01 1.707866e-01 1.569887e-01 2.228082e-01 1.150673e-01 1.965844e-01 -1.554004e-01 -2.484072e-01 7.463180e-02 -7.267137e-02 -1.073782e-01 -1.288036e-02
<VARIANCE> 25
 8.836375e+00 2.213613e+01 2.209977e+01 2.846510e+01 3.191269e+01 4.092218e+01 2.718723e+01 2.990133e+01 2.861324e+01 3.648803e+01 2.094380e+01 2.741764e+01 5.947137e-01 1.438736e+00 1.397858e+00 1.380700e+00 2.269753e+00 2.041978e+00 1.746930e+00 1.660287e+00 1.532105e+00 1.641113e+00 1.355609e+00 1.294495e+00 1.274212e-03
<GCONST> 8.276549e+01
<MIXTURE> 26 7.727677e-03
<MEAN> 25
 2.176930e+00 -6.441453e+00 -1.038030e+01 -7.066047e-01 7.994395e+00 5.493762e+00 4.057281e+00 -2.779663e-01 2.271139e+00 -9.598041e-01 -2.895268e+00 -9.882666e-01 -6.528499e-01 6.275508e-01 3.657400e-01 6.953622e-01 1.763033e-01 2.416538e-01 2.885387e-01 3.359389e-01 2.877262e-01 8.238464e-02 3.856197e-01 4.261821e-01 -5.270647e-02
<VARIANCE> 25
 2.508184e+01 3.402966e+01 2.581205e+01 6.231204e+01 3.903914e+01 4.238612e+01 4.610477e+01 4.396293e+01 3.929950e+01 5.437653e+01 4.005443e+01 4.669821e+01 1.650615e+00 1.956706e+00 1.926544e+00 2.000669e+00 2.319529e+00 2.366596e+00 2.516908e+00 2.737406e+00 2.333073e+00 2.338276e+00 2.165314e+00 2.002315e+00 3.320865e-03
<GCONST> 9.391646e+01
<MIXTURE> 27 7.727677e-03
<MEAN> 25
 2.176930e+00 -6.441453e+00 -1.038030e+01 -7.066047e-01 7.994395e+00 5.493762e+00 4.057281e+00 -2.779663e-01 2.271139e+00 -9.598041e-01 -2.895268e+00 -9.882666e-01 -6.528499e-01 6.275508e-01 3.657400e-01 6.953622e-01 1.763033e-01 2.416538e-01 2.885387e-01 3.359389e-01 2.877262e-01 8.238464e-02 3.856197e-01 4.261821e-01 -5.270647e-02
<VARIANCE> 25
 2.508184e+01 3.402966e+01 2.581205e+01 6.231204e+01 3.903914e+01 4.238612e+01 4.610477e+01 4.396293e+01 3.929950e+01 5.437653e+01 4.005443e+01 4.669821e+01 1.650615e+00 1.956706e+00 1.926544e+00 2.000669e+00 2.319529e+00 2.366596e+00 2.516908e+00 2.737406e+00 2.333073e+00 2.338276e+00 2.165314e+00 2.002315e+00 3.320865e-03
<GCONST> 9.391646e+01
<MIXTURE> 28 5.036674e-03
<MEAN> 25
 -5.421171e+00 2.639936e-02 -1.571004e+00 6.560155e+00 5.197970e+00 3.469222e+00 5.392185e+00 3.102576e+00 3.871884e+00 2.389985e+00 2.648086e+00 3.205083e+00 -1.153675e-01 2.250818e-01 5.283084e-01 7.830569e-01 8.161196e-01 7.013071e-01 5.154034e-01 3.854928e-01 4.445285e-01 4.840913e-01 3.676268e-01 1.842084e-01 -1.061835e-05
<VARIANCE> 25
 1.053445e+01 8.357542e+00 1.206405e+01 1.504677e+01 1.475192e+01 1.793214e+01 1.802253e+01 1.899041e+01 1.732556e+01 1.676361e+01 2.055284e+01 1.495466e+01 2.560098e-01 3.368487e-01 4.040805e-01 4.615001e-01 6.242494e-01 8.438546e-01 1.064982e+00 1.146505e+00 1.095997e+00 1.024875e+00 1.030946e+00 1.075915e+00 1.005557e-06
<GCONST> 6.027762e+01
<MIXTURE> 29 5.036674e-03
<MEAN> 25
 -5.421171e+00 2.639936e-02 -1.571004e+00 6.560155e+00 5.197970e+00 3.469222e+00 5.392185e+00 3.102576e+00 3.871884e+00 2.389985e+00 2.648086e+00 3.205083e+00 -1.153675e-01 2.250818e-01 5.283084e-01 7.830569e-01 8.161196e-01 7.013071e-01 5.154034e-01 3.854928e-01 4.445285e-01 4.840913e-01 3.676268e-01 1.842084e-01 -1.061835e-05
<VARIANCE> 25
 1.053445e+01 8.357542e+00 1.206405e+01 1.504677e+01 1.475192e+01 1.793214e+01 1.802253e+01 1.899041e+01 1.732556e+01 1.676361e+01 2.055284e+01 1.495466e+01 2.560098e-01 3.368487e-01 4.040805e-01 4.615001e-01 6.242494e-01 8.438546e-01 1.064982e+00 1.146505e+00 1.095997e+00 1.024875e+00 1.030946e+00 1.075915e+00 1.005557e-06
<GCONST> 6.027762e+01
<MIXTURE> 30 8.917812e-03
<MEAN> 25
 -4.473301e+00 -2.036561e-01 6.583116e-01 9.059468e+00 7.751128e+00 7.497462e+00 7.555075e+00 6.870868e+00 6.523563e+00 4.881666e+00 6.978445e+00 3.477699e+00 -2.369127e-02 3.047793e-02 5.724607e-02 8.885602e-02 8.266934e-02 4.320119e-02 1.745138e-02 -2.260254e-03 1.916021e-02 5.434795e-02 5.961189e-02 3.314197e-02 -5.610132e-04
<VARIANCE> 25
 7.009542e+00 9.872485e+00 1.040806e+01 1.387441e+01 1.581011e+01 1.641226e+01 1.929006e+01 1.813205e+01 1.631185e+01 1.841562e+01 2.139855e+01 1.447125e+01 9.696512e-02 1.993183e-01 3.249677e-01 4.799199e-01 6.175880e-01 7.222064e-01 7.730600e-01 8.111959e-01 8.749577e-01 9.348997e-01 9.191871e-01 8.601694e-01 5.117297e-05
<GCONST> 6.061856e+01
<MIXTURE> 31 4.136493e-03
<MEAN> 25
 -2.990285e+00 -5.214014e+00 1.140213e-01 4.362859e+00 3.303916e+00 1.667744e+00 4.876604e+00 6.142200e+00 2.657318e+00 1.197773e+00 6.109606e+00 2.971350e+00 2.664994e-01 4.553940e-01 -1.789920e-01 2.705957e-01 9.230771e-02 4.674076e-01 1.974964e-01 2.965296e-02 3.811437e-01 3.942482e-01 1.436775e-01 1.488715e-01 -1.773872e-02
<VARIANCE> 25
 7.611487e+00 1.659281e+01 1.652411e+01 1.884840e+01 2.489365e+01 2.248569e+01 2.423685e+01 2.565471e+01 2.421502e+01 2.608916e+01 2.101339e+01 1.767134e+01 1.890631e-01 4.976294e-01 5.890248e-01 7.938061e-01 9.144870e-01 1.163765e+00 1.209524e+00 1.367494e+00 1.314556e+00 1.234726e+00 1.283064e+00 1.093663e+00 2.510977e-04
<GCONST> 7.162765e+01
<MIXTURE> 32 4.136493e-03
<MEAN> 25
 -2.990285e+00 -5.214014e+00 1.140213e-01 4.362859e+00 3.303916e+00 1.667744e+00 4.876604e+00 6.142200e+00 2.657318e+00 1.197773e+00 6.109606e+00 2.971350e+00 2.664994e-01 4.553940e-01 -1.789920e-01 2.705957e-01 9.230771e-02 4.674076e-01 1.974964e-01 2.965296e-02 3.811437e-01 3.942482e-01 1.436775e-01 1.488715e-01 -1.773872e-02
<VARIANCE> 25
 7.611487e+00 1.659281e+01 1.652411e+01 1.884840e+01 2.489365e+01 2.248569e+01 2.423685e+01 2.565471e+01 2.421502e+01 2.608916e+01 2.101339e+01 1.767134e+01 1.890631e-01 4.976294e-01 5.890248e-01 7.938061e-01 9.144870e-01 1.163765e+00 1.209524e+00 1.367494e+00 1.314556e+00 1.234726e+00 1.283064e+00 1.093663e+00 2.510977e-04
<GCONST> 7.162765e+01
<MIXTURE> 33 1.508826e-02
<MEAN> 25
 6.566085e+00 -4.005392e+00 -2.199517e+00 -2.637095e+00 -1.962024e+00 -5.582242e+00 -7.252794e+00 1.724860e+00 2.305254e+00 -4.648990e-01 -4.701566e+00 -2.999543e+00 6.516123e-01 -1.165151e+00 -2.434228e+00 -1.863324e+00 1.455820e+00 1.416402e+00 -7.507868e-01 6.581355e-01 1.018408e+00 5.514466e-01 -3.060316e-01 -1.331309e+00 3.755875e-02
<VARIANCE> 25
 1.002009e+01 2.109061e+01 2.897945e+01 3.603448e+01 4.046276e+01 4.427012e+01 4.306543e+01 4.655415e+01 4.036940e+01 4.366780e+01 3.482338e+01 2.830222e+01 1.156671e+00 1.950501e+00 2.210733e+00 2.190998e+00 4.208744e+00 3.428293e+00 4.309831e+00 5.626858e+00 3.781140e+00 4.398774e+00 3.367666e+00 2.598026e+00 1.472512e-03
<GCONST> 9.442188e+01
<MIXTURE> 34 1.588179e-02
<MEAN> 25
 8.925928e+00 4.698289e-02 1.344575e-01 1.214466e+00 -2.945176e+00 -1.522501e+00 -6.153316e+00 -4.691320e+00 -1.807159e+00 1.536091e-01 -2.653048e+00 -3.698819e+00 -1.722157e-02 1.346612e+00 1.474594e+00 2.397172e+00 -4.132681e-02 -1.531089e-01 7.907378e-01 -1.641900e+00 -9.014723e-01 2.588960e-01 -5.559888e-01 2.446118e-01 -6.237209e-02
<VARIANCE> 25
 7.678133e+00 3.104567e+01 2.944591e+01 4.993395e+01 4.238059e+01 4.946746e+01 5.500737e+01 5.671279e+01 5.267263e+01 4.326503e+01 4.834379e+01 3.153485e+01 1.263823e+00 1.984026e+00 4.268060e+00 4.050966e+00 5.634406e+00 5.834966e+00 5.512388e+00 6.166007e+00 5.201363e+00 4.981980e+00 5.025389e+00 3.879778e+00 1.154051e-03
<GCONST> 9.971710e+01
<MIXTURE> 35 1.467755e-02
<MEAN> 25
 -2.155582e+00 -5.249883e+00 -9.986903e+00 2.169992e-01 9.710537e+00 7.977286e-01 1.604704e+00 2.538724e+00 1.473221e+00 4.582389e+00 4.717773e-02 1.883857e+00 5.479988e-01 -1.117641e+00 -1.428324e+00 -1.386794e+00 4.080341e-01 -7.980602e-01 -6.818196e-01 -1.327184e-01 -1.603100e-01 1.640189e-01 -6.519121e-01 -4.971352e-01 1.077031e-01
<VARIANCE> 25
 1.958385e+01 2.946344e+01 4.337273e+01 6.238923e+01 4.212254e+01 5.749086e+01 5.102907e+01 4.362143e+01 5.041011e+01 3.853033e+01 3.658491e+01 3.095764e+01 3.464828e+00 3.573826e+00 6.783319e+00 5.558304e+00 5.221413e+00 5.582574e+00 4.924301e+00 4.747680e+00 5.054663e+00 4.517840e+00 4.078571e+00 3.797523e+00 5.303389e-03
<GCONST> 1.036114e+02
<MIXTURE> 36 1.093293e-02
<MEAN> 25
 4.822717e+00 -3.351398e+00 6.776948e+00 2.541783e+00 -9.809041e+00 -8.580129e+00 -6.139329e+00 2.876506e+00 -1.834524e+00 -4.379235e+00 2.630370e+00 -1.818423e-01 3.598276e-01 1.466179e-01 -8.766307e-01 3.237457e-02 8.353100e-01 3.860971e-02 -4.537006e-01 4.279346e-02 3.905340e-01 5.296065e-01 -3.965704e-01 -3.135926e-01 -1.519475e-02
<VARIANCE> 25
 1.036783e+01 1.682178e+01 2.264041e+01 2.726325e+01 3.211464e+01 3.305678e+01 4.470775e+01 3.480416e+01 3.774741e+01 3.230091e+01 2.758618e+01 2.564380e+01 4.526626e-01 7.230434e-01 1.501049e+00 1.219594e+00 1.639535e+00 1.657152e+00 2.153275e+00 1.786758e+00 2.027400e+00 1.672924e+00 1.475622e+00 1.441430e+00 7.070116e-04
<GCONST> 8.207491e+01
<MIXTURE> 37 1.246826e-02
<MEAN> 25
 5.438770e-01 7.769105e+00 1.205048e+01 -5.550927e+00 -8.027497e+00 -1.051722e+00 -5.078995e+00 -8.317524e+00 -3.707689e+00 -9.081565e-01 -3.666828e+00 -1.291983e+00 1.830387e-01 6.469591e-01 -1.352862e+00 3.581403e+00 1.986931e+00 -3.004922e-01 1.090483e+00 4.367601e-01 5.279635e-01 -3.225516e-01 5.381764e-01 -9.705933e-02 -9.487489e-02
<VARIANCE> 25
 1.592210e+01 2.599610e+01 3.087574e+01 5.099145e+01 3.392548e+01 3.199444e+01 4.395235e+01 3.508680e+01 3.859278e+01 3.594116e+01 3.774329e+01 3.086735e+01 2.954230e+00 3.413329e+00 3.017722e+00 4.096132e+00 4.615803e+00 3.752003e+00 4.206824e+00 3.809176e+00 3.447497e+00 3.620283e+00 3.869961e+00 2.791005e+00 3.930341e-03
<GCONST> 9.777650e+01
<MIXTURE> 38 1.154525e-02
<MEAN> 25
 -4.476070e+00 8.973917e+00 4.600838e+00 3.231190e+00 8.465469e-01 -5.219498e+00 -6.076649e-01 -2.743647e+00 -2.855335e+00 -3.103554e+00 -1.491261e+00 -5.414374e-01 -4.517759e+00 1.251816e+00 -3.116353e-01 1.454522e+00 2.562896e+00 1.391785e+00 2.050725e+00 9.535508e-01 7.861033e-01 6.375455e-01 1.004673e+00 3.257345e-01 4.856512e-02
<VARIANCE> 25
 3.139425e+01 2.956396e+01 3.900826e+01 3.300887e+01 4.885208e+01 3.558992e+01 3.635979e+01 4.165186e+01 3.487354e+01 3.249724e+01 2.428849e+01 2.872982e+01 2.355645e+00 3.940564e+00 3.908739e+00 5.162770e+00 4.247575e+00 5.022829e+00 4.783547e+00 4.643398e+00 4.446303e+00 4.937750e+00 4.389464e+00 3.263535e+00 2.049037e-03
<GCONST> 9.925954e+01
<MIXTURE> 39 9.501865e-03
<MEAN> 25
 1.310574e+00 2.548919e+00 1.010683e+01 -9.156157e+00 -1.118914e+01 -9.787247e-01 -3.003072e+00 -6.514941e+00 -4.464170e+00 8.484602e-01 -3.650904e+00 -2.269486e+00 -7.189419e-01 1.502646e+00 1.607786e+00 -1.373405e+00 7.838047e-02 1.217264e+00 -1.195923e+00 -1.238949e+00 4.210711e-01 4.319032e-01 -5.081584e-01 1.214595e-01 1.478944e-03
<VARIANCE> 25
 8.868940e+00 3.000173e+01 3.216034e+01 3.812377e+01 3.756876e+01 4.232577e+01 4.425899e+01 3.338723e+01 3.923381e+01 3.285833e+01 3.594876e+01 2.919025e+01 6.922730e-01 1.576204e+00 1.520776e+00 2.912838e+00 2.408833e+00 2.801991e+00 3.056519e+00 2.825722e+00 2.437860e+00 2.603230e+00 2.103172e+00 2.056909e+00 1.171933e-03
<GCONST> 8.963432e+01
<MIXTURE> 40 1.030800e-02
<MEAN> 25
 -8.255483e+00 1.900393e+00 -8.796036e-01 7.131511e+00 3.164235e+00 4.937158e+00 4.738125e+00 4.039121e+00 4.537930e+00 4.271432e+00 5.356302e+00 1.643988e+00 -1.269500e-01 -2.222707e-01 -1.981725e-02 -2.118196e-01 -1.792231e-01 -1.228472e-01 6.203188e-02 -3.994995e-02 -2.925123e-02 4.259297e-02 8.827586e-02 2.182581e-02 4.221903e-03
<VARIANCE> 25
 4.571735e+01 1.897458e+01 2.748514e+01 3.209981e+01 2.645205e+01 1.977344e+01 2.026091e+01 1.765842e+01 1.637327e+01 1.935879e+01 1.843613e+01 1.360075e+01 7.398842e-01 7.054886e-01 8.053414e-01 1.123630e+00 1.112429e+00 1.256515e+00 1.243735e+00 1.324058e+00 1.190912e+00 1.166422e+00 1.190584e+00 1.088514e+00 7.784253e-04
<GCONST> 7.643114e+01
<MIXTURE> 41 6.713375e-03
<MEAN> 25
 1.306596e+00 1.781965e+00 1.047089e+01 -6.961954e+00 -1.046973e+01 -3.856633e+00 -2.491617e+00 -5.041690e+00 -4.651656e+00 2.660831e+00 -1.743219e+00 -9.500932e-01 7.774816e-02 -7.609961e-01 1.695879e+00 -3.556627e+00 -2.460325e+00 -1.128043e-01 -5.077484e-01 -3.586256e-01 -8.276082e-01 1.085670e+00 -1.046205e+00 8.353531e-02 8.624496e-02
<VARIANCE> 25
 1.169261e+01 2.965196e+01 3.264491e+01 4.000941e+01 3.867430e+01 4.013644e+01 3.715575e+01 2.985738e+01 3.308954e+01 2.876122e+01 3.184464e+01 2.717793e+01 3.175971e+00 3.309510e+00 3.824185e+00 3.803621e+00 4.902244e+00 5.871191e+00 4.715126e+00 4.559832e+00 3.973786e+00 4.219440e+00 3.830477e+00 3.221661e+00 2.931939e-03
<GCONST> 9.790849e+01
<MIXTURE> 42 1.106211e-02
<MEAN> 25
 -1.926207e+00 4.567204e+00 4.668447e+00 2.877064e+00 1.937453e-01 -6.297584e+00 -1.000316e+00 -1.870109e+00 -1.510439e+00 -1.232247e+00 -2.289655e+00 1.265606e+00 4.181330e+00 -3.488933e-01 1.526469e+00 1.977150e-01 -2.960607e+00 -1.152235e+00 -2.256855e+00 -8.178090e-01 -7.875385e-01 -7.351446e-01 5.313987e-01 -1.057424e+00 9.588420e-03
<VARIANCE> 25
 3.625797e+01 2.116921e+01 4.667417e+01 2.621337e+01 3.927373e+01 3.904924e+01 3.724710e+01 2.726251e+01 2.862316e+01 2.756073e+01 2.009888e+01 1.791279e+01 3.568528e+00 4.889148e+00 6.148643e+00 4.785137e+00 4.653436e+00 6.015501e+00 5.084360e+00 5.293314e+00 4.976410e+00 4.855321e+00 4.236002e+00 3.413624e+00 4.465837e-03
<GCONST> 9.982520e+01
<MIXTURE> 43 7.108249e-03
<MEAN> 25
 3.161384e+00 -6.298933e+00 -2.241863e+00 -5.180316e+00 -7.390463e+00 -3.392727e+00 4.137496e+00 1.305975e+00 -5.051541e+00 -7.080254e+00 -4.320121e+00 -1.247488e+00 2.383587e-01 2.162471e+00 1.911820e+00 -1.323778e-01 -1.427279e+00 -7.956614e-01 -9.708692e-01 -7.787724e-01 8.215432e-01 1.467493e+00 3.413300e-01 2.152173e-02 -4.502341e-02
<VARIANCE> 25
 9.600635e+00 1.971050e+01 2.735239e+01 3.518715e+01 3.838496e+01 3.665060e+01 3.324463e+01 3.974931e+01 3.967909e+01 3.869678e+01 2.652958e+01 2.950585e+01 6.896240e-01 1.250804e+00 1.570442e+00 2.487602e+00 2.376425e+00 2.381716e+00 2.650794e+00 3.023197e+00 2.603963e+00 2.574118e+00 2.331322e+00 1.918120e+00 9.451556e-04
<GCONST> 8.795999e+01
<MIXTURE> 44 7.328289e-03
<MEAN> 25
 -1.196278e+01 1.516948e+00 3.650058e+00 -3.071759e+00 2.459424e+00 2.683897e+00 -1.168242e+00 2.381778e+00 1.627546e+00 -1.905860e+00 1.145372e+00 1.103023e+00 -2.668272e-01 1.669966e-01 1.055186e-01 3.119869e-01 1.670982e-03 2.765087e-01 3.171999e-01 1.181432e-01 2.646869e-01 6.515788e-02 1.209096e-01 8.370311e-02 7.205804e-03
<VARIANCE> 25
 5.336161e+01 2.102305e+01 2.637448e+01 2.301573e+01 2.419525e+01 2.709965e+01 2.568600e+01 2.692426e+01 2.181127e+01 2.815149e+01 2.317430e+01 1.769735e+01 1.159875e+00 1.392121e+00 1.118864e+00 1.155104e+00 1.769106e+00 1.678658e+00 1.310325e+00 1.788347e+00 1.434113e+00 1.304053e+00 1.209451e+00 1.083779e+00 1.087521e-03
<GCONST> 8.158784e+01
<MIXTURE> 45 1.364932e-02
<MEAN> 25
 -1.237672e+01 3.415941e+00 -1.232481e+00 2.822116e+00 5.697937e+00 9.717061e-02 4.722740e+00 2.861672e+00 3.289498e+00 2.159827e+00 2.362495e+00 2.583888e+00 -2.927797e+00 5.953035e-01 -4.869549e-01 -5.319016e-01 1.991629e-01 -2.451261e-02 4.525157e-01 6.691895e-02 -6.051503e-02 -6.681289e-02 2.512424e-01 9.343763e-02 1.185064e-01
<VARIANCE> 25
 3.407467e+01 3.012260e+01 3.071067e+01 3.489037e+01 3.142039e+01 2.916613e+01 2.974323e+01 2.643661e+01 2.469817e+01 2.338581e+01 2.787140e+01 1.556945e+01 2.434018e+00 3.046929e+00 2.835921e+00 2.665421e+00 2.490358e+00 2.644605e+00 2.309155e+00 2.263736e+00 2.149399e+00 2.109770e+00 1.965908e+00 1.636721e+00 4.110208e-03
<GCONST> 9.052855e+01
<MIXTURE> 46 9.336259e-03
<MEAN> 25
 -9.459962e+00 2.310062e+00 1.199753e+00 7.564481e+00 5.939703e+00 3.335732e+00 7.064466e+00 4.495743e+00 5.706604e+00 4.691142e+00 5.038818e+00 2.925728e+00 1.060549e+00 -2.405695e-01 4.041445e-02 1.001406e+00 6.036338e-01 9.424703e-01 3.865247e-01 6.745500e-01 4.733676e-01 5.082634e-01 6.410452e-01 5.243541e-01 -1.056395e-01
<VARIANCE> 25
 3.424590e+01 4.381755e+01 3.851683e+01 4.996709e+01 5.084417e+01 4.079436e+01 3.708945e+01 3.535568e+01 3.315329e+01 3.096108e+01 2.823259e+01 2.022525e+01 3.910379e+00 4.141947e+00 3.880829e+00 4.137936e+00 4.173889e+00 3.699293e+00 3.381195e+00 3.115075e+00 2.982002e+00 2.864852e+00 2.309190e+00 1.783255e+00 7.953945e-03
<GCONST> 9.829926e+01
<MIXTURE> 47 7.116147e-03
<MEAN> 25
 7.280714e+00 -7.315789e+00 -7.696635e+00 -6.442361e+00 1.468328e+00 9.064266e-01 -2.372377e+00 1.190229e+00 2.968689e+00 1.386673e-01 -4.224908e+00 -6.647129e+00 -1.751836e-01 -1.245956e+00 -6.880947e-01 -4.139851e-01 6.327519e-01 8.091500e-01 8.752124e-01 3.030854e-01 1.091020e-01 -8.963734e-01 -4.765703e-01 -4.642893e-01 2.977797e-02
<VARIANCE> 25
 1.087217e+01 2.122298e+01 2.074084e+01 3.289848e+01 3.599866e+01 5.277000e+01 4.491808e+01 4.052231e+01 4.324392e+01 4.657343e+01 4.828938e+01 3.369594e+01 5.226973e-01 7.780818e-01 1.118110e+00 1.656395e+00 1.976634e+00 2.192079e+00 2.302954e+00 2.472898e+00 2.182382e+00 2.139565e+00 2.181626e+00 2.004714e+00 5.565277e-04
<GCONST> 8.641757e+01
<MIXTURE> 48 7.116147e-03
<MEAN> 25
 7.280714e+00 -7.315789e+00 -7.696635e+00 -6.442361e+00 1.468328e+00 9.064266e-01 -2.372377e+00 1.190229e+00 2.968689e+00 1.386673e-01 -4.224908e+00 -6.647129e+00 -1.751836e-01 -1.245956e+00 -6.880947e-01 -4.139851e-01 6.327519e-01 8.091500e-01 8.752124e-01 3.030854e-01 1.091020e-01 -8.963734e-01 -4.765703e-01 -4.642893e-01 2.977797e-02
<VARIANCE> 25
 1.087217e+01 2.122298e+01 2.074084e+01 3.289848e+01 3.599866e+01 5.277000e+01 4.491808e+01 4.052231e+01 4.324392e+01 4.657343e+01 4.828938e+01 3.369594e+01 5.226973e-01 7.780818e-01 1.118110e+00 1.656395e+00 1.976634e+00 2.192079e+00 2.302954e+00 2.472898e+00 2.182382e+00 2.139565e+00 2.181626e+00 2.004714e+00 5.565277e-04
<GCONST> 8.641757e+01
<MIXTURE> 49 5.548473e-03
<MEAN> 25
 -4.739479e+00 2.900641e-01 4.367743e-01 8.022810e+00 5.756836e+00 5.289740e+00 5.792294e+00 4.156715e+00 4.997548e+00 3.644270e+00 4.488751e+00 2.746410e+00 3.917870e-01 6.690581e-01 7.024250e-01 3.689658e-01 -1.914571e-01 -7.157797e-01 -1.056150e+00 -1.088755e+00 -8.733917e-01 -6.232605e-01 -5.032274e-01 -2.143143e-01 1.822533e-04
<VARIANCE> 25
 1.094956e+01 9.618247e+00 1.465271e+01 1.777402e+01 1.756548e+01 1.818004e+01 1.953494e+01 2.003913e+01 1.731490e+01 1.704317e+01 2.275505e+01 1.368344e+01 2.785769e-01 2.532943e-01 3.453960e-01 5.823959e-01 8.367203e-01 9.613461e-01 9.823908e-01 1.022143e+00 1.212295e+00 1.215400e+00 1.211847e+00 1.203637e+00 1.455443e-05
<GCONST> 6.448967e+01
<MIXTURE> 50 6.234641e-03
<MEAN> 25
 -4.417003e+00 1.268254e-01 -1.444284e+00 5.499822e+00 3.914924e+00 2.277419e+00 3.734554e+00 1.768114e+00 2.440255e+00 1.372968e+00 2.378931e+00 2.963291e+00 5.548290e-02 1.639491e-01 5.591626e-02 -1.320850e-01 -5.743397e-01 -5.897288e-01 -3.659557e-01 -1.644837e-01 3.423444e-01 7.990503e-01 7.527368e-01 4.484796e-01 -4.818498e-05
<VARIANCE> 25
 1.069388e+01 1.069633e+01 1.315044e+01 1.779565e+01 1.478168e+01 1.900461e+01 1.773823e+01 1.861821e+01 1.779087e+01 1.627525e+01 2.018747e+01 1.442029e+01 1.441679e-01 2.814198e-01 4.217352e-01 4.904475e-01 6.025361e-01 6.934543e-01 9.296080e-01 1.138384e+00 1.076074e+00 8.641385e-01 9.075229e-01 1.090810e+00 9.842184e-07
<GCONST> 5.941107e+01
<MIXTURE> 51 6.234641e-03
<MEAN> 25
 -4.417003e+00 1.268254e-01 -1.444284e+00 5.499822e+00 3.914924e+00 2.277419e+00 3.734554e+00 1.768114e+00 2.440255e+00 1.372968e+00 2.378931e+00 2.963291e+00 5.548290e-02 1.639491e-01 5.591626e-02 -1.320850e-01 -5.743397e-01 -5.897288e-01 -3.659557e-01 -1.644837e-01 3.423444e-01 7.990503e-01 7.527368e-01 4.484796e-01 -4.818498e-05
<VARIANCE> 25
 1.069388e+01 1.069633e+01 1.315044e+01 1.779565e+01 1.478168e+01 1.900461e+01 1.773823e+01 1.861821e+01 1.779087e+01 1.627525e+01 2.018747e+01 1.442029e+01 1.441679e-01 2.814198e-01 4.217352e-01 4.904475e-01 6.025361e-01 6.934543e-01 9.296080e-01 1.138384e+00 1.076074e+00 8.641385e-01 9.075229e-01 1.090810e+00 9.842184e-07
<GCONST> 5.941107e+01
<MIXTURE> 52 6.367945e-03
<MEAN> 25
 1.010538e+01 2.041582e+00 -6.190325e+00 -1.426540e+01 -4.216000e+00 8.531912e+00 -2.750538e+00 -3.061636e+00 -4.404937e+00 -2.130248e+00 3.341735e+00 7.384846e-01 -3.836280e-01 -4.789098e-01 -7.016797e-02 1.139558e+00 1.341753e+00 -4.751063e-01 -6.000014e-01 -6.546985e-01 4.255236e-02 1.240963e+00 3.820754e-01 -5.491219e-01 -1.382273e-02
<VARIANCE> 25
 9.389539e+00 2.045571e+01 2.529067e+01 3.864438e+01 4.562249e+01 3.064793e+01 4.642724e+01 4.881135e+01 4.295215e+01 4.591960e+01 3.990481e+01 2.996123e+01 4.500118e-01 1.477416e+00 1.307174e+00 2.751175e+00 2.324237e+00 2.195516e+00 2.981298e+00 2.799204e+00 2.998441e+00 2.672683e+00 2.524322e+00 2.275583e+00 1.541930e-03
<GCONST> 8.970969e+01
<MIXTURE> 53 6.367945e-03
<MEAN> 25
 1.010538e+01 2.041582e+00 -6.190325e+00 -1.426540e+01 -4.216000e+00 8.531912e+00 -2.750538e+00 -3.061636e+00 -4.404937e+00 -2.130248e+00 3.341735e+00 7.384846e-01 -3.836280e-01 -4.789098e-01 -7.016797e-02 1.139558e+00 1.341753e+00 -4.751063e-01 -6.000014e-01 -6.546985e-01 4.255236e-02 1.240963e+00 3.820754e-01 -5.491219e-01 -1.382273e-02
<VARIANCE> 25
 9.389539e+00 2.045571e+01 2.529067e+01 3.864438e+01 4.562249e+01 3.064793e+01 4.642724e+01 4.881135e+01 4.295215e+01 4.591960e+01 3.990481e+01 2.996123e+01 4.500118e-01 1.477416e+00 1.307174e+00 2.751175e+00 2.324237e+00 2.195516e+00 2.981298e+00 2.799204e+00 2.998441e+00 2.672683e+00 2.524322e+00 2.275583e+00 1.541930e-03
<GCONST> 8.970969e+01
<MIXTURE> 54 7.368620e-03
<MEAN> 25
 -3.617651e+00 4.227477e-02 -6.913550e-01 7.972334e+00 6.449942e+00 4.599152e+00 4.668749e+00 4.581189e+00 4.042363e+00 3.583885e+00 4.436509e+00 2.305212e+00 -2.525446e-03 2.664819e-02 3.423262e-02 4.791206e-02 4.766052e-02 4.133594e-02 4.123380e-02 2.438492e-02 2.781951e-02 2.879698e-02 1.614123e-02 -8.458078e-04 -5.150564e-06
<VARIANCE> 25
 9.170549e+00 1.038602e+01 9.251609e+00 1.856354e+01 1.338288e+01 1.356404e+01 1.192925e+01 1.128649e+01 1.140718e+01 1.351904e+01 1.773973e+01 1.259235e+01 4.103669e-02 8.742220e-02 1.546240e-01 2.264820e-01 3.097261e-01 4.004312e-01 4.612017e-01 5.221363e-01 5.450237e-01 5.214365e-01 5.133730e-01 5.174987e-01 1.032888e-06
<GCONST> 4.734069e+01
<MIXTURE> 55 7.368620e-03
<MEAN> 25
 -3.617651e+00 4.227477e-02 -6.913550e-01 7.972334e+00 6.449942e+00 4.599152e+00 4.668749e+00 4.581189e+00 4.042363e+00 3.583885e+00 4.436509e+00 2.305212e+00 -2.525446e-03 2.664819e-02 3.423262e-02 4.791206e-02 4.766052e-02 4.133594e-02 4.123380e-02 2.438492e-02 2.781951e-02 2.879698e-02 1.614123e-02 -8.458078e-04 -5.150564e-06
<VARIANCE> 25
 9.170549e+00 1.038602e+01 9.251609e+00 1.856354e+01 1.338288e+01 1.356404e+01 1.192925e+01 1.128649e+01 1.140718e+01 1.351904e+01 1.773973e+01 1.259235e+01 4.103669e-02 8.742220e-02 1.546240e-01 2.264820e-01 3.097261e-01 4.004312e-01 4.612017e-01 5.221363e-01 5.450237e-01 5.214365e-01 5.133730e-01 5.174987e-01 1.032888e-06
<GCONST> 4.734069e+01
<MIXTURE> 56 6.132464e-03
<MEAN> 25
 7.362712e+00 -6.515941e+00 -8.867248e+00 -8.469489e+00 3.707707e+00 3.965520e+00 -2.141508e+00 -1.527398e+00 1.722521e+00 5.741751e-01 -2.416453e+00 -6.900229e+00 -5.486544e-03 2.581650e-02 -9.008945e-02 4.793398e-02 3.161889e-01 2.801870e-02 1.250091e-01 -1.029922e-01 -5.103543e-02 -5.442121e-02 -1.247641e-01 -3.634557e-02 -7.303994e-03
<VARIANCE> 25
 9.685565e+00 2.355573e+01 2.078655e+01 4.055811e+01 3.300190e+01 4.912352e+01 5.937376e+01 3.545179e+01 3.835568e+01 3.627020e+01 3.868171e+01 3.109959e+01 2.076418e-01 4.165682e-01 4.411087e-01 7.629970e-01 8.661391e-01 1.120160e+00 8.793723e-01 9.075009e-01 8.811417e-01 9.187220e-01 1.066915e+00 8.563761e-01 2.320898e-04
<GCONST> 7.502496e+01
<MIXTURE> 57 6.132464e-03
<MEAN> 25
 7.362712e+00 -6.515941e+00 -8.867248e+00 -8.469489e+00 3.707707e+00 3.965520e+00 -2.141508e+00 -1.527398e+00 1.722521e+00 5.741751e-01 -2.416453e+00 -6.900229e+00 -5.486544e-03 2.581650e-02 -9.008945e-02 4.793398e-02 3.161889e-01 2.801870e-02 1.250091e-01 -1.029922e-01 -5.103543e-02 -5.442121e-02 -1.247641e-01 -3.634557e-02 -7.303994e-03
<VARIANCE> 25
 9.685565e+00 2.355573e+01 2.078655e+01 4.055811e+01 3.300190e+01 4.912352e+01 5.937376e+01 3.545179e+01 3.835568e+01 3.627020e+01 3.868171e+01 3.109959e+01 2.076418e-01 4.165682e-01 4.411087e-01 7.629970e-01 8.661391e-01 1.120160e+00 8.793723e-01 9.075009e-01 8.811417e-01 9.187220e-01 1.066915e+00 8.563761e-01 2.320898e-04
<GCONST> 7.502496e+01
<MIXTURE> 58 6.172147e-03
<MEAN> 25
 2.417283e+00 -2.830075e+00 6.806391e+00 -4.980758e+00 -1.249417e+01 -5.019519e+00 1.199292e+00 6.274168e-01 -2.191551e+00 1.748719e+00 4.251734e-01 -7.942938e-01 -8.359304e-03 -1.134015e-01 -8.696723e-02 -1.560106e-01 -7.212528e-03 2.492872e-01 3.704178e-01 2.686628e-01 -8.470943e-03 -2.213502e-02 -8.126339e-02 -1.819395e-01 -2.259409e-03
<VARIANCE> 25
 7.331988e+00 1.463715e+01 2.159929e+01 2.605701e+01 2.948788e+01 4.700357e+01 3.242733e+01 3.278227e+01 3.015169e+01 2.975448e+01 2.210858e+01 1.921730e+01 3.064210e-01 7.868549e-01 7.340208e-01 9.792484e-01 9.441033e-01 1.264056e+00 1.156844e+00 1.549291e+00 1.168245e+00 1.048129e+00 9.366077e-01 8.909132e-01 6.733417e-04
<GCONST> 7.573563e+01
<MIXTURE> 59 6.172147e-03
<MEAN> 25
 2.417283e+00 -2.830075e+00 6.806391e+00 -4.980758e+00 -1.249417e+01 -5.019519e+00 1.199292e+00 6.274168e-01 -2.191551e+00 1.748719e+00 4.251734e-01 -7.942938e-01 -8.359304e-03 -1.134015e-01 -8.696723e-02 -1.560106e-01 -7.212528e-03 2.492872e-01 3.704178e-01 2.686628e-01 -8.470943e-03 -2.213502e-02 -8.126339e-02 -1.819395e-01 -2.259409e-03
<VARIANCE> 25
 7.331988e+00 1.463715e+01 2.159929e+01 2.605701e+01 2.948788e+01 4.700357e+01 3.242733e+01 3.278227e+01 3.015169e+01 2.975448e+01 2.210858e+01 1.921730e+01 3.064210e-01 7.868549e-01 7.340208e-01 9.792484e-01 9.441033e-01 1.264056e+00 1.156844e+00 1.549291e+00 1.168245e+00 1.048129e+00 9.366077e-01 8.909132e-01 6.733417e-04
<GCONST> 7.573563e+01
<MIXTURE> 60 4.479129e-03
<MEAN> 25
 -2.134249e+00 -3.497948e-01 -5.798371e-01 2.437136e+00 1.384501e+00 1.415065e+00 1.371593e+00 1.602523e+00 1.362864e+00 9.170740e-01 1.451501e+00 1.060825e+00 -4.298898e-02 5.939630e-02 1.901903e-01 1.929498e-01 1.540987e-01 1.255285e-02 1.940417e-01 3.293925e-01 6.623867e-01 7.556729e-01 5.330232e-01 3.357761e-01 -8.000484e-04
<VARIANCE> 25
 1.034730e+01 4.951978e+00 9.811570e+00 9.882505e+00 1.026339e+01 1.598220e+01 1.306156e+01 1.037413e+01 1.066204e+01 1.095224e+01 1.319019e+01 1.018984e+01 9.473944e-02 1.834695e-01 2.942136e-01 3.442004e-01 6.358323e-01 7.864226e-01 8.890890e-01 8.387508e-01 9.225309e-01 9.600484e-01 8.312314e-01 7.433023e-01 4.769323e-05
<GCONST> 5.624550e+01
<MIXTURE> 61 4.479129e-03
<MEAN> 25
 -2.134249e+00 -3.497948e-01 -5.798371e-01 2.437136e+00 1.384501e+00 1.415065e+00 1.371593e+00 1.602523e+00 1.362864e+00 9.170740e-01 1.451501e+00 1.060825e+00 -4.298898e-02 5.939630e-02 1.901903e-01 1.929498e-01 1.540987e-01 1.255285e-02 1.940417e-01 3.293925e-01 6.623867e-01 7.556729e-01 5.330232e-01 3.357761e-01 -8.000484e-04
<VARIANCE> 25
 1.034730e+01 4.951978e+00 9.811570e+00 9.882505e+00 1.026339e+01 1.598220e+01 1.306156e+01 1.037413e+01 1.066204e+01 1.095224e+01 1.319019e+01 1.018984e+01 9.473944e-02 1.834695e-01 2.942136e-01 3.442004e-01 6.358323e-01 7.864226e-01 8.890890e-01 8.387508e-01 9.225309e-01 9.600484e-01 8.312314e-01 7.433023e-01 4.769323e-05
<GCONST> 5.624550e+01
<MIXTURE> 62 3.278034e-03
<MEAN> 25
 -5.086203e+00 1.239331e+00 1.025052e+00 8.814809e+00 6.127567e+00 5.047637e+00 5.497141e+00 4.034016e+00 4.983991e+00 3.915717e+00 4.961733e+00 2.947264e+00 -1.003118e+00 -1.166468e+00 -9.532873e-01 -2.769403e-01 4.272049e-01 1.004478e+00 1.383768e+00 1.551730e+00 1.479386e+00 1.244019e+00 1.066576e+00 7.253457e-01 -1.268347e-03
<VARIANCE> 25
 9.905334e+00 9.959992e+00 1.311059e+01 1.674573e+01 1.742274e+01 1.752882e+01 1.970277e+01 1.910097e+01 1.885506e+01 1.872418e+01 2.158615e+01 1.481254e+01 4.015541e-01 4.318720e-01 5.538304e-01 7.789168e-01 1.034890e+00 1.192231e+00 1.253235e+00 1.278757e+00 1.330080e+00 1.364014e+00 1.399572e+00 1.371588e+00 1.633349e-05
<GCONST> 6.753086e+01
<MIXTURE> 63 4.351215e-03
<MEAN> 25
 -2.298188e+00 -1.319371e+00 -2.562075e+00 1.563321e+00 1.836865e+00 -2.616585e-01 1.638896e+00 9.065080e-01 1.112311e+00 -8.590793e-01 -1.010919e+00 1.255612e+00 -1.241093e-02 2.535296e-01 4.200006e-01 3.492012e-01 3.607446e-01 4.874710e-01 5.198215e-01 4.101568e-01 2.227649e-01 1.743385e-01 3.588573e-02 7.882442e-02 -3.338013e-03
<VARIANCE> 25
 9.623206e+00 1.181335e+01 1.396905e+01 1.121776e+01 1.316223e+01 2.180278e+01 2.056069e+01 1.831944e+01 1.962699e+01 1.647511e+01 1.677787e+01 1.441985e+01 3.122383e-01 4.412906e-01 4.596925e-01 6.106746e-01 7.536287e-01 1.303965e+00 1.110471e+00 1.389255e+00 1.177177e+00 1.281356e+00 1.562621e+00 1.194903e+00 2.187222e-04
<GCONST> 6.836426e+01
<MIXTURE> 64 4.351215e-03
<MEAN> 25
 -2.298188e+00 -1.319371e+00 -2.562075e+00 1.563321e+00 1.836865e+00 -2.616585e-01 1.638896e+00 9.065080e-01 1.112311e+00 -8.590793e-01 -1.010919e+00 1.255612e+00 -1.241093e-02 2.535296e-01 4.200006e-01 3.492012e-01 3.607446e-01 4.874710e-01 5.198215e-01 4.101568e-01 2.227649e-01 1.743385e-01 3.588573e-02 7.882442e-02 -3.338013e-03
<VARIANCE> 25
 9.623206e+00 1.181335e+01 1.396905e+01 1.121776e+01 1.316223e+01 2.180278e+01 2.056069e+01 1.831944e+01 1.962699e+01 1.647511e+01 1.677787e+01 1.441985e+01 3.122383e-01 4.412906e-01 4.596925e-01 6.106746e-01 7.536287e-01 1.303965e+00 1.110471e+00 1.389255e+00 1.177177e+00 1.281356e+00 1.562621e+00 1.194903e+00 2.187222e-04
<GCONST> 6.836426e+01
<MIXTURE> 65 1.721197e-02
<MEAN> 25
 7.200909e+00 1.878375e+00 1.917539e+00 4.306308e-01 -5.092661e+00 -3.947588e+00 -5.380830e+00 -6.033621e+00 -3.532445e+00 -1.988938e+00 -5.197683e+00 -1.795532e+00 2.001289e-01 9.600816e-02 -4.463999e-02 1.489042e-01 -1.454941e-01 1.891375e-01 -9.168596e-02 -8.570351e-02 4.565394e-02 -6.604190e-02 -1.267685e-02 -1.823870e-01 -4.376579e-03
<VARIANCE> 25
 1.293999e+01 1.750546e+01 2.323224e+01 3.278728e+01 3.431043e+01 5.442970e+01 5.319176e+01 5.548542e+01 4.981256e+01 5.265285e+01 5.124638e+01 4.551891e+01 5.041162e-01 8.675686e-01 1.495658e+00 1.663282e+00 1.939286e+00 2.175507e+00 2.153227e+00 2.871024e+00 2.529213e+00 2.326471e+00 2.369386e+00 2.011384e+00 3.809177e-04
<GCONST> 8.796085e+01
<MIXTURE> 66 1.191532e-02
<MEAN> 25
 6.681464e+00 -4.094101e+00 -5.623306e+00 -4.830983e+00 1.277131e+00 -5.092479e+00 -6.924336e+00 1.192974e+00 6.842906e-01 -2.051296e+00 -6.140671e+00 -3.475304e+00 -4.558761e-02 1.667297e+00 2.240258e+00 2.317888e+00 -1.250983e+00 -1.253458e+00 5.540075e-02 -5.469870e-01 -1.448116e-01 -1.945487e-01 -2.016835e-01 1.044793e+00 -6.380016e-02
<VARIANCE> 25
 8.929376e+00 2.234538e+01 2.706069e+01 3.306439e+01 3.851779e+01 5.342634e+01 5.600032e+01 4.541306e+01 5.410888e+01 6.677969e+01 3.698392e+01 3.644427e+01 1.283620e+00 2.445873e+00 2.352602e+00 2.470353e+00 4.197708e+00 4.308531e+00 4.369015e+00 4.845506e+00 4.249277e+00 4.994198e+00 3.900366e+00 3.262281e+00 1.469085e-03
<GCONST> 9.683577e+01
<MIXTURE> 67 1.559142e-02
<MEAN> 25
 8.985287e+00 2.035358e+00 -5.978645e+00 -8.274448e+00 9.030991e-01 3.083359e+00 -3.325157e+00 -2.242094e+00 -3.773538e+00 7.784528e-01 -5.463125e-02 -1.732906e+00 -1.074084e+00 1.831908e+00 1.062739e+00 3.073088e+00 1.392639e+00 -5.098529e-01 1.302777e+00 1.202852e-01 1.569588e-01 2.511849e-01 -2.766603e-01 6.252351e-01 -1.299897e-01
<VARIANCE> 25
 1.146637e+01 3.885876e+01 3.078857e+01 5.585217e+01 4.915255e+01 5.406857e+01 6.210068e+01 5.280657e+01 6.478609e+01 5.711824e+01 5.578257e+01 4.737901e+01 2.179871e+00 3.465774e+00 3.290438e+00 4.517755e+00 4.523065e+00 4.553558e+00 4.706537e+00 5.071004e+00 5.476623e+00 4.779428e+00 5.135007e+00 3.746381e+00 3.042767e-03
<GCONST> 1.029181e+02
<MIXTURE> 68 1.485092e-02
<MEAN> 25
 -2.017935e+00 -2.311225e+00 -4.104331e+00 1.253924e+00 5.260551e+00 -6.682975e-01 2.128495e+00 1.824658e+00 2.006266e+00 1.690659e+00 4.860989e-01 1.877675e+00 2.767993e+00 5.485578e-01 1.379701e-02 -2.584818e+00 -2.417004e+00 -1.590994e+00 -2.353749e+00 -1.792015e+00 -1.651202e+00 -1.481019e+00 -1.985540e+00 -1.059081e+00 1.032682e-01
<VARIANCE> 25
 2.599765e+01 3.203486e+01 5.875611e+01 5.260810e+01 4.671236e+01 5.511054e+01 4.529195e+01 4.227374e+01 4.043439e+01 4.350933e+01 3.738844e+01 2.575564e+01 1.864752e+00 3.745150e+00 5.937956e+00 5.868567e+00 4.698786e+00 5.611089e+00 5.772476e+00 4.974373e+00 4.978377e+00 5.261638e+00 5.043368e+00 3.421670e+00 6.139860e-03
<GCONST> 1.036061e+02
<MIXTURE> 69 1.204884e-02
<MEAN> 25
 4.664536e+00 -4.229529e+00 -3.561698e+00 -3.632153e+00 -3.509549e+00 -7.869882e+00 -1.123222e+00 2.206443e+00 -3.463546e-01 -4.732219e+00 -5.677135e+00 9.578481e-01 1.675297e+00 -2.233768e+00 -1.336647e+00 -2.240429e+00 -5.309017e-01 -3.483441e-01 -4.756241e-01 6.109201e-01 -6.439738e-01 -1.459575e+00 -2.203269e+00 -1.717225e-01 6.245774e-02
<VARIANCE> 25
 8.898731e+00 2.176307e+01 2.673472e+01 2.589841e+01 4.264124e+01 3.565475e+01 4.899331e+01 3.157150e+01 3.970626e+01 3.788577e+01 3.111004e+01 2.457456e+01 3.547646e+00 2.920452e+00 3.332898e+00 3.704767e+00 5.760005e+00 5.003442e+00 7.111767e+00 6.087591e+00 5.905126e+00 5.858228e+00 4.346116e+00 3.700776e+00 2.447243e-03
<GCONST> 9.866842e+01
<MIXTURE> 70 1.329190e-02
<MEAN> 25
 7.520920e+00 -2.035979e+00 -3.887957e+00 -3.609468e+00 -4.113739e-01 -6.664779e-01 -7.690046e+00 -4.027283e+00 5.705948e-01 2.892390e+00 -1.317262e-01 -4.909574e+00 1.935288e+00 -1.138207e+00 -8.203368e-01 -2.205546e+00 -1.518876e+00 1.177736e+00 -1.337609e+00 -8.831440e-02 3.369490e-01 -2.819833e-02 6.871739e-01 -1.454447e+00 5.866816e-02
<VARIANCE> 25
 9.938641e+00 2.256625e+01 2.833493e+01 4.697045e+01 3.549724e+01 4.450536e+01 4.987243e+01 4.408504e+01 4.706931e+01 3.278415e+01 4.498137e+01 2.729269e+01 3.501697e+00 3.211468e+00 4.741618e+00 4.958152e+00 5.216375e+00 6.445918e+00 6.793255e+00 7.555484e+00 6.174413e+00 5.387091e+00 5.867118e+00 4.305624e+00 2.537529e-03
<GCONST> 1.018565e+02
<MIXTURE> 71 1.406903e-02
<MEAN> 25
 6.352605e+00 5.165498e+00 4.259406e+00 3.077701e+00 -3.456540e+00 -3.401149e+00 -3.419772e+00 -6.614086e+00 -4.650671e+00 -2.509833e+00 -5.227323e+00 -3.229727e+00 -1.565377e+00 -6.886396e-01 -2.513539e-01 -1.770242e+00 1.129566e+00 -1.427206e-01 5.282314e-02 1.539028e+00 3.122333e-01 -1.822058e-01 6.845230e-01 1.793786e-01 4.076901e-02
<VARIANCE> 25
 1.907298e+01 2.571224e+01 2.396275e+01 4.501010e+01 4.050709e+01 4.060525e+01 4.244180e+01 4.158151e+01 3.891505e+01 4.387759e+01 3.643283e+01 3.443906e+01 1.762876e+00 3.043067e+00 5.272202e+00 4.870509e+00 4.682059e+00 4.735163e+00 4.856520e+00 5.376857e+00 4.299183e+00 4.077193e+00 3.615615e+00 3.289263e+00 1.419243e-03
<GCONST> 9.865294e+01
<MIXTURE> 72 8.134747e-03
<MEAN> 25
 3.784774e+00 -3.674774e+00 5.446408e+00 -2.466886e+00 -1.038829e+01 -9.600617e+00 -2.450259e+00 1.914933e+00 -4.935588e+00 -2.197169e+00 -1.886755e+00 6.158402e-01 9.315358e-01 -7.839459e-01 -2.571254e+00 4.625098e-01 2.134323e+00 -6.538341e-01 -1.313830e+00 1.524690e+00 1.809752e+00 -5.976908e-01 -1.287588e+00 3.999251e-01 -6.122730e-03
<VARIANCE> 25
 1.079706e+01 1.948708e+01 3.285550e+01 3.835910e+01 3.236530e+01 3.362528e+01 4.099554e+01 3.617966e+01 4.363349e+01 4.129572e+01 3.874762e+01 2.846928e+01 4.323213e-01 1.026615e+00 2.033337e+00 1.467727e+00 2.185736e+00 2.355848e+00 3.063106e+00 2.729680e+00 2.613911e+00 2.957278e+00 2.027356e+00 2.129983e+00 5.400008e-04
<GCONST> 8.725941e+01
<MIXTURE> 73 1.213625e-02
<MEAN> 25
 -5.638633e+00 -7.907653e-01 -1.303723e+00 4.914473e+00 4.238644e+00 2.341719e+00 5.516284e+00 3.454678e+00 4.368344e+00 3.434140e+00 4.269564e+00 3.028566e+00 8.027753e-01 -1.030631e+00 -9.457753e-01 -2.648102e+00 -1.261047e+00 -1.751833e+00 -9.020156e-01 -5.084984e-01 -9.201394e-01 -7.014332e-01 -1.104633e+00 -2.825410e-01 1.548650e-01
<VARIANCE> 25
 1.284538e+01 1.339969e+01 1.520130e+01 2.264086e+01 2.334010e+01 2.477768e+01 2.039810e+01 2.000120e+01 1.777244e+01 1.906924e+01 2.279074e+01 1.557794e+01 4.046484e+00 3.090654e+00 5.964854e+00 4.676483e+00 6.152479e+00 4.561396e+00 4.302613e+00 4.249667e+00 3.899439e+00 4.231403e+00 3.542058e+00 2.674080e+00 4.302891e-03
<GCONST> 9.270397e+01
<MIXTURE> 74 1.756491e-02
<MEAN> 25
 4.506918e+00 -1.588346e+00 5.267297e+00 -1.152214e+00 -8.758781e+00 -8.309164e+00 -2.708283e+00 7.573576e-01 -4.114810e+00 -2.839901e+00 -1.707619e+00 2.563678e-01 3.121064e-01 2.020350e+00 4.406314e-02 1.717781e+00 1.234156e+00 3.574190e-01 -3.276101e-03 -1.329200e+00 1.741660e-01 1.787309e-01 -2.351266e-01 -1.045647e-01 -7.857459e-02
<VARIANCE> 25
 1.175371e+01 2.201070e+01 3.759911e+01 3.864430e+01 3.717453e+01 3.977337e+01 5.159107e+01 4.663103e+01 4.806264e+01 4.469663e+01 4.115774e+01 3.440559e+01 2.098478e+00 2.057312e+00 3.921228e+00 2.594294e+00 3.925531e+00 3.915583e+00 5.062012e+00 4.292727e+00 4.169429e+00 4.037219e+00 3.661958e+00 3.200995e+00 1.763521e-03
<GCONST> 9.733430e+01
<MIXTURE> 75 9.711651e-03
<MEAN> 25
 2.653790e+00 -1.249278e+00 1.100730e+01 1.710969e+00 -1.182422e+01 -7.658667e+00 -4.595492e+00 -4.855468e-01 -4.495159e+00 -4.609507e+00 3.259237e+00 1.581166e-01 1.747783e+00 -1.765825e+00 1.999480e-01 -2.560296e-01 -2.399585e+00 -5.178701e-01 -1.470077e+00 9.568003e-01 -1.576426e-01 -3.539531e-01 1.076368e+00 -6.268660e-01 3.855906e-02
<VARIANCE> 25
 1.115197e+01 1.779658e+01 3.060757e+01 2.786075e+01 2.693506e+01 3.274444e+01 3.146205e+01 3.106091e+01 3.370156e+01 3.162043e+01 2.043069e+01 2.166166e+01 2.385817e+00 1.898920e+00 4.281228e+00 2.485347e+00 3.874650e+00 4.336902e+00 4.152071e+00 3.547400e+00 3.947833e+00 3.373320e+00 3.115618e+00 2.511887e+00 1.542169e-03
<GCONST> 9.227574e+01
<MIXTURE> 76 1.052359e-02
<MEAN> 25
 -4.194142e+00 -6.348200e-01 -1.629647e+00 1.964902e+00 2.373601e+00 8.338631e-01 1.917986e+00 1.367841e+00 2.300256e+00 6.695476e-01 1.433322e+00 1.934416e+00 -7.308403e-02 -4.169223e-01 -3.775691e-01 -6.058520e-01 -4.519923e-01 -7.104013e-01 -6.159643e-01 -5.376084e-01 -4.956939e-01 -3.651617e-01 -3.746499e-01 -3.091786e-01 1.696720e-02
<VARIANCE> 25
 2.861641e+01 2.004736e+01 2.136664e+01 2.155854e+01 2.535411e+01 2.928246e+01 2.314334e+01 2.171388e+01 1.843093e+01 2.197265e+01 1.998062e+01 1.662776e+01 9.858945e-01 8.619596e-01 1.304796e+00 1.002622e+00 1.206729e+00 1.626085e+00 1.216537e+00 1.437174e+00 1.618389e+00 1.403198e+00 1.333833e+00 1.412142e+00 8.127072e-04
<GCONST> 7.874776e+01
<MIXTURE> 77 1.244626e-02
<MEAN> 25
 -7.531159e-01 7.668892e+00 1.130165e+01 -1.043665e+01 -6.315851e+00 1.353755e+00 -8.690134e+00 -6.815113e+00 -2.592269e+00 -7.378736e-01 -4.148763e+00 -1.289941e+00 1.435899e-01 1.048869e-01 5.864797e-02 2.417589e-01 -7.763306e-02 -4.048120e-02 -7.585029e-02 -3.613599e-02 3.149795e-02 1.794767e-02 1.317042e-01 1.747747e-01 -1.091669e-02
<VARIANCE> 25
 9.877826e+00 2.244612e+01 3.189517e+01 4.444796e+01 3.179432e+01 3.250973e+01 3.482501e+01 3.024179e+01 3.478051e+01 3.255854e+01 3.626699e+01 3.220840e+01 3.114254e-01 6.986776e-01 6.203195e-01 9.700426e-01 1.141729e+00 1.084193e+00 1.149061e+00 1.069454e+00 9.842437e-01 9.815252e-01 9.869699e-01 8.945976e-01 4.982380e-04
<GCONST> 7.722365e+01
<MIXTURE> 78 9.702551e-03
<MEAN> 25
 -1.151424e+01 1.120935e+00 -1.616531e+00 2.223217e+00 4.393251e+00 -2.278404e+00 3.731664e+00 2.645957e+00 2.620235e+00 7.474480e-01 -4.888399e-01 3.019134e+00 2.381853e+00 -2.728223e-01 1.852462e-01 5.766911e-01 -2.647400e-02 2.145818e-02 -3.084843e-01 -9.121040e-02 2.145020e-01 1.456352e-01 -3.760957e-01 -4.583162e-01 -6.123836e-02
<VARIANCE> 25
 4.149757e+01 3.255823e+01 3.259558e+01 3.236314e+01 3.971640e+01 3.704939e+01 3.581581e+01 3.270582e+01 2.805100e+01 2.773501e+01 2.717344e+01 2.027410e+01 4.935462e+00 2.567534e+00 2.838094e+00 3.051945e+00 2.835185e+00 3.514661e+00 3.250919e+00 2.829460e+00 2.359189e+00 2.356427e+00 2.251618e+00 2.123100e+00 4.715275e-03
<GCONST> 9.458446e+01
<MIXTURE> 79 1.156824e-02
<MEAN> 25
 2.385869e+00 1.582070e+00 9.071285e+00 -6.500251e+00 -1.192648e+01 -1.798990e+00 -1.930351e+00 -6.353806e+00 -6.479703e+00 3.157202e-01 -3.479899e+00 -3.247749e+00 1.211280e+00 -5.148547e-01 -1.417630e+00 2.327670e+00 3.734105e-01 -1.468019e+00 5.189240e-01 8.840522e-01 -4.348423e-01 -5.259971e-01 3.840651e-01 2.817495e-01 -3.594003e-02
<VARIANCE> 25
 1.412771e+01 2.374970e+01 3.802396e+01 4.951091e+01 3.396016e+01 4.299758e+01 4.212772e+01 3.694880e+01 3.884006e+01 3.916896e+01 4.343129e+01 3.027054e+01 9.331131e-01 2.230062e+00 1.875112e+00 2.090693e+00 2.441485e+00 2.777962e+00 3.163836e+00 3.476288e+00 2.505920e+00 2.729522e+00 2.354097e+00 2.018332e+00 1.219072e-03
<GCONST> 9.163090e+01
<MIXTURE> 80 7.550998e-03
<MEAN> 25
 -1.460866e+01 3.982978e+00 6.888527e-01 2.865978e+00 2.449390e+00 1.410288e+00 6.397008e+00 2.496773e+00 2.719634e+00 2.373497e+00 4.852879e+00 1.186962e+00 4.286331e+00 -1.602020e-02 1.637934e+00 -1.135554e+00 -2.889475e+00 -2.777582e+00 -2.323244e+00 -2.021465e+00 -1.975032e+00 -1.685194e+00 -1.650844e+00 -6.027454e-01 -4.423228e-02
<VARIANCE> 25
 2.094969e+01 1.984664e+01 3.444448e+01 3.470766e+01 3.018093e+01 2.920889e+01 2.828683e+01 2.855507e+01 2.674643e+01 2.881129e+01 2.685423e+01 1.810697e+01 2.357266e+00 2.666195e+00 2.673126e+00 4.119907e+00 3.394136e+00 2.705081e+00 3.025253e+00 3.204086e+00 2.749122e+00 2.701698e+00 2.782157e+00 2.145745e+00 1.512166e-03
<GCONST> 9.139670e+01
<MIXTURE> 81 8.025434e-03
<MEAN> 25
 -1.121166e+00 3.968057e+00 1.002188e+01 -1.459595e+01 -8.969221e+00 -1.393643e+00 -6.744898e+00 -8.315396e+00 -4.075307e+00 -4.454600e-01 -7.471660e+00 -2.227309e+00 1.358541e-01 -5.763128e-01 7.371432e-04 -5.493166e-01 -4.484431e-01 3.501629e-01 3.119696e-01 1.374272e-01 -1.437555e-01 9.343372e-02 -4.698127e-01 -1.250549e-01 1.147196e-02
<VARIANCE> 25
 9.985903e+00 3.281102e+01 2.726044e+01 3.099157e+01 3.377211e+01 3.033810e+01 4.496672e+01 2.849825e+01 3.761613e+01 3.142625e+01 2.558806e+01 3.061427e+01 7.616849e-01 2.261202e+00 1.525499e+00 2.825341e+00 2.657260e+00 2.114532e+00 3.288022e+00 2.365426e+00 2.345214e+00 2.505097e+00 2.273813e+00 2.058393e+00 1.164413e-03
<GCONST> 8.864503e+01
<MIXTURE> 82 8.213053e-03
<MEAN> 25
 -9.963866e+00 -3.902225e+00 1.639891e+00 -2.971691e+00 3.112305e+00 6.702933e-01 1.992799e+00 9.376103e-01 2.975920e+00 1.728440e+00 1.742738e+00 3.085039e+00 -1.314125e+00 -1.249585e-01 2.894972e-01 -2.603760e+00 -1.105273e+00 -1.265192e+00 -1.013640e+00 -8.704501e-01 -3.166427e-01 -4.781900e-01 -3.167149e-01 -9.505816e-02 1.784042e-01
<VARIANCE> 25
 1.802517e+01 2.493827e+01 3.236279e+01 3.088202e+01 3.302695e+01 3.229121e+01 3.179263e+01 3.297678e+01 3.085392e+01 2.512256e+01 3.078202e+01 1.750189e+01 3.754123e+00 3.048661e+00 3.316290e+00 3.269391e+00 3.561909e+00 3.286405e+00 2.943139e+00 3.016030e+00 2.794886e+00 2.490591e+00 2.449137e+00 1.865816e+00 3.435982e-03
<GCONST> 9.308251e+01
<MIXTURE> 83 1.167529e-02
<MEAN> 25
 -2.004081e+01 5.504238e+00 -1.789702e+00 -4.051103e-01 7.829639e+00 -1.234488e+00 5.460100e+00 3.044532e+00 1.192393e+00 2.190908e+00 7.244872e-01 2.881716e+00 -2.631321e-02 -4.501706e-01 4.872012e-03 -3.655977e-01 -4.974648e-01 -1.258521e-01 -1.343577e-01 -9.942717e-02 -4.144356e-02 -3.920248e-02 -3.058213e-02 -3.465528e-02 4.403248e-03
<VARIANCE> 25
 8.819281e+00 1.645402e+01 2.851271e+01 2.248555e+01 2.127508e+01 2.407955e+01 2.202746e+01 2.336420e+01 2.042958e+01 2.221887e+01 2.319599e+01 1.448780e+01 1.060910e+00 9.362046e-01 1.240790e+00 1.065688e+00 1.359398e+00 1.291389e+00 1.283447e+00 1.388157e+00 1.349015e+00 1.310737e+00 1.220778e+00 1.071650e+00 8.923843e-04
<GCONST> 7.703519e+01
<MIXTURE> 84 1.066614e-02
<MEAN> 25
 1.172864e+00 9.014625e+00 7.239173e+00 7.974934e+00 2.825442e+00 -9.212007e-01 -1.523173e+00 -4.471692e+00 -4.114114e+00 -2.912429e+00 -2.420512e+00 -1.599949e+00 -1.783470e+00 -1.182778e+00 -1.203185e+00 1.286683e+00 2.251993e+00 1.503734e+00 1.452271e+00 1.289780e+00 1.165616e+00 4.027447e-01 4.162874e-01 4.238999e-01 -7.161830e-02
<VARIANCE> 25
 2.347920e+01 1.827281e+01 2.160159e+01 2.420002e+01 2.917171e+01 2.827899e+01 2.793958e+01 2.656980e+01 2.527839e+01 2.520891e+01 2.363512e+01 2.459066e+01 2.109422e+00 2.541801e+00 3.848938e+00 3.301940e+00 3.273435e+00 3.375285e+00 3.287488e+00 3.403586e+00 3.488518e+00 3.246778e+00 3.586077e+00 2.804055e+00 3.527322e-03
<GCONST> 9.254189e+01
<MIXTURE> 85 7.591393e-03
<MEAN> 25
 -3.110653e+00 7.891969e+00 5.724915e+00 1.285882e+00 -3.493966e+00 -5.325502e+00 -2.980610e+00 -6.121467e+00 -3.542350e+00 -3.184560e+00 -4.792893e-01 -1.899392e+00 3.943383e+00 3.247396e-01 1.755975e+00 -2.091472e+00 -3.414607e+00 -2.583222e+00 -2.886111e+00 -2.341603e+00 -2.249152e+00 -1.264133e+00 -2.302912e+00 -6.157774e-01 9.208956e-03
<VARIANCE> 25
 4.247325e+01 2.343460e+01 3.647575e+01 3.822354e+01 3.974725e+01 4.118962e+01 3.216767e+01 2.789548e+01 2.664425e+01 2.611850e+01 2.622667e+01 2.056890e+01 2.704673e+00 4.326263e+00 4.058756e+00 5.182824e+00 4.408376e+00 3.881051e+00 3.853408e+00 3.987108e+00 3.849441e+00 4.040434e+00 3.941422e+00 3.485152e+00 5.446084e-03
<GCONST> 9.835508e+01
<MIXTURE> 86 1.273941e-02
<MEAN> 25
 -4.446670e+00 -1.234785e+00 -7.704697e-01 5.674266e+00 4.550541e+00 4.398767e+00 5.032166e+00 4.343287e+00 4.752452e+00 3.953138e+00 4.853881e+00 2.150445e+00 -5.362242e-03 -1.046090e-02 -4.509940e-02 -9.198892e-02 -8.798997e-02 -1.815604e-01 -2.013475e-01 -3.235486e-01 -3.316330e-01 -2.604471e-01 -2.333880e-01 -1.726913e-01 -3.633410e-05
<VARIANCE> 25
 9.322946e+00 6.712249e+00 9.432627e+00 1.353563e+01 1.575771e+01 1.347308e+01 1.322582e+01 1.303291e+01 1.367693e+01 1.349032e+01 1.465650e+01 1.439131e+01 9.517226e-02 1.941595e-01 2.927249e-01 4.823202e-01 6.236536e-01 7.131637e-01 7.480068e-01 7.265435e-01 7.902427e-01 8.740655e-01 8.882024e-01 8.673396e-01 5.652084e-05
<GCONST> 5.822909e+01
<MIXTURE> 87 1.100681e-02
<MEAN> 25
 -3.299007e+00 4.541028e+00 3.502123e+00 7.007971e+00 5.557394e+00 8.921135e-01 1.640043e+00 -9.386213e-01 -5.855979e-01 -8.940974e-01 -7.808206e-01 3.735716e-02 -2.148756e+00 -2.781534e+00 -2.100841e+00 -2.222226e+00 -3.570015e-02 -1.853606e-01 6.096668e-01 1.296675e+00 1.404677e+00 1.030025e+00 9.460915e-01 1.004335e+00 1.045522e-01
<VARIANCE> 25
 3.805222e+01 2.949886e+01 2.801812e+01 3.379162e+01 2.876186e+01 3.189902e+01 2.810789e+01 2.729451e+01 2.590415e+01 2.467038e+01 2.480937e+01 2.317047e+01 3.860095e+00 2.726968e+00 3.912749e+00 3.654419e+00 4.787794e+00 4.312420e+00 4.155598e+00 3.900505e+00 3.534148e+00 3.381996e+00 3.378332e+00 2.729394e+00 4.960352e-03
<GCONST> 9.632509e+01
<MIXTURE> 88 1.256585e-02
<MEAN> 25
 -3.335937e+00 -5.622817e-01 -1.008188e+00 3.850544e+00 3.591390e+00 2.686631e+00 3.298864e+00 2.933892e+00 3.262064e+00 2.182225e+00 2.416689e+00 2.324631e+00 6.095256e-02 4.917738e-02 2.190979e-01 3.197896e-01 1.929259e-01 1.741981e-01 -1.817823e-01 -2.742134e-01 -2.890968e-01 -2.168514e-01 -3.263002e-02 8.235047e-02 -2.324278e-03
<VARIANCE> 25
 9.468078e+00 8.919994e+00 1.413100e+01 1.759548e+01 1.991511e+01 1.969470e+01 2.008096e+01 1.657456e+01 1.567167e+01 1.880111e+01 1.853338e+01 1.376015e+01 1.215200e+00 1.471938e+00 1.730556e+00 1.850062e+00 2.113629e+00 2.545531e+00 2.244584e+00 2.262681e+00 2.582185e+00 2.277356e+00 2.049645e+00 1.851285e+00 1.177443e-03
<GCONST> 8.031950e+01
<MIXTURE> 89 9.333527e-03
<MEAN> 25
 6.070046e+00 -6.818730e+00 -3.551767e+00 -3.159294e+00 -1.611037e+00 -5.582701e+00 -6.101933e+00 4.093413e+00 3.460842e+00 -2.796151e+00 -6.023973e+00 -3.285968e+00 -5.699144e-01 1.555026e-01 1.984908e+00 9.008480e-01 -1.864998e+00 -1.647567e+00 8.805251e-01 1.261417e+00 -7.908030e-01 -1.315835e+00 4.066339e-01 1.534180e+00 -4.884887e-03
<VARIANCE> 25
 9.000489e+00 2.672461e+01 3.102858e+01 3.017402e+01 3.602228e+01 4.160029e+01 5.970005e+01 4.205988e+01 3.909682e+01 4.237646e+01 3.577317e+01 3.233546e+01 3.539389e-01 8.405194e-01 1.481689e+00 1.314731e+00 1.921262e+00 2.123820e+00 2.577256e+00 2.043507e+00 2.247481e+00 2.126444e+00 2.329441e+00 1.471100e+00 3.658386e-04
<GCONST> 8.528296e+01
<MIXTURE> 90 7.114505e-03
<MEAN> 25
 2.430069e+00 -9.662388e+00 -4.724641e+00 -3.935591e+00 -3.325046e+00 -1.781603e+00 3.317647e+00 1.168113e+00 -7.457808e+00 -1.010211e+01 -3.425493e+00 -7.377795e-01 -1.618845e-01 9.038579e-01 1.159324e+00 -8.528944e-01 -1.602828e+00 -1.988684e-01 6.439828e-01 -2.001723e-01 -1.538711e-01 7.341576e-01 1.760672e-01 -5.499774e-01 -1.121662e-02
<VARIANCE> 25
 8.442834e+00 1.793639e+01 1.967270e+01 2.784410e+01 3.672038e+01 3.191055e+01 3.831869e+01 3.602219e+01 3.527532e+01 2.846724e+01 2.674628e+01 2.584620e+01 2.224269e-01 6.086912e-01 7.853906e-01 1.033929e+00 1.465491e+00 1.599954e+00 1.765218e+00 1.647648e+00 1.814578e+00 1.669683e+00 1.492983e+00 1.298134e+00 2.143788e-04
<GCONST> 7.805418e+01
<MIXTURE> 91 7.852945e-03
<MEAN> 25
 6.362154e+00 -7.591598e+00 -8.527449e+00 -5.161471e+00 3.921162e+00 -7.040643e-02 -2.179704e+00 6.998358e-01 7.544713e-01 -2.926923e+00 -4.901599e+00 -5.148612e+00 2.602190e-01 9.952000e-01 1.894235e-01 4.505053e-01 -5.692866e-02 -5.627275e-01 -3.830692e-01 -9.386244e-02 -1.033693e-01 4.474964e-01 -1.275629e-01 1.975942e-01 -3.480114e-02
<VARIANCE> 25
 1.013323e+01 2.281483e+01 2.008985e+01 4.031687e+01 3.517641e+01 5.536615e+01 5.404678e+01 3.945143e+01 5.160805e+01 6.375475e+01 3.811546e+01 4.132320e+01 4.434022e-01 8.879012e-01 1.120120e+00 1.377467e+00 2.206715e+00 2.365687e+00 2.360474e+00 2.380016e+00 2.230063e+00 2.220581e+00 2.015622e+00 1.831503e+00 5.855046e-04
<GCONST> 8.713004e+01
<MIXTURE> 92 7.852945e-03
<MEAN> 25
 6.362154e+00 -7.591598e+00 -8.527449e+00 -5.161471e+00 3.921162e+00 -7.040643e-02 -2.179704e+00 6.998358e-01 7.544713e-01 -2.926923e+00 -4.901599e+00 -5.148612e+00 2.602190e-01 9.952000e-01 1.894235e-01 4.505053e-01 -5.692866e-02 -5.627275e-01 -3.830692e-01 -9.386244e-02 -1.033693e-01 4.474964e-01 -1.275629e-01 1.975942e-01 -3.480114e-02
<VARIANCE> 25
 1.013323e+01 2.281483e+01 2.008985e+01 4.031687e+01 3.517641e+01 5.536615e+01 5.404678e+01 3.945143e+01 5.160805e+01 6.375475e+01 3.811546e+01 4.132320e+01 4.434022e-01 8.879012e-01 1.120120e+00 1.377467e+00 2.206715e+00 2.365687e+00 2.360474e+00 2.380016e+00 2.230063e+00 2.220581e+00 2.015622e+00 1.831503e+00 5.855046e-04
<GCONST> 8.713004e+01
<MIXTURE> 93 6.122769e-03
<MEAN> 25
 -6.742199e+00 -9.299298e-01 -2.389341e+00 5.689621e+00 5.878196e+00 3.886122e+00 6.092304e+00 3.530753e+00 4.008679e+00 2.485410e+00 1.833653e+00 3.665627e+00 -5.829599e-02 -1.527390e-01 -2.561202e-01 -3.267669e-01 -3.407868e-01 -2.962228e-01 -2.098482e-01 -1.853355e-01 -1.816422e-01 -1.409512e-01 -1.043921e-01 -4.434848e-02 -2.851196e-05
<VARIANCE> 25
 9.407185e+00 6.179153e+00 8.067352e+00 1.169929e+01 1.136980e+01 1.593178e+01 1.505943e+01 1.643371e+01 1.504694e+01 1.432329e+01 1.646287e+01 1.343589e+01 8.301196e-02 1.526099e-01 2.601731e-01 3.755840e-01 4.938868e-01 6.457876e-01 7.832995e-01 8.883775e-01 9.257528e-01 8.666303e-01 8.824683e-01 9.102172e-01 1.024880e-06
<GCONST> 5.360968e+01
<MIXTURE> 94 6.122769e-03
<MEAN> 25
 -6.742199e+00 -9.299298e-01 -2.389341e+00 5.689621e+00 5.878196e+00 3.886122e+00 6.092304e+00 3.530753e+00 4.008679e+00 2.485410e+00 1.833653e+00 3.665627e+00 -5.829599e-02 -1.527390e-01 -2.561202e-01 -3.267669e-01 -3.407868e-01 -2.962228e-01 -2.098482e-01 -1.853355e-01 -1.816422e-01 -1.409512e-01 -1.043921e-01 -4.434848e-02 -2.851196e-05
<VARIANCE> 25
 9.407185e+00 6.179153e+00 8.067352e+00 1.169929e+01 1.136980e+01 1.593178e+01 1.505943e+01 1.643371e+01 1.504694e+01 1.432329e+01 1.646287e+01 1.343589e+01 8.301196e-02 1.526099e-01 2.601731e-01 3.755840e-01 4.938868e-01 6.457876e-01 7.832995e-01 8.883775e-01 9.257528e-01 8.666303e-01 8.824683e-01 9.102172e-01 1.024880e-06
<GCONST> 5.360968e+01
<MIXTURE> 95 5.258835e-03
<MEAN> 25
 -3.198474e+00 -8.406360e-01 -1.194710e+00 3.312747e+00 2.749779e+00 2.376435e+00 3.276912e+00 1.042132e+00 1.991903e+00 1.339758e+00 5.694779e-01 1.427433e+00 2.652285e-01 1.283452e-01 9.320515e-02 -1.717396e-02 -3.718861e-01 -7.874008e-01 -1.039436e+00 -1.032898e+00 -1.339877e+00 -9.945754e-01 -5.867023e-01 -2.541485e-01 -1.004163e-03
<VARIANCE> 25
 1.545687e+01 5.938439e+00 1.181598e+01 1.184410e+01 1.395025e+01 1.487846e+01 1.559297e+01 1.401893e+01 1.176570e+01 1.204549e+01 1.774132e+01 1.399460e+01 2.880912e-01 3.642518e-01 4.768309e-01 5.747179e-01 5.656979e-01 8.765589e-01 7.442388e-01 7.966154e-01 1.123302e+00 1.292295e+00 1.094709e+00 1.091393e+00 4.545497e-05
<GCONST> 6.237756e+01
<MIXTURE> 96 7.034694e-03
<MEAN> 25
 -4.538538e+00 -2.490518e-01 -2.177361e+00 4.577869e+00 3.490701e+00 1.203025e+00 3.434870e+00 1.436291e+00 2.003514e+00 1.126166e+00 1.259801e+00 2.403559e+00 -7.136966e-03 9.082572e-02 2.375384e-01 4.074573e-01 4.996441e-01 4.673301e-01 2.282950e-01 -1.550178e-01 -4.611036e-01 -6.137347e-01 -5.865338e-01 -4.289082e-01 -4.577376e-06
<VARIANCE> 25
 1.333194e+01 1.029221e+01 1.139470e+01 1.447753e+01 1.420861e+01 2.052575e+01 1.710834e+01 1.823600e+01 1.725178e+01 1.615430e+01 1.895774e+01 1.495084e+01 1.223725e-01 2.400365e-01 2.947346e-01 3.720568e-01 4.819977e-01 7.189677e-01 9.341583e-01 9.379823e-01 9.870545e-01 9.683251e-01 8.003981e-01 8.854613e-01 1.093950e-06
<GCONST> 5.762465e+01
<MIXTURE> 97 7.034694e-03
<MEAN> 25
 -4.538538e+00 -2.490518e-01 -2.177361e+00 4.577869e+00 3.490701e+00 1.203025e+00 3.434870e+00 1.436291e+00 2.003514e+00 1.126166e+00 1.259801e+00 2.403559e+00 -7.136966e-03 9.082572e-02 2.375384e-01 4.074573e-01 4.996441e-01 4.673301e-01 2.282950e-01 -1.550178e-01 -4.611036e-01 -6.137347e-01 -5.865338e-01 -4.289082e-01 -4.577376e-06
<VARIANCE> 25
 1.333194e+01 1.029221e+01 1.139470e+01 1.447753e+01 1.420861e+01 2.052575e+01 1.710834e+01 1.823600e+01 1.725178e+01 1.615430e+01 1.895774e+01 1.495084e+01 1.223725e-01 2.400365e-01 2.947346e-01 3.720568e-01 4.819977e-01 7.189677e-01 9.341583e-01 9.379823e-01 9.870545e-01 9.683251e-01 8.003981e-01 8.854613e-01 1.093950e-06
<GCONST> 5.762465e+01
<MIXTURE> 98 9.917808e-03
<MEAN> 25
 -1.453719e+00 1.098557e+00 -9.765520e-02 4.269831e+00 3.385599e+00 2.498598e+00 3.021217e+00 1.789862e+00 1.522014e+00 7.327240e-01 8.456487e-01 1.150811e+00 -1.726598e+00 -1.395787e+00 -1.000217e+00 1.483841e-01 6.481121e-01 6.876600e-01 1.134305e+00 1.403283e+00 1.713780e+00 1.101730e+00 1.325901e+00 9.721816e-01 -3.215412e-02
<VARIANCE> 25
 1.355180e+01 1.930450e+01 3.005191e+01 3.238987e+01 4.211811e+01 3.529341e+01 3.118507e+01 2.773466e+01 2.621172e+01 2.946312e+01 2.555589e+01 2.331211e+01 1.409532e+00 1.579496e+00 2.243854e+00 2.320346e+00 2.736940e+00 3.210182e+00 3.022280e+00 2.726913e+00 2.586917e+00 2.903714e+00 2.654487e+00 2.043294e+00 2.386608e-03
<GCONST> 8.990257e+01
<MIXTURE> 99 6.696178e-03
<MEAN> 25
 -6.096833e+00 9.441871e+00 6.485299e+00 3.206865e+00 8.105479e-01 -5.004722e+00 -1.643545e+00 -3.805848e+00 -3.197112e+00 -3.741479e+00 -1.781456e+00 2.370081e-01 5.181997e-01 -6.342003e-01 2.934109e-01 -3.738204e-01 -1.016593e+00 -4.928892e-01 -3.073368e-01 -2.296545e-01 -9.608779e-02 -1.698289e-02 2.376558e-01 1.206800e-01 9.977611e-03
<VARIANCE> 25
 3.424578e+01 2.655005e+01 4.441763e+01 3.032031e+01 3.398605e+01 3.477235e+01 2.688603e+01 2.925170e+01 2.624379e+01 2.630680e+01 2.126820e+01 2.821076e+01 2.100995e+00 1.833622e+00 1.384488e+00 1.645657e+00 2.651851e+00 2.154635e+00 1.552386e+00 1.600728e+00 1.621652e+00 1.516645e+00 1.322616e+00 1.288161e+00 1.488360e-03
<GCONST> 8.638949e+01
<MIXTURE> 100 4.498084e-03
<MEAN> 25
 -1.598830e+00 6.344087e+00 1.027618e+01 -7.462513e+00 -1.078161e+01 -5.075128e+00 -4.942024e+00 -9.968160e+00 -4.717797e+00 -8.551129e-01 -2.733041e+00 -2.707946e+00 2.917634e+00 -1.260442e+00 1.299548e+00 -2.185736e+00 -3.419297e+00 -7.840346e-01 -1.218860e+00 -8.199095e-01 -1.475488e+00 3.466096e-01 -1.655598e+00 -2.861638e-01 2.016252e-03
<VARIANCE> 25
 1.362569e+01 2.106416e+01 2.246790e+01 2.642580e+01 2.301894e+01 2.372007e+01 2.911119e+01 2.171063e+01 2.748233e+01 2.265074e+01 2.241099e+01 2.134073e+01 1.799791e+00 3.953451e+00 2.919878e+00 4.286458e+00 4.184546e+00 4.536945e+00 4.015281e+00 4.340377e+00 4.167561e+00 3.895830e+00 3.910063e+00 3.224845e+00 1.674711e-03
<GCONST> 9.256890e+01
<MIXTURE> 101 6.007792e-03
<MEAN> 25
 8.075670e+00 -3.478035e+00 -6.293236e+00 -6.855282e+00 8.391138e-01 -1.242328e+00 -1.056718e+01 -2.054204e+00 1.622649e+00 2.702919e+00 -2.389582e+00 -5.137837e+00 6.729512e-01 6.482996e-01 -1.456861e+00 -1.608669e+00 1.029772e+00 2.314844e+00 1.966593e-01 -1.460307e+00 -1.065408e+00 1.033353e+00 1.370943e+00 -4.131480e-01 -4.765451e-03
<VARIANCE> 25
 9.420277e+00 1.672439e+01 2.992661e+01 4.275221e+01 3.616842e+01 3.589522e+01 3.712419e+01 3.616586e+01 3.777245e+01 4.396073e+01 5.168068e+01 2.421630e+01 2.932319e-01 6.707910e-01 1.170489e+00 1.549196e+00 1.688196e+00 2.098010e+00 2.081858e+00 1.988737e+00 2.344138e+00 2.216434e+00 1.785220e+00 1.935158e+00 3.450062e-04
<GCONST> 8.364906e+01
<MIXTURE> 102 6.007792e-03
<MEAN> 25
 8.075670e+00 -3.478035e+00 -6.293236e+00 -6.855282e+00 8.391138e-01 -1.242328e+00 -1.056718e+01 -2.054204e+00 1.622649e+00 2.702919e+00 -2.389582e+00 -5.137837e+00 6.729512e-01 6.482996e-01 -1.456861e+00 -1.608669e+00 1.029772e+00 2.314844e+00 1.966593e-01 -1.460307e+00 -1.065408e+00 1.033353e+00 1.370943e+00 -4.131480e-01 -4.765451e-03
<VARIANCE> 25
 9.420277e+00 1.672439e+01 2.992661e+01 4.275221e+01 3.616842e+01 3.589522e+01 3.712419e+01 3.616586e+01 3.777245e+01 4.396073e+01 5.168068e+01 2.421630e+01 2.932319e-01 6.707910e-01 1.170489e+00 1.549196e+00 1.688196e+00 2.098010e+00 2.081858e+00 1.988737e+00 2.344138e+00 2.216434e+00 1.785220e+00 1.935158e+00 3.450062e-04
<GCONST> 8.364906e+01
<MIXTURE> 103 5.694618e-03
<MEAN> 25
 3.336647e+00 -9.393310e+00 -6.063635e+00 -3.094565e+00 -1.356009e+00 -1.935881e+00 2.361001e+00 2.473151e+00 -4.561451e+00 -9.168392e+00 -5.009614e+00 3.568396e-01 -1.542207e-01 -1.479188e+00 -9.726974e-01 3.720568e-01 1.198570e+00 1.012291e+00 1.465165e-01 -2.781699e-01 -7.853200e-01 -9.468181e-01 -4.500191e-02 1.206650e-01 2.669766e-02
<VARIANCE> 25
 1.036288e+01 2.073949e+01 2.307073e+01 3.142121e+01 4.760230e+01 3.502562e+01 4.675710e+01 3.647861e+01 4.189041e+01 2.969706e+01 3.000648e+01 2.616217e+01 6.406958e-01 1.248998e+00 1.532679e+00 1.922451e+00 2.932899e+00 2.392997e+00 2.896242e+00 2.592057e+00 2.540454e+00 2.501882e+00 2.092952e+00 2.006389e+00 8.041968e-04
<GCONST> 8.753652e+01
<MIXTURE> 104 5.694618e-03
<MEAN> 25
 3.336647e+00 -9.393310e+00 -6.063635e+00 -3.094565e+00 -1.356009e+00 -1.935881e+00 2.361001e+00 2.473151e+00 -4.561451e+00 -9.168392e+00 -5.009614e+00 3.568396e-01 -1.542207e-01 -1.479188e+00 -9.726974e-01 3.720568e-01 1.198570e+00 1.012291e+00 1.465165e-01 -2.781699e-01 -7.853200e-01 -9.468181e-01 -4.500191e-02 1.206650e-01 2.669766e-02
<VARIANCE> 25
 1.036288e+01 2.073949e+01 2.307073e+01 3.142121e+01 4.760230e+01 3.502562e+01 4.675710e+01 3.647861e+01 4.189041e+01 2.969706e+01 3.000648e+01 2.616217e+01 6.406958e-01 1.248998e+00 1.532679e+00 1.922451e+00 2.932899e+00 2.392997e+00 2.896242e+00 2.592057e+00 2.540454e+00 2.501882e+00 2.092952e+00 2.006389e+00 8.041968e-04
<GCONST> 8.753652e+01
<MIXTURE> 105 4.710235e-03
<MEAN> 25
 2.249482e+00 -1.466743e+00 8.631560e+00 -2.519293e+00 -1.103600e+01 -4.788931e+00 -4.088461e+00 -8.524506e-01 -3.636681e+00 -3.177352e+00 1.375170e+00 -1.079059e+00 1.519081e-02 3.017808e-02 2.027777e-02 -5.782380e-02 -2.114293e-03 5.596856e-02 -7.776986e-03 3.914483e-02 -7.276509e-02 1.536225e-02 2.007491e-02 -2.123942e-02 -2.337732e-03
<VARIANCE> 25
 1.305026e+01 2.708362e+01 4.414118e+01 4.285234e+01 4.035698e+01 5.179517e+01 3.902516e+01 4.123003e+01 3.827293e+01 4.049526e+01 3.998535e+01 2.923480e+01 8.970492e-02 1.835785e-01 3.693697e-01 2.817416e-01 3.695373e-01 4.319584e-01 4.666800e-01 5.119132e-01 5.164590e-01 4.516570e-01 4.196722e-01 4.125399e-01 9.220164e-05
<GCONST> 6.666153e+01
<MIXTURE> 106 4.710235e-03
<MEAN> 25
 2.249482e+00 -1.466743e+00 8.631560e+00 -2.519293e+00 -1.103600e+01 -4.788931e+00 -4.088461e+00 -8.524506e-01 -3.636681e+00 -3.177352e+00 1.375170e+00 -1.079059e+00 1.519081e-02 3.017808e-02 2.027777e-02 -5.782380e-02 -2.114293e-03 5.596856e-02 -7.776986e-03 3.914483e-02 -7.276509e-02 1.536225e-02 2.007491e-02 -2.123942e-02 -2.337732e-03
<VARIANCE> 25
 1.305026e+01 2.708362e+01 4.414118e+01 4.285234e+01 4.035698e+01 5.179517e+01 3.902516e+01 4.123003e+01 3.827293e+01 4.049526e+01 3.998535e+01 2.923480e+01 8.970492e-02 1.835785e-01 3.693697e-01 2.817416e-01 3.695373e-01 4.319584e-01 4.666800e-01 5.119132e-01 5.164590e-01 4.516570e-01 4.196722e-01 4.125399e-01 9.220164e-05
<GCONST> 6.666153e+01
<MIXTURE> 107 5.452374e-03
<MEAN> 25
 8.615892e+00 -2.303288e+00 -8.016808e+00 -9.544269e+00 1.949153e+00 2.971956e+00 -8.610444e+00 -4.547343e+00 -8.946524e-01 3.365788e+00 8.434045e-01 -5.061879e+00 -6.062056e-01 -7.647538e-01 8.307513e-01 1.769357e+00 2.341219e-01 -2.009618e+00 -9.159459e-01 8.489922e-01 1.759469e+00 4.527777e-02 -1.657523e+00 -8.248628e-01 -1.865444e-03
<VARIANCE> 25
 9.336507e+00 2.038222e+01 2.833566e+01 4.269461e+01 3.565982e+01 3.834082e+01 5.113375e+01 3.610894e+01 4.560064e+01 4.165294e+01 5.116108e+01 3.027294e+01 3.571531e-01 9.668410e-01 1.460776e+00 2.405871e+00 2.291847e+00 2.813347e+00 2.609579e+00 2.530167e+00 2.299885e+00 3.018180e+00 1.936081e+00 2.200733e+00 7.006411e-04
<GCONST> 8.799802e+01
<MIXTURE> 108 5.452374e-03
<MEAN> 25
 8.615892e+00 -2.303288e+00 -8.016808e+00 -9.544269e+00 1.949153e+00 2.971956e+00 -8.610444e+00 -4.547343e+00 -8.946524e-01 3.365788e+00 8.434045e-01 -5.061879e+00 -6.062056e-01 -7.647538e-01 8.307513e-01 1.769357e+00 2.341219e-01 -2.009618e+00 -9.159459e-01 8.489922e-01 1.759469e+00 4.527777e-02 -1.657523e+00 -8.248628e-01 -1.865444e-03
<VARIANCE> 25
 9.336507e+00 2.038222e+01 2.833566e+01 4.269461e+01 3.565982e+01 3.834082e+01 5.113375e+01 3.610894e+01 4.560064e+01 4.165294e+01 5.116108e+01 3.027294e+01 3.571531e-01 9.668410e-01 1.460776e+00 2.405871e+00 2.291847e+00 2.813347e+00 2.609579e+00 2.530167e+00 2.299885e+00 3.018180e+00 1.936081e+00 2.200733e+00 7.006411e-04
<GCONST> 8.799802e+01
<MIXTURE> 109 6.661064e-03
<MEAN> 25
 4.022254e+00 -9.731685e+00 -7.645087e+00 -1.167533e+00 2.367066e+00 -1.968637e-01 5.695323e-02 1.201910e+00 -2.562315e+00 -7.889533e+00 -5.008971e+00 1.960681e-02 -5.863319e-02 -1.642081e-01 -5.632168e-02 2.314008e-01 2.046058e-01 1.141743e-01 -1.547881e-01 -8.550131e-02 -4.321556e-02 -1.755149e-01 1.762764e-01 1.354333e-02 -3.925929e-03
<VARIANCE> 25
 8.307291e+00 2.156216e+01 2.148342e+01 2.903609e+01 3.838791e+01 3.479176e+01 4.386610e+01 3.329867e+01 4.167786e+01 3.399198e+01 2.806584e+01 2.553100e+01 2.085875e-01 4.155317e-01 5.465400e-01 6.084555e-01 1.148145e+00 9.582449e-01 1.203401e+00 1.023935e+00 1.092203e+00 9.358519e-01 8.599160e-01 8.712531e-01 1.724718e-04
<GCONST> 7.371075e+01
<MIXTURE> 110 6.661064e-03
<MEAN> 25
 4.022254e+00 -9.731685e+00 -7.645087e+00 -1.167533e+00 2.367066e+00 -1.968637e-01 5.695323e-02 1.201910e+00 -2.562315e+00 -7.889533e+00 -5.008971e+00 1.960681e-02 -5.863319e-02 -1.642081e-01 -5.632168e-02 2.314008e-01 2.046058e-01 1.141743e-01 -1.547881e-01 -8.550131e-02 -4.321556e-02 -1.755149e-01 1.762764e-01 1.354333e-02 -3.925929e-03
<VARIANCE> 25
 8.307291e+00 2.156216e+01 2.148342e+01 2.903609e+01 3.838791e+01 3.479176e+01 4.386610e+01 3.329867e+01 4.167786e+01 3.399198e+01 2.806584e+01 2.553100e+01 2.085875e-01 4.155317e-01 5.465400e-01 6.084555e-01 1.148145e+00 9.582449e-01 1.203401e+00 1.023935e+00 1.092203e+00 9.358519e-01 8.599160e-01 8.712531e-01 1.724718e-04
<GCONST> 7.371075e+01
<MIXTURE> 111 4.337247e-03
<MEAN> 25
 -1.803167e+00 -2.519009e-01 -8.600323e-01 5.830284e-01 9.379991e-02 -3.457832e-01 -9.996000e-02 -5.151748e-01 -5.770248e-01 -5.137248e-02 -1.925862e-01 5.368259e-01 -2.380210e-02 -1.140581e-01 -3.577185e-02 -6.380738e-02 -7.681394e-02 6.497955e-03 -3.891098e-02 -1.178165e-01 -2.129681e-01 -3.323125e-01 -3.212637e-01 -1.802237e-01 -1.255891e-03
<VARIANCE> 25
 1.051820e+01 5.919865e+00 6.903996e+00 5.514949e+00 8.378256e+00 1.887500e+01 1.154416e+01 1.012278e+01 9.979412e+00 9.648263e+00 9.342402e+00 7.317512e+00 9.686267e-02 1.602560e-01 2.708667e-01 3.712822e-01 5.247840e-01 8.231499e-01 7.582221e-01 9.195625e-01 8.308187e-01 7.421225e-01 9.272522e-01 7.546940e-01 3.906620e-05
<GCONST> 5.368129e+01
<MIXTURE> 112 4.337247e-03
<MEAN> 25
 -1.803167e+00 -2.519009e-01 -8.600323e-01 5.830284e-01 9.379991e-02 -3.457832e-01 -9.996000e-02 -5.151748e-01 -5.770248e-01 -5.137248e-02 -1.925862e-01 5.368259e-01 -2.380210e-02 -1.140581e-01 -3.577185e-02 -6.380738e-02 -7.681394e-02 6.497955e-03 -3.891098e-02 -1.178165e-01 -2.129681e-01 -3.323125e-01 -3.212637e-01 -1.802237e-01 -1.255891e-03
<VARIANCE> 25
 1.051820e+01 5.919865e+00 6.903996e+00 5.514949e+00 8.378256e+00 1.887500e+01 1.154416e+01 1.012278e+01 9.979412e+00 9.648263e+00 9.342402e+00 7.317512e+00 9.686267e-02 1.602560e-01 2.708667e-01 3.712822e-01 5.247840e-01 8.231499e-01 7.582221e-01 9.195625e-01 8.308187e-01 7.421225e-01 9.272522e-01 7.546940e-01 3.906620e-05
<GCONST> 5.368129e+01
<MIXTURE> 113 5.938666e-03
<MEAN> 25
 9.958031e+00 1.746059e+00 -8.762261e+00 -1.699564e+01 -1.039665e+00 5.650600e+00 -5.263519e+00 -1.471058e+00 -5.687553e+00 -5.004744e-01 2.982373e-01 -1.983902e-01 5.099326e-03 1.486811e-02 -5.907366e-02 -1.127626e-01 1.073428e-01 1.501459e-01 6.075668e-02 3.625171e-02 -5.908265e-02 -5.061429e-02 1.796818e-01 3.548564e-02 -1.412759e-03
<VARIANCE> 25
 8.963234e+00 1.635730e+01 2.967263e+01 3.485662e+01 5.256372e+01 3.379935e+01 3.966686e+01 3.902219e+01 3.726862e+01 4.628150e+01 3.618187e+01 2.835501e+01 1.220947e-01 3.202261e-01 3.161917e-01 6.302455e-01 6.158423e-01 6.536824e-01 7.746833e-01 8.438978e-01 9.580364e-01 9.052641e-01 7.280919e-01 7.179067e-01 1.247222e-04
<GCONST> 7.111935e+01
<MIXTURE> 114 5.938666e-03
<MEAN> 25
 9.958031e+00 1.746059e+00 -8.762261e+00 -1.699564e+01 -1.039665e+00 5.650600e+00 -5.263519e+00 -1.471058e+00 -5.687553e+00 -5.004744e-01 2.982373e-01 -1.983902e-01 5.099326e-03 1.486811e-02 -5.907366e-02 -1.127626e-01 1.073428e-01 1.501459e-01 6.075668e-02 3.625171e-02 -5.908265e-02 -5.061429e-02 1.796818e-01 3.548564e-02 -1.412759e-03
<VARIANCE> 25
 8.963234e+00 1.635730e+01 2.967263e+01 3.485662e+01 5.256372e+01 3.379935e+01 3.966686e+01 3.902219e+01 3.726862e+01 4.628150e+01 3.618187e+01 2.835501e+01 1.220947e-01 3.202261e-01 3.161917e-01 6.302455e-01 6.158423e-01 6.536824e-01 7.746833e-01 8.438978e-01 9.580364e-01 9.052641e-01 7.280919e-01 7.179067e-01 1.247222e-04
<GCONST> 7.111935e+01
<MIXTURE> 115 2.935202e-03
<MEAN> 25
 -3.407241e+00 -5.568826e-01 -2.499728e+00 3.265766e+00 2.276353e+00 -1.667034e-01 2.271033e+00 4.242885e-01 1.191318e+00 1.143320e-01 2.755740e-01 2.330236e+00 4.775823e-02 -9.318341e-02 -2.599481e-01 -4.083234e-01 -6.606884e-01 -6.167770e-01 -5.453179e-01 -5.227370e-01 -4.511753e-01 -4.149367e-01 -3.370315e-01 -2.481002e-01 -9.175974e-05
<VARIANCE> 25
 1.211309e+01 9.965009e+00 1.426430e+01 1.194743e+01 1.213644e+01 1.689673e+01 1.655481e+01 1.818904e+01 1.586930e+01 1.552933e+01 1.709160e+01 1.447156e+01 1.869612e-01 3.773972e-01 5.137722e-01 5.435792e-01 5.990023e-01 7.922894e-01 1.013011e+00 1.025475e+00 1.094992e+00 9.974902e-01 9.647267e-01 1.031510e+00 1.137701e-06
<GCONST> 5.969002e+01
<MIXTURE> 116 2.935202e-03
<MEAN> 25
 -3.407241e+00 -5.568826e-01 -2.499728e+00 3.265766e+00 2.276353e+00 -1.667034e-01 2.271033e+00 4.242885e-01 1.191318e+00 1.143320e-01 2.755740e-01 2.330236e+00 4.775823e-02 -9.318341e-02 -2.599481e-01 -4.083234e-01 -6.606884e-01 -6.167770e-01 -5.453179e-01 -5.227370e-01 -4.511753e-01 -4.149367e-01 -3.370315e-01 -2.481002e-01 -9.175974e-05
<VARIANCE> 25
 1.211309e+01 9.965009e+00 1.426430e+01 1.194743e+01 1.213644e+01 1.689673e+01 1.655481e+01 1.818904e+01 1.586930e+01 1.552933e+01 1.709160e+01 1.447156e+01 1.869612e-01 3.773972e-01 5.137722e-01 5.435792e-01 5.990023e-01 7.922894e-01 1.013011e+00 1.025475e+00 1.094992e+00 9.974902e-01 9.647267e-01 1.031510e+00 1.137701e-06
<GCONST> 5.969002e+01
<MIXTURE> 117 6.506003e-03
<MEAN> 25
 -4.641307e+00 1.118306e+00 1.055008e+00 9.749137e+00 6.252930e+00 6.254488e+00 6.458147e+00 5.039824e+00 6.378330e+00 4.924995e+00 6.362446e+00 2.707713e+00 -7.482965e-02 -2.342921e-01 -3.587516e-01 -4.205560e-01 -3.679608e-01 -3.020975e-01 -2.870011e-01 -3.319807e-01 -3.916591e-01 -3.686945e-01 -2.629730e-01 -1.161596e-01 -8.940974e-06
<VARIANCE> 25
 7.197649e+00 8.752083e+00 9.806763e+00 1.437432e+01 1.565879e+01 1.534519e+01 1.773774e+01 1.796796e+01 1.643578e+01 1.637358e+01 1.674761e+01 1.475185e+01 2.165099e-01 3.073375e-01 4.261881e-01 6.177584e-01 8.532742e-01 1.055472e+00 1.177371e+00 1.232224e+00 1.223454e+00 1.194935e+00 1.167141e+00 1.114002e+00 1.000695e-06
<GCONST> 6.043978e+01
<MIXTURE> 118 6.506003e-03
<MEAN> 25
 -4.641307e+00 1.118306e+00 1.055008e+00 9.749137e+00 6.252930e+00 6.254488e+00 6.458147e+00 5.039824e+00 6.378330e+00 4.924995e+00 6.362446e+00 2.707713e+00 -7.482965e-02 -2.342921e-01 -3.587516e-01 -4.205560e-01 -3.679608e-01 -3.020975e-01 -2.870011e-01 -3.319807e-01 -3.916591e-01 -3.686945e-01 -2.629730e-01 -1.161596e-01 -8.940974e-06
<VARIANCE> 25
 7.197649e+00 8.752083e+00 9.806763e+00 1.437432e+01 1.565879e+01 1.534519e+01 1.773774e+01 1.796796e+01 1.643578e+01 1.637358e+01 1.674761e+01 1.475185e+01 2.165099e-01 3.073375e-01 4.261881e-01 6.177584e-01 8.532742e-01 1.055472e+00 1.177371e+00 1.232224e+00 1.223454e+00 1.194935e+00 1.167141e+00 1.114002e+00 1.000695e-06
<GCONST> 6.043978e+01
<MIXTURE> 119 4.297961e-03
<MEAN> 25
 -4.666360e+00 -7.381622e+00 2.085877e+00 1.898023e+00 2.109180e+00 3.049937e-01 5.089845e+00 5.702599e+00 1.148275e+00 9.734005e-01 6.461344e+00 1.524132e+00 -5.244586e-02 -8.325364e-02 4.204948e-02 -4.984167e-02 -1.357612e-01 -1.481510e-01 -4.702860e-02 -4.556179e-02 -1.156441e-01 -1.200106e-01 -5.262903e-02 -4.886078e-02 1.152263e-03
<VARIANCE> 25
 9.847532e+00 1.067116e+01 1.628019e+01 1.965010e+01 2.225397e+01 2.274548e+01 2.491545e+01 2.650485e+01 2.419727e+01 2.744432e+01 2.060412e+01 1.980871e+01 1.706374e-01 2.844470e-01 4.486065e-01 6.207347e-01 7.817705e-01 1.038170e+00 1.126050e+00 1.281348e+00 1.288626e+00 1.222196e+00 1.189663e+00 1.098027e+00 2.299281e-04
<GCONST> 6.979710e+01
<MIXTURE> 120 4.297961e-03
<MEAN> 25
 -4.666360e+00 -7.381622e+00 2.085877e+00 1.898023e+00 2.109180e+00 3.049937e-01 5.089845e+00 5.702599e+00 1.148275e+00 9.734005e-01 6.461344e+00 1.524132e+00 -5.244586e-02 -8.325364e-02 4.204948e-02 -4.984167e-02 -1.357612e-01 -1.481510e-01 -4.702860e-02 -4.556179e-02 -1.156441e-01 -1.200106e-01 -5.262903e-02 -4.886078e-02 1.152263e-03
<VARIANCE> 25
 9.847532e+00 1.067116e+01 1.628019e+01 1.965010e+01 2.225397e+01 2.274548e+01 2.491545e+01 2.650485e+01 2.419727e+01 2.744432e+01 2.060412e+01 1.980871e+01 1.706374e-01 2.844470e-01 4.486065e-01 6.207347e-01 7.817705e-01 1.038170e+00 1.126050e+00 1.281348e+00 1.288626e+00 1.222196e+00 1.189663e+00 1.098027e+00 2.299281e-04
<GCONST> 6.979710e+01
<MIXTURE> 121 4.567511e-03
<MEAN> 25
 1.873972e-01 -2.418375e+00 5.034047e+00 -1.256103e+01 -1.226541e+01 -1.501394e+00 8.395102e-01 -4.972892e+00 -4.058869e+00 -5.390122e-01 -5.421377e+00 -4.221758e+00 3.623443e-02 1.229790e-01 -5.089051e-02 7.412090e-02 1.605251e-01 8.082397e-02 -8.057954e-02 -1.675031e-01 -2.833660e-01 -2.672315e-01 -1.051201e-01 -1.748985e-05 -7.095568e-03
<VARIANCE> 25
 7.675284e+00 1.545455e+01 1.718481e+01 2.260637e+01 2.716590e+01 2.981186e+01 2.952068e+01 2.429189e+01 3.474205e+01 2.778431e+01 1.947462e+01 2.085126e+01 1.587336e-01 6.453366e-01 6.219636e-01 6.944810e-01 7.946380e-01 1.167915e+00 1.120880e+00 1.228913e+00 1.237271e+00 1.173438e+00 9.728355e-01 8.912318e-01 2.165108e-04
<GCONST> 7.175603e+01
<MIXTURE> 122 4.567511e-03
<MEAN> 25
 1.873972e-01 -2.418375e+00 5.034047e+00 -1.256103e+01 -1.226541e+01 -1.501394e+00 8.395102e-01 -4.972892e+00 -4.058869e+00 -5.390122e-01 -5.421377e+00 -4.221758e+00 3.623443e-02 1.229790e-01 -5.089051e-02 7.412090e-02 1.605251e-01 8.082397e-02 -8.057954e-02 -1.675031e-01 -2.833660e-01 -2.672315e-01 -1.051201e-01 -1.748985e-05 -7.095568e-03
<VARIANCE> 25
 7.675284e+00 1.545455e+01 1.718481e+01 2.260637e+01 2.716590e+01 2.981186e+01 2.952068e+01 2.429189e+01 3.474205e+01 2.778431e+01 1.947462e+01 2.085126e+01 1.587336e-01 6.453366e-01 6.219636e-01 6.944810e-01 7.946380e-01 1.167915e+00 1.120880e+00 1.228913e+00 1.237271e+00 1.173438e+00 9.728355e-01 8.912318e-01 2.165108e-04
<GCONST> 7.175603e+01
<MIXTURE> 123 4.393044e-03
<MEAN> 25
 -2.806865e+00 1.001329e+00 3.625167e-01 3.546866e+00 3.406145e+00 2.158466e+00 2.212569e+00 4.623337e-01 -2.720584e-03 -4.848005e-01 -1.790509e-01 1.141584e-01 -3.415632e-01 -6.700788e-01 -8.734607e-01 -5.225840e-01 -2.332405e-01 1.292479e-01 3.447328e-01 3.971106e-01 7.590614e-01 8.328056e-01 8.173937e-01 5.494264e-01 -1.849182e-03
<VARIANCE> 25
 1.102769e+01 8.139091e+00 1.130559e+01 1.803692e+01 1.854366e+01 2.386886e+01 1.744549e+01 1.637478e+01 1.717864e+01 1.394219e+01 1.702945e+01 1.648753e+01 3.419553e-01 2.876398e-01 4.584064e-01 5.155986e-01 8.819545e-01 1.110288e+00 1.237964e+00 1.254314e+00 1.310936e+00 1.080403e+00 1.159256e+00 1.331731e+00 1.283256e-04
<GCONST> 6.710430e+01
<MIXTURE> 124 4.069876e-03
<MEAN> 25
 -6.202907e+00 -1.182241e+00 -2.887985e+00 4.736273e+00 4.935923e+00 3.079614e+00 5.230302e+00 2.562532e+00 3.019623e+00 1.307911e+00 1.120691e+00 2.882235e+00 -2.233959e-01 -3.319881e-01 -3.581193e-01 -2.202575e-01 1.295413e-01 4.943835e-01 8.649254e-01 8.358873e-01 6.767311e-01 3.179320e-01 7.078423e-02 8.861236e-03 1.848828e-05
<VARIANCE> 25
 1.234494e+01 6.830141e+00 1.049732e+01 1.296500e+01 1.233759e+01 2.007720e+01 1.502662e+01 1.600360e+01 1.505267e+01 1.513864e+01 1.802338e+01 1.390580e+01 1.064619e-01 1.595308e-01 2.620631e-01 3.920516e-01 5.644492e-01 6.794862e-01 8.192884e-01 7.715167e-01 8.661463e-01 9.485331e-01 9.485133e-01 9.918382e-01 1.881064e-05
<GCONST> 5.833579e+01
<MIXTURE> 125 4.069876e-03
<MEAN> 25
 -6.202907e+00 -1.182241e+00 -2.887985e+00 4.736273e+00 4.935923e+00 3.079614e+00 5.230302e+00 2.562532e+00 3.019623e+00 1.307911e+00 1.120691e+00 2.882235e+00 -2.233959e-01 -3.319881e-01 -3.581193e-01 -2.202575e-01 1.295413e-01 4.943835e-01 8.649254e-01 8.358873e-01 6.767311e-01 3.179320e-01 7.078423e-02 8.861236e-03 1.848828e-05
<VARIANCE> 25
 1.234494e+01 6.830141e+00 1.049732e+01 1.296500e+01 1.233759e+01 2.007720e+01 1.502662e+01 1.600360e+01 1.505267e+01 1.513864e+01 1.802338e+01 1.390580e+01 1.064619e-01 1.595308e-01 2.620631e-01 3.920516e-01 5.644492e-01 6.794862e-01 8.192884e-01 7.715167e-01 8.661463e-01 9.485331e-01 9.485133e-01 9.918382e-01 1.881064e-05
<GCONST> 5.833579e+01
<MIXTURE> 126 2.402244e-03
<MEAN> 25
 -3.288133e+00 -6.564580e+00 -4.966261e+00 2.088670e+00 4.047000e+00 -2.987699e+00 -1.776049e-01 3.366262e+00 3.048448e+00 -2.479244e+00 -1.221610e+00 3.037379e+00 -2.113655e-02 -4.284341e-02 -4.325048e-02 -1.979983e-01 -3.342558e-01 -3.195872e-01 -2.462468e-01 -1.290824e-01 -3.305294e-02 -1.049413e-01 -1.644186e-01 -2.526011e-02 -3.023003e-03
<VARIANCE> 25
 8.912572e+00 1.288253e+01 1.365437e+01 1.451094e+01 2.336575e+01 2.204839e+01 2.215512e+01 2.684110e+01 2.968937e+01 2.447024e+01 2.057372e+01 1.914730e+01 1.825675e-01 3.579383e-01 4.569333e-01 5.512810e-01 7.163330e-01 9.906186e-01 1.095368e+00 1.233323e+00 1.341501e+00 1.252058e+00 1.205921e+00 1.123395e+00 2.324290e-04
<GCONST> 6.948239e+01
<MIXTURE> 127 2.402244e-03
<MEAN> 25
 -3.288133e+00 -6.564580e+00 -4.966261e+00 2.088670e+00 4.047000e+00 -2.987699e+00 -1.776049e-01 3.366262e+00 3.048448e+00 -2.479244e+00 -1.221610e+00 3.037379e+00 -2.113655e-02 -4.284341e-02 -4.325048e-02 -1.979983e-01 -3.342558e-01 -3.195872e-01 -2.462468e-01 -1.290824e-01 -3.305294e-02 -1.049413e-01 -1.644186e-01 -2.526011e-02 -3.023003e-03
<VARIANCE> 25
 8.912572e+00 1.288253e+01 1.365437e+01 1.451094e+01 2.336575e+01 2.204839e+01 2.215512e+01 2.684110e+01 2.968937e+01 2.447024e+01 2.057372e+01 1.914730e+01 1.825675e-01 3.579383e-01 4.569333e-01 5.512810e-01 7.163330e-01 9.906186e-01 1.095368e+00 1.233323e+00 1.341501e+00 1.252058e+00 1.205921e+00 1.123395e+00 2.324290e-04
<GCONST> 6.948239e+01
<MIXTURE> 128 3.790457e-03
<MEAN> 25
 -3.904831e+00 1.527369e+00 -3.395827e-01 6.539210e+00 3.601085e+00 1.844538e+00 3.551590e+00 2.366726e+00 3.937916e+00 3.693164e+00 3.762048e+00 3.504465e+00 -3.919606e-01 -1.982962e-01 9.902585e-02 7.243987e-01 1.175401e+00 1.132306e+00 7.152682e-01 1.280400e-01 -4.407791e-01 -7.886255e-01 -6.965013e-01 -3.951889e-01 -3.257314e-05
<VARIANCE> 25
 1.031853e+01 1.170888e+01 1.491445e+01 1.939765e+01 2.001024e+01 2.114059e+01 2.435989e+01 2.458265e+01 2.635983e+01 2.379768e+01 2.667878e+01 1.818907e+01 8.911190e-01 1.142472e+00 1.361748e+00 1.498202e+00 1.588733e+00 1.854708e+00 2.240854e+00 2.318196e+00 2.149734e+00 1.864077e+00 1.741112e+00 1.742686e+00 1.013580e-06
<GCONST> 7.363252e+01
<TRANSP> 3
 0.000000e+00 1.000000e+00 0.000000e+00
 0.000000e+00 9.999990e-01 9.999998e-07
 0.000000e+00 0.000000e+00 0.000000e+00
<ENDHMM>
