~o
<STREAMINFO> 1 25
<VECSIZE> 25<NULLD><MFCC_E_D_N><DIAGC>
~h "jmodel"
<BEGINHMM>
<NUMSTATES> 3
<STATE> 2
<NUMMIXES> 128
<MIXTURE> 1 5.748963e-03
<MEAN> 25
 -2.566839e+00 3.184697e+00 2.316322e+00 8.726925e+00 4.344314e+00 3.450742e+00 4.044190e+00 3.920903e+00 5.810801e+00 5.235331e+00 5.881694e+00 3.082936e+00 -1.999052e+00 -1.633132e+00 -8.594900e-01 1.073865e+00 1.560987e+00 2.231099e+00 2.146825e+00 2.080608e+00 1.681375e+00 1.268827e+00 1.558354e+00 6.102631e-01 -4.682763e-02
<VARIANCE> 25
 1.010932e+01 1.173011e+01 1.489309e+01 1.884475e+01 2.334134e+01 2.212504e+01 2.191921e+01 2.196348e+01 2.104556e+01 2.254718e+01 2.085841e+01 1.706218e+01 1.791224e+00 2.107281e+00 3.023228e+00 3.199759e+00 3.731733e+00 3.377490e+00 3.324419e+00 3.371813e+00 3.547760e+00 3.729579e+00 3.521343e+00 2.846939e+00 3.122313e-03
<GCONST> 8.848724e+01
<MIXTURE> 2 4.549242e-03
<MEAN> 25
 -4.875383e+00 1.311731e+00 9.945308e-01 9.899460e+00 6.691966e+00 7.424532e+00 7.846791e+00 6.957970e+00 8.372886e+00 6.372854e+00 7.624163e+00 3.074656e+00 -6.200852e-02 4.160478e-02 1.425212e-01 2.258437e-01 2.652755e-01 2.813170e-01 2.954319e-01 3.195343e-01 3.497433e-01 3.089268e-01 1.972101e-01 8.009642e-02 1.216114e-06
<VARIANCE> 25
 6.954072e+00 8.901648e+00 1.065150e+01 1.591252e+01 1.723675e+01 1.556333e+01 1.689997e+01 1.848533e+01 1.658941e+01 1.738591e+01 1.811072e+01 1.434032e+01 1.252544e-01 2.266246e-01 3.364992e-01 4.671106e-01 6.492873e-01 8.149245e-01 9.298756e-01 1.003200e+00 1.051741e+00 1.077741e+00 1.075649e+00 1.013957e+00 1.000089e-06
<GCONST> 5.804397e+01
<MIXTURE> 3 4.549242e-03
<MEAN> 25
 -4.875383e+00 1.311731e+00 9.945308e-01 9.899460e+00 6.691966e+00 7.424532e+00 7.846791e+00 6.957970e+00 8.372886e+00 6.372854e+00 7.624163e+00 3.074656e+00 -6.200852e-02 4.160478e-02 1.425212e-01 2.258437e-01 2.652755e-01 2.813170e-01 2.954319e-01 3.195343e-01 3.497433e-01 3.089268e-01 1.972101e-01 8.009642e-02 1.216114e-06
<VARIANCE> 25
 6.954072e+00 8.901648e+00 1.065150e+01 1.591252e+01 1.723675e+01 1.556333e+01 1.689997e+01 1.848533e+01 1.658941e+01 1.738591e+01 1.811072e+01 1.434032e+01 1.252544e-01 2.266246e-01 3.364992e-01 4.671106e-01 6.492873e-01 8.149245e-01 9.298756e-01 1.003200e+00 1.051741e+00 1.077741e+00 1.075649e+00 1.013957e+00 1.000089e-06
<GCONST> 5.804397e+01
<MIXTURE> 4 1.671429e-02
<MEAN> 25
 3.005201e+00 2.422327e+00 -4.397050e+00 8.621653e-01 4.935345e+00 -5.568141e-01 -3.968006e-01 -1.144654e+00 -9.150514e-02 8.960594e-01 -2.612293e+00 -3.616696e-01 -2.607869e+00 9.981679e-01 1.841517e+00 2.993575e+00 9.563032e-01 2.702752e-01 1.192775e+00 1.278709e+00 6.873814e-01 3.704823e-01 1.216927e+00 1.006536e+00 -9.397625e-02
<VARIANCE> 25
 2.093408e+01 2.715043e+01 3.026999e+01 3.644790e+01 4.699172e+01 6.422684e+01 6.143238e+01 6.227114e+01 7.387675e+01 5.819797e+01 5.091898e+01 3.551555e+01 2.378937e+00 5.022712e+00 3.461255e+00 4.613318e+00 4.793246e+00 6.255229e+00 6.477280e+00 5.585954e+00 6.144974e+00 5.905848e+00 5.589754e+00 4.191486e+00 6.455584e-03
<GCONST> 1.053671e+02
<MIXTURE> 5 3.206198e-03
<MEAN> 25
 -3.508090e+00 2.267536e+00 7.309332e-01 9.349086e+00 6.541467e+00 6.499353e+00 7.133648e+00 4.702039e+00 5.284890e+00 3.909016e+00 4.752705e+00 2.812456e+00 -3.468271e-01 7.129232e-01 1.159962e+00 1.020011e+00 3.469843e-01 -1.275873e-01 -9.339626e-02 3.347176e-02 4.149769e-01 6.663465e-01 4.026491e-01 1.577127e-01 -2.694313e-05
<VARIANCE> 25
 1.042284e+01 1.391696e+01 2.351887e+01 2.536259e+01 2.100829e+01 2.036796e+01 1.970259e+01 1.991832e+01 2.271627e+01 2.095684e+01 2.391515e+01 1.795624e+01 1.202203e+00 1.279932e+00 1.498343e+00 1.642130e+00 2.295183e+00 2.357475e+00 2.255336e+00 2.222115e+00 2.337106e+00 2.197784e+00 2.036684e+00 2.028670e+00 9.770414e-07
<GCONST> 7.542220e+01
<MIXTURE> 6 5.475854e-03
<MEAN> 25
 9.694445e+00 -4.153066e-01 -6.689516e+00 -1.104338e+01 -2.115284e+00 6.717702e+00 -5.902212e+00 -5.298126e+00 -3.661687e+00 1.825397e+00 4.637393e+00 -1.259194e+00 4.837324e-01 8.962597e-01 -3.523254e-01 -1.468067e+00 -6.365173e-01 1.315143e+00 1.536835e+00 2.461109e-01 -1.220100e+00 -1.216984e+00 3.208732e-01 1.228657e+00 -8.127708e-03
<VARIANCE> 25
 9.014353e+00 1.706839e+01 2.394422e+01 3.909385e+01 3.674653e+01 3.092455e+01 4.403859e+01 3.804061e+01 4.073177e+01 3.945089e+01 4.210798e+01 2.844594e+01 3.131689e-01 8.563864e-01 9.467407e-01 1.976878e+00 1.607303e+00 2.013784e+00 1.918747e+00 2.051882e+00 2.398062e+00 1.963438e+00 2.248859e+00 1.437415e+00 5.867513e-04
<GCONST> 8.389175e+01
<MIXTURE> 7 5.475854e-03
<MEAN> 25
 9.694445e+00 -4.153066e-01 -6.689516e+00 -1.104338e+01 -2.115284e+00 6.717702e+00 -5.902212e+00 -5.298126e+00 -3.661687e+00 1.825397e+00 4.637393e+00 -1.259194e+00 4.837324e-01 8.962597e-01 -3.523254e-01 -1.468067e+00 -6.365173e-01 1.315143e+00 1.536835e+00 2.461109e-01 -1.220100e+00 -1.216984e+00 3.208732e-01 1.228657e+00 -8.127708e-03
<VARIANCE> 25
 9.014353e+00 1.706839e+01 2.394422e+01 3.909385e+01 3.674653e+01 3.092455e+01 4.403859e+01 3.804061e+01 4.073177e+01 3.945089e+01 4.210798e+01 2.844594e+01 3.131689e-01 8.563864e-01 9.467407e-01 1.976878e+00 1.607303e+00 2.013784e+00 1.918747e+00 2.051882e+00 2.398062e+00 1.963438e+00 2.248859e+00 1.437415e+00 5.867513e-04
<GCONST> 8.389175e+01
<MIXTURE> 8 1.165917e-02
<MEAN> 25
 -4.537394e+00 1.353724e+00 1.365281e+00 9.275801e+00 6.384918e+00 6.166960e+00 6.287464e+00 5.542204e+00 6.529699e+00 5.542993e+00 6.485003e+00 3.036875e+00 -6.388842e-01 -1.444969e+00 -1.101189e+00 -1.687921e+00 -2.210137e-01 -9.398475e-01 -1.688315e-01 -2.488096e-01 -2.911038e-01 -1.866354e-01 -2.609791e-01 8.636998e-02 9.799987e-02
<VARIANCE> 25
 1.020780e+01 9.613379e+00 1.149806e+01 1.763988e+01 1.707510e+01 1.574229e+01 1.854614e+01 1.772155e+01 1.706735e+01 1.699928e+01 1.853006e+01 1.432449e+01 2.719620e+00 2.746953e+00 3.827569e+00 3.799316e+00 3.359248e+00 3.263897e+00 3.057846e+00 3.073770e+00 2.832068e+00 2.570889e+00 2.453700e+00 1.911872e+00 6.505443e-03
<GCONST> 8.630540e+01
<MIXTURE> 9 1.199672e-02
<MEAN> 25
 9.242934e+00 3.381791e+00 -6.205313e+00 -1.066252e+01 -2.189723e+00 4.911173e+00 -2.214839e+00 -2.332599e+00 -5.390891e+00 -1.254708e+00 5.460217e-01 -2.998620e-02 1.426749e+00 -1.301901e-01 -5.023981e-01 -2.686569e+00 -1.625350e+00 8.548099e-01 -9.607751e-01 -2.298555e-01 -1.873541e-01 -5.786670e-01 6.053315e-01 -1.506061e-01 7.332770e-02
<VARIANCE> 25
 1.263121e+01 2.143570e+01 3.345753e+01 5.334461e+01 4.992694e+01 3.267453e+01 4.294348e+01 5.242136e+01 4.186033e+01 4.135480e+01 3.608682e+01 2.690098e+01 2.106618e+00 2.454986e+00 4.571553e+00 4.904083e+00 5.042244e+00 4.081122e+00 4.250609e+00 6.025516e+00 5.015328e+00 4.056756e+00 4.028119e+00 2.793312e+00 2.214458e-03
<GCONST> 9.882726e+01
<MIXTURE> 10 6.596976e-03
<MEAN> 25
 8.764945e-01 7.612283e+00 5.207368e+00 7.103238e+00 1.500364e+00 -2.231069e+00 -6.288382e-01 -1.778028e+00 8.686199e-01 8.152929e-01 8.823070e-01 7.183859e-01 -1.860413e+00 -7.087907e-01 -4.109787e-01 2.989029e+00 2.487393e+00 2.809836e+00 2.280847e+00 2.283058e+00 1.733668e+00 1.502790e+00 2.244954e+00 4.534591e-01 -1.375756e-01
<VARIANCE> 25
 1.908486e+01 2.021043e+01 2.270216e+01 2.851022e+01 3.794738e+01 3.613766e+01 3.484497e+01 3.325915e+01 2.700109e+01 2.846065e+01 2.653795e+01 2.443583e+01 2.306258e+00 3.383814e+00 5.450021e+00 5.081161e+00 5.413083e+00 4.668139e+00 4.847007e+00 4.709954e+00 4.797791e+00 4.958751e+00 4.603024e+00 3.274451e+00 2.642279e-03
<GCONST> 9.745200e+01
<MIXTURE> 11 1.633820e-02
<MEAN> 25
 7.317473e+00 4.144649e+00 3.432201e+00 4.795738e+00 -3.041931e+00 -1.867707e+00 -2.521749e+00 -6.206590e+00 -3.552820e+00 1.085173e-01 -2.424673e+00 -2.273156e+00 -2.482132e-01 4.680695e-01 1.674751e-01 2.731360e-01 5.027819e-01 -2.457456e-03 2.415096e-01 -1.267866e-01 -1.804375e-01 -3.148355e-02 -1.291865e-01 1.606756e-01 -1.529342e-02
<VARIANCE> 25
 1.302551e+01 2.273620e+01 2.063628e+01 3.252520e+01 3.690702e+01 3.847567e+01 4.559210e+01 4.328316e+01 4.161799e+01 3.396140e+01 3.386703e+01 2.817840e+01 9.273931e-01 1.271078e+00 1.681536e+00 2.134971e+00 2.002181e+00 2.184488e+00 2.042713e+00 2.662504e+00 2.125912e+00 1.908515e+00 1.822849e+00 1.625606e+00 9.779955e-04
<GCONST> 8.727615e+01
<MIXTURE> 12 5.904134e-03
<MEAN> 25
 1.076506e+01 3.743634e+00 -4.502120e+00 -1.599314e+01 -8.695812e+00 8.642560e+00 -8.971173e-01 -1.922214e+00 -1.723225e+00 -4.886321e+00 1.774475e+00 7.165726e-01 6.772486e-02 2.937441e-01 7.953603e-02 -3.682440e-01 -3.102438e-01 2.949469e-02 3.054952e-01 4.478226e-01 1.411086e-01 -3.846663e-01 -3.855333e-01 5.388945e-02 -6.300979e-03
<VARIANCE> 25
 8.887134e+00 2.100105e+01 2.335910e+01 3.503726e+01 4.206345e+01 3.095805e+01 4.179628e+01 4.898106e+01 4.406386e+01 3.738852e+01 3.799713e+01 2.892605e+01 2.468009e-01 6.883351e-01 6.861344e-01 1.169882e+00 1.186468e+00 1.053894e+00 1.171011e+00 1.386130e+00 1.240592e+00 1.222216e+00 1.221458e+00 9.564458e-01 5.786835e-04
<GCONST> 7.892126e+01
<MIXTURE> 13 5.904134e-03
<MEAN> 25
 1.076506e+01 3.743634e+00 -4.502120e+00 -1.599314e+01 -8.695812e+00 8.642560e+00 -8.971173e-01 -1.922214e+00 -1.723225e+00 -4.886321e+00 1.774475e+00 7.165726e-01 6.772486e-02 2.937441e-01 7.953603e-02 -3.682440e-01 -3.102438e-01 2.949469e-02 3.054952e-01 4.478226e-01 1.411086e-01 -3.846663e-01 -3.855333e-01 5.388945e-02 -6.300979e-03
<VARIANCE> 25
 8.887134e+00 2.100105e+01 2.335910e+01 3.503726e+01 4.206345e+01 3.095805e+01 4.179628e+01 4.898106e+01 4.406386e+01 3.738852e+01 3.799713e+01 2.892605e+01 2.468009e-01 6.883351e-01 6.861344e-01 1.169882e+00 1.186468e+00 1.053894e+00 1.171011e+00 1.386130e+00 1.240592e+00 1.222216e+00 1.221458e+00 9.564458e-01 5.786835e-04
<GCONST> 7.892126e+01
<MIXTURE> 14 6.488954e-03
<MEAN> 25
 -4.329451e+00 -3.471455e-01 -2.586548e-01 8.869234e+00 7.457793e+00 7.420388e+00 7.808292e+00 7.298625e+00 7.169562e+00 5.234228e+00 6.860179e+00 4.140838e+00 -2.803062e-01 1.851362e-01 3.536133e-01 3.115534e-01 2.021605e-02 5.095442e-02 9.528662e-02 1.775812e-01 2.849908e-01 5.343162e-01 5.018216e-01 9.182954e-02 -9.235593e-03
<VARIANCE> 25
 9.328866e+00 1.400854e+01 1.874025e+01 1.793509e+01 2.109118e+01 1.975648e+01 2.154021e+01 2.052797e+01 2.071644e+01 2.377055e+01 2.135005e+01 1.640479e+01 9.599262e-01 1.634579e+00 1.786149e+00 1.917773e+00 2.249660e+00 2.252091e+00 2.244838e+00 2.222939e+00 2.283074e+00 2.494897e+00 2.179597e+00 1.854697e+00 1.022350e-03
<GCONST> 8.198198e+01
<MIXTURE> 15 2.475190e-03
<MEAN> 25
 -5.230895e+00 -6.647892e-01 -9.372468e-02 7.213772e+00 5.647705e+00 5.653348e+00 5.930029e+00 4.976771e+00 5.120253e+00 4.139333e+00 5.342206e+00 2.434290e+00 -1.249148e-01 -3.048635e-02 8.903661e-02 2.458484e-01 4.953634e-01 7.895170e-01 1.095174e+00 1.187660e+00 1.047943e+00 7.369782e-01 3.849220e-01 1.430915e-01 -2.007375e-04
<VARIANCE> 25
 7.827453e+00 5.598487e+00 9.155758e+00 1.346807e+01 1.432980e+01 1.422965e+01 1.499970e+01 1.459980e+01 1.390070e+01 1.470055e+01 1.540134e+01 1.255217e+01 1.230253e-01 2.113146e-01 3.351005e-01 4.912370e-01 6.908746e-01 8.089538e-01 7.559569e-01 7.853209e-01 8.903270e-01 1.064979e+00 1.095169e+00 1.064241e+00 3.026142e-05
<GCONST> 5.896981e+01
<MIXTURE> 16 2.475190e-03
<MEAN> 25
 -5.230895e+00 -6.647892e-01 -9.372468e-02 7.213772e+00 5.647705e+00 5.653348e+00 5.930029e+00 4.976771e+00 5.120253e+00 4.139333e+00 5.342206e+00 2.434290e+00 -1.249148e-01 -3.048635e-02 8.903661e-02 2.458484e-01 4.953634e-01 7.895170e-01 1.095174e+00 1.187660e+00 1.047943e+00 7.369782e-01 3.849220e-01 1.430915e-01 -2.007375e-04
<VARIANCE> 25
 7.827453e+00 5.598487e+00 9.155758e+00 1.346807e+01 1.432980e+01 1.422965e+01 1.499970e+01 1.459980e+01 1.390070e+01 1.470055e+01 1.540134e+01 1.255217e+01 1.230253e-01 2.113146e-01 3.351005e-01 4.912370e-01 6.908746e-01 8.089538e-01 7.559569e-01 7.853209e-01 8.903270e-01 1.064979e+00 1.095169e+00 1.064241e+00 3.026142e-05
<GCONST> 5.896981e+01
<MIXTURE> 17 9.518312e-03
<MEAN> 25
 3.098474e+00 -4.344633e-01 5.165743e+00 1.348688e+00 -5.931117e+00 -8.787769e+00 -2.616191e+00 -1.729385e+00 -1.980618e+00 -3.390682e+00 3.267615e-01 9.086919e-01 -5.143844e-01 -7.742599e-01 1.185832e+00 -1.882361e+00 -2.473315e+00 -8.400888e-01 4.315860e-01 1.382340e-01 2.831707e-01 -4.200154e-01 9.354608e-01 5.631771e-01 7.828227e-02
<VARIANCE> 25
 1.534614e+01 2.656182e+01 3.025000e+01 3.720374e+01 4.038750e+01 7.233821e+01 3.972491e+01 4.032000e+01 3.976165e+01 2.337506e+01 2.499478e+01 2.733266e+01 1.785879e+00 3.203272e+00 3.554288e+00 2.771475e+00 3.829997e+00 7.022588e+00 4.702724e+00 6.068033e+00 5.202601e+00 3.573621e+00 2.600126e+00 2.547459e+00 1.919465e-03
<GCONST> 9.693567e+01
<MIXTURE> 18 1.221018e-02
<MEAN> 25
 3.690090e+00 5.396033e+00 5.356833e+00 4.025971e+00 -5.123477e+00 -9.600598e+00 -1.883183e+00 -2.365869e+00 -1.727737e+00 -2.426056e+00 -5.202944e-01 1.234963e+00 -5.555812e-01 1.717857e+00 -1.919536e-02 2.144686e+00 3.228547e+00 2.270761e+00 4.696987e-01 2.386374e-01 1.332944e-01 6.424888e-01 -1.892291e-01 -1.866428e-01 -1.249447e-01
<VARIANCE> 25
 1.376088e+01 2.405552e+01 3.586804e+01 2.599024e+01 3.647120e+01 3.788065e+01 3.625285e+01 3.622606e+01 4.942226e+01 3.142916e+01 2.866334e+01 2.855857e+01 2.328312e+00 3.503518e+00 4.118114e+00 3.520249e+00 3.519891e+00 6.649230e+00 4.409651e+00 4.617672e+00 4.801614e+00 3.720343e+00 3.926659e+00 3.215566e+00 3.479549e-03
<GCONST> 9.775083e+01
<MIXTURE> 19 9.912824e-03
<MEAN> 25
 -1.002095e+01 1.760030e+00 2.841644e-01 1.061366e+00 3.951700e+00 1.613747e+00 3.383693e+00 1.196028e+00 2.028015e+00 1.187622e+00 1.086149e+00 1.950028e+00 2.065466e+00 1.744562e+00 2.140391e+00 7.417322e-01 -1.042567e+00 -1.055906e+00 -1.047316e+00 -1.423809e+00 -1.486463e+00 -1.133958e+00 -8.180659e-01 -7.948304e-01 1.937421e-03
<VARIANCE> 25
 5.384478e+01 3.021242e+01 4.777994e+01 5.284949e+01 3.345841e+01 3.251223e+01 3.088201e+01 2.961239e+01 2.833171e+01 2.697095e+01 2.995366e+01 1.997389e+01 2.416690e+00 2.193409e+00 2.196486e+00 2.318263e+00 2.556508e+00 2.430220e+00 2.426743e+00 2.424498e+00 2.109589e+00 2.033073e+00 2.245975e+00 1.787322e+00 2.464377e-03
<GCONST> 9.175287e+01
<MIXTURE> 20 6.308331e-03
<MEAN> 25
 -1.418128e+01 7.416184e+00 8.452852e-01 6.152205e+00 4.843345e+00 1.637216e+00 5.209269e+00 8.536946e-01 9.222730e-01 7.987805e-01 2.568623e+00 -3.024054e-01 -3.285925e+00 -8.668818e-01 -1.565155e+00 3.325946e-01 1.541061e+00 2.063118e+00 1.979227e+00 2.056184e+00 2.144540e+00 2.040220e+00 1.684732e+00 9.453530e-01 4.732071e-02
<VARIANCE> 25
 1.966518e+01 2.345529e+01 3.096042e+01 3.717620e+01 3.085253e+01 2.789109e+01 2.993247e+01 3.147485e+01 2.796384e+01 2.821363e+01 2.515957e+01 2.091750e+01 2.092040e+00 2.182227e+00 1.909929e+00 2.541339e+00 2.702717e+00 2.313104e+00 2.310094e+00 2.320025e+00 2.235612e+00 2.652253e+00 2.241408e+00 1.865754e+00 1.886425e-03
<GCONST> 8.921902e+01
<MIXTURE> 21 7.928653e-03
<MEAN> 25
 3.981006e+00 -4.513014e+00 5.749384e+00 -1.542532e+00 -1.054482e+01 -8.725972e+00 -2.633375e+00 4.148232e+00 -2.114846e+00 -3.412392e+00 2.310530e-01 3.261599e-01 -7.191630e-01 1.336506e+00 2.585057e+00 -4.571011e-02 -1.554999e+00 3.314168e-01 5.831204e-01 -1.490688e+00 -1.957151e+00 3.127417e-01 1.324483e+00 2.452502e-01 -1.275589e-02
<VARIANCE> 25
 9.077389e+00 1.874716e+01 2.974394e+01 2.839616e+01 2.885465e+01 3.322901e+01 4.295411e+01 3.948484e+01 4.370530e+01 3.152304e+01 3.376528e+01 2.326084e+01 3.765823e-01 9.545516e-01 1.855561e+00 1.289085e+00 2.218830e+00 2.188691e+00 3.638726e+00 2.512626e+00 2.156776e+00 2.589818e+00 2.012698e+00 2.277925e+00 4.279055e-04
<GCONST> 8.514733e+01
<MIXTURE> 22 8.827789e-03
<MEAN> 25
 -1.792091e+01 7.154785e+00 -4.131347e+00 7.392482e+00 4.602546e+00 2.761039e+00 8.399819e+00 1.748462e+00 5.379299e+00 3.301012e+00 5.716434e+00 1.185148e+00 -3.095726e-01 -2.075880e-01 -1.255633e-01 -1.492641e-01 -7.208806e-03 1.369678e-01 1.807591e-01 1.779423e-01 2.484757e-01 2.073076e-01 1.726615e-01 1.924446e-01 8.857626e-03
<VARIANCE> 25
 8.116920e+00 1.682541e+01 1.738343e+01 2.517213e+01 2.289636e+01 2.083704e+01 1.943101e+01 1.871084e+01 1.813996e+01 2.086667e+01 1.924184e+01 1.378720e+01 1.090756e+00 1.357369e+00 1.363971e+00 1.572030e+00 1.408815e+00 1.526971e+00 1.508942e+00 1.532825e+00 1.614233e+00 1.544764e+00 1.357418e+00 1.168007e+00 1.745583e-03
<GCONST> 7.830949e+01
<MIXTURE> 23 6.455497e-03
<MEAN> 25
 7.070864e+00 2.268888e+00 3.084237e+00 2.499495e+00 -4.106450e+00 -2.533453e+00 -3.991197e+00 -5.629679e+00 -2.626859e+00 -8.477935e-01 -3.637391e+00 -1.960557e+00 5.837512e-02 1.850333e-01 5.882160e-03 8.757625e-02 1.323310e-02 1.100759e-01 1.603913e-02 -2.181975e-02 5.723511e-02 4.519608e-02 -9.012728e-02 -3.573069e-02 -3.694759e-03
<VARIANCE> 25
 1.189177e+01 1.882722e+01 2.153677e+01 3.464107e+01 3.635380e+01 5.092315e+01 5.149373e+01 5.062184e+01 4.353911e+01 4.217837e+01 4.310272e+01 3.489752e+01 1.108848e-01 2.979043e-01 3.721293e-01 4.913392e-01 5.772443e-01 6.289120e-01 7.861649e-01 9.209912e-01 8.904807e-01 8.474518e-01 8.818554e-01 7.723613e-01 8.289135e-05
<GCONST> 7.168486e+01
<MIXTURE> 24 6.455497e-03
<MEAN> 25
 7.070864e+00 2.268888e+00 3.084237e+00 2.499495e+00 -4.106450e+00 -2.533453e+00 -3.991197e+00 -5.629679e+00 -2.626859e+00 -8.477935e-01 -3.637391e+00 -1.960557e+00 5.837512e-02 1.850333e-01 5.882160e-03 8.757625e-02 1.323310e-02 1.100759e-01 1.603913e-02 -2.181975e-02 5.723511e-02 4.519608e-02 -9.012728e-02 -3.573069e-02 -3.694759e-03
<VARIANCE> 25
 1.189177e+01 1.882722e+01 2.153677e+01 3.464107e+01 3.635380e+01 5.092315e+01 5.149373e+01 5.062184e+01 4.353911e+01 4.217837e+01 4.310272e+01 3.489752e+01 1.108848e-01 2.979043e-01 3.721293e-01 4.913392e-01 5.772443e-01 6.289120e-01 7.861649e-01 9.209912e-01 8.904807e-01 8.474518e-01 8.818554e-01 7.723613e-01 8.289135e-05
<GCONST> 7.168486e+01
<MIXTURE> 25 1.118642e-02
<MEAN> 25
 2.903493e-01 3.472218e+00 1.669810e+01 -1.010824e+00 -1.125148e+01 -1.729914e+00 -4.981576e+00 -2.930350e+00 -6.912682e+00 -5.385131e+00 4.088793e+00 -1.661221e+00 -1.314584e-01 4.373182e-01 1.700405e-01 1.523391e-01 2.153914e-01 1.133984e-01 1.950810e-01 -1.698344e-01 -2.470771e-01 6.870244e-02 -7.232864e-02 -1.001218e-01 -1.289286e-02
<VARIANCE> 25
 8.820948e+00 2.208476e+01 2.184473e+01 2.860724e+01 3.231425e+01 4.096834e+01 2.724281e+01 2.987960e+01 2.829938e+01 3.699183e+01 2.087792e+01 2.753597e+01 5.985373e-01 1.440500e+00 1.400919e+00 1.375300e+00 2.265908e+00 2.032196e+00 1.737404e+00 1.624270e+00 1.530417e+00 1.654201e+00 1.340241e+00 1.322666e+00 1.277916e-03
<GCONST> 8.276545e+01
<MIXTURE> 26 7.727677e-03
<MEAN> 25
 1.783196e+00 -6.159855e+00 -1.021284e+01 -1.022814e+00 7.704011e+00 5.052279e+00 3.830128e+00 -4.980307e-01 1.671258e+00 -1.184797e+00 -3.107370e+00 -1.277900e+00 -6.092221e-01 5.772517e-01 3.815333e-01 7.546390e-01 2.074767e-01 2.446897e-01 2.523851e-01 3.741662e-01 2.168699e-01 4.525021e-02 3.344826e-01 3.865672e-01 -4.878136e-02
<VARIANCE> 25
 2.460627e+01 3.547454e+01 2.623438e+01 5.885719e+01 3.747753e+01 4.417291e+01 4.427163e+01 4.809167e+01 4.349425e+01 5.138985e+01 3.921574e+01 4.443384e+01 1.607937e+00 1.975001e+00 1.946473e+00 1.938812e+00 2.224151e+00 2.300262e+00 2.457777e+00 2.749434e+00 2.305614e+00 2.235924e+00 2.134331e+00 1.968485e+00 3.338179e-03
<GCONST> 9.371114e+01
<MIXTURE> 27 7.727677e-03
<MEAN> 25
 1.783196e+00 -6.159855e+00 -1.021284e+01 -1.022814e+00 7.704011e+00 5.052279e+00 3.830128e+00 -4.980307e-01 1.671258e+00 -1.184797e+00 -3.107370e+00 -1.277900e+00 -6.092221e-01 5.772517e-01 3.815333e-01 7.546390e-01 2.074767e-01 2.446897e-01 2.523851e-01 3.741662e-01 2.168699e-01 4.525021e-02 3.344826e-01 3.865672e-01 -4.878136e-02
<VARIANCE> 25
 2.460627e+01 3.547454e+01 2.623438e+01 5.885719e+01 3.747753e+01 4.417291e+01 4.427163e+01 4.809167e+01 4.349425e+01 5.138985e+01 3.921574e+01 4.443384e+01 1.607937e+00 1.975001e+00 1.946473e+00 1.938812e+00 2.224151e+00 2.300262e+00 2.457777e+00 2.749434e+00 2.305614e+00 2.235924e+00 2.134331e+00 1.968485e+00 3.338179e-03
<GCONST> 9.371114e+01
<MIXTURE> 28 5.036674e-03
<MEAN> 25
 -5.390444e+00 2.819981e-02 -1.540281e+00 6.596463e+00 5.195355e+00 3.514777e+00 5.353991e+00 3.119390e+00 3.923533e+00 2.357263e+00 2.591452e+00 3.193135e+00 -1.135228e-01 2.225681e-01 5.286825e-01 7.810422e-01 8.164816e-01 7.018268e-01 5.324214e-01 4.002896e-01 4.439687e-01 4.836739e-01 3.736567e-01 1.914306e-01 -5.302133e-06
<VARIANCE> 25
 1.087656e+01 8.343073e+00 1.220187e+01 1.479631e+01 1.479942e+01 1.761581e+01 1.847682e+01 1.889994e+01 1.713115e+01 1.683966e+01 2.084506e+01 1.500857e+01 2.552458e-01 3.344395e-01 4.062762e-01 4.630798e-01 6.219823e-01 8.428304e-01 1.062227e+00 1.149493e+00 1.098791e+00 1.025053e+00 1.031826e+00 1.066129e+00 1.014432e-06
<GCONST> 6.031594e+01
<MIXTURE> 29 5.036674e-03
<MEAN> 25
 -5.390444e+00 2.819981e-02 -1.540281e+00 6.596463e+00 5.195355e+00 3.514777e+00 5.353991e+00 3.119390e+00 3.923533e+00 2.357263e+00 2.591452e+00 3.193135e+00 -1.135228e-01 2.225681e-01 5.286825e-01 7.810422e-01 8.164816e-01 7.018268e-01 5.324214e-01 4.002896e-01 4.439687e-01 4.836739e-01 3.736567e-01 1.914306e-01 -5.302133e-06
<VARIANCE> 25
 1.087656e+01 8.343073e+00 1.220187e+01 1.479631e+01 1.479942e+01 1.761581e+01 1.847682e+01 1.889994e+01 1.713115e+01 1.683966e+01 2.084506e+01 1.500857e+01 2.552458e-01 3.344395e-01 4.062762e-01 4.630798e-01 6.219823e-01 8.428304e-01 1.062227e+00 1.149493e+00 1.098791e+00 1.025053e+00 1.031826e+00 1.066129e+00 1.014432e-06
<GCONST> 6.031594e+01
<MIXTURE> 30 8.917812e-03
<MEAN> 25
 -4.442770e+00 -2.405292e-01 7.089276e-01 9.012784e+00 7.774155e+00 7.508676e+00 7.484350e+00 6.834959e+00 6.496436e+00 4.909115e+00 6.906909e+00 3.417305e+00 -2.420552e-02 2.998159e-02 7.253123e-02 9.597360e-02 8.181874e-02 4.559410e-02 3.681482e-02 8.843522e-03 2.142357e-02 3.680686e-02 5.006160e-02 1.588675e-02 -4.642423e-04
<VARIANCE> 25
 7.042615e+00 9.919742e+00 1.045974e+01 1.398451e+01 1.570784e+01 1.624391e+01 1.953861e+01 1.809015e+01 1.617113e+01 1.819334e+01 2.173802e+01 1.472601e+01 9.643225e-02 1.977022e-01 3.449396e-01 4.830365e-01 6.134804e-01 7.154796e-01 8.110864e-01 8.188873e-01 8.676043e-01 9.465101e-01 9.222431e-01 8.866298e-01 5.145416e-05
<GCONST> 6.078387e+01
<MIXTURE> 31 4.136493e-03
<MEAN> 25
 -2.646855e+00 -5.165305e+00 6.000006e-01 3.489641e+00 2.917958e+00 2.446337e+00 4.243580e+00 6.479668e+00 2.865196e+00 8.114134e-01 4.466209e+00 2.499645e+00 3.357059e-01 5.451134e-01 -1.139633e-01 3.601205e-01 -6.985515e-02 2.809758e-01 2.488788e-01 7.420976e-02 3.775187e-01 1.786232e-01 3.219163e-02 1.296314e-01 -2.150714e-02
<VARIANCE> 25
 6.875145e+00 1.495905e+01 1.660160e+01 1.728823e+01 2.004884e+01 2.065369e+01 2.137345e+01 2.367580e+01 2.190526e+01 2.285290e+01 2.360848e+01 1.733644e+01 1.961037e-01 4.534032e-01 6.393555e-01 6.805259e-01 8.903238e-01 1.015834e+00 1.175380e+00 1.497792e+00 1.313287e+00 1.211575e+00 1.101504e+00 1.002966e+00 2.539844e-04
<GCONST> 7.022127e+01
<MIXTURE> 32 4.136493e-03
<MEAN> 25
 -2.646855e+00 -5.165305e+00 6.000006e-01 3.489641e+00 2.917958e+00 2.446337e+00 4.243580e+00 6.479668e+00 2.865196e+00 8.114134e-01 4.466209e+00 2.499645e+00 3.357059e-01 5.451134e-01 -1.139633e-01 3.601205e-01 -6.985515e-02 2.809758e-01 2.488788e-01 7.420976e-02 3.775187e-01 1.786232e-01 3.219163e-02 1.296314e-01 -2.150714e-02
<VARIANCE> 25
 6.875145e+00 1.495905e+01 1.660160e+01 1.728823e+01 2.004884e+01 2.065369e+01 2.137345e+01 2.367580e+01 2.190526e+01 2.285290e+01 2.360848e+01 1.733644e+01 1.961037e-01 4.534032e-01 6.393555e-01 6.805259e-01 8.903238e-01 1.015834e+00 1.175380e+00 1.497792e+00 1.313287e+00 1.211575e+00 1.101504e+00 1.002966e+00 2.539844e-04
<GCONST> 7.022127e+01
<MIXTURE> 33 1.508826e-02
<MEAN> 25
 6.106966e+00 -3.925815e+00 -2.409304e+00 -3.208688e+00 -1.662591e+00 -5.536432e+00 -6.848913e+00 1.472412e+00 1.949197e+00 -8.188693e-01 -4.315884e+00 -2.788513e+00 5.694971e-01 -1.202471e+00 -2.378683e+00 -1.878425e+00 1.495256e+00 1.304328e+00 -6.721487e-01 7.219102e-01 8.409531e-01 4.388267e-01 -2.409118e-01 -1.289160e+00 4.158231e-02
<VARIANCE> 25
 1.150479e+01 2.014264e+01 2.760098e+01 3.802581e+01 3.805620e+01 4.318970e+01 4.247929e+01 4.726031e+01 3.892418e+01 4.333096e+01 3.471900e+01 2.812014e+01 1.212175e+00 1.990149e+00 2.077833e+00 2.108659e+00 3.947337e+00 3.339859e+00 4.197097e+00 5.362281e+00 3.855443e+00 4.369271e+00 3.398756e+00 2.627979e+00 1.629806e-03
<GCONST> 9.431742e+01
<MIXTURE> 34 1.588179e-02
<MEAN> 25
 8.871944e+00 7.249427e-02 6.632891e-02 1.150378e+00 -2.920643e+00 -1.609112e+00 -6.161558e+00 -4.727337e+00 -1.793367e+00 1.214617e-01 -2.653964e+00 -3.739740e+00 -7.941348e-03 1.338480e+00 1.482448e+00 2.366251e+00 -5.422520e-02 -1.533834e-01 7.499231e-01 -1.639507e+00 -9.123704e-01 2.730910e-01 -5.435698e-01 2.328295e-01 -6.227272e-02
<VARIANCE> 25
 7.941581e+00 3.085467e+01 2.972553e+01 5.000877e+01 4.210183e+01 4.990673e+01 5.455272e+01 5.638029e+01 5.233014e+01 4.300762e+01 4.795575e+01 3.149262e+01 1.265490e+00 1.976795e+00 4.251447e+00 4.130469e+00 5.621652e+00 5.798734e+00 5.673967e+00 6.119876e+00 5.168740e+00 4.965592e+00 5.004799e+00 3.866440e+00 1.151108e-03
<GCONST> 9.972818e+01
<MIXTURE> 35 1.467755e-02
<MEAN> 25
 -2.126701e+00 -5.064299e+00 -9.229716e+00 -3.164944e-02 8.661044e+00 6.332560e-01 1.285969e+00 2.523917e+00 8.850055e-01 3.941531e+00 -2.070535e-01 1.734792e+00 3.301836e-01 -1.210038e+00 -1.456132e+00 -1.271878e+00 3.550876e-01 -7.911509e-01 -6.165560e-01 2.421663e-02 -1.928432e-01 1.050006e-01 -6.376106e-01 -4.276865e-01 1.072143e-01
<VARIANCE> 25
 1.888746e+01 2.760300e+01 4.290856e+01 6.587040e+01 4.576262e+01 5.337688e+01 4.601341e+01 4.053579e+01 4.780708e+01 3.759863e+01 3.740312e+01 2.884050e+01 3.709964e+00 3.413585e+00 6.201202e+00 5.385115e+00 4.800556e+00 5.359365e+00 4.512607e+00 4.782140e+00 4.606357e+00 4.069012e+00 4.045173e+00 3.725175e+00 4.829272e-03
<GCONST> 1.026367e+02
<MIXTURE> 36 1.093293e-02
<MEAN> 25
 4.948750e+00 -3.416723e+00 6.945087e+00 2.660943e+00 -9.988878e+00 -8.803922e+00 -6.147954e+00 2.998634e+00 -1.865975e+00 -4.538650e+00 2.772332e+00 -1.787038e-01 3.613051e-01 1.400704e-01 -8.909488e-01 1.290321e-02 8.608654e-01 7.116514e-02 -4.702969e-01 3.091624e-02 4.193411e-01 5.574946e-01 -4.209842e-01 -3.308481e-01 -1.604614e-02
<VARIANCE> 25
 9.911209e+00 1.713436e+01 2.234996e+01 2.766709e+01 3.249479e+01 3.400830e+01 4.597151e+01 3.533789e+01 3.888774e+01 3.240129e+01 2.736511e+01 2.631656e+01 4.586652e-01 7.732867e-01 1.525878e+00 1.234207e+00 1.619243e+00 1.692772e+00 2.123771e+00 1.726516e+00 1.984020e+00 1.681403e+00 1.390023e+00 1.422004e+00 7.238727e-04
<GCONST> 8.218707e+01
<MIXTURE> 37 1.246826e-02
<MEAN> 25
 5.436980e-01 7.764943e+00 1.197519e+01 -5.576647e+00 -7.997675e+00 -1.074357e+00 -5.074542e+00 -8.343080e+00 -3.721680e+00 -9.008939e-01 -3.673630e+00 -1.309847e+00 1.781425e-01 6.486551e-01 -1.360059e+00 3.571942e+00 1.987656e+00 -2.913674e-01 1.095641e+00 4.289529e-01 5.198042e-01 -3.268079e-01 5.256140e-01 -9.247509e-02 -9.441540e-02
<VARIANCE> 25
 1.586601e+01 2.589455e+01 3.232837e+01 5.097767e+01 3.408068e+01 3.207703e+01 4.381565e+01 3.503828e+01 3.851906e+01 3.584095e+01 3.763250e+01 3.085765e+01 2.949021e+00 3.404255e+00 3.021616e+00 4.108395e+00 4.599319e+00 3.761528e+00 4.199778e+00 3.809476e+00 3.451116e+00 3.611274e+00 3.891199e+00 2.788439e+00 3.978888e-03
<GCONST> 9.782207e+01
<MIXTURE> 38 1.154525e-02
<MEAN> 25
 -4.437179e+00 8.939567e+00 4.524569e+00 3.159610e+00 8.414776e-01 -5.216607e+00 -6.233302e-01 -2.790217e+00 -2.874017e+00 -3.078588e+00 -1.505523e+00 -5.696800e-01 -4.498239e+00 1.243072e+00 -3.310679e-01 1.454167e+00 2.550107e+00 1.383533e+00 2.043822e+00 9.402725e-01 7.691306e-01 6.260610e-01 9.791750e-01 3.289269e-01 4.863516e-02
<VARIANCE> 25
 3.140163e+01 2.954164e+01 3.963823e+01 3.387171e+01 4.859209e+01 3.543229e+01 3.617554e+01 4.194749e+01 3.478104e+01 3.236646e+01 2.426725e+01 2.866353e+01 2.402090e+00 3.939875e+00 3.947216e+00 5.131491e+00 4.254891e+00 5.032862e+00 4.779084e+00 4.642916e+00 4.449388e+00 4.923424e+00 4.454966e+00 3.247879e+00 2.047313e-03
<GCONST> 9.931590e+01
<MIXTURE> 39 9.501865e-03
<MEAN> 25
 1.350660e+00 2.569212e+00 9.733979e+00 -9.240602e+00 -1.101233e+01 -1.296608e+00 -3.195366e+00 -6.695497e+00 -4.498200e+00 7.933951e-01 -3.591724e+00 -2.550932e+00 -6.994547e-01 1.498050e+00 1.616194e+00 -1.403250e+00 7.085820e-02 1.200617e+00 -1.199457e+00 -1.259552e+00 3.455561e-01 4.843840e-01 -4.752457e-01 1.209484e-01 9.610478e-04
<VARIANCE> 25
 8.631783e+00 2.909316e+01 3.684102e+01 3.745297e+01 3.807547e+01 4.486769e+01 4.490738e+01 3.320660e+01 3.826050e+01 3.231813e+01 3.520675e+01 3.101159e+01 6.933669e-01 1.510440e+00 1.485647e+00 2.842484e+00 2.354239e+00 2.746132e+00 2.973963e+00 2.662955e+00 2.587111e+00 2.595941e+00 2.080967e+00 2.006867e+00 1.156100e-03
<GCONST> 8.956254e+01
<MIXTURE> 40 1.030800e-02
<MEAN> 25
 -7.888234e+00 1.864701e+00 -5.198212e-01 7.018186e+00 3.233662e+00 5.119552e+00 4.391438e+00 3.996298e+00 4.009765e+00 4.245983e+00 5.216269e+00 1.279699e+00 -1.179770e-01 -2.059695e-01 -6.924429e-03 -2.073186e-01 -4.471321e-02 -6.414632e-02 9.188171e-02 9.430730e-02 -7.228313e-03 4.989967e-02 4.759794e-02 -2.380346e-02 5.792915e-03
<VARIANCE> 25
 4.482188e+01 1.851777e+01 2.692715e+01 2.955139e+01 2.444714e+01 1.865618e+01 2.228246e+01 1.754935e+01 1.855954e+01 1.781452e+01 1.779295e+01 1.747586e+01 7.122873e-01 7.057601e-01 8.859058e-01 1.064723e+00 1.089860e+00 1.182493e+00 1.235310e+00 1.169137e+00 1.242061e+00 1.294308e+00 1.107577e+00 1.240569e+00 8.402473e-04
<GCONST> 7.656548e+01
<MIXTURE> 41 6.713375e-03
<MEAN> 25
 1.283638e+00 1.770902e+00 1.036415e+01 -6.939805e+00 -1.041438e+01 -3.986789e+00 -2.495740e+00 -5.040240e+00 -4.652672e+00 2.633975e+00 -1.736049e+00 -9.283819e-01 8.072058e-02 -7.357829e-01 1.692910e+00 -3.533757e+00 -2.468332e+00 -1.689671e-01 -4.937394e-01 -3.924561e-01 -7.992510e-01 1.065220e+00 -1.029463e+00 1.000001e-01 8.603732e-02
<VARIANCE> 25
 1.166981e+01 2.941157e+01 3.366143e+01 3.973417e+01 3.881200e+01 4.178098e+01 3.710004e+01 2.972914e+01 3.339211e+01 2.864631e+01 3.159745e+01 2.707488e+01 3.149909e+00 3.348002e+00 3.799016e+00 3.827757e+00 4.871436e+00 6.225448e+00 4.702743e+00 4.673012e+00 4.038792e+00 4.229711e+00 3.828220e+00 3.236274e+00 2.911805e-03
<GCONST> 9.804649e+01
<MIXTURE> 42 1.106211e-02
<MEAN> 25
 -1.895585e+00 4.222745e+00 4.060866e+00 2.383850e+00 3.768927e-02 -6.920971e+00 -1.363467e+00 -2.002778e+00 -1.951512e+00 -1.168871e+00 -2.206887e+00 1.176187e+00 3.897507e+00 -1.894515e-01 1.545179e+00 1.092492e-01 -2.966289e+00 -1.555893e+00 -2.104426e+00 -1.077571e+00 -6.410141e-01 -7.467822e-01 5.605403e-01 -8.359500e-01 1.263954e-02
<VARIANCE> 25
 3.381989e+01 2.100432e+01 4.770554e+01 2.726962e+01 3.723311e+01 4.285690e+01 3.684480e+01 2.679339e+01 3.088210e+01 2.647948e+01 1.931513e+01 1.793365e+01 4.217887e+00 4.853820e+00 5.722143e+00 4.539197e+00 4.377794e+00 7.964488e+00 5.184730e+00 5.952936e+00 5.024809e+00 4.595444e+00 3.947264e+00 3.891450e+00 4.370480e-03
<GCONST> 1.002033e+02
<MIXTURE> 43 7.108249e-03
<MEAN> 25
 2.748654e+00 -5.393570e+00 -3.578451e+00 -5.119979e+00 -6.220299e+00 -4.140014e+00 3.688309e+00 4.972114e-01 -4.426196e+00 -7.097547e+00 -4.522236e+00 -1.963477e+00 3.660515e-01 1.997874e+00 1.902310e+00 -1.963104e-01 -1.515984e+00 -7.448373e-01 -1.360155e+00 -9.838643e-01 5.968728e-01 1.611934e+00 3.283012e-01 -1.748214e-01 -4.772031e-02
<VARIANCE> 25
 9.808018e+00 2.269745e+01 3.662594e+01 3.100511e+01 4.232977e+01 3.695910e+01 3.264634e+01 4.004889e+01 3.721532e+01 3.443305e+01 2.398127e+01 2.913215e+01 7.158939e-01 1.268202e+00 1.456729e+00 2.272264e+00 2.151254e+00 2.141982e+00 3.355836e+00 2.971869e+00 2.660279e+00 2.437673e+00 2.079634e+00 1.931587e+00 8.922151e-04
<GCONST> 8.778951e+01
<MIXTURE> 44 7.328289e-03
<MEAN> 25
 -1.361024e+01 1.334743e+00 3.404344e+00 -2.860375e+00 3.026927e+00 2.161322e+00 -2.065195e-01 2.288495e+00 1.276633e+00 -1.691494e-01 1.814516e+00 1.663632e+00 -1.746690e-01 3.336802e-02 2.114889e-01 3.062840e-01 -3.297463e-02 2.418937e-01 4.187961e-01 1.372090e-01 2.813390e-01 1.522918e-01 2.746492e-02 5.905634e-02 5.856223e-03
<VARIANCE> 25
 5.556193e+01 2.633161e+01 3.164899e+01 2.823597e+01 2.716881e+01 2.733662e+01 2.442996e+01 2.962691e+01 2.582879e+01 2.761984e+01 2.478417e+01 2.022730e+01 1.145591e+00 1.428650e+00 1.348099e+00 1.235288e+00 2.022042e+00 1.602246e+00 1.440652e+00 1.540493e+00 1.577416e+00 1.438569e+00 1.286830e+00 1.270859e+00 1.278394e-03
<GCONST> 8.363707e+01
<MIXTURE> 45 1.364932e-02
<MEAN> 25
 -1.160026e+01 3.124198e+00 -1.267805e+00 2.965624e+00 5.250908e+00 1.984787e-02 4.331292e+00 2.753971e+00 3.056301e+00 2.055095e+00 1.987265e+00 2.329976e+00 -2.836190e+00 4.648862e-01 -5.573633e-01 -4.384678e-01 1.572362e-01 -1.345795e-01 3.760058e-01 4.294690e-02 -1.001552e-01 -8.270483e-02 1.996888e-01 1.019508e-01 1.184959e-01
<VARIANCE> 25
 4.069907e+01 2.998544e+01 2.986698e+01 3.560740e+01 3.202982e+01 2.850563e+01 3.004678e+01 2.499734e+01 2.464293e+01 2.224176e+01 3.027338e+01 1.553411e+01 2.561866e+00 3.092012e+00 2.895134e+00 2.723611e+00 2.421014e+00 2.690884e+00 2.253931e+00 2.169578e+00 2.048657e+00 2.025112e+00 2.019286e+00 1.667988e+00 3.909945e-03
<GCONST> 9.060998e+01
<MIXTURE> 46 9.336259e-03
<MEAN> 25
 -9.449828e+00 2.312148e+00 1.205686e+00 7.559253e+00 5.924142e+00 3.353149e+00 7.059985e+00 4.492000e+00 5.688699e+00 4.692157e+00 5.042766e+00 2.933969e+00 1.055982e+00 -2.415703e-01 3.914029e-02 1.000478e+00 6.061935e-01 9.398871e-01 3.853606e-01 6.739522e-01 4.692467e-01 5.067441e-01 6.391495e-01 5.268097e-01 -1.054195e-01
<VARIANCE> 25
 3.426257e+01 4.378007e+01 3.846748e+01 4.989136e+01 5.089436e+01 4.085992e+01 3.707876e+01 3.530643e+01 3.325708e+01 3.090205e+01 2.819990e+01 2.031776e+01 3.913791e+00 4.136109e+00 3.878178e+00 4.131504e+00 4.170314e+00 3.701806e+00 3.375509e+00 3.108902e+00 2.983057e+00 2.861547e+00 2.306355e+00 1.793658e+00 7.965220e-03
<GCONST> 9.830020e+01
<MIXTURE> 47 7.116147e-03
<MEAN> 25
 6.809370e+00 -6.984742e+00 -7.826180e+00 -6.534383e+00 1.595694e+00 5.585782e-01 -2.296153e+00 8.764069e-01 2.554919e+00 -1.107346e-01 -4.184952e+00 -6.517334e+00 -2.224338e-01 -1.207761e+00 -7.239202e-01 -3.497786e-01 6.598888e-01 8.372297e-01 9.058537e-01 3.020452e-01 8.021546e-02 -8.311759e-01 -4.986947e-01 -4.714051e-01 3.041253e-02
<VARIANCE> 25
 1.378720e+01 2.432686e+01 2.075154e+01 3.184481e+01 3.415550e+01 5.371365e+01 4.442197e+01 4.323187e+01 4.520832e+01 4.638228e+01 4.725831e+01 3.303250e+01 5.234488e-01 8.238996e-01 1.086926e+00 1.721092e+00 1.930112e+00 2.098834e+00 2.206897e+00 2.436250e+00 2.199721e+00 2.088956e+00 2.130099e+00 1.967264e+00 5.364774e-04
<GCONST> 8.662556e+01
<MIXTURE> 48 7.116147e-03
<MEAN> 25
 6.809370e+00 -6.984742e+00 -7.826180e+00 -6.534383e+00 1.595694e+00 5.585782e-01 -2.296153e+00 8.764069e-01 2.554919e+00 -1.107346e-01 -4.184952e+00 -6.517334e+00 -2.224338e-01 -1.207761e+00 -7.239202e-01 -3.497786e-01 6.598888e-01 8.372297e-01 9.058537e-01 3.020452e-01 8.021546e-02 -8.311759e-01 -4.986947e-01 -4.714051e-01 3.041253e-02
<VARIANCE> 25
 1.378720e+01 2.432686e+01 2.075154e+01 3.184481e+01 3.415550e+01 5.371365e+01 4.442197e+01 4.323187e+01 4.520832e+01 4.638228e+01 4.725831e+01 3.303250e+01 5.234488e-01 8.238996e-01 1.086926e+00 1.721092e+00 1.930112e+00 2.098834e+00 2.206897e+00 2.436250e+00 2.199721e+00 2.088956e+00 2.130099e+00 1.967264e+00 5.364774e-04
<GCONST> 8.662556e+01
<MIXTURE> 49 5.548473e-03
<MEAN> 25
 -5.051994e+00 3.495809e-01 1.863991e-01 8.399892e+00 6.115429e+00 5.597215e+00 6.035955e+00 4.485026e+00 5.020450e+00 3.727162e+00 4.912119e+00 2.857284e+00 3.641546e-01 6.523373e-01 6.986089e-01 3.545072e-01 -1.951831e-01 -6.676208e-01 -1.007837e+00 -1.122114e+00 -9.551343e-01 -6.852397e-01 -4.936711e-01 -2.730306e-01 -2.285781e-05
<VARIANCE> 25
 9.743569e+00 9.997042e+00 1.423475e+01 1.626892e+01 1.600623e+01 1.715715e+01 1.951077e+01 1.934846e+01 1.818873e+01 1.788486e+01 2.060991e+01 1.428154e+01 2.798381e-01 2.648378e-01 3.617187e-01 6.126460e-01 8.660553e-01 9.732519e-01 9.975540e-01 1.057680e+00 1.136233e+00 1.224714e+00 1.276841e+00 1.204959e+00 1.445020e-05
<GCONST> 6.437936e+01
<MIXTURE> 50 6.234641e-03
<MEAN> 25
 -3.734804e+00 2.765279e-01 -9.188619e-01 5.654795e+00 3.772923e+00 2.428681e+00 3.376565e+00 2.198684e+00 2.576998e+00 1.273301e+00 1.915724e+00 2.658928e+00 5.364681e-02 1.337350e-01 7.687366e-02 -2.640178e-01 -5.589680e-01 -6.320820e-01 -3.456988e-01 -7.033983e-02 3.259165e-01 8.062795e-01 8.192769e-01 4.320326e-01 1.204631e-04
<VARIANCE> 25
 1.432751e+01 9.980073e+00 1.469047e+01 1.571073e+01 1.502475e+01 1.709747e+01 1.783120e+01 1.849796e+01 1.706237e+01 1.691703e+01 1.998245e+01 1.396559e+01 1.292534e-01 2.283723e-01 3.616022e-01 5.523517e-01 6.001071e-01 6.750954e-01 9.621754e-01 1.100910e+00 1.142722e+00 9.302037e-01 9.073193e-01 9.111114e-01 1.331115e-06
<GCONST> 5.935685e+01
<MIXTURE> 51 6.234641e-03
<MEAN> 25
 -3.734804e+00 2.765279e-01 -9.188619e-01 5.654795e+00 3.772923e+00 2.428681e+00 3.376565e+00 2.198684e+00 2.576998e+00 1.273301e+00 1.915724e+00 2.658928e+00 5.364681e-02 1.337350e-01 7.687366e-02 -2.640178e-01 -5.589680e-01 -6.320820e-01 -3.456988e-01 -7.033983e-02 3.259165e-01 8.062795e-01 8.192769e-01 4.320326e-01 1.204631e-04
<VARIANCE> 25
 1.432751e+01 9.980073e+00 1.469047e+01 1.571073e+01 1.502475e+01 1.709747e+01 1.783120e+01 1.849796e+01 1.706237e+01 1.691703e+01 1.998245e+01 1.396559e+01 1.292534e-01 2.283723e-01 3.616022e-01 5.523517e-01 6.001071e-01 6.750954e-01 9.621754e-01 1.100910e+00 1.142722e+00 9.302037e-01 9.073193e-01 9.111114e-01 1.331115e-06
<GCONST> 5.935685e+01
<MIXTURE> 52 6.367945e-03
<MEAN> 25
 1.010845e+01 2.053963e+00 -6.206101e+00 -1.427492e+01 -4.212193e+00 8.520688e+00 -2.753325e+00 -3.076756e+00 -4.416252e+00 -2.138366e+00 3.337166e+00 7.343472e-01 -3.854138e-01 -4.811081e-01 -6.975275e-02 1.142294e+00 1.340046e+00 -4.717838e-01 -6.026125e-01 -6.585041e-01 4.069252e-02 1.244467e+00 3.857670e-01 -5.457349e-01 -1.377638e-02
<VARIANCE> 25
 9.437787e+00 2.047870e+01 2.540807e+01 3.862914e+01 4.573612e+01 3.087975e+01 4.648070e+01 4.906996e+01 4.304980e+01 4.600623e+01 4.012027e+01 3.007993e+01 4.490224e-01 1.479395e+00 1.310139e+00 2.758045e+00 2.326249e+00 2.199869e+00 2.982183e+00 2.796413e+00 3.007035e+00 2.666200e+00 2.520128e+00 2.274764e+00 1.545153e-03
<GCONST> 8.975665e+01
<MIXTURE> 53 6.367945e-03
<MEAN> 25
 1.010845e+01 2.053963e+00 -6.206101e+00 -1.427492e+01 -4.212193e+00 8.520688e+00 -2.753325e+00 -3.076756e+00 -4.416252e+00 -2.138366e+00 3.337166e+00 7.343472e-01 -3.854138e-01 -4.811081e-01 -6.975275e-02 1.142294e+00 1.340046e+00 -4.717838e-01 -6.026125e-01 -6.585041e-01 4.069252e-02 1.244467e+00 3.857670e-01 -5.457349e-01 -1.377638e-02
<VARIANCE> 25
 9.437787e+00 2.047870e+01 2.540807e+01 3.862914e+01 4.573612e+01 3.087975e+01 4.648070e+01 4.906996e+01 4.304980e+01 4.600623e+01 4.012027e+01 3.007993e+01 4.490224e-01 1.479395e+00 1.310139e+00 2.758045e+00 2.326249e+00 2.199869e+00 2.982183e+00 2.796413e+00 3.007035e+00 2.666200e+00 2.520128e+00 2.274764e+00 1.545153e-03
<GCONST> 8.975665e+01
<MIXTURE> 54 7.368620e-03
<MEAN> 25
 -3.489292e+00 2.927448e-02 -6.101564e-01 7.820714e+00 6.271501e+00 4.550715e+00 4.591547e+00 4.689601e+00 4.106420e+00 3.612339e+00 4.417083e+00 2.232281e+00 -5.772537e-04 2.260489e-02 4.180497e-02 3.683079e-02 4.384007e-02 8.637721e-03 3.211524e-02 -1.206022e-02 -4.353057e-03 5.704275e-02 1.916972e-02 -4.176479e-03 -2.837441e-05
<VARIANCE> 25
 9.513906e+00 1.006386e+01 9.199691e+00 1.904117e+01 1.427448e+01 1.329900e+01 1.181290e+01 1.122446e+01 1.111351e+01 1.317334e+01 1.733375e+01 1.242210e+01 3.975979e-02 8.514876e-02 1.522596e-01 2.233312e-01 3.003127e-01 4.303024e-01 4.547190e-01 5.611296e-01 5.645794e-01 5.366904e-01 5.077886e-01 5.020460e-01 9.844613e-07
<GCONST> 4.729280e+01
<MIXTURE> 55 7.368620e-03
<MEAN> 25
 -3.489292e+00 2.927448e-02 -6.101564e-01 7.820714e+00 6.271501e+00 4.550715e+00 4.591547e+00 4.689601e+00 4.106420e+00 3.612339e+00 4.417083e+00 2.232281e+00 -5.772537e-04 2.260489e-02 4.180497e-02 3.683079e-02 4.384007e-02 8.637721e-03 3.211524e-02 -1.206022e-02 -4.353057e-03 5.704275e-02 1.916972e-02 -4.176479e-03 -2.837441e-05
<VARIANCE> 25
 9.513906e+00 1.006386e+01 9.199691e+00 1.904117e+01 1.427448e+01 1.329900e+01 1.181290e+01 1.122446e+01 1.111351e+01 1.317334e+01 1.733375e+01 1.242210e+01 3.975979e-02 8.514876e-02 1.522596e-01 2.233312e-01 3.003127e-01 4.303024e-01 4.547190e-01 5.611296e-01 5.645794e-01 5.366904e-01 5.077886e-01 5.020460e-01 9.844613e-07
<GCONST> 4.729280e+01
<MIXTURE> 56 6.132464e-03
<MEAN> 25
 7.518287e+00 -6.736849e+00 -9.153760e+00 -8.646947e+00 3.957093e+00 3.887359e+00 -2.169779e+00 -1.496166e+00 1.931162e+00 6.206731e-01 -2.487581e+00 -7.136566e+00 -1.063250e-02 2.450937e-02 -8.965364e-02 3.007956e-02 2.602348e-01 6.857051e-02 1.144002e-01 -1.370787e-01 -4.883256e-02 -3.574227e-02 -8.699331e-02 1.536340e-02 -7.011130e-03
<VARIANCE> 25
 9.624228e+00 2.353503e+01 2.015706e+01 4.118096e+01 3.302734e+01 5.131382e+01 6.172872e+01 3.698738e+01 3.900975e+01 3.798248e+01 4.019838e+01 3.105745e+01 2.057265e-01 4.334644e-01 4.568564e-01 7.896408e-01 7.959981e-01 1.112414e+00 9.082288e-01 9.051067e-01 9.116039e-01 9.276438e-01 1.035842e+00 7.840721e-01 2.402937e-04
<GCONST> 7.522681e+01
<MIXTURE> 57 6.132464e-03
<MEAN> 25
 7.518287e+00 -6.736849e+00 -9.153760e+00 -8.646947e+00 3.957093e+00 3.887359e+00 -2.169779e+00 -1.496166e+00 1.931162e+00 6.206731e-01 -2.487581e+00 -7.136566e+00 -1.063250e-02 2.450937e-02 -8.965364e-02 3.007956e-02 2.602348e-01 6.857051e-02 1.144002e-01 -1.370787e-01 -4.883256e-02 -3.574227e-02 -8.699331e-02 1.536340e-02 -7.011130e-03
<VARIANCE> 25
 9.624228e+00 2.353503e+01 2.015706e+01 4.118096e+01 3.302734e+01 5.131382e+01 6.172872e+01 3.698738e+01 3.900975e+01 3.798248e+01 4.019838e+01 3.105745e+01 2.057265e-01 4.334644e-01 4.568564e-01 7.896408e-01 7.959981e-01 1.112414e+00 9.082288e-01 9.051067e-01 9.116039e-01 9.276438e-01 1.035842e+00 7.840721e-01 2.402937e-04
<GCONST> 7.522681e+01
<MIXTURE> 58 6.172147e-03
<MEAN> 25
 2.385587e+00 -2.457435e+00 6.626956e+00 -4.851766e+00 -1.269955e+01 -6.047969e+00 1.745895e+00 2.687897e-01 -1.861607e+00 1.449616e+00 6.743925e-01 -6.681349e-01 -1.528248e-02 -5.457354e-02 -7.495702e-02 -1.578172e-01 -5.779344e-02 2.874641e-01 3.295675e-01 2.261511e-01 1.002099e-01 1.743783e-02 -8.999719e-02 -1.569016e-01 -2.451323e-03
<VARIANCE> 25
 6.877141e+00 1.675625e+01 2.208755e+01 2.625982e+01 2.877759e+01 5.772863e+01 3.018936e+01 3.746460e+01 3.271085e+01 3.014362e+01 2.096333e+01 2.018257e+01 2.946304e-01 8.916947e-01 7.806174e-01 9.529828e-01 9.204616e-01 1.233569e+00 1.085286e+00 1.186631e+00 1.042258e+00 1.065321e+00 8.360649e-01 8.339905e-01 7.055741e-04
<GCONST> 7.567957e+01
<MIXTURE> 59 6.172147e-03
<MEAN> 25
 2.385587e+00 -2.457435e+00 6.626956e+00 -4.851766e+00 -1.269955e+01 -6.047969e+00 1.745895e+00 2.687897e-01 -1.861607e+00 1.449616e+00 6.743925e-01 -6.681349e-01 -1.528248e-02 -5.457354e-02 -7.495702e-02 -1.578172e-01 -5.779344e-02 2.874641e-01 3.295675e-01 2.261511e-01 1.002099e-01 1.743783e-02 -8.999719e-02 -1.569016e-01 -2.451323e-03
<VARIANCE> 25
 6.877141e+00 1.675625e+01 2.208755e+01 2.625982e+01 2.877759e+01 5.772863e+01 3.018936e+01 3.746460e+01 3.271085e+01 3.014362e+01 2.096333e+01 2.018257e+01 2.946304e-01 8.916947e-01 7.806174e-01 9.529828e-01 9.204616e-01 1.233569e+00 1.085286e+00 1.186631e+00 1.042258e+00 1.065321e+00 8.360649e-01 8.339905e-01 7.055741e-04
<GCONST> 7.567957e+01
<MIXTURE> 60 4.479129e-03
<MEAN> 25
 -2.013129e+00 -1.182295e-02 2.969725e-01 3.014969e+00 1.263601e+00 2.387524e+00 1.156336e+00 1.544183e+00 1.851438e+00 1.027880e+00 1.748529e+00 1.264372e+00 -6.688380e-03 2.671321e-02 1.072957e-01 1.147853e-01 7.478278e-02 1.693226e-01 3.143983e-01 3.776079e-01 5.275003e-01 6.095865e-01 5.489370e-01 3.397126e-01 -3.095774e-04
<VARIANCE> 25
 1.025401e+01 4.144441e+00 1.023112e+01 1.028999e+01 1.073401e+01 1.368023e+01 1.160370e+01 1.153063e+01 1.203119e+01 1.165000e+01 1.392256e+01 1.045436e+01 7.914335e-02 1.814300e-01 3.279032e-01 3.993151e-01 6.416408e-01 6.950936e-01 9.440989e-01 9.047422e-01 9.085965e-01 9.674339e-01 7.963276e-01 8.481290e-01 2.965685e-05
<GCONST> 5.597327e+01
<MIXTURE> 61 4.479129e-03
<MEAN> 25
 -2.013129e+00 -1.182295e-02 2.969725e-01 3.014969e+00 1.263601e+00 2.387524e+00 1.156336e+00 1.544183e+00 1.851438e+00 1.027880e+00 1.748529e+00 1.264372e+00 -6.688380e-03 2.671321e-02 1.072957e-01 1.147853e-01 7.478278e-02 1.693226e-01 3.143983e-01 3.776079e-01 5.275003e-01 6.095865e-01 5.489370e-01 3.397126e-01 -3.095774e-04
<VARIANCE> 25
 1.025401e+01 4.144441e+00 1.023112e+01 1.028999e+01 1.073401e+01 1.368023e+01 1.160370e+01 1.153063e+01 1.203119e+01 1.165000e+01 1.392256e+01 1.045436e+01 7.914335e-02 1.814300e-01 3.279032e-01 3.993151e-01 6.416408e-01 6.950936e-01 9.440989e-01 9.047422e-01 9.085965e-01 9.674339e-01 7.963276e-01 8.481290e-01 2.965685e-05
<GCONST> 5.597327e+01
<MIXTURE> 62 3.278034e-03
<MEAN> 25
 -4.596543e+00 1.315790e+00 1.294567e+00 7.921008e+00 5.568754e+00 4.885583e+00 5.080284e+00 3.982110e+00 4.987590e+00 3.990777e+00 5.002067e+00 3.302258e+00 -9.818369e-01 -1.141986e+00 -8.756831e-01 -2.921704e-01 4.111549e-01 9.444022e-01 1.435426e+00 1.491146e+00 1.440486e+00 1.451679e+00 1.007261e+00 6.708112e-01 -1.566925e-03
<VARIANCE> 25
 1.178885e+01 9.330076e+00 1.292556e+01 2.371306e+01 1.909645e+01 1.696424e+01 2.018884e+01 1.772265e+01 1.777486e+01 1.799958e+01 1.988528e+01 1.545932e+01 3.738190e-01 4.029938e-01 5.808705e-01 7.241180e-01 9.649569e-01 1.145746e+00 1.212687e+00 1.215123e+00 1.266352e+00 1.802126e+00 1.339879e+00 1.327574e+00 1.594575e-05
<GCONST> 6.761341e+01
<MIXTURE> 63 4.351215e-03
<MEAN> 25
 -3.031256e+00 -2.329495e+00 -2.839256e+00 1.865263e+00 2.628258e+00 6.417956e-01 1.916879e+00 1.581794e+00 1.918142e+00 -1.476847e-01 -4.939030e-01 1.674622e+00 -5.801798e-02 3.567846e-01 5.173681e-01 5.527306e-01 3.522282e-01 4.862958e-01 4.239690e-01 2.204683e-01 3.538175e-01 1.534586e-01 1.234144e-01 1.034043e-01 -4.502254e-03
<VARIANCE> 25
 9.007881e+00 1.458145e+01 1.982216e+01 1.457288e+01 1.496102e+01 2.174304e+01 1.909871e+01 2.197464e+01 2.023392e+01 2.000883e+01 1.582285e+01 1.462083e+01 2.440101e-01 4.100365e-01 6.426235e-01 6.618230e-01 9.309973e-01 1.022870e+00 1.238501e+00 1.393582e+00 1.338924e+00 1.375869e+00 1.167492e+00 1.130867e+00 2.435955e-04
<GCONST> 6.967110e+01
<MIXTURE> 64 4.351215e-03
<MEAN> 25
 -3.031256e+00 -2.329495e+00 -2.839256e+00 1.865263e+00 2.628258e+00 6.417956e-01 1.916879e+00 1.581794e+00 1.918142e+00 -1.476847e-01 -4.939030e-01 1.674622e+00 -5.801798e-02 3.567846e-01 5.173681e-01 5.527306e-01 3.522282e-01 4.862958e-01 4.239690e-01 2.204683e-01 3.538175e-01 1.534586e-01 1.234144e-01 1.034043e-01 -4.502254e-03
<VARIANCE> 25
 9.007881e+00 1.458145e+01 1.982216e+01 1.457288e+01 1.496102e+01 2.174304e+01 1.909871e+01 2.197464e+01 2.023392e+01 2.000883e+01 1.582285e+01 1.462083e+01 2.440101e-01 4.100365e-01 6.426235e-01 6.618230e-01 9.309973e-01 1.022870e+00 1.238501e+00 1.393582e+00 1.338924e+00 1.375869e+00 1.167492e+00 1.130867e+00 2.435955e-04
<GCONST> 6.967110e+01
<MIXTURE> 65 1.721197e-02
<MEAN> 25
 6.713678e+00 2.327603e+00 7.564663e-01 -5.937058e-01 -5.026311e+00 -5.357316e+00 -5.555786e+00 -7.321193e+00 -3.812217e+00 -2.602490e+00 -5.178038e+00 -2.601114e+00 1.343145e-01 1.564958e-01 -1.022753e-03 1.709781e-01 -1.985066e-02 3.577854e-01 -1.665329e-01 -2.208331e-01 -1.033891e-02 4.985257e-02 -7.968874e-02 -7.836102e-02 -3.614912e-03
<VARIANCE> 25
 1.448830e+01 1.652003e+01 3.153035e+01 3.891777e+01 3.926035e+01 6.891212e+01 5.223622e+01 5.344617e+01 5.408147e+01 4.910605e+01 4.945212e+01 4.855338e+01 5.101616e-01 1.040385e+00 1.668501e+00 2.022306e+00 2.009832e+00 1.956802e+00 2.207126e+00 2.598670e+00 2.605711e+00 2.255452e+00 2.211302e+00 1.874768e+00 4.299990e-04
<GCONST> 8.918305e+01
<MIXTURE> 66 1.191532e-02
<MEAN> 25
 6.443397e+00 -3.814588e+00 -5.769078e+00 -4.804830e+00 1.355311e+00 -5.287357e+00 -6.889360e+00 7.157367e-01 4.533955e-01 -2.128971e+00 -6.095140e+00 -3.665306e+00 -1.672425e-02 1.593986e+00 2.255927e+00 2.197364e+00 -1.242977e+00 -1.242620e+00 -1.120876e-01 -5.310760e-01 -2.310044e-01 -1.190674e-01 -1.464861e-01 9.812158e-01 -6.261528e-02
<VARIANCE> 25
 9.878677e+00 2.295905e+01 2.650309e+01 3.196551e+01 3.810509e+01 5.248634e+01 5.383050e+01 4.854821e+01 5.534371e+01 6.396849e+01 3.600492e+01 3.576068e+01 1.290921e+00 2.472187e+00 2.262319e+00 2.770715e+00 4.157889e+00 4.157050e+00 4.798676e+00 4.894556e+00 4.212528e+00 4.941043e+00 3.792341e+00 3.305778e+00 1.471280e-03
<GCONST> 9.695962e+01
<MIXTURE> 67 1.559142e-02
<MEAN> 25
 8.948618e+00 2.038231e+00 -5.998828e+00 -8.260663e+00 9.189665e-01 3.055174e+00 -3.327175e+00 -2.289648e+00 -3.806259e+00 7.667775e-01 -9.235661e-02 -1.753644e+00 -1.072625e+00 1.822341e+00 1.061253e+00 3.069655e+00 1.395340e+00 -5.084575e-01 1.295634e+00 1.255041e-01 1.495442e-01 2.495782e-01 -2.772166e-01 6.280257e-01 -1.294503e-01
<VARIANCE> 25
 1.177860e+01 3.874533e+01 3.081042e+01 5.578295e+01 4.910678e+01 5.409768e+01 6.187418e+01 5.322261e+01 6.491273e+01 5.696815e+01 5.599685e+01 4.733567e+01 2.172678e+00 3.481616e+00 3.299484e+00 4.507431e+00 4.511169e+00 4.551092e+00 4.714874e+00 5.080295e+00 5.470704e+00 4.764729e+00 5.123555e+00 3.739583e+00 3.109715e-03
<GCONST> 1.029632e+02
<MIXTURE> 68 1.485092e-02
<MEAN> 25
 -2.528256e+00 -2.249364e+00 -4.286080e+00 1.407338e+00 3.907380e+00 -1.190218e+00 1.791349e+00 1.791508e+00 1.403154e+00 1.928517e+00 1.058531e+00 2.348294e+00 2.581041e+00 6.455299e-01 7.761903e-03 -2.791033e+00 -2.098661e+00 -1.860468e+00 -2.033171e+00 -1.905467e+00 -1.354559e+00 -1.579709e+00 -1.545916e+00 -9.593774e-01 9.467490e-02
<VARIANCE> 25
 2.497441e+01 2.823405e+01 5.189735e+01 4.737751e+01 5.140668e+01 5.299134e+01 4.022976e+01 3.805965e+01 3.731140e+01 3.939737e+01 3.542790e+01 2.738624e+01 1.891558e+00 3.427077e+00 5.194273e+00 6.762782e+00 4.809361e+00 6.106141e+00 5.747265e+00 4.684919e+00 4.953629e+00 4.926844e+00 5.793540e+00 3.364698e+00 5.752306e-03
<GCONST> 1.028347e+02
<MIXTURE> 69 1.204884e-02
<MEAN> 25
 3.569401e+00 -3.646059e+00 -4.117537e+00 -4.248391e+00 -3.140412e+00 -8.199362e+00 -1.090493e+00 9.838172e-01 -5.083292e-01 -5.582126e+00 -4.966446e+00 7.675976e-01 1.496400e+00 -1.852965e+00 -1.307063e+00 -2.573999e+00 1.536543e-02 -4.290658e-01 -1.729058e-01 4.863576e-01 -5.381433e-01 -1.665242e+00 -1.818000e+00 -4.751584e-01 6.012043e-02
<VARIANCE> 25
 1.154492e+01 1.980216e+01 2.445510e+01 2.594671e+01 3.736926e+01 3.954990e+01 4.152718e+01 3.229647e+01 3.268538e+01 3.628840e+01 2.723148e+01 2.243164e+01 3.323981e+00 3.348811e+00 2.760723e+00 4.513736e+00 6.039129e+00 4.182765e+00 6.411435e+00 5.361192e+00 4.963584e+00 5.482665e+00 4.459632e+00 3.756510e+00 2.367315e-03
<GCONST> 9.760001e+01
<MIXTURE> 70 1.329190e-02
<MEAN> 25
 7.407125e+00 -1.967536e+00 -3.932041e+00 -3.688581e+00 -3.929746e-01 -8.224948e-01 -7.643830e+00 -4.068157e+00 5.219269e-01 2.775026e+00 -1.650928e-01 -4.916228e+00 1.896918e+00 -1.118793e+00 -7.961674e-01 -2.181052e+00 -1.493214e+00 1.149341e+00 -1.351491e+00 -9.670009e-02 2.909269e-01 -8.481988e-03 6.828975e-01 -1.434633e+00 5.766767e-02
<VARIANCE> 25
 1.031216e+01 2.256606e+01 2.798474e+01 4.655552e+01 3.478184e+01 4.519350e+01 4.905860e+01 4.409399e+01 4.639452e+01 3.277545e+01 4.426535e+01 2.723781e+01 3.522443e+00 3.207526e+00 4.806558e+00 4.904535e+00 5.198317e+00 6.375579e+00 6.812287e+00 7.462800e+00 6.142355e+00 5.328453e+00 5.796181e+00 4.255078e+00 2.646791e-03
<GCONST> 1.018035e+02
<MIXTURE> 71 1.406903e-02
<MEAN> 25
 5.661911e+00 4.933012e+00 2.911501e+00 2.097190e+00 -2.674949e+00 -3.614745e+00 -3.519311e+00 -7.141525e+00 -5.174007e+00 -2.354533e+00 -5.316409e+00 -3.482004e+00 -1.512557e+00 -6.307704e-01 -3.208680e-01 -1.427410e+00 1.150154e+00 -1.424184e-01 7.821044e-02 1.417692e+00 8.405224e-02 -2.197510e-01 4.915846e-01 2.936570e-01 3.966750e-02
<VARIANCE> 25
 2.053389e+01 2.383698e+01 3.571596e+01 5.083644e+01 4.347229e+01 3.795284e+01 3.848784e+01 4.195921e+01 4.087609e+01 3.996395e+01 3.479300e+01 3.217266e+01 1.651163e+00 2.924889e+00 5.524091e+00 5.322060e+00 4.397488e+00 4.658618e+00 4.806697e+00 5.438791e+00 4.193995e+00 3.719574e+00 3.841397e+00 3.104901e+00 1.363527e-03
<GCONST> 9.872645e+01
<MIXTURE> 72 8.134747e-03
<MEAN> 25
 3.790714e+00 -3.680549e+00 5.454544e+00 -2.468133e+00 -1.040513e+01 -9.628773e+00 -2.449694e+00 1.919342e+00 -4.940306e+00 -2.201715e+00 -1.886270e+00 6.172976e-01 9.324293e-01 -7.855321e-01 -2.576679e+00 4.631799e-01 2.136858e+00 -6.543407e-01 -1.317207e+00 1.525095e+00 1.814512e+00 -5.968360e-01 -1.288976e+00 4.024134e-01 -6.133864e-03
<VARIANCE> 25
 1.078870e+01 1.950731e+01 3.288108e+01 3.842569e+01 3.232870e+01 3.346693e+01 4.106343e+01 3.626309e+01 4.373008e+01 4.136406e+01 3.878942e+01 2.851208e+01 4.322569e-01 1.027788e+00 2.022249e+00 1.469597e+00 2.184156e+00 2.356753e+00 3.060830e+00 2.732224e+00 2.603085e+00 2.960678e+00 2.024475e+00 2.128670e+00 5.410166e-04
<GCONST> 8.726022e+01
<MIXTURE> 73 1.213625e-02
<MEAN> 25
 -4.402364e+00 -4.378402e-01 -1.239035e+00 3.515406e+00 2.808321e+00 2.305435e+00 4.434437e+00 3.457346e+00 3.202353e+00 3.583589e+00 3.765338e+00 3.000245e+00 7.919571e-01 -9.721501e-01 -9.002039e-01 -2.119478e+00 -8.258046e-01 -1.776318e+00 -8.101935e-01 -4.157725e-01 -5.137193e-01 -7.230472e-01 -1.280220e+00 -5.599027e-01 1.382147e-01
<VARIANCE> 25
 1.439254e+01 1.103996e+01 1.207889e+01 2.109405e+01 2.324200e+01 1.957908e+01 1.779997e+01 1.634311e+01 1.751924e+01 1.541818e+01 1.932063e+01 1.517555e+01 3.739933e+00 2.920845e+00 4.904762e+00 4.836504e+00 5.143342e+00 4.765662e+00 3.571877e+00 4.222526e+00 3.770838e+00 3.195189e+00 3.330317e+00 3.242915e+00 4.132242e-03
<GCONST> 9.047832e+01
<MIXTURE> 74 1.756491e-02
<MEAN> 25
 4.194376e+00 -8.849791e-01 4.528637e+00 -1.363012e+00 -9.126678e+00 -9.729672e+00 -2.357098e+00 -3.754460e-01 -3.153529e+00 -3.269004e+00 -1.288506e+00 6.852161e-01 3.261475e-01 1.957550e+00 -2.024562e-02 1.719546e+00 1.299041e+00 5.233885e-01 -2.428955e-01 -1.129519e+00 1.145936e-01 2.576154e-01 -2.616694e-01 -1.222529e-01 -7.763682e-02
<VARIANCE> 25
 1.150154e+01 2.429978e+01 3.898228e+01 3.563710e+01 3.546633e+01 5.362490e+01 4.803661e+01 5.325771e+01 5.214299e+01 4.230062e+01 3.907500e+01 3.344517e+01 1.908751e+00 1.902841e+00 3.624810e+00 2.394884e+00 3.720624e+00 3.877228e+00 5.211800e+00 4.287909e+00 3.878254e+00 3.762767e+00 3.333188e+00 2.910911e+00 1.676998e-03
<GCONST> 9.687711e+01
<MIXTURE> 75 9.711651e-03
<MEAN> 25
 2.653942e+00 -1.234761e+00 1.099828e+01 1.710527e+00 -1.182421e+01 -7.719331e+00 -4.554693e+00 -5.106865e-01 -4.482624e+00 -4.620742e+00 3.257340e+00 1.683977e-01 1.747423e+00 -1.757669e+00 2.019572e-01 -2.596360e-01 -2.405866e+00 -5.257758e-01 -1.455473e+00 9.572172e-01 -1.415265e-01 -3.560972e-01 1.079488e+00 -6.268703e-01 3.866452e-02
<VARIANCE> 25
 1.114662e+01 1.779760e+01 3.065800e+01 2.784970e+01 2.696522e+01 3.348267e+01 3.162789e+01 3.128933e+01 3.417539e+01 3.153016e+01 2.042323e+01 2.172775e+01 2.384971e+00 1.928088e+00 4.280638e+00 2.483886e+00 3.874335e+00 4.351311e+00 4.192580e+00 3.538722e+00 3.989469e+00 3.372643e+00 3.100286e+00 2.510416e+00 1.541694e-03
<GCONST> 9.235544e+01
<MIXTURE> 76 1.052359e-02
<MEAN> 25
 -4.495499e+00 -1.291869e+00 -1.378071e+00 3.085479e+00 2.368411e+00 2.555102e+00 2.712190e+00 1.795604e+00 1.702009e+00 8.431975e-01 1.029010e+00 2.008451e+00 -9.485874e-02 -6.352068e-01 -5.120757e-01 -8.465321e-01 -3.081096e-01 -1.056456e+00 -6.520604e-01 -2.074020e-01 -3.970263e-01 -2.995647e-01 -1.729526e-01 -1.593419e-03 2.989559e-02
<VARIANCE> 25
 2.964862e+01 2.217445e+01 2.415323e+01 2.281001e+01 2.277705e+01 2.804614e+01 2.427984e+01 2.119615e+01 2.264891e+01 1.629164e+01 2.800315e+01 2.358472e+01 9.934983e-01 9.158069e-01 1.188197e+00 1.406353e+00 1.323073e+00 1.773600e+00 1.470721e+00 1.399135e+00 1.482567e+00 1.350644e+00 1.401253e+00 1.554644e+00 1.794423e-03
<GCONST> 8.099709e+01
<MIXTURE> 77 1.244626e-02
<MEAN> 25
 -3.865877e-01 8.192073e+00 1.193829e+01 -1.105003e+01 -6.497749e+00 1.111803e+00 -8.989898e+00 -7.073580e+00 -3.491031e+00 -7.977042e-02 -4.438262e+00 -1.494352e+00 6.133604e-02 1.188355e-01 1.676054e-02 2.645108e-01 8.453604e-03 4.040999e-02 -6.608786e-02 -2.821544e-02 1.452984e-01 -4.328106e-02 4.318246e-02 1.100278e-01 -8.376595e-03
<VARIANCE> 25
 1.009782e+01 2.108112e+01 2.987244e+01 4.414663e+01 3.494291e+01 3.248201e+01 3.576077e+01 3.059356e+01 3.388970e+01 3.222924e+01 3.631034e+01 3.317802e+01 2.959212e-01 7.460842e-01 7.021153e-01 1.028844e+00 1.205546e+00 9.951138e-01 1.167307e+00 1.065004e+00 1.067329e+00 1.037257e+00 9.285806e-01 9.507318e-01 5.737711e-04
<GCONST> 7.769186e+01
<MIXTURE> 78 9.702551e-03
<MEAN> 25
 -1.139087e+01 1.093880e+00 -1.640497e+00 2.193198e+00 4.265822e+00 -2.125350e+00 3.725056e+00 2.655195e+00 2.507685e+00 7.954348e-01 -3.946302e-01 3.088261e+00 2.381095e+00 -2.851908e-01 1.635996e-01 5.529687e-01 -2.446597e-02 -2.237739e-02 -3.239452e-01 -8.421326e-02 2.511177e-01 1.357490e-01 -4.133163e-01 -5.091305e-01 -5.912813e-02
<VARIANCE> 25
 4.202770e+01 3.238608e+01 3.219701e+01 3.210231e+01 4.012476e+01 3.734045e+01 3.526929e+01 3.227674e+01 2.824021e+01 2.744313e+01 2.720164e+01 2.049712e+01 4.879066e+00 2.550504e+00 2.843928e+00 3.076101e+00 2.808747e+00 3.565582e+00 3.211179e+00 2.780299e+00 2.372323e+00 2.330848e+00 2.287506e+00 2.218514e+00 4.984840e-03
<GCONST> 9.464606e+01
<MIXTURE> 79 1.156824e-02
<MEAN> 25
 2.398775e+00 1.601665e+00 9.075143e+00 -6.590333e+00 -1.198897e+01 -1.846663e+00 -1.922738e+00 -6.512817e+00 -6.583264e+00 2.998515e-01 -3.533694e+00 -3.321185e+00 1.212025e+00 -5.235719e-01 -1.422411e+00 2.349652e+00 3.894095e-01 -1.455843e+00 5.295469e-01 8.790137e-01 -4.397386e-01 -5.412545e-01 3.537573e-01 2.836966e-01 -3.600942e-02
<VARIANCE> 25
 1.419511e+01 2.403200e+01 3.973789e+01 4.961762e+01 3.434758e+01 4.386036e+01 4.257369e+01 3.683359e+01 3.895230e+01 3.975930e+01 4.383854e+01 3.063161e+01 9.512240e-01 2.257110e+00 1.915257e+00 2.084080e+00 2.479321e+00 2.838863e+00 3.190787e+00 3.523197e+00 2.509411e+00 2.724494e+00 2.311730e+00 2.026790e+00 1.239697e-03
<GCONST> 9.188196e+01
<MIXTURE> 80 7.550998e-03
<MEAN> 25
 -1.460655e+01 3.981939e+00 6.881077e-01 2.865463e+00 2.448655e+00 1.410098e+00 6.395911e+00 2.497180e+00 2.718410e+00 2.374023e+00 4.852620e+00 1.186982e+00 4.285627e+00 -1.575477e-02 1.637609e+00 -1.135548e+00 -2.889097e+00 -2.778205e+00 -2.323071e+00 -2.021677e+00 -1.974680e+00 -1.684964e+00 -1.650457e+00 -6.026380e-01 -4.421512e-02
<VARIANCE> 25
 2.096758e+01 1.984900e+01 3.444045e+01 3.470223e+01 3.017879e+01 2.920427e+01 2.828707e+01 2.855153e+01 2.674843e+01 2.880696e+01 2.684996e+01 1.810943e+01 2.359416e+00 2.666487e+00 2.673335e+00 4.119580e+00 3.394212e+00 2.707351e+00 3.024858e+00 3.204575e+00 2.749698e+00 2.701535e+00 2.782912e+00 2.146020e+00 1.513296e-03
<GCONST> 9.140015e+01
<MIXTURE> 81 8.025434e-03
<MEAN> 25
 -1.074179e+00 4.080571e+00 9.754228e+00 -1.471067e+01 -8.852902e+00 -1.560385e+00 -6.730422e+00 -8.523833e+00 -4.220356e+00 -4.109793e-01 -7.501132e+00 -2.355266e+00 1.121678e-01 -5.484450e-01 -6.027867e-02 -5.340041e-01 -4.162766e-01 3.642961e-01 3.554359e-01 1.022755e-01 -1.714394e-01 8.516347e-02 -5.067805e-01 -1.024067e-01 1.193600e-02
<VARIANCE> 25
 1.000155e+01 3.206683e+01 3.302404e+01 2.904655e+01 3.490349e+01 3.086020e+01 4.453886e+01 2.812249e+01 3.729936e+01 3.119816e+01 2.498854e+01 3.088407e+01 7.746494e-01 2.289273e+00 1.704685e+00 2.846137e+00 2.698924e+00 2.124376e+00 3.297488e+00 2.288840e+00 2.352809e+00 2.524476e+00 2.332774e+00 2.055742e+00 1.167361e-03
<GCONST> 8.892270e+01
<MIXTURE> 82 8.213053e-03
<MEAN> 25
 -9.671176e+00 -3.830395e+00 1.469140e+00 -2.791342e+00 2.978568e+00 6.586461e-01 1.875150e+00 9.510113e-01 2.814579e+00 1.636696e+00 1.557248e+00 3.005631e+00 -1.272344e+00 -1.503823e-01 2.501545e-01 -2.534628e+00 -1.065141e+00 -1.276312e+00 -9.900803e-01 -8.497305e-01 -2.979403e-01 -5.046870e-01 -3.095575e-01 -9.135570e-02 1.759352e-01
<VARIANCE> 25
 2.001648e+01 2.464877e+01 3.218035e+01 3.232295e+01 3.257064e+01 3.183910e+01 3.097157e+01 3.194094e+01 3.046939e+01 2.470024e+01 3.122219e+01 1.733245e+01 3.702236e+00 3.023325e+00 3.268621e+00 3.423050e+00 3.504424e+00 3.294139e+00 2.888258e+00 3.030981e+00 2.710611e+00 2.439012e+00 2.465111e+00 1.846189e+00 3.505547e-03
<GCONST> 9.305027e+01
<MIXTURE> 83 1.167529e-02
<MEAN> 25
 -2.004081e+01 5.504238e+00 -1.789702e+00 -4.051103e-01 7.829639e+00 -1.234488e+00 5.460100e+00 3.044532e+00 1.192393e+00 2.190908e+00 7.244872e-01 2.881716e+00 -2.631321e-02 -4.501706e-01 4.872012e-03 -3.655977e-01 -4.974648e-01 -1.258521e-01 -1.343577e-01 -9.942717e-02 -4.144356e-02 -3.920248e-02 -3.058213e-02 -3.465528e-02 4.403248e-03
<VARIANCE> 25
 8.819281e+00 1.645402e+01 2.851271e+01 2.248555e+01 2.127508e+01 2.407955e+01 2.202746e+01 2.336420e+01 2.042958e+01 2.221887e+01 2.319599e+01 1.448780e+01 1.060910e+00 9.362046e-01 1.240790e+00 1.065688e+00 1.359398e+00 1.291389e+00 1.283447e+00 1.388157e+00 1.349015e+00 1.310737e+00 1.220778e+00 1.071650e+00 8.923843e-04
<GCONST> 7.703519e+01
<MIXTURE> 84 1.066614e-02
<MEAN> 25
 1.317894e+00 8.739482e+00 6.829404e+00 7.965391e+00 2.782205e+00 -7.728893e-01 -1.548790e+00 -4.380571e+00 -3.866389e+00 -2.882968e+00 -1.877396e+00 -1.286855e+00 -1.641754e+00 -1.278636e+00 -1.029589e+00 1.276013e+00 2.307424e+00 1.798195e+00 1.291638e+00 1.341956e+00 9.223464e-01 3.213398e-01 2.791421e-01 2.340027e-01 -7.348899e-02
<VARIANCE> 25
 2.207849e+01 1.794622e+01 2.219087e+01 2.252846e+01 2.726997e+01 2.672141e+01 2.600824e+01 2.482420e+01 2.429593e+01 2.351731e+01 2.545221e+01 2.407208e+01 2.213705e+00 2.470385e+00 3.958281e+00 3.075553e+00 3.092947e+00 4.233431e+00 3.375556e+00 3.204567e+00 3.986938e+00 3.103325e+00 3.568452e+00 3.077528e+00 3.334192e-03
<GCONST> 9.233061e+01
<MIXTURE> 85 7.591393e-03
<MEAN> 25
 -3.068451e+00 7.808984e+00 5.593285e+00 1.210981e+00 -3.468669e+00 -5.431026e+00 -3.026801e+00 -6.116514e+00 -3.552409e+00 -3.165601e+00 -4.950736e-01 -1.918681e+00 3.905324e+00 3.373526e-01 1.761641e+00 -2.081032e+00 -3.406297e+00 -2.605079e+00 -2.873402e+00 -2.355301e+00 -2.223049e+00 -1.245378e+00 -2.262129e+00 -5.993821e-01 9.192204e-03
<VARIANCE> 25
 4.218788e+01 2.373445e+01 3.751490e+01 3.823663e+01 3.934651e+01 4.171569e+01 3.199751e+01 2.773018e+01 2.668529e+01 2.594691e+01 2.597972e+01 2.069023e+01 2.791124e+00 4.294451e+00 4.016096e+00 5.132153e+00 4.370014e+00 4.035500e+00 3.894036e+00 3.993551e+00 3.905124e+00 4.057778e+00 4.027531e+00 3.513417e+00 5.424395e-03
<GCONST> 9.846259e+01
<MIXTURE> 86 1.273941e-02
<MEAN> 25
 -3.316388e+00 -9.686731e-01 2.506172e-01 4.973812e+00 3.870866e+00 4.085546e+00 4.472015e+00 4.148486e+00 4.504439e+00 4.113448e+00 4.707472e+00 2.717663e+00 -2.746471e-03 -5.814523e-02 -8.502701e-02 -9.748951e-02 -1.484741e-01 -2.162608e-01 -3.151375e-01 -4.633523e-01 -3.516315e-01 -3.633881e-01 -3.003877e-01 -1.089819e-01 -1.142006e-03
<VARIANCE> 25
 1.142532e+01 4.527108e+00 1.030896e+01 1.542430e+01 1.556030e+01 1.214855e+01 1.280750e+01 1.213873e+01 1.219557e+01 1.383571e+01 1.238499e+01 1.114856e+01 1.000432e-01 1.928154e-01 3.057112e-01 5.687908e-01 7.184833e-01 6.961541e-01 8.936641e-01 7.500560e-01 8.589920e-01 8.425736e-01 9.165603e-01 9.280789e-01 5.922285e-05
<GCONST> 5.829667e+01
<MIXTURE> 87 1.100681e-02
<MEAN> 25
 -3.034378e+00 3.680631e+00 2.592183e+00 6.733308e+00 4.678860e+00 3.886358e-01 1.345758e+00 -6.540147e-01 -7.722507e-01 -8.598651e-01 -1.195212e+00 -1.504682e-01 -2.242882e+00 -2.692450e+00 -2.214675e+00 -1.736259e+00 -1.701698e-01 -4.121450e-01 4.339645e-01 1.165183e+00 1.050617e+00 8.505273e-01 5.756023e-01 9.937284e-01 1.072474e-01
<VARIANCE> 25
 3.636192e+01 3.090486e+01 3.055464e+01 3.778985e+01 2.930481e+01 3.151324e+01 2.485798e+01 2.455678e+01 2.366053e+01 2.159920e+01 2.864447e+01 2.077460e+01 3.675153e+00 2.420921e+00 3.572055e+00 4.818683e+00 4.293376e+00 4.250341e+00 3.893247e+00 3.630838e+00 3.711296e+00 3.104973e+00 3.972625e+00 2.620881e+00 4.363710e-03
<GCONST> 9.582745e+01
<MIXTURE> 88 1.256585e-02
<MEAN> 25
 -3.053993e+00 -9.111491e-01 -3.653958e-01 3.988323e+00 3.160237e+00 3.417145e+00 2.857405e+00 3.087218e+00 2.672793e+00 2.252115e+00 2.468082e+00 1.650527e+00 -6.737363e-02 1.971597e-01 3.122953e-01 3.050446e-01 3.069019e-01 1.825258e-01 -9.726368e-02 -8.112887e-02 -2.258055e-01 -6.575906e-02 -5.533953e-02 -9.567165e-02 7.570776e-04
<VARIANCE> 25
 9.249084e+00 1.007944e+01 1.353957e+01 1.479116e+01 1.862709e+01 1.724155e+01 2.420374e+01 1.623314e+01 1.608888e+01 1.643834e+01 1.734131e+01 1.657843e+01 1.203106e+00 1.278905e+00 1.722336e+00 1.772967e+00 2.032647e+00 2.284448e+00 2.160266e+00 2.186107e+00 2.243802e+00 2.292394e+00 1.847744e+00 1.917388e+00 1.544178e-03
<GCONST> 7.983053e+01
<MIXTURE> 89 9.333527e-03
<MEAN> 25
 5.179557e+00 -6.128612e+00 -3.619614e+00 -2.622346e+00 -5.532216e-01 -6.075904e+00 -6.432575e+00 3.620272e+00 1.677163e+00 -3.100220e+00 -6.206633e+00 -3.059604e+00 -6.424375e-01 1.102995e-01 2.058846e+00 8.901625e-01 -1.915951e+00 -1.738996e+00 6.429641e-01 1.467127e+00 -8.888910e-01 -1.302070e+00 5.411992e-01 1.511784e+00 -5.108696e-03
<VARIANCE> 25
 1.555003e+01 2.852118e+01 2.869202e+01 2.999789e+01 4.451112e+01 4.181334e+01 5.641710e+01 4.132966e+01 6.663903e+01 3.934879e+01 3.323560e+01 2.992202e+01 3.657716e-01 7.875494e-01 1.447967e+00 1.203580e+00 1.864247e+00 2.025002e+00 2.845692e+00 2.229516e+00 2.156892e+00 1.952822e+00 2.282485e+00 1.348307e+00 3.357891e-04
<GCONST> 8.590662e+01
<MIXTURE> 90 7.114505e-03
<MEAN> 25
 2.323545e+00 -9.477960e+00 -4.581812e+00 -3.811615e+00 -3.191119e+00 -1.733577e+00 3.180156e+00 1.236425e+00 -7.448902e+00 -9.926174e+00 -3.444293e+00 -8.197371e-01 -1.712664e-01 8.988999e-01 1.112729e+00 -8.318796e-01 -1.605623e+00 -3.001521e-01 5.687779e-01 -2.266261e-01 -2.313803e-01 7.552092e-01 1.923785e-01 -5.501150e-01 -1.150583e-02
<VARIANCE> 25
 8.681718e+00 1.846764e+01 2.007775e+01 2.755034e+01 3.608788e+01 3.241587e+01 3.841546e+01 3.567201e+01 3.663871e+01 2.834598e+01 2.587995e+01 2.529707e+01 2.207126e-01 6.294753e-01 8.679543e-01 1.017427e+00 1.458885e+00 1.746534e+00 1.835597e+00 1.626845e+00 1.894142e+00 1.642489e+00 1.442567e+00 1.258991e+00 2.141550e-04
<GCONST> 7.827109e+01
<MIXTURE> 91 7.852945e-03
<MEAN> 25
 5.693651e+00 -7.184374e+00 -8.649267e+00 -5.101489e+00 4.013327e+00 -4.777633e-01 -1.615957e+00 8.331788e-01 7.796387e-01 -3.371521e+00 -4.766270e+00 -5.133928e+00 2.773288e-01 1.027689e+00 1.714887e-01 4.788121e-01 -1.461334e-01 -6.306431e-01 -5.106789e-01 -2.107155e-01 -2.408271e-01 5.488807e-01 -1.611369e-01 1.280444e-01 -3.461563e-02
<VARIANCE> 25
 1.342969e+01 2.334041e+01 1.960022e+01 3.756339e+01 3.232318e+01 5.698806e+01 5.291964e+01 3.881523e+01 4.745748e+01 6.122108e+01 3.499230e+01 3.765007e+01 4.483977e-01 8.555590e-01 1.101414e+00 1.395114e+00 2.090755e+00 2.560616e+00 2.402200e+00 2.334020e+00 2.446484e+00 2.127892e+00 1.872978e+00 1.718252e+00 5.968150e-04
<GCONST> 8.686813e+01
<MIXTURE> 92 7.852945e-03
<MEAN> 25
 5.693651e+00 -7.184374e+00 -8.649267e+00 -5.101489e+00 4.013327e+00 -4.777633e-01 -1.615957e+00 8.331788e-01 7.796387e-01 -3.371521e+00 -4.766270e+00 -5.133928e+00 2.773288e-01 1.027689e+00 1.714887e-01 4.788121e-01 -1.461334e-01 -6.306431e-01 -5.106789e-01 -2.107155e-01 -2.408271e-01 5.488807e-01 -1.611369e-01 1.280444e-01 -3.461563e-02
<VARIANCE> 25
 1.342969e+01 2.334041e+01 1.960022e+01 3.756339e+01 3.232318e+01 5.698806e+01 5.291964e+01 3.881523e+01 4.745748e+01 6.122108e+01 3.499230e+01 3.765007e+01 4.483977e-01 8.555590e-01 1.101414e+00 1.395114e+00 2.090755e+00 2.560616e+00 2.402200e+00 2.334020e+00 2.446484e+00 2.127892e+00 1.872978e+00 1.718252e+00 5.968150e-04
<GCONST> 8.686813e+01
<MIXTURE> 93 6.122769e-03
<MEAN> 25
 -6.790448e+00 -9.556521e-01 -2.385487e+00 5.782361e+00 5.890715e+00 3.926030e+00 6.113071e+00 3.625767e+00 4.113068e+00 2.498002e+00 1.810601e+00 3.685255e+00 -6.079557e-02 -1.543632e-01 -2.564735e-01 -3.350329e-01 -3.356677e-01 -2.868972e-01 -2.179921e-01 -1.794591e-01 -1.711632e-01 -1.428636e-01 -1.010232e-01 -3.543854e-02 1.277415e-06
<VARIANCE> 25
 9.329228e+00 6.011200e+00 8.214018e+00 1.137896e+01 1.153169e+01 1.593845e+01 1.524719e+01 1.644286e+01 1.473350e+01 1.456739e+01 1.675908e+01 1.348468e+01 8.255363e-02 1.526978e-01 2.631575e-01 3.835595e-01 4.976050e-01 6.415282e-01 7.767141e-01 8.902810e-01 9.176574e-01 8.872802e-01 8.924331e-01 9.143535e-01 1.012526e-06
<GCONST> 5.364929e+01
<MIXTURE> 94 6.122769e-03
<MEAN> 25
 -6.790448e+00 -9.556521e-01 -2.385487e+00 5.782361e+00 5.890715e+00 3.926030e+00 6.113071e+00 3.625767e+00 4.113068e+00 2.498002e+00 1.810601e+00 3.685255e+00 -6.079557e-02 -1.543632e-01 -2.564735e-01 -3.350329e-01 -3.356677e-01 -2.868972e-01 -2.179921e-01 -1.794591e-01 -1.711632e-01 -1.428636e-01 -1.010232e-01 -3.543854e-02 1.277415e-06
<VARIANCE> 25
 9.329228e+00 6.011200e+00 8.214018e+00 1.137896e+01 1.153169e+01 1.593845e+01 1.524719e+01 1.644286e+01 1.473350e+01 1.456739e+01 1.675908e+01 1.348468e+01 8.255363e-02 1.526978e-01 2.631575e-01 3.835595e-01 4.976050e-01 6.415282e-01 7.767141e-01 8.902810e-01 9.176574e-01 8.872802e-01 8.924331e-01 9.143535e-01 1.012526e-06
<GCONST> 5.364929e+01
<MIXTURE> 95 5.258835e-03
<MEAN> 25
 -3.620517e+00 -8.992783e-01 -6.443305e-01 3.253148e+00 3.011640e+00 3.120465e+00 3.352869e+00 1.675647e+00 1.948913e+00 8.900165e-01 6.498289e-01 2.249979e+00 1.258955e-01 1.006474e-01 -8.510962e-02 -1.965871e-02 -1.926008e-01 -6.801752e-01 -1.131305e+00 -1.494995e+00 -1.375196e+00 -9.851046e-01 -7.408067e-01 -3.226027e-01 -1.113640e-03
<VARIANCE> 25
 1.316171e+01 5.126347e+00 1.160514e+01 1.329446e+01 1.196182e+01 1.566535e+01 1.690255e+01 1.493684e+01 1.248385e+01 1.627115e+01 1.638352e+01 1.285685e+01 1.895903e-01 2.394931e-01 3.936959e-01 8.061866e-01 8.190506e-01 8.248920e-01 7.570809e-01 8.688633e-01 1.051549e+00 1.212639e+00 9.457873e-01 1.204240e+00 5.971067e-05
<GCONST> 6.222235e+01
<MIXTURE> 96 7.034694e-03
<MEAN> 25
 -4.786572e+00 -2.829506e-01 -1.951732e+00 5.087636e+00 3.585515e+00 1.780755e+00 3.217163e+00 1.750545e+00 2.338213e+00 1.145952e+00 1.098128e+00 2.534351e+00 -9.475078e-03 9.883044e-02 2.245405e-01 3.882022e-01 5.301314e-01 5.060582e-01 3.061792e-01 -1.593253e-01 -4.702181e-01 -6.563784e-01 -6.110333e-01 -3.830708e-01 -2.683961e-05
<VARIANCE> 25
 1.217324e+01 9.639070e+00 1.347849e+01 1.376947e+01 1.562648e+01 1.912226e+01 1.904621e+01 1.840733e+01 1.779109e+01 1.671999e+01 1.931631e+01 1.507698e+01 1.212412e-01 2.101384e-01 3.184126e-01 3.933725e-01 4.718752e-01 6.316401e-01 9.971297e-01 1.072716e+00 9.418868e-01 8.437423e-01 8.501627e-01 9.199032e-01 1.354845e-06
<GCONST> 5.798645e+01
<MIXTURE> 97 7.034694e-03
<MEAN> 25
 -4.786572e+00 -2.829506e-01 -1.951732e+00 5.087636e+00 3.585515e+00 1.780755e+00 3.217163e+00 1.750545e+00 2.338213e+00 1.145952e+00 1.098128e+00 2.534351e+00 -9.475078e-03 9.883044e-02 2.245405e-01 3.882022e-01 5.301314e-01 5.060582e-01 3.061792e-01 -1.593253e-01 -4.702181e-01 -6.563784e-01 -6.110333e-01 -3.830708e-01 -2.683961e-05
<VARIANCE> 25
 1.217324e+01 9.639070e+00 1.347849e+01 1.376947e+01 1.562648e+01 1.912226e+01 1.904621e+01 1.840733e+01 1.779109e+01 1.671999e+01 1.931631e+01 1.507698e+01 1.212412e-01 2.101384e-01 3.184126e-01 3.933725e-01 4.718752e-01 6.316401e-01 9.971297e-01 1.072716e+00 9.418868e-01 8.437423e-01 8.501627e-01 9.199032e-01 1.354845e-06
<GCONST> 5.798645e+01
<MIXTURE> 98 9.917808e-03
<MEAN> 25
 -1.297850e+00 1.132801e+00 1.276004e-01 4.084659e+00 2.729411e+00 2.906815e+00 2.951218e+00 1.690131e+00 1.535012e+00 1.031677e+00 1.085918e+00 1.037637e+00 -1.750322e+00 -1.388551e+00 -9.425298e-01 1.933295e-01 6.684878e-01 7.398062e-01 1.145042e+00 1.391526e+00 1.446959e+00 1.115927e+00 1.256631e+00 1.020878e+00 -2.946732e-02
<VARIANCE> 25
 1.346994e+01 1.991409e+01 2.979612e+01 3.129661e+01 4.697152e+01 3.554119e+01 3.036836e+01 2.611861e+01 2.578551e+01 2.767469e+01 2.506474e+01 2.235375e+01 1.294601e+00 1.470384e+00 2.220296e+00 2.269639e+00 2.794206e+00 2.758854e+00 2.852504e+00 2.555341e+00 2.914489e+00 2.864327e+00 2.657372e+00 2.404792e+00 2.413193e-03
<GCONST> 8.961152e+01
<MIXTURE> 99 6.696178e-03
<MEAN> 25
 -6.181728e+00 9.001826e+00 6.037097e+00 3.309048e+00 9.101614e-01 -5.607049e+00 -2.337875e+00 -4.019880e+00 -4.915659e+00 -3.838794e+00 -1.828512e+00 2.692480e-02 4.424995e-01 -7.040969e-01 4.363642e-01 -3.193532e-01 -1.292583e+00 -5.566658e-01 -3.522468e-01 -1.437699e-01 -2.336320e-01 -1.055941e-01 2.784208e-01 1.571443e-01 9.123813e-03
<VARIANCE> 25
 3.352914e+01 3.050327e+01 4.795263e+01 2.907255e+01 3.296761e+01 3.644946e+01 2.904284e+01 2.754490e+01 4.792200e+01 2.704907e+01 2.010184e+01 2.761588e+01 2.144891e+00 1.719967e+00 1.477882e+00 1.652035e+00 3.010598e+00 2.051019e+00 1.472363e+00 1.646831e+00 1.628757e+00 1.482652e+00 1.211680e+00 1.239972e+00 1.548138e-03
<GCONST> 8.710191e+01
<MIXTURE> 100 4.498084e-03
<MEAN> 25
 -1.598270e+00 6.344073e+00 1.027432e+01 -7.462664e+00 -1.078060e+01 -5.076794e+00 -4.941981e+00 -9.968606e+00 -4.717573e+00 -8.554847e-01 -2.733126e+00 -2.708936e+00 2.917533e+00 -1.260079e+00 1.299802e+00 -2.185808e+00 -3.419246e+00 -7.842371e-01 -1.218974e+00 -8.200021e-01 -1.475384e+00 3.468505e-01 -1.655182e+00 -2.862417e-01 2.011691e-03
<VARIANCE> 25
 1.362697e+01 2.105893e+01 2.250131e+01 2.642377e+01 2.302853e+01 2.373355e+01 2.911065e+01 2.170471e+01 2.748386e+01 2.264947e+01 2.240812e+01 2.134566e+01 1.799613e+00 3.953952e+00 2.919691e+00 4.285696e+00 4.184245e+00 4.537704e+00 4.016113e+00 4.340165e+00 4.168085e+00 3.895907e+00 3.910833e+00 3.224776e+00 1.675014e-03
<GCONST> 9.257150e+01
<MIXTURE> 101 6.007792e-03
<MEAN> 25
 7.969678e+00 -3.404127e+00 -6.234664e+00 -6.877795e+00 7.835804e-01 -1.333190e+00 -1.053663e+01 -2.160992e+00 1.501480e+00 2.637494e+00 -2.365883e+00 -5.157505e+00 6.605251e-01 6.548274e-01 -1.416889e+00 -1.614866e+00 1.020371e+00 2.290555e+00 1.746723e-01 -1.466878e+00 -1.094978e+00 1.031357e+00 1.345566e+00 -4.118308e-01 -4.743126e-03
<VARIANCE> 25
 9.867392e+00 1.675463e+01 2.967510e+01 4.235586e+01 3.573207e+01 3.651076e+01 3.667575e+01 3.636745e+01 3.786908e+01 4.342185e+01 5.078064e+01 2.456345e+01 2.987680e-01 6.567605e-01 1.254118e+00 1.525473e+00 1.669807e+00 2.095755e+00 2.095836e+00 1.960863e+00 2.351195e+00 2.197960e+00 1.800855e+00 1.912759e+00 3.430893e-04
<GCONST> 8.368248e+01
<MIXTURE> 102 6.007792e-03
<MEAN> 25
 7.969678e+00 -3.404127e+00 -6.234664e+00 -6.877795e+00 7.835804e-01 -1.333190e+00 -1.053663e+01 -2.160992e+00 1.501480e+00 2.637494e+00 -2.365883e+00 -5.157505e+00 6.605251e-01 6.548274e-01 -1.416889e+00 -1.614866e+00 1.020371e+00 2.290555e+00 1.746723e-01 -1.466878e+00 -1.094978e+00 1.031357e+00 1.345566e+00 -4.118308e-01 -4.743126e-03
<VARIANCE> 25
 9.867392e+00 1.675463e+01 2.967510e+01 4.235586e+01 3.573207e+01 3.651076e+01 3.667575e+01 3.636745e+01 3.786908e+01 4.342185e+01 5.078064e+01 2.456345e+01 2.987680e-01 6.567605e-01 1.254118e+00 1.525473e+00 1.669807e+00 2.095755e+00 2.095836e+00 1.960863e+00 2.351195e+00 2.197960e+00 1.800855e+00 1.912759e+00 3.430893e-04
<GCONST> 8.368248e+01
<MIXTURE> 103 5.694618e-03
<MEAN> 25
 2.822539e+00 -8.498066e+00 -6.658385e+00 -3.698853e+00 -7.398067e-01 -2.187878e+00 2.264965e+00 1.634425e+00 -4.582090e+00 -8.876149e+00 -4.992430e+00 -7.471208e-02 -2.157280e-01 -1.402549e+00 -9.811443e-01 4.357642e-01 1.240354e+00 1.047423e+00 2.543304e-01 -1.692763e-01 -7.239077e-01 -8.496937e-01 -1.145257e-01 1.340313e-02 2.795316e-02
<VARIANCE> 25
 1.125362e+01 2.915262e+01 2.378751e+01 3.158021e+01 4.505350e+01 3.553748e+01 4.281097e+01 4.382265e+01 4.081434e+01 2.913322e+01 2.987690e+01 2.649854e+01 6.323004e-01 1.288392e+00 1.446704e+00 1.942330e+00 2.764547e+00 2.159767e+00 2.708216e+00 2.594805e+00 2.443771e+00 2.391665e+00 2.067162e+00 1.927934e+00 8.189804e-04
<GCONST> 8.763788e+01
<MIXTURE> 104 5.694618e-03
<MEAN> 25
 2.822539e+00 -8.498066e+00 -6.658385e+00 -3.698853e+00 -7.398067e-01 -2.187878e+00 2.264965e+00 1.634425e+00 -4.582090e+00 -8.876149e+00 -4.992430e+00 -7.471208e-02 -2.157280e-01 -1.402549e+00 -9.811443e-01 4.357642e-01 1.240354e+00 1.047423e+00 2.543304e-01 -1.692763e-01 -7.239077e-01 -8.496937e-01 -1.145257e-01 1.340313e-02 2.795316e-02
<VARIANCE> 25
 1.125362e+01 2.915262e+01 2.378751e+01 3.158021e+01 4.505350e+01 3.553748e+01 4.281097e+01 4.382265e+01 4.081434e+01 2.913322e+01 2.987690e+01 2.649854e+01 6.323004e-01 1.288392e+00 1.446704e+00 1.942330e+00 2.764547e+00 2.159767e+00 2.708216e+00 2.594805e+00 2.443771e+00 2.391665e+00 2.067162e+00 1.927934e+00 8.189804e-04
<GCONST> 8.763788e+01
<MIXTURE> 105 4.710235e-03
<MEAN> 25
 2.239889e+00 -1.259976e+00 8.949171e+00 -2.390900e+00 -1.102179e+01 -4.666408e+00 -3.722456e+00 -6.321688e-01 -3.387118e+00 -2.846213e+00 1.584750e+00 -1.076145e+00 1.383105e-02 2.728692e-02 3.502099e-02 -3.979681e-02 -1.411300e-02 7.996897e-02 -2.557150e-02 5.055190e-02 1.675200e-02 1.063106e-03 1.305147e-02 -3.041998e-02 -2.290737e-03
<VARIANCE> 25
 1.254386e+01 2.728370e+01 3.950735e+01 4.307597e+01 4.043765e+01 5.455819e+01 4.159129e+01 4.228558e+01 3.963602e+01 4.104663e+01 3.959170e+01 2.907766e+01 8.186656e-02 2.005291e-01 3.560860e-01 2.908885e-01 3.868908e-01 4.323230e-01 4.615821e-01 4.714856e-01 5.279545e-01 4.480881e-01 4.086994e-01 3.993945e-01 8.843414e-05
<GCONST> 6.655893e+01
<MIXTURE> 106 4.710235e-03
<MEAN> 25
 2.239889e+00 -1.259976e+00 8.949171e+00 -2.390900e+00 -1.102179e+01 -4.666408e+00 -3.722456e+00 -6.321688e-01 -3.387118e+00 -2.846213e+00 1.584750e+00 -1.076145e+00 1.383105e-02 2.728692e-02 3.502099e-02 -3.979681e-02 -1.411300e-02 7.996897e-02 -2.557150e-02 5.055190e-02 1.675200e-02 1.063106e-03 1.305147e-02 -3.041998e-02 -2.290737e-03
<VARIANCE> 25
 1.254386e+01 2.728370e+01 3.950735e+01 4.307597e+01 4.043765e+01 5.455819e+01 4.159129e+01 4.228558e+01 3.963602e+01 4.104663e+01 3.959170e+01 2.907766e+01 8.186656e-02 2.005291e-01 3.560860e-01 2.908885e-01 3.868908e-01 4.323230e-01 4.615821e-01 4.714856e-01 5.279545e-01 4.480881e-01 4.086994e-01 3.993945e-01 8.843414e-05
<GCONST> 6.655893e+01
<MIXTURE> 107 5.452374e-03
<MEAN> 25
 8.526247e+00 -2.245941e+00 -8.087109e+00 -9.498056e+00 2.006051e+00 2.893898e+00 -8.582203e+00 -4.669678e+00 -1.014193e+00 3.306047e+00 7.326453e-01 -5.105564e+00 -6.082343e-01 -7.744563e-01 8.368331e-01 1.779440e+00 2.458482e-01 -1.994413e+00 -9.228967e-01 8.535784e-01 1.726689e+00 4.818532e-02 -1.643769e+00 -8.040783e-01 -1.626664e-03
<VARIANCE> 25
 1.020487e+01 2.067270e+01 2.853185e+01 4.277250e+01 3.554061e+01 3.843295e+01 5.084899e+01 3.730088e+01 4.686897e+01 4.198840e+01 5.238433e+01 3.015435e+01 3.524613e-01 9.606476e-01 1.469091e+00 2.409816e+00 2.300196e+00 2.846474e+00 2.592850e+00 2.562071e+00 2.412755e+00 2.999223e+00 1.950903e+00 2.230404e+00 6.969626e-04
<GCONST> 8.825738e+01
<MIXTURE> 108 5.452374e-03
<MEAN> 25
 8.526247e+00 -2.245941e+00 -8.087109e+00 -9.498056e+00 2.006051e+00 2.893898e+00 -8.582203e+00 -4.669678e+00 -1.014193e+00 3.306047e+00 7.326453e-01 -5.105564e+00 -6.082343e-01 -7.744563e-01 8.368331e-01 1.779440e+00 2.458482e-01 -1.994413e+00 -9.228967e-01 8.535784e-01 1.726689e+00 4.818532e-02 -1.643769e+00 -8.040783e-01 -1.626664e-03
<VARIANCE> 25
 1.020487e+01 2.067270e+01 2.853185e+01 4.277250e+01 3.554061e+01 3.843295e+01 5.084899e+01 3.730088e+01 4.686897e+01 4.198840e+01 5.238433e+01 3.015435e+01 3.524613e-01 9.606476e-01 1.469091e+00 2.409816e+00 2.300196e+00 2.846474e+00 2.592850e+00 2.562071e+00 2.412755e+00 2.999223e+00 1.950903e+00 2.230404e+00 6.969626e-04
<GCONST> 8.825738e+01
<MIXTURE> 109 6.661064e-03
<MEAN> 25
 3.886246e+00 -1.026270e+01 -8.284462e+00 -1.516356e+00 2.782357e+00 -2.727024e-01 1.610970e-02 1.389468e+00 -2.524972e+00 -8.430180e+00 -5.247015e+00 -6.543159e-02 -2.773125e-02 -1.185334e-01 -6.631049e-02 2.889408e-01 2.064079e-01 1.265562e-01 -1.344464e-01 -1.081083e-01 -4.676723e-02 -9.746447e-02 1.981519e-01 8.256515e-04 -3.854971e-03
<VARIANCE> 25
 9.852838e+00 1.999384e+01 2.026177e+01 3.154108e+01 3.959108e+01 3.836469e+01 4.546632e+01 3.352860e+01 4.469046e+01 3.501892e+01 2.921414e+01 2.781898e+01 1.892305e-01 4.190677e-01 5.717558e-01 6.974373e-01 1.223759e+00 9.875625e-01 1.265645e+00 1.089919e+00 1.101442e+00 9.639030e-01 8.973147e-01 8.733717e-01 1.859542e-04
<GCONST> 7.468458e+01
<MIXTURE> 110 6.661064e-03
<MEAN> 25
 3.886246e+00 -1.026270e+01 -8.284462e+00 -1.516356e+00 2.782357e+00 -2.727024e-01 1.610970e-02 1.389468e+00 -2.524972e+00 -8.430180e+00 -5.247015e+00 -6.543159e-02 -2.773125e-02 -1.185334e-01 -6.631049e-02 2.889408e-01 2.064079e-01 1.265562e-01 -1.344464e-01 -1.081083e-01 -4.676723e-02 -9.746447e-02 1.981519e-01 8.256515e-04 -3.854971e-03
<VARIANCE> 25
 9.852838e+00 1.999384e+01 2.026177e+01 3.154108e+01 3.959108e+01 3.836469e+01 4.546632e+01 3.352860e+01 4.469046e+01 3.501892e+01 2.921414e+01 2.781898e+01 1.892305e-01 4.190677e-01 5.717558e-01 6.974373e-01 1.223759e+00 9.875625e-01 1.265645e+00 1.089919e+00 1.101442e+00 9.639030e-01 8.973147e-01 8.733717e-01 1.859542e-04
<GCONST> 7.468458e+01
<MIXTURE> 111 4.337247e-03
<MEAN> 25
 -1.956655e+00 -3.825485e-01 -1.053360e-01 1.425537e+00 3.356034e-01 1.233519e+00 1.142019e-01 -3.658078e-01 -2.399590e-02 -3.705724e-02 -2.420511e-01 1.069843e+00 -2.768275e-02 -8.505308e-03 -1.065862e-02 -3.470416e-02 -3.459900e-02 5.967496e-02 -3.390033e-02 -1.941761e-01 -1.785847e-01 -3.021705e-01 -2.250374e-01 -1.156191e-01 -4.072408e-05
<VARIANCE> 25
 9.189493e+00 4.108138e+00 8.876107e+00 7.443868e+00 9.856511e+00 1.803847e+01 1.052560e+01 1.372083e+01 1.200066e+01 1.189052e+01 1.160069e+01 1.182703e+01 7.946969e-02 1.705792e-01 2.860144e-01 5.465890e-01 6.460021e-01 6.876287e-01 9.319098e-01 9.169652e-01 9.905908e-01 1.061663e+00 7.533261e-01 9.654673e-01 3.815786e-05
<GCONST> 5.623707e+01
<MIXTURE> 112 4.337247e-03
<MEAN> 25
 -1.956655e+00 -3.825485e-01 -1.053360e-01 1.425537e+00 3.356034e-01 1.233519e+00 1.142019e-01 -3.658078e-01 -2.399590e-02 -3.705724e-02 -2.420511e-01 1.069843e+00 -2.768275e-02 -8.505308e-03 -1.065862e-02 -3.470416e-02 -3.459900e-02 5.967496e-02 -3.390033e-02 -1.941761e-01 -1.785847e-01 -3.021705e-01 -2.250374e-01 -1.156191e-01 -4.072408e-05
<VARIANCE> 25
 9.189493e+00 4.108138e+00 8.876107e+00 7.443868e+00 9.856511e+00 1.803847e+01 1.052560e+01 1.372083e+01 1.200066e+01 1.189052e+01 1.160069e+01 1.182703e+01 7.946969e-02 1.705792e-01 2.860144e-01 5.465890e-01 6.460021e-01 6.876287e-01 9.319098e-01 9.169652e-01 9.905908e-01 1.061663e+00 7.533261e-01 9.654673e-01 3.815786e-05
<GCONST> 5.623707e+01
<MIXTURE> 113 5.938666e-03
<MEAN> 25
 9.976940e+00 1.755222e+00 -8.780249e+00 -1.704578e+01 -1.033766e+00 5.659096e+00 -5.280657e+00 -1.466739e+00 -5.695523e+00 -4.937961e-01 2.989263e-01 -1.976993e-01 4.808967e-03 1.380488e-02 -5.961897e-02 -1.133496e-01 1.044272e-01 1.505987e-01 5.920590e-02 3.610069e-02 -5.698440e-02 -5.122949e-02 1.797256e-01 3.512278e-02 -1.407309e-03
<VARIANCE> 25
 8.882446e+00 1.638944e+01 2.968895e+01 3.422202e+01 5.273187e+01 3.386421e+01 3.970351e+01 3.914621e+01 3.737558e+01 4.639974e+01 3.629796e+01 2.844114e+01 1.217853e-01 3.206081e-01 3.162123e-01 6.316212e-01 6.128800e-01 6.536674e-01 7.765360e-01 8.451434e-01 9.595116e-01 9.052667e-01 7.245289e-01 7.136234e-01 1.248308e-04
<GCONST> 7.110674e+01
<MIXTURE> 114 5.938666e-03
<MEAN> 25
 9.976940e+00 1.755222e+00 -8.780249e+00 -1.704578e+01 -1.033766e+00 5.659096e+00 -5.280657e+00 -1.466739e+00 -5.695523e+00 -4.937961e-01 2.989263e-01 -1.976993e-01 4.808967e-03 1.380488e-02 -5.961897e-02 -1.133496e-01 1.044272e-01 1.505987e-01 5.920590e-02 3.610069e-02 -5.698440e-02 -5.122949e-02 1.797256e-01 3.512278e-02 -1.407309e-03
<VARIANCE> 25
 8.882446e+00 1.638944e+01 2.968895e+01 3.422202e+01 5.273187e+01 3.386421e+01 3.970351e+01 3.914621e+01 3.737558e+01 4.639974e+01 3.629796e+01 2.844114e+01 1.217853e-01 3.206081e-01 3.162123e-01 6.316212e-01 6.128800e-01 6.536674e-01 7.765360e-01 8.451434e-01 9.595116e-01 9.052667e-01 7.245289e-01 7.136234e-01 1.248308e-04
<GCONST> 7.110674e+01
<MIXTURE> 115 2.935202e-03
<MEAN> 25
 -3.600677e+00 -4.573569e-01 -2.615503e+00 3.457509e+00 2.159378e+00 -3.873684e-01 2.076400e+00 5.662078e-01 1.245179e+00 1.672858e-01 2.449466e-01 2.604120e+00 5.675756e-02 -8.333879e-02 -2.644006e-01 -4.316289e-01 -6.409603e-01 -7.078177e-01 -5.315980e-01 -4.589545e-01 -4.412427e-01 -4.772690e-01 -3.050776e-01 -2.122633e-01 -1.088944e-05
<VARIANCE> 25
 1.033196e+01 1.000250e+01 1.491280e+01 1.232358e+01 1.313302e+01 1.692293e+01 1.627209e+01 2.002883e+01 1.703383e+01 1.678409e+01 1.822854e+01 1.363828e+01 1.980864e-01 3.243911e-01 4.737079e-01 6.396099e-01 6.597497e-01 7.599605e-01 9.941173e-01 1.113520e+00 1.080455e+00 1.023564e+00 1.023903e+00 1.182233e+00 1.245674e-06
<GCONST> 6.032887e+01
<MIXTURE> 116 2.935202e-03
<MEAN> 25
 -3.600677e+00 -4.573569e-01 -2.615503e+00 3.457509e+00 2.159378e+00 -3.873684e-01 2.076400e+00 5.662078e-01 1.245179e+00 1.672858e-01 2.449466e-01 2.604120e+00 5.675756e-02 -8.333879e-02 -2.644006e-01 -4.316289e-01 -6.409603e-01 -7.078177e-01 -5.315980e-01 -4.589545e-01 -4.412427e-01 -4.772690e-01 -3.050776e-01 -2.122633e-01 -1.088944e-05
<VARIANCE> 25
 1.033196e+01 1.000250e+01 1.491280e+01 1.232358e+01 1.313302e+01 1.692293e+01 1.627209e+01 2.002883e+01 1.703383e+01 1.678409e+01 1.822854e+01 1.363828e+01 1.980864e-01 3.243911e-01 4.737079e-01 6.396099e-01 6.597497e-01 7.599605e-01 9.941173e-01 1.113520e+00 1.080455e+00 1.023564e+00 1.023903e+00 1.182233e+00 1.245674e-06
<GCONST> 6.032887e+01
<MIXTURE> 117 6.506003e-03
<MEAN> 25
 -4.655265e+00 1.149816e+00 1.089549e+00 9.726349e+00 6.216097e+00 6.304445e+00 6.466670e+00 5.036523e+00 6.310421e+00 4.933982e+00 6.375766e+00 2.770294e+00 -8.195344e-02 -2.390741e-01 -3.669101e-01 -4.158929e-01 -3.522120e-01 -3.118506e-01 -2.889869e-01 -3.297212e-01 -3.981754e-01 -3.657948e-01 -2.583339e-01 -9.576792e-02 -7.841239e-06
<VARIANCE> 25
 7.256823e+00 8.825665e+00 9.888325e+00 1.433700e+01 1.572855e+01 1.568969e+01 1.766543e+01 1.783798e+01 1.697776e+01 1.629966e+01 1.669514e+01 1.525447e+01 2.233856e-01 3.086365e-01 4.337137e-01 6.192846e-01 8.813860e-01 1.056966e+00 1.169496e+00 1.224496e+00 1.220600e+00 1.188672e+00 1.161073e+00 1.166611e+00 9.973811e-07
<GCONST> 6.064192e+01
<MIXTURE> 118 6.506003e-03
<MEAN> 25
 -4.655265e+00 1.149816e+00 1.089549e+00 9.726349e+00 6.216097e+00 6.304445e+00 6.466670e+00 5.036523e+00 6.310421e+00 4.933982e+00 6.375766e+00 2.770294e+00 -8.195344e-02 -2.390741e-01 -3.669101e-01 -4.158929e-01 -3.522120e-01 -3.118506e-01 -2.889869e-01 -3.297212e-01 -3.981754e-01 -3.657948e-01 -2.583339e-01 -9.576792e-02 -7.841239e-06
<VARIANCE> 25
 7.256823e+00 8.825665e+00 9.888325e+00 1.433700e+01 1.572855e+01 1.568969e+01 1.766543e+01 1.783798e+01 1.697776e+01 1.629966e+01 1.669514e+01 1.525447e+01 2.233856e-01 3.086365e-01 4.337137e-01 6.192846e-01 8.813860e-01 1.056966e+00 1.169496e+00 1.224496e+00 1.220600e+00 1.188672e+00 1.161073e+00 1.166611e+00 9.973811e-07
<GCONST> 6.064192e+01
<MIXTURE> 119 4.297961e-03
<MEAN> 25
 -4.690796e+00 -7.349091e+00 2.224847e+00 1.891640e+00 2.241564e+00 4.580103e-01 4.989924e+00 5.830508e+00 1.215954e+00 9.828232e-01 6.211497e+00 1.399040e+00 -5.235677e-02 -6.592086e-02 4.961738e-02 -2.627179e-02 -1.372933e-01 -1.830471e-01 -4.769032e-02 -2.378000e-02 -8.807508e-02 -1.145368e-01 -7.577198e-02 -7.574537e-02 4.151433e-04
<VARIANCE> 25
 9.244114e+00 1.112802e+01 1.676327e+01 1.956745e+01 2.193983e+01 2.301223e+01 2.483461e+01 2.586756e+01 2.444866e+01 2.765730e+01 2.192927e+01 2.018433e+01 1.661417e-01 2.820982e-01 4.817136e-01 6.644958e-01 8.027431e-01 9.860166e-01 1.136569e+00 1.300251e+00 1.328171e+00 1.256964e+00 1.156343e+00 1.118033e+00 2.460456e-04
<GCONST> 7.008875e+01
<MIXTURE> 120 4.297961e-03
<MEAN> 25
 -4.690796e+00 -7.349091e+00 2.224847e+00 1.891640e+00 2.241564e+00 4.580103e-01 4.989924e+00 5.830508e+00 1.215954e+00 9.828232e-01 6.211497e+00 1.399040e+00 -5.235677e-02 -6.592086e-02 4.961738e-02 -2.627179e-02 -1.372933e-01 -1.830471e-01 -4.769032e-02 -2.378000e-02 -8.807508e-02 -1.145368e-01 -7.577198e-02 -7.574537e-02 4.151433e-04
<VARIANCE> 25
 9.244114e+00 1.112802e+01 1.676327e+01 1.956745e+01 2.193983e+01 2.301223e+01 2.483461e+01 2.586756e+01 2.444866e+01 2.765730e+01 2.192927e+01 2.018433e+01 1.661417e-01 2.820982e-01 4.817136e-01 6.644958e-01 8.027431e-01 9.860166e-01 1.136569e+00 1.300251e+00 1.328171e+00 1.256964e+00 1.156343e+00 1.118033e+00 2.460456e-04
<GCONST> 7.008875e+01
<MIXTURE> 121 4.567511e-03
<MEAN> 25
 2.147458e-01 -2.498908e+00 5.117252e+00 -1.282953e+01 -1.258572e+01 -1.674155e+00 9.832146e-01 -5.095768e+00 -4.162009e+00 -4.884365e-01 -5.483551e+00 -4.304770e+00 2.587643e-02 1.369994e-01 -4.321963e-02 7.824827e-02 1.581963e-01 7.793878e-02 -8.441854e-02 -1.836936e-01 -2.652970e-01 -2.526238e-01 -1.135668e-01 -4.507149e-03 -7.400561e-03
<VARIANCE> 25
 7.685656e+00 1.562926e+01 1.736202e+01 2.097382e+01 2.488469e+01 2.989154e+01 2.948403e+01 2.463164e+01 3.542776e+01 2.819342e+01 1.970366e+01 2.113701e+01 1.549823e-01 6.452490e-01 6.261516e-01 7.062666e-01 7.669551e-01 1.147313e+00 1.118381e+00 1.122463e+00 1.223508e+00 1.193352e+00 9.364750e-01 8.777161e-01 2.116997e-04
<GCONST> 7.147421e+01
<MIXTURE> 122 4.567511e-03
<MEAN> 25
 2.147458e-01 -2.498908e+00 5.117252e+00 -1.282953e+01 -1.258572e+01 -1.674155e+00 9.832146e-01 -5.095768e+00 -4.162009e+00 -4.884365e-01 -5.483551e+00 -4.304770e+00 2.587643e-02 1.369994e-01 -4.321963e-02 7.824827e-02 1.581963e-01 7.793878e-02 -8.441854e-02 -1.836936e-01 -2.652970e-01 -2.526238e-01 -1.135668e-01 -4.507149e-03 -7.400561e-03
<VARIANCE> 25
 7.685656e+00 1.562926e+01 1.736202e+01 2.097382e+01 2.488469e+01 2.989154e+01 2.948403e+01 2.463164e+01 3.542776e+01 2.819342e+01 1.970366e+01 2.113701e+01 1.549823e-01 6.452490e-01 6.261516e-01 7.062666e-01 7.669551e-01 1.147313e+00 1.118381e+00 1.122463e+00 1.223508e+00 1.193352e+00 9.364750e-01 8.777161e-01 2.116997e-04
<GCONST> 7.147421e+01
<MIXTURE> 123 4.393044e-03
<MEAN> 25
 -3.092715e+00 1.215278e+00 8.021386e-01 4.854935e+00 3.603358e+00 3.672949e+00 2.675417e+00 2.159563e-01 2.041251e-01 2.477722e-02 6.403143e-01 5.509330e-01 -3.051301e-01 -6.645138e-01 -7.880830e-01 -5.813292e-01 -2.300347e-01 -8.029212e-02 3.082652e-01 6.551455e-01 6.940977e-01 5.632743e-01 7.990963e-01 4.928643e-01 -3.690666e-03
<VARIANCE> 25
 1.133059e+01 8.609055e+00 1.357295e+01 1.659667e+01 2.327062e+01 2.391313e+01 1.989353e+01 1.588464e+01 2.042182e+01 1.455678e+01 1.798634e+01 1.968344e+01 4.571588e-01 3.455916e-01 4.285585e-01 7.565049e-01 9.411200e-01 1.066601e+00 1.352582e+00 1.073313e+00 9.720683e-01 1.204767e+00 1.255282e+00 1.076254e+00 1.016204e-04
<GCONST> 6.825542e+01
<MIXTURE> 124 4.069876e-03
<MEAN> 25
 -6.225849e+00 -1.173686e+00 -2.739877e+00 4.903893e+00 4.729525e+00 3.354576e+00 5.170801e+00 2.540781e+00 3.278646e+00 1.372394e+00 1.134270e+00 2.884610e+00 -2.071723e-01 -3.251956e-01 -3.704382e-01 -2.075774e-01 1.284389e-01 5.323922e-01 8.456360e-01 8.575084e-01 6.691322e-01 3.809973e-01 7.222234e-02 -4.957087e-02 -4.032102e-05
<VARIANCE> 25
 1.248865e+01 6.814218e+00 1.152680e+01 1.317741e+01 1.278600e+01 1.904612e+01 1.576043e+01 1.675311e+01 1.519303e+01 1.696127e+01 1.845822e+01 1.424522e+01 1.039032e-01 1.759583e-01 2.651896e-01 4.055375e-01 5.694771e-01 7.243202e-01 7.422165e-01 7.890790e-01 8.873086e-01 1.021430e+00 1.002406e+00 1.021895e+00 1.817686e-05
<GCONST> 5.896706e+01
<MIXTURE> 125 4.069876e-03
<MEAN> 25
 -6.225849e+00 -1.173686e+00 -2.739877e+00 4.903893e+00 4.729525e+00 3.354576e+00 5.170801e+00 2.540781e+00 3.278646e+00 1.372394e+00 1.134270e+00 2.884610e+00 -2.071723e-01 -3.251956e-01 -3.704382e-01 -2.075774e-01 1.284389e-01 5.323922e-01 8.456360e-01 8.575084e-01 6.691322e-01 3.809973e-01 7.222234e-02 -4.957087e-02 -4.032102e-05
<VARIANCE> 25
 1.248865e+01 6.814218e+00 1.152680e+01 1.317741e+01 1.278600e+01 1.904612e+01 1.576043e+01 1.675311e+01 1.519303e+01 1.696127e+01 1.845822e+01 1.424522e+01 1.039032e-01 1.759583e-01 2.651896e-01 4.055375e-01 5.694771e-01 7.243202e-01 7.422165e-01 7.890790e-01 8.873086e-01 1.021430e+00 1.002406e+00 1.021895e+00 1.817686e-05
<GCONST> 5.896706e+01
<MIXTURE> 126 2.402244e-03
<MEAN> 25
 -3.512168e+00 -6.730022e+00 -4.895691e+00 2.131233e+00 3.967867e+00 -2.756723e+00 7.317401e-02 3.391110e+00 2.978219e+00 -2.656985e+00 -1.535191e+00 2.695450e+00 8.607025e-03 2.767641e-03 -4.941992e-02 -1.537669e-01 -3.203835e-01 -4.518484e-01 -3.822705e-01 -2.554582e-01 -1.119672e-01 -2.489460e-02 -1.576319e-02 -4.134431e-02 -3.091990e-03
<VARIANCE> 25
 7.721137e+00 1.232810e+01 1.481960e+01 1.453715e+01 2.396819e+01 2.471577e+01 2.143199e+01 2.711738e+01 3.131459e+01 2.453222e+01 2.063001e+01 1.921053e+01 1.677636e-01 3.332185e-01 4.756117e-01 5.477014e-01 7.240632e-01 1.002529e+00 1.288132e+00 1.343146e+00 1.283314e+00 1.338097e+00 1.248192e+00 1.140233e+00 2.374471e-04
<GCONST> 6.979752e+01
<MIXTURE> 127 2.402244e-03
<MEAN> 25
 -3.512168e+00 -6.730022e+00 -4.895691e+00 2.131233e+00 3.967867e+00 -2.756723e+00 7.317401e-02 3.391110e+00 2.978219e+00 -2.656985e+00 -1.535191e+00 2.695450e+00 8.607025e-03 2.767641e-03 -4.941992e-02 -1.537669e-01 -3.203835e-01 -4.518484e-01 -3.822705e-01 -2.554582e-01 -1.119672e-01 -2.489460e-02 -1.576319e-02 -4.134431e-02 -3.091990e-03
<VARIANCE> 25
 7.721137e+00 1.232810e+01 1.481960e+01 1.453715e+01 2.396819e+01 2.471577e+01 2.143199e+01 2.711738e+01 3.131459e+01 2.453222e+01 2.063001e+01 1.921053e+01 1.677636e-01 3.332185e-01 4.756117e-01 5.477014e-01 7.240632e-01 1.002529e+00 1.288132e+00 1.343146e+00 1.283314e+00 1.338097e+00 1.248192e+00 1.140233e+00 2.374471e-04
<GCONST> 6.979752e+01
<MIXTURE> 128 3.790457e-03
<MEAN> 25
 -3.975547e+00 1.912660e+00 1.063224e-01 6.283524e+00 2.939314e+00 2.657133e+00 3.750813e+00 2.380959e+00 3.421618e+00 3.802031e+00 4.022303e+00 3.728995e+00 -4.745255e-01 -2.373235e-01 1.103023e-02 7.357727e-01 1.257398e+00 1.002507e+00 6.757133e-01 1.352938e-01 -5.185105e-01 -7.253303e-01 -6.101871e-01 -1.055193e-01 -4.309722e-05
<VARIANCE> 25
 1.015163e+01 1.220712e+01 1.582432e+01 1.945086e+01 2.579246e+01 2.719136e+01 2.322924e+01 2.283852e+01 2.732004e+01 2.222803e+01 2.564804e+01 1.975389e+01 9.106703e-01 1.075189e+00 1.364318e+00 1.397298e+00 1.565325e+00 1.953845e+00 2.131597e+00 2.146367e+00 2.068171e+00 1.757383e+00 1.695219e+00 2.614362e+00 9.509642e-07
<GCONST> 7.413584e+01
<TRANSP> 3
 0.000000e+00 1.000000e+00 0.000000e+00
 0.000000e+00 9.999990e-01 9.999998e-07
 0.000000e+00 0.000000e+00 0.000000e+00
<ENDHMM>
