~o
<STREAMINFO> 1 25
<VECSIZE> 25<NULLD><MFCC_E_D_N><DIAGC>
~h "jmodel"
<BEGINHMM>
<NUMSTATES> 3
<STATE> 2
<NUMMIXES> 128
<MIXTURE> 1 5.748963e-03
<MEAN> 25
 -2.583957e+00 3.181575e+00 2.312113e+00 8.754764e+00 4.372098e+00 3.449300e+00 4.062313e+00 3.935201e+00 5.832144e+00 5.253370e+00 5.884745e+00 3.080128e+00 -2.004670e+00 -1.634799e+00 -8.643426e-01 1.076198e+00 1.560794e+00 2.232499e+00 2.154610e+00 2.084929e+00 1.693507e+00 1.269616e+00 1.567469e+00 6.132975e-01 -4.692680e-02
<VARIANCE> 25
 1.006360e+01 1.175961e+01 1.494470e+01 1.868559e+01 2.318981e+01 2.215014e+01 2.189699e+01 2.197842e+01 2.099803e+01 2.253666e+01 2.094684e+01 1.708217e+01 1.788929e+00 2.111881e+00 3.026009e+00 3.209685e+00 3.739443e+00 3.356605e+00 3.318705e+00 3.380629e+00 3.521554e+00 3.727080e+00 3.513716e+00 2.834296e+00 3.121378e-03
<GCONST> 8.846384e+01
<MIXTURE> 2 4.549242e-03
<MEAN> 25
 -4.869163e+00 1.311190e+00 9.910855e-01 9.891484e+00 6.689330e+00 7.423603e+00 7.839748e+00 6.947512e+00 8.372401e+00 6.375630e+00 7.618852e+00 3.072187e+00 -6.134366e-02 4.119978e-02 1.421922e-01 2.262714e-01 2.651582e-01 2.815334e-01 2.953957e-01 3.193142e-01 3.493463e-01 3.086813e-01 1.979116e-01 8.029469e-02 1.779697e-06
<VARIANCE> 25
 6.981997e+00 8.892327e+00 1.064896e+01 1.595638e+01 1.722941e+01 1.554735e+01 1.692814e+01 1.860658e+01 1.657318e+01 1.738153e+01 1.812402e+01 1.432997e+01 1.255316e-01 2.265740e-01 3.363545e-01 4.668889e-01 6.485721e-01 8.140662e-01 9.290728e-01 1.002218e+00 1.051407e+00 1.076663e+00 1.074940e+00 1.012951e+00 9.998266e-07
<GCONST> 5.804882e+01
<MIXTURE> 3 4.549242e-03
<MEAN> 25
 -4.869163e+00 1.311190e+00 9.910855e-01 9.891484e+00 6.689330e+00 7.423603e+00 7.839748e+00 6.947512e+00 8.372401e+00 6.375630e+00 7.618852e+00 3.072187e+00 -6.134366e-02 4.119978e-02 1.421922e-01 2.262714e-01 2.651582e-01 2.815334e-01 2.953957e-01 3.193142e-01 3.493463e-01 3.086813e-01 1.979116e-01 8.029469e-02 1.779697e-06
<VARIANCE> 25
 6.981997e+00 8.892327e+00 1.064896e+01 1.595638e+01 1.722941e+01 1.554735e+01 1.692814e+01 1.860658e+01 1.657318e+01 1.738153e+01 1.812402e+01 1.432997e+01 1.255316e-01 2.265740e-01 3.363545e-01 4.668889e-01 6.485721e-01 8.140662e-01 9.290728e-01 1.002218e+00 1.051407e+00 1.076663e+00 1.074940e+00 1.012951e+00 9.998266e-07
<GCONST> 5.804882e+01
<MIXTURE> 4 1.671429e-02
<MEAN> 25
 3.434499e+00 2.548324e+00 -3.794497e+00 9.305318e-01 4.320382e+00 -2.111445e-01 7.360524e-02 7.047475e-03 1.505243e+00 1.303299e+00 -1.890957e+00 1.074767e-01 -2.770371e+00 1.216870e+00 1.776842e+00 3.089849e+00 9.238425e-01 5.014137e-01 1.516707e+00 1.040486e+00 9.760119e-01 4.313352e-01 1.239192e+00 8.983343e-01 -1.039444e-01
<VARIANCE> 25
 2.118795e+01 2.949861e+01 2.921344e+01 3.983426e+01 4.571085e+01 6.872062e+01 6.527406e+01 5.373806e+01 5.537588e+01 6.214800e+01 4.975544e+01 3.591988e+01 2.347897e+00 5.052345e+00 3.734455e+00 4.943809e+00 5.019763e+00 6.156396e+00 6.099288e+00 5.581562e+00 5.962733e+00 6.430148e+00 6.118730e+00 4.462897e+00 6.101859e-03
<GCONST> 1.054934e+02
<MIXTURE> 5 3.206198e-03
<MEAN> 25
 -3.412394e+00 2.180768e+00 6.131451e-01 9.415619e+00 6.684824e+00 6.309346e+00 7.104422e+00 4.720566e+00 5.492338e+00 3.843239e+00 4.654152e+00 2.602457e+00 -3.240938e-01 7.525231e-01 1.224213e+00 1.033033e+00 3.079464e-01 -9.901656e-02 -8.405472e-02 3.092512e-02 4.563486e-01 6.832846e-01 4.041861e-01 8.782247e-02 -2.687882e-05
<VARIANCE> 25
 1.025840e+01 1.393036e+01 2.347152e+01 2.572231e+01 2.032460e+01 1.944420e+01 2.016477e+01 2.035167e+01 2.141622e+01 2.129116e+01 2.410077e+01 1.635620e+01 1.209108e+00 1.243254e+00 1.356695e+00 1.672038e+00 2.282438e+00 2.374799e+00 2.299500e+00 2.282479e+00 2.315686e+00 2.235945e+00 2.084097e+00 1.872022e+00 1.000938e-06
<GCONST> 7.517400e+01
<MIXTURE> 6 5.475854e-03
<MEAN> 25
 9.701078e+00 -4.174897e-01 -6.690117e+00 -1.104375e+01 -2.116943e+00 6.733409e+00 -5.899592e+00 -5.295850e+00 -3.657481e+00 1.828345e+00 4.643408e+00 -1.252264e+00 4.849495e-01 8.959181e-01 -3.511360e-01 -1.468511e+00 -6.382775e-01 1.314834e+00 1.536937e+00 2.477402e-01 -1.218545e+00 -1.218207e+00 3.229711e-01 1.228556e+00 -8.164579e-03
<VARIANCE> 25
 8.971481e+00 1.707654e+01 2.396632e+01 3.913390e+01 3.677557e+01 3.065771e+01 4.407087e+01 3.807340e+01 4.074947e+01 3.947580e+01 4.210367e+01 2.841494e+01 3.116766e-01 8.576597e-01 9.454405e-01 1.978293e+00 1.605744e+00 2.015765e+00 1.919416e+00 2.051985e+00 2.398706e+00 1.963620e+00 2.245870e+00 1.438075e+00 5.859110e-04
<GCONST> 8.387752e+01
<MIXTURE> 7 5.475854e-03
<MEAN> 25
 9.701078e+00 -4.174897e-01 -6.690117e+00 -1.104375e+01 -2.116943e+00 6.733409e+00 -5.899592e+00 -5.295850e+00 -3.657481e+00 1.828345e+00 4.643408e+00 -1.252264e+00 4.849495e-01 8.959181e-01 -3.511360e-01 -1.468511e+00 -6.382775e-01 1.314834e+00 1.536937e+00 2.477402e-01 -1.218545e+00 -1.218207e+00 3.229711e-01 1.228556e+00 -8.164579e-03
<VARIANCE> 25
 8.971481e+00 1.707654e+01 2.396632e+01 3.913390e+01 3.677557e+01 3.065771e+01 4.407087e+01 3.807340e+01 4.074947e+01 3.947580e+01 4.210367e+01 2.841494e+01 3.116766e-01 8.576597e-01 9.454405e-01 1.978293e+00 1.605744e+00 2.015765e+00 1.919416e+00 2.051985e+00 2.398706e+00 1.963620e+00 2.245870e+00 1.438075e+00 5.859110e-04
<GCONST> 8.387752e+01
<MIXTURE> 8 1.165917e-02
<MEAN> 25
 -4.730199e+00 1.362816e+00 1.292748e+00 9.559585e+00 6.575375e+00 6.255013e+00 6.479896e+00 5.688547e+00 6.659214e+00 5.632598e+00 6.573522e+00 3.153029e+00 -6.298420e-01 -1.425750e+00 -1.071352e+00 -1.731174e+00 -2.311497e-01 -9.455766e-01 -1.777362e-01 -2.896062e-01 -2.530172e-01 -1.740473e-01 -2.134153e-01 8.124441e-02 9.889306e-02
<VARIANCE> 25
 9.340279e+00 9.846961e+00 1.161089e+01 1.605530e+01 1.663473e+01 1.570662e+01 1.812969e+01 1.751233e+01 1.704177e+01 1.737447e+01 1.887538e+01 1.399738e+01 2.757225e+00 2.815523e+00 3.906960e+00 3.762089e+00 3.455942e+00 3.315924e+00 3.128917e+00 3.080699e+00 2.871871e+00 2.655766e+00 2.434825e+00 1.902017e+00 6.682003e-03
<GCONST> 8.628777e+01
<MIXTURE> 9 1.199672e-02
<MEAN> 25
 9.296342e+00 3.392045e+00 -6.206107e+00 -1.067020e+01 -2.213315e+00 4.964622e+00 -2.207267e+00 -2.304612e+00 -5.392327e+00 -1.254364e+00 5.663338e-01 -1.122483e-02 1.440925e+00 -1.294459e-01 -4.913625e-01 -2.704207e+00 -1.645983e+00 8.545849e-01 -9.707689e-01 -2.298459e-01 -1.801197e-01 -5.766147e-01 6.135758e-01 -1.529053e-01 7.331952e-02
<VARIANCE> 25
 1.225052e+01 2.140251e+01 3.355524e+01 5.351197e+01 5.014096e+01 3.229412e+01 4.318104e+01 5.213361e+01 4.206063e+01 4.158025e+01 3.610855e+01 2.690632e+01 2.086876e+00 2.450120e+00 4.570873e+00 4.873846e+00 5.007781e+00 4.094005e+00 4.241267e+00 6.039226e+00 5.035919e+00 4.077642e+00 4.016556e+00 2.802901e+00 2.212617e-03
<GCONST> 9.879234e+01
<MIXTURE> 10 6.596976e-03
<MEAN> 25
 8.210244e-01 7.634268e+00 5.375898e+00 7.148911e+00 1.587301e+00 -2.115182e+00 -5.182858e-01 -1.685378e+00 8.743228e-01 8.598396e-01 8.390288e-01 6.574236e-01 -1.924913e+00 -6.733400e-01 -4.585913e-01 3.028162e+00 2.463252e+00 2.710449e+00 2.373935e+00 2.277895e+00 1.861602e+00 1.545096e+00 2.335836e+00 5.248606e-01 -1.381413e-01
<VARIANCE> 25
 1.954160e+01 2.068600e+01 2.230434e+01 2.906120e+01 3.831286e+01 3.494031e+01 3.514597e+01 3.384074e+01 2.761249e+01 2.904968e+01 2.695865e+01 2.501419e+01 2.234859e+00 3.426124e+00 5.535522e+00 5.169662e+00 5.552308e+00 4.469494e+00 4.699787e+00 4.843506e+00 4.388625e+00 5.021133e+00 4.442254e+00 3.191056e+00 2.696959e-03
<GCONST> 9.745955e+01
<MIXTURE> 11 1.633820e-02
<MEAN> 25
 6.889589e+00 3.829557e+00 3.401097e+00 4.220039e+00 -2.868701e+00 -1.945787e+00 -2.681857e+00 -5.764855e+00 -3.304900e+00 9.971417e-02 -2.376622e+00 -1.972277e+00 -2.563022e-01 4.412424e-01 9.069312e-02 2.380377e-01 5.152239e-01 5.296674e-02 3.907925e-01 -4.371853e-03 -6.074078e-02 -1.019680e-01 -2.247416e-01 1.012815e-01 -1.443474e-02
<VARIANCE> 25
 1.312448e+01 2.168115e+01 1.751428e+01 3.171063e+01 3.438142e+01 3.361613e+01 4.315248e+01 4.187190e+01 3.824945e+01 3.269391e+01 3.114167e+01 2.598837e+01 8.694485e-01 1.173495e+00 1.543222e+00 2.102882e+00 1.889197e+00 1.969922e+00 2.284228e+00 2.799711e+00 2.058640e+00 1.829018e+00 1.766288e+00 1.425942e+00 8.619122e-04
<GCONST> 8.585706e+01
<MIXTURE> 12 5.904134e-03
<MEAN> 25
 1.076312e+01 3.742690e+00 -4.501163e+00 -1.598951e+01 -8.694416e+00 8.640163e+00 -8.963145e-01 -1.920633e+00 -1.723212e+00 -4.886060e+00 1.774434e+00 7.159683e-01 6.767812e-02 2.935943e-01 7.946149e-02 -3.681996e-01 -3.104110e-01 2.952355e-02 3.055114e-01 4.475363e-01 1.410641e-01 -3.849128e-01 -3.857354e-01 5.390894e-02 -6.302345e-03
<VARIANCE> 25
 8.900857e+00 2.100009e+01 2.335678e+01 3.508239e+01 4.206239e+01 3.097369e+01 4.178857e+01 4.897836e+01 4.405798e+01 3.738278e+01 3.799036e+01 2.892470e+01 2.468261e-01 6.883770e-01 6.859803e-01 1.169785e+00 1.186348e+00 1.053916e+00 1.171221e+00 1.386372e+00 1.240354e+00 1.222579e+00 1.221629e+00 9.563195e-01 5.785352e-04
<GCONST> 7.892365e+01
<MIXTURE> 13 5.904134e-03
<MEAN> 25
 1.076312e+01 3.742690e+00 -4.501163e+00 -1.598951e+01 -8.694416e+00 8.640163e+00 -8.963145e-01 -1.920633e+00 -1.723212e+00 -4.886060e+00 1.774434e+00 7.159683e-01 6.767812e-02 2.935943e-01 7.946149e-02 -3.681996e-01 -3.104110e-01 2.952355e-02 3.055114e-01 4.475363e-01 1.410641e-01 -3.849128e-01 -3.857354e-01 5.390894e-02 -6.302345e-03
<VARIANCE> 25
 8.900857e+00 2.100009e+01 2.335678e+01 3.508239e+01 4.206239e+01 3.097369e+01 4.178857e+01 4.897836e+01 4.405798e+01 3.738278e+01 3.799036e+01 2.892470e+01 2.468261e-01 6.883770e-01 6.859803e-01 1.169785e+00 1.186348e+00 1.053916e+00 1.171221e+00 1.386372e+00 1.240354e+00 1.222579e+00 1.221629e+00 9.563195e-01 5.785352e-04
<GCONST> 7.892365e+01
<MIXTURE> 14 6.488954e-03
<MEAN> 25
 -4.318061e+00 -3.790582e-01 -3.109824e-01 8.907852e+00 7.513450e+00 7.377959e+00 7.828600e+00 7.325715e+00 7.251413e+00 5.227127e+00 6.866051e+00 4.101113e+00 -2.745775e-01 1.937662e-01 3.652064e-01 3.107300e-01 7.007691e-03 6.053727e-02 9.707101e-02 1.775480e-01 2.958381e-01 5.396324e-01 5.061553e-01 7.544553e-02 -9.332971e-03
<VARIANCE> 25
 9.291872e+00 1.385760e+01 1.862520e+01 1.786857e+01 2.091121e+01 1.959519e+01 2.151781e+01 2.064430e+01 2.007826e+01 2.390894e+01 2.138173e+01 1.597877e+01 9.623341e-01 1.640730e+00 1.773955e+00 1.935525e+00 2.245212e+00 2.258123e+00 2.255817e+00 2.240744e+00 2.284412e+00 2.507241e+00 2.196760e+00 1.812680e+00 1.029651e-03
<GCONST> 8.191460e+01
<MIXTURE> 15 2.475190e-03
<MEAN> 25
 -5.569674e+00 -6.431764e-01 -2.100854e-01 7.097006e+00 5.800711e+00 5.735033e+00 5.849317e+00 4.718295e+00 5.071549e+00 4.242096e+00 5.461547e+00 2.443953e+00 -1.465205e-01 2.988618e-03 7.913852e-02 2.701726e-01 4.986503e-01 8.251116e-01 1.065607e+00 1.179574e+00 1.071310e+00 7.045159e-01 4.045435e-01 1.155675e-01 2.573136e-04
<VARIANCE> 25
 7.372710e+00 5.389270e+00 8.682283e+00 1.403927e+01 1.374057e+01 1.376782e+01 1.539195e+01 1.592824e+01 1.376164e+01 1.383357e+01 1.455481e+01 1.224975e+01 1.370266e-01 2.234256e-01 3.077565e-01 5.022708e-01 6.749939e-01 7.986916e-01 7.345749e-01 7.618280e-01 8.789532e-01 1.049456e+00 1.036296e+00 1.038429e+00 2.980111e-05
<GCONST> 5.862931e+01
<MIXTURE> 16 2.475190e-03
<MEAN> 25
 -5.569674e+00 -6.431764e-01 -2.100854e-01 7.097006e+00 5.800711e+00 5.735033e+00 5.849317e+00 4.718295e+00 5.071549e+00 4.242096e+00 5.461547e+00 2.443953e+00 -1.465205e-01 2.988618e-03 7.913852e-02 2.701726e-01 4.986503e-01 8.251116e-01 1.065607e+00 1.179574e+00 1.071310e+00 7.045159e-01 4.045435e-01 1.155675e-01 2.573136e-04
<VARIANCE> 25
 7.372710e+00 5.389270e+00 8.682283e+00 1.403927e+01 1.374057e+01 1.376782e+01 1.539195e+01 1.592824e+01 1.376164e+01 1.383357e+01 1.455481e+01 1.224975e+01 1.370266e-01 2.234256e-01 3.077565e-01 5.022708e-01 6.749939e-01 7.986916e-01 7.345749e-01 7.618280e-01 8.789532e-01 1.049456e+00 1.036296e+00 1.038429e+00 2.980111e-05
<GCONST> 5.862931e+01
<MIXTURE> 17 9.518312e-03
<MEAN> 25
 3.757282e+00 -7.796614e-01 6.385416e+00 2.379439e+00 -5.989362e+00 -6.365399e+00 -3.125986e+00 -1.374798e-01 -2.666245e+00 -3.264898e+00 4.888186e-02 -2.116070e-02 -7.591829e-01 -1.217460e+00 1.301997e+00 -2.128023e+00 -2.356629e+00 -1.542652e-01 1.927204e-01 7.727419e-01 -2.762615e-01 -1.770001e-01 1.028147e+00 4.005091e-01 8.205180e-02
<VARIANCE> 25
 1.647226e+01 3.160295e+01 3.015162e+01 3.958778e+01 4.487759e+01 4.882290e+01 4.226986e+01 3.415860e+01 3.537013e+01 2.696493e+01 2.805035e+01 2.793770e+01 1.833867e+00 2.694524e+00 4.006006e+00 3.082699e+00 4.106816e+00 5.455196e+00 4.996764e+00 4.709590e+00 4.060786e+00 4.029415e+00 3.065610e+00 2.727600e+00 2.142529e-03
<GCONST> 9.692999e+01
<MIXTURE> 18 1.221018e-02
<MEAN> 25
 3.952006e+00 4.619668e+00 6.743869e+00 4.738316e+00 -4.611825e+00 -8.354799e+00 -1.744776e+00 -1.172064e+00 -3.369729e+00 -2.453769e+00 -8.812887e-01 5.780753e-01 -7.617994e-01 2.160062e+00 -1.997920e-01 2.031591e+00 3.116393e+00 1.484415e+00 8.046517e-01 -2.105875e-01 6.187577e-01 5.187472e-01 -2.903493e-01 -6.165982e-02 -1.238272e-01
<VARIANCE> 25
 1.608821e+01 2.532320e+01 3.288056e+01 2.618108e+01 4.004084e+01 3.367881e+01 3.866214e+01 3.510765e+01 3.918581e+01 3.453244e+01 3.252536e+01 3.095799e+01 2.561846e+00 3.034867e+00 4.733859e+00 4.049326e+00 4.091873e+00 4.669168e+00 4.657209e+00 4.455103e+00 4.487283e+00 4.312629e+00 4.568542e+00 3.625834e+00 4.113570e-03
<GCONST> 9.852282e+01
<MIXTURE> 19 9.912824e-03
<MEAN> 25
 -1.011024e+01 1.816959e+00 3.625573e-01 1.024866e+00 3.950513e+00 1.598899e+00 3.344508e+00 1.094109e+00 2.057238e+00 1.165285e+00 1.068080e+00 2.003796e+00 2.066340e+00 1.737865e+00 2.152148e+00 7.446597e-01 -1.037732e+00 -1.011459e+00 -1.036996e+00 -1.420108e+00 -1.482927e+00 -1.137448e+00 -8.347847e-01 -8.020923e-01 1.364421e-03
<VARIANCE> 25
 5.325196e+01 2.989295e+01 4.809315e+01 5.334189e+01 3.370021e+01 3.263756e+01 3.133315e+01 2.981985e+01 2.829033e+01 2.684467e+01 3.013060e+01 1.973033e+01 2.437497e+00 2.203843e+00 2.178140e+00 2.327685e+00 2.579360e+00 2.240595e+00 2.438542e+00 2.394360e+00 2.096131e+00 2.039266e+00 2.237666e+00 1.773911e+00 2.377412e-03
<GCONST> 9.164543e+01
<MIXTURE> 20 6.308331e-03
<MEAN> 25
 -1.418132e+01 7.416140e+00 8.452408e-01 6.152209e+00 4.843551e+00 1.637060e+00 5.209204e+00 8.536390e-01 9.223395e-01 7.987139e-01 2.568536e+00 -3.024296e-01 -3.285922e+00 -8.668597e-01 -1.565156e+00 3.325934e-01 1.541027e+00 2.063107e+00 1.979224e+00 2.056176e+00 2.144577e+00 2.040218e+00 1.684738e+00 9.452935e-01 4.732109e-02
<VARIANCE> 25
 1.966459e+01 2.345557e+01 3.096030e+01 3.717622e+01 3.084945e+01 2.789003e+01 2.993310e+01 3.147509e+01 2.796380e+01 2.821364e+01 2.515994e+01 2.091749e+01 2.092051e+00 2.182290e+00 1.909937e+00 2.541342e+00 2.702732e+00 2.313156e+00 2.310107e+00 2.320074e+00 2.235431e+00 2.652264e+00 2.241411e+00 1.865663e+00 1.886400e-03
<GCONST> 8.921887e+01
<MIXTURE> 21 7.928653e-03
<MEAN> 25
 3.916698e+00 -4.441427e+00 5.669171e+00 -1.589685e+00 -1.046118e+01 -8.631243e+00 -2.629000e+00 4.161822e+00 -2.009619e+00 -3.419591e+00 1.913468e-01 3.042234e-01 -6.974192e-01 1.327439e+00 2.552461e+00 -3.614267e-02 -1.514012e+00 3.106843e-01 5.624945e-01 -1.521169e+00 -1.926621e+00 3.041429e-01 1.316887e+00 2.428719e-01 -1.270886e-02
<VARIANCE> 25
 9.093788e+00 1.882174e+01 2.962675e+01 2.793793e+01 2.868301e+01 3.298493e+01 4.250983e+01 3.884867e+01 4.223246e+01 3.116655e+01 3.338980e+01 2.282981e+01 3.922112e-01 9.400598e-01 1.885135e+00 1.275800e+00 2.238881e+00 2.195813e+00 3.599399e+00 2.503284e+00 2.166906e+00 2.551813e+00 1.981687e+00 2.245637e+00 4.207148e-04
<GCONST> 8.498902e+01
<MIXTURE> 22 8.827789e-03
<MEAN> 25
 -1.792066e+01 7.154544e+00 -4.131163e+00 7.392220e+00 4.602620e+00 2.761151e+00 8.399538e+00 1.748433e+00 5.379186e+00 3.301008e+00 5.716296e+00 1.185009e+00 -3.095729e-01 -2.075659e-01 -1.255275e-01 -1.492603e-01 -7.248946e-03 1.369754e-01 1.807611e-01 1.779479e-01 2.484825e-01 2.072649e-01 1.726374e-01 1.924234e-01 8.857255e-03
<VARIANCE> 25
 8.118405e+00 1.682647e+01 1.738381e+01 2.517318e+01 2.289577e+01 2.083667e+01 1.943262e+01 1.871029e+01 1.813984e+01 2.086609e+01 1.924181e+01 1.378738e+01 1.090721e+00 1.357350e+00 1.363965e+00 1.571990e+00 1.408856e+00 1.526946e+00 1.508896e+00 1.532802e+00 1.614201e+00 1.544766e+00 1.357391e+00 1.167993e+00 1.745527e-03
<GCONST> 7.830960e+01
<MIXTURE> 23 6.455497e-03
<MEAN> 25
 6.662369e+00 2.047718e+00 2.654890e+00 1.822287e+00 -4.116112e+00 -3.017841e+00 -3.671156e+00 -4.960673e+00 -2.552744e+00 -8.973780e-01 -3.305239e+00 -1.743986e+00 3.561798e-02 1.581822e-01 -8.069536e-02 4.708547e-02 4.358472e-02 1.056368e-01 1.310717e-02 -1.006313e-01 6.264322e-02 1.118480e-02 -6.092835e-02 3.477648e-02 -4.865916e-03
<VARIANCE> 25
 1.233609e+01 1.796773e+01 2.048933e+01 3.307566e+01 3.328808e+01 4.151365e+01 5.213663e+01 5.359029e+01 4.258535e+01 3.804393e+01 4.116340e+01 3.281846e+01 1.182428e-01 2.691194e-01 3.800771e-01 5.002793e-01 6.044907e-01 6.504855e-01 8.749866e-01 1.064531e+00 9.532331e-01 8.338199e-01 8.102791e-01 6.801493e-01 8.596924e-05
<GCONST> 7.133299e+01
<MIXTURE> 24 6.455497e-03
<MEAN> 25
 6.662369e+00 2.047718e+00 2.654890e+00 1.822287e+00 -4.116112e+00 -3.017841e+00 -3.671156e+00 -4.960673e+00 -2.552744e+00 -8.973780e-01 -3.305239e+00 -1.743986e+00 3.561798e-02 1.581822e-01 -8.069536e-02 4.708547e-02 4.358472e-02 1.056368e-01 1.310717e-02 -1.006313e-01 6.264322e-02 1.118480e-02 -6.092835e-02 3.477648e-02 -4.865916e-03
<VARIANCE> 25
 1.233609e+01 1.796773e+01 2.048933e+01 3.307566e+01 3.328808e+01 4.151365e+01 5.213663e+01 5.359029e+01 4.258535e+01 3.804393e+01 4.116340e+01 3.281846e+01 1.182428e-01 2.691194e-01 3.800771e-01 5.002793e-01 6.044907e-01 6.504855e-01 8.749866e-01 1.064531e+00 9.532331e-01 8.338199e-01 8.102791e-01 6.801493e-01 8.596924e-05
<GCONST> 7.133299e+01
<MIXTURE> 25 1.118642e-02
<MEAN> 25
 2.962799e-01 3.450221e+00 1.662010e+01 -1.021739e+00 -1.122083e+01 -1.766432e+00 -5.027959e+00 -3.001412e+00 -6.892765e+00 -5.422391e+00 4.062256e+00 -1.636134e+00 -1.266795e-01 4.344439e-01 1.724235e-01 1.629531e-01 2.231929e-01 1.109228e-01 1.782212e-01 -1.837645e-01 -2.473836e-01 7.599044e-02 -6.734100e-02 -1.104491e-01 -1.270140e-02
<VARIANCE> 25
 8.744004e+00 2.200857e+01 2.269408e+01 2.833924e+01 3.214482e+01 4.057659e+01 2.720384e+01 2.998856e+01 2.824171e+01 3.636243e+01 2.083026e+01 2.726551e+01 5.944602e-01 1.430543e+00 1.391916e+00 1.384842e+00 2.252981e+00 2.014958e+00 1.760390e+00 1.651731e+00 1.524029e+00 1.635017e+00 1.343241e+00 1.282744e+00 1.269745e-03
<GCONST> 8.268965e+01
<MIXTURE> 26 7.727677e-03
<MEAN> 25
 2.163381e+00 -6.407881e+00 -1.033117e+01 -7.211782e-01 7.958178e+00 5.462815e+00 4.046947e+00 -2.764756e-01 2.263422e+00 -9.550966e-01 -2.890964e+00 -9.819013e-01 -6.580557e-01 6.279295e-01 3.642596e-01 6.958286e-01 1.821733e-01 2.425563e-01 2.871846e-01 3.281600e-01 2.919641e-01 8.070987e-02 3.835433e-01 4.250855e-01 -5.237935e-02
<VARIANCE> 25
 2.501184e+01 3.414967e+01 2.618925e+01 6.209195e+01 3.924480e+01 4.231496e+01 4.594409e+01 4.400350e+01 3.913279e+01 5.415418e+01 3.990743e+01 4.659454e+01 1.643833e+00 1.950317e+00 1.924413e+00 1.998405e+00 2.323387e+00 2.354252e+00 2.507760e+00 2.747327e+00 2.326009e+00 2.335168e+00 2.159684e+00 2.000578e+00 3.327364e-03
<GCONST> 9.389581e+01
<MIXTURE> 27 7.727677e-03
<MEAN> 25
 2.163381e+00 -6.407881e+00 -1.033117e+01 -7.211782e-01 7.958178e+00 5.462815e+00 4.046947e+00 -2.764756e-01 2.263422e+00 -9.550966e-01 -2.890964e+00 -9.819013e-01 -6.580557e-01 6.279295e-01 3.642596e-01 6.958286e-01 1.821733e-01 2.425563e-01 2.871846e-01 3.281600e-01 2.919641e-01 8.070987e-02 3.835433e-01 4.250855e-01 -5.237935e-02
<VARIANCE> 25
 2.501184e+01 3.414967e+01 2.618925e+01 6.209195e+01 3.924480e+01 4.231496e+01 4.594409e+01 4.400350e+01 3.913279e+01 5.415418e+01 3.990743e+01 4.659454e+01 1.643833e+00 1.950317e+00 1.924413e+00 1.998405e+00 2.323387e+00 2.354252e+00 2.507760e+00 2.747327e+00 2.326009e+00 2.335168e+00 2.159684e+00 2.000578e+00 3.327364e-03
<GCONST> 9.389581e+01
<MIXTURE> 28 5.036674e-03
<MEAN> 25
 -5.030486e+00 -4.704719e-02 -1.570103e+00 6.295865e+00 4.816216e+00 3.600544e+00 5.537734e+00 3.190704e+00 3.639114e+00 2.314506e+00 2.852788e+00 3.081660e+00 -8.397363e-02 2.223332e-01 5.520555e-01 7.894765e-01 8.406879e-01 7.350736e-01 5.219595e-01 3.981256e-01 4.134904e-01 4.971155e-01 3.671474e-01 2.159042e-01 -1.401618e-06
<VARIANCE> 25
 1.272604e+01 8.052152e+00 1.152528e+01 1.572409e+01 1.757500e+01 1.695910e+01 1.832476e+01 1.947257e+01 1.887685e+01 1.703964e+01 2.072936e+01 1.453555e+01 2.586952e-01 3.238902e-01 4.186864e-01 4.447956e-01 6.174486e-01 8.333095e-01 1.004716e+00 1.103193e+00 1.067353e+00 9.886608e-01 9.882026e-01 1.023017e+00 9.601088e-07
<GCONST> 6.031903e+01
<MIXTURE> 29 5.036674e-03
<MEAN> 25
 -5.030486e+00 -4.704719e-02 -1.570103e+00 6.295865e+00 4.816216e+00 3.600544e+00 5.537734e+00 3.190704e+00 3.639114e+00 2.314506e+00 2.852788e+00 3.081660e+00 -8.397363e-02 2.223332e-01 5.520555e-01 7.894765e-01 8.406879e-01 7.350736e-01 5.219595e-01 3.981256e-01 4.134904e-01 4.971155e-01 3.671474e-01 2.159042e-01 -1.401618e-06
<VARIANCE> 25
 1.272604e+01 8.052152e+00 1.152528e+01 1.572409e+01 1.757500e+01 1.695910e+01 1.832476e+01 1.947257e+01 1.887685e+01 1.703964e+01 2.072936e+01 1.453555e+01 2.586952e-01 3.238902e-01 4.186864e-01 4.447956e-01 6.174486e-01 8.333095e-01 1.004716e+00 1.103193e+00 1.067353e+00 9.886608e-01 9.882026e-01 1.023017e+00 9.601088e-07
<GCONST> 6.031903e+01
<MIXTURE> 30 8.917812e-03
<MEAN> 25
 -4.475464e+00 -1.953368e-01 6.510079e-01 9.060643e+00 7.752168e+00 7.499487e+00 7.568864e+00 6.870657e+00 6.525460e+00 4.896212e+00 7.006713e+00 3.494368e+00 -2.302472e-02 3.117388e-02 5.723145e-02 8.868199e-02 8.166894e-02 4.435195e-02 1.418861e-02 -4.029789e-03 1.597402e-02 5.251510e-02 6.072949e-02 3.525648e-02 -5.698708e-04
<VARIANCE> 25
 7.050320e+00 9.844620e+00 1.038394e+01 1.393899e+01 1.588947e+01 1.640878e+01 1.915215e+01 1.829535e+01 1.626964e+01 1.838574e+01 2.120185e+01 1.435676e+01 9.751400e-02 1.995610e-01 3.247377e-01 4.806818e-01 6.180157e-01 7.240832e-01 7.719098e-01 8.106830e-01 8.771868e-01 9.355572e-01 9.192080e-01 8.602641e-01 5.098910e-05
<GCONST> 6.061776e+01
<MIXTURE> 31 4.136493e-03
<MEAN> 25
 -2.487148e+00 -5.357145e+00 -3.848381e-01 4.056507e+00 2.568202e+00 1.378983e+00 5.322836e+00 7.178218e+00 2.534547e+00 1.005978e+00 6.500751e+00 2.747369e+00 2.359302e-01 4.903970e-01 -1.609428e-01 3.391325e-01 2.189014e-01 4.152084e-01 1.880922e-01 -8.695435e-02 3.283643e-01 3.195860e-01 1.285433e-01 1.019894e-01 -1.751815e-02
<VARIANCE> 25
 9.697268e+00 1.423393e+01 1.662391e+01 1.893939e+01 2.848083e+01 2.134014e+01 2.083204e+01 2.527759e+01 2.384080e+01 2.546540e+01 1.898783e+01 1.732535e+01 1.754710e-01 4.535441e-01 6.024071e-01 6.919938e-01 9.977009e-01 1.247528e+00 1.197269e+00 1.569019e+00 1.252767e+00 1.292797e+00 1.295145e+00 1.179424e+00 2.335758e-04
<GCONST> 7.149461e+01
<MIXTURE> 32 4.136493e-03
<MEAN> 25
 -2.487148e+00 -5.357145e+00 -3.848381e-01 4.056507e+00 2.568202e+00 1.378983e+00 5.322836e+00 7.178218e+00 2.534547e+00 1.005978e+00 6.500751e+00 2.747369e+00 2.359302e-01 4.903970e-01 -1.609428e-01 3.391325e-01 2.189014e-01 4.152084e-01 1.880922e-01 -8.695435e-02 3.283643e-01 3.195860e-01 1.285433e-01 1.019894e-01 -1.751815e-02
<VARIANCE> 25
 9.697268e+00 1.423393e+01 1.662391e+01 1.893939e+01 2.848083e+01 2.134014e+01 2.083204e+01 2.527759e+01 2.384080e+01 2.546540e+01 1.898783e+01 1.732535e+01 1.754710e-01 4.535441e-01 6.024071e-01 6.919938e-01 9.977009e-01 1.247528e+00 1.197269e+00 1.569019e+00 1.252767e+00 1.292797e+00 1.295145e+00 1.179424e+00 2.335758e-04
<GCONST> 7.149461e+01
<MIXTURE> 33 1.508826e-02
<MEAN> 25
 6.398357e+00 -3.897609e+00 -2.246392e+00 -2.608368e+00 -1.934983e+00 -5.440434e+00 -7.002660e+00 1.524887e+00 2.209535e+00 -4.117298e-01 -4.672242e+00 -2.905914e+00 6.702580e-01 -1.171794e+00 -2.396276e+00 -1.865715e+00 1.367618e+00 1.366958e+00 -6.147551e-01 6.810345e-01 9.971685e-01 5.556008e-01 -3.711869e-01 -1.315342e+00 3.802172e-02
<VARIANCE> 25
 1.040965e+01 2.072946e+01 2.804396e+01 3.478603e+01 3.911625e+01 4.316375e+01 4.332368e+01 4.625725e+01 3.923270e+01 4.231023e+01 3.365279e+01 2.758283e+01 1.126734e+00 1.872415e+00 2.182480e+00 2.118870e+00 4.270250e+00 3.371362e+00 4.652716e+00 5.421802e+00 3.653556e+00 4.239586e+00 3.367882e+00 2.515801e+00 1.429968e-03
<GCONST> 9.398621e+01
<MIXTURE> 34 1.588179e-02
<MEAN> 25
 8.925200e+00 4.685146e-02 1.346489e-01 1.214129e+00 -2.945001e+00 -1.522989e+00 -6.152664e+00 -4.689582e+00 -1.807269e+00 1.536793e-01 -2.652869e+00 -3.698839e+00 -1.738699e-02 1.346468e+00 1.474300e+00 2.397017e+00 -4.146675e-02 -1.528099e-01 7.909318e-01 -1.641915e+00 -9.012461e-01 2.588685e-01 -5.558733e-01 2.446451e-01 -6.236802e-02
<VARIANCE> 25
 7.682374e+00 3.104432e+01 2.944311e+01 4.992827e+01 4.237739e+01 4.945571e+01 5.500985e+01 5.673395e+01 5.267009e+01 4.326220e+01 4.833967e+01 3.153191e+01 1.263721e+00 1.984108e+00 4.268368e+00 4.050744e+00 5.633932e+00 5.834544e+00 5.512185e+00 6.165491e+00 5.201098e+00 4.981277e+00 5.024787e+00 3.879380e+00 1.154077e-03
<GCONST> 9.971655e+01
<MIXTURE> 35 1.467755e-02
<MEAN> 25
 -2.153461e+00 -5.247227e+00 -9.981586e+00 2.131294e-01 9.702444e+00 7.974611e-01 1.607134e+00 2.534338e+00 1.470651e+00 4.580024e+00 4.181487e-02 1.883093e+00 5.471777e-01 -1.117256e+00 -1.427526e+00 -1.386556e+00 4.085299e-01 -7.974538e-01 -6.788183e-01 -1.322397e-01 -1.593711e-01 1.646678e-01 -6.530930e-01 -4.977688e-01 1.076697e-01
<VARIANCE> 25
 1.958204e+01 2.945527e+01 4.339185e+01 6.237614e+01 4.218772e+01 5.743769e+01 5.098499e+01 4.362836e+01 5.037372e+01 3.850091e+01 3.658078e+01 3.094646e+01 3.464812e+00 3.572169e+00 6.781904e+00 5.557247e+00 5.221769e+00 5.578999e+00 4.929902e+00 4.746635e+00 5.050554e+00 4.515002e+00 4.076949e+00 3.794312e+00 5.301610e-03
<GCONST> 1.036057e+02
<MIXTURE> 36 1.093293e-02
<MEAN> 25
 4.630218e+00 -3.168319e+00 6.270213e+00 2.255369e+00 -9.295012e+00 -8.097062e+00 -5.615130e+00 2.994592e+00 -1.754060e+00 -4.188904e+00 2.514414e+00 -1.529341e-01 3.352918e-01 1.346982e-01 -8.344542e-01 1.862451e-02 8.357688e-01 6.043017e-02 -3.217897e-01 9.389093e-02 4.341297e-01 5.241610e-01 -4.070105e-01 -2.986301e-01 -1.411951e-02
<VARIANCE> 25
 9.621268e+00 1.661338e+01 2.362318e+01 2.592754e+01 3.375922e+01 3.200742e+01 4.637247e+01 3.783213e+01 3.575460e+01 3.221533e+01 2.562274e+01 2.429293e+01 4.350414e-01 6.957142e-01 1.404957e+00 1.160021e+00 1.570855e+00 1.525459e+00 2.348028e+00 1.954160e+00 1.938213e+00 1.636104e+00 1.408284e+00 1.382971e+00 6.679285e-04
<GCONST> 8.157663e+01
<MIXTURE> 37 1.246826e-02
<MEAN> 25
 5.455217e-01 7.771823e+00 1.205470e+01 -5.553748e+00 -8.027953e+00 -1.052550e+00 -5.080320e+00 -8.322632e+00 -3.709638e+00 -9.070246e-01 -3.669041e+00 -1.291496e+00 1.822690e-01 6.470770e-01 -1.353536e+00 3.582920e+00 1.987807e+00 -3.004701e-01 1.091241e+00 4.357575e-01 5.281998e-01 -3.233834e-01 5.371670e-01 -9.753343e-02 -9.490810e-02
<VARIANCE> 25
 1.592750e+01 2.599074e+01 3.085647e+01 5.100256e+01 3.395787e+01 3.200441e+01 4.396945e+01 3.505270e+01 3.860434e+01 3.596337e+01 3.774512e+01 3.088296e+01 2.955937e+00 3.415021e+00 3.018275e+00 4.093223e+00 4.616675e+00 3.751988e+00 4.207548e+00 3.810876e+00 3.448890e+00 3.620811e+00 3.869432e+00 2.791159e+00 3.930228e-03
<GCONST> 9.778020e+01
<MIXTURE> 38 1.154525e-02
<MEAN> 25
 -4.472667e+00 8.962093e+00 4.594461e+00 3.221955e+00 8.522233e-01 -5.209744e+00 -6.101288e-01 -2.746993e+00 -2.848034e+00 -3.097340e+00 -1.491938e+00 -5.397162e-01 -4.513188e+00 1.251396e+00 -3.108910e-01 1.455073e+00 2.561508e+00 1.389860e+00 2.048521e+00 9.494963e-01 7.863397e-01 6.357208e-01 1.002878e+00 3.242921e-01 4.852080e-02
<VARIANCE> 25
 3.135655e+01 2.961410e+01 3.897035e+01 3.302433e+01 4.879174e+01 3.558676e+01 3.630895e+01 4.159159e+01 3.485318e+01 3.247944e+01 2.428098e+01 2.868852e+01 2.364299e+00 3.935395e+00 3.905465e+00 5.153812e+00 4.245639e+00 5.015616e+00 4.778426e+00 4.645641e+00 4.439381e+00 4.933243e+00 4.384540e+00 3.259244e+00 2.046907e-03
<GCONST> 9.924385e+01
<MIXTURE> 39 9.501865e-03
<MEAN> 25
 1.244883e+00 2.507249e+00 9.671753e+00 -9.095495e+00 -1.088453e+01 -1.001391e+00 -2.729731e+00 -6.183054e+00 -4.267135e+00 9.231483e-01 -3.678854e+00 -2.024741e+00 -7.501344e-01 1.443200e+00 1.605341e+00 -1.327605e+00 1.588747e-01 1.176263e+00 -1.167343e+00 -1.283913e+00 4.235297e-01 4.664938e-01 -5.380183e-01 1.111555e-01 1.796409e-03
<VARIANCE> 25
 8.650113e+00 2.883806e+01 3.550517e+01 3.690586e+01 3.841211e+01 4.065849e+01 4.363089e+01 3.482639e+01 3.873409e+01 3.196116e+01 3.445815e+01 3.017600e+01 6.941729e-01 1.588521e+00 1.454410e+00 2.928531e+00 2.453716e+00 2.729918e+00 2.952906e+00 2.714018e+00 2.326991e+00 2.515210e+00 2.057117e+00 1.976752e+00 1.129881e-03
<GCONST> 8.930602e+01
<MIXTURE> 40 1.030800e-02
<MEAN> 25
 -8.675373e+00 2.047075e+00 -9.859113e-01 7.349121e+00 3.564287e+00 5.068051e+00 4.940190e+00 4.003851e+00 4.414814e+00 4.014421e+00 5.337080e+00 1.523701e+00 -1.039951e-01 -2.140663e-01 -2.920093e-02 -2.198279e-01 -1.040625e-01 -6.143835e-02 1.417357e-02 1.450877e-01 5.169565e-04 1.473641e-02 3.679344e-02 -5.054099e-03 3.714757e-03
<VARIANCE> 25
 4.400090e+01 1.979721e+01 2.723709e+01 3.111380e+01 2.562064e+01 1.938513e+01 1.929622e+01 2.101227e+01 1.629371e+01 1.811734e+01 1.857419e+01 1.397719e+01 7.398581e-01 7.522358e-01 8.524152e-01 1.072050e+00 1.081997e+00 1.209548e+00 1.301734e+00 1.342300e+00 1.211550e+00 1.205728e+00 1.138152e+00 1.045361e+00 7.913256e-04
<GCONST> 7.648065e+01
<MIXTURE> 41 6.713375e-03
<MEAN> 25
 1.309232e+00 1.789687e+00 1.045353e+01 -6.955227e+00 -1.045039e+01 -3.853823e+00 -2.489956e+00 -5.034333e+00 -4.651107e+00 2.670933e+00 -1.750872e+00 -9.555340e-01 8.135730e-02 -7.609878e-01 1.694244e+00 -3.557275e+00 -2.453402e+00 -1.140465e-01 -5.073153e-01 -3.534530e-01 -8.231151e-01 1.083559e+00 -1.043258e+00 8.344273e-02 8.607095e-02
<VARIANCE> 25
 1.166196e+01 2.957912e+01 3.270963e+01 3.994160e+01 3.874792e+01 4.004813e+01 3.704365e+01 2.981757e+01 3.300410e+01 2.871704e+01 3.177622e+01 2.712151e+01 3.173279e+00 3.301900e+00 3.817114e+00 3.787043e+00 4.911393e+00 5.858179e+00 4.704412e+00 4.549876e+00 3.969656e+00 4.211894e+00 3.825142e+00 3.214228e+00 2.939178e-03
<GCONST> 9.787242e+01
<MIXTURE> 42 1.106211e-02
<MEAN> 25
 -1.926300e+00 4.569415e+00 4.668267e+00 2.878019e+00 1.957168e-01 -6.298344e+00 -9.999254e-01 -1.871614e+00 -1.513257e+00 -1.231110e+00 -2.289147e+00 1.264417e+00 4.182429e+00 -3.492076e-01 1.527337e+00 1.966303e-01 -2.961329e+00 -1.152891e+00 -2.256923e+00 -8.177586e-01 -7.869772e-01 -7.351758e-01 5.316208e-01 -1.057748e+00 9.602741e-03
<VARIANCE> 25
 3.627315e+01 2.115933e+01 4.668508e+01 2.621845e+01 3.926633e+01 3.905203e+01 3.723287e+01 2.726907e+01 2.862518e+01 2.757316e+01 2.008086e+01 1.791685e+01 3.563839e+00 4.889841e+00 6.147745e+00 4.789116e+00 4.651848e+00 6.014282e+00 5.085159e+00 5.294619e+00 4.975436e+00 4.855527e+00 4.234001e+00 3.413225e+00 4.466414e-03
<GCONST> 9.982394e+01
<MIXTURE> 43 7.108249e-03
<MEAN> 25
 3.102807e+00 -6.417400e+00 -2.173445e+00 -5.104361e+00 -7.662873e+00 -3.122664e+00 4.148005e+00 1.530004e+00 -4.757918e+00 -6.779776e+00 -4.419507e+00 -1.100258e+00 2.182092e-01 2.044917e+00 1.832227e+00 -1.241979e-01 -1.466911e+00 -7.506315e-01 -9.043153e-01 -5.842796e-01 8.598613e-01 1.512711e+00 4.328638e-01 1.452363e-01 -4.159953e-02
<VARIANCE> 25
 9.161980e+00 1.957356e+01 2.572068e+01 3.299675e+01 3.745855e+01 3.593309e+01 3.259175e+01 3.802721e+01 3.826304e+01 3.774445e+01 2.515096e+01 2.800543e+01 6.561816e-01 1.359586e+00 1.562146e+00 2.330825e+00 2.326565e+00 2.299145e+00 2.549593e+00 3.724935e+00 2.506555e+00 2.541330e+00 2.313862e+00 2.064429e+00 1.048154e-03
<GCONST> 8.770044e+01
<MIXTURE> 44 7.328289e-03
<MEAN> 25
 -1.158508e+01 1.288111e+00 3.158715e+00 -2.909733e+00 3.376674e+00 1.763900e+00 -6.391098e-01 2.947605e-01 1.034788e+00 -1.337555e-01 7.085525e-01 1.482452e+00 -3.766623e-01 1.854426e-01 2.148227e-01 3.629851e-01 1.653579e-01 2.816182e-01 2.666577e-01 -1.316244e-01 2.942245e-01 -1.471080e-02 -2.410159e-02 -9.856174e-02 6.827725e-03
<VARIANCE> 25
 4.544986e+01 1.988842e+01 2.523271e+01 2.192487e+01 2.155879e+01 2.207030e+01 1.984247e+01 3.182948e+01 1.974725e+01 2.052542e+01 2.341912e+01 1.637580e+01 1.068830e+00 1.226977e+00 1.295858e+00 1.160262e+00 2.101390e+00 1.458808e+00 1.208141e+00 1.718879e+00 1.185382e+00 1.332898e+00 1.312228e+00 1.076856e+00 8.699052e-04
<GCONST> 7.992268e+01
<MIXTURE> 45 1.364932e-02
<MEAN> 25
 -1.222815e+01 3.381337e+00 -1.194245e+00 2.744309e+00 5.690083e+00 9.408163e-02 4.652621e+00 2.708846e+00 3.265643e+00 2.149612e+00 2.280411e+00 2.543832e+00 -2.905080e+00 5.968437e-01 -4.718778e-01 -4.886594e-01 2.155644e-01 -2.567659e-02 4.524321e-01 4.522485e-02 -5.180662e-02 -6.860545e-02 2.572421e-01 7.907237e-02 1.167080e-01
<VARIANCE> 25
 3.468099e+01 2.978107e+01 3.024094e+01 3.476714e+01 3.089702e+01 2.845673e+01 2.980527e+01 2.702038e+01 2.430223e+01 2.306902e+01 2.799696e+01 1.544008e+01 2.414976e+00 3.008223e+00 2.819374e+00 2.703268e+00 2.496580e+00 2.581946e+00 2.266375e+00 2.256346e+00 2.116990e+00 2.077736e+00 1.949605e+00 1.613094e+00 4.199075e-03
<GCONST> 9.037687e+01
<MIXTURE> 46 9.336259e-03
<MEAN> 25
 -9.461556e+00 2.310248e+00 1.198335e+00 7.563977e+00 5.942219e+00 3.335649e+00 7.065968e+00 4.491770e+00 5.707853e+00 4.693503e+00 5.039106e+00 2.926154e+00 1.060356e+00 -2.407383e-01 4.074690e-02 1.001619e+00 6.040896e-01 9.428746e-01 3.867500e-01 6.743095e-01 4.726150e-01 5.083514e-01 6.405361e-01 5.236276e-01 -1.056460e-01
<VARIANCE> 25
 3.423345e+01 4.382575e+01 3.851915e+01 4.999105e+01 5.081931e+01 4.079152e+01 3.707176e+01 3.542184e+01 3.314781e+01 3.094247e+01 2.823950e+01 2.022318e+01 3.911564e+00 4.142392e+00 3.881173e+00 4.137918e+00 4.174499e+00 3.696433e+00 3.380356e+00 3.115437e+00 2.981389e+00 2.865332e+00 2.308539e+00 1.783587e+00 7.953814e-03
<GCONST> 9.829940e+01
<MIXTURE> 47 7.116147e-03
<MEAN> 25
 6.957646e+00 -7.071868e+00 -7.287225e+00 -6.111252e+00 1.093861e+00 7.299298e-01 -1.869617e+00 1.193433e+00 2.567717e+00 3.319494e-03 -4.400723e+00 -6.390543e+00 -1.294921e-01 -1.276198e+00 -6.279625e-01 -4.210061e-01 4.778687e-01 7.232766e-01 8.888615e-01 3.682511e-01 7.892516e-02 -9.142567e-01 -5.156062e-01 -4.710378e-01 3.139649e-02
<VARIANCE> 25
 1.112401e+01 2.041891e+01 2.110505e+01 3.187609e+01 3.466648e+01 4.830809e+01 4.412180e+01 3.777679e+01 4.184143e+01 4.373321e+01 4.534617e+01 3.179395e+01 5.278430e-01 7.268545e-01 1.099869e+00 1.576380e+00 2.017483e+00 2.121299e+00 2.252112e+00 2.360292e+00 2.035633e+00 2.099652e+00 2.066218e+00 1.881136e+00 5.458791e-04
<GCONST> 8.552541e+01
<MIXTURE> 48 7.116147e-03
<MEAN> 25
 6.957646e+00 -7.071868e+00 -7.287225e+00 -6.111252e+00 1.093861e+00 7.299298e-01 -1.869617e+00 1.193433e+00 2.567717e+00 3.319494e-03 -4.400723e+00 -6.390543e+00 -1.294921e-01 -1.276198e+00 -6.279625e-01 -4.210061e-01 4.778687e-01 7.232766e-01 8.888615e-01 3.682511e-01 7.892516e-02 -9.142567e-01 -5.156062e-01 -4.710378e-01 3.139649e-02
<VARIANCE> 25
 1.112401e+01 2.041891e+01 2.110505e+01 3.187609e+01 3.466648e+01 4.830809e+01 4.412180e+01 3.777679e+01 4.184143e+01 4.373321e+01 4.534617e+01 3.179395e+01 5.278430e-01 7.268545e-01 1.099869e+00 1.576380e+00 2.017483e+00 2.121299e+00 2.252112e+00 2.360292e+00 2.035633e+00 2.099652e+00 2.066218e+00 1.881136e+00 5.458791e-04
<GCONST> 8.552541e+01
<MIXTURE> 49 5.548473e-03
<MEAN> 25
 -4.907369e+00 4.011597e-01 1.858815e-01 8.256310e+00 6.063596e+00 5.513498e+00 5.889551e+00 4.373749e+00 4.960452e+00 3.613136e+00 4.779225e+00 2.766876e+00 3.767914e-01 6.374910e-01 7.020392e-01 3.379413e-01 -2.091081e-01 -6.684160e-01 -9.883092e-01 -1.109552e+00 -9.624760e-01 -7.260067e-01 -5.159956e-01 -2.602238e-01 -5.725290e-05
<VARIANCE> 25
 1.066349e+01 9.958392e+00 1.380737e+01 1.654013e+01 1.601982e+01 1.693922e+01 1.977234e+01 2.032273e+01 1.794975e+01 1.772392e+01 2.107601e+01 1.411438e+01 2.805355e-01 2.664056e-01 3.522812e-01 6.021092e-01 8.652338e-01 9.498943e-01 9.741970e-01 1.043016e+00 1.111169e+00 1.307556e+00 1.269919e+00 1.177009e+00 1.409786e-05
<GCONST> 6.438186e+01
<MIXTURE> 50 6.234641e-03
<MEAN> 25
 -3.975018e+00 1.900089e-01 -1.377384e+00 5.427480e+00 4.172095e+00 1.856481e+00 2.918599e+00 1.439191e+00 2.383731e+00 1.716118e+00 2.291352e+00 2.678577e+00 4.159438e-02 1.159670e-01 1.118475e-01 -1.670313e-01 -5.171098e-01 -5.902968e-01 -4.398493e-01 -1.026046e-01 3.942489e-01 7.791932e-01 8.146300e-01 4.660829e-01 -5.982764e-05
<VARIANCE> 25
 1.140687e+01 1.028196e+01 1.226890e+01 1.602020e+01 1.419721e+01 1.784449e+01 1.998274e+01 2.042302e+01 1.874332e+01 1.675799e+01 2.055233e+01 1.730259e+01 1.378854e-01 2.501696e-01 3.451908e-01 4.914973e-01 6.412358e-01 7.625560e-01 8.604053e-01 1.173947e+00 1.059191e+00 8.966015e-01 1.005410e+00 8.968075e-01 1.028796e-06
<GCONST> 5.937365e+01
<MIXTURE> 51 6.234641e-03
<MEAN> 25
 -3.975018e+00 1.900089e-01 -1.377384e+00 5.427480e+00 4.172095e+00 1.856481e+00 2.918599e+00 1.439191e+00 2.383731e+00 1.716118e+00 2.291352e+00 2.678577e+00 4.159438e-02 1.159670e-01 1.118475e-01 -1.670313e-01 -5.171098e-01 -5.902968e-01 -4.398493e-01 -1.026046e-01 3.942489e-01 7.791932e-01 8.146300e-01 4.660829e-01 -5.982764e-05
<VARIANCE> 25
 1.140687e+01 1.028196e+01 1.226890e+01 1.602020e+01 1.419721e+01 1.784449e+01 1.998274e+01 2.042302e+01 1.874332e+01 1.675799e+01 2.055233e+01 1.730259e+01 1.378854e-01 2.501696e-01 3.451908e-01 4.914973e-01 6.412358e-01 7.625560e-01 8.604053e-01 1.173947e+00 1.059191e+00 8.966015e-01 1.005410e+00 8.968075e-01 1.028796e-06
<GCONST> 5.937365e+01
<MIXTURE> 52 6.367945e-03
<MEAN> 25
 1.012208e+01 2.049132e+00 -6.197426e+00 -1.428516e+01 -4.221928e+00 8.535941e+00 -2.751588e+00 -3.060319e+00 -4.407551e+00 -2.132133e+00 3.353558e+00 7.473352e-01 -3.857511e-01 -4.802119e-01 -6.947136e-02 1.140489e+00 1.339846e+00 -4.733776e-01 -6.028085e-01 -6.594259e-01 4.295191e-02 1.246295e+00 3.872434e-01 -5.457128e-01 -1.381555e-02
<VARIANCE> 25
 9.306421e+00 2.048660e+01 2.533661e+01 3.858996e+01 4.572548e+01 3.072573e+01 4.654701e+01 4.894215e+01 4.306195e+01 4.603744e+01 3.995113e+01 3.000944e+01 4.497157e-01 1.480560e+00 1.310748e+00 2.757609e+00 2.328760e+00 2.199561e+00 2.985614e+00 2.799676e+00 3.005795e+00 2.666882e+00 2.520509e+00 2.277402e+00 1.545939e-03
<GCONST> 8.973474e+01
<MIXTURE> 53 6.367945e-03
<MEAN> 25
 1.012208e+01 2.049132e+00 -6.197426e+00 -1.428516e+01 -4.221928e+00 8.535941e+00 -2.751588e+00 -3.060319e+00 -4.407551e+00 -2.132133e+00 3.353558e+00 7.473352e-01 -3.857511e-01 -4.802119e-01 -6.947136e-02 1.140489e+00 1.339846e+00 -4.733776e-01 -6.028085e-01 -6.594259e-01 4.295191e-02 1.246295e+00 3.872434e-01 -5.457128e-01 -1.381555e-02
<VARIANCE> 25
 9.306421e+00 2.048660e+01 2.533661e+01 3.858996e+01 4.572548e+01 3.072573e+01 4.654701e+01 4.894215e+01 4.306195e+01 4.603744e+01 3.995113e+01 3.000944e+01 4.497157e-01 1.480560e+00 1.310748e+00 2.757609e+00 2.328760e+00 2.199561e+00 2.985614e+00 2.799676e+00 3.005795e+00 2.666882e+00 2.520509e+00 2.277402e+00 1.545939e-03
<GCONST> 8.973474e+01
<MIXTURE> 54 7.368620e-03
<MEAN> 25
 -3.506705e+00 5.779526e-02 -7.011709e-01 7.847858e+00 6.359959e+00 4.624361e+00 4.587973e+00 4.589108e+00 4.064847e+00 3.624193e+00 4.453432e+00 2.274591e+00 5.744086e-03 2.443577e-02 3.912706e-02 5.227314e-02 5.377998e-02 5.770358e-02 2.794373e-02 1.735056e-02 1.290584e-02 3.169092e-02 2.976538e-02 3.421984e-03 -2.588352e-05
<VARIANCE> 25
 9.486895e+00 1.014096e+01 9.065353e+00 1.901499e+01 1.378250e+01 1.331187e+01 1.204465e+01 1.296533e+01 1.145008e+01 1.366941e+01 1.779012e+01 1.233591e+01 4.372849e-02 8.748191e-02 1.579060e-01 2.260824e-01 3.014920e-01 3.945918e-01 4.648803e-01 5.223975e-01 5.859790e-01 5.130178e-01 5.225797e-01 5.085653e-01 1.018237e-06
<GCONST> 4.760297e+01
<MIXTURE> 55 7.368620e-03
<MEAN> 25
 -3.506705e+00 5.779526e-02 -7.011709e-01 7.847858e+00 6.359959e+00 4.624361e+00 4.587973e+00 4.589108e+00 4.064847e+00 3.624193e+00 4.453432e+00 2.274591e+00 5.744086e-03 2.443577e-02 3.912706e-02 5.227314e-02 5.377998e-02 5.770358e-02 2.794373e-02 1.735056e-02 1.290584e-02 3.169092e-02 2.976538e-02 3.421984e-03 -2.588352e-05
<VARIANCE> 25
 9.486895e+00 1.014096e+01 9.065353e+00 1.901499e+01 1.378250e+01 1.331187e+01 1.204465e+01 1.296533e+01 1.145008e+01 1.366941e+01 1.779012e+01 1.233591e+01 4.372849e-02 8.748191e-02 1.579060e-01 2.260824e-01 3.014920e-01 3.945918e-01 4.648803e-01 5.223975e-01 5.859790e-01 5.130178e-01 5.225797e-01 5.085653e-01 1.018237e-06
<GCONST> 4.760297e+01
<MIXTURE> 56 6.132464e-03
<MEAN> 25
 7.472705e+00 -6.660944e+00 -9.026402e+00 -8.516743e+00 3.848076e+00 3.835108e+00 -2.107804e+00 -1.378298e+00 1.958589e+00 5.894026e-01 -2.436064e+00 -7.073453e+00 -2.036388e-02 2.550824e-02 -8.615299e-02 1.294596e-02 2.556193e-01 7.330795e-02 1.179499e-01 -1.417085e-01 -5.184182e-02 -5.193504e-02 -7.018922e-02 2.626966e-03 -7.130207e-03
<VARIANCE> 25
 9.517867e+00 2.356863e+01 2.055313e+01 4.152214e+01 3.339985e+01 5.056525e+01 6.109932e+01 3.677090e+01 3.851979e+01 3.731872e+01 3.974316e+01 3.095477e+01 2.105702e-01 4.262876e-01 4.500200e-01 7.711019e-01 7.930399e-01 1.102458e+00 9.013822e-01 9.024777e-01 9.040554e-01 9.364714e-01 1.038813e+00 8.040550e-01 2.360432e-04
<GCONST> 7.513615e+01
<MIXTURE> 57 6.132464e-03
<MEAN> 25
 7.472705e+00 -6.660944e+00 -9.026402e+00 -8.516743e+00 3.848076e+00 3.835108e+00 -2.107804e+00 -1.378298e+00 1.958589e+00 5.894026e-01 -2.436064e+00 -7.073453e+00 -2.036388e-02 2.550824e-02 -8.615299e-02 1.294596e-02 2.556193e-01 7.330795e-02 1.179499e-01 -1.417085e-01 -5.184182e-02 -5.193504e-02 -7.018922e-02 2.626966e-03 -7.130207e-03
<VARIANCE> 25
 9.517867e+00 2.356863e+01 2.055313e+01 4.152214e+01 3.339985e+01 5.056525e+01 6.109932e+01 3.677090e+01 3.851979e+01 3.731872e+01 3.974316e+01 3.095477e+01 2.105702e-01 4.262876e-01 4.500200e-01 7.711019e-01 7.930399e-01 1.102458e+00 9.013822e-01 9.024777e-01 9.040554e-01 9.364714e-01 1.038813e+00 8.040550e-01 2.360432e-04
<GCONST> 7.513615e+01
<MIXTURE> 58 6.172147e-03
<MEAN> 25
 2.561857e+00 -3.017372e+00 5.567843e+00 -4.328418e+00 -1.183031e+01 -4.644889e+00 1.640067e+00 1.897538e+00 -1.858027e+00 1.584538e+00 1.903633e-01 -6.525486e-01 -4.012621e-02 -8.320115e-02 -7.557174e-02 -1.659359e-01 1.200734e-03 1.305755e-01 3.444053e-01 4.921042e-01 8.910718e-02 5.226399e-02 -2.920783e-02 -1.619087e-01 -1.690746e-03
<VARIANCE> 25
 5.829267e+00 1.485427e+01 2.393368e+01 2.361634e+01 3.203799e+01 3.846300e+01 2.805528e+01 3.672821e+01 2.776513e+01 2.597812e+01 1.953534e+01 1.885729e+01 2.974239e-01 7.581146e-01 6.822080e-01 9.567863e-01 9.696770e-01 1.126193e+00 1.148719e+00 2.064068e+00 9.990934e-01 9.999558e-01 1.116229e+00 8.147527e-01 6.066478e-04
<GCONST> 7.482166e+01
<MIXTURE> 59 6.172147e-03
<MEAN> 25
 2.561857e+00 -3.017372e+00 5.567843e+00 -4.328418e+00 -1.183031e+01 -4.644889e+00 1.640067e+00 1.897538e+00 -1.858027e+00 1.584538e+00 1.903633e-01 -6.525486e-01 -4.012621e-02 -8.320115e-02 -7.557174e-02 -1.659359e-01 1.200734e-03 1.305755e-01 3.444053e-01 4.921042e-01 8.910718e-02 5.226399e-02 -2.920783e-02 -1.619087e-01 -1.690746e-03
<VARIANCE> 25
 5.829267e+00 1.485427e+01 2.393368e+01 2.361634e+01 3.203799e+01 3.846300e+01 2.805528e+01 3.672821e+01 2.776513e+01 2.597812e+01 1.953534e+01 1.885729e+01 2.974239e-01 7.581146e-01 6.822080e-01 9.567863e-01 9.696770e-01 1.126193e+00 1.148719e+00 2.064068e+00 9.990934e-01 9.999558e-01 1.116229e+00 8.147527e-01 6.066478e-04
<GCONST> 7.482166e+01
<MIXTURE> 60 4.479129e-03
<MEAN> 25
 -2.465753e+00 -4.386392e-01 -9.361768e-01 2.800238e+00 1.369426e+00 2.032849e+00 1.524267e+00 1.308784e+00 1.775916e+00 1.006275e+00 2.212493e+00 1.266451e+00 -3.759228e-03 3.536126e-02 6.768464e-02 9.408859e-02 9.406360e-02 1.849975e-01 1.055623e-01 1.885234e-01 4.648815e-01 7.939654e-01 5.330883e-01 3.880448e-01 -1.148546e-03
<VARIANCE> 25
 1.034742e+01 4.007112e+00 8.632010e+00 1.020174e+01 1.226765e+01 1.411156e+01 1.693941e+01 1.376323e+01 1.133759e+01 1.556089e+01 1.322465e+01 1.170968e+01 1.127520e-01 1.815806e-01 2.835829e-01 4.316950e-01 5.285667e-01 7.301548e-01 7.948325e-01 8.915805e-01 8.923723e-01 9.721165e-01 9.734524e-01 8.276516e-01 2.509359e-05
<GCONST> 5.673426e+01
<MIXTURE> 61 4.479129e-03
<MEAN> 25
 -2.465753e+00 -4.386392e-01 -9.361768e-01 2.800238e+00 1.369426e+00 2.032849e+00 1.524267e+00 1.308784e+00 1.775916e+00 1.006275e+00 2.212493e+00 1.266451e+00 -3.759228e-03 3.536126e-02 6.768464e-02 9.408859e-02 9.406360e-02 1.849975e-01 1.055623e-01 1.885234e-01 4.648815e-01 7.939654e-01 5.330883e-01 3.880448e-01 -1.148546e-03
<VARIANCE> 25
 1.034742e+01 4.007112e+00 8.632010e+00 1.020174e+01 1.226765e+01 1.411156e+01 1.693941e+01 1.376323e+01 1.133759e+01 1.556089e+01 1.322465e+01 1.170968e+01 1.127520e-01 1.815806e-01 2.835829e-01 4.316950e-01 5.285667e-01 7.301548e-01 7.948325e-01 8.915805e-01 8.923723e-01 9.721165e-01 9.734524e-01 8.276516e-01 2.509359e-05
<GCONST> 5.673426e+01
<MIXTURE> 62 3.278034e-03
<MEAN> 25
 -5.089631e+00 1.241193e+00 1.025591e+00 8.816642e+00 6.130406e+00 5.049924e+00 5.498113e+00 4.032510e+00 4.985119e+00 3.916306e+00 4.964793e+00 2.950208e+00 -1.003097e+00 -1.166555e+00 -9.531135e-01 -2.767976e-01 4.274201e-01 1.004958e+00 1.384171e+00 1.552142e+00 1.478528e+00 1.243631e+00 1.067556e+00 7.258633e-01 -1.264971e-03
<VARIANCE> 25
 9.878150e+00 9.956579e+00 1.311425e+01 1.674433e+01 1.741567e+01 1.752363e+01 1.970644e+01 1.911503e+01 1.886080e+01 1.873583e+01 2.156997e+01 1.479972e+01 4.018443e-01 4.320521e-01 5.541290e-01 7.792105e-01 1.034908e+00 1.192354e+00 1.252999e+00 1.278827e+00 1.329696e+00 1.363801e+00 1.400438e+00 1.371506e+00 1.632302e-05
<GCONST> 6.752900e+01
<MIXTURE> 63 4.351215e-03
<MEAN> 25
 -2.879415e+00 -1.074826e+00 -2.929069e+00 1.734512e+00 2.407295e+00 -3.203520e-01 1.561185e+00 1.953104e-01 1.629051e+00 -9.235309e-01 -9.598956e-01 1.707373e+00 -1.256700e-01 2.573715e-01 2.349696e-01 3.818462e-01 4.761246e-01 5.716169e-01 4.370848e-01 2.140007e-01 1.573853e-01 2.612799e-01 1.812053e-01 2.456925e-03 -3.262631e-03
<VARIANCE> 25
 1.197116e+01 1.362622e+01 1.515698e+01 1.356891e+01 1.711233e+01 1.936749e+01 2.037765e+01 2.684884e+01 2.096372e+01 1.897146e+01 1.607690e+01 1.420758e+01 3.652685e-01 4.325984e-01 5.770396e-01 7.431583e-01 7.379330e-01 1.086465e+00 1.247931e+00 1.574532e+00 1.140055e+00 1.542973e+00 1.277049e+00 1.328291e+00 1.742090e-04
<GCONST> 7.009331e+01
<MIXTURE> 64 4.351215e-03
<MEAN> 25
 -2.879415e+00 -1.074826e+00 -2.929069e+00 1.734512e+00 2.407295e+00 -3.203520e-01 1.561185e+00 1.953104e-01 1.629051e+00 -9.235309e-01 -9.598956e-01 1.707373e+00 -1.256700e-01 2.573715e-01 2.349696e-01 3.818462e-01 4.761246e-01 5.716169e-01 4.370848e-01 2.140007e-01 1.573853e-01 2.612799e-01 1.812053e-01 2.456925e-03 -3.262631e-03
<VARIANCE> 25
 1.197116e+01 1.362622e+01 1.515698e+01 1.356891e+01 1.711233e+01 1.936749e+01 2.037765e+01 2.684884e+01 2.096372e+01 1.897146e+01 1.607690e+01 1.420758e+01 3.652685e-01 4.325984e-01 5.770396e-01 7.431583e-01 7.379330e-01 1.086465e+00 1.247931e+00 1.574532e+00 1.140055e+00 1.542973e+00 1.277049e+00 1.328291e+00 1.742090e-04
<GCONST> 7.009331e+01
<MIXTURE> 65 1.721197e-02
<MEAN> 25
 6.991907e+00 1.932223e+00 1.986331e+00 3.534110e-01 -4.779223e+00 -3.943869e+00 -5.507452e+00 -5.892844e+00 -3.622110e+00 -2.117604e+00 -4.730726e+00 -1.753442e+00 1.649270e-01 4.343400e-02 -2.264187e-02 1.096519e-01 -1.281564e-01 2.676855e-01 1.310826e-02 -7.389709e-02 1.832272e-01 -4.142771e-02 -1.196835e-01 -1.508554e-01 -3.867144e-03
<VARIANCE> 25
 1.287855e+01 1.657062e+01 2.197028e+01 3.149874e+01 3.404515e+01 4.970285e+01 5.128099e+01 5.558961e+01 4.810172e+01 5.173438e+01 5.099904e+01 4.379626e+01 5.276462e-01 8.792806e-01 1.458520e+00 1.768979e+00 1.881954e+00 1.982952e+00 2.471163e+00 2.975638e+00 2.203354e+00 2.264946e+00 2.221178e+00 1.849463e+00 3.804885e-04
<GCONST> 8.740791e+01
<MIXTURE> 66 1.191532e-02
<MEAN> 25
 6.680104e+00 -4.093874e+00 -5.621909e+00 -4.830595e+00 1.275422e+00 -5.091859e+00 -6.922144e+00 1.194452e+00 6.837910e-01 -2.051209e+00 -6.140034e+00 -3.474857e+00 -4.563464e-02 1.666992e+00 2.239785e+00 2.317437e+00 -1.250829e+00 -1.253174e+00 5.553947e-02 -5.470359e-01 -1.446174e-01 -1.943954e-01 -2.014304e-01 1.044660e+00 -6.378572e-02
<VARIANCE> 25
 8.935076e+00 2.234572e+01 2.706215e+01 3.305683e+01 3.852514e+01 5.341356e+01 5.601146e+01 4.541460e+01 5.409897e+01 6.676601e+01 3.697806e+01 3.643806e+01 1.283370e+00 2.445674e+00 2.353142e+00 2.470554e+00 4.197279e+00 4.308026e+00 4.368089e+00 4.846181e+00 4.248465e+00 4.993491e+00 3.899725e+00 3.262079e+00 1.469575e-03
<GCONST> 9.683525e+01
<MIXTURE> 67 1.559142e-02
<MEAN> 25
 8.985306e+00 2.035444e+00 -5.978640e+00 -8.274487e+00 9.031739e-01 3.083190e+00 -3.325143e+00 -2.242067e+00 -3.773486e+00 7.785178e-01 -5.464434e-02 -1.732818e+00 -1.074138e+00 1.831936e+00 1.062769e+00 3.073128e+00 1.392631e+00 -5.098404e-01 1.302773e+00 1.202233e-01 1.569832e-01 2.512400e-01 -2.766269e-01 6.252840e-01 -1.299908e-01
<VARIANCE> 25
 1.146692e+01 3.885895e+01 3.078923e+01 5.585288e+01 4.915315e+01 5.406871e+01 6.210181e+01 5.280737e+01 6.478723e+01 5.711900e+01 5.578336e+01 4.738044e+01 2.179817e+00 3.465767e+00 3.290459e+00 4.517693e+00 4.523123e+00 4.553613e+00 4.706604e+00 5.071136e+00 5.476694e+00 4.779393e+00 5.135023e+00 3.746295e+00 3.042748e-03
<GCONST> 1.029183e+02
<MIXTURE> 68 1.485092e-02
<MEAN> 25
 -2.017970e+00 -2.311118e+00 -4.105085e+00 1.254673e+00 5.261995e+00 -6.684765e-01 2.130579e+00 1.825084e+00 2.005878e+00 1.690357e+00 4.852357e-01 1.876995e+00 2.768444e+00 5.487377e-01 1.372835e-02 -2.585448e+00 -2.417365e+00 -1.591382e+00 -2.353457e+00 -1.791748e+00 -1.651026e+00 -1.481053e+00 -1.985808e+00 -1.059291e+00 1.032910e-01
<VARIANCE> 25
 2.600258e+01 3.204070e+01 5.876350e+01 5.261240e+01 4.670134e+01 5.511354e+01 4.527902e+01 4.228137e+01 4.044198e+01 4.351389e+01 3.739534e+01 2.576013e+01 1.863840e+00 3.745562e+00 5.938960e+00 5.867864e+00 4.698756e+00 5.611312e+00 5.776152e+00 4.975765e+00 4.979574e+00 5.262639e+00 5.043756e+00 3.421502e+00 6.138436e-03
<GCONST> 1.036079e+02
<MIXTURE> 69 1.204884e-02
<MEAN> 25
 4.564909e+00 -4.127971e+00 -3.561854e+00 -3.576703e+00 -3.431172e+00 -7.593584e+00 -1.040809e+00 1.986270e+00 -3.592334e-01 -4.531420e+00 -5.632551e+00 8.942012e-01 1.652632e+00 -2.197347e+00 -1.331433e+00 -2.219625e+00 -5.512828e-01 -3.345882e-01 -3.468096e-01 6.398636e-01 -6.080161e-01 -1.393130e+00 -2.195296e+00 -2.005167e-01 6.205248e-02
<VARIANCE> 25
 8.808993e+00 2.126068e+01 2.573260e+01 2.504156e+01 4.120071e+01 3.615185e+01 4.731179e+01 3.180743e+01 3.825449e+01 3.753749e+01 3.005177e+01 2.379569e+01 3.427605e+00 2.843360e+00 3.227099e+00 3.586236e+00 5.553125e+00 4.821815e+00 7.247918e+00 5.858626e+00 5.711511e+00 5.769712e+00 4.196025e+00 3.581212e+00 2.358905e-03
<GCONST> 9.802959e+01
<MIXTURE> 70 1.329190e-02
<MEAN> 25
 7.505066e+00 -2.031251e+00 -3.885536e+00 -3.604985e+00 -4.137373e-01 -6.684722e-01 -7.666528e+00 -4.026783e+00 5.663814e-01 2.888960e+00 -1.439077e-01 -4.897840e+00 1.933363e+00 -1.138837e+00 -8.211643e-01 -2.205458e+00 -1.517336e+00 1.174354e+00 -1.325349e+00 -8.373155e-02 3.374442e-01 -2.644785e-02 6.796140e-01 -1.452654e+00 5.864662e-02
<VARIANCE> 25
 9.995315e+00 2.251866e+01 2.826682e+01 4.684072e+01 3.539609e+01 4.436925e+01 4.991896e+01 4.397223e+01 4.694403e+01 3.270176e+01 4.489714e+01 2.726318e+01 3.492666e+00 3.201824e+00 4.730396e+00 4.943320e+00 5.202269e+00 6.431452e+00 6.826623e+00 7.536812e+00 6.155476e+00 5.372289e+00 5.871528e+00 4.294341e+00 2.530598e-03
<GCONST> 1.018153e+02
<MIXTURE> 71 1.406903e-02
<MEAN> 25
 6.346479e+00 5.155989e+00 4.243489e+00 3.067459e+00 -3.439311e+00 -3.403954e+00 -3.428175e+00 -6.598701e+00 -4.643346e+00 -2.486200e+00 -5.205262e+00 -3.222133e+00 -1.560052e+00 -6.931408e-01 -2.486597e-01 -1.770763e+00 1.124935e+00 -1.417983e-01 6.046136e-02 1.534588e+00 3.097012e-01 -1.835621e-01 6.745812e-01 1.795148e-01 4.059927e-02
<VARIANCE> 25
 1.894318e+01 2.561465e+01 2.393834e+01 4.487643e+01 4.047413e+01 4.033285e+01 4.231091e+01 4.151503e+01 3.879214e+01 4.394208e+01 3.636811e+01 3.437141e+01 1.772427e+00 3.026022e+00 5.256299e+00 4.867013e+00 4.672916e+00 4.702495e+00 4.876596e+00 5.359324e+00 4.270596e+00 4.067080e+00 3.615140e+00 3.271387e+00 1.421212e-03
<GCONST> 9.859532e+01
<MIXTURE> 72 8.134747e-03
<MEAN> 25
 3.776512e+00 -3.670932e+00 5.418808e+00 -2.456922e+00 -1.035603e+01 -9.559255e+00 -2.436419e+00 1.940148e+00 -4.910856e+00 -2.199409e+00 -1.875013e+00 6.059713e-01 9.281595e-01 -7.826814e-01 -2.558356e+00 4.580553e-01 2.125791e+00 -6.506843e-01 -1.299224e+00 1.528247e+00 1.806392e+00 -5.912612e-01 -1.283535e+00 4.005769e-01 -6.039499e-03
<VARIANCE> 25
 1.073509e+01 1.947118e+01 3.284182e+01 3.817525e+01 3.259910e+01 3.366190e+01 4.089595e+01 3.629767e+01 4.356438e+01 4.125772e+01 3.855828e+01 2.842241e+01 4.329936e-01 1.022628e+00 2.053021e+00 1.468233e+00 2.190812e+00 2.343895e+00 3.092463e+00 2.720147e+00 2.596457e+00 2.949238e+00 2.025806e+00 2.121515e+00 5.381875e-04
<GCONST> 8.724107e+01
<MIXTURE> 73 1.213625e-02
<MEAN> 25
 -5.639108e+00 -7.918469e-01 -1.304365e+00 4.914988e+00 4.239038e+00 2.342497e+00 5.518396e+00 3.454026e+00 4.367892e+00 3.435031e+00 4.268602e+00 3.028180e+00 8.029202e-01 -1.030910e+00 -9.457712e-01 -2.648566e+00 -1.261301e+00 -1.751818e+00 -9.014649e-01 -5.082396e-01 -9.204019e-01 -7.014580e-01 -1.105087e+00 -2.828395e-01 1.548933e-01
<VARIANCE> 25
 1.284971e+01 1.339737e+01 1.520150e+01 2.264523e+01 2.334219e+01 2.477168e+01 2.038531e+01 2.000939e+01 1.777390e+01 1.905963e+01 2.280514e+01 1.557888e+01 4.047001e+00 3.090819e+00 5.965836e+00 4.676137e+00 6.153220e+00 4.561515e+00 4.304974e+00 4.250337e+00 3.898338e+00 4.231691e+00 3.541755e+00 2.673725e+00 4.298954e-03
<GCONST> 9.270403e+01
<MIXTURE> 74 1.756491e-02
<MEAN> 25
 4.491614e+00 -1.613661e+00 5.212087e+00 -1.169850e+00 -8.739823e+00 -8.271376e+00 -2.655109e+00 8.443502e-01 -4.072618e+00 -2.809014e+00 -1.690223e+00 2.460435e-01 3.069994e-01 2.012583e+00 4.253368e-02 1.712100e+00 1.238315e+00 3.511476e-01 -2.091981e-03 -1.339921e+00 1.692156e-01 1.735018e-01 -2.313592e-01 -1.158057e-01 -7.812268e-02
<VARIANCE> 25
 1.170352e+01 2.199585e+01 3.779155e+01 3.842759e+01 3.703756e+01 3.969416e+01 5.184679e+01 4.764174e+01 4.798871e+01 4.461324e+01 4.092338e+01 3.425026e+01 2.087929e+00 2.052066e+00 3.902021e+00 2.581146e+00 3.906383e+00 3.893657e+00 5.028466e+00 4.270981e+00 4.144692e+00 4.013268e+00 3.636897e+00 3.197149e+00 1.780638e-03
<GCONST> 9.728577e+01
<MIXTURE> 75 9.711651e-03
<MEAN> 25
 2.664389e+00 -1.241466e+00 1.102387e+01 1.725397e+00 -1.182769e+01 -7.667212e+00 -4.580293e+00 -4.854677e-01 -4.509336e+00 -4.620024e+00 3.262263e+00 1.531279e-01 1.751776e+00 -1.766865e+00 2.002889e-01 -2.586355e-01 -2.400935e+00 -5.195371e-01 -1.465540e+00 9.666005e-01 -1.534352e-01 -3.521564e-01 1.079579e+00 -6.307084e-01 3.861516e-02
<VARIANCE> 25
 1.112485e+01 1.782576e+01 3.047571e+01 2.779986e+01 2.702228e+01 3.274653e+01 3.143734e+01 3.112026e+01 3.367727e+01 3.162417e+01 2.044639e+01 2.169464e+01 2.380652e+00 1.900265e+00 4.288434e+00 2.490106e+00 3.881070e+00 4.341762e+00 4.163637e+00 3.516613e+00 3.945583e+00 3.379539e+00 3.110784e+00 2.509021e+00 1.542466e-03
<GCONST> 9.227227e+01
<MIXTURE> 76 1.052359e-02
<MEAN> 25
 -5.227401e+00 -8.728912e-01 -1.675656e+00 2.073356e+00 2.868353e+00 1.203343e+00 3.005629e+00 1.793894e+00 1.661803e+00 3.607868e-01 1.095498e+00 1.554107e+00 -1.389880e-01 -4.768538e-01 -1.801635e-01 -7.386386e-01 -5.692326e-01 -6.466109e-01 -6.032182e-01 -1.759105e-01 -3.318771e-01 -3.297049e-01 -2.223051e-01 -1.219407e-01 1.859940e-02
<VARIANCE> 25
 3.448100e+01 2.148493e+01 2.379188e+01 2.491288e+01 2.767448e+01 2.510548e+01 2.264530e+01 3.010987e+01 1.902619e+01 2.018458e+01 2.164439e+01 1.701888e+01 9.549688e-01 9.772889e-01 1.101446e+00 1.073524e+00 1.184976e+00 1.454451e+00 1.739946e+00 1.854031e+00 1.371537e+00 1.511894e+00 1.554212e+00 1.222515e+00 9.437372e-04
<GCONST> 8.008723e+01
<MIXTURE> 77 1.244626e-02
<MEAN> 25
 -4.013612e-01 7.942234e+00 1.171809e+01 -1.062210e+01 -6.533021e+00 6.737464e-01 -9.123403e+00 -7.128142e+00 -3.388651e+00 -2.819905e-01 -4.210681e+00 -1.487309e+00 1.180770e-01 1.135740e-01 1.037514e-01 2.561744e-01 5.790518e-02 8.036812e-02 -1.590862e-01 -1.130085e-01 8.402698e-02 -3.246889e-02 5.410658e-02 8.348446e-02 -8.605831e-03
<VARIANCE> 25
 9.944537e+00 2.203769e+01 3.019503e+01 4.713159e+01 3.253847e+01 3.175098e+01 3.444830e+01 3.086906e+01 3.249572e+01 3.156944e+01 3.630574e+01 3.195473e+01 3.098269e-01 7.394187e-01 6.259726e-01 1.175993e+00 1.219525e+00 9.170750e-01 1.268717e+00 1.167076e+00 9.859228e-01 1.016235e+00 9.390652e-01 8.668398e-01 5.091967e-04
<GCONST> 7.743440e+01
<MIXTURE> 78 9.702551e-03
<MEAN> 25
 -1.149642e+01 1.108320e+00 -1.603634e+00 2.150701e+00 4.390402e+00 -2.236731e+00 3.739103e+00 2.583014e+00 2.597893e+00 7.797851e-01 -5.054125e-01 3.042307e+00 2.352161e+00 -2.720070e-01 1.939819e-01 5.855423e-01 -6.116766e-03 2.357212e-02 -3.006725e-01 -1.073744e-01 2.173182e-01 1.522501e-01 -3.764300e-01 -4.586881e-01 -6.082914e-02
<VARIANCE> 25
 4.150341e+01 3.245548e+01 3.244061e+01 3.301159e+01 3.957983e+01 3.683313e+01 3.560921e+01 3.314131e+01 2.788525e+01 2.748788e+01 2.702283e+01 2.013780e+01 5.047879e+00 2.557530e+00 2.840198e+00 3.046459e+00 2.887291e+00 3.475055e+00 3.237683e+00 2.857302e+00 2.322794e+00 2.351623e+00 2.233512e+00 2.107152e+00 4.731100e-03
<GCONST> 9.456779e+01
<MIXTURE> 79 1.156824e-02
<MEAN> 25
 2.419835e+00 1.577019e+00 9.183599e+00 -6.600279e+00 -1.206135e+01 -1.818092e+00 -1.920328e+00 -6.470849e+00 -6.574635e+00 3.173330e-01 -3.511929e+00 -3.294530e+00 1.220156e+00 -5.258331e-01 -1.430830e+00 2.351383e+00 3.795723e-01 -1.471211e+00 5.353193e-01 8.860797e-01 -4.354274e-01 -5.434465e-01 3.567097e-01 2.793415e-01 -3.625525e-02
<VARIANCE> 25
 1.421941e+01 2.411153e+01 3.791488e+01 4.976894e+01 3.351261e+01 4.346687e+01 4.284900e+01 3.679910e+01 3.893341e+01 3.980927e+01 4.390257e+01 3.065472e+01 9.441985e-01 2.259412e+00 1.896405e+00 2.091593e+00 2.471684e+00 2.817470e+00 3.199066e+00 3.538370e+00 2.513619e+00 2.734160e+00 2.318238e+00 2.028818e+00 1.233691e-03
<GCONST> 9.180563e+01
<MIXTURE> 80 7.550998e-03
<MEAN> 25
 -1.460859e+01 3.982932e+00 6.889158e-01 2.865927e+00 2.449350e+00 1.410337e+00 6.396884e+00 2.496754e+00 2.719544e+00 2.373405e+00 4.852767e+00 1.186840e+00 4.286263e+00 -1.603738e-02 1.637925e+00 -1.135546e+00 -2.889434e+00 -2.777553e+00 -2.323233e+00 -2.021476e+00 -1.975002e+00 -1.685155e+00 -1.650799e+00 -6.026871e-01 -4.423163e-02
<VARIANCE> 25
 2.094955e+01 1.984641e+01 3.444409e+01 3.470719e+01 3.018048e+01 2.920851e+01 2.828719e+01 2.855458e+01 2.674640e+01 2.881125e+01 2.685445e+01 1.810748e+01 2.357481e+00 2.666164e+00 2.673084e+00 4.119837e+00 3.394171e+00 2.705080e+00 3.025206e+00 3.204036e+00 2.749124e+00 2.701736e+00 2.782222e+00 2.145898e+00 1.512162e-03
<GCONST> 9.139679e+01
<MIXTURE> 81 8.025434e-03
<MEAN> 25
 -1.086583e+00 4.053867e+00 1.007592e+01 -1.466100e+01 -8.990554e+00 -1.434904e+00 -6.726540e+00 -8.333690e+00 -4.134367e+00 -3.458720e-01 -7.518101e+00 -2.242086e+00 1.459335e-01 -5.889519e-01 8.208768e-03 -5.814846e-01 -4.520105e-01 3.262994e-01 3.044232e-01 1.433206e-01 -1.317596e-01 1.039185e-01 -4.648624e-01 -1.219107e-01 1.144714e-02
<VARIANCE> 25
 1.012069e+01 3.239022e+01 2.689384e+01 3.036607e+01 3.384917e+01 3.014535e+01 4.500414e+01 2.852345e+01 3.752381e+01 3.189955e+01 2.520630e+01 3.069207e+01 7.796637e-01 2.249015e+00 1.536345e+00 2.900804e+00 2.644488e+00 2.105452e+00 3.259989e+00 2.272992e+00 2.330414e+00 2.507804e+00 2.273280e+00 2.053128e+00 1.168270e-03
<GCONST> 8.859833e+01
<MIXTURE> 82 8.213053e-03
<MEAN> 25
 -9.963858e+00 -3.901386e+00 1.640591e+00 -2.972268e+00 3.113425e+00 6.698886e-01 1.994116e+00 9.362544e-01 2.974834e+00 1.729785e+00 1.741184e+00 3.085088e+00 -1.314052e+00 -1.249411e-01 2.899419e-01 -2.603023e+00 -1.104693e+00 -1.264746e+00 -1.013454e+00 -8.701478e-01 -3.165290e-01 -4.777889e-01 -3.162961e-01 -9.509273e-02 1.783557e-01
<VARIANCE> 25
 1.801884e+01 2.493166e+01 3.235682e+01 3.087563e+01 3.301556e+01 3.228474e+01 3.177081e+01 3.297482e+01 3.084694e+01 2.511444e+01 3.078588e+01 1.749919e+01 3.753342e+00 3.047611e+00 3.315532e+00 3.270925e+00 3.563350e+00 3.285653e+00 2.942699e+00 3.016124e+00 2.793686e+00 2.490211e+00 2.449378e+00 1.865320e+00 3.443141e-03
<GCONST> 9.308072e+01
<MIXTURE> 83 1.167529e-02
<MEAN> 25
 -2.002831e+01 5.497207e+00 -1.783784e+00 -4.058933e-01 7.826430e+00 -1.231956e+00 5.453475e+00 3.040077e+00 1.190389e+00 2.190655e+00 7.245628e-01 2.876897e+00 -2.671226e-02 -4.496125e-01 5.473553e-03 -3.656731e-01 -4.983192e-01 -1.257366e-01 -1.353246e-01 -9.896106e-02 -4.155460e-02 -3.945704e-02 -2.980888e-02 -3.463089e-02 4.407934e-03
<VARIANCE> 25
 8.934624e+00 1.647478e+01 2.850835e+01 2.245947e+01 2.126327e+01 2.408922e+01 2.203771e+01 2.335877e+01 2.041604e+01 2.219600e+01 2.317428e+01 1.450334e+01 1.059927e+00 9.358480e-01 1.240153e+00 1.064699e+00 1.359284e+00 1.290847e+00 1.283714e+00 1.388790e+00 1.347753e+00 1.310039e+00 1.221416e+00 1.071729e+00 8.915238e-04
<GCONST> 7.704220e+01
<MIXTURE> 84 1.066614e-02
<MEAN> 25
 1.177171e+00 8.997218e+00 7.224159e+00 7.961615e+00 2.824503e+00 -9.206764e-01 -1.540415e+00 -4.480599e+00 -4.106865e+00 -2.911833e+00 -2.402278e+00 -1.584004e+00 -1.782372e+00 -1.181011e+00 -1.202971e+00 1.284758e+00 2.248912e+00 1.501284e+00 1.457010e+00 1.290440e+00 1.165945e+00 3.990061e-01 4.140982e-01 4.227957e-01 -7.145569e-02
<VARIANCE> 25
 2.342974e+01 1.837700e+01 2.165811e+01 2.424730e+01 2.912595e+01 2.822284e+01 2.791730e+01 2.649280e+01 2.526545e+01 2.519322e+01 2.356906e+01 2.456830e+01 2.103625e+00 2.540224e+00 3.838969e+00 3.297252e+00 3.271772e+00 3.368374e+00 3.291800e+00 3.401997e+00 3.477508e+00 3.248574e+00 3.578454e+00 2.798724e+00 3.532725e-03
<GCONST> 9.252372e+01
<MIXTURE> 85 7.591393e-03
<MEAN> 25
 -3.110680e+00 7.892240e+00 5.724866e+00 1.286152e+00 -3.493760e+00 -5.325439e+00 -2.980269e+00 -6.121452e+00 -3.542497e+00 -3.184378e+00 -4.794497e-01 -1.899608e+00 3.943372e+00 3.247668e-01 1.755976e+00 -2.091542e+00 -3.414552e+00 -2.583251e+00 -2.886026e+00 -2.341460e+00 -2.249105e+00 -1.264105e+00 -2.302829e+00 -6.158025e-01 9.208679e-03
<VARIANCE> 25
 4.247356e+01 2.343045e+01 3.647559e+01 3.822226e+01 3.974687e+01 4.118976e+01 3.216545e+01 2.789523e+01 2.664320e+01 2.611991e+01 2.622640e+01 2.056846e+01 2.704522e+00 4.326144e+00 4.058680e+00 5.182580e+00 4.408509e+00 3.880814e+00 3.853549e+00 3.987406e+00 3.849506e+00 4.040431e+00 3.941615e+00 3.485133e+00 5.446007e-03
<GCONST> 9.835472e+01
<MIXTURE> 86 1.273941e-02
<MEAN> 25
 -3.723743e+00 -1.176657e+00 -6.817704e-01 5.182657e+00 4.049703e+00 4.334006e+00 4.932132e+00 4.833392e+00 4.302090e+00 3.655493e+00 5.209589e+00 2.223612e+00 3.676258e-02 4.408142e-02 6.913424e-02 -3.782033e-02 -1.360313e-01 -2.516845e-01 -2.443588e-01 -3.631454e-01 -3.361743e-01 -2.786828e-01 -3.126499e-01 -6.815089e-02 -1.808127e-03
<VARIANCE> 25
 1.613809e+01 4.902332e+00 8.403062e+00 1.370808e+01 1.706766e+01 1.252788e+01 1.206092e+01 1.461640e+01 1.174142e+01 1.453508e+01 1.268279e+01 1.215106e+01 1.006258e-01 1.968541e-01 3.209727e-01 4.276534e-01 6.347824e-01 6.983293e-01 6.764247e-01 6.473721e-01 8.329371e-01 8.404257e-01 8.064761e-01 7.434103e-01 5.534909e-05
<GCONST> 5.756213e+01
<MIXTURE> 87 1.100681e-02
<MEAN> 25
 -3.299730e+00 4.538747e+00 3.500933e+00 7.014193e+00 5.564529e+00 8.899481e-01 1.639751e+00 -9.491580e-01 -5.878929e-01 -8.886160e-01 -7.895314e-01 2.838559e-02 -2.148813e+00 -2.784461e+00 -2.100983e+00 -2.224374e+00 -3.823012e-02 -1.825347e-01 6.147552e-01 1.299182e+00 1.402525e+00 1.030103e+00 9.429671e-01 1.001988e+00 1.046190e-01
<VARIANCE> 25
 3.809829e+01 2.953406e+01 2.805698e+01 3.376258e+01 2.873004e+01 3.189132e+01 2.813613e+01 2.729994e+01 2.591425e+01 2.468085e+01 2.480237e+01 2.314439e+01 3.866290e+00 2.718549e+00 3.916852e+00 3.653309e+00 4.790006e+00 4.306960e+00 4.156208e+00 3.895965e+00 3.532782e+00 3.383720e+00 3.385511e+00 2.733601e+00 4.958175e-03
<GCONST> 9.632805e+01
<MIXTURE> 88 1.256585e-02
<MEAN> 25
 -3.821429e+00 -4.795618e-01 -8.588927e-01 3.869643e+00 4.235168e+00 2.650171e+00 3.785212e+00 2.170785e+00 3.185695e+00 2.501785e+00 1.973918e+00 2.078507e+00 -2.353860e-01 2.129124e-01 2.042039e-01 5.511485e-01 4.555400e-01 1.166614e-01 -8.008214e-03 -2.008951e-01 -1.574966e-01 -2.077575e-01 -8.613793e-02 -1.759888e-01 -1.548091e-03
<VARIANCE> 25
 9.747934e+00 8.959456e+00 1.316886e+01 1.856248e+01 1.784291e+01 1.774529e+01 1.956691e+01 2.052307e+01 1.440542e+01 1.638003e+01 2.032450e+01 1.340242e+01 1.388609e+00 1.503441e+00 1.890826e+00 2.026633e+00 2.385075e+00 2.208588e+00 2.127787e+00 2.373523e+00 2.005375e+00 2.100262e+00 2.035599e+00 1.667222e+00 1.212514e-03
<GCONST> 8.004501e+01
<MIXTURE> 89 9.333527e-03
<MEAN> 25
 5.961224e+00 -6.835151e+00 -3.461649e+00 -3.112441e+00 -1.825476e+00 -5.402347e+00 -5.774958e+00 4.120252e+00 3.234952e+00 -2.808051e+00 -6.036237e+00 -3.241427e+00 -5.562706e-01 1.352425e-01 1.933625e+00 8.877316e-01 -1.862124e+00 -1.585100e+00 8.895886e-01 1.312669e+00 -7.241005e-01 -1.245721e+00 3.961568e-01 1.514457e+00 -4.219945e-03
<VARIANCE> 25
 9.037672e+00 2.611297e+01 3.026405e+01 2.940326e+01 3.686205e+01 4.131014e+01 6.086344e+01 4.076945e+01 3.943367e+01 4.111029e+01 3.463329e+01 3.166663e+01 3.481362e-01 8.392273e-01 1.507517e+00 1.287062e+00 1.881953e+00 2.165880e+00 2.517651e+00 2.078039e+00 2.298337e+00 2.298675e+00 2.357661e+00 1.500982e+00 3.679354e-04
<GCONST> 8.525063e+01
<MIXTURE> 90 7.114505e-03
<MEAN> 25
 2.412461e+00 -9.455335e+00 -4.532487e+00 -3.895464e+00 -3.790627e+00 -1.648395e+00 3.363756e+00 1.370446e+00 -6.997753e+00 -9.687811e+00 -3.434005e+00 -7.029657e-01 -1.615407e-01 8.368150e-01 1.096968e+00 -7.902993e-01 -1.606902e+00 -1.685329e-01 6.067415e-01 -8.875899e-02 -8.855242e-02 7.894873e-01 2.758753e-01 -3.890570e-01 -9.681231e-03
<VARIANCE> 25
 7.899003e+00 1.846688e+01 1.888868e+01 2.592268e+01 3.668177e+01 3.040180e+01 3.635253e+01 3.413391e+01 3.528857e+01 2.860995e+01 2.589906e+01 2.422488e+01 2.115209e-01 6.354973e-01 7.992148e-01 1.005608e+00 1.517221e+00 1.548194e+00 1.690308e+00 2.000638e+00 1.789009e+00 1.693749e+00 1.510755e+00 1.563370e+00 2.342633e-04
<GCONST> 7.807859e+01
<MIXTURE> 91 7.852945e-03
<MEAN> 25
 6.337991e+00 -7.622153e+00 -8.507921e+00 -5.118612e+00 3.822883e+00 -1.472489e-01 -2.071758e+00 9.118187e-01 7.890233e-01 -2.893959e+00 -4.847663e+00 -5.145390e+00 2.544546e-01 1.001438e+00 1.806502e-01 4.535571e-01 -4.680114e-02 -5.587841e-01 -3.813381e-01 -1.209805e-01 -1.077039e-01 4.420313e-01 -1.046456e-01 1.873818e-01 -3.476335e-02
<VARIANCE> 25
 1.018461e+01 2.247355e+01 2.005089e+01 4.020104e+01 3.628658e+01 5.480922e+01 5.484514e+01 4.182345e+01 5.129987e+01 6.365703e+01 3.837386e+01 4.106390e+01 4.423770e-01 8.776987e-01 1.123875e+00 1.373221e+00 2.224071e+00 2.350430e+00 2.350752e+00 2.413509e+00 2.221191e+00 2.208641e+00 2.002202e+00 1.854743e+00 5.825262e-04
<GCONST> 8.719122e+01
<MIXTURE> 92 7.852945e-03
<MEAN> 25
 6.337991e+00 -7.622153e+00 -8.507921e+00 -5.118612e+00 3.822883e+00 -1.472489e-01 -2.071758e+00 9.118187e-01 7.890233e-01 -2.893959e+00 -4.847663e+00 -5.145390e+00 2.544546e-01 1.001438e+00 1.806502e-01 4.535571e-01 -4.680114e-02 -5.587841e-01 -3.813381e-01 -1.209805e-01 -1.077039e-01 4.420313e-01 -1.046456e-01 1.873818e-01 -3.476335e-02
<VARIANCE> 25
 1.018461e+01 2.247355e+01 2.005089e+01 4.020104e+01 3.628658e+01 5.480922e+01 5.484514e+01 4.182345e+01 5.129987e+01 6.365703e+01 3.837386e+01 4.106390e+01 4.423770e-01 8.776987e-01 1.123875e+00 1.373221e+00 2.224071e+00 2.350430e+00 2.350752e+00 2.413509e+00 2.221191e+00 2.208641e+00 2.002202e+00 1.854743e+00 5.825262e-04
<GCONST> 8.719122e+01
<MIXTURE> 93 6.122769e-03
<MEAN> 25
 -6.758084e+00 -9.554367e-01 -2.393737e+00 5.774590e+00 5.884888e+00 3.908323e+00 6.098028e+00 3.583113e+00 4.113305e+00 2.509987e+00 1.805472e+00 3.686136e+00 -5.984316e-02 -1.543289e-01 -2.562477e-01 -3.296059e-01 -3.345187e-01 -2.838018e-01 -2.198973e-01 -1.805119e-01 -1.645929e-01 -1.518085e-01 -1.065211e-01 -3.005648e-02 -8.610057e-06
<VARIANCE> 25
 9.635979e+00 6.020812e+00 8.135279e+00 1.137277e+01 1.151905e+01 1.595647e+01 1.536273e+01 1.680005e+01 1.475406e+01 1.456290e+01 1.674103e+01 1.342254e+01 8.326974e-02 1.528209e-01 2.623884e-01 3.800897e-01 4.960825e-01 6.407328e-01 7.778392e-01 8.917570e-01 9.141979e-01 8.723638e-01 8.954280e-01 9.157129e-01 1.009995e-06
<GCONST> 5.367536e+01
<MIXTURE> 94 6.122769e-03
<MEAN> 25
 -6.758084e+00 -9.554367e-01 -2.393737e+00 5.774590e+00 5.884888e+00 3.908323e+00 6.098028e+00 3.583113e+00 4.113305e+00 2.509987e+00 1.805472e+00 3.686136e+00 -5.984316e-02 -1.543289e-01 -2.562477e-01 -3.296059e-01 -3.345187e-01 -2.838018e-01 -2.198973e-01 -1.805119e-01 -1.645929e-01 -1.518085e-01 -1.065211e-01 -3.005648e-02 -8.610057e-06
<VARIANCE> 25
 9.635979e+00 6.020812e+00 8.135279e+00 1.137277e+01 1.151905e+01 1.595647e+01 1.536273e+01 1.680005e+01 1.475406e+01 1.456290e+01 1.674103e+01 1.342254e+01 8.326974e-02 1.528209e-01 2.623884e-01 3.800897e-01 4.960825e-01 6.407328e-01 7.778392e-01 8.917570e-01 9.141979e-01 8.723638e-01 8.954280e-01 9.157129e-01 1.009995e-06
<GCONST> 5.367536e+01
<MIXTURE> 95 5.258835e-03
<MEAN> 25
 -4.363883e+00 -1.796786e-02 -7.589290e-01 3.350493e+00 3.485972e+00 2.530836e+00 2.132503e+00 2.172909e-01 1.748139e+00 8.702644e-01 6.377462e-01 1.565908e+00 1.690414e-01 5.850663e-02 2.617300e-01 -1.102452e-01 -4.767573e-01 -7.381583e-01 -9.739856e-01 -1.213560e+00 -1.137032e+00 -1.199751e+00 -7.423957e-01 -6.155785e-03 -1.906558e-03
<VARIANCE> 25
 1.648913e+01 6.085511e+00 1.002288e+01 1.212340e+01 1.351877e+01 1.395746e+01 1.667790e+01 2.177726e+01 1.154189e+01 1.198841e+01 1.442616e+01 1.233607e+01 2.924033e-01 3.143620e-01 4.658599e-01 4.639446e-01 6.526391e-01 7.304693e-01 8.817016e-01 1.141088e+00 7.330432e-01 1.340363e+00 1.032238e+00 1.086645e+00 4.352641e-05
<GCONST> 6.200374e+01
<MIXTURE> 96 7.034694e-03
<MEAN> 25
 -4.385996e+00 -2.143518e-01 -1.939619e+00 4.573069e+00 3.557304e+00 1.705299e+00 3.080215e+00 1.570236e+00 2.219820e+00 1.165074e+00 1.174549e+00 2.557312e+00 -3.553540e-02 1.022317e-01 2.666270e-01 4.228154e-01 5.304028e-01 4.411393e-01 1.843127e-01 -1.912374e-01 -4.886831e-01 -6.637315e-01 -5.720423e-01 -3.488455e-01 -5.593966e-05
<VARIANCE> 25
 1.323944e+01 9.381802e+00 1.235273e+01 1.511218e+01 1.492902e+01 1.796851e+01 1.861151e+01 2.193085e+01 1.769858e+01 1.633654e+01 1.879747e+01 1.380360e+01 1.222160e-01 2.089860e-01 3.248753e-01 4.256501e-01 4.811598e-01 7.001694e-01 8.463537e-01 1.079788e+00 9.567599e-01 9.129570e-01 9.227243e-01 8.978601e-01 1.209720e-06
<GCONST> 5.805492e+01
<MIXTURE> 97 7.034694e-03
<MEAN> 25
 -4.385996e+00 -2.143518e-01 -1.939619e+00 4.573069e+00 3.557304e+00 1.705299e+00 3.080215e+00 1.570236e+00 2.219820e+00 1.165074e+00 1.174549e+00 2.557312e+00 -3.553540e-02 1.022317e-01 2.666270e-01 4.228154e-01 5.304028e-01 4.411393e-01 1.843127e-01 -1.912374e-01 -4.886831e-01 -6.637315e-01 -5.720423e-01 -3.488455e-01 -5.593966e-05
<VARIANCE> 25
 1.323944e+01 9.381802e+00 1.235273e+01 1.511218e+01 1.492902e+01 1.796851e+01 1.861151e+01 2.193085e+01 1.769858e+01 1.633654e+01 1.879747e+01 1.380360e+01 1.222160e-01 2.089860e-01 3.248753e-01 4.256501e-01 4.811598e-01 7.001694e-01 8.463537e-01 1.079788e+00 9.567599e-01 9.129570e-01 9.227243e-01 8.978601e-01 1.209720e-06
<GCONST> 5.805492e+01
<MIXTURE> 98 9.917808e-03
<MEAN> 25
 -1.411240e+00 9.446239e-01 -1.610626e-01 4.333066e+00 3.520956e+00 2.551690e+00 3.038999e+00 1.576901e+00 1.533169e+00 8.438360e-01 6.548037e-01 9.370810e-01 -1.765863e+00 -1.431542e+00 -9.947637e-01 1.713106e-01 6.280304e-01 8.016895e-01 1.226596e+00 1.375231e+00 1.658939e+00 1.100804e+00 1.287218e+00 9.740897e-01 -3.366069e-02
<VARIANCE> 25
 1.399764e+01 1.930836e+01 3.058348e+01 3.298034e+01 4.203773e+01 3.539967e+01 3.185070e+01 2.891150e+01 2.689122e+01 2.958007e+01 2.602181e+01 2.323903e+01 1.361692e+00 1.548301e+00 2.301333e+00 2.404515e+00 2.793379e+00 2.811478e+00 2.871208e+00 2.903281e+00 2.555034e+00 2.973160e+00 2.757460e+00 2.156476e+00 2.333976e-03
<GCONST> 9.006552e+01
<MIXTURE> 99 6.696178e-03
<MEAN> 25
 -5.733045e+00 9.034223e+00 5.581994e+00 3.185055e+00 9.071626e-01 -4.684942e+00 -1.934448e+00 -4.306435e+00 -3.016465e+00 -2.982732e+00 -1.499294e+00 3.335446e-02 5.030113e-01 -5.848783e-01 2.861650e-01 -4.689353e-01 -1.020626e+00 -5.542574e-01 -3.586979e-01 -1.867569e-01 -1.272911e-01 -4.336946e-02 2.114054e-01 9.680744e-02 1.033292e-02
<VARIANCE> 25
 3.325057e+01 2.493329e+01 4.399880e+01 2.838405e+01 3.110533e+01 3.109523e+01 2.372554e+01 2.765844e+01 2.447747e+01 2.766083e+01 1.776638e+01 2.599509e+01 1.945768e+00 1.714206e+00 1.279037e+00 1.874502e+00 2.339615e+00 1.786283e+00 1.465279e+00 1.612240e+00 1.499324e+00 1.407267e+00 1.139172e+00 1.235549e+00 1.293336e-03
<GCONST> 8.461788e+01
<MIXTURE> 100 4.498084e-03
<MEAN> 25
 -1.597926e+00 6.343994e+00 1.027470e+01 -7.461794e+00 -1.077970e+01 -5.074596e+00 -4.941435e+00 -9.966443e+00 -4.717859e+00 -8.532362e-01 -2.733558e+00 -2.708186e+00 2.917414e+00 -1.260329e+00 1.299509e+00 -2.186170e+00 -3.418423e+00 -7.840298e-01 -1.218713e+00 -8.192745e-01 -1.474893e+00 3.465595e-01 -1.655129e+00 -2.860738e-01 2.017017e-03
<VARIANCE> 25
 1.362568e+01 2.105523e+01 2.247288e+01 2.642245e+01 2.303044e+01 2.371632e+01 2.910301e+01 2.171989e+01 2.747464e+01 2.265847e+01 2.240513e+01 2.133489e+01 1.799380e+00 3.952647e+00 2.919195e+00 4.285260e+00 4.187040e+00 4.535909e+00 4.014306e+00 4.339947e+00 4.167820e+00 3.894979e+00 3.910052e+00 3.224155e+00 1.674351e-03
<GCONST> 9.256706e+01
<MIXTURE> 101 6.007792e-03
<MEAN> 25
 8.093406e+00 -3.486962e+00 -6.309370e+00 -6.864187e+00 8.449671e-01 -1.259990e+00 -1.058379e+01 -2.057003e+00 1.620574e+00 2.712729e+00 -2.388951e+00 -5.141458e+00 6.732094e-01 6.508585e-01 -1.456725e+00 -1.610350e+00 1.032305e+00 2.317956e+00 1.970334e-01 -1.460514e+00 -1.064701e+00 1.036746e+00 1.373123e+00 -4.152832e-01 -4.810919e-03
<VARIANCE> 25
 9.283749e+00 1.671310e+01 2.985449e+01 4.279829e+01 3.622466e+01 3.580552e+01 3.708606e+01 3.622875e+01 3.785843e+01 4.397863e+01 5.176751e+01 2.422487e+01 2.938621e-01 6.691922e-01 1.172401e+00 1.551383e+00 1.687032e+00 2.096904e+00 2.085577e+00 1.992054e+00 2.348445e+00 2.216027e+00 1.785117e+00 1.935083e+00 3.448335e-04
<GCONST> 8.364301e+01
<MIXTURE> 102 6.007792e-03
<MEAN> 25
 8.093406e+00 -3.486962e+00 -6.309370e+00 -6.864187e+00 8.449671e-01 -1.259990e+00 -1.058379e+01 -2.057003e+00 1.620574e+00 2.712729e+00 -2.388951e+00 -5.141458e+00 6.732094e-01 6.508585e-01 -1.456725e+00 -1.610350e+00 1.032305e+00 2.317956e+00 1.970334e-01 -1.460514e+00 -1.064701e+00 1.036746e+00 1.373123e+00 -4.152832e-01 -4.810919e-03
<VARIANCE> 25
 9.283749e+00 1.671310e+01 2.985449e+01 4.279829e+01 3.622466e+01 3.580552e+01 3.708606e+01 3.622875e+01 3.785843e+01 4.397863e+01 5.176751e+01 2.422487e+01 2.938621e-01 6.691922e-01 1.172401e+00 1.551383e+00 1.687032e+00 2.096904e+00 2.085577e+00 1.992054e+00 2.348445e+00 2.216027e+00 1.785117e+00 1.935083e+00 3.448335e-04
<GCONST> 8.364301e+01
<MIXTURE> 103 5.694618e-03
<MEAN> 25
 3.320653e+00 -9.101789e+00 -5.690083e+00 -3.015714e+00 -1.748536e+00 -1.876591e+00 2.507401e+00 2.574043e+00 -4.387935e+00 -8.743595e+00 -5.058078e+00 -2.579535e-02 -1.426573e-01 -1.435167e+00 -8.778892e-01 3.490056e-01 9.820311e-01 9.165255e-01 2.187258e-01 -1.285713e-01 -6.987914e-01 -9.339818e-01 -4.865421e-02 1.435107e-01 2.663428e-02
<VARIANCE> 25
 9.363760e+00 1.980280e+01 2.215740e+01 2.873461e+01 4.463729e+01 3.170346e+01 4.173844e+01 3.462782e+01 3.836633e+01 2.937848e+01 2.824220e+01 2.499447e+01 5.938141e-01 1.209945e+00 1.473625e+00 1.759522e+00 3.278194e+00 2.285724e+00 2.686270e+00 2.542196e+00 2.378383e+00 2.429650e+00 2.017161e+00 1.966363e+00 7.632325e-04
<GCONST> 8.625528e+01
<MIXTURE> 104 5.694618e-03
<MEAN> 25
 3.320653e+00 -9.101789e+00 -5.690083e+00 -3.015714e+00 -1.748536e+00 -1.876591e+00 2.507401e+00 2.574043e+00 -4.387935e+00 -8.743595e+00 -5.058078e+00 -2.579535e-02 -1.426573e-01 -1.435167e+00 -8.778892e-01 3.490056e-01 9.820311e-01 9.165255e-01 2.187258e-01 -1.285713e-01 -6.987914e-01 -9.339818e-01 -4.865421e-02 1.435107e-01 2.663428e-02
<VARIANCE> 25
 9.363760e+00 1.980280e+01 2.215740e+01 2.873461e+01 4.463729e+01 3.170346e+01 4.173844e+01 3.462782e+01 3.836633e+01 2.937848e+01 2.824220e+01 2.499447e+01 5.938141e-01 1.209945e+00 1.473625e+00 1.759522e+00 3.278194e+00 2.285724e+00 2.686270e+00 2.542196e+00 2.378383e+00 2.429650e+00 2.017161e+00 1.966363e+00 7.632325e-04
<GCONST> 8.625528e+01
<MIXTURE> 105 4.710235e-03
<MEAN> 25
 2.222314e+00 -1.323767e+00 8.244646e+00 -2.286312e+00 -1.043296e+01 -4.806410e+00 -3.615564e+00 -3.139894e-01 -3.359836e+00 -3.080570e+00 1.255558e+00 -1.234996e+00 1.215311e-02 5.530014e-02 3.673135e-02 -4.065052e-02 -1.846004e-02 2.807068e-02 2.436690e-02 2.303182e-02 -6.740185e-03 3.604490e-02 2.414747e-02 9.998320e-03 -2.875907e-03
<VARIANCE> 25
 1.189415e+01 2.596968e+01 4.319121e+01 4.106085e+01 4.326910e+01 4.755720e+01 4.224887e+01 4.380484e+01 3.684562e+01 3.833810e+01 3.933447e+01 2.788442e+01 8.477402e-02 1.914505e-01 3.351427e-01 2.959657e-01 3.742403e-01 4.452119e-01 4.835471e-01 5.298628e-01 5.113119e-01 4.265537e-01 4.322532e-01 3.762763e-01 8.856220e-05
<GCONST> 6.631045e+01
<MIXTURE> 106 4.710235e-03
<MEAN> 25
 2.222314e+00 -1.323767e+00 8.244646e+00 -2.286312e+00 -1.043296e+01 -4.806410e+00 -3.615564e+00 -3.139894e-01 -3.359836e+00 -3.080570e+00 1.255558e+00 -1.234996e+00 1.215311e-02 5.530014e-02 3.673135e-02 -4.065052e-02 -1.846004e-02 2.807068e-02 2.436690e-02 2.303182e-02 -6.740185e-03 3.604490e-02 2.414747e-02 9.998320e-03 -2.875907e-03
<VARIANCE> 25
 1.189415e+01 2.596968e+01 4.319121e+01 4.106085e+01 4.326910e+01 4.755720e+01 4.224887e+01 4.380484e+01 3.684562e+01 3.833810e+01 3.933447e+01 2.788442e+01 8.477402e-02 1.914505e-01 3.351427e-01 2.959657e-01 3.742403e-01 4.452119e-01 4.835471e-01 5.298628e-01 5.113119e-01 4.265537e-01 4.322532e-01 3.762763e-01 8.856220e-05
<GCONST> 6.631045e+01
<MIXTURE> 107 5.452374e-03
<MEAN> 25
 8.639605e+00 -2.310199e+00 -8.037666e+00 -9.559610e+00 1.964738e+00 2.957277e+00 -8.639493e+00 -4.552258e+00 -8.851178e-01 3.388306e+00 8.535714e-01 -5.073627e+00 -6.099213e-01 -7.682958e-01 8.356698e-01 1.773021e+00 2.254715e-01 -2.012205e+00 -9.211851e-01 8.486051e-01 1.767210e+00 4.686636e-02 -1.658251e+00 -8.202468e-01 -1.790694e-03
<VARIANCE> 25
 9.257258e+00 2.046649e+01 2.837751e+01 4.282018e+01 3.576546e+01 3.847374e+01 5.118213e+01 3.627732e+01 4.578923e+01 4.173733e+01 5.137417e+01 3.036855e+01 3.557484e-01 9.686639e-01 1.462123e+00 2.413852e+00 2.286534e+00 2.825428e+00 2.615382e+00 2.542116e+00 2.297574e+00 3.030819e+00 1.944851e+00 2.206336e+00 7.028318e-04
<GCONST> 8.804792e+01
<MIXTURE> 108 5.452374e-03
<MEAN> 25
 8.639605e+00 -2.310199e+00 -8.037666e+00 -9.559610e+00 1.964738e+00 2.957277e+00 -8.639493e+00 -4.552258e+00 -8.851178e-01 3.388306e+00 8.535714e-01 -5.073627e+00 -6.099213e-01 -7.682958e-01 8.356698e-01 1.773021e+00 2.254715e-01 -2.012205e+00 -9.211851e-01 8.486051e-01 1.767210e+00 4.686636e-02 -1.658251e+00 -8.202468e-01 -1.790694e-03
<VARIANCE> 25
 9.257258e+00 2.046649e+01 2.837751e+01 4.282018e+01 3.576546e+01 3.847374e+01 5.118213e+01 3.627732e+01 4.578923e+01 4.173733e+01 5.137417e+01 3.036855e+01 3.557484e-01 9.686639e-01 1.462123e+00 2.413852e+00 2.286534e+00 2.825428e+00 2.615382e+00 2.542116e+00 2.297574e+00 3.030819e+00 1.944851e+00 2.206336e+00 7.028318e-04
<GCONST> 8.804792e+01
<MIXTURE> 109 6.661064e-03
<MEAN> 25
 3.889466e+00 -9.879560e+00 -7.636456e+00 -1.450044e+00 1.500455e+00 -2.786492e-01 3.941601e-01 2.076255e+00 -2.339387e+00 -7.775256e+00 -4.835857e+00 -1.987318e-01 -5.574115e-02 -1.107738e-01 -6.199368e-02 2.271639e-01 1.832237e-01 1.675604e-01 -3.054495e-02 -5.628964e-02 -3.017833e-02 -1.286663e-01 3.109801e-01 3.863746e-02 -3.467625e-03
<VARIANCE> 25
 8.155974e+00 1.958570e+01 2.016008e+01 2.760070e+01 4.496368e+01 3.289357e+01 4.222351e+01 3.539793e+01 4.116125e+01 3.368610e+01 2.913796e+01 2.549663e+01 1.817313e-01 4.455237e-01 5.213032e-01 5.926803e-01 1.580377e+00 9.470297e-01 1.240781e+00 1.193598e+00 1.042753e+00 9.296663e-01 9.079987e-01 1.001354e+00 1.969506e-04
<GCONST> 7.424487e+01
<MIXTURE> 110 6.661064e-03
<MEAN> 25
 3.889466e+00 -9.879560e+00 -7.636456e+00 -1.450044e+00 1.500455e+00 -2.786492e-01 3.941601e-01 2.076255e+00 -2.339387e+00 -7.775256e+00 -4.835857e+00 -1.987318e-01 -5.574115e-02 -1.107738e-01 -6.199368e-02 2.271639e-01 1.832237e-01 1.675604e-01 -3.054495e-02 -5.628964e-02 -3.017833e-02 -1.286663e-01 3.109801e-01 3.863746e-02 -3.467625e-03
<VARIANCE> 25
 8.155974e+00 1.958570e+01 2.016008e+01 2.760070e+01 4.496368e+01 3.289357e+01 4.222351e+01 3.539793e+01 4.116125e+01 3.368610e+01 2.913796e+01 2.549663e+01 1.817313e-01 4.455237e-01 5.213032e-01 5.926803e-01 1.580377e+00 9.470297e-01 1.240781e+00 1.193598e+00 1.042753e+00 9.296663e-01 9.079987e-01 1.001354e+00 1.969506e-04
<GCONST> 7.424487e+01
<MIXTURE> 111 4.337247e-03
<MEAN> 25
 -1.851309e+00 -1.584867e-01 -6.843352e-01 1.375809e+00 1.039278e+00 4.810367e-01 -8.067701e-01 -1.306568e+00 -6.830676e-01 -3.550974e-01 -3.293761e-01 1.179163e+00 -2.636801e-02 1.089134e-02 -1.430068e-02 -1.146739e-01 5.395342e-03 -5.714874e-02 -1.587781e-02 -1.258370e-01 -1.710772e-01 -3.140315e-01 -3.997240e-01 -1.612429e-01 -3.666663e-04
<VARIANCE> 25
 9.630939e+00 3.702148e+00 7.496560e+00 7.075403e+00 9.812546e+00 1.545600e+01 1.360578e+01 1.606717e+01 1.148103e+01 1.220980e+01 1.183613e+01 9.664045e+00 1.023962e-01 2.071594e-01 3.696692e-01 4.283778e-01 6.750605e-01 7.925776e-01 7.876641e-01 9.653435e-01 7.931599e-01 1.107124e+00 9.438537e-01 9.120001e-01 3.056485e-05
<GCONST> 5.631236e+01
<MIXTURE> 112 4.337247e-03
<MEAN> 25
 -1.851309e+00 -1.584867e-01 -6.843352e-01 1.375809e+00 1.039278e+00 4.810367e-01 -8.067701e-01 -1.306568e+00 -6.830676e-01 -3.550974e-01 -3.293761e-01 1.179163e+00 -2.636801e-02 1.089134e-02 -1.430068e-02 -1.146739e-01 5.395342e-03 -5.714874e-02 -1.587781e-02 -1.258370e-01 -1.710772e-01 -3.140315e-01 -3.997240e-01 -1.612429e-01 -3.666663e-04
<VARIANCE> 25
 9.630939e+00 3.702148e+00 7.496560e+00 7.075403e+00 9.812546e+00 1.545600e+01 1.360578e+01 1.606717e+01 1.148103e+01 1.220980e+01 1.183613e+01 9.664045e+00 1.023962e-01 2.071594e-01 3.696692e-01 4.283778e-01 6.750605e-01 7.925776e-01 7.876641e-01 9.653435e-01 7.931599e-01 1.107124e+00 9.438537e-01 9.120001e-01 3.056485e-05
<GCONST> 5.631236e+01
<MIXTURE> 113 5.938666e-03
<MEAN> 25
 9.970241e+00 1.754982e+00 -8.769535e+00 -1.703280e+01 -1.029349e+00 5.649765e+00 -5.278839e+00 -1.465581e+00 -5.689268e+00 -4.910473e-01 2.954671e-01 -1.998226e-01 5.110024e-03 1.336731e-02 -5.991659e-02 -1.131277e-01 1.047839e-01 1.506581e-01 5.958920e-02 3.699693e-02 -5.742543e-02 -5.233681e-02 1.795972e-01 3.462466e-02 -1.408510e-03
<VARIANCE> 25
 8.916211e+00 1.637559e+01 2.976694e+01 3.435260e+01 5.271207e+01 3.390725e+01 3.967664e+01 3.910701e+01 3.737582e+01 4.636370e+01 3.627329e+01 2.841617e+01 1.219033e-01 3.205023e-01 3.160486e-01 6.309540e-01 6.128486e-01 6.531461e-01 7.760248e-01 8.456109e-01 9.587701e-01 9.056738e-01 7.239427e-01 7.133712e-01 1.247395e-04
<GCONST> 7.110889e+01
<MIXTURE> 114 5.938666e-03
<MEAN> 25
 9.970241e+00 1.754982e+00 -8.769535e+00 -1.703280e+01 -1.029349e+00 5.649765e+00 -5.278839e+00 -1.465581e+00 -5.689268e+00 -4.910473e-01 2.954671e-01 -1.998226e-01 5.110024e-03 1.336731e-02 -5.991659e-02 -1.131277e-01 1.047839e-01 1.506581e-01 5.958920e-02 3.699693e-02 -5.742543e-02 -5.233681e-02 1.795972e-01 3.462466e-02 -1.408510e-03
<VARIANCE> 25
 8.916211e+00 1.637559e+01 2.976694e+01 3.435260e+01 5.271207e+01 3.390725e+01 3.967664e+01 3.910701e+01 3.737582e+01 4.636370e+01 3.627329e+01 2.841617e+01 1.219033e-01 3.205023e-01 3.160486e-01 6.309540e-01 6.128486e-01 6.531461e-01 7.760248e-01 8.456109e-01 9.587701e-01 9.056738e-01 7.239427e-01 7.133712e-01 1.247395e-04
<GCONST> 7.110889e+01
<MIXTURE> 115 2.935202e-03
<MEAN> 25
 -3.173882e+00 -3.867853e-01 -2.669742e+00 2.995279e+00 2.269787e+00 -3.151664e-01 1.410705e+00 1.108158e-01 1.025388e+00 7.548331e-02 2.005505e-01 2.376303e+00 9.188561e-03 -5.354710e-02 -1.361455e-01 -4.341636e-01 -6.795055e-01 -6.626371e-01 -5.954142e-01 -5.736068e-01 -4.127631e-01 -4.836646e-01 -3.536247e-01 1.243830e-02 3.467676e-05
<VARIANCE> 25
 1.010483e+01 9.225203e+00 1.116056e+01 1.223898e+01 1.157271e+01 1.512096e+01 1.732310e+01 2.730015e+01 1.757093e+01 1.433867e+01 1.975113e+01 1.387807e+01 1.787210e-01 3.115607e-01 4.383889e-01 5.015398e-01 5.915521e-01 7.669282e-01 9.632381e-01 1.110071e+00 9.304590e-01 9.025297e-01 9.605538e-01 9.775147e-01 1.178266e-06
<GCONST> 5.884998e+01
<MIXTURE> 116 2.935202e-03
<MEAN> 25
 -3.173882e+00 -3.867853e-01 -2.669742e+00 2.995279e+00 2.269787e+00 -3.151664e-01 1.410705e+00 1.108158e-01 1.025388e+00 7.548331e-02 2.005505e-01 2.376303e+00 9.188561e-03 -5.354710e-02 -1.361455e-01 -4.341636e-01 -6.795055e-01 -6.626371e-01 -5.954142e-01 -5.736068e-01 -4.127631e-01 -4.836646e-01 -3.536247e-01 1.243830e-02 3.467676e-05
<VARIANCE> 25
 1.010483e+01 9.225203e+00 1.116056e+01 1.223898e+01 1.157271e+01 1.512096e+01 1.732310e+01 2.730015e+01 1.757093e+01 1.433867e+01 1.975113e+01 1.387807e+01 1.787210e-01 3.115607e-01 4.383889e-01 5.015398e-01 5.915521e-01 7.669282e-01 9.632381e-01 1.110071e+00 9.304590e-01 9.025297e-01 9.605538e-01 9.775147e-01 1.178266e-06
<GCONST> 5.884998e+01
<MIXTURE> 117 6.506003e-03
<MEAN> 25
 -4.636534e+00 1.117157e+00 1.050625e+00 9.747133e+00 6.256321e+00 6.255106e+00 6.455043e+00 5.035662e+00 6.385844e+00 4.932522e+00 6.361932e+00 2.706910e+00 -7.427932e-02 -2.342408e-01 -3.578440e-01 -4.187551e-01 -3.671209e-01 -3.020098e-01 -2.868906e-01 -3.310572e-01 -3.916362e-01 -3.685502e-01 -2.616599e-01 -1.153598e-01 -8.860310e-06
<VARIANCE> 25
 7.220586e+00 8.742132e+00 9.806093e+00 1.437665e+01 1.561408e+01 1.533900e+01 1.774519e+01 1.805936e+01 1.639016e+01 1.637663e+01 1.675038e+01 1.473962e+01 2.168227e-01 3.071557e-01 4.259724e-01 6.175427e-01 8.531213e-01 1.054833e+00 1.176698e+00 1.231830e+00 1.223534e+00 1.194167e+00 1.167730e+00 1.112507e+00 1.000594e-06
<GCONST> 6.043771e+01
<MIXTURE> 118 6.506003e-03
<MEAN> 25
 -4.636534e+00 1.117157e+00 1.050625e+00 9.747133e+00 6.256321e+00 6.255106e+00 6.455043e+00 5.035662e+00 6.385844e+00 4.932522e+00 6.361932e+00 2.706910e+00 -7.427932e-02 -2.342408e-01 -3.578440e-01 -4.187551e-01 -3.671209e-01 -3.020098e-01 -2.868906e-01 -3.310572e-01 -3.916362e-01 -3.685502e-01 -2.616599e-01 -1.153598e-01 -8.860310e-06
<VARIANCE> 25
 7.220586e+00 8.742132e+00 9.806093e+00 1.437665e+01 1.561408e+01 1.533900e+01 1.774519e+01 1.805936e+01 1.639016e+01 1.637663e+01 1.675038e+01 1.473962e+01 2.168227e-01 3.071557e-01 4.259724e-01 6.175427e-01 8.531213e-01 1.054833e+00 1.176698e+00 1.231830e+00 1.223534e+00 1.194167e+00 1.167730e+00 1.112507e+00 1.000594e-06
<GCONST> 6.043771e+01
<MIXTURE> 119 4.297961e-03
<MEAN> 25
 -4.675100e+00 -7.175691e+00 2.088281e+00 1.786136e+00 1.980161e+00 1.088872e-01 5.063838e+00 5.872434e+00 1.067274e+00 9.151525e-01 6.405714e+00 1.489591e+00 -5.676041e-02 -7.780112e-02 2.634748e-02 -5.959245e-02 -1.225623e-01 -1.728887e-01 -1.017592e-01 -2.052233e-02 -9.160496e-02 -9.075013e-02 -5.559336e-02 -7.422790e-02 1.064427e-03
<VARIANCE> 25
 1.113025e+01 1.142135e+01 1.626637e+01 1.926617e+01 2.295045e+01 2.210866e+01 2.469284e+01 2.705272e+01 2.350055e+01 2.682369e+01 1.992332e+01 1.940317e+01 1.633485e-01 2.892849e-01 4.694941e-01 6.141637e-01 7.858088e-01 1.007500e+00 1.115829e+00 1.304707e+00 1.260050e+00 1.227929e+00 1.245798e+00 1.070402e+00 2.292828e-04
<GCONST> 6.986671e+01
<MIXTURE> 120 4.297961e-03
<MEAN> 25
 -4.675100e+00 -7.175691e+00 2.088281e+00 1.786136e+00 1.980161e+00 1.088872e-01 5.063838e+00 5.872434e+00 1.067274e+00 9.151525e-01 6.405714e+00 1.489591e+00 -5.676041e-02 -7.780112e-02 2.634748e-02 -5.959245e-02 -1.225623e-01 -1.728887e-01 -1.017592e-01 -2.052233e-02 -9.160496e-02 -9.075013e-02 -5.559336e-02 -7.422790e-02 1.064427e-03
<VARIANCE> 25
 1.113025e+01 1.142135e+01 1.626637e+01 1.926617e+01 2.295045e+01 2.210866e+01 2.469284e+01 2.705272e+01 2.350055e+01 2.682369e+01 1.992332e+01 1.940317e+01 1.633485e-01 2.892849e-01 4.694941e-01 6.141637e-01 7.858088e-01 1.007500e+00 1.115829e+00 1.304707e+00 1.260050e+00 1.227929e+00 1.245798e+00 1.070402e+00 2.292828e-04
<GCONST> 6.986671e+01
<MIXTURE> 121 4.567511e-03
<MEAN> 25
 1.986432e-01 -2.437492e+00 5.028522e+00 -1.257938e+01 -1.236402e+01 -1.758616e+00 8.112819e-01 -4.895589e+00 -4.082873e+00 -6.624645e-01 -5.435346e+00 -4.214975e+00 3.468500e-02 1.476536e-01 -1.035761e-02 8.015429e-02 1.513913e-01 3.747063e-02 -9.567052e-02 -2.512524e-01 -2.725414e-01 -2.550716e-01 -9.240983e-02 5.549490e-03 -7.488899e-03
<VARIANCE> 25
 7.542665e+00 1.529341e+01 1.714994e+01 2.258122e+01 2.581926e+01 2.865482e+01 2.980187e+01 2.524862e+01 3.457790e+01 2.857417e+01 1.943782e+01 2.074132e+01 1.579918e-01 6.363480e-01 6.515108e-01 6.961733e-01 7.553726e-01 1.207036e+00 1.104316e+00 1.242557e+00 1.187428e+00 1.170285e+00 9.465623e-01 8.474609e-01 2.058600e-04
<GCONST> 7.153538e+01
<MIXTURE> 122 4.567511e-03
<MEAN> 25
 1.986432e-01 -2.437492e+00 5.028522e+00 -1.257938e+01 -1.236402e+01 -1.758616e+00 8.112819e-01 -4.895589e+00 -4.082873e+00 -6.624645e-01 -5.435346e+00 -4.214975e+00 3.468500e-02 1.476536e-01 -1.035761e-02 8.015429e-02 1.513913e-01 3.747063e-02 -9.567052e-02 -2.512524e-01 -2.725414e-01 -2.550716e-01 -9.240983e-02 5.549490e-03 -7.488899e-03
<VARIANCE> 25
 7.542665e+00 1.529341e+01 1.714994e+01 2.258122e+01 2.581926e+01 2.865482e+01 2.980187e+01 2.524862e+01 3.457790e+01 2.857417e+01 1.943782e+01 2.074132e+01 1.579918e-01 6.363480e-01 6.515108e-01 6.961733e-01 7.553726e-01 1.207036e+00 1.104316e+00 1.242557e+00 1.187428e+00 1.170285e+00 9.465623e-01 8.474609e-01 2.058600e-04
<GCONST> 7.153538e+01
<MIXTURE> 123 4.393044e-03
<MEAN> 25
 -2.431099e+00 1.337455e+00 -2.660533e-02 3.707646e+00 3.848258e+00 2.153282e+00 2.120346e+00 -4.596820e-01 2.857256e-01 -3.706966e-01 -4.243693e-01 1.478245e-01 -3.329923e-01 -6.495154e-01 -7.618144e-01 -4.708970e-01 -2.151354e-01 1.811478e-01 2.175549e-01 6.825449e-01 6.306352e-01 9.484798e-01 1.037721e+00 2.449425e-01 -2.963213e-03
<VARIANCE> 25
 1.059022e+01 8.612518e+00 1.031537e+01 1.370159e+01 1.813235e+01 1.837439e+01 1.845094e+01 1.682415e+01 1.739894e+01 1.466377e+01 1.629763e+01 1.455579e+01 3.235956e-01 2.972104e-01 3.911440e-01 6.537189e-01 7.091448e-01 1.129857e+00 1.128850e+00 1.058463e+00 1.023391e+00 1.221093e+00 1.424940e+00 1.487110e+00 1.143058e-04
<GCONST> 6.611688e+01
<MIXTURE> 124 4.069876e-03
<MEAN> 25
 -6.366780e+00 -1.162845e+00 -2.883183e+00 5.008642e+00 4.884000e+00 3.361023e+00 5.275825e+00 2.479417e+00 3.136389e+00 1.247435e+00 1.059744e+00 2.938549e+00 -2.079083e-01 -3.189864e-01 -3.620628e-01 -2.160736e-01 1.368000e-01 5.220776e-01 8.025708e-01 8.594349e-01 6.400585e-01 3.223200e-01 8.631765e-02 -4.437332e-02 4.352171e-06
<VARIANCE> 25
 1.237976e+01 6.941019e+00 1.095367e+01 1.251742e+01 1.236579e+01 1.944522e+01 1.588069e+01 1.710564e+01 1.558036e+01 1.616728e+01 1.909505e+01 1.455131e+01 1.077482e-01 1.694046e-01 2.702376e-01 4.186421e-01 5.889502e-01 7.064965e-01 7.526683e-01 8.093425e-01 9.139277e-01 1.013023e+00 1.036330e+00 1.014985e+00 1.857801e-05
<GCONST> 5.908923e+01
<MIXTURE> 125 4.069876e-03
<MEAN> 25
 -6.366780e+00 -1.162845e+00 -2.883183e+00 5.008642e+00 4.884000e+00 3.361023e+00 5.275825e+00 2.479417e+00 3.136389e+00 1.247435e+00 1.059744e+00 2.938549e+00 -2.079083e-01 -3.189864e-01 -3.620628e-01 -2.160736e-01 1.368000e-01 5.220776e-01 8.025708e-01 8.594349e-01 6.400585e-01 3.223200e-01 8.631765e-02 -4.437332e-02 4.352171e-06
<VARIANCE> 25
 1.237976e+01 6.941019e+00 1.095367e+01 1.251742e+01 1.236579e+01 1.944522e+01 1.588069e+01 1.710564e+01 1.558036e+01 1.616728e+01 1.909505e+01 1.455131e+01 1.077482e-01 1.694046e-01 2.702376e-01 4.186421e-01 5.889502e-01 7.064965e-01 7.526683e-01 8.093425e-01 9.139277e-01 1.013023e+00 1.036330e+00 1.014985e+00 1.857801e-05
<GCONST> 5.908923e+01
<MIXTURE> 126 2.402244e-03
<MEAN> 25
 -3.504337e+00 -6.571739e+00 -5.031951e+00 2.142783e+00 3.790663e+00 -3.102143e+00 4.380048e-02 3.529968e+00 3.143857e+00 -2.710555e+00 -1.297295e+00 2.815530e+00 -1.929248e-04 -1.294039e-02 -4.193725e-02 -1.620498e-01 -3.146946e-01 -4.140785e-01 -2.845052e-01 -1.867029e-01 -1.079433e-01 -1.233554e-01 -1.061738e-01 -2.061577e-02 -1.587758e-03
<VARIANCE> 25
 8.410057e+00 1.385796e+01 1.394571e+01 1.482165e+01 2.687923e+01 2.308111e+01 2.231477e+01 2.877001e+01 3.048452e+01 2.513860e+01 2.107716e+01 1.932891e+01 1.772706e-01 3.483176e-01 4.754780e-01 5.576593e-01 7.327946e-01 1.014168e+00 1.196080e+00 1.391415e+00 1.304839e+00 1.305776e+00 1.217277e+00 1.132995e+00 2.095864e-04
<GCONST> 7.006722e+01
<MIXTURE> 127 2.402244e-03
<MEAN> 25
 -3.504337e+00 -6.571739e+00 -5.031951e+00 2.142783e+00 3.790663e+00 -3.102143e+00 4.380048e-02 3.529968e+00 3.143857e+00 -2.710555e+00 -1.297295e+00 2.815530e+00 -1.929248e-04 -1.294039e-02 -4.193725e-02 -1.620498e-01 -3.146946e-01 -4.140785e-01 -2.845052e-01 -1.867029e-01 -1.079433e-01 -1.233554e-01 -1.061738e-01 -2.061577e-02 -1.587758e-03
<VARIANCE> 25
 8.410057e+00 1.385796e+01 1.394571e+01 1.482165e+01 2.687923e+01 2.308111e+01 2.231477e+01 2.877001e+01 3.048452e+01 2.513860e+01 2.107716e+01 1.932891e+01 1.772706e-01 3.483176e-01 4.754780e-01 5.576593e-01 7.327946e-01 1.014168e+00 1.196080e+00 1.391415e+00 1.304839e+00 1.305776e+00 1.217277e+00 1.132995e+00 2.095864e-04
<GCONST> 7.006722e+01
<MIXTURE> 128 3.790457e-03
<MEAN> 25
 -3.690724e+00 1.569911e+00 -1.548593e-01 6.212317e+00 3.407061e+00 1.795767e+00 3.250574e+00 2.243068e+00 3.896408e+00 3.628207e+00 3.541698e+00 3.340863e+00 -3.889900e-01 -1.470013e-01 8.372281e-02 7.470641e-01 1.150872e+00 1.090985e+00 6.999342e-01 7.152316e-02 -4.250827e-01 -7.557620e-01 -6.749907e-01 -4.041289e-01 3.844115e-05
<VARIANCE> 25
 1.068616e+01 1.115069e+01 1.490607e+01 2.066479e+01 2.024766e+01 2.029875e+01 2.523534e+01 2.406049e+01 2.569553e+01 2.379682e+01 2.639999e+01 1.802630e+01 8.749989e-01 1.170514e+00 1.371242e+00 1.499795e+00 1.526988e+00 1.810687e+00 2.214019e+00 2.472576e+00 2.082129e+00 1.806126e+00 1.730199e+00 1.685385e+00 1.176831e-06
<GCONST> 7.367020e+01
<TRANSP> 3
 0.000000e+00 1.000000e+00 0.000000e+00
 0.000000e+00 9.999990e-01 9.999998e-07
 0.000000e+00 0.000000e+00 0.000000e+00
<ENDHMM>
